Freq_12,Freq_30,Freq_50,Freq_80
7.853397406719283,-8.657576540079928,-6.558051191204113,-19.182706904002057
3.350368131301863,-8.35074019842887,-13.670400715547908,-14.02513009124582
11.125453002546362,0.8032596035564357,-10.315363881870525,-14.157678584083847
12.114126681495254,-8.330545070655544,-17.93988352041766,-12.991533540066278
5.314482551917744,-2.890283052936081,-6.4537864848113955,-19.831022007804858
2.1335407379421456,-6.550418534375176,-19.18375339696989,-10.186726401791315
9.231526656942668,-1.945234801659327,-13.80206804339362,-31.182172907382007
-0.23550939084320577,-3.2475825404588528,-9.13703038798195,-25.253235154140718
4.878387812811879,-10.06752895073383,-17.803255297846555,-17.30210574023998
2.519351451860202,-9.48058835866176,-19.789412391579532,-34.075159354147075
2.7699845349278607,-1.5606512854019825,-5.546260573769688,-17.599753768346236
-0.03817798042741227,-5.964836075081514,-9.209945672229622,-21.78483956018145
2.5189457000305886,-6.95088360102541,-3.53053380338034,-12.505925917051437
3.121824047268426,-0.44298073542180916,-21.95071503495329,-7.4870927861735
7.1184801302525,-4.714027625505736,-10.943043306333722,-23.624319205369456
3.351350434092949,-9.637717037105144,-9.540205711473261,-12.029194402049589
0.3585395261199986,-2.204570972435224,-23.34377760509564,-10.035678597897203
-1.6820615255281623,-2.31930218994246,-12.53063584377367,-12.981613340242895
10.78354451828653,-3.207388261893438,-12.356145864303326,-14.436680342897336
-5.834793114477776,-3.8988561350255195,-6.10141166008734,-4.9155866167700655
2.6482940969220796,-5.25466630646314,-5.370305291115052,-12.66748244415756
0.15466906124585744,-1.3021983923900051,-11.173732428409883,-8.789615878004668
4.605309111113553,-2.513894306255549,-10.101852048399904,-12.624719446592074
3.3005776443754975,-8.951605535118565,-27.033556191215176,-6.108931364076051
10.105520658717273,-1.0771286711129195,-8.759737865325176,-20.910218828906526
10.198549925332362,-10.046633757100789,-17.71432176122945,-23.631441079811694
6.229204169677127,-2.2886676844063687,-12.942378860507446,-7.729687995863133
7.513901008049541,1.3934694903199545,-19.31209017715271,-15.521733667485066
6.430385537578193,-11.135499127144612,-3.1531928588929095,-14.748875814448862
8.205686202534533,-6.825054658759912,-10.38358231514697,-21.834601205029063
8.500784138487486,-3.2795350422549903,-11.964850515240185,-18.03868936549292
3.0737469188495714,-5.494535680182766,-1.9152311973636795,-12.741806919296073
-6.147126654254022,-13.791243284909104,-22.17529630640297,-26.266978480491893
-5.614507479132543,-6.667126284626722,-9.72407132803096,-8.567524358342565
9.45882804340091,-7.627894946595415,-13.45250942083202,-11.804689642218563
-1.2844102613538304,-3.519341346589471,-7.799150963632345,-13.438880684385893
7.154344895628362,-9.02301149855048,-26.58312537082398,-12.676374026139175
-8.865024404987793,-10.657045899794097,-11.30801724766382,-7.167586888822193
3.7143176505215476,-4.988807242903867,-6.596285798959521,-17.155463626121254
4.0734717062435255,-2.9726563393459124,-18.85659900985305,-21.66423260452299
0.978212752533925,-0.805609490610097,-12.24671088991059,-18.04585355259125
7.183239913125585,-10.276845908717217,-9.380521596941621,-14.693840327647845
-4.183977489503112,-9.199917475757742,-18.224984090809563,-12.984232647533034
3.816501525145123,-30.041696086806947,-13.081865891412415,-13.397017204292151
-14.87019109283927,4.087526023864051,-8.670848236578633,-9.675518328130092
-3.0291568178432504,-7.975579812484455,-8.609772542750163,-17.98195434522973
8.200301572105179,-5.881030351877465,-5.748860375718499,-13.103678817741798
10.624228766507468,-1.2972304444587723,-16.36449017567078,-9.857578910857178
10.293745945718168,-5.783326655577252,-14.476958380576905,-10.100902497770573
-15.75981746903637,-3.1447138637182808,-24.956918851187716,-10.533733452157037
6.47957331963515,-2.930999123830578,-9.055295713507855,-11.013598792004675
6.348982275138651,-8.204569541511919,-17.527122804340074,-7.038328120999429
-0.35078512467187695,-1.3767099655981014,-8.983784723012871,-14.478887441334184
9.249152125831957,-1.3845853378927084,-5.183397970510349,-18.676947926730694
5.2281074510721215,-7.136600388158442,-6.756029884795362,-13.187934666647962
1.6841910119448256,-13.583045228975312,-14.506934647262854,-10.093837941113858
9.290223272233302,-16.3182980255916,-7.323621418636623,-13.976354091856365
3.9410066888502335,-17.226001372071796,-7.615029161237434,-11.281659497138792
11.427444152909473,-2.9075905026998723,-12.662974241216466,-14.826878438343432
2.0348182414367972,-9.484953799100072,-6.639593130864339,-16.83501978686296
4.0557716955266265,-11.195751929640922,-12.74900309552451,-21.843765966684582
3.922670584184918,-18.71401261982095,-13.989800549106052,-11.198224682924108
-5.773060282281396,-3.21294835627458,-6.514250166497945,-5.919132850190426
8.750761270172273,-9.554460085244067,-10.655627020527932,-9.99238930032341
4.921813900633326,0.6450459227248091,-1.9455265242199262,-11.53879289216471
9.594939551560795,-4.140094490935336,-9.456422338422598,-15.684952276954807
8.424853002188566,-5.7743655328984005,-7.261040471485352,-11.500489929340642
-0.4964551775208994,-28.567971602281354,-6.953211761700693,-13.316458079533646
-0.7194355400792469,-9.155729155994834,-21.248421193619187,-12.46036071280409
6.004222450398331,-6.49461963532633,-5.534568080556516,-9.265412076872465
7.847079797795797,-4.020018060547466,-24.90511669926098,-24.802800296937885
7.8875735684354575,-6.459173805176336,-8.29095035140903,-15.031356554758013
-6.52525595534661,-12.89440103768679,-3.9957342458905405,-10.924009969204455
8.098905421822927,-2.726119602527794,-11.322618298124087,-24.379106900777202
4.775098233877303,-14.091026052752781,-15.897137262260332,-8.103373803552381
6.858140379422229,1.7024784795968968,-5.350548770158563,-13.395343756968174
1.4009970837498653,-5.035970637776931,-7.829356121760322,-12.492222582975238
3.452794964802362,-5.0464624481149425,-5.228192422828988,-13.220723132498541
-2.867213234106928,-6.644391991792148,-15.15768345054814,-14.248144352507293
4.5438012774074545,-14.795997723966558,-6.64090372439456,-6.425007320617938
1.626114839772483,-6.0258141351297905,-19.32809178583129,-25.29935400156319
4.9584448928373845,-6.2259554545716735,-8.607149646290386,-12.388129812125149
-0.5772521794994026,-1.3661156147780704,-1.639864112891864,-20.08390622767295
2.278092327345632,-8.138243457464565,-7.235386876428425,-10.313995052932576
3.4153294807143144,-4.057707324031016,-20.479074970884888,-8.357119646743477
4.155804408952805,-5.955970092701799,-4.482586069312311,-11.521828679733904
11.837759503310531,-2.1453710025964763,-29.557054094796563,-9.623413914084407
0.4875585046917932,-8.30250599875338,-18.58860208845308,-11.898645292076925
5.374541609364213,-9.265043526170992,-8.528298584445963,-18.231410186092067
-12.592230448778649,1.0096619530107378,-19.34943962422374,-11.328224767813744
2.7415486456851315,-5.99629381944786,-23.813652749637477,-14.028578539485668
1.6873757560857658,-1.8537165019765252,-12.844627455300373,-14.095585273730666
5.862547980909161,-0.5815903302811871,-13.354422163984554,-13.364217253145437
-7.261054604984784,0.5903840500429971,-5.376311455214159,-26.055533495315398
7.730075287447183,-1.0327724045256752,-8.018665275028116,-8.31159529778843
5.575515671887827,-3.78775603095137,-8.168548079104161,-17.72169839312166
3.007709980729465,-0.3089755914085761,-9.041472383196998,-17.844343378510217
-14.711796640453077,-12.093800543056766,-14.610349936528968,-19.47958459086474
0.8957080708333813,-5.082642859707811,-7.283868897911722,-10.451095362795481
4.669416293781877,-19.670276681904657,-6.394772746960548,-8.924627911896293
-8.172487747022448,-3.9434320064320434,-13.381189294681784,-10.254289119096178
-0.07840310252389493,-9.65392025788658,-11.40366002797972,-13.541296472633224
-1.9694700868022297,-9.438038373197053,-4.7147918778216855,-7.844026843082485
6.17577995696623,-14.625703451697543,-0.44884650888727506,-18.18032815647332
-11.866612783131995,0.1700531576909241,-8.563349773091241,-9.785026382886587
4.271633527022109,-4.442681922708685,-27.32837942040308,-13.341162256747129
4.253999300622199,-3.9163745951083793,-8.361853942917437,-25.854661217067022
0.940369920564172,-3.1891950130327644,-9.71962454360324,-31.161307280527925
-2.4963140548065734,-5.706946346649993,-21.733356799400028,-16.265475527452242
6.159812201106211,-5.248046768800844,-15.647293605320487,-13.783436997359317
10.315462719561733,-5.407644284120167,-4.5727781795515146,-17.42823832660751
11.627377886035605,-5.913593453610767,-10.45271786812826,-13.935822789916294
9.423617685856046,-15.269427023939265,-15.655566503078353,-27.90521396998889
-3.085715409589646,-9.93194965899708,-11.373593484958072,-18.574336966139516
-11.679887824131331,-5.049205920008083,-6.145712487750725,-15.877947430904037
-8.667272793212414,-6.477897348725149,-22.045871576836127,-13.760674857335044
6.221490225216699,-0.7333379839342404,-10.347110082584114,-13.434507562343242
1.1899356294326955,-17.111968979319766,-4.9751039827386005,-17.742751069034977
3.241411732560615,-6.4472729031977405,-4.57980530944864,-18.693500718310084
5.2166609903387595,-10.546779679282006,-0.6324848424287128,-19.887750896111157
6.461565122609925,-4.774812548812639,-10.699767049509587,-24.309612729118058
6.833511392003436,-8.195424965315944,-6.5100605103102875,-10.397651478264788
13.498711019387242,-0.4814731646945738,-12.41952783644507,-11.29844407421962
8.060008158176199,-14.62193374017711,-6.683784101231099,-14.520491072464992
9.54678064077185,-8.219383810843802,-10.46557474767683,-14.89606950384491
2.132763903757743,0.3586117181902009,-34.20896688157515,-5.7650924378476045
6.430287128705643,-3.3293376893642983,-6.160703666771136,-9.93638658363357
10.682493248806198,-15.677740658268494,-3.1522513423942353,-11.383472423421475
-1.2316859463862269,-4.574043084675717,-6.504623237112252,-13.123095193648307
2.9555976024553905,-10.28011803106633,-11.072692794163608,-8.974848963154898
10.588266544033782,-19.21597265127422,-10.214393986953027,-13.854992074742722
10.540446697062622,-9.344945270846637,-15.639603891501624,-9.789044047487934
4.185549137340669,-6.4188990070637715,-9.77797934283035,-23.720600048078918
3.7659947288339755,-6.629211997520889,-8.471248369926954,-13.715357758943185
9.66013019130426,-3.0493865675730008,-7.273119163717823,-13.745862116599323
3.4998809891989047,-5.347215500207687,-2.810462496921618,-8.508048602075165
6.3621558983733255,-6.500625931636325,-14.691074334997415,-16.196079005275315
6.546018631040758,-18.22054950553602,-10.986515094483773,-9.134010115180935
5.59931354776934,-0.7923971107371739,-15.909094863823578,-14.635639238226744
10.667737147922558,-12.672225174119491,-15.488001143296275,-36.10535964481282
5.351158481408935,-14.617846948926871,-6.7925271363254485,-15.866963119600726
7.88691754611827,-2.8242261624550173,-22.870241941717474,-15.461235200687142
-1.1178907984290074,-15.86535102148271,-17.16424251462397,-14.36533329541918
8.592963406470243,-4.429669409240606,-11.70666169260268,-17.674331546089586
0.8988930535751805,-3.571768938576113,-4.993548078562561,-17.820325766659582
5.961217388211227,-4.647770119278334,-15.093074067222188,-31.508508704814712
7.516805158586947,-10.271410471273887,-8.877506096103284,-17.39003420029763
5.784247091424259,-1.5603655790925672,-9.580171441318182,-11.594817910092422
2.0877275848817805,-1.3570036374300583,-13.036452826416253,-10.568680580586053
8.837495085947225,-5.773238051335232,-3.2124730858121087,-10.26539781937459
3.3537220087420962,-2.179644210973598,-6.867688853192725,-9.314254872722351
2.1645224964542686,-6.902571607003722,-2.915537280827208,-19.77665257996245
3.203544053336518,-11.055017089315541,-17.96060202215547,-21.48147007259202
8.996679607736832,-11.995262272689919,-14.14333522523726,-9.512379631790694
4.062440058413019,-7.003370621119181,-9.530626896353828,-10.766470575154115
11.244438304572737,-10.85493537011589,-5.113817433176228,-22.43121365231144
-2.9953251937447245,-3.0160044540691913,-5.222620588793417,-20.882359927893734
5.918703343248351,-9.86375178217208,-8.962199720239754,-17.394790055318982
8.599805439484301,-10.373835593913354,-7.44195336158972,-9.736969193363656
10.558642444600167,-0.030313501822870403,-9.010943183447145,-7.119190747343721
5.904667100235864,-6.678393847307461,-10.374053292770325,-7.721744268017295
-1.8910569959459211,-1.326430030621784,-6.302162995228926,-12.920266564256053
11.807843972276912,1.2246436144423827,-3.929280424472749,-22.49091633849527
6.711191347684145,-5.405209554178045,-12.917423398017968,-10.668362500880214
5.097035234880806,-4.645148277226115,-12.911965787471361,-19.946193508423235
6.775357386682552,-13.050406028782785,-18.927901288376688,-12.291450798687695
1.094126840733141,-8.372139308950374,-11.67593534042459,-9.817150072510772
-3.9332860705429162,-7.380873755610452,-12.693190865212783,-22.534121617829395
3.5836567667903045,-3.1465546859878164,-12.980921313434207,-13.84298494169672
6.322400187163845,-0.5621610144533578,-6.42355560767386,-8.622830450841924
4.8908755181024715,-3.440261294041725,-7.522995407469049,-9.860090506535439
4.827860490303707,-13.831534902288553,-12.4144759742791,-11.569345130545434
9.078452493178435,-7.5520261331941505,-4.938522861927163,-12.112139115824789
3.3907388327084984,-0.36131915346571075,-11.082592054972382,-7.88727326326997
5.212839998914648,-6.063667584350348,-3.878859035257074,-4.552184261882955
4.936245717402366,-11.016984738876596,-18.69273858576849,-18.282675699779016
8.018088747781572,-10.478236567149317,-12.544718963269268,-7.0230386942677185
9.742074470013279,-13.386199576533837,-4.336803403568929,-22.27768514473063
10.883758100099978,-8.93825070609039,-26.348405682535684,-14.82054057180273
-0.8047741918353277,-4.12655865003784,-10.005921874864173,-13.839813101707591
8.904222257465985,-5.312968291191783,-7.760666702523984,-15.248489212962166
1.878949065068243,-11.940138613459277,-10.463490310656132,-8.9950688765939
1.80903774630942,-4.025105076778857,-7.30871018363562,-16.094246937073986
8.377608763721252,-2.9934934462127045,-6.93353867529291,-16.585994914117187
7.630663443073874,-6.884994371149062,-16.09873055642563,-10.377891523450566
-0.10241920596773957,-18.159474596792197,-5.196444920016592,-18.183690962475175
10.177813286894997,-8.776379656716353,-7.765144256268796,-30.485955215552384
-1.6387836023971891,-5.084777901169495,-9.09370353243886,-10.971902600385553
9.573376741226433,-1.4535392496219637,-7.674386014329469,-15.499537198060125
8.28624289548187,-3.3730102501798256,-2.7774301240363073,-22.43849148098896
2.4152029543641786,-12.749954197188496,-11.803096682578188,-10.31393086071239
7.065251430764353,2.3838187677665483,-21.2304883226969,-11.044885836871936
0.09879185182635908,-8.168762920074414,-4.421618395227491,-25.125468838104993
1.2327286197558105,-9.412148377328222,-18.989663288359814,-20.68381989776617
6.195989179243439,-11.721208151859381,-5.735324251277518,-13.578624726990231
10.875218700821351,-3.955568113509122,-9.588414102206455,-13.460569630679693
-0.10246824375338015,-8.653632921970313,-9.697896962267023,-14.108006296062989
-2.4627740964155853,-2.581786987732547,-5.087148443344274,-6.527548032075167
7.616917648384767,0.8683178308835391,-2.775810073339116,-7.920026821287536
6.75498445268171,-15.030449305779442,-2.645193201806161,-25.155856974967502
7.478274778926512,-2.2210020226378284,-10.450995828782025,-13.332416185786325
10.972219587872043,-28.49801330994842,-9.76378930517381,-12.71923058435056
6.056044027292142,-5.239213233465858,-11.157785536476618,-11.42524185907997
11.357357657479406,-13.273965777677404,-13.957127634595961,-16.466291535487812
6.236117196764347,-9.904739838327172,-11.113514798588797,-10.530246568312949
9.342032718937046,-1.8415867549825342,-10.773116218573408,-10.836794335893511
6.452636530172143,-12.701724883045681,-6.058955674442247,-24.59308730830863
9.002184346544052,-4.637573592752533,-5.263191668379694,-16.60665328472175
12.881154967243521,-3.788635143201143,-5.845450701327634,-10.273769913349875
8.702731534448493,-7.212002798162109,-1.658129747533014,-19.50746646386067
2.627344728145634,-2.6826522248772267,-10.771773479478869,-9.29875916709563
9.41367492102017,-3.7048200024977684,-6.171738562845469,-14.284692491851757
5.385002209315955,-0.708871189289344,-12.652813624127806,-13.466050677847377
8.10583019568555,-3.2822026146498255,-3.790910010729717,-9.937748321262816
10.939271635972839,-2.5302348041106018,-5.509142088934555,-6.458781491244597
-1.8684336950634437,-8.535171639888928,-9.712953029065014,-10.546395587502678
-16.25959212822081,-5.097059255761129,-8.23187387184671,-14.002388679975212
-4.503737374925338,-4.770048021755766,-4.032608645782762,-21.872657038402107
10.691473934360484,-16.107807491316134,-4.633514815625657,-14.494665943918136
6.71360991432845,0.7830585138190318,-5.1394206983960675,-25.608278100563805
2.9272740606463743,-1.4260377309105423,-15.256577841886044,-27.057139029093506
5.471714921626902,-8.41508407105417,-5.916534355302019,-15.667399664747748
13.742110461631757,-2.7715661792646418,-1.6062048238815088,-15.162875495006812
7.274020900621547,-7.490456374994242,-11.753455451439331,-13.032132103357764
-6.391077740595735,-3.446819145580624,-14.06171733722009,-27.083558307929994
0.896968344963883,-17.349826641384624,-5.235092593715542,-29.97403904196786
9.449485625357381,-1.6538589769165166,-15.918571234108713,-8.00064774244827
7.118746262975359,-12.231169979054688,-7.886526371459167,-18.439715047659174
9.859632274949991,-4.8136240844404625,-9.470520517810364,-33.52060353678594
1.9223638663419864,-4.074886856905481,-9.355644386403357,-20.83542717998478
5.615200955569012,-25.76082398527179,-3.8698700028884527,-16.185126336371813
9.7843337219778,-3.1910501788800665,-6.717744724205728,-19.285931397504854
8.987481094666574,-23.959266997179252,-10.887130745309415,-17.053312881905942
3.7109535339323525,-5.29020904661272,-11.539560561018222,-19.025250717663738
0.1949389863359796,-11.689615534391251,-2.9073452914637894,-13.760546387443242
10.496513819542148,-7.160127997663617,-8.685541258076118,-11.937804568527849
10.863493360465505,-15.22409371292908,-6.150332566793287,-11.84080105011076
7.2119355354773615,-21.287417281479616,-14.05468251176928,-15.872204462666204
10.841333844353965,-7.81737375574763,-5.10022477493793,-8.597632598840752
-1.765124522140419,0.8663885166759089,-5.112644962196272,-7.553419605372765
9.29166746092426,-2.4238194110395637,-10.734787954705366,-7.668136738527227
3.883634835836657,-6.490831170379218,-5.63951543111844,-10.92556267620293
5.756705225813587,-8.044133399370708,-21.062224749650667,-26.049006229230752
7.5718357075559215,-10.232864938063987,-9.872418177248736,-9.1447041317359
11.750059842785832,-13.33063722605603,-13.84914207115783,-13.699756387613366
10.50000782295182,-11.832420217425677,-6.560222459827012,-11.996093361605055
5.789924684095762,-7.089882983964431,-6.764306219994181,-39.183078912231665
13.606952250121692,2.002455796650312,-15.25019721439743,-13.692377430642104
0.6493742540298486,-6.264349801540222,-4.2671691498602655,-15.674621765215814
-1.1644537898391638,-9.305039253776064,-9.858218855710929,-6.1343327843665385
9.681740812730588,-1.4388035962241932,-4.797130627748012,-10.003769907673352
6.176534688724102,-13.593922104943402,-23.10863623933539,-13.916471819533829
6.729148302728339,-7.608264333951389,-12.86306329648297,-14.44737653549144
7.569396299430746,-5.920756920601084,-4.022918322363408,-20.338466924860164
3.1305434556140974,-9.194138376955545,-5.930908086226285,-14.076005649839548
13.915807831720567,-3.3199389626609253,-4.640479485181592,-15.037652522614419
8.159811304070347,0.4190152987013458,-8.868987084353,-13.347207486631326
4.754651086926426,-0.18273689649031022,-6.720168686164124,-8.789717529413826
10.604378017916787,2.6223757731138644,-7.328444845832243,-11.860385119030585
10.088190945933487,-0.6731345366534254,-6.534345916085542,-11.49349525458993
-9.636336279154637,-4.017666988418901,-10.920497471449135,-11.867400756350623
4.33006677167138,-3.160525468273207,-4.038195206606301,-16.279785287491034
-3.788824481153487,-7.661075029347241,-12.554532383897506,-9.662472205146686
9.383035976579155,-6.758326268173846,-5.87938128462409,-13.732023099013563
10.85265768492351,-1.0011002873210075,-8.532705543200452,-8.330977888431772
7.979630445262576,-2.863071240353763,-8.83309646205283,-12.218045657862895
-17.07509060816237,-5.980127265720043,-3.912856204974858,-23.690960385093213
10.795991847411596,-5.803089930170444,-10.361299952921962,-15.230627424176681
7.419614532592829,-4.601067500653832,-24.57167672572583,-8.68172507390836
3.4592807372766585,-7.892442300225952,-8.979982962838621,-9.956762752734265
-5.522280453611669,-15.378444500686626,-7.544949285508682,-6.705858821272626
1.0525998474655567,-19.429754766139485,-8.78174456112818,-19.984398639802578
3.611030178977976,-3.7063630580935567,-12.27508588967839,-7.9698006256446785
1.7222459164070336,-8.825002726089192,-10.803805327508282,-10.77219504533497
4.08302294956864,-5.883306978491781,-5.343080538318265,-19.898652041081156
-0.42746656932334837,-1.8299157654802207,-16.646674543128768,-11.087924869019073
-6.0626440305167595,-11.164797135927003,-4.813226924023301,-9.972949833048686
2.6813555913765277,-5.9177468938537565,-23.835836141192694,-18.345057131428813
5.922176376112736,-2.458038196816845,-12.030800738255174,-8.314997061789928
5.311670669243074,-8.876635845806106,-3.497389041504544,-10.71799214241877
12.471350884173683,-8.23636544878129,-10.836374839283911,-19.07484536872306
3.167156176737235,-6.969264577108007,-8.345076087808144,-10.479751489021295
0.06475370378757894,-12.370632616274946,-4.632282198927557,-24.086457172202664
9.282278408170274,-2.9483189669536967,-16.717767173081917,-22.11558161623031
2.1397563241892605,-5.860356714254104,-4.369007050860475,-14.424151950124578
1.6011486119271345,-6.961126262917762,-8.974095114164756,-7.329129502541456
12.942619906285588,-6.750653705514388,-8.468434181085474,-12.671457909519361
12.84994004087983,-13.138206497275942,-3.774247725520903,-17.910626804321986
-2.958351844396896,-9.23916638612644,-5.220101196507743,-12.972828510940369
7.945614617647325,-2.21017372099713,-12.701438266212659,-13.532138119134348
11.797973952394354,-5.113991919534122,-13.5418385408113,-31.55155291653104
8.246567448312886,-10.014326917618131,-6.823601384296095,-17.03165827906881
2.0169030582526206,-22.231773055508842,-9.687535383961846,-8.457400160072456
7.628918360128429,-0.1289804469787872,-11.509847321087895,-9.70300390225863
9.310562210606797,-6.138041355993556,-7.5102737779886475,-16.925097242962476
16.0193706507206,-4.9059790034733215,-32.424297656754135,-6.143431239160346
9.134312983397006,-6.267463962741536,-14.43916596372952,-16.87720592203897
1.920421136546464,-8.710354880313902,-9.927865849113802,-12.346895923067855
7.226177441631478,-4.384324015186255,-9.313438752497103,-10.080868478246096
3.7706976425161542,-0.016765285878602487,-15.777559751852026,-5.411775136548176
5.509993429651704,-7.447632162676349,-1.5508750701481686,-23.714598478062438
11.629575775795265,-1.3967205390111208,-22.846709643051916,-9.884922935305106
13.506409441489602,-5.214118668846378,-4.205344057114214,-16.301220001378287
1.9945294188876335,-9.08408106031894,-20.85527413797022,-12.982708068842172
0.878212567916107,-14.019594622535124,-8.603661326520085,-26.6574271704973
1.473994916993504,-1.8329205681403153,-11.04250169343871,-31.565708671334075
6.153857760252055,-9.229583382552544,-6.274390827206091,-8.127694505413162
6.938703055857776,-6.417784443030028,-8.085561432766374,-11.493619239599099
0.840903854807908,-4.707107950016567,-5.497143950855209,-13.03607515292386
7.120064379392488,-10.772162161162095,-4.350902915877341,-19.387268521570384
12.58998101854677,-12.30516388569066,-4.188854543246773,-8.839999582939777
5.564163660483926,-5.677504116515021,-12.697922724409297,-12.199546072073638
10.017107700165306,-7.531154011290704,-9.274052992151336,-14.664446448540698
0.4933226417604981,-26.171081041525664,-10.146281337895024,-7.8709411190865595
3.9227973425940195,1.086795160822701,-2.887505720776131,-7.699942925644779
7.261436383725144,-3.2985024643194687,-10.754060557018152,-14.969207498301369
9.436269016220958,-14.424635641791102,-17.013007595896738,-12.172731026839347
4.13052255577537,-4.321006290359298,-2.908923897218287,-6.976485565520479
8.702849461618943,-8.091746791290163,-29.141250975055023,-24.067023275758995
7.328454041210984,-0.2855586035118929,-5.079660202633292,-12.31730161283839
2.26266135104356,-4.802086201036211,-15.052270979247085,-9.409332204599977
13.073800083141592,-10.4799951474408,-9.915370960536576,-8.413444039501439
5.044304734568337,-2.602254588631237,-10.452275035016491,-23.01551868070448
7.995479273219694,-2.397993571308706,-14.955396637672711,-7.477354091079205
11.63940994549785,-8.90480616351368,-9.605261808997392,-10.688040389869302
10.419424126170949,-10.398377689150282,-12.077108362246447,-12.316800491057714
0.7753988231148714,0.8836598436102499,-8.677711832417954,-9.114032901245045
5.006861329873993,-10.040896673084703,-8.244012205368398,-22.517753958351893
6.752399614351838,-10.223863200493817,-13.579505844061194,-8.940654039376806
-4.38311674958609,-5.811288526909621,-7.205353480478861,-8.675295316578895
7.2650221482621,-8.694148951387193,-9.887868065432349,-10.270294839742128
10.58474411960686,-0.8479710705770422,-10.197080528849026,-8.787780296104424
8.358964109373359,-4.050710463681618,-9.483324546134504,-6.601910730272742
2.8116272298678737,-8.63919539411103,-19.4416639834495,-13.771275007150312
-1.7442762416387927,-2.982945942183948,-6.604369006722225,-10.461233777484477
5.217747257711867,-4.296844394998283,-34.60806045603101,-9.691599349487388
-8.780038801486615,-0.48741105435082455,-12.517494286260968,-25.695879854271148
5.268425668592491,-9.80046425749444,-3.6273717527621354,-10.986651775466177
5.517869340156894,-7.898711936714555,-3.808378651970985,-11.856738126940698
-2.587523709453274,-3.2873999764133255,-13.726141418257471,-10.445751001485846
7.6081971849024095,-12.726943294086208,-7.781311914010148,-14.334124472900893
6.87259930747361,-3.3284224119765002,-11.47476694135799,-6.2825317577531266
1.5969525985578636,-24.70680018766797,-19.415541411839968,-12.98634550916356
8.824435770048947,-13.175670454541944,-23.98022777421494,-21.20054636919305
6.4795754925755356,-2.50970324305383,-18.386957013198348,-14.675193622407274
-3.157021298388382,-1.5442685949371628,-12.053431969319591,-7.019861014473008
-2.28572395943595,-5.601585797001819,-13.033066841832474,-21.207535378818918
1.2285264026778495,-6.010071406427791,-14.02714699006233,-19.653255297425993
10.254854223401306,0.21630665192600418,-8.9606919972323,-16.824066873478305
2.13788563763888,-1.8656598689645283,-15.800928843425472,-12.541490409390363
-3.3948082536384154,-15.893032863391571,-7.214369168148773,-12.552483432622417
5.513043633232102,-13.286509404865786,-12.920201703434387,-19.03626694097937
3.8613996726338136,-12.668565873948532,-6.577299493732021,-22.339191802422423
8.413984403528438,-11.873683256870873,-10.70911843132558,-18.355337378105936
10.96259003046949,1.115333228397133,-6.077603653700134,-14.863207923270586
9.169830203200062,0.3389174664383705,-13.732226766178348,-21.70284841418616
8.195885080131434,-2.3054137661270473,-10.178340976442117,-14.85283971864958
7.991929140229803,-9.74856445249068,-38.20259695346903,-9.062310972121415
-0.12185101382742491,-0.39125627014403497,-11.041516393795998,-24.840384923805583
3.116824993986357,-10.67575486566926,-16.280028942518996,-5.6569146792046965
4.1188124981882055,-5.793427285697003,-6.372319109814201,-10.859315779044133
13.734327188878469,-4.601739592282366,-14.30667443506348,-11.183540500158841
3.6931866186195323,-3.9865210255383716,-5.481666667697159,-16.29811767826441
7.545899241398581,-0.20316577310451844,-5.2505277732671605,-16.854721478440545
4.049373112063741,-2.4400079161210617,-2.035200719096908,-14.507446263533087
9.63558844104641,-9.757009766716607,-10.759837445710227,-22.791606574155743
5.2905065215347715,-7.460625035956049,-9.438371119804719,-7.063346884102449
4.565249072787564,-10.355743948377732,-7.454164337633831,-17.605106287278947
0.1764015755980326,-11.172830593365692,-7.409496116874221,-7.434925210917733
-10.935195935239454,-4.962100705842541,-3.5316676441470696,-15.8518456636566
3.5539372687317554,-13.516712951529655,-17.68808352529193,-12.481899698406208
5.0374941567900935,-1.4663685475896924,-5.319369369782999,-12.816161507828353
6.704613054806357,-9.39964257373916,-9.335033552369987,-19.29279743410265
-25.877714147162408,-4.997912215627625,-1.3893196869359103,-24.71666105516424
2.277900965281043,-16.044367026256133,-5.979921300990892,-18.98740061876755
0.029066806657837674,-4.689323475615506,-13.95354413850193,-20.0960869317885
-0.8678136878701297,-5.733265723818036,-24.25217166304183,-11.693137278897446
-2.751078532343975,-0.8187550711517679,-11.099865928074236,-9.480632011052041
8.026780637783975,-8.777505644988855,-5.380936968211529,-13.487118563176416
8.668987831016473,-8.51983223248884,-11.80241405980767,-23.825773355347792
3.0598922771246997,-2.231145131950919,-15.455307842254863,-12.97957390787887
-1.6315787653843268,-3.498194375668317,-15.66306881211778,-21.568140396696382
-1.0101050391745385,-5.394162763215272,-6.09039858795437,-31.745826058857812
-8.111046931650746,-7.07222741720331,-3.3390121208396826,-17.341155611141215
-8.685679778748716,-7.61196134988568,-10.207007047879133,-25.73938506936773
-0.28393833703677185,2.6082606212799115,-14.167783779031156,-20.97213998218557
4.916974718579464,-5.891137118192987,-15.038802061295224,-22.327472448271205
7.023509362145151,-9.08295768082038,-2.532462887288035,-13.705813430354098
-7.589026374632727,-3.8471611349094164,-1.8698650897138167,-14.83096460403905
4.194435969516155,4.0681421549966394,-8.371926796803077,-21.976845239027423
6.727095738390764,-0.690887265812655,-7.673704177204977,-10.512291921858647
6.1706671498881445,-2.8234731657165155,-14.761287963300584,-12.246676004571828
4.853091669154571,-3.054501771119742,-8.91122960124759,-13.174900351104537
-4.565241016472664,-7.515143139082191,-13.015294916852133,-13.686086921230615
8.275601156859032,-3.0118577805134286,-11.235415920083677,-37.01705101249631
13.08256265259482,-2.2052094443723305,-2.6653613719942637,-9.733552271266845
7.58621765971033,-2.9682812922828146,-10.886135590927351,-12.570825398240215
-16.21579337347355,-8.205366905232589,-13.565536281897879,-20.744583219404785
4.353893296094779,-25.659087184146173,-5.90120552976801,-18.500033733031753
5.247763520407324,-3.2810493170135078,-23.883160791683366,-11.874831969505744
-10.290422866303532,-5.702559531844251,-13.151126551917075,-10.455537201367715
9.864205522344214,-2.1886068853234115,-20.186597465480396,-25.359859989598927
11.918002210874352,-6.98544939070122,-9.618616198619732,-7.778628215520694
13.726192910167475,-0.10336181669852351,-8.125146634836156,-8.634269297013464
5.773036693695983,-2.734640184805778,-11.282656160011454,-15.207735248790257
-0.9653072610585753,-1.0650443784993144,-7.208294962033845,-21.214026045974098
0.04126415121399418,-4.529993499754461,-9.50450241901809,-10.707218748705008
11.546195658631904,-1.7345817930723482,-15.28584771337785,-19.182973744402172
11.40175770916484,-5.789116882987464,-8.276873137598065,-15.90393798436752
-1.2421563807940839,-0.8843232506380585,-5.774405797359913,-18.569341880298158
5.85331620445555,-10.998983424982839,-7.934182506574761,-25.267328883334756
-7.397106026587085,-0.8772155038960063,-14.875590432436775,-13.669024760467153
2.2456009052798587,-10.472660006379028,-15.020420626625908,-10.053681669724014
2.1428789935752564,-7.321500293361689,-7.499611676478226,-13.51060728126733
0.10425727377730798,-14.014312829971448,-10.093851100361071,-20.42605645883655
9.621310044209434,-7.771727217138221,-10.933499869898899,-13.117188380832228
10.52257213818241,-0.8693596281721439,-15.910388843779886,-11.722234365213815
7.283380426929985,-12.856442969640636,-5.353860348470352,-10.395661258004075
-4.285368343996571,-6.047613541906619,-11.34686457684577,-22.35827798858273
6.073213652728934,-7.417971123732839,-13.488036287703482,-9.700576057257088
8.41520099458847,-1.3651008218198943,-16.98234110754658,-19.801540158891562
6.228120107951058,-2.411147684182225,-11.859265692919967,-14.824278431479865
6.488909360815132,-12.735496111364828,-11.760806123695826,-18.464123724475673
5.197794871274433,-3.671508933102277,-15.584856145387016,-15.922367856775935
2.049240912216123,-4.014859449683252,-12.531304612574008,-12.215942074525925
7.870220252203839,-2.017173552671182,-1.9911158652991068,-9.861213750560642
5.8466484700749906,-12.021407902496133,-6.347202904662677,-10.691723471503863
6.7225102591970005,-2.0012937586454567,-9.368292090002294,-12.788972442746477
5.183230229392936,-3.247885227885351,-3.902219095792729,-16.93319132015892
-7.896467744505179,-12.950040706697855,-5.115954339372703,-28.97726891116068
8.044578518195243,-5.222075628536068,-31.75790232014149,-11.348013714849525
3.536258630101834,-4.72458629127388,-13.48338448889828,-10.551116153156995
5.238646204496159,-6.178480322565585,-12.40367046904761,-12.649944576019955
11.315688911915784,-2.0947575101556635,-16.13928770507804,-11.976495668530113
-3.004483400178712,-6.896416750678679,-15.004617648414376,-16.57354398608915
4.5871878989817425,-11.745102399584862,-21.133712414721792,-12.687736750408554
3.42175506052787,-0.5502751344006453,-12.54103492989503,-7.343474482438042
-0.22837442031061173,-6.222361516292953,-6.959257885088663,-12.867181034623815
5.576984111388289,-3.2878066789572444,-9.898660640207565,-15.102573524340478
10.575869323489535,-7.577181006716598,-7.814260673103911,-15.483326649154211
8.931671879157133,-4.866184618664411,-9.14330769136665,-10.762028141590932
8.24453834979737,-11.952338227137593,-5.404321776199975,-16.472075185150725
9.212824602002998,-2.082020863813687,-8.521690230163665,-12.60495893234073
1.2421226646534427,-2.628436979010367,-8.22264762359127,-13.624816847340732
11.161279599614826,-10.55543748247818,-10.384945139898482,-11.638979343024785
10.268608192992659,-4.580826537313257,-15.7142809389133,-7.164622895575903
2.7329638106671212,-11.332616584583644,-6.22374463589674,-15.176058850591165
1.0688338158894104,-1.7540070943891943,-3.383162230730562,-13.88943399136107
2.931509579819271,-8.669312190602943,-8.051751962733533,-11.431252579337311
6.176483157878858,-4.683118261309895,-7.130609353114808,-15.922512734521465
2.830573869611901,-7.7181815421641495,-5.852965294337595,-19.414710516598944
10.124711839376324,-2.940516204670043,-9.15341332570894,-6.889147767654517
9.538800804533633,-23.74361166355411,-18.078285807475098,-5.159489669542236
-22.768511352185456,-0.07854837229132183,-19.520453845852977,-13.19315739652557
7.180111379024062,-4.524165087650042,-14.608191257196234,-15.651772898861132
8.627050620802926,-0.8008009773401139,-5.043700685196557,-17.180933456032527
13.625300286394172,0.1752979584228136,-23.31392170424798,-20.057754501127672
6.661411985710792,-4.485902865890621,-7.024966864535493,-5.128552090539861
3.8783570053441903,0.29477814630830856,-18.520590554244855,-24.113266016088968
3.7208978820038645,-10.16743640848876,-7.805233732940653,-14.263355726416858
5.522166279295331,-16.8122060147855,-19.298704231653645,-30.755651715324124
6.606741540148843,-3.8124315408097913,-6.367939649934266,-19.38383068489519
13.032949172367719,-4.650691825167861,-11.374111202644821,-14.862635601607028
7.987966522582797,-5.842353625029091,-9.427856638391603,-14.347653373874067
3.4940594742588282,-0.09931927215430791,-14.89113563815849,-16.222258409197913
5.341377312174695,-5.071700770245746,-9.995294254717557,-17.096842334390924
-4.990567255388996,-2.848274735681961,-4.863059040367464,-13.383871956856733
3.702316255949426,-6.780546906371844,-11.532338891000789,-16.104595884254625
10.890400256797136,-1.1926278193787154,-18.32007746205879,-19.338896301484624
12.008544603517882,-1.579284504336783,-6.809112898794437,-8.848079697686092
5.962655583892162,-15.811514834467637,-5.06444367505074,-12.476496060462939
10.150856298304767,-1.0398476260123517,-9.39915915957906,-13.223992401018752
11.929393469257725,-4.547048711933163,-6.862242154543759,-27.67023858923763
4.139713018878912,-3.8654097540803707,-14.735030454044074,-3.6894731472351845
5.166577211257589,-8.343657381350923,-9.977770921914228,-5.434491451705036
5.586351660966763,-2.497534768161598,-7.59018550656411,-11.971506763360505
12.14458803593287,-6.259965456435639,-13.796588565427404,-7.153736495344086
9.391263038243242,-2.948510423944541,-9.760239812135316,-13.922935719138955
9.403122830624692,-6.956963710895213,-3.786691693772285,-11.947057826938101
8.406595776321272,-4.863275166682138,-5.5027862604895805,-20.774214283019997
6.919440768449094,-4.298440282429471,-7.845460128998063,-15.005167891308883
-0.8324290860136743,-2.336818158471163,-10.057503290552756,-13.970602022926528
-10.758576047636451,-12.502924725154177,-9.861011495757884,-25.26240446887184
4.801003064461485,-0.5042730674325626,-6.818713776547517,-8.367557334812359
6.479522670676614,-0.6994348200872866,-10.75021561695106,-7.988089605389204
6.948574043619907,-0.12319050089743211,-16.480745890663478,-6.24169536732731
11.072696688869641,-13.018229251444946,-9.952336140557563,-17.534710531411292
-0.977195520687276,-3.7389540387954505,-15.662616959516216,-17.65047783204947
3.051802024525202,-0.2579477313451357,-17.028917151724464,-9.112573137210344
7.180512161944392,-7.607517633388914,-2.1224944795880782,-16.123164421177442
-10.118409920274848,-4.510144572123691,-6.454961714787789,-8.830521527632857
12.185189559833848,-5.530826013295814,-9.479970750781892,-13.15987741693814
4.326400767477084,-1.124202548342598,-4.746833982287257,-11.872622493489093
-3.178584632731374,-8.402037301273761,-7.593907999237423,-14.601245054593885
2.092394041313935,-9.693962584010833,-10.819679218343834,-22.58260181758406
-2.93548199466683,-10.267987977934148,-5.7173920287514495,-15.110254274114531
3.790358804653098,0.2189787871818223,-11.685074302390166,-36.32313777398677
3.10609870306299,-7.468393302864593,-11.34957313635069,-12.013552744269935
7.6004951984968265,-4.078559664601512,-11.890300263961935,-11.779237770646736
5.417443903879982,-10.313312536532147,-15.958967430040397,-9.594763629710972
6.3230056878938505,0.5265115205147426,-3.8288948057933094,-6.618910860243425
4.683198196086767,-8.10917571909238,-6.688034775302787,-16.00497618222827
6.385585722066723,-4.29420938906191,-13.886351003569763,-13.701357136113145
5.58227112153456,-5.155545393301754,-16.85510992236548,-6.950289200009085
-1.54073678430934,-1.757724506610566,-12.948134165291698,-7.682882103053304
12.215284856838283,-8.395683422637767,-9.08423236643718,-7.366524058836466
-3.754322540460823,-4.998226372331601,-7.291412302146318,-13.869405946495274
-6.576156835336114,-4.642672845295758,-8.463515060366232,-8.146931121092384
4.241080149489937,-3.9235082055607697,-9.443640475207626,-14.920255011030505
11.036583478596862,-7.147361217653927,-8.274807956505013,-19.002235198276544
4.829630228780763,-2.408883535793826,-9.767427852286874,-13.98212997532541
9.46778900619865,-6.806089573628192,-5.195827034653261,-19.208133841963555
1.543045402073635,-10.457101029632252,-11.229816606444299,-15.276584497051616
-3.04339169084777,-8.461882918304877,-13.077890680619626,-11.405937164176578
6.0846438827959375,-5.830232601999244,-5.143203804419565,-17.147592561683695
6.677200295745188,-12.129629642583627,-11.451244061663067,-13.688795551389205
8.838821311739757,-0.20360901155812217,-9.520244886040963,-13.81857646499725
-16.216803197000395,-3.2715800998682876,-17.870428837977833,-10.353193602449833
-5.30592369744568,-13.119919490168026,-10.000968153105571,-19.491530583036248
5.590205610323775,-7.82514689263162,-3.3388260558481972,-10.770776148165433
-6.377295630435269,-12.03941988704704,-1.7210294279725522,-21.853437249553263
9.09598494874708,-3.1593873960243886,-13.445227044832242,-15.103519261618828
7.78293608473898,-3.977357998458723,-4.482246373110181,-11.531011517492036
8.556519466796143,-1.996025284817414,-3.2619259268997336,-12.372735724930306
3.506723135607492,-11.083740003445584,-1.9486882545926294,-9.21909625976437
8.678191780698523,-13.552264719482114,-4.69996702297246,-13.668069121516755
5.795343681552852,-7.212358142859866,-4.145723202782716,-6.949898317088765
-4.133514758395223,-4.010103349762915,-8.610572476423101,-9.06212942795958
1.1381378802609163,-4.500125927054556,-18.27688896668664,-9.592272832397642
4.99380763740451,-1.5996575965262045,-16.7623175734658,-14.93196426086146
10.190092832795127,-3.8256322821030166,-12.342836597775035,-19.67659246009303
-0.8766811434248551,-8.722209932200894,-21.633114741049255,-11.987382589285307
7.581578768204573,-15.194995872944176,-15.233483297571828,-16.29539228108629
5.5546094953367655,0.6346963069232223,-15.821910205243897,-20.561693512688638
3.4248779386273123,-6.303969790756339,-14.472531975982621,-14.176660072647131
5.800176277122478,-15.100138752033207,-10.058339888898944,-15.570939994391114
8.538985066954602,-1.8138887924154319,-8.485612887795261,-13.707173233300292
4.125336775068423,-10.968380374219475,-5.450782475651549,-23.521176528094575
9.75193921114466,-13.50798571326381,-10.23899878138497,-14.195616877180186
1.4240925982586465,-3.741521783651478,-11.357488098299225,-8.825406710877518
5.696707136825921,-2.0921512426342512,-10.007556573426964,-14.316154149500978
13.369623089160473,-17.071369880968433,-14.16393997968846,-24.99540759918847
7.886369533612084,-8.234373552928776,-6.375276045358531,-13.633087563399958
5.550690513567251,-6.028643168652778,-7.597809506809627,-9.429855925766022
6.651968773974247,-0.3957248633951109,-15.53185915188128,-11.542746561629308
9.921856567197295,-15.142905277693021,-9.221656817225092,-16.27240150612044
8.19375573174937,-2.7737573015818664,-6.930710872939912,-11.700791432540104
11.157217110624792,-11.232131097363007,-17.74593111384371,-19.80428125400621
9.414823142757896,3.096501637568212,-7.154669000581864,-11.522364649026827
-0.024832585638160154,-6.120924615953918,-8.81130768297434,-13.512670649841414
-13.475667661799086,-18.062851137710165,-9.333474918047147,-11.865979982621615
5.277218475277758,-16.021009575951744,-5.329460537549879,-12.314868216132824
13.507758617237503,-0.8737540356753204,-11.141242421290572,-21.06941399684587
13.182642352927237,-16.039339919148173,-12.761771190542905,-20.27337006803995
8.003315856060535,0.8501315422679108,-4.520382878894632,-26.22746256798181
-1.8234470228663344,-4.003647910883441,-13.380848263090106,-16.669668723242864
2.1382484929897076,-1.0321701067718796,-4.922430979565352,-22.654620806969486
6.161783720957783,-6.922474779462908,-15.692324698043896,-16.41151961192406
9.840631430260464,-0.28857182560288175,-12.639569275265691,-18.470256853249477
-2.3308383734218925,-2.7688422203841996,-10.269401277287637,-16.18682379868743
3.2341269491536457,-4.730594505686907,-6.75668783599353,-20.058708662187197
7.856948682006984,-2.4761815034604067,-7.48226700545033,-15.5495742945524
-0.13448794677741605,-4.356487875743351,-11.550772949984646,-23.408057640347973
-0.008742196084850384,-10.593366678813357,-8.826563515908072,-16.785823595481048
-0.1575321449712641,-8.933674986925926,-4.442960963214865,-11.97058669615637
1.856858679932078,-2.1964404938949413,-17.705930198274736,-11.513706247457028
6.115722019028281,-6.349670378860477,-13.209372734148735,-10.324127517823365
8.758831375359541,-4.690838171475576,-6.501289098664612,-20.046753784902887
4.908655740072801,-6.258766846315767,-2.6542126422418724,-15.851416806777987
6.061556356679581,-3.717168041664714,-11.08830143465151,-15.761975595312908
-5.614656993375116,-2.814908544354689,-9.289073064174136,-20.3506225185255
8.539754388961999,-12.269800367800938,-19.797674869949468,-22.342325988905532
8.043995708101795,-8.968353174364305,-15.26627661963479,-14.079913020148016
5.258722501984753,-3.6195153266169826,-15.256268926896608,-22.98936435561299
-3.513097207833672,-11.234989513953861,-14.971197568746065,-12.13045814916969
7.829024308388253,1.3353564099789386,-14.415873705460493,-19.859684377571647
8.319389819712253,-3.5022651888145666,-14.49762725005032,-14.440710666914555
-3.6484263225861993,-2.5768468340844843,-9.352924237454829,-16.909916621892737
-3.3111198353036064,-23.063769432292812,-13.108503396608493,-10.447665771645585
-4.573273617825929,-5.596468444786588,-8.285612475462186,-16.305893744841097
8.665977852271876,-1.1683723710890006,-4.258953108528228,-11.862656667768139
8.28125643243552,-3.697602140073538,-4.770369964818357,-9.22630274646787
11.058816985784894,-13.14643021980823,-7.492545399335286,-22.613626126556888
6.645746218260703,-9.048485022961628,-3.020556714494149,-12.405357945883287
7.555714564561171,0.33671573831213975,-7.3221544940490375,-16.09612237829602
3.744513106594175,-19.558837913845938,-11.876116545323518,-11.441805179047499
7.253606933114016,-18.973344557575412,-16.548338526425304,-15.045378390608942
-0.18833361314808883,-0.19978711435429286,-11.944738418342382,-6.966787586902209
1.9155295730240696,-10.523403949998404,-9.748546643408433,-15.580111110656578
9.615371439401573,-15.931369677616232,-16.34147835185412,-20.81002971233588
2.4804780759610154,-11.872257287375836,-8.8324249194129,-8.78114872756977
6.311026032996036,-3.671522993750131,-5.74205000667777,-14.602505800704314
2.6510124096100434,-7.340861340942302,-5.290528617708215,-29.65607209847106
8.276335766211844,-6.136703496936548,-6.21741344248646,-10.747939747744125
11.644994583638299,-5.0089676692081415,-7.617479076683784,-16.355701623849914
7.212827430528752,-11.635941818987526,-11.754352013954053,-12.194608577877506
-7.418820695527959,-14.201814332200655,-9.667678077171063,-15.15568871564859
4.70308954034464,-3.92218614635008,-6.805951698749274,-9.404421135111022
5.996777459676097,-3.235182075116344,-5.222042996949067,-11.225730455047563
7.551954254367,-2.6868232985208045,-12.265098122897225,-15.045076782165783
7.3835975905980105,-3.6699827139172174,-7.77458039912767,-15.722540153282015
-6.921220513966132,-10.74718754733083,-6.676715507427831,-14.176794284512479
-3.363563453774632,-5.956977584079123,-20.216556653118822,-14.229049645780051
4.023022927907234,-9.894654765930904,-6.75479009293989,-15.820445701031709
7.937371584912023,-9.462112124631158,-10.341867973192963,-18.830832048339207
5.378194298071601,-8.053600526586806,-10.817169472715799,-12.410077990713322
10.69901921635402,-5.11196865009358,-9.729970757052394,-13.894522592970063
10.666968623749566,-17.565426540053213,-11.14598928908694,-30.809062305153336
7.908930883426619,-12.733753450630543,-16.95798734307096,-13.369904052232403
4.492923590334954,-10.141383028382148,-10.070520628743235,-19.86336335489825
4.650591269016028,-1.0880349501654867,-12.985346474718,-9.303317589922877
9.037347589217745,-17.47636287448726,-20.182564520122895,-13.8565019371325
-0.141853509253699,-7.286468643914958,-5.836992375918554,-10.920550359026702
2.14231482436769,-13.750758319677821,-6.1332791332872585,-14.187864416281954
9.213552591521982,-0.9183080970252524,-4.926017008930083,-22.338478212432836
-8.873166948805718,-6.6478820202659,-2.3370617692618456,-16.373007614466523
-5.755191068140405,-4.783590848891025,-12.833086767420921,-33.67667199454793
9.981510626188747,-5.727088676648982,-6.228663921141196,-11.536621071101353
10.706059105597316,-10.496337147176327,-6.08279740433237,-19.08797215946699
6.8880160036030365,-12.064766929185652,-4.6649855507488835,-9.223195692932617
-1.7405834462912697,-11.499504894657786,-11.71750215984114,-22.926113176595788
3.284088394148359,-2.4638343395501514,-7.894172469547954,-13.46869455126826
-5.6230528848809325,-10.921032943629267,-12.89161253765828,-18.388193727555667
5.131231157106235,-5.017067519101001,-7.422143964207251,-13.66724580977943
1.4874313634122678,-5.788069422010494,-30.592784190270756,-22.220824749550477
9.360689059704276,-5.100411774814974,-4.45729523426729,-13.41691342846816
9.927760480657707,-3.6819671391238624,-24.259379571515368,-9.27329791439162
0.6327910126765168,-12.288579293497257,-7.497980442997926,-13.290724606141264
-6.7121726943186975,-0.6296018492227824,-7.6526928223685875,-6.822941183447405
6.151294620825892,-1.6933321818813067,-18.749567001007044,-16.24149508661863
1.291836195541574,-1.49824720472813,-15.705351573595694,-23.00045350385026
0.0646806843537826,-1.6742831563656524,-7.390775882212477,-15.058567816820904
-4.450953828180616,-7.103338452539722,-4.087857862665388,-12.230311812936554
7.880423104350327,-9.883955226972033,-14.047705845313631,-9.361817775358528
-0.2401689180640738,-10.50896223633174,-3.4955396496916187,-11.463333709367552
7.84995777690073,-6.533670988243216,-7.570177245371321,-18.43665200725452
12.269512443531479,-5.999028795432219,-11.366101742585027,-9.796198563178278
13.270867912053609,-6.027555031127976,-8.93065536405818,-13.275121349008948
9.646414756078006,-4.927963123422982,-3.0187898935595117,-23.500821433399
2.046388882046858,-7.073820159719986,-14.695235857355444,-10.901461364207703
7.121681390175071,-7.083387837724551,-14.7742298084079,-16.02155478987636
13.6369361000656,-13.372829251960653,-3.9237600674504787,-7.972368408540509
9.16632674242676,-7.115803539624785,-21.634102132189675,-13.767257499702616
10.309966180759103,-9.163866778251498,-10.858249888232885,-20.99136337326889
8.386673361234475,-8.098737372265226,-16.52183809073898,-10.474635650226874
-6.123504736825401,-5.861692972536863,-13.430171097392739,-7.700285735268471
5.399354959976673,-9.665266608140037,-8.75797227014072,-15.747609329481222
-1.6074936884868336,0.031491440958213435,-13.02283919831587,-12.981536555302661
-4.675762431346858,-2.7375644326839885,-6.954179459363708,-30.810191917723667
1.8425808666216126,-6.596385380285065,-11.190330100970371,-11.073107542075576
-7.356516417300158,-2.808524079324202,-19.77263065095282,-14.052525866167237
-0.6356702380986987,-6.632840021755646,-6.749902147730472,-15.815810317203972
1.8049099958519745,-6.677932538692145,-9.278675302052763,-17.017491599951057
3.493671600203923,-8.055890455482722,-9.094227780915027,-14.107521257142356
4.287555294593638,0.2971529129323893,-8.747121473125475,-21.192846804238442
13.897458254806715,-1.2528200031664887,-7.7948760417034535,-9.705898240819092
10.319289474912537,-12.480690430242337,-6.193888376450358,-13.23150881183771
9.994777653600128,-15.427786152602469,-9.110523482241137,-16.323020159494547
10.117033268159503,-6.427301914699683,-5.614713643298858,-25.36697758038955
9.569354879747552,-5.88963580086978,-10.286598527297977,-10.469818211213934
8.790650785316027,-0.5406699024595993,-6.525240372149161,-11.859899438974285
8.082081737568771,-6.815613161318733,-13.830293065100323,-10.150621462021654
0.667304865276753,-7.385639136100808,-9.133719713478252,-20.93573860134842
7.084207883067566,-9.44207094185156,-10.297724154947977,-28.356014682975037
8.523449531525717,-8.446031989142122,-9.909588907898565,-14.285854170007351
-0.1726388773865155,-12.445538615085335,-13.289046269448756,-7.651519439767194
9.12867997275233,-8.719347774910513,-10.381048699921244,-14.223436210235285
5.65329784428831,-3.656248398257,-11.174787581633327,-18.51956479356244
4.302904725083207,-3.9773910053883417,-5.359518405821946,-12.35828410821118
9.292260013838806,-23.717178633579646,-8.91625567782843,-24.040901844071836
-5.626007666364947,-8.362362257090513,-4.058053563069958,-18.089144245362053
-0.17096048091987814,-1.4063517867601987,-11.821082636774674,-14.25374777838077
9.629292564921716,-4.311354944916811,-9.727145068205266,-14.771746770530495
10.453282794048178,-4.449455291942069,-6.614814536265575,-23.58191567972102
2.9761177046285154,-1.614154819626442,-0.5872602561189568,-11.654229353008093
-6.023031204040505,-3.903920334051852,-14.044711297538564,-9.689598950534133
2.975410333408318,-2.1167226103555,-3.6489936516831207,-19.78993402733074
7.879852546943476,-7.0800834379638005,-5.416332444802087,-12.23745924010078
-2.354225498648672,-12.94013956994657,-11.782603592872457,-17.497560900416932
0.7629423772471595,-20.8453399599336,-8.308024976440809,-11.903845508997636
-5.768996249892577,-5.7485915099961,-20.424396493454644,-12.771134756560803
3.0610382950022172,-1.8991507684373325,-8.673089387503799,-10.62843244304965
8.345721618422074,-0.750090826129628,-4.899758988796292,-10.814790921016069
5.9438535365641885,-8.279132850320604,-9.042812280773697,-26.372977898877366
6.2800153356899635,-1.217714836576398,-17.25186235041005,-14.80624630565018
9.205502111122044,-6.322268419817194,-3.507306793128974,-18.13296624060721
6.914116509763258,-8.317311561010158,-19.729033847427132,-22.00900665382544
-2.7463146539041663,-2.0143606825338307,-6.58627297416348,-30.731008896150964
8.045113828197806,-5.938763048566418,-11.402760046888341,-13.577973476268163
2.9332586058953485,-20.965997296408037,-10.23134905924726,-17.163994623334954
9.604296873097393,-9.918873221626159,-11.764328549465422,-20.63041533060905
4.671868257319048,-8.336855491270889,-12.19636043086516,-6.905112783346938
5.9270622466594975,-6.249809314630333,-3.6041842119736636,-34.49557839631639
3.2337910314650946,-12.509966274797089,-9.869876460305573,-33.425793911712844
-0.46954202435628023,-5.335891606662077,-7.076973878834684,-17.78147877849072
12.252226330528808,-7.255675935689217,-5.860929527506325,-20.305554612077138
7.6958531134272175,-12.60717407196412,-8.089417785528237,-6.296861960820305
8.139019365633537,-9.528910676820699,-30.719822744591966,-32.40412962246647
5.008702621500692,-4.0830262896111105,-9.71607316026806,-15.7214293294499
8.419683924254773,-6.5163601809200316,-25.246019136379402,-12.26464156981206
-0.47851150380949425,-12.122336345568527,-17.694138804616735,-13.385267216211904
3.6355825134997546,0.9093571969747622,-23.089425205437813,-24.961608973215597
12.739864745271007,-2.770631309271733,-11.665485573773225,-17.376850626834795
7.327174671292337,0.2907201877558596,-8.633677167910523,-23.542335682773786
-7.750705131444297,-3.4650139599916385,-11.970612571690342,-12.36928986103086
-6.353207187639722,-6.605848819409202,-15.49582786971497,-9.082955818098737
2.926538676597084,-13.050014818201657,-5.334614058555246,-8.294084053764873
-0.2649209554931584,-0.5303698123620681,-19.758700544599407,-10.281368360907447
3.385719786654737,0.8936032522537039,-8.044578941150258,-13.938183682608223
-4.4455506236942295,-3.6641961150825355,-9.098033291559648,-19.399228697429624
-3.697483117865196,-3.3797507568991896,-21.712103907874962,-25.382583810365805
7.231750780470868,1.2763830849653521,-14.642852249980821,-13.780597544356084
0.7911060859022303,-10.254375726057635,-11.982142842554792,-13.14889557097733
-9.199063089858868,1.8570378584128633,-12.000461846353952,-6.223579695026805
-1.540789101486049,-13.704014647607522,-9.713475986111037,-16.77105003142172
3.0072098622488026,-7.608917039036701,-18.10147088665928,-7.514543213937211
1.425406072298658,-22.74464843935979,-9.680015469935837,-19.361087413660492
5.974198951275635,-18.31387205194099,-20.72980668781686,-11.929564046685979
-12.636534768446358,-9.427387359146827,-6.869161692323102,-18.13155034546517
10.407115836953938,-11.21830788568192,-8.472945745403015,-18.48510663914693
7.940531773487724,-3.3894808645876613,-4.88427366169482,-9.949827561105975
-3.597325459024767,-6.126873776078787,-27.356310694217477,-21.076884321114044
3.5494699153511586,-0.06715807161529552,-8.222279669328772,-9.424001401825988
9.307785743953303,-7.8490252538871434,-3.2285796444931147,-8.967378508844902
6.070510857086945,-12.705412209705198,-4.40650818466353,-12.179387738643126
1.3307088056420842,-16.2834672954652,-11.622194920832603,-17.323635654247337
6.495368434325146,-4.636766576172505,-16.779345353653206,-12.163486005496058
5.425866531415592,-7.221524540109934,-12.680072146936894,-13.301740117439497
5.151772121118153,-10.733489144748734,-2.77140041538666,-18.900963552213618
6.2610389875809656,-0.6854521630220178,-4.020838749228897,-19.250066929234848
6.136619419622588,-8.271220669159135,-11.536840791370231,-13.633355629268596
-3.9758195477106444,-1.6141518851009864,-14.509296171617253,-20.04467439303075
2.7932680329646833,-11.287529596740933,-10.964924011032968,-7.104130891511748
12.245654090186662,-16.722226944231522,-25.69950310268284,-17.620607041034187
7.7238639471851585,-6.596932594391237,-9.485519782606364,-20.772165743489115
4.54895318448831,2.8144778682254676,-16.428253012695407,-12.406199230445019
3.2107226415133674,-6.076352901464475,-12.811356179355483,-11.6826044597902
9.511520642543186,-15.846796018177116,-3.4920139115274615,-18.91725118547686
13.322846879388598,2.457544015254773,-10.746027639816317,-6.899139874284536
12.341300485179541,-1.4292587308595883,-5.181512316441385,-15.189991852982917
7.951444161799604,-8.171118945634726,-20.629269455561975,-4.124883189181243
8.811371536114171,-3.0537328296955137,-6.635152400142749,-9.290934291888629
4.648926567026539,0.8490488789505237,-19.196035453075837,-14.695699201979942
6.138395903115659,-1.3066337751881814,-9.17270431803385,-14.237423270062617
-11.464864242138606,-4.114833294956032,-5.112347934923141,-30.61746422451991
-9.200065525691274,-1.1633355504389011,-16.640690970884307,-16.445122511857146
5.339922661979111,-5.677248250559185,-12.378839378801406,-6.721674754797755
5.758106324499543,-2.1850361296438074,-14.234136290092222,-9.88295638424074
12.2466415399265,-6.627892642819411,-3.3345067677085183,-5.547241900489492
13.492145859051991,-11.1130809176416,-11.462170771833547,-18.506283767903422
11.50840626708163,-1.4032800594221837,-6.72146912542722,-24.017260529451903
-5.055151185500897,-0.3676888618725238,-12.058668608180392,-9.202513354431739
6.861589530503795,-14.673541499358034,-6.002128157242225,-18.009991179206676
7.242806079578557,-16.81999884930842,-2.1031284649339463,-18.926459034928833
-4.664122993074593,-3.256762120079873,-10.529413618118754,-8.300611489188654
1.8496087254135616,-12.480371000946402,-6.569015808779726,-15.593404320895623
2.042405347688617,-12.116960335718952,-9.602902457167795,-15.148916689623793
0.24523933209638038,-0.4080510461930045,-12.075495010098313,-11.21198442054539
10.390777105052049,-3.336201532686393,-19.50736966052486,-8.971905935486602
1.5561789941216795,-0.16239848639382348,-9.946966919184911,-11.27305631738587
10.394545009342716,-3.586414625561804,-12.250162711483414,-23.189242479112753
11.021510234078074,-9.9528396970749,-11.0219248282877,-18.07910249276706
12.62144284498106,-2.1635752413578735,-6.719675818176926,-28.73891515119081
7.450149486259803,0.8755992490122431,-14.564884182121242,-11.946128292849037
3.5372568306593752,-9.993912153342572,-7.29189607517719,-15.311004256237332
3.9992658091387296,-1.0083400274484835,-13.425912227495564,-22.196436957219536
0.43560840963808545,-3.4696011588530244,-5.081208950413004,-26.115679589967808
-0.23003255260893285,-3.7303481031464574,-6.7032531889218525,-19.266107042839444
9.729074104009609,-5.094458272079507,-15.19863768485225,-12.135723302667719
-2.5706410156632664,-1.2461291317099863,-12.50115314675413,-18.154328859903256
2.0147292814488247,-3.339568966161282,-22.380478077868,-14.4188476172199
-2.522081059895032,-5.082251080165413,-13.368722857597005,-14.369608430308709
4.623724090367198,-6.058264274757153,-9.236263550797863,-14.2046335464631
9.818922010072589,0.7462107532023601,-9.308945271894562,-14.65778511795531
8.849429674044455,-10.538389673397086,-11.729330891987667,-17.36386908583167
3.3746241139822404,-19.51984398205742,-0.6949858507777522,-6.5149538998872725
10.764014245628548,-5.896069041715037,-6.17249080054877,-7.7767616708726806
2.204063948128084,-1.5702028739573293,-4.393902479762598,-20.393876250074634
7.0760636488832755,-6.256619694076182,-12.377561620644826,-17.66112052776157
-0.8940157931628496,-2.1397593132173536,-6.921729614218089,-29.292647598284308
1.3385888961972592,-3.8975425866983664,-17.626810236673926,-8.297132230178251
10.413007838843065,-7.549685879059263,-14.407013956636662,-17.465871094985342
6.150877390674139,-11.838163016240674,-2.1722380862617268,-14.637837489342097
-0.14346115976793206,-2.7781166219205473,-11.646218050370022,-12.881171957775983
7.944305756224549,-3.376565753246091,-5.607634787606729,-11.235571797138043
10.162048197792338,0.4327230658590562,-4.662622697176536,-12.350127753623063
10.502236374349092,-5.9902600292870005,-2.6892027420656914,-47.449702579957204
5.2925576044945934,-17.50844771174338,-11.391002469704423,-14.448566612409344
11.742152330561513,-1.6489546904127512,-10.672362495343243,-12.601785614805356
9.715738233524839,1.5983429647413245,-13.559564181524172,-20.768370286953996
8.894214236738271,-2.8652682454784695,-5.269529433527303,-18.80494563793381
6.249128598927767,-4.240736549178486,-3.4689338800385094,-18.657389697236432
5.8976999229129285,-8.618842218270633,-8.570195941700968,-13.873525000430984
11.53161459544099,-0.5579980318797575,-6.832022506688256,-11.0784842196201
9.322011060944329,-0.4102733444985689,-33.80147439362602,-13.270467062188107
5.464371683857234,-6.400441872729184,-2.2803050473190423,-28.234266839367955
3.090349958331443,-9.354418603304353,-9.322015158134327,-17.498488605379908
6.8746735787487285,-1.654478722236615,-10.677702023999025,-11.600493091804763
6.0415831095241135,-5.680966075607381,-10.339810775132952,-17.34110027898297
4.086609452037846,-5.521725135656942,-8.700429748211215,-17.21315557245965
0.06812884683690612,-15.76265169779779,-10.53904644624656,-9.361659641043712
10.601793338266543,-7.374774780816777,-15.526816092077032,-5.2907101266509216
-5.76573989649137,-7.885407755412018,-7.868017747587521,-19.72165641911483
5.653642324343886,-8.983971185975474,-12.836630087569548,-13.525044236871317
2.993847127201018,-2.3643562966921023,-13.033591152703545,-11.981663540909869
-9.384791408788619,-16.9626035891613,-5.588387700902892,-17.4023288679841
1.1578570230560568,-15.378443386987627,-18.666320160904498,-11.109680097826946
4.432862321204481,-5.935244140898723,-4.818684090817808,-17.29855750906842
-4.605608131880633,-1.811016270562709,-11.376463135220014,-23.780498712800217
6.093177729564402,-5.685465511922299,-15.988267725415428,-11.659801921189619
-4.994748869595968,-4.899000732280882,-5.3066554508840245,-13.711913423317817
5.571829639596428,-9.986101575450984,-9.649270055515089,-16.44077330384182
1.3925038419542843,-15.5289849181387,-14.310492318967759,-18.615730500912246
1.2784704789509918,-2.98740087619996,-16.974230586477333,-5.830541521581713
-8.192013760594126,-7.177583192116783,-11.73328081483224,-9.529247561556133
6.387226562165011,-5.396045428689039,-3.830678644856623,-9.92453703461349
8.043680541360242,-4.2686040367786084,-4.41743970673525,-11.605718092896051
1.5576434472773157,-11.604989241725477,-16.476967960642796,-18.265838489162668
7.4408867327929045,-10.584366876890583,-5.8202442210248275,-10.859982707914691
7.795192127076239,-6.483537682229491,-9.361963054264622,-9.74565854932357
0.470438295909136,-12.065948394222971,-6.53653391149127,-17.063190570725386
1.6387155095930013,-2.7951622905532,-3.654672135186403,-15.739336223397242
3.605419637338495,-5.386150278756997,-11.975872956916842,-19.190993195000896
2.728105679302089,-3.081514288486517,-11.889285082219565,-14.194361718934346
3.4339840320403656,-9.488071692629543,-15.12549355833127,-9.72745611323904
-1.5068949825474958,-3.297171977127165,-24.669557448409776,-8.712033262758798
3.7567699706748874,-9.02474464619322,-11.11317653856324,-17.190081517924487
0.6934148747008142,-6.402708956279726,-7.643778561868496,-11.685086651551204
9.980353272720267,-9.175602660051258,-14.90255674731475,-12.718924227343742
8.231938862888288,-12.662260327366292,-5.783440223527082,-9.444629046476859
3.548262344742224,-9.93786181530128,-15.1109655336245,-7.675620444297579
-10.507163517498938,-4.209746002979857,-7.954717103888989,-26.85720247279373
2.811804275050613,-8.617074163976476,-13.556403309705912,-17.92844627120732
7.435612916927461,0.4854538824582244,-7.9987234030133205,-15.692747758727833
7.746249926806573,-8.319257482942849,-10.585893312859563,-18.518323599248106
-4.711324425478097,-16.244682902628043,-6.090710422808646,-20.882115922968765
9.892069956429971,-8.58788373575056,-11.205592943269654,-11.365635773530187
5.0073890881602185,-11.075566239782159,-7.8185492643290555,-12.44583806093192
-15.865046496934056,-27.809954726188195,-4.960437510388317,-10.883192001836788
9.631760133258279,-14.153733217366216,-10.410986047077104,-11.533839383993977
7.750579087181504,-10.188510349945377,-10.533386445996454,-12.275322338900288
1.2949606337866553,-6.258515141466695,-18.361016333678407,-14.052413524558727
2.628804385769938,-14.612874887798156,-4.006210411523885,-27.596488191405744
7.368684793531348,-4.93420345390634,-10.148019812343307,-10.166093836614072
0.6109167848323067,-5.495341821468067,-8.074464266317795,-19.124919502594313
0.11831363338988643,-9.085098580629777,-11.976987581612466,-12.145024993407656
-16.37024998688922,-3.6531917732172343,-8.793991324910493,-19.13450964864556
0.4264835732026073,-5.50880803308694,-3.4663438233869224,-13.20001391621302
-0.12233801359732599,-9.403818634931607,-12.40869217811116,-17.82069519921253
3.4845505838251833,-0.7579116422806114,-16.519476853425317,-22.2882933514854
2.7727088681729777,-27.760782492050733,-28.52518187366985,-15.33283614858145
13.494422844828115,-4.576340906715551,-7.445220567664398,-16.56322577864724
10.903637108945258,-0.8517858804300462,-13.961586572691209,-7.913324924689075
0.7674082884690803,-1.1140424304287424,-2.4428758645802207,-23.18951269538833
11.582625171732545,-5.300550234283861,-12.72235003696461,-15.11162227725405
9.411316463157902,-5.710057376241307,-7.780775795354332,-9.470954805110184
8.331938939469472,-3.6268703834004756,-22.318198991002355,-18.845207394826836
9.529610003693774,-9.884189670482165,-3.2700140930056403,-10.128019652971814
5.364804935153597,-6.728476818995901,-21.86008406325385,-14.962199747339536
7.609741147848102,-4.687080442313867,-4.2846008236367314,-13.873959205246447
5.727626059209742,-5.513734043050391,-5.295747412722045,-13.358978823389531
3.3855769854056024,-3.6383539922447548,-8.839180802738296,-15.6806769138243
-8.567630624647148,-1.3874198888505505,-5.118047189847481,-13.107265952422537
12.408450768771536,-2.017317236180585,-3.6513491556051845,-12.038032279793008
5.786399063716141,-3.174474404977033,-9.684149709537296,-16.080680172472093
-1.5556801724645615,-0.4960451079086261,-11.850912889706073,-17.145364359180462
6.57312187324427,-7.175193233237948,-6.254053638244661,-11.254329682972466
5.573708557110672,-23.779083230628554,-9.799692391066403,-15.090918740467316
5.613509380231324,-8.871864123158499,-9.583010050143635,-17.65429269271164
2.1599650539453354,-16.305352538324588,-16.145913853302353,-21.207201326071367
-5.102201501232576,-17.1281930411828,-8.370718055697084,-16.007735514494446
0.5076477335274423,-6.174617227965122,-11.282779549794212,-16.027398843889294
0.14095738026448457,-4.274449302965596,-7.184172234332271,-10.868136508586202
5.333943366773768,0.7283041046881831,-14.965492839305112,-16.36722297403663
4.584133628454113,-4.579041028933258,-11.568008616528578,-13.533696568003911
7.8493213160387505,-5.8501528812650445,-7.053965726586393,-18.285732738435396
10.059799417062186,-12.446120146067512,-10.057916459603879,-31.40350447692781
3.667647461676945,-8.705829636142857,-6.704451191635949,-36.99158450054357
8.124234759293145,-19.84598469249907,-10.590773760149078,-25.589065520015108
9.556113754207143,-8.924513917314306,-3.990045498318665,-12.561648386643148
3.2486326586452168,-4.251759902530923,-20.440932358772443,-11.633967420838443
1.134224007157528,-12.100145048742997,-11.432805951779622,-9.83625970854435
-13.606023300091515,-12.087083288160137,-10.16725011163888,-20.10229442355379
6.800135568706674,-2.7149810111277115,-12.365618903361968,-19.770558242897
1.1726971435483762,-2.0110081179209254,-15.331025469908605,-26.886399487153884
1.1920740476999696,-1.6764752147815503,-6.611776401991426,-14.336336251407545
-1.6290523167610482,-3.4281554199392423,-1.3733694488557067,-18.651203061739288
8.572654966963452,-12.025517769778908,-10.132769252438639,-14.509734083059602
7.983816803350176,-15.124412853829288,-21.482244590829872,-10.994659912433182
11.139749728318979,-14.711578659299438,0.3840031696365527,-18.962709149992644
13.264169875118036,-2.084893596344481,-6.990881201472201,-8.898993968868723
-5.8191116345419065,-12.596564604470863,-14.697719535381458,-21.775699479691774
-4.3511587759771,-1.4831365725179286,-13.442974141006728,-8.63151893656954
-3.747766320996396,-4.101723417411172,-9.556985254377667,-11.282415506985348
0.15255460254196507,-14.0558647776901,0.5229337086469266,-3.5859590489366715
0.09292129321861786,-2.88656599434862,-9.904077684955482,-23.863364982895902
10.79389089537074,-11.575970789971068,-16.044961739078232,-12.898308858520192
0.1337588391519211,-20.77286412979692,-6.50048573670262,-15.980942050216587
5.148134425211256,-6.902070803692622,-6.850544808598478,-20.394043461589362
7.441320766174241,-2.0417752193454617,-17.029617885551737,-12.080431839187662
7.750622634469208,-4.39889470340427,-11.625389735496965,-19.5868032064756
1.0713801270376353,0.8258885420614255,-6.877277276740681,-17.130174469300318
0.4247206167813413,-3.7904550153168377,-8.725493130119233,-14.149741300010835
5.237463789828784,-9.910579646927184,-10.960323399741485,-8.902263874663422
3.6948165693104693,-12.261893779323437,-15.028169698120665,-14.883391401460326
0.5978852108742854,-2.0229515981660042,-13.090259125233652,-7.715225496730502
7.053559284630032,-2.262556690730601,-15.711321748709866,-18.25844361038602
6.7764284309281955,-7.760482301298035,-9.891978285371648,-14.442312159887933
3.544390261601157,1.4830201930442215,-10.199866060590363,-16.068125894456212
-14.66176454823836,-17.81109895574612,-33.62449521923233,-25.79762546657974
3.5980223760499235,-12.040407544816976,-22.04272401969326,-17.746709609521265
-9.431044611124436,-6.838729846843892,-7.275107039985318,-28.551794529065756
3.6104190202352293,-0.9400912829149779,-16.881909748687654,-15.59184730953993
-3.7964351175611215,-9.175172852290688,-1.9178645972873198,-12.501288823766643
-0.6236068754862862,-2.0049040109413645,-13.234808273762903,-19.277278009945658
5.357385959602862,-1.5975028545568963,-7.800160226019832,-15.471791032782455
-0.402862280575798,-8.855835533998695,-15.840840619138044,-15.299109889393094
0.4012523031475883,-13.103648262969212,-17.12470900276498,-25.54900483354381
7.019887237521598,-0.6838299960568541,-7.677617373757233,-15.625013692610533
1.669821051535838,-5.439900332423541,-9.526212019095148,-24.15200746109856
9.066384389150333,-6.0270497218561,-11.15535516714738,-9.531403125634519
6.5764857941432275,-6.662326105839524,-8.550739924819979,-11.714242786964562
6.972820753376957,-2.3083967942082633,-14.191163888720967,-9.021213651633204
5.773381511310056,-25.899735022876715,-13.738215437326462,-12.625103109292954
4.990744730289439,-19.147629421421556,-15.908020260424978,-11.63438296371719
2.451938206160483,-8.317317130095795,-10.537444602892355,-5.996635309564924
10.622833461377109,-2.527514972056913,-9.134961318631357,-13.621051535423604
13.390076734077637,-8.38426377209478,-2.067973385284917,-14.768829355145265
5.146837174797243,-7.121072300555584,-6.806126920236528,-11.523062393721931
2.534737993955093,-0.2526159268348631,-16.143190415612587,-11.824890469528484
8.345632944952147,-15.194370399218233,-23.170779772857458,-13.087513805277432
5.963080318507552,-6.773780256314446,-30.865074026771474,-29.058432947305253
12.029398597814236,-7.650305186277686,-1.7010221956763205,-20.090979927570686
-0.9054117717736707,-7.4593206803718815,-17.863003636090937,-9.504335427105634
-0.38496904594668724,-5.425359721304348,-13.188306716328727,-15.552430065828663
6.027962562954652,-1.4613409526604024,-16.85600577213726,-7.604553507748985
8.994341207639957,-2.4420429964458354,-15.711360801065352,-20.976211586275927
3.775017733265141,-6.308737509507569,-10.847184404590928,-13.721938970910603
0.27499088109812586,-3.0321291100588232,-10.628261404197472,-9.8530514402132
0.8780486878090259,-8.842887903311924,-12.983945531146954,-13.733928639670541
3.554339193060532,2.254611838653117,-8.125847188470534,-11.72670269033248
-0.40174550089964045,-5.7132956203595295,-21.02967469790076,-19.797039001724084
-2.6390655499215514,-1.6907394268626201,-22.794870215718753,-12.093247293121998
0.7739936819684607,-5.021590871748208,-8.074100432933022,-13.240145555312967
12.432645826907331,-0.10198905362437705,-7.946450308440651,-16.28426425712663
5.617183147384781,-9.65672945114086,-6.737605686598222,-11.121780083412132
-15.660714776205115,0.44646133507110974,-11.35934346578056,-15.439318158412345
4.249897189765037,-6.593815532334117,-11.838449431477247,-12.307617583917603
10.535497237758943,0.0793451327950132,-11.6149053746815,-13.716647053334938
5.198491838043166,-6.999928503857886,-3.2935606116304674,-12.45280683272133
1.295669307216862,-10.669406783498586,-9.05861109058594,-12.240348266121636
2.7945075062574274,-2.563284962018908,-14.383851414020585,-5.005131755313421
2.3507159481607127,-5.022143422551263,-5.81815964986437,-14.944208758029305
3.668223332985925,-3.212787038224533,-12.701123634377653,-21.043981538682697
11.656729075429428,-2.2162105706821973,-9.300152789539842,-7.993131687987908
11.886861619173963,-1.8751571076268072,-14.248646636150626,-14.472955409097121
0.4490194490974444,-6.156504676438287,-11.035135607648341,-17.165710490843598
7.089735588707388,-2.929714038743812,-12.455558169012441,-19.31842124432871
1.5301511635356615,-7.632946599055423,-5.6848107725652,-16.379188523974104
5.775530982122013,0.6837431176241369,-2.784648624643541,-11.7072687512825
4.982112979995435,-9.66738859495642,-12.109066086776314,-30.630865722794457
8.33657265365135,-9.375609172045927,-12.34784483710035,-18.329865080673468
3.7235472817840325,-8.604064878508051,-35.634344588854,-14.828528766949578
-1.1399920187304282,-4.052985800786619,-7.825841832127265,-12.07591360119553
-38.040312783761756,-7.923088708883093,-21.029830745740007,-16.64245294110745
2.2272360785146326,-4.13325565893788,-8.815572323726776,-11.22679477052836
8.728298668641132,-10.556373513182022,-7.089949503740865,-16.537400085867436
8.71493075808667,-5.647459575953679,-4.966499290848492,-20.902160400519477
7.100413885376333,-3.954422466210606,-6.722252907829356,-13.047597061796512
1.8336792230708503,-4.812654018039433,-8.848518549338623,-12.106376386215592
7.1219866018284,-10.074411570339311,-6.966611136208877,-15.9117489538726
8.976666260413921,-4.551650310448959,-9.264101945291936,-19.64733268441445
5.2030340210174,-8.217547303424187,-7.180907918938663,-13.360718554266818
-0.27664100596496954,-4.933118864199992,-5.730035329712701,-14.928954941703964
6.50530977730201,-0.9314827568581547,-9.308439860529802,-19.98034167338714
10.55587119906231,-10.356184255265015,-8.345407670972493,-20.642379709909598
4.9216145319122955,0.8646627509532046,-11.659301414599444,-17.70042363571778
9.969087293827243,1.191657435440022,-18.825623493493957,-18.475101303082166
8.629655402389352,-2.5507628398056332,-10.371783663251215,-14.371648749127079
-4.4418962365464285,-11.714413677691189,-7.762262475963045,-14.05855238929248
4.260203779901342,-10.681688717991085,-10.161541089923555,-13.659825309840055
-1.8812007998876599,-0.3033175749675583,-8.777411640036897,-18.365699062159887
1.1204667458749116,-2.346553327562497,-14.025360916883423,-14.07456011232345
7.865404323950305,-10.540813190612191,-9.248331561497086,-10.675877571801195
-1.2893690315490591,-4.003101654168127,-12.399242852375849,-16.65043102387314
1.842887687090617,-6.994850317169618,-9.49193864578721,-15.283316670343737
6.055797465437132,-5.551771902722551,-11.710227591526001,-11.900187793683319
10.387391515774485,-6.404125588165513,-11.68772873390391,-9.895650154436435
1.8208745348644273,-9.497008896042203,-9.588484309520085,-8.99542754836961
-10.555305322742061,-15.697720530689871,-7.256472453405186,-19.69431277002842
8.898102843749456,-2.1141004109301345,-16.673637907889606,-13.708760285113541
-1.518714822765773,-15.035352176404789,-6.853701995762968,-12.98551467090752
3.477105335912405,-5.411707620099355,-13.474750659311853,-19.990645677659874
9.136579782580343,-14.134576455628029,-5.081689712096333,-16.66062342146555
9.741636735871083,1.5927958423057547,-6.165902851701766,-12.46917010131629
4.890952227239475,1.2949156159057733,-11.073338616802546,-10.085792093218211
-4.781031973900275,-8.952882555146838,-10.118651515366848,-17.77292712373451
0.894215007722782,-0.9722780912384255,-5.5269694693781,-8.317684578318516
9.489054372615112,-0.3120348415228178,-6.835706533176806,-16.748741619372666
10.567726894273026,-0.49327728980245755,-7.22476657693754,-6.0036043790972435
10.942838189240922,-5.564596159516368,-8.76781316912155,-28.190226827342006
5.8516387200524225,-2.8966351477826637,-6.651160863550281,-16.21002153457334
-1.9104669972132209,-4.605604392453946,-2.7794628279911873,-10.713321977031265
8.091124611822284,-10.122432465056864,-8.04319963311361,-12.53559133552916
11.280887000328867,-4.543667233281019,-12.155688222455021,-20.896211491072084
2.8081082024348905,-7.091196527298198,-7.5324704769314454,-14.121308870787914
3.9302753776355845,-5.284172515451878,-12.508257902438507,-8.624670647264427
-1.8470930257685945,-3.4602375533106184,-12.743725153521535,-11.090027670059746
5.949033684166641,-7.537434301273736,-10.502230002467849,-30.988635110440764
7.798507396589222,-6.4897009108061745,-25.51167245089036,-8.508851864344692
4.013691930091217,-36.655644953404604,-8.659159179558998,-4.815161602071195
9.89292657533814,-2.5365364049449535,-5.487935232243194,-16.415506731447337
6.1140547180105225,-10.465295253526829,-11.103929906762025,-14.272850614668876
6.601044940425405,-3.1508375261647177,-11.07953111086018,-18.852884860262524
7.052286536746217,-7.00705586520413,-13.07988807197067,-15.98921924117765
8.489481753126858,-16.79738591466504,-11.096267781153935,-14.361458557191046
10.161534496714054,-4.97939183733059,-6.907822410853061,-10.482154481944784
7.993382167053404,-14.129755298654889,-8.179531011920627,-14.403500905053754
1.1120426856489403,-8.186261793268585,-14.711368063741586,-11.323819362755025
1.24745532774136,-8.405708665148069,-7.14122370901457,-22.475697672769563
-4.284799976542167,-1.937646329445125,-5.3217855314792075,-9.439446890954741
8.193028577970637,-1.1943825020772132,-8.323316016009239,-7.859931958065889
6.0133354327124575,-15.297210406156765,-11.971826313333294,-16.44574229543106
3.5428929239299545,-10.346903238376816,-18.91484029443231,-16.67346948693827
-15.326659086508723,-9.690556071913331,-13.90989923117442,-16.94340202285156
6.760104695423649,-8.861349496672666,-10.046018073223816,-14.192272583568656
5.144450657788823,-8.662392003113279,-4.129827892724674,-13.842846847562775
-3.277523807558371,-14.306450195441261,-8.979229702891853,-13.106477763402197
4.584247708933946,-3.0671897042897975,-29.819287695429665,-7.779293385460404
7.377162756614524,-8.009951578804737,-6.090052502724436,-8.07084983551194
-10.025592520098725,-5.184639294272461,-9.559218006501007,-18.380102677988532
-3.4436293224534698,-4.53872522845219,-6.244313582823484,-17.917857543969507
2.9685431952610344,-1.705205925352392,-15.922568676652196,-17.532793737474112
-1.047897543388686,-6.704633873421733,-6.115928120445549,-13.561460292378449
8.022904484363709,-12.275043436019708,-5.1224646797099584,-15.23168006934291
5.8949105564548985,-1.6787328083362945,-10.403318024652393,-8.417456536317449
3.9246403979651983,-1.8959994739743542,-8.583857785196855,-17.669369394248893
5.646685411252729,-3.737994333199095,-6.740874513515486,-10.966451163844235
5.576446866318042,1.4814506786936539,-12.983878828746976,-13.239072590217031
3.062808137474397,-0.36145759158625124,-9.064762149982526,-20.24707947586173
2.941962456759316,-13.97327832761514,-14.705131424878141,-26.851586709104666
-3.92754439312772,-13.00711572283825,-15.683538158076486,-13.003534769521064
-2.576370010526862,-11.264968367047457,-11.246097884332878,-31.494976627575898
8.292857004665507,-1.9532619004887475,-13.726213412177517,-16.97065437892238
12.613545951203914,-2.732908267879233,-9.480265662237068,-10.085761646270704
12.748980902835713,-8.448697986419049,-19.55508611685633,-16.739607496096593
9.790975584974628,-1.019857997451823,-5.960381887093485,-27.26312595914019
8.984677397203734,-1.643936857669448,-10.43450799232077,-15.368778288104277
9.976748570924254,-2.6821235930504312,-12.533329691833194,-7.313185632806697
10.700157427076698,-19.779685095072427,-0.5881994683295555,-16.777032825234983
-2.3423912119356682,3.1547141014386444,-6.588541023353335,-10.79154057243959
7.033520693052866,-5.4461913522507235,-4.159139424590332,-14.530371501434285
3.9808993784036373,-3.693557887871344,-15.95120291792479,-10.858213122146058
7.0223596798201955,-6.4653721965288895,-20.90833444478885,-19.86984218232644
5.850755023519051,-2.806074009126656,-14.552991979474006,-17.48248943226947
9.781791841889385,-3.590825389793704,-7.041495294490209,-21.914796860810746
7.643582626163317,-15.731301202084012,-24.303617831349207,-8.901203922816082
5.888800629905109,-0.8029008988812669,-9.751459205488702,-14.338008545532471
4.441462081499798,-10.899057189338542,-6.227008706371906,-19.638513473733138
6.901399023032469,-7.947935652965651,-14.92542081044506,-8.852113934363286
4.566898252559115,-1.7432158894337104,-5.637274094863532,-19.379798853101484
-1.1120470347083877,-4.3070751537492065,-4.740446025653852,-10.46780357755431
4.937681577613194,-2.320734473791671,-3.890714485250733,-21.078421889302604
13.689819968894483,-3.4744622867396795,-10.756624477775024,-17.35986608472805
13.170163196990533,-5.194940592334969,-11.296251933974677,-14.459716102468292
4.049730442629933,-12.619219675604306,-11.04339940450364,-19.73282668255206
3.309560819889652,-15.101128260303675,-11.454055193031198,-15.172933245762774
3.424925642362743,-12.319124953038356,-23.16868757252297,-9.769635792829508
11.549267584017006,-1.477264056742269,-6.760095234294166,-11.760154710778309
3.5884376765291472,-5.237387845503742,-8.771367113654756,-19.17084287268856
7.893926654871024,-14.198560016576142,-13.223239166924566,-10.015467313245443
7.770102865180772,-2.893560235764712,-6.937464699825462,-21.780146344527974
13.722809704685954,-3.5632205513609425,-13.284585658134697,-14.147833040028203
7.713082539614556,-23.4962305978908,-4.7818739237762085,-18.763435285670965
10.974566405580456,-4.498180414777503,-10.302845942097012,-19.716260564928227
8.63510084450802,-4.8234367455846865,-13.532539145368693,-25.940988131872647
6.851976774450945,-7.082826647013416,-6.92469735480717,-9.386852398303766
1.5933081405827902,-13.07053438107624,-10.893350586559942,-9.216651568220753
3.0727423934264912,-6.4106106251571155,-16.896623786252952,-9.39481040549299
9.50845511016625,-12.694910893509018,-1.851806881264304,-24.471489197800462
7.934393597462583,-4.507431134546657,-4.183665701486625,-13.311559077297275
3.3682438414272093,-1.863014635925833,-6.049119775755264,-19.354485804738324
6.144731752186521,-24.384651993047207,-9.443687262278935,-19.637445071752676
13.584728315718484,-15.41885545429308,-14.634580361351,-18.104603086985623
6.475373147729003,-7.335213842435328,-7.203423398133541,-5.9738650773759545
-2.4051968181749865,-17.314034176938105,-4.297762284799306,-8.9629329312022
12.024285504481872,-12.38799406577691,-24.263027470075365,-18.774024473198164
-1.1606960907393686,-3.436815449213348,-2.932841414966923,-11.254834859240903
7.915092704753599,1.1619167425789703,-11.632807549027746,-16.69532941843057
9.313918900951972,-15.00777037525464,-10.314965979747777,-9.994621613613162
1.8183340235270273,0.22754157121948326,-7.108744874103124,-10.10546743515674
2.47651887047271,-3.4125211612432014,-5.067053283492552,-6.338787358086202
9.404488888618063,-6.4922792361000745,-8.127991665728741,-15.800131594008768
4.655125957096132,-9.291353279242141,-7.790369026733355,-12.639785890962955
4.899411465013529,2.221164673039959,-5.3651392156797595,-14.919556600962501
10.057619066983992,-0.08069952395378843,-6.409429452400287,-8.587059088046079
-3.245282625028957,-10.559212856319341,-11.539453309413192,-23.03315123562782
11.83230449107319,0.12386086581183742,-10.655473948522125,-20.402744196020752
9.088564534052598,-17.459358039950473,-20.432157048059494,-10.623633609496771
8.43173471914001,-4.631541466825986,-16.6815229773363,-13.87880400962947
12.87037861170391,-10.32767812074772,-6.308250429151961,-13.672182230545854
0.16260341721135818,-11.606430979123228,-4.843299337894431,-20.168992666534063
1.0841512133389895,-5.940457329781916,-11.571194498721642,-8.82570380353811
1.065745583697115,-11.925846099987163,-7.087174346841133,-14.917954844311165
5.556662844208341,-13.336071351153898,-19.27142838234203,-7.673793766578845
9.210658888277717,-6.0240738594893966,-5.666222925090375,-21.975508922415546
9.27738978172937,-4.837239272459723,-11.816867029124596,-22.511510383312714
-5.13450590014522,-2.1610978339161497,-7.933333873616313,-6.323975883824318
4.995352018126637,-2.456230084680468,-7.786819301090281,-15.15559693352402
3.972030828551361,-16.017783844281556,-11.537643600277734,-16.71945927280853
6.450214105746386,-4.888012232463298,-16.619408598241563,-8.48331339542656
4.940927771354774,-17.43952054755134,-3.1499330246618085,-16.64756630472152
-2.784292932405923,-8.401100906198897,-15.760833360508938,-12.150993816211237
7.832458026082271,-8.307308357389559,-12.398494189269408,-16.046544480475685
7.134147512834275,-12.088726646138532,-4.453937096509301,-25.253992768319286
8.542045354896175,-9.58158155261688,-9.18919438611657,-8.494383288653534
8.446000923638818,-1.3660460255168414,-8.691887508301045,-7.679642175972642
5.410310377168739,-4.5634819775570765,-22.417123300022013,-6.061494974804374
-3.834540894173035,-9.771083244026748,-2.9506894021757066,-8.973760898139794
-0.0701591257709242,-4.9209198088424735,-14.80386319440955,-14.21454027453079
-2.9766305743452763,-3.120785038385668,-11.836116411433537,-25.385122235649725
4.08328223447024,-42.994321259413724,-8.496149387875622,-13.74532931746937
11.022643708173174,-4.283450318404194,-8.21515987797752,-15.974405600070554
11.45669493413552,-1.3769186420298474,-14.61875719458281,-6.950625614495701
0.8796302646704497,-9.247676281457718,-25.146502416969945,-13.122782354546942
-1.9681353441871012,-10.275715239369362,-7.862847531677668,-9.947726156088057
2.631095447230855,-3.3699943040725358,-6.372706427341731,-15.433899702841853
10.930113609828599,-4.674368111377811,-1.578137511996701,-32.36013007532135
8.398324186575902,-2.6920045105872705,-4.24783680747216,-13.756629822635077
2.1265698172613234,-9.088540259407763,-12.898139285561617,-18.924189724212834
8.374543522388235,-3.875977923136745,-16.29409747936026,-8.284340221692633
11.494899108285074,-3.4416385447489843,-5.024280251283139,-23.58921312235029
11.359969433049836,-6.825919239721683,-10.741460834414127,-16.489817286108956
-5.003903709302239,-4.040196347740732,-5.441666700221996,-16.105985922300935
6.274739377013962,-0.14642619805109058,-14.982401252592249,-16.988453089589683
7.848029239143429,-9.487427064061102,-8.63502945089594,-10.013137026297075
6.592244202113827,-4.8440768757140376,-10.245160071702577,-13.54431576313608
4.213799713504975,-10.237445809263047,-19.55610208509291,-14.606631141286574
9.477438593267072,-12.026584783361894,-8.040471311066124,-13.452474453961788
3.7975774917096947,-3.7455255513341075,-26.634479211160198,-10.269231386679852
2.5080608107386326,-3.3116208921374493,-15.009962699849273,-5.446875412447847
-2.237998446306552,-3.2607579176789074,-8.648075989102761,-12.628874441325822
5.96413043468001,-18.591432579882778,-15.030379211094116,-9.906557680861436
8.531487772814122,1.962689238601622,-5.381854576863708,-11.55367810396658
10.973424581323053,-5.732409033815237,-17.601329640094093,-16.816673698527932
8.573492112078885,-5.480810348024585,-3.789018863643613,-14.03726005057327
4.313072728826297,-4.089041470278273,-35.40585266455629,-16.552654364104537
1.0254441319677274,0.048805369946336,-11.680717046620785,-12.733453330390976
8.76749462259712,0.7148035019564127,-1.3662075291776912,-9.842082562611992
4.22308559220375,-11.088066420751069,-8.650076165762188,-20.36104789766264
5.362460878960082,-1.805050744276873,-8.0891095728629,-12.575468863810467
11.881763807585209,-13.636613755417649,-24.716469027825326,-10.895524582194467
4.82472581887327,-6.924087263994865,-12.718031890452783,-9.635078717579695
7.447089778400936,-6.696944236129278,-14.882522779572335,-15.1166767309189
2.792531692211166,-10.59724808907582,-22.032723601352252,-22.663590232397837
3.2080266441703227,-19.608799110009304,-8.504113627996198,-17.334035123427572
11.176231472224764,-3.4073924962990003,-9.652675265355944,-10.167278203902683
-4.630590715288898,-2.3396375969383993,-12.405979747165585,-8.554549381975544
-8.227939986338182,-2.8545843303293803,-12.489847157956547,-4.696619060968377
2.7958281046854085,-3.037076759980931,-2.810240352350741,-13.479479778835827
8.212165736322923,-2.883682070370225,-7.492667772947941,-16.171329095217157
-0.272855143255041,-6.730184101597885,-14.158883463396721,-10.682128779122325
3.1766836549755846,-2.8598974091392484,-8.32488284124717,-11.483279763481821
6.792835475609465,-14.138153686289133,-3.0628569220146513,-13.444713841163924
9.302656350296576,-4.7535311640488676,-7.810321255193008,-15.166159214834018
0.0934043666067832,-6.1755153525543545,-12.185745683568266,-16.527329962383888
8.764139446396157,-4.995583602561771,-12.073858394841144,-8.42209753926965
6.757968638289072,-0.5460306612161183,-19.002530699507545,-9.78777001489889
4.5217684570372905,-4.575265070231016,-13.25361822086938,-16.790790506498787
6.8187381310261985,-5.390152230217613,-17.49312997862905,-15.799011868686279
3.318790659250447,-9.246433606736932,-11.088472798293347,-7.539022851643107
10.40179239309079,-5.117977491878591,-4.036976687243216,-6.038060075890218
4.757848569912076,-4.6418538218744825,-9.605933963697685,-14.155622330616541
-11.565588354403122,-9.676061140374566,-12.037443436773803,-10.22375166227274
6.738492395816012,-2.488418847028751,-5.066858673163479,-15.757276022901372
8.469276168008566,-4.032940036620575,-18.42410474524783,-15.643013947892705
10.6820148086798,-2.5814838284576545,-13.81774940675207,-11.433502914862537
7.114632771574134,-10.015674187147269,-11.560795904727451,-13.026034040006408
3.2570247955248965,-13.479165996668357,-6.967371027236334,-10.729580390217421
7.696938188918962,-3.5271390518982577,-7.198379931209125,-13.184586841385816
5.2303223019876075,-1.418002817147713,-6.935248246246569,-12.227871352797465
6.461705931959309,-14.806202956942176,-15.233035264826585,-12.129671737353235
2.0974852760305427,-11.317973247488002,-7.686338740717579,-10.406746809641222
5.052064751442828,-7.738056999910757,-13.879661185222284,-23.27229663886548
8.087213767008352,1.0321680308208643,-10.490942812737252,-26.455123384673055
5.489580700118888,-9.995765054958737,-33.11213844900967,-9.996448886177209
-9.153572051637619,-1.7233623899082775,-13.092162248364689,-9.88165853243144
-2.734284957184764,-11.297102725802905,-11.34423258146158,-13.489868396431529
0.396358337157682,-2.5710865507382965,-12.561764630449403,-11.660146560381351
5.438427744827469,-5.790602831293214,-6.932072079288918,-13.566771764219723
6.654718913121036,-9.757128512773832,-8.32577753516545,-13.255826427813659
10.595997965799782,-14.911949990744166,-12.598481398532849,-17.254857705622623
3.9933588650751854,-6.253198359843541,-9.009502566204008,-20.044832871917553
8.046510532839926,-8.297102019056432,-27.115919554524687,-14.029350712649386
8.225840714953613,-0.5599343223121336,-13.096131983539324,-15.306160547970578
11.872562065438478,-5.74706384887082,-8.273348440314711,-15.270892153582874
6.007631022606991,-11.921429493752749,-10.195298024672757,-19.640010664022313
4.368737780319137,-6.020489502598906,-4.2554525994101,-10.720801533948318
0.7401133256111843,-1.2383901360615233,-18.105852091942026,-26.708122085701387
3.666306140665302,-5.610666585803525,-10.172157519668973,-20.480877836204535
9.24990719034296,-9.669802921574501,-2.9038573583358884,-21.61925425340029
3.7673202953656233,-0.8008309372356135,-8.740646917615766,-10.52840298856239
8.926547652653737,-15.408653118514806,-10.67486014983692,-15.945617207800915
-0.04882646173956573,-4.307009180043945,-9.024579110279317,-11.181901673729676
7.320866283125228,-3.650868924860173,-4.34566834045574,-12.574109310018748
6.27266762249652,-6.554183420596853,-8.923228286598448,-12.350282239939938
8.541132122773856,-9.178446701031186,-6.508701469881798,-18.61095220260934
0.023826970867525166,-3.29993766571364,-3.520365882180169,-11.53866454465604
9.313328877767686,-5.042727990192848,-8.403558468880322,-21.26036722393403
3.502356304849859,-10.359652113277773,-2.4688656568224427,-14.686021529383233
4.713707508662795,-8.220008772513879,-16.697376534658225,-11.691699431061336
-0.6354970093000487,-3.458598440478563,-9.208230363828768,-9.900426652114422
8.197837557737259,-26.7870325011258,-8.456216756732323,-8.235167349037079
-2.6011950648171247,-7.20894394180365,-15.585805918845251,-12.03944060317028
4.1077656319762,-13.090706582994962,-9.91137541087931,-16.831359266691383
-5.785004513744516,-14.626262478498099,-5.0669298576450945,-8.884270447136684
11.421119177782247,-7.735281055636181,-12.840377300089626,-21.410830236256334
10.390472514174487,-7.631026504140081,-7.406139823226033,-27.98015890477411
3.1409284687712296,-4.3106477099265135,-7.149957017310568,-10.299166710456468
0.6490461022771901,-6.37685324121054,-8.757180316688443,-9.440273860184142
1.9666122190128406,-12.08439894190028,-9.978327015601984,-9.001125960389674
-0.1738120235451075,-11.13971295335649,-7.456396236157808,-15.359073723333122
5.814685705819441,-4.200443140664921,-20.1370171254735,-20.219680713900193
3.3397133136462207,0.9784170584047498,-2.8113820584941056,-10.622913813398782
6.579413015649316,0.5208245352158847,-8.45001461909245,-9.715896597019846
6.105394475537112,-7.450901563368662,-8.6817208720586,-19.911640800369337
9.532065450272228,-9.980598559644205,-2.1423906781030286,-10.448685967744485
-14.229182521022743,-1.7795802844842092,-4.932557121571035,-32.65195011076882
9.999693462011123,-4.524660599176553,-12.688314165997259,-10.92948441052189
5.319808275949239,-11.3116764963363,-3.3641189853248825,-22.274206766408025
7.747937472410378,-1.5995589140583175,-10.531559301406668,-12.65966232986767
5.922948198445959,-3.8185495341690854,-9.606318320667386,-11.238215778665355
6.708377157261639,-11.892253783691169,-15.211363135182117,-22.189903113454974
2.0386111745063507,0.4449762767303449,-16.99352833559398,-10.733135186734707
9.425165101181593,-2.5664993132097966,-0.6803708309790499,-19.57032387429973
-4.40986018358493,-6.515538909870857,-5.794721874950437,-20.441909779635484
11.739514677048831,-17.433081772269897,-8.073242343709198,-12.400021930307783
8.0249746103945,-15.758143116537674,-1.6290363455621284,-4.074615352157884
7.131906004727728,-21.86005857127014,-9.282213028869347,-12.302051965742615
9.674184817808566,-0.42990564250501073,-8.808079741485402,-17.159407407089557
7.352260360187735,-10.609656828707642,-13.34190649923689,-20.667055136713934
5.219467422170247,-6.811262950609748,-8.298486495088692,-10.244772621615118
1.6936855931560775,-1.5862413783027551,-9.14810224602519,-21.332130927557063
10.03303807215905,-8.868585895328188,-17.338971838149114,-14.753264125234967
4.752528273009686,-16.19454813155625,-7.488867892635097,-11.553137307074858
-1.125821424395042,-5.794501518899114,-14.741744802793304,-14.381866318706262
0.04265878118533761,-7.531174083206233,-3.804336633251025,-8.606421648487741
6.658693365079783,-0.8923888933505926,-11.584958009085796,-14.546781180767166
2.4976569491577356,-1.950258395646348,-13.709426183280678,-14.323361774800254
3.1357982269315636,-8.53147174066722,-7.2984402601964025,-11.587201209430054
11.456899034742602,-0.49027003749452325,-14.434507445585735,-9.573468929433991
0.12108954846479492,-9.332474668179334,-8.395471901488497,-12.942116178972563
6.322083805292896,-5.592232103072153,-10.876356960459377,-11.807728203234872
1.2437480085064525,-4.900962631654895,-19.037320418759357,-11.338379882176614
-10.448188388014458,-3.2278974505994182,-10.907098553676267,-23.894283612575077
8.351342032700472,-2.8874563206392083,-3.8602510155508707,-12.653158306725434
6.197738991803529,-6.261519968309386,-7.68923759188255,-17.709325838036964
-1.1929162474144945,-13.78885953003569,-3.660315316277468,-22.86808730440124
2.094785298455464,-1.6217598763784618,-8.554473567809733,-12.86354535736239
2.5249359688125836,-2.8803493144107066,-18.491558016102722,-19.81852923287405
5.56906636088938,-3.0515617271245383,-3.889473000288892,-17.856469704196154
7.19289061436764,-8.294610286402705,-11.613073939579925,-6.561757455277215
-3.4708565819066584,-5.506678850070964,-5.440719630228614,-12.271407405325444
6.737860539113948,-6.062847849481818,-8.71705829726198,-19.58768608978269
5.68949741103989,-20.862246672257108,-5.489998436235675,-5.339620359663151
3.717231182400031,-4.543360256518319,-11.605472305671665,-6.601168274799289
1.5831130682857264,-12.642576271694834,-6.6684382101537025,-10.418726786252266
1.753344387402838,-7.4375289576528285,-14.494281855714016,-29.04198470688524
2.866547190072027,-15.936717188880568,-16.700411357715318,-22.4515477201933
-2.019332542354128,-5.875254203694807,-14.358165298041373,-18.426169723854077
2.8997230412748345,2.9094806190311457,-6.338976852415946,-7.254729389232875
8.469764447357043,-1.7539859557363555,-17.09003206314066,-14.985410928766473
0.6499786690747738,-6.03056822644011,-11.265992625081696,-10.496907542385163
-11.430114755856849,-6.806142828553819,-25.98963731655308,-8.43981164575775
5.105912483944563,-5.517314376030715,-2.986243883675259,-8.352693308105756
-4.644382998690646,-7.214388420777995,-12.199178654021738,-22.497207956755453
9.196328528242095,-13.884628725192215,-4.569605196321859,-15.045127573282382
-3.315568652223657,2.7669112963369833,-21.738328342843047,-12.64847876135681
-1.9411357326737715,-15.695950755329498,-8.784919196045777,-21.1512354456178
6.863770203105812,-6.552925920911559,-19.92778518609282,-16.299606274603367
-12.2610079683943,-3.8637999328387855,-4.18883026119024,-25.169128687349506
0.20700727033946897,-15.756619915926414,-7.9874296210902695,-11.064133808239621
2.100714877259937,-6.582595254428643,-15.991349437340576,-12.010605631815398
-10.45136842192035,-17.852807082773538,-9.885027119008523,-11.030260615832562
6.1605741675038725,-5.90228543601777,-4.9854451084604765,-29.853769677694512
2.2021656027809406,-3.5197507513199624,-10.264892980629696,-12.63874439763511
10.19246851794639,-7.340430164401003,-15.409706391585681,-19.124614696068097
8.567971141856098,-4.455636512993712,-16.854760297420704,-17.416166311896976
3.5864777859395804,-2.2425092420304344,-13.672646719742447,-20.657450934918753
4.917695897696912,-7.172818534355317,-5.824470745993931,-11.795487633448188
10.432851804516575,-3.787320578676995,-28.28373770211271,-10.164672971976405
2.6974037427484694,-21.302360261428024,-14.091879648247323,-16.51860026655367
-1.963826329575185,-1.0772460724376889,-9.673693847360115,-17.781860152589537
4.073319153255952,-0.1314719423117845,-4.186002184766226,-5.781782143048337
-3.5639910869306695,-1.877733740827273,-16.460164070179495,-16.262302241029644
11.87210863975829,-11.91348690116995,-6.977302254372752,-9.67996220210848
8.068744503363147,-6.047562541152729,-13.340552699697716,-8.180321488349518
1.6673999104415507,-6.723958186179331,-3.9367736472666657,-14.185837320198548
9.78737937867966,-1.739016635010168,-9.126925796537778,-7.315511742563556
9.649110804231011,-7.156932782934229,-10.258532360535307,-21.237831638676944
7.9346217202846665,-6.180495778451675,-6.929143234040996,-16.508222096522953
