Freq_0,Freq_1,Freq_2,Freq_3,Freq_4,Freq_5,Freq_6,Freq_7,Freq_8,Freq_9,Freq_10,Freq_11,Freq_12,Freq_13,Freq_14,Freq_15,Freq_16,Freq_17,Freq_18,Freq_19,Freq_20,Freq_21,Freq_22,Freq_23,Freq_24,Freq_25
inf,18.597563718992774,13.55980715914843,-6.1326568548137566,0.5966898490565882,-23.703331878750966,4.957774537659155,7.012248125543785,6.479446969554893,2.0675431510063547,4.274181464655371,3.905700469013638,-2.1913456319018536,1.061110418297453,1.032600143217472,-3.6291514747806772,0.1216389271117535,1.422871832709724,5.255381816400472,6.687819575872098,5.304446915031825,3.4652253353489684,4.738678899487809,0.22812251443352238,-1.5174966623112667,-15.658765835737782
inf,18.224863996802164,14.626608927679172,3.6430066565485753,2.8786643937246623,0.8554408455515627,-11.341132365335014,-6.7814526647929085,6.513161272371143,5.705113471777743,-10.443839477382461,5.239809445234933,9.447411280748874,0.35111372833728893,-9.30099807284261,-10.513045711953538,-2.1991151667633204,3.0343531386303724,2.3454717601035924,4.5455040707015755,-7.066429197935996,-1.264656186722668,-6.714649248338077,-3.0579180453966757,1.3152388592576045,0.9337235514735198
inf,9.040725750138751,0.7673339381390782,3.6152168012048023,2.086673640715137,4.518442321703116,6.006703486475981,-2.8928304788277472,-7.695362774504659,-0.7283270061041449,-3.6985143331002206,-0.9518022662936048,8.54077459863258,7.023403955538555,2.3417428440909234,1.6178753025787742,-3.1347644992289716,3.254654889670256,1.978783834822508,0.8907881190062596,6.1512346215181495,3.7330306748022437,0.4820071698315971,5.035674291979731,4.489583511910496,3.3567990564888603
inf,15.990309273716889,12.11379942111023,-2.970323741782334,4.077338431085664,4.312986512696483,2.352329724729934,-9.39855131067992,-1.4829532608443898,3.226328638697396,8.132304287819892,4.030552628625102,7.128687578444115,4.473465420738272,3.7011543809658036,3.6290865599263142,-0.7782708663375004,2.942805528976706,2.616181574663429,5.066346390157307,-3.3731851110456574,3.516734506746637,6.685036984702265,6.074827924650698,1.4641484345031586,-3.7554338834321968
inf,12.26115536160609,7.820765316174725,-1.9784711114496751,-1.3761720141463414,5.604020201509744,-1.3513971993791358,6.671681855597498,10.020314734605634,1.4156101529056144,-7.191268730840548,-12.599749101173543,-2.1306649930987973,-6.654584951764392,-8.871294604437935,-10.665708378329327,0.9602011454015624,1.806672606628787,4.964137617967587,4.402760019521345,-1.2259807366566875,5.1898589136267645,2.7672580129647386,-3.635847849958303,7.5749962497997245,9.169899543727475
inf,11.0404273334447,9.31994679495103,0.5460679799755468,4.294612440491054,-0.347982367162615,0.5943569525485515,-1.4330235550647359,1.13268335668932,-0.32651852063531805,-8.40593907848919,-4.974047135953043,-0.8422832908702347,-6.406712088127037,-4.719709627544077,2.5998971835560383,3.050585239981551,1.9425867932605598,-2.330575841109578,-4.349432595795243,0.3729407621257437,-0.291473902218236,-3.0170854151087525,-4.793087179858318,0.8341808673808231,3.439797637971651
inf,17.12405876439928,15.220759125254794,-3.3932652028946713,7.281035137535987,9.526210711286009,4.470354095682211,0.44855364984614,5.0457028492485065,8.322995724496643,1.925929004821377,2.5538708934199548,8.189288108096932,8.493682952614378,-0.5292159577700701,-1.2397937714760374,1.203971805952186,-10.542517290221326,-0.83980160950086,-4.459455381207285,5.297879073366438,3.2235371215811526,3.827619860682404,0.8682559459588504,1.6069955155379745,-1.986098348733364
inf,15.669320232574954,11.938841154424402,5.77349224864038,0.30682269824290387,6.768537214298256,4.348245373107368,-5.842979914048001,-3.730444960739149,-3.6853855251252767,-12.974876654920791,-4.306631731429064,2.204655726131527,7.728882595684411,7.07717560638639,0.584498350563436,-5.180382139498782,1.612166257732767,5.059420755986622,7.8787730811419365,11.13252599713578,8.466495709039222,-12.236127812233072,4.995340100637748,2.4767998798424458,-0.8567151565872848
inf,11.606645522251817,9.310067628797484,5.874946556098937,6.398600821589515,0.07489360210970375,-11.166353022591117,0.6572470331034523,4.9091582723116005,1.6775679210600103,3.932552357030218,6.290682965011413,-0.021473365516122556,0.05854972410886461,4.300426408126938,0.2971808185265914,-3.3632616776868574,1.2633280946010004,5.399900502231169,5.099783486585167,-2.919625350388735,-5.954920424690876,3.9591239722803664,6.032310338088465,3.1541032595975054,-4.0156925483668715
inf,16.42425694132737,11.422851435856042,0.8746200215820856,1.2212925828782453,5.945417104487838,8.594198561822306,0.9644919823406894,-0.10665827411315831,4.8369885831443895,8.832261519897415,1.2433670570672604,-3.3122876508775505,-0.5871317262047029,-1.1544855471819488,8.706147850158644,9.168333404899244,7.55456896109844,6.7718240748804135,6.5324035835801695,0.24680001812500763,3.2270768374625973,5.5724077491107735,2.284089484402358,2.4805204289044056,1.7713255735769735
inf,5.268710218726493,4.204906198942972,-4.861208628893973,0.1068475729544005,5.030406644524859,5.651521280969483,1.7040372552171164,1.7920678902709284,8.58581238210191,-3.5388919569090334,4.6237639308216245,7.44776186237204,0.8651141800528208,-23.848433791492923,0.15830693815647123,2.8993236926329473,1.8659639152361578,-3.2669071711803497,-4.889033010004589,-16.03861998577127,4.187703827163666,2.539481253742146,-1.4166857889870101,5.017366635666889,1.022478085743849
inf,5.010881801095369,-2.0197859240096605,3.9692773386014615,-3.1327406738449923,2.6266742939825107,0.3649947555625488,-1.0434514707780949,2.3279396892619104,2.1291379394778787,-0.0034763993567068496,-10.562050036463717,-0.3990783399484741,-1.9933068822800095,-4.775469764094318,-8.351693274410593,4.8442966319842,5.112000196916668,0.49796353199160137,0.7400218697923222,1.174186178321051,5.4356694614993515,5.365317892521752,3.6644293685473173,-2.0657197882512435,-18.22313908250956
inf,9.357668905654336,8.981967808910582,9.06594859402744,-7.286673051514441,6.745827133515373,3.9299793418179547,-6.204479445867172,1.2541133018729127,4.388894932432848,5.587672707361364,-0.9366634355310026,-0.07423541536161338,5.50276149157461,-0.05272629479822655,1.8814210472930597,3.3225152476951294,-1.9794717612283748,-0.7240899507444567,-4.467535911840223,6.0116874644285545,0.5857751345756554,6.859773248782204,5.443873985162533,-6.347376590906769,-31.617384083023083
inf,17.29790630054481,13.626550549252547,4.688731122091198,2.106451879718172,5.99552243059377,6.519283878423643,5.771869658274902,4.621433452254209,4.382656012419169,4.676084479566896,3.438453115610116,-7.603425075388401,-1.6399539435070523,-5.36346945376507,2.0903794750615106,1.7295902898310018,-2.8155274145886082,1.6201116333093637,-1.1577026882331367,-4.900881049864175,-6.1534912009762905,-0.1667896376563789,4.812522941630242,-6.994673207389297,-4.176174159228921
inf,16.91814778114936,13.71466913095105,2.816597592893597,1.1528072508629208,1.888774081060184,6.824469615737115,1.6296185174082183,-7.0212959265148385,-34.93946358087673,-5.257215708489639,-5.938138045964038,1.5581059235715742,6.84492408625983,5.091646969835814,6.259707967738429,5.022392935339774,1.7422566786152274,-1.5639564745744963,-6.775055919204242,4.455630733501209,2.9740532719759827,-6.728047892306897,-7.144609857797889,7.196660430608219,8.886155008703
inf,20.27305041128716,14.056766370263286,3.6394921194822167,2.81706441751642,1.2757350806422565,0.7830646246400406,2.6692740528770003,2.644888677836839,-3.657292745029423,-8.579991397129042,3.833250354760743,2.7477435368727896,-2.4999831174348444,4.485471130243752,1.1980155806560617,-6.325619954735252,-5.51629770179369,2.130571620916861,8.68596194797253,5.746146986495987,-6.305588533145688,-3.2576162957920616,1.19772370869687,-6.563290993684461,1.2576719239754652
inf,8.846732562796566,6.986555737799193,-8.367218235190524,0.2574040462407936,-4.160060984460607,-3.394825578396059,-4.212462160231013,3.03670032182567,5.000604326383545,4.24594095302308,1.623356438233607,2.050946338489453,-2.7519990767178086,3.1186972436366176,2.0918912976019186,6.481429264798884,6.532633521706991,5.931355084112418,4.446393002127344,4.655288172585841,5.694771668114818,4.175853827612968,-15.147142008710546,1.638179495166554,0.4628554680075183
inf,18.51196906858212,14.464111250765392,-3.270857630077817,8.177443123159193,3.5312105550325086,1.535667605788035,-0.07794777365610628,-2.021761401017379,-3.666485415943768,-0.7722126136177394,3.2272509044751274,-0.6082915647744329,0.4281192445854529,5.1104798912358405,3.9125357192819195,5.722255462304467,3.1368315519805137,-5.800246989548889,-17.68617669187359,-12.702247395419441,2.4788572150099313,6.765909042052797,6.111404425750813,6.406458070371443,4.789587802417593
inf,11.537993005782624,9.577373391716588,6.495649930248835,5.088125795072173,-0.1961412092700172,5.332949094011237,-0.087565553105442,6.086544145176866,-6.812602312648956,2.45474520806669,1.8122045879847022,2.516484379511965,-25.419032551673176,7.517200215366785,9.682415988819315,9.080014083107187,4.632348879497535,-11.43022956074985,0.3549916774896147,4.2999153344837,-1.9480181809960015,2.6230999487893882,3.1548897897844554,-0.21829778679048673,-0.5543732098563865
inf,14.858478573606892,13.066494644990719,0.31750011249487997,8.337184429447,7.278145326497757,-0.07197036620530639,-0.33620566216612957,6.168431820732344,7.790036422995875,4.954054946919669,-3.2439785440385123,-6.315668149541459,-3.3222125110300524,0.6041052625770149,5.244494599663312,1.8576474199960344,4.939774794873998,5.190894519622866,-7.350122888213107,0.8941924943380215,6.237927099773323,1.4060115294889144,-8.292566891601055,2.560054595407749,2.360996253813475
inf,6.73504976748438,6.735496206106831,-0.9781402773094356,-9.925863100297597,-2.627327154052267,-12.69967740472071,4.854121521053152,8.027279465918465,8.877846528872439,0.8780826401031661,4.589129135341764,5.7528865038362085,-0.4839705642036165,-10.665422319652968,-4.7830617647265825,-1.2797994365967256,-7.2293370926661,1.7401167299851537,-4.513345112965283,1.0475765653931433,-1.066600950390857,-5.39048652579028,-10.13389792075047,-1.819891978520097,-6.221190770100101
inf,13.658820732939763,9.371638681649287,-2.630310568700782,3.369046901011039,-10.603939212759663,-0.2961628361020061,2.9424882088857203,2.349481071917424,-10.132602409421061,6.708928650236082,5.275195243955395,0.08403630408315621,2.5408089552651916,6.219430256824971,-2.075186209038357,-7.876146340552339,-3.172712829648802,-4.594756093689313,-0.26628233074131913,6.079638327828853,3.3889559283015984,1.2337511433485702,-9.388887896572065,6.642278858762552,5.879874345337882
inf,14.34731127337385,10.423186651280197,7.525877318703465,2.4409524046328386,4.004436322283567,0.48608264574417603,-5.9184742606068355,-0.44872989787711504,6.391522690653247,8.005669538434788,-1.8090638442748173,4.089927445632156,-0.8117872599811307,7.617589667315279,1.6858883626624817,4.808650234930283,5.306481691255776,1.4243242153797269,2.8742515153770185,6.6867315922443495,3.9314926160500434,4.82707028444996,7.009495859510409,5.948799606421758,2.7705130909463804
inf,-0.37262389651373695,0.34004141512686203,-3.7259127719713554,0.5954021649561767,-8.039601278011745,-4.687287106187121,0.2493306248533571,3.0350742982798735,-3.397199680196451,3.771987520850786,5.891238305315397,-0.13710431156519576,-1.09797660996081,-5.65213558127904,-0.8575669492634717,-1.4961033887391082,3.6835086743426118,-2.523234748951694,-2.0157347497903615,-0.639276815544271,-4.113988492852542,-3.977462024215754,1.5511296910278816,-0.1995701057653534,-47.802826277614415
inf,12.812843712759635,7.657476701198341,-12.780778945348633,0.06455529083514477,-10.55605061502375,-0.8197924012377626,6.632578850804904,4.362431377288246,-19.75278552160342,-2.5632376985784333,-3.755143447413559,-0.13133518621703644,5.4796815816461475,6.6645241831048025,6.853654517014249,-0.20781042253153004,5.877524771336432,6.180254575060218,-0.15973614376304113,-0.48719055507235254,5.194526870706383,0.6029649214796109,-2.3020396802456204,1.479354496304694,-3.074075341673378
inf,10.44192922849237,7.687896989829575,-18.37888596851396,0.6781715396492061,0.18636534383675496,0.4315201366346315,-0.42080217573515455,-0.3720350581249434,3.1631057076450304,-3.2765018780757273,3.8738664673698366,4.0233445903351495,2.94934903339972,2.9659561257294698,-8.617206814527187,-7.51665843421258,-13.869213595037749,-14.773406454335131,5.256407436712756,5.776036581408462,1.1442923679169397,-6.428094203316469,4.4760647792254815,8.068077543287153,-0.4774001709015181
inf,4.567264430929267,9.836482633581106,7.34064368437733,0.9676527756295741,1.8512792636800839,0.9158235087782316,3.3856577895719937,-2.3498246129223688,8.877255848415452,6.579804068315511,2.419487877713948,3.4035978189663396,-3.423702377311052,-6.149086726960064,-5.593741577868322,3.5417814542697172,0.47234912782239746,2.9969256792042103,6.01761926656873,0.9221859074157237,0.13732205255741547,0.46936878468630283,1.5840273184245603,4.56086720348636,-4.952518886775053
inf,19.38718957027456,14.802004868120003,7.53495607942919,-2.988580036536746,-11.561504890501318,2.7747879241066684,0.4631678664093144,1.8181653241042994,4.764085477290436,4.708401048281829,-1.7405020073189092,-5.466589271880984,5.432815029498215,5.474196543561895,1.3632731339569233,1.2204971695315905,1.3701610485207354,-1.7862817004081748,-5.4502381877993,-1.4919997006116503,-2.014615283824604,-9.137247196676647,-6.618079556184789,2.6627186181357985,-6.911077092710563
inf,0.8966072168750898,-3.3438155053023664,-11.016230275254483,5.265607719429873,7.4988426308145435,5.550961026157374,2.260196318478677,-6.292132218712496,-0.06206480323452723,7.008694181461479,9.86033607494533,3.9980953783021533,-2.96746134228723,3.4901386026853416,3.5577164080632357,-9.743843216294827,-21.23533694096333,1.1319227122675528,6.927524557068033,4.00464339594248,9.251058540798283,7.598384488661978,2.7663500659330964,4.599134996564793,-7.614367693765004
inf,14.310329524591006,11.512494833541641,-16.107609332052416,4.782085028221783,2.6245248072307206,-1.8620999859180785,-3.3440853677935536,2.547180074462325,4.826440324942304,-3.2976655745774437,3.1119937856320945,9.567633602517176,8.900193790125911,9.295076445386023,9.868633456262486,8.174908335150818,4.163627264636901,3.360635227423799,1.6360415300836308,0.3608293937212963,2.5021483085284615,-0.6161343450793169,1.0793321397879367,4.168805580607895,-3.3298645482925266
inf,14.259904247228011,9.135540366569742,-4.686977719568237,-0.7268396019862138,3.025568901335639,-4.085059650179055,1.3496000344937897,3.6797659270688,-10.44220080202112,0.3268130638115778,0.4014510084134315,-2.8158721456902285,2.91776034429229,-2.215512437208396,-1.44799472742897,-4.712853193015924,4.3893399219166085,6.910020995674557,5.030360002453541,3.081706983649198,3.4015476500196016,5.617289540227205,9.846170891099078,6.368419154412678,-3.355215439484681
inf,5.7429618664367155,7.928551690921157,7.3519570721694585,7.655105785766239,1.100336431894462,-0.32926063052510557,1.0897888489471015,11.172610083060228,9.303720505322389,2.8371797659649545,5.033063684517849,3.2157291544535553,-10.195901805520556,-3.443933842210143,0.6847493539140856,-4.659618974374517,-7.053222560624391,3.5298548179172613,6.43307980536985,1.2564809053073347,-5.078497973754224,-1.8409650768883665,4.4914113331743195,8.475289770820012,5.795055917979134
inf,8.32928387402721,2.7496312865737593,1.225441721424101,-3.10089177199621,2.0417369001506316,7.195512683152515,6.111214902143303,5.122039570033955,0.86998794919392,2.4507829374815415,-1.228235825706406,0.25117018037258987,0.5332953278767434,-8.827434402429432,-3.5929066565824854,-11.42658747381099,4.35286689358221,4.360823969682315,3.7861974397228977,2.416355685426545,-1.5810238423184941,-3.8023095887310348,-7.2752918691321895,-0.5742758876353875,-8.417677899672654
inf,-6.258259008377539,-11.343884716251722,-0.4271730421821438,-3.806445780626902,-10.186803560555752,-11.364373974849201,-13.558659683960265,-4.9476431580058815,-5.941146902657998,-9.172097030230638,-0.2929453336620611,1.2387761335351541,1.8576196593852998,3.7984735850451585,3.6852212118153886,-0.13689737880249453,4.618136856669622,-4.802302473896489,0.9676151312876513,3.961630192045611,-0.09790184255832202,-4.373193875519242,0.3789115687502189,0.9035670537731946,2.247696158636714
inf,20.47500141317139,15.133765895388976,6.860839834413195,-6.149324996259011,-0.7947059920848645,4.281998484924429,5.908721378175954,3.0454831624191527,-3.0694806721740235,-0.1053999306093445,-0.8922464773061023,2.622226136566347,3.74739746200148,-1.555757250454107,-12.885980851564227,1.3045486033340552,7.792497278664953,7.387185328594086,2.2737013638745225,-0.4518692940190263,-3.7331658698809207,-12.217329480400792,1.7207085678312808,7.97791858236868,1.9803831369412563
inf,5.133266375939957,2.1749296161916902,-3.4669891495161558,0.04114522295262191,7.873729682485546,8.236188017262098,8.08066549987586,5.704011341694297,4.3911977264778415,5.7864659101570055,6.168703851640053,5.619413527882315,2.556673423609965,0.1287484594469035,-12.2173144805366,3.31387368786136,8.37387519510228,6.192904947210195,-4.904508218919354,-1.9371047004830544,-2.0291906671944417,2.1094156164480395,-0.4144371069542174,6.623374355529123,5.435253451297228
inf,13.727658379170295,10.834095998334103,7.059930384643188,7.565055143016544,5.474099469542562,0.8903907767239048,6.2270781515032,3.7072515630978486,-9.964478946524821,-3.0679169683795493,0.2793835961880191,-2.933213006311732,-2.8920568304238614,-7.460878935091031,-8.95660605420052,-4.820699050130976,2.3176714499873015,1.4337504863542705,-7.224499674798437,2.4008477407758875,0.36818528515860294,-6.216363661681029,-0.07143251681556251,3.8385095269667815,-6.081395131144326
inf,7.261402741240548,3.9970356665389275,3.106202262824521,2.9498584858440466,3.0330048507458613,4.875217953070358,1.300798340471637,-1.2335843216019526,0.3127155972784692,-13.15864546296843,-11.456748597742823,3.434788414649603,6.909045952114489,6.945675563498746,2.678135876462683,2.8750680148054,2.6686555231251603,-9.650905180214579,-8.009627559970994,-1.9219312732296459,-0.8040542286914913,-0.7819197918902034,-8.180363266532432,-2.129511376694232,2.1332704566027445
inf,11.760182764012175,2.6852010138621765,8.4422708543722,4.351260028336625,3.720327856828373,0.36414835916360033,1.8821051612710278,-5.615778891036676,1.682014680845306,5.254954033643102,-8.573964983419806,6.351827805830027,0.27716104583975465,-2.9897595015479723,-0.16809968409662446,-16.31076143106649,-1.9243618059563872,-3.035325545007929,-4.673926375513297,5.62810347620465,6.483657333286494,7.510739300919312,6.859382333232766,3.0624137725304195,1.7563635653323004
inf,11.529115607109052,5.313585571687639,-1.5934183849039663,1.646354643277224,0.7089720739817409,-9.558248334220622,-4.755202186168411,-4.230104947448865,3.993472827533161,-1.0467478043822283,3.1668358505587335,-0.2370816488838443,-1.4597847273117495,-1.2329929543024676,3.4095310756539234,4.586694083287398,1.5087877119580426,-1.384448805751724,-2.1282835474273085,-6.31291108614645,-0.6425443310509351,1.4479348132962855,4.404186495298148,2.17413820229433,-4.462787444580286
inf,15.5037372375958,12.6905805004238,-8.812564492992099,-0.5326802495029384,0.45719513237556697,-4.551662795583155,-6.291354542947964,-1.7571166269140477,-3.998760346319287,6.471881214817721,7.621939307752086,6.347149966687091,4.864897703590707,0.4123063704926011,-2.5123472869140997,3.0700619317355375,5.1602879660491965,0.3902963754088944,-10.300444790917865,-1.892125375446156,0.6735233126857807,4.988838504825793,1.771991823632547,-14.419543122198334,-4.857458043384263
inf,15.531052639008976,12.679874081821357,8.790744778553986,2.47722323884992,2.8095368377628134,1.503198555610922,-10.262804210814394,2.405041768192021,0.06576859320261974,-8.616048158331672,-6.194945122364388,7.79693338370857,9.502615802329522,7.2373178919444,2.7154167359164134,-3.2518627426556534,-13.431029477843225,4.66159693304968,1.8348419884678009,-1.4151889330047354,5.903667632676587,5.300026547453328,3.1289725349202655,-12.427618723611197,-6.66720215445811
inf,14.590462802087266,8.214302952420109,1.7621490161386681,4.961420946489657,1.8711399437477638,1.2191061633820155,6.2552383683198585,4.587571581007538,-2.726188875450454,-3.0296499601475517,-10.661336348576349,0.36727531015166903,-3.167639877201168,2.9802880268836347,5.252283580323052,4.003998370100042,-4.9144480502166275,-1.5048058438265315,-1.350745256942723,-2.3056443391497297,3.693779432218797,7.655624574334041,4.707442925452682,0.22425578582654282,-27.00649636602776
inf,2.01813435677235,8.887054671172901,3.035775239913068,-4.380057137499406,-6.149190342923653,4.6343523915288785,5.168988103398135,1.6254449545050775,1.7803487907959834,6.196071383541543,5.39088145506372,3.9896101817922514,5.806482732384694,2.5178720423525505,-7.975951558065205,-3.1700506255468426,0.2857738007686734,2.5462667727780968,1.6429999456510487,-3.4258337775463232,3.951138325162553,4.732367913586863,1.1156748425598906,-0.625152569344408,1.647273748622105
inf,6.499215199594012,3.582323688748886,2.2830001827745647,3.959201363501805,6.083793093920139,-2.8608176589600447,-2.002751685577678,2.0989022112679763,5.476996459483097,-2.146678298152267,5.579522559795187,7.331555431026686,0.2514944905123997,-4.3568003453597655,3.0884902782754438,3.014001659625457,3.0323061951695607,-3.6909304223042696,-4.671574054427744,-0.7260798553227517,-2.4567096995824613,2.418312904149545,3.5389309346703186,0.7544332248142069,-11.865858939130916
inf,0.47663067330398334,-8.142766074709364,-1.9294993639471407,2.322689203654406,4.5495363138856355,3.618271409773932,-12.845487752835702,5.211216550425135,3.0662318578477112,-5.807984170103282,2.61721780520719,6.751595372014975,0.8413681992704412,-2.7627870022510947,2.391228233000078,2.5423948492421005,2.4358404791165427,2.372330983818266,-0.6129704125147271,4.1748866052141125,1.9158871038888705,0.6353982128350282,-0.20526281717859973,-2.688351263944753,-2.6512353534755704
inf,2.6010633250960495,0.39156999602434084,6.404228176580421,8.871602076496647,9.044324347373646,0.6245289685791988,-2.519973218013263,-2.8475883943263156,-13.511257105501656,1.094176561894912,-7.148442102960502,-0.5181651557764653,-0.14995534240752306,2.7681109194973175,6.798359709400522,6.610176893610351,0.18875574364495407,5.417542769284481,3.2351214988479455,2.6385697412910716,2.644327454179212,-0.13397583031185434,-7.466379289134331,-0.5258940304054249,0.27013214080903225
inf,11.330175410741703,7.380364991330051,-7.381528450383133,1.8851221600807726,2.886112044752444,-15.598713731517243,-0.043411854802073435,-1.1604007596341788,-2.265572734551114,2.5129006657697417,0.1429043450117362,1.269103218558783,-15.565502773638151,4.284812812693694,7.07672027489177,6.495565367352349,-6.464665469681485,2.122787839991375,1.1131294984711033,-6.042195855754748,0.7338009400126282,4.308609552953357,-0.6874658253665444,3.9030793463178526,5.4715357768544095
inf,9.645213500382214,6.6370794778208335,-13.053781603933341,2.6402903076752153,-4.300453667242785,5.121377124466317,-6.389689150449861,-4.493751231554754,-6.046713658741346,-4.930446911888183,-11.81025640832992,-4.4188833156452105,-8.004599929424764,2.02990653341417,2.638029836597717,-7.313879737921077,-0.4106617033246778,4.086581306443499,1.0537884290751407,-7.715204661368588,-14.63656675637035,-11.65603535062403,6.002409973317654,4.723750935407452,-23.376498796694122
inf,17.344262506727674,12.958151120751118,1.2123666199705703,4.33692221007448,0.3038037005467942,0.6583277278529778,-7.517598742254052,-5.406940325719127,4.2564584706369,6.407771704696906,2.241129009872914,5.434745092420691,5.689798005793186,6.6103971214516974,2.572637531620593,-5.02136898565783,3.081032021583937,7.172392058586894,8.612558621569,9.50379822497407,9.321202321104842,6.82014141234653,0.4572509152247761,4.203498630014906,0.9947874461611832
inf,5.454922470967787,-1.2428237345845936,2.3839385077991473,5.892936017246278,7.20421794666121,0.3288577560280217,1.210194716494236,3.4086512358443883,-6.935939890911364,-5.416165478564949,-15.779822886737506,-13.069918005016468,2.1008920885644145,-10.982952275801793,-8.69982605259623,-2.538762206487185,-3.573525028476574,-33.126456188461106,5.81160959219924,6.185186164473905,-1.8957033349886956,2.150210117352117,4.916463336781284,1.2613608320116612,8.1175364039008
inf,12.141821218029818,7.68830820188052,0.21823579310589736,1.3351083610567045,0.9236328535433387,-18.648152425589558,0.21081326450809001,2.399795965711391,2.850804461050352,-0.26283776293385586,2.1742074014280703,4.481019040040778,2.99865112605719,6.152287220466903,4.637104754318827,-0.6198024104324062,-6.164926793424094,0.9121472324189028,6.772833740979948,3.671395848550766,4.4678109526682945,1.9298078239448344,-3.6484276613375357,0.6091077660497319,-10.663966641249644
inf,18.60015770104724,15.291996065235894,1.9764013065321002,6.064936194044989,1.6632191986040255,-3.1169693294649576,4.411711572855033,5.147004044482166,-2.323500650380325,-2.062536461493764,-10.729643833997542,-10.625443792553,2.0165973819501275,3.343440179253463,2.586755666788335,6.722725199521399,2.599227054858396,2.1497081249925714,0.11792857332808637,-1.5324159041977623,0.25769004465649203,1.7371159441849429,-2.6164954900228707,-4.27179504679961,-10.125526655365512
inf,-2.6190491137639462,-3.161264061802676,-4.688585934445033,-2.1498646253603297,8.449712948077586,7.5380372174828985,4.8739973461541055,1.3740008539777264,3.0215713564491296,2.177930037057976,-4.058186593497268,2.691308268831122,7.032759523154695,7.393487517879485,5.574357762574927,-7.188801805259452,2.5318559362540825,2.1971251516114023,2.3004885578883147,2.0671006406263785,3.2274704270585985,1.9921677631134287,-0.8015588729315368,0.4154335711943986,-16.480824926984994
inf,17.20390987210286,13.366014460663054,-9.34883147792912,6.6102042414782005,7.151515882141254,3.2194852884647602,3.671226949656038,-3.4578428131328565,2.456472965372626,-1.9861061217850988,-8.623924853812888,-4.610903747397735,-3.8530633309196887,4.6024628419272915,8.333169820235838,3.9624907712004998,-1.6545882667150522,1.942937719941952,3.690964489188879,3.8388593690060517,-2.177239226398939,-1.2158495360331756,-2.327319581381296,-16.008806934200635,-19.207977384938616
inf,4.437651595250625,4.167129353107132,-4.583730355443169,8.468565230819898,8.09373933404602,6.64861796830407,8.53362761639779,2.7278609322965863,0.07764325671005423,4.152498367710656,1.769678222205954,-4.518450341125387,2.5447950379224267,5.823179689265643,-3.165359213863624,-3.3369879448375883,-0.6357394987530967,4.535697084119363,5.744418378095816,4.565827885229481,1.4543798847478087,-5.146472861314685,-9.347100985526069,-9.289066415899,-23.151762962903035
inf,4.201037913830877,-0.2736719276505255,4.363938822886457,7.057366934580202,7.043892632758457,-5.403756427508341,-7.295312737368889,5.096390090131116,0.05925564572184783,-4.751954352545972,-10.163424114646318,-9.690020790737321,-9.225717012607419,-2.549400170640304,-3.9995617559123957,6.638918017067731,2.796317616409027,-6.518549722736722,-4.3517384978803335,4.812764021631345,-3.052541603490468,-5.992384579984908,4.941799325052571,0.9279370013825883,-20.00132574660644
inf,8.682339766021615,4.885534923667834,2.4910333834108194,0.6236240207243142,-9.537900552448981,0.7986235521601657,-0.04401549147589634,-7.965275243578979,-3.344595992296348,-15.832637309238201,-0.36845474968485803,-1.132541515232404,-6.107899430540719,-7.345581635809623,-11.88459722557235,-1.3497184935397257,-1.890848466159639,-4.234385460843107,0.6912726281988668,5.389907149127225,1.7852293050149015,3.8060447136942273,2.9280706721603096,-7.081941674073654,-0.8268358196445433
inf,3.174541549300365,3.725724102109943,-12.132316093963563,2.7402675628781523,1.6871380197264614,-0.027741905367520303,2.9170459932396966,-1.7926368729794362,1.4969916983941687,2.5288564914119007,-2.9704759003655568,-12.010693624970074,0.9480324506231241,3.1097019588010895,1.5391148602476719,2.117221437996733,2.0639814206091387,4.013286498259177,5.996947766174422,8.593988435346333,6.4929104443694,-5.740430341727162,1.0109150516117467,-4.356246577383452,-16.6636429817532
inf,16.88525934486246,12.184009653290653,8.574075934849237,7.316312577823915,0.37029505633726245,3.9058957056407664,3.629192449624476,0.4726737740275695,1.8942293323377015,6.210028606059765,7.791110864265171,6.089573193123144,-1.8279763214379017,-3.9338982885816023,6.327010030733334,6.823572807460657,-0.7115137936326619,-4.890569720356041,3.029001441498501,-0.32776802226375423,-1.636566229870354,0.4182689422146808,-0.06809825423872695,1.2247849494180088,1.1877894989536912
inf,6.534698601432593,1.9575084649164936,8.536658680710577,7.420480126746099,5.626927798632952,4.671725366742393,1.503968225945009,-7.467792642600848,-0.09103564530043684,-2.3040555614043825,3.497308240892309,8.899046659730573,4.572183527186212,-5.053122605531868,-1.6018860493354339,-4.669221790009601,-0.8726224801051501,7.023304092692541,7.542369689975665,3.899977793403771,-9.227502679954128,1.893536783582448,2.695414933944157,9.459534705755921,3.64848355779899
inf,6.038296085888348,5.044183155252433,-6.728475686220282,3.2769667637082627,3.2433671249145846,1.5777557662083552,4.213081730886458,-0.22979866679978755,-4.7946095445308785,-7.630749656780189,-11.15414021709973,-9.635479394883006,-1.9104388430631545,-2.351293197343267,4.4563004871449365,5.013881638031364,-25.238491464330757,-0.7180388266943254,-0.593976877202131,-1.5012560097980057,0.5516821476917713,-5.933343085978542,-10.392532219206508,-1.8648758126080054,-12.631311184825861
inf,15.714625979163838,13.598537435494203,-3.137982541903529,2.3113936939536117,9.705673567358847,0.3372087285769112,2.3091438316566624,2.371996838625421,-0.41154330655936633,6.46464664328596,4.076936265316732,-3.771246372336641,-7.98467795374404,2.347509711415455,6.330547433451727,-2.2107964896172447,-2.433774137039741,0.8554014917207979,2.3212367998529047,-6.310054017260491,2.2293365813946906,2.4170698581724324,-10.57879370669194,-4.803739346690556,-16.96041905178646
inf,15.261149826340294,12.401549261135264,2.942953991770718,2.683018737040296,2.9900741134490474,-4.64098876033934,-2.5450112292345253,2.52443525270062,-13.244103398137753,8.494102163769966,9.324722101834041,7.570572057810608,5.2465783420895775,-0.06856117814466245,5.179854978759671,3.3815964119210165,6.521199964252766,8.682627868377388,2.7564592302842854,-2.2231102931347593,-2.2146285698276884,3.711378549346051,7.028199866371658,9.479157322236205,6.977393282231553
inf,15.081411146142017,5.008268036245973,5.79065905453956,4.58802771661674,1.6546471405570813,3.4054948810664882,3.3651953504759575,2.4253970071856585,-5.469748381833412,2.6493383726435837,7.80994615331668,6.374909030823446,5.291807451921429,-0.9975558192665517,-5.880998924694595,-0.22280517493141616,1.0792269857014034,-14.348065624631168,1.8128564896762,1.7294890664347449,-2.9136627517435087,2.2777217567081323,-0.41059601301626714,1.1723344466926306,3.7550021146501464
inf,18.62126203526268,15.031380639448455,11.30458273759782,0.3559623748701952,-4.175783330942913,3.624637641981316,-0.33289527697578336,1.9797953088601972,0.7718190948070358,1.0869709237713536,2.950362961117598,1.1952059797953964,-3.9017847248215887,4.745130765926724,2.839652281156752,-13.258633173885976,-0.4596055691860883,-9.020318386238962,-5.230789478083764,4.73704233123231,1.8038759546285235,-4.21529700524998,-9.366108565773786,1.1915228015876664,-1.2410062457244493
inf,12.28909958755255,11.384659643827401,-9.35793817431821,4.5656448124103015,5.13138156608467,1.1419418766461717,-11.453944862224056,-1.7190158442620245,3.577374936297282,-7.582537915431004,5.313536186919734,1.0071032534211781,8.700494393185885,8.013103694726432,1.0238808281401859,-4.236571094057936,-0.11479945252582269,1.6752763721504778,2.806965731041849,-3.1112578398573305,-4.067269748218564,-12.992698851368317,-0.5986801604138137,-11.95859375966549,-4.060580098367325
inf,10.266079915690309,6.9285635347085375,7.94774771860833,5.136010658835939,0.7593735363063061,-12.082986047804582,6.7271777643935415,11.09442330669983,7.7935363061503224,8.544744671650655,5.397403043651927,-1.7947084973341418,-4.923013203802412,3.177342404702081,-0.29308900509391833,-1.600807166963918,0.2840001119026567,4.256767413750545,4.022913900992734,3.4760383224256444,5.835416217885573,3.135045532833395,-15.381608521412723,3.444270466891794,4.976343918798797
inf,14.005066328628038,12.66669366140182,5.979191907725461,10.348474800672832,6.78975944982605,4.31355977609325,-3.532002317343128,-20.312383896303054,0.5601434095206059,4.424943586021072,1.0759878794700057,-6.025859200600912,-3.676190666634689,5.016927403715307,4.88197231252893,2.084402517231176,-1.843060174995081,1.551316306429527,9.105314069179414,10.03234310161988,5.759167215208819,3.016305630126041,6.321701885573269,4.842676068509611,2.3597770232855666
inf,14.216556343351433,13.633616123436427,2.2576919675096683,1.405531149166599,2.3259051599918834,8.216546448182822,5.407940177514988,-6.6036033030964205,2.3880256920536027,5.7574118757693284,4.553598312812504,-4.792005942629743,3.9304935857728296,4.803072734871165,4.70433148315368,-2.319961986698381,1.0336983182201323,0.24276122971183156,3.3091566380176474,-12.812003665557214,-15.85260222996262,-0.13365952284716087,-1.3570985526390587,-14.569143434507154,-4.94252528176807
inf,14.233484291255088,10.619074446761289,2.851506046913112,2.5572516944452133,2.7106505885326655,1.118884860030498,6.217045009772974,5.222143662321493,7.377345759655974,6.07891997007053,2.3563919036482233,4.490957229562412,1.7881317805980075,-1.3520942483744207,8.375031698598555,10.657898340107032,8.506104179567735,5.207026109885106,-2.7893105584940727,-12.565904728919726,-4.462066742287568,-7.763352193454885,5.288838521914414,7.623913605916471,3.6636062618740297
inf,9.904011119296378,7.8492993084371605,3.804574562581376,9.61030762590594,9.24781726214356,6.593405242289386,3.029329448318336,2.4362686239051854,5.502239145510224,1.9280867100281327,4.896280008509642,3.5216522646624284,0.6190154004626791,3.653633709673592,1.3391720613854332,1.2610072825757328,-17.75489093565406,-3.0090039685770904,-5.2459189885911925,-2.457318217189105,6.1997830591816765,-1.4373020191645551,-0.7588043684884198,-9.591673165912248,-5.626363952606461
inf,15.492720320356423,13.850442311812376,2.399552387146027,3.733600486393808,-2.179171115396599,3.9373327301260517,0.7290184482251334,6.29443392722694,8.934182266646857,5.585633790739124,3.9775334773035524,4.488147621516148,4.96624854136936,-10.432481668647696,6.68741679996144,7.279520328385438,4.855799547783768,6.007741785204296,7.424708866071526,8.721139302394477,8.345756607716744,3.0655126517819937,-0.7707730828405204,5.650032309587246,5.841033620557717
inf,11.92987752834885,9.938813156256305,-10.770917680668585,6.937759379302847,6.4135484567508385,3.3781964410473364,-0.4394159370745001,-9.350620550211083,1.0244317750703331,1.4686845407349267,0.5482891845786853,-1.8196567249803905,-7.074709695300932,-1.0160961718861472,0.7772881706053099,-1.8194859031343142,3.252297053389512,-5.162358311936956,3.623483432669339,3.6002637026140647,4.3928397440065154,6.808130696695699,-2.5186032681330843,-1.8691759528210241,-10.53981626971354
inf,9.686914485846305,0.9464651743499637,1.154434349554986,1.6699138197391648,2.959826009422528,3.981025211285015,4.542325541300194,7.225960467587711,4.498405398392379,4.4042732736262735,3.505550788139061,1.723324427709798,7.990356897136131,11.518445039670574,9.489615184234523,0.9615124300900888,-7.85343013640049,-9.125112604959973,-2.33955920803313,2.361353623927428,-2.3947398406763227,0.5401481141851363,3.2640912279070164,3.665866828237313,2.4082866458425514
inf,15.869067403952258,8.95466657484852,2.242613682303059,-4.998924133602344,4.557282328474347,-15.9641294533821,-6.3684064782600345,-5.955943414353754,6.173639850805394,5.23722074522405,0.40374643775124497,-7.654290851375762,-0.3753474698712935,5.955939950150643,6.4223243120029,2.0207041600118885,4.168979021857659,1.428928455256063,-17.085787471805517,-6.0470851611582646,2.709794013441609,5.749527356434129,4.772854853340597,0.33446792549997184,1.4050054716261968
inf,21.324238046680534,17.758272622593104,1.0238003131118525,-5.669193400026138,-0.5233869323823725,-8.983038777931178,-6.85751767097026,3.158254831721223,5.225024400521093,6.507901205728693,3.456453011287792,2.9756975910824863,-6.950179794575568,1.9560766520841213,-3.5003911463807214,2.66541716850643,5.940440682630651,3.928901147201344,4.429367300006703,4.225670322407858,-9.957083847581139,3.6978004466229066,-0.8530897566690996,4.577966533719064,5.089780967181483
inf,13.218173831489205,10.061537624373273,-0.0568553196638355,-3.1070578742386203,-3.091346597116271,3.8901924098862963,4.13991641386508,-22.32201313271866,-0.3549998165533168,-0.3294522431848179,-5.948943139944092,-1.1997515423477765,3.1462279362692556,-6.112327146435902,3.9439186712912218,7.675172848555356,-2.7789407504968437,-2.831091470516263,4.758463795331956,2.2246356396923304,3.076030551647868,6.522246340835572,-1.6009257530558614,-5.365268682291152,-3.8041101163370925
inf,10.954340509228594,8.903765859665558,0.419208420874444,5.319822280615728,4.176726150375959,0.7588760521888247,3.2088894015166147,0.6589327655211363,-9.632531342933774,-3.2949564356051866,-0.6958088514672696,-1.3508646715604158,0.8410651066488342,7.667533667517162,5.775700079455788,1.0979711175533637,5.0500104688227125,4.0265803128569075,-2.507957502608342,1.3815745093164864,-3.2151331414312736,-2.802653466530792,6.314373865249351,6.003957802223752,-29.805088579019298
inf,17.70057228875901,14.565341635318081,-7.8539075823234406,1.904656312876213,5.425262629290575,4.5674966747048344,-3.8773804771014326,-0.630653719383929,0.7245539055620185,1.856653703726593,-9.523876881764473,-1.6583638117216069,-3.8287955677973358,-3.373190282803648,-1.5772161347103548,-8.33321153375686,2.7253452842291424,-8.160547986556438,3.855980295277732,-1.5366827143116382,-2.2413877307554557,-18.430085130452483,-1.147955317338976,-8.417869395625544,-3.5479507845698564
inf,17.31642783826606,13.204123226946843,7.157158248997025,-1.6349890547971455,-5.494008576275469,-0.33502695260902016,4.74836616497182,0.39734191482176584,6.757762581394175,-5.437924677609232,5.982240223200684,6.805094845620275,-4.545825957140764,4.135130869697434,-5.519358967153352,4.212051514864612,3.090470826965678,-0.9973861173735656,-8.185576036435002,-12.364843479647135,-27.042168412837732,-8.803360039269542,2.018238800568966,8.519027739181759,7.8934593430742765
inf,12.94095578987079,7.023594160047267,-4.4615140333668,2.8539710794130997,-13.684598394915142,-8.889559698390023,-1.0390558704696673,-1.574850393883608,-6.787198590661603,-0.20356686276463876,-7.2241051730068335,5.15887106315261,1.7974673673133736,0.5303896534802917,7.932900709739272,9.778137479316733,7.444104663488353,7.092227591730513,6.539682249015925,6.9774328371073295,6.569629064464422,3.1795716599927744,-0.09400429575177327,-1.629211100974814,-7.950001491975478
inf,16.054371894259006,12.221306868620488,4.043821971651248,0.5003656474928917,3.609090575326128,1.2281500837373116,-3.1447741172157535,-11.364716805938976,-8.075714886575653,-0.5518705012923348,-3.531964882438132,5.507721755167736,3.3115097571660286,0.5865186533827398,3.7296874699148432,0.3130167107239217,1.8807503765687557,4.612703585711245,1.261418375234399,2.1058889438572805,2.7801845393885287,2.8421583737255105,1.8233617546068785,1.1209781143763138,0.15455930971749865
inf,13.592050234832708,4.405267868869565,2.3750155342166117,4.735716146165682,1.513144359888848,-0.5059212696856576,-0.2197777274295163,-13.70613708058874,0.4221376610178851,3.036759162487783,2.9078210835915925,4.222769705040847,6.558245512145028,6.3038372211952804,5.126470213507062,5.433802544244365,1.2511068410769965,-1.0203739621211625,-0.08816748284464637,-0.7207912768174154,-1.3646790561972253,-6.576804003120856,-0.08122322287041328,-8.659091121859916,-12.29748542163081
inf,6.046198796379567,4.882140482138684,7.921729484875975,4.336822396403914,-8.837474457735887,-6.541847198359264,-1.94455351883542,8.22977049041442,9.510910380457958,8.922861082296741,6.433987285751421,3.5765223028625996,2.362674429158801,-5.925833964514766,-4.713654155172193,-5.080913708970776,-11.449603537083469,2.945929477925432,5.126987051369703,1.9998432050031738,3.1356565893462616,-2.957294492253361,1.9946778865376658,3.771377621651652,1.2826782844183668
inf,16.60980548285615,13.554777538623329,-3.2854893421617923,2.4439610921241197,0.6380750946859521,5.049745682199987,7.076167465684048,2.448688294551239,-3.017138879410055,-5.2895122525222575,-0.31237606678178054,1.6837867021983186,0.9251316106413086,-1.5974734028490758,-3.7167343234981303,2.3956818123604435,-0.02387709715254971,-3.9181226121529065,1.4925995163638035,0.7597383936328015,-1.1696805610275547,4.24342424320826,5.221555083181215,6.357704697195857,-0.6981489557266443
inf,19.511199807002747,16.46815542391281,0.83144103629024,1.2461949723122103,1.1224179000560284,7.6625895998825655,6.4967297929565575,4.59432505114318,4.684410844045885,2.7142926276766985,-8.137963729124081,6.133053280383379,2.5477933039039726,-2.4379381663457735,-11.433703146737031,-1.1465028801700825,-3.7229359416510803,-0.3110887698282312,4.7982007554358646,-4.59729194383457,6.267356917610577,9.750202811376575,5.379530922435784,-0.6486156438121284,-1.0121308934638193
inf,3.186295292526612,7.153076754816027,4.922705950472249,-11.09576783323105,-7.4593614324436075,-0.5571014034463602,-0.4801436083645001,-3.117833489323232,-6.18275865673656,7.034056370620853,5.404533285122795,-14.510616713923099,-3.5256364206047337,-6.696712794399396,1.8645551045592725,-0.10124036850394447,-8.79900100107222,5.190802466473883,6.624415067182902,-1.0466788849559379,3.4834356619967437,-9.836464231638118,-1.0575994674155496,2.806447207630498,3.7000068988000336
inf,16.666836245530195,14.237440765227444,-1.563397346983951,-0.8410612375116102,2.4614061158046283,-1.111577998205199,-14.805436299721592,-0.8712572035509254,2.962416426164971,4.13797790062317,3.983736927378949,-4.317347287071421,-0.27322819741721815,4.5437068824444395,-1.2109479562886065,-2.827633914658982,-0.19951209743106801,-2.4306730608793217,-2.562889314838742,0.9436132790859943,0.15146423129256448,-8.40757644043066,3.726454718356436,8.389183998328768,5.645716879042467
inf,8.806825106650631,1.432968969813352,2.1996544987928672,-3.240815365332743,3.9114542739728257,-2.012938512907951,6.886521529128977,4.885991986666447,-2.023317616648889,3.715850469604703,4.744610464065524,-8.26574536631832,-8.22562337086854,4.14676988509374,3.7115357703156135,2.224859282705026,5.584692382025089,6.082613389170376,0.37828173476216875,-5.3530122997207386,3.9184569860407805,-0.9966032044368305,3.065417047598693,-0.004305369604622911,-3.2801113222692138
inf,20.547067374655953,18.01251017922145,-9.152471463918506,4.451106941116517,8.66140868435474,3.9139533348810716,0.48929341424285866,4.822999007803176,2.727568921316376,-1.4843717292278598,3.7983591237250423,4.6524044884390605,6.043878880760005,2.564593849943087,-2.4309131413389906,-0.6932527946350575,-1.831015987798601,2.810109962773396,2.9386616301921507,3.324692641928138,5.765745337008049,4.795370281721603,6.677228329658234,3.5503146031223025,-27.942953370143115
inf,16.503989642106838,13.987485656810762,2.8700780341932557,0.756865629569603,5.761689722293035,7.251921977529893,8.522582545755071,8.691842538432972,-0.10269162014743927,1.0362078416510343,0.3421347141168525,-0.42594591416287386,-0.4758198573216461,6.18710907129816,3.9924519348707506,2.372326883372743,3.089116335708475,6.986540753200593,4.033942088430663,1.8931102180064556,4.655861294733562,2.2612711923692714,-2.808356631136256,-1.3031168988108774,-15.959706015486333
inf,15.5094195113644,13.784938392352213,-21.16690791986441,2.503837378040238,5.987857024839162,0.8442956318084995,4.379680058375953,5.090485274073927,1.3284956553261438,0.6475056431064417,-0.03880897491288948,-2.8730966352043055,4.19826877865993,7.644039466190478,5.265616284323819,8.001541952091195,10.298440938153007,3.524927722395425,-0.7030070838318281,3.3708010636353407,1.5862043375284074,1.9158452423212964,6.2375839854834325,5.15247057580639,-5.40273436585808
inf,10.63861689364557,6.371825351749422,2.59438361753417,1.23322719326503,6.157910323296285,-0.49579092983371,5.814330547488893,9.069763280451987,0.999897635835957,-0.7084648323952507,0.17764417124551812,-10.5901689103789,2.0556177083270413,0.06695673259811485,5.030487987604118,6.35175738587764,3.3774811652286516,1.5642610946129878,1.6208388342441182,5.834560621497559,2.1056141016784053,0.2985620919174181,-1.2133958485453675,-3.1598488050092186,-6.580152307180356
inf,17.243374644293713,12.060262073170712,-0.07362742259675414,-0.8557195816103089,-0.9117276259021097,0.9441484692010107,-5.948690919316938,0.9274155147624938,5.889056114649655,6.516486628839246,1.9129372958278097,-14.422389352788855,-1.7920419104607603,-0.814678643964811,0.6184703446665054,5.503930259683152,4.1705797240553935,-0.6058607230077087,-1.060570649575574,-1.6363555517341197,3.033724418277835,5.402383168587967,3.7975738724513093,5.358623772527665,3.216314989609444
inf,13.617150243543758,10.48333627286198,0.8022638977062293,-4.084033185543937,-1.9940842930843843,-4.605294936771855,-3.950380060190632,5.086449174103379,6.197169788263572,2.1311060477450283,-3.7881513336938966,0.8469084127467497,-4.507272794559157,-0.005111748900745283,2.8197781516954024,-0.3290418770571719,1.8174457093159688,-13.397320469288246,3.6348498041741877,8.561646235917479,6.840831174418142,5.481589515665014,1.3746955122678557,0.03516989828223416,-4.255854083119154
inf,12.199022404554215,7.823977635100331,-3.1827358068752396,-3.017639435383721,6.612509351648519,3.5036658070202975,2.0771336807518708,6.180591016852155,3.053364419148373,4.286641135951307,7.107769485077213,5.4338077590889355,-6.677274653984128,1.7219266884006217,4.774775352376096,-2.3008444970771578,-1.1560746759902898,0.048517553215191356,-10.201594470452655,-2.849807534702471,-21.07221640718337,-3.401923253422652,-2.701822378463639,3.8430997051849545,1.707906127897708
inf,9.18342592428971,3.9601768229540255,4.064160829965971,3.444452261667646,-6.16440197728118,0.23735926519155726,-7.6793821698521185,-4.030962975583201,0.9433053392089406,2.1889822209000727,-2.75307003770817,-12.634162006600235,-3.380704019091823,-4.377661798104086,-9.921673886433432,0.6460768297533903,6.038413890947851,3.211916160187471,1.3892721632982088,-1.0406964251755326,-0.38645078733951976,5.280134392945897,6.528932429924616,0.9236609931780961,-28.208421161002278
inf,-1.2921476394078333,3.0337389052166834,2.7482884532371266,-12.207430354620982,3.054792506023972,5.780611513350532,-2.5558902723605996,-5.046107050951171,-1.919719976391029,-5.066770549553681,-2.0302507388992908,0.5726925449627842,1.4830226688042956,2.294757946312785,9.323517231420567,8.973104016688971,4.820884479167937,-17.24994394249765,5.28553517633096,4.717595003218143,-1.3076884879093456,-0.5424578434380436,-5.855419540718607,-5.972140670585134,-4.693198112448435
inf,15.710275580639454,11.021042441620583,1.3072731613520645,-12.676850213297179,7.4226777636179655,8.52478538270416,9.71144541499429,5.247792187082091,-0.9035139670611159,-1.676834834097285,7.598040808231666,7.2245133487156465,-1.4873011779320535,-6.78257199463669,-5.3506930013593035,-1.1771431984464371,2.4108287944722804,4.469495401743728,6.044728377854739,9.650234279775702,8.929437186637827,3.7962642009627245,-8.034432039294366,-14.377808397229757,-8.064207056017963
inf,12.696314254233425,12.782376197541828,5.75218901402479,0.9853599997211546,4.001197498845105,-6.657368893554192,-2.540362607921928,-0.9198412604278374,-7.246912059949743,-11.96914949403972,-4.681101540014353,0.2596502241742513,-11.46120801912923,2.4310054213871695,-0.4398609254319865,-0.3396273717463387,-4.2092114538316565,-6.291795824406513,-10.41539025734209,-4.446162855341534,-15.578418760054035,-2.403896550617631,8.56810053689101,8.330664126988921,-0.6266562485682527
inf,0.8181995313271493,-5.671256127232262,4.244037628533558,5.583522939644531,5.981571028876072,3.6606859334419823,0.9026641876486892,-4.331249282535019,-1.2306516736284294,2.788106769243143,6.2294304758679075,4.370538061312047,-3.9268432399906956,1.629718186876758,1.5444779482951816,4.19361489423882,2.940276079776126,2.9972345539932235,3.0598654621102312,3.287943489786066,8.576036661312003,2.05869700422258,-8.793146856576435,-6.739126962027797,-5.0000866626545815
inf,13.758610886227103,13.195680304139659,6.29396640690144,-0.5655752265895089,-4.822485228382419,-16.92834294966101,-11.187224954963845,-3.1554484689028683,1.7658185730756841,-6.113729427513185,2.545035147955417,4.054758456137897,7.131887038462658,-3.176105546099002,-2.995090415933177,-6.80985743675307,0.06692018830566582,-10.093417145549452,-13.641481569644718,-4.382387880895443,1.9651197623667258,3.863584414945265,4.100817513245431,0.058818093510467406,-10.278019571481778
inf,8.312205044220212,6.619537937007756,2.23495130292115,-13.899130908476806,5.2621569768367,-0.2684013571156356,1.436562267267547,5.402952452474182,6.714713264618702,3.697580276802661,2.128820696253271,4.386682067976309,5.627335674832736,3.3907472241007923,-0.8521552737388376,1.110271885462474,3.485930507036919,-0.018155210224364282,2.41474195356421,7.834186858291297,9.419019491600253,3.3113677566860247,1.0209236821354182,-1.8869018361158254,-6.171684148981981
inf,11.811689479269074,8.102473907505875,4.238952342154747,6.842794117423086,6.2782593495833225,5.967922645823954,1.4716499895282382,0.39947864428841484,-0.17423915058276407,1.6235912097437222,-4.16808688543918,-10.459337646013843,-0.7259723914828342,4.60050167386607,6.724715067204407,6.3649849478068745,5.271421815459725,4.147735127339118,0.2999826303337372,-19.306934565551423,3.8508165212004855,5.334058663214471,-1.942816090167355,2.6610912176472112,-9.110504591618422
inf,10.785646428435086,3.596769803297885,-2.848441309838119,-3.1682282873103773,-0.11714531667254846,-4.529682136399131,-0.7444702588611563,4.147793235448461,0.4190227684945782,3.8761552316765204,6.2828446446905915,5.11979089151059,-3.6943831982766895,3.0146960971967403,3.03363381752726,7.015855332654866,7.1028920400710405,1.2973913939513224,-21.160159624775368,-8.67449018807077,-1.8951063186029558,4.690214722913005,10.45463984536444,9.725369754287449,4.561748769781033
inf,13.284627083830564,9.931594759741412,-4.452720636444173,-2.587022836428794,-9.228877765584592,-3.7603665883227393,6.11810860459417,7.015821450671488,-4.4336380138088956,3.870885467199777,1.7053115578813944,-4.559000840963392,-2.089090623834828,3.0401858586627952,3.4222141617643302,0.8707482931950281,-0.1520599006661314,-2.464012013677369,-12.352212978921152,-3.9699730189934215,-2.0674891423613246,4.540429001748677,4.1404304472743405,5.121787657854014,4.331958388133927
inf,8.387686450487944,5.056714946456502,-0.9741562306616984,-0.8259089477012296,-18.652375021937786,-3.01189258099879,3.610744781997468,1.7318606203300746,2.663118473868053,5.739426653134231,2.037782545948339,-1.5526000658318182,-0.21255056766310787,9.768631251282457,9.586288550055755,6.07949816257662,8.729762625397157,9.167607155878713,2.5146093021284415,-2.536571745166171,3.0466122935960698,-0.46486890243409107,-0.02848276348326806,-0.5190903843076313,-5.576371439039107
inf,12.022127393158067,8.831414332982845,1.6319033318574263,6.392775909806531,4.300000219499168,-0.6608744698627902,0.4561608289253911,5.4873159519922865,3.2926948345949754,2.1609319256016946,5.847893501625315,-5.947449401871054,5.962619852369016,-2.55809855820209,-2.1383602255987455,4.828270239122709,7.114813989452948,7.200716716957437,8.119922740963524,5.411593336645993,-0.28859376470852993,-1.9897567821933393,-11.141461377188847,2.2690526522805,-3.169090518185122
inf,13.15124057739367,12.036295805005551,1.8351876888262026,3.441840229221558,-1.011250582510037,0.09502993865208964,5.901193820761215,8.189723221049604,7.768034715321463,-0.4287396623802522,-5.047868055667266,3.8726035107092756,4.67875818186036,3.361028236557509,2.2786130792289327,-6.703229823865499,4.089487073458805,-6.682464302525425,5.338180215123472,3.6118874462178,0.4385181464474286,-9.875776769014138,0.432902874641492,5.318802968666475,-8.292509664382195
inf,11.292603227347193,10.576974386779973,-14.890414758166731,3.278971598912154,-1.8893380135965785,-1.6423361155253033,0.8536739702230918,-8.668965251134772,-0.6992010102081636,2.842978142202533,1.500825783111864,0.7048587940364115,9.933272071080111,5.037076026275074,5.792943607555941,4.3998818085374936,3.0118367016186767,7.113328562052715,2.5540045016352124,-6.717336275186803,-6.116964995036447,2.465462305247925,-2.473962013711777,-21.87286432432731,-8.504900074232452
inf,16.245416391394176,12.28761730341624,-5.996882981204262,3.8141701702120443,-3.041244052144968,-6.362294194171369,-13.031445236180247,-9.08994968503832,-9.576968777532741,-11.899973888795422,-5.372046045520676,-0.6321931188994583,5.336973904374425,-0.676103688562506,-3.0050834229039225,3.554742273863255,6.011122105639011,4.614386440790199,-1.7804546835048924,2.4763437669667283,5.308347551420582,7.392482282239264,5.246284299238148,-1.651799175580571,-71.06244877702981
inf,15.15805135983412,13.872664111216018,3.846854783873514,1.256258513440521,-4.564751171094095,0.27166802765788134,6.963697331750275,6.449947114886712,5.965922579638644,4.411666870034168,5.568312695972807,8.752900680285578,11.465761104770994,5.970994989591162,7.320692213333444,9.469873845979798,8.082879013793494,5.599288949881753,3.608346617875661,-0.46578709792392914,-21.87572723920409,-7.6763300126748675,0.4943990978626971,-1.2646611323566646,-11.980817564729875
inf,6.626580277709097,1.277110013163366,3.3213873151212816,-2.307825938720889,1.5801906320165884,-23.996879594605822,0.5545276787658366,-0.17367947068817102,-4.704325349695495,4.534896522332474,6.644428111741682,5.724740515090474,3.702231713465835,-4.937185049374676,-3.98648170037265,-4.381496316105768,-0.36346466446439507,4.053752253108286,-6.065739313480627,-9.161738831248748,-3.4325090814404504,0.868561012157933,5.034911313173033,4.355728119533751,1.594244255025508
inf,11.843953187175863,12.651690280383985,2.066980841383124,1.8905384843662887,5.072204848644784,-4.696762747607579,-3.005142108012606,-4.147948220398099,-5.7344745361430824,-11.570679608530789,-17.363855728772954,4.307949106987863,4.721441181392052,6.4305180922430125,9.696875506267155,7.999671829110724,-0.5010677682217803,-0.5638505968403678,-9.022724622022558,-10.549016476855748,-0.4756877458492994,5.009991980404479,4.405447521216686,-4.550977183477528,-7.52709735853022
inf,0.5071163796912295,1.9011318551740786,0.7044814223281541,-0.4102921716226433,-9.590667148187421,-3.59865246778039,5.282170185209836,9.285001246961471,7.902967447789983,2.1533984684193115,5.637983331087227,5.6373364685582885,0.41675352951454414,-6.251054086835637,3.4536279099081497,5.666464792961392,1.3373536633475283,3.755408360870973,7.884903530193938,0.48284211832046964,-3.340038817617611,0.8747281534490199,1.4865514476018546,2.240343055995055,2.242028253450556
inf,16.481589314874483,12.974103982147792,6.094554796277652,8.983422118102254,4.055672816169412,-1.1572603878558567,-10.511697843336897,-9.647463614433633,-7.7422251711096735,-8.356590285580019,-6.5648333605957845,-8.979539833425065,5.254547474500903,5.954367807614965,3.022351756591405,0.0322926170140434,-3.0795635395117174,-3.5013196491485274,1.6289263556884777,6.556886584846012,4.674093293925921,-1.7272071530357138,4.315558868195893,-1.2225584822779254,-15.316572598577253
inf,13.546275291159457,9.684347295520574,-3.08042319547987,3.697906112624409,6.904063261100184,-2.1245585166751226,0.19503926004392724,-5.409615526519836,-1.4669727079949837,0.6605632885303407,-0.40163122655305017,-4.672113727983302,-10.368933796938713,2.334309250679297,5.331175749127816,4.726284129345544,4.698409875062367,1.823483454552857,0.9928126479981287,-0.9268037209531101,0.5521600605310013,5.013220831461737,5.269002257265768,1.2854274391444704,-6.182938073369044
inf,8.917409604561795,1.8723614914359317,-3.5062324116000845,-0.26019858768309945,1.602578397923942,6.058724285767337,9.425219094308073,1.347739336979707,-1.864218270653467,2.266240725747693,-0.7471927556980944,-9.299298817236888,1.5410853154225777,4.760459123292684,1.3425174908307511,-5.323489958748041,-0.5070149318838375,4.805006685376014,5.918189223317164,7.786689953492839,5.489270842007258,0.26540024709769483,6.0423480172421336,2.120447624867964,-7.6549879436043256
inf,16.057289838050696,13.316845220217498,3.424977494646665,5.7669578414662865,6.756452943059642,4.790305328359199,-1.4008851854579802,10.539174054366946,9.365558797488422,8.357690869068136,5.5519550204825805,-3.576406396370402,5.357363097040931,2.7764552281012627,-7.468262178561645,0.6029766765213793,3.913159054168702,-0.9246176654971165,8.567817664247052,4.403925339537025,-3.864018963714585,-2.0046113494718156,1.9274574002691693,4.2054824431013955,1.524029002047456
inf,11.740943418468756,7.548739545072266,7.806605511132947,2.6317440299241426,2.133852069610427,1.032281620784687,5.496320751322415,0.4485864002108144,2.3680468898218336,0.03682601408490882,1.1308386300377151,1.5285466480631413,3.9871432440480135,3.8890286967977588,0.6538162912487877,-19.958799309259085,0.8838744083705876,-0.9264228320759429,-1.3619234938227862,3.966689401911566,7.81804926610733,8.029547462489326,1.8825438052865593,2.578094222818777,1.9729597552809324
inf,10.78240289398384,5.614207293210111,3.2182862943075854,3.752295668218842,2.904549206936302,0.45647031134618743,-4.177483201247362,-3.766264831026909,5.786379318101645,6.133258642049668,4.093638121275134,4.114681345034526,1.2961954262426048,4.837657964522322,5.506651211179722,4.6328287277924005,3.559190078014346,-1.7809338776008659,-1.966312819883072,2.3282988347838653,-3.760685701926782,5.6563539766127775,7.9600950644421715,3.4192809227356378,-4.678069365584349
inf,4.350148649347016,5.859552203478668,-2.5764786898617267,-2.527869523530782,-0.3981723692322774,2.833202916913187,-0.6551363905158567,3.552717588725187,1.4009023117287427,-0.6785438301937958,-5.945292318007837,2.802998536641134,-9.21946159748979,-0.4846884673110381,-13.306182753579918,1.9884353866547926,2.880494018109964,5.114457215220469,-5.363041951194255,-2.069416790913074,-0.11897212397706625,-12.506446010103232,-0.03982898071129881,8.241169565639971,8.250669300695208
inf,11.096827747346492,7.442691461370348,-0.9899879111208456,3.1842915741407047,-5.355749997191602,-0.03935081437217036,6.048393492492284,7.282315881226829,6.379100311315163,2.8569291533530645,-11.767215818474703,-2.2830395322358115,-1.6082353267704477,1.8476122984560845,-2.381090318522048,-6.635173854142671,3.8798157305261896,4.41256460430715,6.151512051052684,4.218615293611556,0.7548062006739613,-0.07553401031209717,-0.6555997493473242,-1.6086163451419964,-3.212829457678694
inf,15.595866325057857,11.227676381422246,1.4422061068791088,0.3130814440304306,-3.883915505976745,0.08744912593373044,-3.0798412586638975,3.534207638064821,9.871124263458068,10.964197836042274,3.188352658366618,-4.5438910005743125,-2.8396398187914826,0.02462234541405195,-0.89997103044157,0.43656637222895966,1.4840641688563991,-7.307184282563142,2.0689839104809167,5.165630523821292,-0.12491720834310627,1.4577764410166552,3.821604156328874,-4.945435676023891,-24.645322384547327
inf,8.767123992648127,3.208892737159097,3.9685620647968065,4.988131707047099,2.098717235200361,3.840750453604315,0.11245088976235706,-3.397594618986517,1.2701446318108935,4.600899119653988,0.4407905380328714,-2.271578598853864,3.3603816801050357,-1.758240441923192,0.1269380301537666,7.5632184556039235,5.270639681238997,1.2010293637159037,0.43376791452453745,-5.802508177582872,-2.5942911576912664,0.4900050403520595,-7.253624047281065,1.147363794124118,-9.287535075795361
inf,5.668281271264632,9.697456603992329,10.116572434184345,5.630365455189395,0.9040327806041688,6.410141468484934,-7.361230384340082,-18.160502200007294,1.3670197128189585,4.021559001894403,1.0181357282942827,-3.707486636701468,-9.617045384785207,0.545027370055621,2.2961971806505517,3.5678562518148027,-0.45226695268778627,5.817987739131581,-1.3306466914345734,4.509878041003908,5.555430233582378,-1.163016032854408,-1.7526470851714535,3.59584887850383,-2.7231553021168793
inf,11.932816762585734,11.555782996128904,1.9505436915755041,0.048314282387309504,6.479612851327509,6.949889715820287,-4.116648146104453,-5.294687823894428,-5.875231869038629,-12.246869533218202,-0.08392021501712321,-0.23298353306158504,-0.0360759828869206,-2.696326113509862,0.46629862221112006,-0.7720367695098886,1.9338290409516432,1.823797057015092,5.232644279682958,4.49963129666687,-19.680290666861943,6.066289574711369,3.9585673107786263,-2.437841214846898,-1.4552158698827995
inf,17.73328589606661,16.072808747881087,3.023213967069978,-0.21529780375174568,3.3167976701177366,6.038855970274206,0.9135027419775668,0.1427370054106447,-2.0153178659988242,-0.18294464021379042,0.3454894328394431,2.8565132925357446,6.008497279962278,3.396849773508201,1.8493091395374677,5.292943288286821,7.435721905362065,5.487748788128201,6.397762180028614,-3.326761948694859,3.528845548975518,-5.0221565164545225,3.7532275622581324,7.926926210482506,2.4575162874831378
inf,21.179002139069876,17.066913593335805,3.812498971321599,-5.8399387412900765,1.686481146039327,-4.132541611609554,-10.465368820162055,0.10293735594152054,4.114137929189198,0.13766630090186993,-4.8972780604999855,-0.5912999904348553,-4.428764517702525,-1.6656579973067593,-0.9280642037868603,4.833195672391419,0.9610795098550682,-0.5930588346508827,6.4971643768524885,6.480742993343583,7.905301244558949,1.453402409743795,0.05780098782569354,5.890906379379103,7.080291134335475
inf,-8.587216849097775,-9.143179617349773,-0.585801025117771,-3.5684121025814974,5.45858445551352,5.696860180235326,1.311188991439451,5.471283122425227,3.8595153029551454,-2.191552730838133,-2.824099386595911,6.151334803954754,7.446385439068941,2.098888804195262,-8.233128350415718,-1.4645537845377206,-3.6602664054505354,1.4530656263991588,-5.950055024293512,1.993537737353222,3.48288277067919,0.5436287987028052,-4.941308089002177,-2.8550928711078924,-0.3985087275481334
inf,13.3272891956773,12.225702290603024,3.1441189055314176,4.772398911574697,3.310398327186988,3.4975025180549366,1.2106846486547127,1.789037942115506,5.259200187010833,1.8585933965768717,-2.668014167774558,1.6303315559484162,1.2663536849205528,0.3590687617564896,0.1860192085030974,-15.873933561505382,-10.051105716844425,-0.8526096908088903,3.1292469769012,2.497350904201184,8.29155913848551,9.000938252443945,1.8971646137590312,-3.46427170138886,-2.7800052543125844
inf,6.068635467716469,8.14956917140194,2.9657102133352673,3.7147765185918438,8.24365483264469,7.402193944328559,3.832371683965569,5.708746653617517,3.6382576076755058,-1.37600754683627,3.913652543668448,5.380818737278602,5.395820333433626,2.940376479283046,5.754777722040167,-8.694510475826796,7.5685699317798765,10.478542097352268,9.324726941439188,5.612768192397404,7.544829669535304,10.345103388170848,5.090856084834343,0.15903970451751803,0.8836650374568222
inf,14.710145591854205,9.756854410449314,2.0368438099024466,-6.915370961200928,2.718471229569168,0.46288612914839433,4.708375965440375,0.8357085177727228,6.886589565659982,3.9461046443654553,5.852198348341815,4.2173987732613085,5.2002572136369025,-0.8528930374757664,4.337372826955026,6.747208589435196,4.886279437611108,5.459501321952089,7.975370653957661,2.698271827355697,3.796447160550102,5.284233630232279,-2.9617563570543197,7.320488163620567,5.32485481422453
inf,9.244406369627892,8.729039682012779,5.213042344440218,-0.23197278064840532,-4.1763187935342145,-0.46960415919905074,-0.36185200081340696,1.4097211933008609,4.799029643409142,-2.302362362408701,-0.058652877370121814,3.035192389755032,-12.772623691756671,-2.990494876505977,1.2991485187513092,7.368307538912752,8.694010772079608,4.428812954322076,-2.151715306557044,-3.4661803430918283,-15.747736865805408,1.4440591505341018,-0.20511624700647246,-6.166487958938262,-2.3901432450699502
inf,14.453023970083105,9.105162864133948,-5.573202859243349,5.818890778991559,1.974994857992634,6.249385111416302,5.074971406448611,4.5278891435907695,1.9604640397118231,-0.4319567548984935,-2.6424330237712823,0.9275173855076986,-6.069396727527312,2.9095508502104224,2.6003082634341297,-1.7455529262906424,-2.2915029731827516,-0.366408781054119,5.363354217591869,-0.27392833706415587,-6.375501055485152,-14.40363668680898,-16.087936212557665,-3.0587122227164087,-2.5139850861830553
inf,8.48435949578258,6.464097336913401,-1.3429372615010458,-2.563657943370181,4.406919580218126,0.8259335100987499,-3.8418013556332085,1.4049295160811397,1.0273007838202304,2.5690472150131214,-0.3816549070925035,1.6155096086032188,3.803782919044444,2.9229913061346906,-1.1431238578498224,3.767945105609634,-1.014657784987186,-5.441014500547261,-0.1657886435360254,-12.085537012597058,-1.857755372420634,-1.5191370327756246,-25.04831432568743,4.231793115879199,-29.094118274630702
inf,15.043156364380446,12.487966433986465,-3.092783578977116,0.8405955550607658,1.815321929159282,-7.809390315092571,-1.2249359435839793,-5.563506342156238,-6.99532376423565,-4.880765538441622,-2.21417965900077,9.614301305577321,7.382479756256579,5.7464286112928775,10.195032425251135,7.150444299843706,-6.021506291290727,-3.192547842740673,1.8068483701478257,7.131276695192938,6.669222007035515,7.159436167943333,0.29082140997441286,3.248606032932763,-9.892994393623056
inf,16.61140176905079,12.340797697142776,-6.164332885771767,2.4546798118894415,-11.592647648203815,4.636769725447351,3.6799405697983687,6.797586515695926,6.246692942513413,2.912542088251044,2.6690309378005423,5.229020305332277,3.998895571875856,5.326753423378705,1.732264942786351,5.940317231652941,3.817304264523777,3.1323472196280733,0.4662018796624636,-1.8332835154737523,-0.35279612929633686,-7.7601146976980715,-2.9664439179050532,-18.740845894945423,-24.842215170175308
inf,15.543733130985423,11.21612478889432,-1.773798476450903,-0.2269602548887164,2.9654684918897587,2.6780216053636607,2.864573227359152,5.200404694811191,-0.779507746860439,5.66535047358947,3.9030240412490826,2.2205629018448008,4.690279817322704,1.7326009880654993,8.481744205851598,9.183484607939398,1.6904194917624196,0.3529216613453414,2.480310765830879,0.4068977500145934,-3.7478972077238595,-0.7792428000774407,4.559540440884092,2.789396126687997,-2.3320301125310863
inf,17.211344918974678,13.663699629813406,4.200530147771641,5.547549218373117,6.220532050235406,0.8395620217897957,-9.366401713360887,3.4771192772242756,6.106022653725262,4.4203901360929265,1.9477811244661396,5.7854081250452225,7.775505195364843,-0.12471554993467748,-3.803725386631868,4.227224969988306,-3.1273137634468426,4.268853478886626,-10.071363463867094,5.196967700946104,2.7567061860482625,-3.287105189588125,4.072772565387808,7.87528883691067,3.605559136287411
inf,-3.5514096208560275,2.503006824626727,7.161595106754632,5.0076993673505115,0.5589449699841325,3.1907891278030647,0.46792364812502285,-4.683980747745132,5.26292943887956,8.132821524019455,4.682243540164272,-15.476295094355905,2.4523260063439594,-0.006604828593467005,0.6825173616438036,6.364060556779208,5.421272770680716,3.117702712156351,5.387575743157754,7.026808271823242,4.036370912786616,2.818656139296131,6.644734722834507,7.184707789710927,4.3591663486545755
inf,12.090699535316874,-2.1032558751823167,6.203097853789089,-8.609685437793324,1.6190404134151422,1.299863750334012,-6.382664532525894,-1.4158109161304893,-3.4406360773151476,-1.4197238127505898,-5.930766177008493,0.8125860781307281,-0.4976557075139496,4.103249155581416,7.694434066350333,3.468406657498562,-5.380201401937484,-6.864274272782566,-5.169229825060519,-7.420701734235152,0.14984377209843558,3.3516365959590146,7.757656796686746,3.158560383680488,-0.08949867153563673
inf,13.131238683825247,9.342327564248222,4.220509872881561,3.978628192791888,2.7189003171509185,2.8387644636321028,-3.525387222290469,-1.094397895361709,7.392231198930794,-2.410041166406387,6.006031884706367,4.5985266158849,1.9602192076443146,5.378309471319852,5.325845424308696,-10.901090218120743,4.902520918877812,0.2822159005683673,0.8564685915980803,1.215819022861325,1.957045499777358,8.990024630820301,9.062340956461668,2.648077297300148,-9.195784335283392
inf,10.523741683955544,4.334363949421171,7.7359889348221,6.767973030608946,-1.6199020990252109,5.250775734235226,-14.45516861837502,-7.004350330781044,-6.958798775015339,-3.4257647328037137,1.1930939028212038,8.937168609243521,8.11932848599249,4.484439040146938,5.7310315865882515,3.662610245605009,-3.3652086548412967,-0.3938727593891258,0.02904229126018265,8.533071969304196,9.740082516307396,1.7613024956072962,3.8403807936020797,4.9542763634484,2.745811176108262
inf,-8.253979426003905,-0.25146759993306134,-4.840699600498258,4.681012733000081,5.862696118251062,0.3992728122221223,6.745962073497573,3.6881310922696073,1.1702721515522114,0.7822803154539386,-3.4038803734550243,-17.288634566303415,0.04164410146217534,6.35244338498984,2.147732284490594,-2.7636098778294382,-0.3199836433190626,5.18615845942071,-0.028779276502525875,-3.812023366277316,-4.715847405888333,5.837854372191842,5.584457278657268,-4.78106334551272,3.283950064172437
inf,16.058726426758206,14.50368605385831,6.858926518073726,2.5870468146672856,-1.4785520169540476,-5.51402795831838,5.887122067409891,2.566843269922451,8.421903778229918,10.576974297256253,6.762666687298051,-9.809028789774615,4.2226561386043855,0.3073371750535969,-8.022491721886858,-17.107978943463642,-8.343605254010889,3.254033239205306,3.2175731303603285,-6.13626691948452,-8.134419456826684,-3.6807979862518394,-1.1415519493512036,1.696964099960475,-1.321576585139411
inf,15.65289661958151,15.490934623782245,5.969414720218886,3.545986282891299,7.114156397743017,5.995948603640876,7.244855471257516,7.593967196779438,2.7131223860745877,3.93816745808617,0.13990252713636409,-1.9584154917903405,0.7771824456088297,2.1759711627608525,4.355177050203515,7.9645553236778355,2.877631564149283,-3.6920065114643776,-1.9843964777956202,-11.232217381013108,0.7503240520748164,-1.5343259853120657,-1.4699681303511198,0.7617879876353371,3.168589176599191
inf,12.2277460394983,9.825612027583997,-1.4315217680671246,-14.015442068153625,6.027365618701502,4.315484209089803,3.5341454698461874,0.052076276296688206,3.31977500065463,5.369788110868029,-2.9609618150000756,-10.078478265914548,-5.546349391322785,-2.8162073649702606,-10.816628507404573,0.7994378192644049,1.3151888833869307,0.3981126385935738,-2.706914929752678,-7.566294608030752,-0.959420094255691,-1.9073857699203742,-1.600470332923976,1.8396310992826272,5.629955198409014
inf,7.362790134455629,7.7616608396779085,2.0469797800931637,5.289884770388284,3.3272291690438394,0.38908460316255855,4.288091502103484,6.3551203487631795,5.705809067468657,-0.9465807008718201,3.0614205309544786,5.052191912992441,-4.153710747488283,-0.7838147277244119,-0.004700248267013762,3.145303815558833,0.895430360106765,-8.41029494355125,-3.3822649556459865,-4.1328378800198635,-6.635734768481413,-1.26587601347412,0.9724090492209143,-0.14445183457456778,-17.898444670902805
inf,17.791036161896304,15.334857453905162,3.8828369987305003,7.129740610063443,-0.04420387503401457,-5.228492643380093,-6.941541269742203,1.748818924203917,3.749397760640811,1.5511476491656637,0.5464049528181505,-8.575641811858944,3.9859163582781676,-3.2762987919233026,-3.9665665278722173,-0.38536435145453396,-2.4918927935656825,-15.369868338696378,2.5624190783955143,5.500101904703591,7.03112159504817,2.2809686080450504,2.4116531512496096,1.9858959972728982,-16.313610444235437
inf,9.195694474842682,3.559548234027286,7.481039230406498,0.26809459069929886,5.405071568657906,6.036728013666476,-1.540249086949018,-0.63116417181012,5.327368298527418,-2.9136447202221376,-0.31219894819241034,5.480431520042956,4.51702981914525,2.88741408732907,3.7392123583612147,-2.4492103867568815,5.250288903030359,4.299309988537161,3.5470254828907457,-6.667006648719287,-0.9699165319077565,-15.31472011790622,-3.7657248941980583,-0.05591815146868839,-0.04157478332471953
inf,15.4474471475026,12.462785762302524,3.5824179405186314,4.358240327262983,-0.5834922706294776,2.6446875640107805,2.9454507009120476,0.6766143079151519,-2.277746616631731,4.309661974949449,4.104466890731459,1.083473429792754,-1.8235821621876553,0.38959977514543453,5.449989326981488,1.895236965664587,-3.014315981623163,-12.832968003697417,-3.1218530084060916,-3.5300488696775076,-3.6312055938047294,1.1441804577138441,-1.9586444111258743,-0.21186770423642542,-13.172840852509033
inf,19.3213342515013,16.310887810649724,0.23713136793838174,6.052859409706599,1.3659964998162053,-4.6633202166939185,-8.858944240715921,-4.663850304798906,-10.737304107544283,-0.9653594019600291,-12.352681603365028,-17.612610102350438,-11.94559951868451,2.4779523584351324,2.7678337633710015,2.8536654195429847,-0.8718806724683716,5.006212386204773,-1.9662501583818468,-2.2048778771741837,-12.471993875117093,4.936708863135237,5.446797083658218,-4.944812100101231,-18.783469502913803
inf,16.779598997404822,14.733843005502505,7.024065215672177,4.579069662884677,-7.357669640406833,4.3911559748123,8.511587165135747,5.391815561621627,2.51405276058572,5.681645702971544,5.5902640837232624,6.2537658899748365,4.553947450299425,3.969700851618498,-5.858331734560501,1.0002583019382811,3.269292082047805,-6.50632350411199,2.355499589404353,2.90630001805264,3.224585561714136,2.2035219388223197,-7.98936243778671,0.8430357411888423,-2.7605804620391936
inf,17.628217144341264,14.426284227145354,6.005703337643826,-2.534891779286532,1.9300382862277914,7.507085066070289,6.335686476387103,4.449715728485998,-6.465914223952346,-0.8114033104345921,3.7309505833635015,5.463344886150402,1.9176884371861362,-2.6311464875733037,1.3452171557630024,1.7951955455103672,-7.7148343973988105,7.966479247542253,8.50000628001019,5.7169995541745,6.287547382223735,6.877235674207455,6.740987345919038,4.247348961337096,-3.514905159408123
inf,13.721058757431996,11.071175653270814,5.808920610090492,1.2419436973929656,-7.076496346349423,-2.448380679555342,3.253376142146905,-0.8388049355835179,-1.5869486941010749,6.589847548507471,7.431568173828907,-5.531275125765234,-0.9043099803901313,0.33943370812706064,-5.838924203717241,-1.1436616081705253,-3.5449610156329285,-0.19704721109869183,6.1775139529969465,1.450611152594746,-5.635778081619506,4.530573602135682,4.918105390278761,-0.5645392790191437,-0.5232445528128267
inf,13.34376184784901,7.600845915744003,7.193341357099065,-3.2420362361452604,7.151580877166712,3.915443887126415,-2.1412704743134654,-4.9956224608902104,-0.1722742975050906,-2.7718417706818954,2.3850543110586244,-3.985543886157245,4.519598513738465,6.4694766550138,3.0325119756099497,-1.166374307393177,-10.941666501855345,-2.556833817489789,1.0043110648001417,1.6415497119269276,4.325285789413861,3.6284398649140286,1.888998465622855,3.3268769347272595,2.25140107035687
inf,1.6780242098587728,-4.623002702042207,2.3125972820317067,7.116887897104554,4.333295618314736,-5.902365158503102,1.7202208932357053,6.853258783630558,7.860922624057515,2.8281209145484993,-18.60502372694299,-0.2871682848159196,-5.057962090611163,-1.0335595591137121,4.374886953775274,2.12709249653291,2.6163027940432997,-6.198568816250621,0.5981495750712753,2.43230805799616,-3.173137957066963,-12.679703730102055,-1.132447427388115,3.3720780411218527,-1.1870438514100599
inf,18.437114554907502,16.58430526681454,-8.765278789985654,-1.6789411861442645,0.8335783351376094,9.615060604193843,7.963571672093103,-6.419057175639466,-8.118013039424426,-2.2970338260294554,-0.14973592842729033,-9.536573349245792,0.9058356202313362,-0.23942191746711217,4.656333506811492,8.919707211208909,10.439762211972564,5.856621955264401,-6.526203284843945,0.5957196858404004,4.000601709564002,-6.372545176393366,1.8384914854528134,2.975134014139009,-15.86389327374114
inf,5.51622862887605,1.165297017984912,-1.0298082148369154,-11.065718399475983,-1.2570594645334054,2.1367196516376055,5.612841792409576,6.936903774727007,5.330514751981767,-1.6853164223812627,-8.938098137981456,-0.1012344648432304,6.0371128755630465,0.698413122284407,-2.760628164965624,6.211665546777866,9.309700465711245,8.863680408820208,0.8331774303454296,-4.526312320089069,3.805557215357659,0.2602995149315035,-3.6604713529578348,3.4519395320474118,4.964811862410286
inf,20.14691438768999,11.586997900365766,11.439420664991793,3.867736445863617,2.081208826438484,2.9505277918439106,-0.17215623143052028,-5.678505353025187,5.840050218025787,1.1589626109209306,-12.411990646885876,-6.007973162346332,-7.022354949902372,0.86370518809494,-1.0129945337260864,4.407256303811614,0.09451640878052814,3.84364701094389,2.5680315897517048,-5.040582856220546,0.7478024149436777,2.5107957375434466,0.34291208994875433,1.5528171047414645,-5.264438851971377
inf,17.436351568636525,14.395016910262232,-4.551052941196065,-13.584293423540608,-1.2357503447978644,-11.852102274281357,-7.213953171026823,2.6781537129002118,0.815125746197424,0.5113756469049591,1.604716953826248,7.689467959152765,4.204197204803897,1.0081495043079371,0.9921497076988715,-4.143553533157238,-3.4811593792617472,1.788951694892944,0.9987122833842008,-0.8086740076665535,5.2491885054969245,5.117769110581982,4.418714116202473,7.4661144907582155,6.43699944607728
inf,5.8289957229204425,-1.0271677575265272,3.845781860941802,-0.5783146277028308,-1.568203392194249,-1.2096883357049037,0.7185753388698615,3.590762189317857,6.553131690333075,3.9099045136483,1.310782105568208,-14.905080886595456,6.300342977417024,7.010298675214607,3.347826723008751,-0.2107790513155834,3.3984853394147905,1.4747635912988457,3.127001369329612,2.860932728121931,-5.486286453775442,-4.9171162811019045,-10.615046965149489,-11.773465887798068,-20.835847667226105
inf,12.377956623081854,11.500205201814293,-1.2045690671740026,-0.9026020316265431,0.9518473293326721,0.8828157248622119,3.6014712134779927,7.914216823263416,6.810614431416923,4.401891204244585,5.193216286295076,-3.045678522119367,2.8629853899055178,9.174296028432622,5.723977438982473,4.589829157824084,6.399764205783271,1.6906408567146016,0.8990412742567884,-10.18305750259701,-6.762544501886673,-3.518181473392545,2.8924261203309953,2.801701200762693,-35.01163936199316
inf,12.828381828462554,8.04255951326379,5.560926586403166,6.763618426407085,2.0987800276085196,-1.2979666769892688,4.9747937349745825,7.4510570108710965,5.373743145621781,3.849987995692004,-3.451189993036536,3.3315998549204764,-8.529287874965924,6.183315944230394,7.547520415840829,6.236176823277589,-0.8538956538980784,0.898425328090724,2.9230750062511532,1.015522876193394,-0.9116748681985882,3.8993691096975738,2.5786826208596025,-23.106010285472223,-21.119087187174912
inf,12.244057886697828,5.268810557121618,-5.865075303016884,-2.451873453221438,2.3146884793938227,-3.6850627360201713,7.402740735618025,4.218342229286257,5.422505860453555,8.559487769543665,6.822014086594457,-4.190573083117783,-0.5060731939452836,4.77928442232777,-2.807188324143965,6.496838499529524,5.946706077586633,6.3938279754903675,5.044825713163526,2.917753235608096,0.03439558123104547,1.2719619038054475,4.64747032114154,0.2709578094646048,-8.992218148370341
inf,10.71590315955622,1.475021774241874,8.235953119609519,3.298351458769112,-3.349209256911003,0.7714718257931068,3.4458705277590553,3.9828120797615085,1.1780732157811116,9.453683130373832,9.211470967977966,4.305392266981798,-1.7452265956961597,3.811651296532439,-0.03874356850474925,-1.1464913982583909,-2.042346186730974,-3.6396475530110735,3.2218178755928406,2.90350802645316,-0.2563170162817059,-1.1293595205705316,1.7652014812342713,4.030307470299121,-5.167366131068093
inf,-1.8115515785976655,-8.73566744226617,-8.170906064260034,6.1057660141358525,7.989335557003702,-5.048586987234572,1.0711580500456535,-2.7718952052157064,-8.033762570610662,-21.709185677813842,-0.6062238438610095,2.806934290920722,5.756148370263176,6.195033984203725,-5.332534929220188,-6.950898514730142,4.058964248834492,2.398424000317462,4.524104675189754,4.11441984506223,5.879846652104241,5.422471670820457,3.4806778779065866,3.659230304420092,-3.1431918906264116
inf,10.826935699038817,2.541577524364911,2.3530145127608577,-3.8104395240275295,5.802274658166876,9.00130993585288,9.207353048652415,5.31420322872615,-8.786338821863247,-10.679405848963292,4.242520116943965,4.135890355239738,-1.469473253661505,-0.7352758586225008,-2.875098517697964,1.870534868889571,-4.25740528135497,6.991011064555217,3.9195730394293236,1.0625436393866465,1.377340593649464,0.15799623663203022,4.869368734730173,2.2719088769489417,-1.1588004096127804
inf,7.460226236212424,0.8886874816436361,6.03874461907888,0.021789023948805664,-1.2668272929778794,-5.002299225328379,3.18986341799868,5.74077877874403,0.6649107543391324,2.264634820947954,-1.2361450158708607,3.26950046984512,6.690683729569869,3.2813211678741254,-2.8797022471798215,2.131269180973298,7.447789253074539,-5.245580888515605,-6.187139869851073,-9.935952711004738,1.8641909515115103,-1.896188930767039,3.5413207364962176,5.282177347081884,2.243682521903793
inf,9.610343944517604,5.275575044817401,-2.6401948981299874,-5.044513600269482,-7.399994837419257,0.1318074612008786,-0.0308006351124277,-0.6242175058116644,-12.533478795292318,-6.611061040842671,2.9963516673023634,3.3600998833435014,-2.677536971403825,1.514806037687606,2.1733870314388497,4.330276846928051,6.545705068764718,10.122074218416898,8.817875914717256,4.048592714153578,-3.285964050899061,-2.561267083729703,-6.114369396691359,2.8970192962941397,0.646185752549421
inf,-9.978249542603155,2.9898349086183558,7.186852624019153,5.27534993211788,-5.570967776153417,-3.2185009946797365,0.036661931633148015,5.365893304729248,5.64098575997437,5.180044771167033,2.848683238219351,-3.200063043228326,-5.96242308538465,-8.832654039930965,-3.0683433725901494,3.2808575638757276,3.4472889938603544,3.382904462172448,-1.568647900506285,-1.5399311320494675,-10.805936929145624,4.3348215898016065,1.1183928538789587,-0.20856461716000751,1.6029296508136568
inf,11.20220394647974,6.416939456334692,-1.7861428002801638,5.481127588940552,5.9398458581334275,-7.929063332023858,-8.491209175631148,-6.317546894308997,-1.8877545662984758,4.574357161107855,5.396994849426868,6.104844191261087,-0.2837343436416049,-2.3874601011755843,-6.898682478052173,-5.357230693358154,-1.077158532614682,0.03912499785953827,-23.300057010881922,-11.407304763371812,-1.6413142534460974,7.089392610805973,6.064345675962983,0.4086369496515161,-20.58946854545229
inf,12.952839298017645,10.035093477551193,-0.8236339780081714,6.653745503736243,6.0127002188056515,0.237041075780958,3.1668529672299286,2.2173945575225176,2.95952927973147,6.807223942529468,8.901771023293811,3.1587892495267553,0.7138763211824823,-2.8955087996847766,-0.0681619904854216,9.347055980523436,7.6962877557587746,-4.109587361783468,-0.7411435923040415,-0.437878166737967,1.7905467943508953,-7.259793151781935,3.7132128445173507,5.936539980774548,4.56475797058237
inf,-7.4175940413187575,3.421280808712609,0.3004226137448356,2.517776001261087,-1.526422176643507,-6.007162423282708,-1.953499524591912,0.12489343714579348,6.45874881074451,8.747546249221145,4.343993212008414,-0.6625117570048289,-5.8965998531400245,-0.8672128944212503,-4.373223557277846,3.3344727676330237,0.8206860035630754,-0.9219027358004155,0.7793879728835194,4.324538708269841,4.019769707490532,-8.930185475479057,3.723093578864507,1.0117514349767163,-4.549176511047996
inf,8.63255045531977,6.864835402617604,11.215944863966392,8.302106513510122,1.8491758306209576,9.458608324861924,7.23786057803758,2.5860384143016546,6.129401151794383,4.103077172773766,4.714974999029543,4.266496195563931,-1.7506366846100576,-6.639598372613939,-8.971191817495829,-4.736846738494982,-12.586825024799126,-1.8604747770416594,6.59642567030302,6.023863642164798,0.03038102925314945,-3.412928375814225,-1.838494180494365,6.011276257109991,4.472258958280321
inf,16.28865488618228,14.993712994273302,-1.8094054654872345,3.8618308423015684,-0.14856921490168418,1.0946245166955393,-2.7576062627315423,-6.859541150497044,0.9599294167417938,4.477581709274304,6.403026970545007,4.670416898651382,-1.6982830788077905,1.2900801470396175,-2.9806696135694253,-22.30323459322195,0.7027858240511478,6.976010290515951,3.981001210026328,6.9747136735696245,1.0915902508787099,3.6656464972573275,8.350635348863868,4.728619650462321,1.8356370016659938
inf,9.72592228396453,8.374526928137755,-5.871006214096763,3.73877241488497,1.3400224655162631,-1.2385727527344415,1.4371622202100554,1.1545143257669181,1.5171523609472217,1.6637458832197751,-8.633183105521603,1.9875791666849665,1.7685379399842418,2.442862310484429,1.5443657827195096,-6.990677123125899,-5.519499696248275,-10.312846788079838,-8.260606349568839,3.7638363551697793,8.919657239247805,9.465364067231476,7.423838707922592,3.6421365305587443,-8.393148142358008
inf,-12.453336625810135,-6.980698409813932,-1.0390267661436958,-13.033104352742448,7.242130440238935,3.2749193443489943,5.085104050123682,2.9200878737535305,1.3309269160949952,-4.37977866835773,-0.2896175247136412,-11.636304645911238,-3.5734366126394193,0.8264402373595985,-1.0357423112114077,-0.45841187732343514,4.721050972236,0.8098567738786073,-5.356624430135277,-12.693376723651248,-6.574136813785053,3.2144636950201004,-1.6544062247666602,4.8512394179854255,0.5118885729156588
inf,9.333861757700571,5.343485103996677,-8.62326121536331,3.6506608984292086,5.63361077852684,7.690433918439545,3.1111459311927234,-4.876431279018071,-1.4348217572882405,5.093755722437727,7.9961782416516485,2.1316796132283784,0.951971376150972,-3.477303770918752,1.5131725343185138,-2.104507516800048,3.09107953108596,-4.470525936277099,7.4497297472957555,6.136023734588683,-5.679322641933624,-15.126733027489017,-0.18527171132640774,3.553486241761142,3.561866165098209
inf,10.363456911078366,-1.7988189964537966,8.103653219753049,6.261199536521563,3.8876933233581674,0.7789345521170361,-3.2127749873905884,-11.163055558508525,-10.073103549365705,-5.0180747755744335,0.9382115159697619,5.558644612232051,5.415257266716338,1.2893905385447368,-0.22991570399846495,1.7464475748432378,7.767181140112783,6.5371536779745725,-0.20751342966403996,-2.1811751418470777,-2.7769038959169876,-1.2422941842799702,-3.5445093967073262,-6.61101103216965,-8.931974822009849
inf,22.306572390014825,17.805456638461898,4.515988698606623,1.140831315216296,-6.077735989239443,-6.1220125937676,-3.67914306493212,-7.22132721152235,-2.1129305957125837,-0.04676544461917587,-0.6354750784694545,-3.969508754336502,-3.571575955982347,-11.618134940147755,-5.2890714936415435,1.2063869587850178,6.577968820662981,8.803075118252337,1.2827599805539975,0.7503844839868492,1.159336398551197,4.831209653926955,0.3661684875776814,2.5315271537233457,3.7752365539637225
inf,18.71695923477519,15.661443325693721,-5.63405381360489,1.0006634037832285,-4.096532938094988,4.431888849308535,8.867047524789818,7.41756284877313,-1.9118721855958825,-2.1989195420242424,6.396883220732413,7.3112081152805075,6.394609995031011,1.9080830885841493,-2.0348273590617296,4.000174685237646,3.5782180773559062,2.155456045031549,-9.941823549493137,2.345238053125712,-0.7069448244029743,-0.12816110728545738,-0.036536247329664207,3.165361049804602,-2.9432131705348183
inf,17.86137753131545,11.003075274360313,9.707918282221225,-6.450930770810686,1.8032100308945118,5.860415807246596,5.925886114126186,6.620419001778181,4.153053308057991,-2.333160116815833,2.079715057613633,1.817009675392022,0.6369399340843387,-1.143330455835951,-8.497468275746172,3.809878078316025,1.0413683425219773,3.3326193136395688,4.216382948665313,2.201635622372514,-1.2617144270329703,1.191912118839788,4.354819474221152,1.8750871865578986,-1.830633749128694
inf,11.981027118896343,8.178884412342732,4.815301655704328,-9.95837698265072,-2.354791528920238,1.3912262942708082,1.9607168352232591,1.676972814714567,1.4507121945248542,2.4263834309987544,-6.676008141031822,2.9576934870963996,6.015243377095018,-0.058827012015427727,3.1555761452031277,1.8592973704037448,-0.11829701291028982,0.20804667926838505,-2.6779393139100307,-1.1487594931537473,6.353416003170885,-1.6713466768041982,6.1051401694293475,2.2162416962052305,-13.977091059317729
inf,15.933862526101617,10.031913306968054,12.164428792153632,4.453014020733548,-11.452807274894482,6.168247617822118,6.231182325984044,2.5024162455128973,5.928615401282201,6.9567789590438025,1.3796204571860073,2.686269468077306,5.890243146393615,5.70987341771383,0.6965728705356398,-1.034565315716364,3.4035475891665925,2.9537399540016054,-1.0034751203897656,-2.0881215117911793,-0.1285723291538048,1.730438033289559,-2.7962093098188987,6.622902716331232,4.437344327411267
inf,4.943237678794681,5.233696802733199,-3.5647991394926244,-1.9148358909311227,5.25547180315283,4.84383269897873,-0.7527936778170172,-1.3539020941653703,1.2458339310687876,-2.6741084532317174,-6.081313804000956,-1.198733537963271,-1.041889184507653,-7.533966964565664,-2.8839209685418865,-12.344429866786562,-5.1434073638398985,-2.8265329733786047,-9.257896734338026,-12.60703027623768,2.305523370012061,4.983131657772425,7.419760646360309,10.889142926567636,9.618990740521077
inf,13.085846719779514,9.850900998924153,-3.2635826194782602,-7.221516212867797,-9.184375678135964,5.893211892949161,8.623125108497248,-9.777366937193456,5.075817806328807,4.983571862569278,3.124081981254264,1.235063012283348,-5.359915426941882,-5.730504748260103,1.1087115532257954,6.453138696452832,1.7640678880560827,6.137929669765839,0.45633854490547066,-4.375247025221363,4.082419158080462,9.352814791948589,4.4110507933643035,-2.350987140509858,-3.779440475039152
inf,9.126905307596617,1.869739121267326,3.407942978924609,-14.43017894280532,-9.383409529746153,4.619222962885864,4.827098725412263,-2.663218049007156,-0.4501843470484914,2.3474675608843896,1.9306628179980052,-6.837550109154698,1.227426731154594,-9.989179082379003,4.616018609906689,3.52839118413295,-15.476661403906554,1.7423502544411207,2.103481759284911,-0.5578846996890121,1.0378753727171315,2.3630225900614974,1.4966750780584661,-0.6247519668784918,-8.462419722410907
inf,18.59558970332123,13.90684597695638,5.086182510092957,-11.356179693048482,2.8043458438803412,4.46620573127521,-1.736848689175872,-1.395294286226303,0.4123790104396079,-4.929704367894999,7.168630158882593,4.742778723136659,-2.625266330907799,-4.438828689477042,2.328041225517296,5.333372739210489,5.038218066132721,3.3778967642948885,-3.27963583675362,-5.055955132163589,1.7262710407900315,3.0175678496660225,3.0355968949798395,1.972877601659654,0.828742985495893
inf,0.7748033410048407,-5.997012135792893,1.5126190845161211,0.44065955096041876,-3.1123427981640006,2.335485511161494,2.446639192667803,-9.226164907721383,7.57145997552297,9.44076748469698,5.402964582112425,2.8423922115445066,2.8580767860023855,3.459404937690252,-3.1472543161911446,3.343510830008533,0.6391891063480344,2.001144840317835,4.843251578273602,3.6308246576198115,-1.364838519963115,4.622496555688244,4.032817777397085,-10.70762654244679,-10.299022575803654
inf,10.029513739929156,6.965293283767032,8.330622316434617,3.9250931609937325,7.07985589666875,3.2690468513715487,-9.911124740972966,4.8164008947833,4.401337553577733,4.886832915006835,6.518447872665419,9.467989523294449,9.939258128718208,6.09846845483672,-0.4593979389659495,-4.613471057340831,-4.24678306411753,-6.88416659178651,-3.4611949681247864,2.82036759414202,4.34075607947031,6.913345672980803,2.675971305811302,-0.870389105098667,2.7652783810530934
inf,15.615128664368786,13.042615802282189,-1.2703617172962858,4.1961593106221,7.539093607097577,-6.157417904344342,-5.55051254681522,-12.319302124455099,-13.084798134158575,-13.339705669697338,1.222200647835841,3.484720475534502,4.412966723029633,1.065303769288434,-4.33580711859409,-12.680089322534705,1.1077289681654108,5.585081924461747,3.966225892151712,4.078278498970498,4.9580801488826935,2.122733604166946,4.21375553659702,0.17138083240366342,-8.7640916741653
inf,0.47975628621586,1.078754423225817,-4.639232448381296,-2.3564976398697937,5.608532441305989,3.3138302882793127,-9.174455692684298,-1.8045341647915123,4.5048951151280505,-2.186891344653816,2.633255057544332,8.037512943499678,2.634411274087526,-6.546533911389851,-1.7353218127655907,-7.747996822943712,-1.6012277766293224,1.2626390467259796,4.362025882756662,2.4537273467759846,-13.641968004950073,1.3752232371647608,-2.468271461863303,-1.9630928299010009,-6.934043020286623
inf,14.313748305356041,10.17487364278061,4.720694188935052,1.1406678273865367,-8.473910599821437,2.066038568976758,1.1892767066497427,5.612224947217328,6.089605499808769,2.0540055378560425,0.10301156377003906,1.1520122288179735,6.759459110370095,1.748094626227953,-0.5291965651513024,2.162093496604456,-2.480208434294859,6.013920023438338,4.158405958510606,2.4820098384504874,-1.3518478833033427,3.5272945812396657,1.069023184427678,-7.211768021197926,-6.349621816021333
inf,12.922660556709525,6.990159429157398,3.8079185014979373,-4.776082938902299,5.277708558363514,0.5721248797735257,3.5425949770448426,4.341224823161049,-3.459728145544041,5.865234550423594,3.1411916808175135,-0.8038562978801522,-7.0897813258306925,-0.5513476671392397,-0.5092362699493691,5.577772082487876,-4.156355084748327,-0.47379841559310876,7.186166488602304,5.60938591282698,-2.1910503555766283,-9.632427036572352,-3.4535135551825817,-3.0203998196754043,-18.49923209221795
inf,10.599589569517645,4.70911940477799,1.7532362461005526,4.703565288522427,6.237363426969264,-2.568976126894306,1.769332688203889,3.2553095187652232,3.7630394072083817,-1.9209953401837865,4.861109412639713,1.563117445794461,-1.9278719664869115,-2.3996754762619403,1.326437691984765,-23.12794430067344,2.2419136401183835,-0.38078922558896977,2.9286405714750785,9.464586341929397,8.086425076581143,-5.721386178829157,-0.4001799831427988,-9.882930565520866,-8.164135461132858
inf,11.899108225444818,4.525269908524301,8.296408035041804,0.452888165688492,-4.649723518342071,5.277956191832846,8.295433713522876,4.339046068261638,1.3660807643591184,1.229371266970979,-4.0991762835974725,-5.770230355789693,-0.46219031653735954,2.002116220929821,-7.762626773191826,3.5265591316975886,-3.5775526281456536,2.405263502317112,7.26271136154908,4.199995071266464,-5.8373557156274245,-1.4741414616215138,-6.776552722701986,-1.906429814872908,-1.4005904815577992
inf,8.301401526179468,6.803681416616925,6.90783711817155,2.775198159031479,-3.2579137293020963,-9.16348513044511,-7.545649766334741,-1.3777212007845918,4.230176754072488,1.6756994132737049,1.1153848020106807,-7.835689902101407,2.2690095343581547,-10.118174878214688,-5.291212700719136,4.471795886756212,4.842920960436906,9.686138503021304,6.3423724809491375,-1.297016944908286,1.1233389332102277,-9.869728526201513,2.282694401291529,0.3277753194255908,-7.115392133471005
inf,-3.3043535696998845,-4.910736261046772,0.9069274933876699,2.9088054130522316,-0.3883509381807997,-17.691388897381415,0.7061524070404062,6.361117832234534,2.6286376816816457,-0.06294726237910453,-13.205974607119074,-3.933795816179625,-4.186610459623118,-17.18637475792741,-2.186450685290069,-6.674290204180345,2.1947501774578058,9.002047537957878,3.9494969383836676,-7.791145664205608,2.928201513081383,6.805713880854697,-0.15055627330483645,-9.064640793745276,-22.87219579897247
inf,8.71066738841871,7.987310356774451,2.046712544698611,0.6400280406174232,-1.096548723408688,0.37161555710027017,2.8120070477355554,-2.31118095361483,-0.10087187892024474,-1.5401001922883921,3.265816527901947,2.472709880522615,-2.8935840474065913,3.4028543758864345,3.2389122624204134,-0.9367296085453702,2.292477494442352,3.2521688508130993,0.7834069392792244,2.5226293931154444,8.385916785689645,6.935787538795225,-0.6145970058256509,8.10062263242348,8.35828215003599
inf,4.978583417250633,-4.988234851386778,5.899570077790937,2.1057492524171764,-4.359006040198551,-2.4288706148188766,2.3582436703799132,-9.509819686203492,7.074447116525896,7.143662500092127,2.1207052720837325,-21.54294480880351,-7.652792570774402,2.548222723409168,6.850663245640632,2.9803027576031056,3.163721369866188,4.616775293396728,5.00799677802366,-0.06376358062957621,5.660819391516341,8.190845549882965,-0.45845940034045896,0.39601567726232645,-0.0172214903497121
inf,16.18575849956519,14.294226313150238,1.3530703017083674,7.4525531112241055,11.64727026335013,9.559095010498314,6.744995068340369,4.103119288645509,-4.557019259728712,1.3919035526985155,4.521766453022018,-16.542211738692778,7.024466080285244,8.856549791594233,7.387605835397835,6.2755235356735355,-3.208373623230372,-23.14131210208177,6.1826702710126185,6.02585449846476,0.027145957670072107,-5.522718784966216,-2.8618990801000734,3.4649057624477493,3.6181264461020177
inf,15.367186510853909,11.58366787767839,7.502938984952831,-9.759539399223307,0.3595580690369644,0.7640201886284004,8.255720856665146,5.321500602480306,-4.77698848296869,-4.662979603765606,-4.628893712162785,4.129373486229412,6.635415340670697,3.0264579842578456,0.4982781412741133,-10.278665178174982,2.3430266209485637,4.392601969743808,2.5409791400469928,3.495847605129974,1.1306074318809394,6.766990801419702,8.085668888638288,6.937276135421108,-2.453870078543204
inf,10.831574669760773,1.1714818710991466,-3.4192710613939106,6.734406949732431,-5.557552863080936,-0.7336604248316902,-4.666486481121858,-0.1666153617448174,3.4291768325479097,2.5353379979550255,2.698233594011718,-2.013063177893038,2.2253725782535767,2.325263641236816,3.3796701154154647,-1.33220933796715,-0.8278096453314845,1.611807764674701,-2.180707419521596,-13.320539753696174,2.2723623537674484,3.8957676978564137,2.0800322689541986,0.2845970799693873,-6.1097823831264435
inf,14.061802510983131,12.514322698994063,-6.163353697965835,3.1766787391321465,6.16670955458164,1.5545123476826816,-0.6940190088369675,4.369644362177539,7.5929790838455915,6.378751886958369,-14.116776736423908,3.4266816792789996,7.29364481910536,7.298063307781277,3.374761627052095,-4.6918195564979825,-13.959190494622547,-19.607084457316176,5.48889046880398,8.977445214984641,4.5708257973137805,-5.7954459630351565,1.91467034299869,0.3933120500239511,-11.043960210633372
inf,12.941102466673003,7.619704179809538,3.7262280127206076,-13.600650980440854,0.16381229778885853,2.034735951574305,0.646716399711508,1.0290639014999812,-5.438165547334641,5.5811126140314045,9.753437280616204,5.43712870343343,4.295270542617537,6.620857233117036,4.298313664066555,-0.41855319489086895,5.293185632664013,5.378542826914597,6.857939806134922,5.305192357853635,-8.97197008813761,0.049829524940555814,-1.5583056564613216,-2.397902323570989,-1.8830790003657114
inf,19.141981235800127,15.862676942288807,0.8990320304235162,1.5290505236181033,-0.20924922143905889,-10.930934552257114,4.838582342362372,0.1897592357726623,0.560564562692818,6.43152334695651,1.7868627029250632,-3.631395288413877,-0.06215315482242545,0.2119377795256412,2.400104754746067,3.166641659727482,8.619607457974503,1.7735936932418568,-0.8502482573816863,-0.8596254286888083,1.1444079742802487,4.342862304164399,5.408560126971516,3.575114119707173,-0.7050050065488591
inf,12.112826702837546,6.3399141485612205,0.5319324411461466,4.219847244899746,0.7479509721097912,3.40003572666825,4.188443093970577,-3.0658701548550695,6.492886236908205,1.530568789584251,-1.4639371838791888,-11.094492525001925,3.809903497255597,4.029372497193087,-11.129946219364982,-19.561633621713845,-3.5403267298088252,-4.732975362895175,2.219778219547827,6.272453564512631,3.3912741785661,-4.518204512505136,-1.6443567743694558,-7.172247167097517,-9.356199002863434
