12,30,50,80
-0.16650760044061627,4.888954550610716,1.2094605485919843,2.718477047749314
1.7848050769497414,-4.73505656322428,-14.74498034178843,-13.72248478453416
3.1650955746174394,8.132422785198774,2.056111333133888,0.009128826900408171
0.29012922526061063,2.7894960188316666,5.573278208876143,-4.036475567559748
-9.741694129709591,6.442064481478322,-2.2144855807054604,-4.068052003700018
5.266394738047096,-8.982132507046277,1.094973404559834,-5.543375958370099
-0.39331342329946856,3.095759420732911,0.189203108209,0.2915002075461146
6.181617156573764,5.374203697212252,3.9290994611243306,-1.3844235382350334
-1.0272519384745897,0.3014073140542415,1.3289826252922836,-4.038696419536919
2.071686734216495,-5.047003563695299,5.177066320305347,3.6870921263261494
1.7042523489245576,1.6843276833601237,-5.60258166093865,1.7267509274872808
2.0248532027045667,-0.08090533358853591,2.2424285432849658,1.4855859336351926
2.2879171313505404,0.2724450601973345,7.402423315544322,2.2698617490763837
-3.5722559995909346,7.3670682122620015,-5.594903184087752,-12.350175007142866
-5.373000261671273,3.1575992850113046,-10.914636070598743,7.019852038615539
-15.279789979605344,-3.96262356559642,-0.5131107880411925,-0.7839284427487669
-1.7229653241033884,-0.496643608939511,2.482445799856169,2.179427813804981
-9.553924413331094,7.668565793407247,4.48383054142143,-2.692378946299563
8.438331259290573,4.07963226681035,-12.211943095142797,-3.5420977619864615
-1.9022154372828708,6.314977832791772,8.381627561515458,6.454366741974823
-0.4949737984145949,-3.041845280835954,1.8833613270811718,-1.0672363775771032
-1.1285294335160332,0.8046761075585103,4.589918419441151,2.851797937323777
-4.17432331191007,8.645119978299658,5.915593035818752,-0.6566582164392543
0.4070808358615639,2.0715942226288924,-0.21237607893752752,3.6107631394807562
-1.7920273327200942,-2.7052899225182365,4.553258112219961,-11.441696043948205
-1.7577202678997048,3.1220919109055245,5.27852942387435,-4.006906718291319
-0.9489110863664081,2.856823952067643,3.653228929859992,7.147629478702225
-0.10765625902516618,4.894135524977756,-1.6471952295363508,-6.011500075475752
2.951566571259358,-9.731296306914448,6.801416503359416,4.8756285411407205
2.8820432178430444,5.527782500058169,-0.3850078885509767,1.1222675711818724
6.301163982697248,4.540129157012789,-4.682503265709695,-4.030789067269758
-12.462820094940971,-2.1079772361963727,8.841732686163901,1.3869494838778955
-7.21466050244978,-0.32226472340068923,-5.137154571995321,-1.5303708588355107
-1.7492610047627197,1.379567634016066,0.6328975761813744,1.386928017123335
-0.2108577176752705,0.3107057791373258,-6.269396197810057,-15.720522150663307
4.8005106820477605,-10.179124350380821,1.9159648985099587,3.676060646205091
-0.0163255895746766,1.9705257207632805,2.510676626078652,3.7682249137077903
1.3899988472663074,-2.8441163719409808,-3.7653861705591645,2.2118281364026764
-6.809174505172544,4.072697277102463,-8.308245691381256,2.996775553935535
5.292965251370174,7.009055941422584,3.8833091711689605,-0.3350052084411175
2.048448739549767,4.069091514268845,5.628406310378445,-2.1211885389869494
5.897778547904197,-1.1771786828235236,-8.98761992751405,-0.6041088030382369
0.010508699204780557,2.7252455485364777,-9.981145764836679,5.673437114952691
4.573606693308149,7.479876288260847,-0.17441396263088293,-3.3771398647733264
-2.2705102595991526,7.430482462926321,1.9484635692298369,-3.656803283528369
4.077259311215943,2.200823027878691,7.813994596534073,-21.491977538406104
-6.603326411681259,3.489585307002063,-1.902980218552912,-1.4966547137741983
2.2535044331375733,3.34059158951991,9.506410175690522,4.992739092136631
-1.3643950747672529,-20.021050764466434,4.783402148078846,2.3984184912939313
-1.3055701277602252,2.980269010003237,-27.684692168526734,1.579767694519873
-7.645805591530321,1.0104625827647844,-19.26204111956272,-1.5664116021035426
-3.4964399652556852,-9.470336725524167,-8.138201991713597,-4.225405664034369
3.1014880779893237,-7.5562738528320175,2.0199681142049357,4.336570717126399
3.1296336056632605,8.954285377581641,4.966992145918482,-1.5866003901617631
5.293397877935495,1.8288380404702984,5.84525066357563,3.415128031890575
-1.4943674829116498,0.5170771483558845,2.574357177103046,1.8539542105658882
1.868323481422787,-4.351451178021968,-2.1214836426442254,-5.478159213257641
1.8400745854234721,7.602270342551854,0.06147270536149918,0.7637422945105499
6.523017843952446,0.4974706396558126,1.6699594282621746,2.7562014162822486
-1.361613855723434,-16.4644786514466,3.2890753121826037,1.8901983885591882
-1.6949011498786746,1.0760950865766645,-2.817213377447292,-7.754841527511573
-10.782805277576605,7.064585047021989,-2.8600423123808945,1.1391525518246652
-5.753501228388008,11.02749239847833,-8.842197618107623,4.868080726796755
-2.542425449374123,4.77775697032018,7.335018739391476,-1.5093721271929752
-3.8914123159616625,1.1187540766833202,5.076797180331351,6.642036882092242
2.789589796299588,-2.656836385664647,1.512594927812561,-16.062694494607896
-7.369720899510784,-4.850996456341868,4.27437445373247,0.8627478578080883
4.30678397042935,-7.22649095371202,6.697821260589659,-2.22946683248248
6.115197540887005,0.8901963419508228,7.591770375041953,8.174261681885529
6.486171627432435,-1.629634125615052,-2.221203618040356,-4.063887296808588
-5.818900868530459,6.035443208243873,3.432889231158814,3.5617404907147474
4.273356435026751,-14.517747402828288,-2.368655263937953,4.227714136135759
-2.4914586503888123,1.4967815429905613,-14.20353068292086,5.26295164554811
2.0798641837530747,-1.8032008895392408,-1.2558464501324238,2.6894714836939357
-2.3667377977346424,1.7372360204668986,0.5839215666576791,-3.7930905730617326
2.3466269069978978,3.214553944359004,1.1542129973440503,-5.145633598661604
1.0943129342157203,5.884578481186701,0.6149741167819123,7.0960990659686445
-3.018339420309413,4.114228451896192,-10.514843245192726,-1.267018472719407
-13.069692757769554,-5.839616845240812,5.433374337942158,-8.524781927101003
-9.982306860202021,1.7843961710471667,-4.549389534534857,-22.05264329112469
1.1791895645173662,-3.2726617268990914,3.9668061065411386,4.457196962717521
3.412958750106912,2.836859019757444,5.249853160447461,-1.5476782932220772
-2.1342680596409394,0.22732142203487626,6.710996444217113,-1.0578737960420597
9.288390059165298,-3.5851118317654205,0.7774659221430369,-13.312554465043618
5.912466812533749,-0.6107605453283753,3.996725409754898,1.0957761763818041
2.4690289934377967,-7.608875388600762,9.097378755249938,5.2800434514076855
4.948679953257175,1.9137787684074112,0.8355467198352642,-0.06307931950438217
1.13978900109953,7.020853318612399,6.25087434739735,-4.511619597584847
1.785915519756671,5.014871115230665,3.321685115732908,4.29192601204041
-2.3673070975490242,5.006999824556143,-3.7126046171108094,3.7615656203106447
-7.962685775765668,3.0390478181054092,6.101890474091892,6.632039585570702
-2.1567906583210097,4.605898093387037,-5.302064854637418,6.299036780582213
2.1524365026209225,-2.1517267543224783,2.775398796180827,-3.0612990643819913
-26.743709798919696,7.8790866015781695,3.5309015675845714,-6.853688656678578
0.0526058233553874,-3.0675304624595263,-9.118091784825221,1.147605813927136
-9.026646910225896,2.9749989412696216,0.5149080529856178,3.457351714603192
2.6225143773028314,-5.348386086796896,6.753840808494143,3.484686201751199
1.3875773945670733,-2.3771809691317465,-8.039389627807768,2.6488003164359597
1.2003358154097552,-7.884154628427371,-0.9100420604926924,3.9814433327661582
5.338458522286719,-4.288842488207898,1.6463551616572651,-9.237414607585656
-9.54892627258669,0.5309064329316193,5.633656489416655,-2.9950208514753953
-2.093116843277952,5.154399018151381,-3.1075924268033326,-0.5074639871250213
-0.8641124345153466,-4.41652795277076,1.2247270696153016,7.919301416212658
7.3814300140375995,-4.43249773267965,1.997129187347742,-5.91038597478007
-3.8430789308307762,4.4646088337399235,-2.8877187480119026,6.260173761439631
-2.799531685398183,5.182547588991355,-0.07371641207880231,7.474719776553162
0.5729611895091282,-1.9803168335422505,5.824565032247346,-4.517282121743676
-1.6630207504918917,-5.664233415450774,8.152191890118047,-11.592581849611669
-2.190932707683454,-6.243766599704539,-12.491424358992933,3.6177646016425093
-9.040506281431405,-12.828391484685998,-0.546398365535687,2.9569275618979844
-4.001200819674247,-9.281899268485045,-3.784282135072214,3.4240023951746537
-1.3956665406199367,0.055796503893198235,4.224709148711025,0.9741269642061354
2.995443376030116,4.756521757801373,2.197624859019978,0.22059455956343044
-6.145637945373921,-0.9784284607560139,3.9874521440666193,6.541793747838014
3.6146905293017584,5.077213864509403,6.730369270546628,0.9351133190446816
-3.983640627847635,2.604940951614388,3.6470562658828776,6.3287582901819235
3.936310562514891,9.14630561394656,4.294907737881875,1.3671255474976398
-10.481488364488854,2.955558441582788,2.408472829484296,-0.5017579191802568
2.1783730809247466,3.177908482069924,2.2664153083027507,4.657381601492531
2.335727162065995,-4.521706631574496,-3.6078205944243926,-7.94051962361376
-6.360772744045305,-1.0603964419075318,3.0395335946246753,-8.65339329290125
2.7165862375146603,-0.5741802379993324,0.6965483347872201,5.507640061977398
6.409178216772925,3.48570442167858,5.542221226254593,6.930239369508762
1.8866615159589433,-0.10935811063119516,2.2572987619371645,3.939510941081796
-5.815078212406933,1.9358124991054169,8.409645257236349,1.3677756051397694
6.571504149651029,5.370458981744051,4.072568574140956,-6.016480205098858
1.9962223054171906,-1.6810581546802261,1.3930781200912072,1.5544823032147086
8.215496103784558,-1.6366854057012965,8.426176468739328,2.2164433319600647
-1.8459769740168106,-4.380365127094411,5.292510385551829,4.622251813699592
-5.3923961984847155,0.31481540363558125,0.09555725191623665,-7.898542922893171
10.858020784472599,4.250770849363111,6.458966573279071,2.378710103834866
1.954174761124135,7.151158354549409,-2.7299099552422383,5.327492599954045
2.0559834514157957,4.476082247844012,6.932161635237019,-3.8538079068040076
-7.759347657384857,-4.8921214869226475,5.8941807015839025,-3.4402828951882114
5.417329465861712,2.505377139231861,-2.2310944593443445,5.388421530733652
4.210773363155122,0.3645036193364035,-16.140502805195315,-0.2579602244021686
2.5421348390288236,-0.7999326377661724,-2.1123738216213077,-5.052338080711742
4.342515168549596,-6.961753645602766,-9.864994343276887,3.887431358927792
-5.705902033648225,-7.473807630900819,8.785396078660156,6.924602475050847
2.7644368486397264,7.993360965404737,1.321308242037528,-4.558771792838243
5.428304610120255,-10.034562847889209,3.475954434036801,-22.084298034124558
-10.528092253114862,0.7626285684620093,-10.993462081144497,1.4312112654611049
-10.886513326875889,-5.268656334121292,3.304060770973198,6.373358129346229
2.666200180244927,-10.981205256624438,6.494582213533615,-0.7445796347367661
1.634758630430467,2.464908362333663,6.752974687375389,6.7166073427489685
1.0052914803284456,0.6491158667850989,0.6028174269657249,0.8373850643372549
-2.349057560528127,-2.297477384029545,3.6333701651793326,-3.5545403947536727
3.474424638235192,-3.396545905431953,-12.63142087848544,-9.226431424224728
3.557316013841298,7.57358351212968,4.195464412965713,-0.3168213624352063
5.46149494374909,-8.602835409424788,-5.391208744791822,4.0313664013611685
2.416271060627928,1.6865924672811907,1.975847068880551,6.1722926380868905
4.2467097205461455,7.150236198147422,-2.146284031417096,2.192232047534283
-4.5070180978301115,-7.1164116215092825,-5.635672934915856,-0.9122078012584609
-2.9787548351624173,8.467718875170661,-11.998171651334918,-0.7485056875606091
9.307285638280854,4.892529032563857,2.7510035359420186,3.1951259916311905
8.034563999378076,-11.460727721276921,-1.8618670836764828,2.161025567217102
1.8332229744051856,4.346826002194355,5.3132974234877395,2.205868915722995
0.12188295591934606,2.4460683540443924,-3.030163436497663,-0.3292927853678407
1.1770958911701288,7.404383926272992,1.5011484184262969,-2.998479124233775
-0.17841610001788066,6.930570850103361,-3.5239148784504657,5.796581359210126
-9.470666323209104,-7.394556623527297,-0.06075792199973762,5.13811478334398
-5.204968179236655,-0.7821388277705417,-1.1932657517517136,3.0882759364510655
2.779252637587593,-0.3665956255037024,-7.816044906645583,5.043549319033822
1.7414559844513198,-4.909713039286746,0.5733254170211701,-1.1861369910125603
5.73738334121093,-15.152104489688082,-1.941942748372508,-3.1014391451362258
3.9318325108897336,-12.910292542745228,-9.67186061746045,-9.360327372279812
3.85199722105868,-12.099899497206213,5.659679122459618,8.464798546831524
0.9482862159040144,3.889314398368988,4.668385070586314,6.885213855289059
7.944543415766051,-0.28123021853293295,3.8245946643504958,3.631172505613634
-9.66058739305913,2.956633407238339,4.598666511449796,-3.680546557486089
-2.073140866122788,5.055513907232758,4.241710902953887,10.735933587706576
2.3650597829357523,-0.32436997256674616,0.6024842996430841,5.4617860391318835
-16.765251935835927,-12.372400192118068,1.8100867904163813,-5.416852253363146
-2.9784527587703913,-1.8695184646009757,7.1134202572160525,-0.3132207139138501
7.076632659185064,-0.718219145286362,-5.456119269070808,6.628072363185986
2.055158670572222,0.9158133507142914,-3.617767888435946,1.3466393347963894
0.3456365956110466,5.08151853468771,-4.011412416454942,-0.8621970770563507
-4.998088616087462,-1.7158085340650544,-1.2326803868136444,6.552200333310104
-0.4026012909390178,0.2374727766774427,-8.799070893088068,-4.563766319396088
5.327110366630619,-4.70458405568538,-12.036514051618003,0.20602831074963746
4.672376965845024,1.8627265530004955,7.1545550218306,-0.6179047089099328
-0.7170151302868215,-4.185211259035935,-2.7879475497252137,-1.222115085951316
-2.353796326550523,-14.747730700783809,2.6632823736350666,4.304753596704273
-0.8225416535652958,5.616998334716325,6.574412184563386,6.844922681986581
7.930389886954105,3.2175321514043524,2.533511773537871,4.200603370436195
8.783334940326407,-1.9149775524769446,2.128670445876452,-3.1031974581436472
4.290935968848603,-6.015700151049689,-3.1361613260101286,4.633375908911745
-1.5810753987512551,-10.00728805390526,5.605227555316894,1.6526552379973474
4.127549167266868,2.703299318401964,-5.601890513927895,4.027208623130804
-5.115948893604307,0.6801979428098548,0.8870101641926773,4.890007435808695
-5.692381292378568,8.946461308673765,5.048262530374291,5.864048005568293
-4.547939712277263,4.826164771052259,-2.7989536727457995,-6.902066583807333
5.259815154450684,-1.5513976285944402,4.133707887564125,0.9962193613009518
-2.6229555134941895,-1.7552851095961763,-1.8016686780027698,-0.2727377925756471
4.05002875337567,7.9322088728890385,-3.198349586666179,5.734441223996537
-3.711430260772155,0.6694367722356418,1.7260978865856202,-7.059904522721702
1.1340465766681522,2.9395419799903912,4.5896324493019485,0.3408645859193058
3.1859320777091833,-0.2069152936735783,0.2635727054768111,6.401878582773186
2.6876667998004673,-10.263112739046374,-0.4939943977125161,-2.013783446914019
6.352570072805837,3.6737546066363613,-1.2060395777993769,1.0668459480404167
-4.007640722275023,2.403386424727998,-5.438927335889208,-0.3995380985761514
2.7841669072664184,4.531806994786674,1.617826406927879,2.6404589898368513
2.9755060464306813,6.603901472055007,1.627254034424265,1.020146422956138
-5.234916135761117,1.556183956243256,-3.7578572636673506,-5.115721899734268
5.065733042700368,-5.101700775116317,2.293618719884204,5.7202797665231735
0.05918108330132916,6.9511766645546516,3.468269728787991,7.778799265718511
4.171330385341665,-6.660595695901517,-1.5978459493065067,1.219877902900656
4.3464199998046125,6.734369411576651,5.317072635953799,0.14704029123952722
8.797434824890887,-5.215066682521211,-1.5378425937421198,-3.654719443501712
1.2808370715966564,5.137169630145699,2.1556097668389818,4.967014326482186
-1.232863226011899,5.349389733860644,-5.743509263461906,6.226253240509095
3.9552571022938814,-4.155852104299925,4.335390016978511,-1.6401187626969502
-8.916352175598904,8.448193607795371,-1.4643201569353188,3.115897836370621
-2.1472449693036717,3.1985691291599885,1.980804760361238,2.368929376949371
2.0020006599160745,0.27975756323226975,5.67806051926237,6.701095373631659
1.6904468576531484,-14.180833250987572,3.4324732478954836,4.279568872798986
-2.284992710984313,0.3799413862414234,-2.789654279323127,-3.228710769466865
-5.011391380904176,-16.906396412634944,-4.433245672260849,-9.265841335097193
-3.85115500635447,2.2099736437972446,-1.4532791283255229,-6.4493931185373725
3.2951904983428544,5.17320002966817,5.905193008746625,8.159905339153475
-4.010891630322952,-0.8297416403314699,-0.6749492669255304,0.9176724443655431
4.0007146020122,2.0225168548700445,-11.469600580854046,6.558980319006757
7.435910002776166,-1.392838480964361,-3.2838039278647635,7.841825795818885
4.467633696754873,2.240922999732433,-4.110092200734567,6.88536044808987
1.4384677514725916,-1.259450269158009,1.0977873595558343,-4.135546247024813
0.2808667527631021,3.2912587217032083,-7.082272708868519,6.115320099066562
4.750800104104641,-8.979460485021523,8.29205011789411,7.69365499099467
-13.5875720557157,4.201012617538428,-3.412339237761028,6.159764194761575
1.1914510704428818,-5.222907372628651,-0.2983106357270451,6.749248391431216
2.666471550680964,2.2681974159345017,2.037263999608747,4.324359587462553
0.7413124898705804,-0.029262414889071664,3.0072663769105468,4.134112237326377
0.24238542516198963,-7.023684560333283,-1.2438764145041787,-30.128649457496287
7.6397005181873405,-0.04086393192469728,6.514556650825636,4.906691269079435
6.718405389267477,0.9568414274168155,4.437698533217446,1.7899479856826979
-4.011317937873209,1.1797382614624716,4.325605907836717,7.5669967148230945
1.385524761278241,-20.65553936640021,9.710458468880176,-1.6984688721379797
3.2350551707887027,5.504334994191595,5.696142699007048,3.794195238661942
1.5466626932971876,-4.157073938472195,4.044848046546896,2.717064994261488
0.5710260116077069,3.1449417934934516,4.480120072216774,-5.1237160016637375
-0.4701839661638471,3.524477205387946,1.3068322221488131,2.363325907979277
1.563633078458406,-4.93876023340216,7.101905967996611,5.921254822577545
4.966477604884009,4.9526265514020835,2.1352932183012037,-4.160864130327006
2.387835677164823,-3.998868658077548,2.350159491368302,3.9304549335200534
4.998195523375319,4.606013182655179,6.61526533903719,-7.743574506663933
-7.058978419147269,-0.6300230453506721,1.0306173835234382,4.996203590489156
3.0205181744248466,3.738985404707389,2.53476981022963,-9.419273192299158
-0.26827815043401,0.24475133583212383,0.6666844156583913,-0.3088368931988583
0.27193486996102545,10.023799671658951,-3.620646835421926,-0.6285488246346631
5.080832230542707,4.180512653593549,1.5214765699968034,2.952471954389253
-0.3542646297574574,3.273903093443902,1.0997378384796086,-0.18694048947354247
3.920845453507742,-0.42077789246718567,-9.117877263681041,-3.408067968991233
0.9722023713970149,1.606110782477547,2.7884152367217503,0.03419999784399863
0.8220834984761888,2.1533920380518197,2.890401157856065,7.427115649049323
1.1407854609984232,8.279855555344053,-6.480311191856611,-1.3689374228441693
-4.7926700706156,4.0424201401913535,-1.7810098762234752,2.0488179476034674
-0.06834647190636474,-6.465249639503007,6.93907565581441,0.4469168340506471
1.1474919843480342,1.2732719879627936,9.991212693487743,1.276535409436807
5.724245140611169,6.79479321148321,2.137627101695756,3.0409496553418336
4.320796866173619,-5.509724694984683,7.366955177990633,-1.5213075145693011
5.5852883783881095,0.6584524066628283,-1.868691549911766,2.540396861930958
-1.909561896574676,6.097864088290418,-21.451405830722624,-0.8562053011187416
2.8240260153705568,3.0369855942742596,-4.072653812188175,-1.5275419397017984
-7.825849437948225,2.6375461291799773,-5.009529212003077,8.089358301377665
-1.4948193819157982,-0.11113428734265796,-1.3573760988611845,-18.923528265741794
-4.620162668498062,1.3658496596351455,6.76525864909701,0.3670183196901107
2.8418944672732773,-2.659800343883685,-4.663781777576933,-7.574574976922314
-5.620277910274621,-3.8086193860989432,3.5298322789863796,-5.837856413222617
2.470364784558724,5.177852851532389,4.8589955736430674,2.008696894989562
4.604898450081713,-1.6943907584116822,3.0516868945369247,1.0239053098217
-1.835017243438556,1.0272214076064152,-3.1292492658186823,0.5753946341998599
-6.025016862129659,0.6336225223895227,7.116972521059957,-0.5177459728624711
-7.053206023832487,-1.7483719747628008,7.5090676856446095,-10.18198269830728
-14.185897601333462,6.4011198719478095,-7.293667308309434,3.7081597100660133
0.7140984779811657,5.015335137382603,-4.801464671306103,-1.625206437391725
7.752294283881125,1.3639204920128911,-3.777337562698623,5.130639544565543
3.0322144745981827,0.6902028801170701,4.442539050310192,2.485134948539173
0.21538519243147553,5.781775405620454,-6.753429084195428,2.7673522384898313
-10.377569511085506,-1.025114759255441,5.558298435258333,-8.03119703667852
-2.455195653885355,-3.6014583762372574,5.854512902326331,-13.398858333190127
5.896768060696739,-3.009288283916458,5.368135454186014,1.2113481334088796
0.6201139466398093,2.171340090403742,2.384344155345957,0.6893107826493505
-9.591927796266994,2.718440642480349,7.10968947696389,-4.213400953524285
-7.007320367938098,-3.635703027932866,0.7628634980813693,2.3891307037883323
8.385970193984278,5.931861370757183,-3.7196645955701904,-0.3451526885912628
0.37923684779896344,-5.613004758076439,6.048353227284466,7.888272217222838
5.023044010940232,-0.5973114261956738,6.240495501474225,4.389987861798353
7.140625325228293,6.540729933726713,1.2027375843332244,-11.614355973829234
6.66453056646436,-15.633476687186164,5.5503590939048735,6.240268833469166
-4.340490771698893,-5.059730074720246,1.7210775402863945,2.74210566326839
-5.775019969615186,-0.16595484026237273,-0.24543627089588682,-9.268595788377112
1.0890120607353246,0.596132239158127,0.8041999652564868,0.42317233442870616
0.40063085657510095,-9.756118254440072,-2.928254173571748,8.645752733620363
-2.423369743811283,-3.1119134022399955,5.597143244268029,1.0957062740372763
-6.578030716289287,5.967072080599042,10.351287279284914,-2.4638091557145216
-1.5858437933761358,1.4008294706360687,3.959679900734475,2.882417889262051
8.083704976022052,-5.127029597893461,-14.754140015363607,5.676427189274779
4.77512649021941,2.222443330973018,1.8774417666555472,0.6245888819486254
5.020821803472194,3.6230520558514243,2.9917991255997087,3.251706790674824
6.742281380762311,4.216892880428858,1.153814404051218,0.6928096831712622
-7.139770078259245,3.6122351399952777,4.309995925410288,-3.3021949179012893
-5.916411883657111,2.439458598225734,9.465727399592954,-7.257593046179679
6.540544161576049,3.0562547558415076,-15.750670766118613,6.991093835795269
4.279017365927787,-0.6188409820454126,7.972301839367191,1.8990381896856476
-7.83792821846471,-3.2931490808887567,2.3691976909823467,2.57996879605831
5.054086479632995,-1.6536174075860153,-6.4959974850695765,0.7106665069726432
-0.11283617120972794,2.682937648530963,-0.3164413311176979,-5.823776743293294
4.524050170875415,1.6037664281947634,5.507340549240375,1.216623676462934
-17.372681771888942,4.530671899255953,8.98887711968922,-1.9753032432181428
9.356554512802989,-4.098792498739119,3.6583268556171227,-4.540758051492411
-4.8311283332515,-5.723937369418014,6.251167680385706,7.177135443819374
6.533306821810367,3.030514176080807,0.6637036843760917,9.627639149863
1.5149923825176246,-11.89868922005709,0.8753455808874655,-0.88180729027615
5.768066481449506,-10.384615437165305,7.919113292870922,5.842561005289941
6.3106540088152325,0.6836987541339923,-9.804158586283503,-4.347523715721415
-6.67552577649683,6.8611633451060925,2.9864257927922537,-9.40667769903412
-4.140797112717229,2.3971785753664925,-8.601687472002087,5.7811802312767995
6.437502432424389,6.139953982468455,3.0669256026659255,-0.0874730796696781
1.6044114700069376,-1.9355236200066486,1.138167310713463,10.19825539218185
3.9010714767426142,2.220758130056428,-6.230786393440685,5.703003315949388
3.152494227510767,5.187295969351876,-0.673733530462389,-2.477102615156639
-4.998681669847147,7.064461887604747,2.143037020733775,-2.206823720480031
-4.848628521577184,-12.761274047114046,-3.800127893559786,-1.40664699250393
1.0367205287417312,-1.3807686755565136,0.24119337731967505,3.357378602114512
-2.3165030712489245,4.868780116332012,-5.919258526237673,-5.82786001731246
-1.1104040400722281,5.5161108911707935,3.8386332504699006,-1.8487026845455645
-7.833745887933985,-0.20348505431322295,1.0256396759465218,8.058861036950955
0.4832833448714137,5.6443160612592145,6.261894268726181,3.809370846943537
1.5734141444350704,0.42164918377479665,8.151984098961556,2.774960382558408
-0.3699731716943138,4.1947893987711105,6.438134470766119,3.4862262851635855
1.6233626809042387,3.3941712466893534,8.159824577207626,5.76104880230832
-3.711342645481945,3.325577072834019,-0.4415016834999719,-0.6483137952741345
-0.2916686945998293,5.989715254065075,0.9075860587996836,-4.447711699068066
-16.01523168548205,-4.414645581927083,-1.3920103116621974,3.6256802449376515
-7.684897189325191,2.781521691420526,-1.1123882720391194,3.225874408706389
-5.261336461134519,1.1503906697118218,4.3951729108645345,0.8260070737866556
-21.074803342452746,2.478916560402805,2.325724341166122,-7.682827806808646
-6.254410638645751,2.094764790354091,-2.461184258531592,3.93988311913521
2.3021162934478405,0.047949379457492114,0.17786779256688234,6.377801406882913
-8.715099639742965,-4.665255849640889,6.200456761007537,5.149024274921782
-0.012428917943550527,-0.5267210462208105,4.2274428958688475,6.750753373110186
-3.173552278206991,0.03050846743880342,2.8567715002601872,0.14655167408283631
0.5660951861469286,-9.134300598493414,1.4417258834406823,5.886140946405469
-19.505620347424703,-10.594149548255718,5.396525499989309,0.04411383595245155
7.336715135388946,8.435071954634996,5.842966384959087,-1.9023106503458962
-9.509119657528178,2.517890930150344,-0.9853542627476415,6.79055076348418
4.0747506819100545,5.208246506129754,4.358645049721968,-4.056458289453602
0.9479815156314303,2.942857106229223,-0.46419512414199104,-1.603321029574964
-8.780027101679119,-3.41275293327379,-2.421210718695736,4.146358007053468
-0.23354578786192207,1.8445212577596628,-4.263389171881212,1.4019368793915845
4.727907519455922,1.1729543759205825,-5.008490556524077,-2.255328174177528
-6.4998267186999845,3.9888429392205893,0.37547940984635275,1.7962304135158647
5.260281684376229,0.7280522902655946,0.6847378646048057,-5.77937167424605
-2.286006468491935,8.762047336834662,5.874902370380418,-1.4018881633978282
11.169468627814476,3.665690098871689,-1.1448727924368463,3.977723998378309
-0.7717037574843798,7.666136264561533,-5.405234974491943,-3.8832069037586763
5.9596976061302085,4.087254068936474,5.640489486930761,7.991843695298414
7.147041008770963,4.948259749001853,-8.613910355945368,8.046616956875155
-2.4413078122238434,0.9764837484594509,5.631359611662674,-10.768290151155178
7.289388878365976,6.933287731371063,4.349387807616768,-0.9328497349155924
3.3071323853579826,-17.523488708417137,5.50042527309531,1.0639019737006805
-3.4509061988437217,-2.1344950575328134,2.442901386363218,-0.4263563223276208
6.124654837271991,-4.576544182352066,6.255549635799202,-4.9109812639826345
5.586262657501132,-2.422962814599181,1.4157717956031668,2.346104699307187
-14.132640434133497,2.8497044965927287,7.860565589113087,-2.315923381741541
-6.1964175667677175,-8.70672517262577,-11.303086374073498,4.316649727007885
2.8516894182060395,7.432849136301346,-0.6055199264787348,3.146037201030193
-3.08942463640489,4.006780150553649,5.282635856084678,2.8136584607262733
3.262705142459724,1.7129699982153248,7.058297616802388,1.5545740087899311
1.635555333531364,-0.0811678396844151,3.204649161864051,-1.431909586594223
0.7857388882905789,2.5568583685493245,1.368532003306413,3.6985379569565566
8.94044295970052,-4.115217351926013,-5.162314655620936,-1.662447071256345
3.1427869825393233,3.434732134242079,3.60058107227227,2.9567367129671354
5.998948775352299,-4.155154474078724,-5.497176521643365,1.5741459221829288
8.084967781678785,-6.992937691313468,8.111929237693086,1.2360022038394192
4.314089460076038,-19.97441918258698,3.663844958660764,4.528038019837453
3.7077475311258823,3.002504325977899,-6.382008013103938,5.288111217105538
7.494382702989261,-13.737722348885281,-2.110515217791203,-4.843114619412319
-1.0713214976137526,3.8534889545369317,-7.537292595081535,-1.504601488641697
-1.2723785209288594,3.784814823342977,1.6516937861394823,3.5517148955446167
0.9778208994961783,-4.755908535495603,1.2435808888510316,0.4441092570172387
-9.276954609011021,-1.0327650194838327,4.832710208041327,2.0338328710808575
-1.1750743296017445,2.122802235293779,6.225651214029071,2.3724410698561265
-1.0738522285081782,3.6774230552926923,-1.9631938328234853,3.4241996733488627
5.847225741075337,-11.711408354232223,-8.710346883883492,-1.2336208886236122
2.817089855549438,4.284095450513274,0.0668273161176316,0.9928611504294835
2.3296264176162964,7.877351224047182,4.869327792138364,4.527645741024838
-6.4866886130524355,-4.4106376161567695,0.5204131836104189,-6.934744748862045
1.3314297657854814,0.3887038577479309,3.1358980645414185,2.356937508955525
1.9147061483469772,4.422714559889194,1.634282274801894,3.2188615324426912
6.4788461617159685,8.064411802305713,-6.684290887015248,4.388151220691444
-15.726986511788386,1.0981600816203319,-8.894227106238038,5.203027658453131
2.193906906743755,6.273436812445116,-6.299287281227873,1.386450074966497
0.20497396990102168,-0.3437250388047701,3.059069471545051,1.795046760782796
3.6798851986997843,2.4059150955966437,3.775090478928991,-2.0793725801040566
-6.819555944633081,0.6873175815897099,3.4361221741612944,3.1646529385228277
7.563933662562333,-0.6323809781412599,5.8648834467451785,7.39390231577805
5.0615910619539415,3.2570157269952205,6.378800613812039,1.1586552527869074
0.9788033791888782,-5.7482293722871205,4.565319490407948,0.9794575499454723
-3.385084253475727,-8.007122971962897,2.447270539035145,3.690402766053115
-0.5386902669205992,1.64932221271987,2.3060140487528216,3.3275103575085154
5.579077836237801,7.40848996316312,1.3265023904660431,-2.7659324030103676
0.7665110558859602,0.4157275668745939,-2.4536983749338965,3.3417479943120654
-1.6821965807207306,-0.7171216764089046,1.8368217462190088,-9.631717498219835
4.386138376943511,5.397303868848798,7.845303211945126,6.798173634073567
5.187184916377917,-7.948861023117214,6.172528100072622,4.632955091979991
3.965031214388992,7.992595049189621,3.7120164875462116,-7.882568792212119
-0.8225707912462901,6.740497504383264,-7.47767471135813,-9.519287430618206
3.9899296134359177,5.643439748190328,6.463634825015081,1.2364631977086447
2.1178577620649395,6.982330092543425,6.668095377774538,1.3567971965397412
-6.933213692050544,0.5091951521989557,-2.8769802391200976,3.812629529819631
-4.602646515163954,0.6055377409482396,6.949986516191434,5.5911278902804575
-9.749873601369986,4.333200785204259,6.560707135191283,4.9949902674721365
4.261438459948119,3.0206585784140927,0.0624881314690775,2.790465642059459
-2.6908895881103874,-1.078602294762792,1.5851329810631398,9.852939735060534
-19.899631878286048,0.2558645125990715,7.166424910538183,2.2485277097181005
3.0830113381234994,2.869799648563454,7.33818331066157,3.6503010381204106
9.607031148696862,0.7620246565299986,1.8765935959344766,6.663245010159539
2.9478930942544683,1.011336703175207,-2.5284732619241943,6.844493198080208
1.1215035651542684,-2.9483687070959483,10.429575866945793,-17.80406327647969
-11.795721928105783,-1.71617342223146,-2.9216922534032967,5.842005865386309
-4.820763212560334,5.612468538692969,5.160244172124987,4.479505285045313
3.3767574762752313,-9.97522749066361,3.8030186367750645,3.7776347933056904
2.020766669829302,-5.603669085911871,-1.9851917044489653,6.667280546389488
2.30095338231256,1.663764665282038,7.2452446225124305,-0.14977308811657508
3.2835492563566886,-3.2272066704874796,0.6012841800628976,-2.3515426850600605
0.7824543420571715,7.300412318490899,-0.8271381318505142,4.098008672866456
-2.514337654488108,3.735455692929751,3.6777304619818665,3.218560324189859
-8.04617323205227,-2.3173629060513825,1.5139051079445736,-2.0537524677698755
-12.912929648201583,5.37662443937413,0.48475347807940494,3.73712034534066
0.8317507009590687,-3.8759408513194735,1.5254770199889158,2.742748331905023
8.094314112565945,0.04836131139574107,-14.263342983585293,0.5204030816448437
4.106187977559808,8.140817885739043,-2.251336584462315,-5.944884497886193
-4.079400269900864,-4.566326911143268,-0.4964829856304682,6.087372045140132
3.4926464304291716,-1.1187365229901154,-3.8879278331906058,3.2241562983976095
-2.718607655355316,4.512438333287907,0.40232855860358896,1.6413987251407427
3.799962231839164,-2.34489359501411,5.881067359865323,-3.92841865401455
3.9919038534413764,2.315303693231865,2.354721334965859,6.481180959057788
0.8477803268166684,-0.11653290164734642,0.9189910130841561,1.0871223848270546
4.832682748661755,-0.5603843113437357,-1.0649666423609858,0.5741376425257414
1.2638145083389096,-3.738177054196477,3.049931476119749,2.9648374588237445
-6.5144009447634685,-2.157943471225682,1.6509593609619095,-2.9162208062798314
-3.875402283826421,4.302771095052158,7.835102961451664,4.261965913221818
3.3007803027475746,4.164308879907306,3.4578930411157707,3.691231366262457
-28.47652552456024,-0.5526109820722063,-0.4697123158924228,-3.619925789992088
-7.323229544107573,-7.847946343953769,-1.5312897979700963,-5.821222242215448
0.42693068040876814,-2.4337945954326052,5.414478799825009,-5.477054827389644
1.9300162116166697,1.970983418614214,4.935425211932774,-1.7846138924824047
7.630591453101377,-0.1872335797905258,1.1785966091569655,-5.342617344605117
-0.3010725518070146,3.9547919587154006,4.263903826894797,4.409714451498047
0.7518042338407067,6.09404317991622,0.5385940504176148,-2.2177689560352363
-0.7733584720898927,-1.558233984322822,7.284047045783492,-17.521964950875457
-5.939080642017557,2.0141733490192344,0.6927611982145123,8.54267672821382
1.027064982171761,2.7464053758352627,1.5185174281259606,-1.4235304328265528
-1.8311129598594542,-4.2072128867460385,-8.679164270280577,-7.299536751722073
2.4578220642170194,5.854723426725023,-0.8756482798849206,6.734042474657517
5.0838444431644545,1.6108197446917494,-1.2382407801888284,9.1222706503759
6.229475800459858,1.3991513999729612,-4.671264138252628,-6.479739225670599
-6.180348076809243,0.4617374944909258,9.71974275113407,-5.275157819263299
1.8238837793921605,6.739888511840096,3.631606347888468,2.103864919257383
9.165094439221463,1.1451719472923862,4.26507981326214,6.845565145411893
5.009853186590693,5.457651722645398,-8.056014263711315,-27.007246495046616
6.508810991473395,2.146302297187006,2.415987381232071,1.9783571797288104
6.519104486743707,6.561071387551678,2.44722442812672,2.953640183627943
1.653205556318201,-0.13847044250806917,-4.41065924150735,-4.000918916894932
-5.374922730177339,5.576663218428671,4.958324501196863,7.51866521912072
5.242356090601785,-4.0128795872371406,-0.9802222495458928,2.558021922861137
-3.864211399885406,6.126187557163192,10.045497008212784,2.4728469341878423
7.135569331940081,4.252816137463551,-7.577650494003624,10.584689989319543
-1.7542225093838697,9.529772024995662,-0.25635007373084306,2.029344791431086
-0.08075867657827815,-2.1643355934094366,-1.7858238333491308,0.9749149893105056
1.4436063585712704,-6.869372288208542,3.2400801850459473,1.9700485865395692
2.0162715645805087,-18.309947479885945,-0.5439611491608893,3.696030423531351
3.107100046426925,-1.2862049193641028,-18.242974552773912,-16.81081134490273
1.0735224778810297,3.805081450966643,-0.524214176450748,11.663212162866216
1.083524352404978,6.266658453664331,-4.994917727175622,8.408161102692706
1.2761681801881903,-3.9620407687360277,2.8390931532980126,2.1701571164340336
7.0490982903733,-7.3716301598575065,-3.3104433464755907,-5.506343874793828
-20.654771699753486,4.886685146768201,-1.8212191987813142,-0.08923690133877216
0.4345095705542907,-5.44917803057789,4.447753678821567,-7.851015761083232
8.087518251601216,0.8248449196720884,-14.629915063976636,5.339136757166699
-7.542640000150593,4.126399230946813,3.0061669626804033,2.6703020074170496
2.742150455041081,-2.413738048560109,-3.0087758220304615,-1.1749418231285134
0.47251629239096543,-1.0088592631698639,2.6988975212951765,6.2506628952262915
0.8073182619053805,7.52820218981368,2.3809140874088897,-4.940706590126268
3.2065226822060207,-15.972032419059918,1.781813311910593,6.531360539108444
1.1454462725657615,4.767310269522017,1.6208040282570835,4.763760888654399
2.253972458484226,3.825675730248321,-3.4124945808599527,5.39108214259663
-1.1957129571681564,-0.5685261797895329,-7.365156102988589,-6.311138057351528
1.4427581481617828,4.738916790422479,-6.814461051810849,6.59431387232895
2.839811243668867,4.023527331758583,4.732928695775129,-5.110426606746678
-4.445575104095876,2.243500771129259,-9.265891496111546,8.521865813626317
8.14332578017412,6.9479545883606555,3.5146703593772095,3.199470828196702
-1.5136170037438097,-1.2960795933495355,7.293274511546873,-6.637118874547568
-7.938254546473475,0.5657504710097392,0.9955462036643148,3.4133802180691575
1.6392244954131987,6.893077269223735,1.6346919717288593,0.40261803105308047
0.6902220609356701,-7.140439276326536,-0.6215646664155976,3.1264559541315755
2.067435038316268,6.410658183925538,3.194956911958567,1.8150086175017819
-7.574884513902452,-10.212247199761723,8.419112173409989,-2.9311630520825744
9.066330585599829,8.85180003191504,-0.855117483310611,3.224648615439044
-1.275480817677974,2.3880695037268005,1.7764307913964288,6.773818954557054
0.6520603100027418,7.070036956947732,1.2084431085184129,2.6788365349188012
-10.035025489402011,-2.1829469088969553,-8.617648786804214,1.8769471377630502
-1.089938215869108,0.8951838640998631,-6.346688948415302,4.147871951794386
-8.967124635395773,-5.44487127062812,-0.16110842023173433,-6.206632800876264
4.872989792611901,4.559708842503124,5.838544376950313,3.505110197426845
0.10521281224303128,-5.202293123834277,8.52589763746176,5.308149390266635
1.3624438510483292,-15.342659410504698,2.830588438834308,6.007622254895967
-1.2050375339370434,2.196813613380627,-4.174260677301955,-0.21194358363486998
6.095819348128987,1.9837341524580552,-7.456307620391097,-1.4620305347478535
8.379819369598358,2.6417436885619914,-3.5857391365834737,-1.083015597192798
3.7795101675397134,7.050572816034212,7.044932751911713,1.5424086111174304
1.020219834764903,0.5277813939436733,-0.6915037274607165,3.9560097967342926
-5.030102939637774,1.1835411522105375,3.4747146476218838,-1.893948997319498
-6.959929130938625,2.280859934791817,-10.974031717602397,5.201585259494625
1.9491131692568844,6.40323102364091,6.777914348342325,1.2793434985991219
3.275952359856771,3.2965854350645074,-10.395940921399653,3.743658436924399
2.1727362234134078,5.258480658791186,-25.690342555433315,-5.665047645571235
3.4400479290798525,7.752326966379556,-3.931749265874128,7.200971516381344
-9.951419379498585,-3.811915714083284,7.12444270214295,-5.425066018420608
-10.663305389974674,2.6628057184420832,5.702037487459354,6.842633571563674
4.546892406123665,-3.437884616114605,6.573508922676901,1.6382412560269124
3.1199762921803296,-2.680549781350699,0.6806157540828899,0.5888630969385318
4.437916772921963,-2.918303632663875,-0.1452514720234852,2.574258528774294
0.1261649972537957,6.167243432524085,9.107453485090748,3.239868202052932
9.492608606660971,-2.7841979617862442,6.5796364563665435,-1.4959129530436783
5.107232625837878,2.308023085781972,6.111091965777813,5.6187985784881675
-4.543686913870807,-2.7864818159665354,6.460505221720219,3.757473375622091
-6.2026461199076435,-2.542098104125518,4.319156677567275,5.6838559887908175
-5.446087836231493,6.254069725317368,-2.9852982504063554,7.725729641887494
7.293918341174913,1.983669505578245,1.9966579136431157,0.7250882672601406
5.6002958051573914,-2.2691065212553845,6.392620883178861,2.746602229937796
1.1444118881522063,-8.287561274844773,2.881415873070498,6.149140002825366
4.588506999337724,5.9088137371137,5.331491683059941,2.453004357122367
0.7811582304413274,1.0650397393219428,-1.2430937163524547,5.826659205310978
6.238095952194532,1.6343887151207035,-12.078134969623473,-0.29316468444979193
-3.512475049366004,-12.02993218919757,1.883402816541988,-4.338819911146253
0.7973481196947829,6.353906032964229,2.3290589712658907,-1.667855757835838
5.180967535086078,-1.1833370167758837,-12.75840476663446,-13.70514805692325
6.5432510240053094,1.4279704541004286,8.042110583975436,3.8053549470609376
-0.7749173206792165,-4.5966519484570725,6.624406102327445,7.478871029917151
7.476030894139321,2.0147316330463383,0.6467759981977821,4.702011307787249
3.0593392084427173,-5.398890593903367,3.2939070627892413,3.846889197613173
0.6937787555044784,-9.030865253797426,-2.884679565071938,2.933757044727429
-2.2918287222338094,1.0420193309909003,8.663093339760273,-1.511011374013286
1.555831271687898,4.085332358740029,-0.12534698089974583,-9.602665122725142
-6.566500816146124,2.584384573875166,2.9549966614090906,-8.057565356995767
6.528561427091561,8.46933786275887,3.6713053235648623,-9.865643102118398
6.495949729719636,-6.907256977625476,-15.191152070934972,4.373814483102134
-7.371301642845848,10.55758783798964,7.596814646438798,4.724364207663285
-3.560647347420556,-12.742162187632776,3.653760265115306,4.700173702915482
6.3157846339018855,1.2756236259934894,-11.476221109752768,5.124495536195656
-2.3093878172306277,0.46984305403587,5.1662688973650575,5.268079530240261
-1.3264906338967024,5.169612969581575,2.2753937711783756,-4.4843496909297755
4.884731265952452,-7.323329174737207,-6.967212868430092,-9.092404334077848
-0.5033745079664685,5.603243016197684,-2.3810386631757297,9.252300112527315
-16.910280184007416,0.5722954644215967,-5.133383328353656,3.1977238499729594
2.1152504757890447,-4.5847495724220515,4.598260095744209,0.8198620256333129
-2.3515035823723176,-7.261436643377355,-6.300716573640788,5.1589286087372415
1.3273728360068549,2.039330857403421,-0.41769943860918346,4.515946416689879
-4.74806737221676,-2.7428013672333407,2.7099800565967094,1.79243891389158
1.606874064961742,0.5395216184780729,8.36510455628759,-0.3258014410990029
-5.4983339783082545,5.823015050459805,3.192336865173818,-4.974570280116325
-5.186055078163119,0.7376596209311614,1.1730982068101845,-10.7745358764247
0.3229179210326184,3.391494052628829,6.195947329509476,4.003745639968734
-6.603962374830537,7.422509969119144,6.837505390358221,3.6312453093372348
-2.142553595994493,1.491742455152231,-4.334389016346638,3.699553877257255
4.395284931254835,3.8243353915969287,-17.737973383924658,-0.6994607191926789
-7.618170220179054,6.506773020984653,6.413015288588841,3.1453567685562334
5.937202576099729,7.985682920248912,1.0689484611165767,2.6431856845188157
-5.058270060629831,-3.495525810203876,2.808405400723185,-4.7283144180979875
6.151443322545182,-10.713321767935437,5.673450298130625,-6.4066419413079885
2.828336328394586,-16.549991073453658,-0.6333888023106944,2.7030928149774027
-5.378019176619996,0.06049849800918139,2.515245643637492,7.269211074564076
-1.0352629122530537,3.2472638605517687,4.838589267521986,-6.383147388915582
3.559084797000193,-3.026896022735997,2.2831772313669134,-1.2128906041703544
-0.9914603781480373,6.494726562253732,-10.668285923685755,5.187119041624907
-3.256410172270709,-1.0053719043384426,6.123779974470342,-2.142018534108388
1.4497415362707367,7.28071087393867,1.4526322773341462,1.4959368419931849
2.665994716877284,-2.5903803851701994,8.938098797639501,1.1539685360112557
5.235741783472351,4.041568438457038,2.9023459854127722,-3.610709974316009
4.345420836762072,9.974533046450548,8.840764822460454,5.176552116706645
-4.6783970176181535,-5.4501035264983315,4.460902384739104,-4.162319776694318
4.236366409708029,-4.353359308182142,1.1612849185659933,-1.2668839700561776
-0.5953399402339192,2.6509409930048022,3.5185929410385413,-3.495180724932119
-3.56101786193434,6.38119111343444,0.30246309007172556,-8.943083551665254
7.793088286084891,-0.6952093865819897,-4.614356700366809,6.883193190997652
1.9506899877973214,4.070019446090136,4.805620557732073,-1.7371602829845685
6.418524348417122,2.806679996838678,-10.58950187118121,2.327486231257396
-7.575943944855491,4.747387283562329,1.2507220802147607,1.4581977757587943
-2.423267986887587,-1.1570991381569193,-4.330802373991812,3.3951788901537974
-6.57423089078139,6.6220201263549825,0.5843257460711122,1.979638007347134
-5.831454852107681,-10.76096380585189,3.0390024892363634,4.34869230499546
-3.009070268652945,-0.21632325583210488,-0.4670136346264684,-1.7536061684923254
3.554963792996473,5.164581314212281,6.311341138609041,7.449073015768498
6.169362863202884,-2.7732068488187736,1.589892905772988,-9.970361434455512
-3.720632094804628,8.752871656478948,0.2581166668992587,-4.087152746635724
-11.602236788872682,-1.9947814475966688,-9.686482426897069,3.3044185886365156
0.4872091444986451,3.259362792836292,-4.458899477637747,0.8102195175185329
3.9651145404713932,-9.020720857019985,4.437424904399958,3.2068017844117485
1.0854434648587232,-5.335732663646205,-1.7183474371741063,0.475982777454
-0.4067359441008064,-0.2790503746477988,4.457472059919354,5.8771010707267735
3.1840885025351437,4.607834825483234,-19.33388664490648,-8.105640447857539
-7.284202603063957,0.6781139753846261,-4.452050924046137,-1.795148360701532
3.1852496542505353,2.2450764179374403,3.744867948208473,5.787193200435386
-1.4779568435813069,-7.144473679783271,4.176382707739688,-8.828738592311538
-11.53008438511804,-6.918178934654517,3.404556431209862,8.78568864259229
1.544700915974913,-16.312658286991716,2.2441182679321585,1.5841007915049268
2.3105735194439507,-6.659678170588965,4.258234313119544,6.807875210897656
-6.338920957727425,6.59818867287272,6.2816016978791005,-1.6341447785254672
-5.664617872268461,6.403533102178521,-4.741393204462849,2.779581692299196
5.603695408952188,2.1943647331384497,6.546699692997784,-11.077844319632646
5.570310021065262,4.351751191039277,-0.0443554117621936,4.470365844221639
-6.368774753301547,2.1785850338983472,7.599686773284855,-14.526124244972344
3.967680500021586,6.960530091779766,-5.510441585492519,-10.048938977892867
-7.9934748333839645,4.443065706103393,-4.819448701541173,6.755634976061977
-0.8252917872387575,-6.762068952341782,0.5807137025033846,1.784965096248392
7.576750879474109,-0.5072061157303764,7.238849692159317,6.015733842585153
0.10597718378195142,4.637313666875141,-4.035780172988712,2.4039917470752705
-1.3057817388854451,1.843224236105943,6.512260388574294,2.454625223396409
4.923337300734269,0.8493242550340945,-6.619355613459408,0.6481035577852481
-0.26848582394982,6.097377697619688,4.756410904105525,3.1545688281898983
1.8279273527920425,3.9498809425011707,1.7218341737839005,-1.6752245035475042
-2.0602768269275273,-4.996711391347262,-0.5463421014702092,5.912543963437713
-3.080716808166915,3.4364501961302842,8.959103910838095,-0.11314291355510875
-3.2378112430527777,6.3736625387602395,4.174322968360066,-0.14828472652519764
-2.9766452383633935,2.8027687608476626,2.9387627874283986,-8.960266553599084
-8.20208653183577,5.358107797655446,4.920613663720843,8.076456927531375
-4.591353951338185,-0.011845043211167194,-0.8266027644983396,2.8405425619134306
0.6252846735716721,1.7633413093871546,1.6625921656773315,7.823141080813265
1.0974500083647432,4.5704358235721685,-3.770793476726258,3.729936464892919
-0.6408617611744307,1.9786157499988768,-3.0251248363271124,1.578181613811246
-3.4582786020879226,4.865519025417253,1.285817814819218,8.395817882763772
-9.823882094786654,-5.319128380166774,2.646999776372283,4.928864826895747
3.901419865632833,2.210125242430923,-5.298568446520097,3.9258509192382434
-4.330355799638046,8.541503262019656,3.067410073727711,0.7265263975733163
0.7887289539336257,3.454533293274178,2.429536476609613,-22.876289995280175
5.9108818426701655,6.018484989272217,2.9858901552644816,-9.256772526677075
2.1681687933405027,-9.387779812657929,4.580462525566805,-2.2627259975020593
3.118145920097388,-3.4279253078062624,2.939557020842525,2.0464653767722787
-6.041216353244056,-10.886958976774697,3.6691983018783425,8.333297765601792
0.25814913188205835,-0.9198424497562847,5.356813692856431,6.374105051011927
3.1154720617558573,-2.3115423348829793,2.4307566271842482,7.334138233194722
7.328123317741494,-1.0503465753798515,-0.5419939398836533,4.901221599208025
1.9764990578618877,-13.557132772565563,-2.8723984943717333,1.6468939944831504
11.396088542186213,3.4373911433904176,-2.8151383666789975,3.6571625554488953
5.876375483953296,2.4406992869138726,3.157390297718525,8.632836341474786
4.0045337037011155,1.2502492449187521,6.349409607530987,1.0501832048537025
4.837253823709064,2.7950975775152287,-2.5840734030038455,-9.802183452834505
-3.7580089398060057,1.6989346321037893,-8.50196558531307,0.48651186547283487
4.632550543851432,7.585859979155007,-8.059150943080883,5.8181585967442935
-2.741932754700109,4.980292723919831,6.0730702923977695,0.8613379186551242
4.061915861181125,4.628923058129921,5.293438685362073,-1.140221020583212
-5.499094146747498,3.8903756396055087,12.99643399819956,2.657288286084917
4.459201482729964,-9.889736620144152,4.777833938807863,1.6450441053547031
1.8256104390291221,-1.7253599019595711,0.26935949046559315,0.7758207764240765
6.821932865199888,-1.553115539341423,2.317585131651267,2.6542136244549646
-4.712940691050501,2.1846812402260234,8.631156745144093,4.330961239041692
7.473619748033828,-5.15607015650977,-10.271580723384726,3.213432244174008
2.386212339986988,1.8250872580848565,7.945846960270668,-9.153711489585504
0.8057660717564886,-12.344506091564984,2.5775411191151854,4.736707181604125
5.1447754792490406,-3.9663380811298836,-3.8989061211391167,0.6568429725068725
-1.1770858816645,1.90252797111334,-14.791826981890527,-0.20813943555191372
2.5175911542987923,-7.4280389059237955,-0.11047816723638704,7.1685415657847145
4.558429697101007,-4.026782553574279,-2.813868174137138,2.63808294017867
6.215293285192931,-6.991973832253375,-2.200816870831037,8.46508958047253
-2.9556558062228686,1.5115606970614692,-6.010293671012729,-2.8181873587876396
0.7090957797625115,-2.0149401887100176,5.384141429846004,-1.0960047986505757
-0.058744520962681956,2.7489445475472785,4.929781459760218,-14.786772348545249
-15.366433538341653,7.421213457290911,-8.204149078038665,2.3652579133658627
7.403245130456283,3.8956841866585563,2.6411995809841677,-8.898332710386228
-4.086919076621282,0.5278822598116584,-9.588853878464864,3.9364554200876682
-6.745370053229434,-10.373594641063537,6.96440402513981,0.5491781872027985
4.377178534784865,-12.26329893717769,2.325816963192569,5.58399824674072
-0.40527369345028824,-9.79656639602636,7.455889994602607,-2.2670794735308135
-5.66280343778345,3.9924402324552943,4.270269244127515,6.079198734525583
0.8940664914755476,-0.5756048648038679,-8.068370704492896,5.960328666272833
-2.964366055169114,2.6984139338037636,6.78393058446634,2.024344146974279
5.96306521357757,1.1528217784435597,-6.649055792029042,4.732294067757984
2.647738612456682,-1.5563581842821712,-1.7140974244264022,3.5567980671332293
0.4899077547511382,4.191976865663104,2.0963246882924516,-15.927888233121635
2.025879550790832,4.919578827164273,-9.871273841819193,4.336093152364086
-10.699081611531506,1.2616590754625499,3.5949335100711473,5.912086045846852
8.469945419791246,-1.8758773731743652,2.6410894700756877,-0.3411407895007059
0.03213702669319984,1.1632777020850789,5.61692957032669,4.986415275251613
-7.488761879168926,-11.21941099847098,-2.9410249572169285,-0.27266920988776633
4.795805812588425,1.9713305286019072,-7.659583389175072,1.8346699472585257
2.2280031287578934,6.636127800875979,7.611402368335273,1.3366398764992766
-30.853265829584522,0.6288511533840726,-7.883887228359892,3.226440426398419
4.5556932859381725,0.9602909132012556,-8.80916243486909,3.5364784048827183
-1.5130392223073739,2.2548733371482506,1.0996717588239093,-11.628318633860758
5.900057025137033,-4.065952422062548,-3.4934237160984587,-5.203073654177828
3.3337269058353765,-1.194619883498806,4.982097525995673,3.88080719975256
5.354765225456712,-9.152778311464456,4.6254932503532835,-1.1937067837670412
0.9234554843118914,2.608170645921735,-5.83204178253985,-0.5350983678814458
0.6188452270413293,-9.654916449055886,1.3790872492119988,-5.168659658013141
3.3674840569322484,5.790509390304319,-0.2673898501819423,-8.718631347129168
7.8878738208500225,-2.6269108765303066,3.4365046032000954,10.282175402650545
-4.173527288672715,-6.14736790014209,-9.111364971866525,1.9694451487533406
1.0867368649527365,1.997356598552475,-6.435977351605839,2.663511568782347
6.958226846986364,3.365309872610272,-2.6913330063614644,1.357297263215166
-5.874034766393701,0.5252230350293665,5.206853013499927,5.022778938272989
-12.9457225593032,-0.34178432423201954,-2.4387828576551307,-4.35895035684316
-2.002331122537937,3.7958248132013317,2.32110428294261,2.2565110807351623
-7.641398665131283,-2.565563117246157,3.3320012501013245,-2.7077490257168932
-6.4640339518903716,-5.720706616261143,2.4170661830964804,7.1029124188887955
-1.6475340277584896,5.544570763375642,-6.728329682241647,1.3592169661129212
0.7015253410254976,-26.18121535720761,-9.947453969698838,5.058017234242577
-15.546398376161987,8.891612339247693,-2.47393943951392,-2.790597265721182
-15.441538326849,-3.2506363453249065,-3.34162838022419,5.09099504569291
1.6708953132502082,3.673302892573382,-0.9814301280012856,6.125924375303573
5.275856249586547,5.5736030789641156,6.1563678630595575,6.429893691937288
-0.3293930219849425,2.8840858077056417,0.7390748850355457,2.861920473715152
4.540588965055856,-7.160764030549533,-4.194817324911416,-10.042240365344185
-8.536328113822384,5.584543846174224,7.5358952360787725,10.24092569712187
1.239598705795459,-5.6908674256088325,3.4210745787079837,-2.8084546682561395
1.4388778651729135,1.1631029719826849,-6.643975344770002,8.0354681435002
-17.031643274201592,-0.1363726015429414,8.209874212079814,3.283944378704991
0.19864792287484045,-16.167445607378813,3.7078384592788076,5.50927645697891
-4.204709281902276,0.06652597457170373,2.981809068846804,3.9984248257944337
-0.7302088441696891,1.5077338818839578,2.4698958700952325,4.558363071840411
-2.3606580041831817,1.8146312486305547,6.705059286169249,-7.019557289160964
3.3324541467394266,6.744457037674039,1.4050359160600898,2.664349867584267
-3.0638345926032504,5.1811589467272405,3.525590463659018,-0.7442460284099326
4.782042008626574,-5.670349308600191,6.583147183325256,3.7171451899745094
-9.722476822380324,-3.4154654174048673,0.3285977435733969,10.956370886044223
2.1172396874502137,3.6616123426623233,-0.7790136478384468,2.1841261645102854
3.9278779120671943,2.9933375722976336,-2.2881386816263394,-1.876790978952215
3.398221492308,3.6137423086776117,5.436969052591522,1.3875011178907926
2.1985457749950026,-2.991596036556249,5.942700781710524,-3.8197796105148285
3.421145266564521,5.7181848413178535,3.6728501587418307,1.4753327322756995
3.713826524559915,-1.0453270578978646,-18.472335920514414,-0.47303762754584255
-15.201677009817548,0.14856762289500125,-9.063591564960337,-0.688318832555531
3.3464951756380548,3.1334109906687324,1.3240289177941094,-4.860075128336945
0.37363520816893964,2.032890145755154,1.7509436707266879,4.011120374960242
-7.933238188221214,0.4522922486259766,-0.961249197752462,0.7837038752273386
-2.7510640686247823,5.661339390804802,4.331439348495632,-0.07452263672319503
1.3637914558173059,6.2336386799031835,0.7290283124004411,-6.435453642136743
2.8555733427547136,1.3352088443272656,3.0088500891618217,4.053891070973798
7.811917850702415,1.069086723980739,0.6473422097523773,2.5340197951293177
-4.088183733075235,8.830581963280384,3.7701284289109296,-3.0244767887342476
7.078683523164325,9.368907337021586,4.515952177385085,-10.61688277632576
5.941798410069308,3.9069147026970406,3.7025997097891086,-3.268463653157184
-1.7279606791140012,7.502657568620183,-5.426476805938105,1.1365148645805547
-4.377703373916355,1.345203225701784,-14.400067923805114,-0.6769884001562616
-11.428688250195254,-0.5310705502165156,3.5037170100673585,3.966725798121132
-2.049167589808483,2.286228274511039,4.237570482687342,-9.74403792229662
4.837000125436092,-3.7839531429808666,-0.5098147237529709,-6.489944951016199
1.650571137970598,6.245929332072997,3.447135464669973,10.259540955779482
-0.7075781014116229,2.9924988590336383,-0.382139846578486,4.763475862707068
-4.92740080603114,3.1357436678952944,7.858763957502077,9.4318223394772
-1.7629515484936489,5.429333232835532,-1.0376268572616851,-4.135783260350152
4.156010138876177,-2.8933080583623685,-4.199821364201053,8.018760268617353
1.3150716445503683,0.5858770548040937,6.7247063807188745,1.73313735236745
5.768356923202972,-21.693657803398654,2.8859278236048276,7.40200795901044
-1.4306535986499105,-10.364337491757876,-9.68372395090731,3.4262183661249885
-1.840530490097938,-8.964964708995044,0.9090549015283713,0.9627643856930348
-0.24530461707872947,-0.9699201881043358,-18.084896334173596,-6.467177802534842
4.270240696024893,-12.830638867621897,7.067101203555389,6.375167525544519
6.354961702717241,-11.99599169325916,-1.81888501192714,0.1931108701884554
-2.6620840235784127,8.239446715737806,-9.097353670094247,-3.8178318285930004
-6.9017777484750535,1.7373868352325417,-4.321916105914159,5.135207050877899
-5.502437075280103,4.444765199317974,5.858409190246224,4.460493645941032
1.4225565445215995,0.626223659294407,-4.038385158358718,-2.8274915687350486
0.10037000386226413,6.034405477493259,-4.775529997572566,4.715134882893189
-8.541184265609653,3.0140511465980424,5.12979980496144,4.074710238301435
-14.767887453913172,7.557246739264361,-11.58674916906784,-0.13520335544538398
-2.169324719678582,-6.572747179465608,6.279925918270056,3.18419759941769
-0.21347045121001104,2.301994889540353,-6.963209258071746,-20.02954597881366
9.038760821140686,2.2783639175186785,-3.335918549338981,0.9130027501346092
0.44156089088000516,8.812012587920766,0.0452884146574668,-7.605452690924743
4.137387916560245,5.339942254284583,-0.6298122698545683,1.0060439943100405
-7.700782272248326,3.2332493249155476,0.7953243568440946,6.3494374271393035
-0.04230773781747859,3.5518682250356477,0.20230693093536445,-0.7431148359623307
-1.865629189107894,-4.822023619770409,0.37130813815323904,-7.420203715083737
1.4936098436557013,5.199261194194104,-0.08752841557969404,-1.4293147392388406
-3.3207773466204773,5.362485792133203,6.172700109927888,-0.3283168159841665
1.3202534531454393,-4.866866592427396,-0.8160471707314088,6.491194207567901
-4.156294813461542,7.46475268200923,6.781321541228529,0.5985532757478751
7.500595399116147,-0.18085541560262897,-4.140574349008947,-8.23778093715012
0.8998431792637065,4.426469100905262,7.595904917472975,-6.788411240094604
1.9148841068919076,-2.040243647494524,6.586165587688768,4.9489972699737095
-6.324292874743274,0.3212801729179944,-5.845422280569974,5.333075311588406
-5.8458324741206855,1.2489749046299892,6.715778461256797,6.475893663393631
3.502816690700002,1.4623159391423997,7.269409748141257,-9.127258603439984
-5.171393293597364,5.133741632341614,-8.456420606926155,-8.137495229566149
4.98872685502111,9.025140634922629,6.1799103149436725,6.22917044321709
4.696777091636243,0.0663654399094149,6.386471573918254,1.140259709266978
-0.21539230960096678,1.7123536813889295,-0.40244793127276424,8.311216257519014
-0.40557268659469903,-5.131181858953266,-8.213956666649086,3.394686835164901
1.9473296820919261,3.084710378842079,3.9057026720559023,-2.500802457972057
4.185750949311433,5.337208941504631,5.8089985774177,4.195202608186477
-5.736941814031812,7.097905424027985,3.8521569117275547,2.3219958674680825
1.5833918760695052,2.7192206347733894,-3.0178902241037555,-0.254942393284864
-1.2726469339811561,4.388770552477858,-13.331719237196861,-4.5853757720365635
4.151301734594516,-0.0015174512617370794,-1.1545064528368272,1.2526633038133355
-0.19434015986212502,-3.0982438827878767,4.3255373274139295,5.517683213767292
-1.371720038047518,3.1983286793100874,3.687754911003079,-7.90200369193991
0.46340064542899156,-1.5522920926853914,6.801057271009661,0.3944218786754661
0.5083000484201008,1.6914209037191021,1.2851781494625314,-1.066061524058604
5.202025244689868,-5.072671736493394,0.8996223617193486,3.487972995017934
7.58314322769259,-2.812382176114941,3.198835843392711,7.181834546557148
0.36043774660065936,-7.021933559565969,2.9855748722517887,-0.19338120546042603
0.17358539708976745,3.143818137949985,-2.877526934064324,5.045718746413904
-6.505338196858393,0.7894352850735409,6.291345566774151,-4.065912155531301
-2.7394651912912966,0.25658178505053186,-0.3063707301084584,6.883483440218658
2.682425099862698,3.4994261830108186,-2.016068285865323,-3.5577311283183946
-4.316689388012802,0.25754699900619116,3.0002847946085467,0.03728431596380233
5.851140669208001,0.021466389349040327,6.041777407235887,-2.351847106800001
-0.66088245049772,-16.40355034667478,1.702759590329368,-6.6437963816512
5.327417948882299,-6.433387722307664,-3.2257488593174735,1.0610015780449729
-3.415222441163665,1.0517245463037206,8.822141053267387,-2.4573193877775523
1.0671705842283565,-6.793591094865949,2.064523488748428,-19.03431768407912
-2.9028415814483095,3.820474687288513,2.74991042876826,6.751022381589223
2.009172204883759,0.4603257425771474,-0.19503573530871776,1.8412659866238918
1.633079878080545,2.692302719899711,1.3276851232322535,0.6430967560507526
4.876172045941906,-1.4374377967005678,-2.6597745684951946,2.528673381373814
2.7992512152254228,3.9273434980166293,3.7112692821395115,6.105798440752082
-3.552040492732567,-8.632170291334827,3.9953298121395058,2.0442408655482076
4.235308638419022,4.96351737526598,8.180305460492715,3.3980876324957308
1.296938199079685,0.4810749115257096,8.831723513659092,-2.9516114115572236
-0.4128221700861373,5.108153953146953,-1.620850482685693,-3.422953410415708
-1.0426867875632142,5.692632303369432,4.616464348041351,1.0742095692975226
4.333555963829819,10.508336759829445,0.1271860979994024,8.670863531509422
0.1804669965580539,-1.1489117578723018,0.47832421068005004,-2.9881600315134946
-1.6477056970040644,3.4612236888481007,1.6300274415757343,6.368253313892954
-6.498356466103995,-1.417959544872243,3.787397664816236,-5.460884378194756
-9.259472609054914,7.016550532961457,-2.763080965141125,-3.717692423707767
3.463473326118732,1.8621740230461974,5.894385699600495,-0.3737487280233509
5.5806983185847265,-0.14757434302645223,3.2191087696828546,1.937959551213595
-9.951937871928527,-7.355073978887813,-11.722683449018025,-1.9288593660801254
6.114220493477018,0.8592271918554353,2.7776238691457493,7.486663303177153
-1.1815180208060907,-2.935214667843539,-3.0528624653617022,3.9357368309072527
-21.852819648982006,5.921253784347563,-0.7430477994082452,-3.4003017526485877
-1.4611546548487278,5.264760221258371,8.015486593403399,-16.04445803734427
0.010378256030525251,-0.7735340038479066,-1.4740266072338315,1.5886115395910423
-3.4858331769314965,3.724390644556774,4.658926986037919,-1.2703621843884818
-9.324231676232165,0.045658487026024375,1.3059845374379044,0.9715676535392959
-6.645908505811813,-6.916205651175812,2.0099086186166915,-0.019613945265838595
-11.15967079029013,4.81267294502231,-0.9851001278464047,5.991321522528935
-7.030244617320741,1.497163964759359,1.1204471220923757,-2.9254463677685862
4.542836200814082,-8.821502874103668,-2.704633132192921,-5.128847560395968
-3.2756662629760864,0.37706422891741553,0.5824663389376852,7.139279648732153
4.220305622725573,6.46803137463581,-16.417374771981383,-0.7744461394685374
-0.008994436164305737,-1.7944827359946913,2.259560818230966,6.768156337620329
-2.1634918278948008,-4.416619426948248,-0.3590338162806326,-6.582006732790994
-7.6974793466860465,3.6260451772406093,6.212347897629392,5.633432471709352
-1.4713466036803757,0.33320673101206566,-1.155633623232056,5.1018624161104
-1.2680543279668295,2.380328180341273,7.1936621972254216,6.4557589389158565
0.127047498760619,-11.223410813980632,-5.049809654277265,-0.9585901170799076
4.911160961436149,6.617671377114107,-5.832084365325141,-5.911635305378944
3.044517542359819,3.0998602938080317,4.085596894117067,-10.316278408698373
-0.3850836405706778,4.323881578325295,1.2118551794889925,1.8560238821971922
-0.3172285812910917,4.418542054633239,3.3095125314954466,8.258352124567068
1.3020899661453438,-0.33941820507104836,-2.9927123777930156,3.9508560437140687
4.8053367382394265,-1.2200875999596619,1.6066362003808017,-8.503271105860826
-1.4570923976669152,2.4837690165762147,-21.291373090160317,2.994925593559657
-4.342281753518026,3.063628636327362,5.691588157426523,2.5296102504745335
3.6967471067782003,1.6755146230894766,-2.557389271535257,6.161179781404641
5.193216528437471,1.286415287761411,-3.199210373008011,-4.742289582123718
-9.456027766805372,-3.1461989507540125,-0.28622243708908357,4.262170801637801
-9.905386479007747,-2.0826181214993014,5.359631009617928,-3.307676787008937
-4.1189739946996005,4.2913097900241475,4.410442085447265,-4.224305511907573
0.2852949076512693,-7.9703075248094315,1.7137490209569144,4.889600703899141
1.483285856370371,6.375042097918275,-4.586770033927035,-1.7374986027147301
1.8750405257898555,1.5872690847055821,-9.627742439756364,2.272465673261351
3.3069014252617834,6.865835541697461,-0.8216960570749308,-5.6052444914193345
1.4528761465153528,5.578017980121981,-7.440028949018721,0.22884487490559025
0.4327793766536124,2.9911582791327724,7.408747153851923,6.175090393817854
1.574114531047096,-1.6294462215088892,5.364588225686926,2.376464256101041
-3.1597095763957497,3.712376148334627,6.662101515814893,0.6336520324546555
4.6379458469407595,6.443527923455999,5.917151278824377,0.8912100490624226
-0.1259394996823094,-1.4255326729207205,3.918324602655119,-1.9792560597007736
3.55449530179931,0.5378156136895136,4.178155301032593,0.14694536726095464
-10.304479178870084,-2.9486014139349344,3.648899766361996,-2.08305546111
-3.525822774860241,1.6872696032599066,-3.006627132135197,-7.061704799449181
-7.556337391935425,5.626480881416068,-17.97623005241292,-1.6147077583751255
-0.07760173397253306,2.737072875253183,-12.71396434362163,4.087999816683418
5.79264048096483,2.462308612796825,-1.0784602186463417,0.7334445890284158
-0.40625811593294253,-0.05839925859758921,-2.4090151675904004,2.2311730349459893
2.5107861074770073,3.7601729340709156,5.966065106156066,-1.877049064418081
-6.284910305993859,5.330848655451863,2.7301574659091337,-8.274057555489023
1.779045390103027,3.9962636391302233,6.366374376716411,5.25586246053096
-0.838294208079505,1.5346365045397476,-3.1433426304385215,-1.3854088605110064
4.33983908263547,2.8676725227003637,3.249761849952918,2.3099352476703174
6.899177574182006,-3.9965648359679022,0.36200909457940966,2.4182343068981176
0.48110469996108945,-2.8105167330004583,2.594390558919198,0.9079199858632876
-1.3681412659850785,2.3104756349968056,-1.3572367331574036,-1.617134946473108
4.162659927906131,3.28064692335424,-3.618176710408573,3.8484432881874113
3.050245199780806,0.11270607364409102,4.508628982125078,-0.7050019649470158
5.760321443726742,2.537916701034405,5.671274481699399,-3.7589587469793173
4.070773522202835,-2.8639214678709983,3.5449400849717563,3.0218139698564634
-2.6047625783207544,4.1941323097130265,-1.6615484406566345,-2.1191083387895446
-1.5956765320452762,-21.521572186567997,0.8288726845684344,-9.66095749629293
0.8794181417391813,-4.282286098377437,-5.212238723442379,5.990200917935059
-5.687690643389966,2.401537420472369,2.1040119478384263,3.37388352701025
-5.601692300346602,-1.7439033116220273,-5.536831293329978,-12.325692976454775
-0.8126151266351701,-1.7060063754672434,8.093163564758896,0.5156327262083025
-3.2538036806530886,-2.1862407497677694,5.870745215874059,-4.7102241949566945
7.790488618798002,-24.994349869259512,-12.589789475073236,1.6320237662395094
-6.764695108276053,-1.7149028170751492,5.090560419447623,-8.411841310339426
-9.216076757559964,-7.043774076819712,-12.180203291571846,-1.0653085198613184
-3.321056396747341,4.815474666936385,5.504632928114006,2.285548165421382
-2.1835052165936637,5.723169884019324,-8.392645620655177,2.1940885689838083
7.640093280728463,3.9925863908943526,4.220332368668345,2.4910961634692548
4.8248182579752505,-3.305390965963131,1.984814567940532,4.52927883812756
-5.880539496705477,-1.2397674422563547,-3.1020613367656473,-3.153717343547669
6.959721083855951,1.106651049533081,-3.723212562400672,-6.978343958105839
4.387925981173028,8.518630417732677,1.6019167546399373,-3.003558435855716
-3.0695533963478328,6.250356599041869,-7.388086723555144,-4.141515712340357
-0.9760340610451425,1.748172002693206,-12.845378417607453,-8.251229754551161
0.9475400861985401,2.7945508255279456,-2.844699075730194,5.448998815052747
7.1977744596798425,6.4215812707038324,3.6035674204238646,-6.758035321816607
-1.9497376745936736,-7.287518834592003,5.56695761533096,6.364893436982577
-2.170740003471859,-5.521917482334775,-2.205407663311707,0.45544587977190076
-5.915166226304614,0.19487498064424003,4.469139135959601,4.466240094149299
0.4079970073375609,6.2344918605611745,3.23800535928504,-1.467787573724408
-0.10452566407873257,-3.87137798935769,1.1119172759933882,2.727293561327137
4.264134790158055,4.656263509886074,-2.691948280499904,6.855542792549031
3.9167728688054138,-6.051964076522161,-2.310908394853911,3.7065603893911145
1.7130473893063147,-3.489023887974337,-10.975162534775723,10.496068688922378
8.576903757443091,6.401232830075827,-1.6051506710492411,5.110635686853644
-0.635743086905503,2.14297966360569,2.045703953569326,4.929705948346534
-1.8489837734379309,0.3603937499723493,-0.7652950043310014,6.318860362305003
8.860809858505858,-3.2875457587490686,1.1382105854974611,-4.304125424441111
2.0012662610285106,2.2236431817023252,0.8881072468615763,-10.013129241269041
-5.2176079025764395,-4.158889580173376,5.504672897604902,-2.472983477855543
-12.496264283599585,-1.3114940236346584,1.5479887125580518,5.1362416395033605
1.805686929582944,-8.790079091137198,2.9313685542085857,-2.632481947755849
-2.407402306011251,3.083806528426063,0.12107825887082413,-1.2481466297286588
5.271485233704446,7.498045390538142,-3.761181793405381,-0.30358138846612803
-24.94022155760598,2.4673371516963627,-5.236913154631818,3.7373530858042514
6.211154781771246,4.5812021463070245,-1.7543989264988191,-1.4725734829609038
-7.688984078387461,2.0002381954096435,1.3804738724129564,2.0772197080532067
-2.8334982455664517,5.565179747731744,-0.1258669054174355,-0.06465556727581401
-2.7476097310170666,-1.9311109472611534,8.686492910009072,5.252998104035964
-0.3128727590971114,2.4259813565986583,3.9195123101130314,8.376807891236666
-4.089455182197513,4.1095909828827395,-8.480709566478833,1.801074476394355
-0.3941502030328208,5.031003123267762,5.925429377177412,1.4880393516621986
-2.683715418062276,3.420507868998417,4.721373912319482,-8.231197190874681
-3.546891667678603,4.519471006426617,-2.4266751739527272,5.162655390190658
-0.6374750380969573,5.371180588257314,9.0965806725605,-1.6843710514979549
-3.587811828328998,9.03862033906513,5.330509471244273,-5.22234309839142
-14.743799840045078,-1.7282083335584275,3.0787407445370008,3.0625191083664447
-11.429107055235734,0.6384661998017158,-3.098244761973586,0.6156275752850817
8.30206915551738,-7.081858535687356,5.563018673000531,-15.097909810606282
-7.9859316381925165,2.9779617987124034,-0.7083451787890134,0.056632159592119535
-1.121166022036057,7.0711016778335,2.7629438657405068,3.6125047114955784
-0.26533680162247303,3.4583502898720617,5.624968407909076,0.4569470964757869
1.3677395597915665,2.633711886405031,6.676057910929636,7.766944446917922
1.9295043413560542,4.244522108323512,-6.3657336432722325,2.199820079930767
1.9747038344708217,-1.3952172596626866,-0.7065785336796822,-3.25995221273525
2.3514230381534107,3.1027319390929797,-0.009713484120332794,6.335268779143711
1.3852467533873905,7.848298650330928,1.2439358637332454,-4.28030169482313
-7.890233962243649,0.9232608757076228,-7.122448153892702,-9.50772663874293
4.394191500051383,2.667095866638082,3.571167000409652,2.4104372603459225
-0.1326915794655026,-4.481848256289194,2.8947965134572335,-0.3342786781260756
3.1369888404470325,-8.294584664663159,-6.139390969193638,1.7391285240336103
-7.459098409571144,4.414164170362312,6.374525195804711,3.892184584230634
2.9009743828983896,7.235380263192354,-3.3538467317575176,-6.401987199851327
-3.1391015202612347,-8.53450104091404,-3.9742332858256795,-3.248589650188393
0.8054718273609452,2.867876375105485,-5.204404446633017,-1.1604693027205997
2.544807988383679,1.351960289451661,-6.227130983008639,4.09102941508851
-1.2913778724931422,-2.1280076198002362,0.7180639464374963,-8.72678988148656
-4.12238673223683,-0.289931604686533,-11.31111225204803,-4.169481601918278
-1.5644704850862934,-3.474519014083544,-0.27393519277586265,11.886043106900985
-6.181733253428766,-4.299046650609565,4.507714645011312,-17.27565020590923
2.2583012612996836,-1.305762783501418,-2.322622600555004,-0.39984009438612134
2.8035753873452056,0.15752769513127873,-6.648949260488489,2.442017118874759
-1.1039883664740642,3.778255682888865,-9.144457786371422,-10.998030654213778
-23.44201548535306,-1.5401285645069542,1.709104563371934,-0.24160149232393735
3.4610353604743582,-8.762456553936676,6.09697941376967,-18.751849458751295
4.77641005352154,5.1439723524202385,2.8007608181220256,2.585722885179351
0.172229065863734,-0.2965025625190769,8.408586670178202,-0.5385167232098738
1.6398566044797693,5.842397599442268,-1.0398597671617615,2.9410010345803244
1.9765053101572163,3.655946287789707,3.4198545021970332,-4.533684086462401
8.147659538240507,-4.178269328021404,-0.5121724995241017,-0.0027406420347375615
-1.357933331852459,7.771585194960419,6.622256062906104,4.569139048838064
3.7544390599663835,2.649096019476932,7.149527569261885,4.952991553583175
-15.544994775804994,-10.517068262152986,5.958440926739144,-0.8750136418850403
4.842894604252346,-15.229229930874485,8.447813745544469,4.7492903590059825
-0.04387260185864557,1.5868697508340475,1.5601364491081782,-4.117055308772564
-6.532957709866914,4.325153929818388,-0.2493939046350846,2.5526562602854455
4.238658983346682,0.9006397483057427,-2.1192641458870654,-11.104202185173165
3.533891683552337,6.278610022589547,4.265039627907562,4.2976658119468
-6.8172554682597175,-3.0084015102560357,-3.3301690818541765,-6.468780912545235
-6.47195489986151,8.406695105933991,2.699906374572592,3.238633088030433
6.872056683106001,-0.20058904013088252,1.813482972095514,-2.113448594367064
2.176629100356789,4.895906638732082,5.476113019380975,0.6164656276068854
0.7316931553231437,4.342225756980508,5.656232305133894,-6.626914567540084
-12.063536220684226,-1.8991821455904763,-2.8558911346318574,7.884434609790233
5.866673966506031,8.688422688302648,1.3945522672106847,-1.4153377365361521
3.7966853303113974,1.6151478355512587,8.241378208113755,-7.832881732274032
3.8258601272255928,-4.643056896259491,0.6327884589988351,4.0215796084971345
5.696270469588726,-4.663073471294968,4.304900425384847,-4.454149790098029
3.189600927784469,8.22216375145831,-4.421845211497551,7.31833677378231
-4.433495304983075,7.508624097906349,2.980398753400042,-0.26211528062825806
-0.2721107209285395,-7.175086230093132,-0.31506017845446266,3.518062462146741
0.3385122194048175,1.5054557256347927,7.758357762561612,-3.372794541244282
2.2734759464311445,4.961031758175267,-0.931607675704516,3.408939905012204
2.0734167733744138,3.644496427187832,3.908998304518221,2.9153498284539126
-6.723986660059983,6.740079273076251,2.8050856883446365,6.077776576077149
1.8266053036119856,6.9639767998786475,1.91100464592623,6.466267509735204
3.7087979898924703,5.4640562907933585,6.506744229418548,-1.568687380072788
-9.293448186420159,2.914619666831083,3.8233251962693338,1.8710328211516831
5.174973592338817,6.815625462443101,2.195803353626811,5.259959011562948
-4.5156831369274135,9.813971395344543,1.4024303196874648,5.761332902359872
-16.29724472205048,8.79530766056521,3.0720150755045488,8.329119709975615
7.8845811395509555,-2.013915049576216,4.975459322852849,8.345169732859844
-7.917388329007913,-0.28741554556638604,-1.443103802584595,5.37150715173129
3.8955811523132176,-15.72126496301171,4.7045613310014645,-2.6924868296403517
3.0183417772064773,-4.44968062276287,4.892879369295009,8.071860981995592
4.729847598955578,5.1213573046983925,-21.91872368347209,7.7492101860752385
5.601038894331711,4.073582932198292,4.596959985235447,8.116726647787868
4.393031842925926,1.871363029164474,1.0747029554612233,3.848962568063726
3.987955580790356,4.279501054502536,-3.2321554591455275,-0.3948584865207252
8.312708442223418,5.090968913409171,-6.720611197729088,2.514664482402978
8.623510346546363,4.820012105863096,-13.453137610930941,1.105691296551747
4.975251548292992,4.135918314646521,-1.1537608100230798,1.6694090858927098
-1.2455157951027895,-0.5721274296722072,1.3193469550430805,-2.4541071082867063
4.311005634003899,-3.1150470384010056,7.483813463311126,-1.539376332142993
-4.766538077747659,7.592682111032882,5.323921730069419,0.2744258737717473
-13.176635474907465,1.2284857249606311,-0.25264565741504086,8.002111038941848
-5.3802912955272335,1.6302580687228065,3.8634535671010077,-0.5773158602694792
4.983805687947182,-2.02428203550679,-14.80829222154902,-6.721084013802077
-3.341427042185123,5.712952800124,-5.225745719840621,0.34262079455655936
0.6814044995077968,1.056002071453353,-2.0024740869762674,5.801254460948744
-6.20556692056823,-3.5462208183589503,8.936579127057293,-5.451193361873791
1.972250573590149,1.2492523208227588,-9.636718565433828,-11.363669323888615
2.129913236447036,0.09970894528634489,7.72470077844115,4.211230612152221
2.762012646525695,5.772720460523701,-5.208045906186161,6.417726797782056
6.655271981570784,-8.499063681153107,1.44281910224473,-10.758101708387606
-10.835102850592135,-3.313183521818658,1.4766877219698493,2.3432048954285563
2.0333295901600112,-1.8788193689862673,-1.9255541054211562,6.17496944723969
3.1902000816674225,-6.517309993231173,5.878636480072046,3.2970459731291513
-5.18356562661369,3.690747623329802,4.336248988879735,4.212722270998487
-3.0919031448038345,4.31397769960277,2.613330589058325,7.835344564860804
3.8862613308142797,-6.460314678261447,7.8594136647739425,-9.325462415155592
-6.257810370030298,-8.180542913466471,0.9566636896688898,-2.0560933329717344
-2.833105742035112,2.6525469123775522,-1.6083697391827556,-0.2553041956353326
-1.7730240134301418,6.146790062029247,3.011120893033951,-3.675487058433326
-11.255006459785475,7.118520474599006,0.5307258808228248,2.14257740777569
-3.4818993905160176,1.3479222844949774,5.089585567424951,4.20744960173451
6.136932594117304,-12.13947730372178,-27.622162740328594,-15.240554685869498
-0.22336469125693442,6.702624275723874,-4.162546009316959,-7.418621595995987
0.4983941715240286,6.666894072453282,-0.6372835740669878,0.17562403177862507
7.718898162359753,0.38022744494593397,5.684893445576716,6.971206890888254
3.605582967561219,2.3653973703730102,5.4957709738933715,-1.7223169221974075
-11.260203618877116,4.369908105449284,3.692859845984106,3.3160839731390475
5.324934710497833,6.171575303013899,-5.972750461442313,2.9994775904214457
-11.904982467770829,-7.512701188427311,7.917858398069846,5.764727669882177
-0.09645599718911665,9.448194149692448,2.7986926835108186,-4.4989940198934875
-14.805337765020354,-0.777746379116568,6.946064229543492,-3.0572278185776156
6.490439363182173,1.9869415366029983,7.177512617718019,-7.138890213785793
5.229257424804067,-5.2532587460085125,5.290872563167152,0.37677353606244424
-1.7053467731864043,-2.697962935420467,0.955522455155176,4.333728467514696
-3.5181886928504826,9.246545148287616,3.778572978793278,0.8700746770441583
4.607149905133606,-1.1674041695493145,2.9771514527185268,5.241271378087465
6.914326435500658,3.376861979351961,7.529731784007353,2.418932023174669
-0.6115231645691425,3.3127283835372943,6.274087509992821,-1.3373056007588175
-17.78303739732983,-5.146762187727116,3.0108182653065043,-4.13946066017084
-1.6543358809590942,1.7157823369714542,3.2813228479527012,-1.3997315297020236
4.740132807052113,2.0806090342514523,10.146502286956807,0.5343780623884768
2.7706276697985137,3.820394333838042,-0.6352810143794336,4.690416731395764
5.993168382258897,9.604182348282931,2.537383961809823,4.627597561607693
-0.09638604717859671,1.4190832937800408,-13.505669669745298,-7.148896624820978
-4.529916317875007,-16.909533261766075,-0.7450935181454597,-3.979958674312691
3.8551236853415234,-2.0375365841473894,6.267639472562124,2.09616304455205
7.574045681012348,-3.984100904045718,4.321337965515841,4.89665998416924
7.13526092463623,-0.45246157448355717,5.984302586042766,-2.44412079355088
2.0953276586948406,7.428889238370719,-0.0036639941659828423,-7.355621484992312
5.312671818290027,-7.565339409557151,-1.087949790422197,-7.399354624623314
0.12365846500584793,-4.653195290893905,0.7491650502216594,0.20960800422949433
6.389174290476684,1.6539187041245604,-21.43972039212026,5.199247730911232
-2.9852672177962893,-2.776227955312411,-4.794955912134196,0.18972150036933755
-6.998988317729197,6.314458522749494,-7.1882607389166715,1.4277980704753297
-2.6411308212172115,6.889515999507591,-3.8655358658420376,-3.023935453893003
1.795460279753677,-10.688155108621007,2.5192079566657064,-2.761624674580183
2.3121161978867586,3.306311653275447,-7.540824114161229,-2.6879059385517365
-7.749679920569636,2.5677570135864087,-9.523055063492297,-7.4221096510581575
-6.873209179851664,-9.9805061347782,8.175277623986442,6.636579417305242
-12.813730971189822,9.44512703850037,1.7052584696876139,5.9509353445412465
2.422583304564909,4.959826678004799,0.332124255345974,2.077377552554239
5.757345330882834,1.5995795227564678,3.3563437568067727,-3.8702848785926136
7.600728331973505,-4.942652306045495,1.3126221133747897,-2.531617426992767
0.9332826866431674,-3.5937854315315327,2.699806946309277,7.305610132693136
0.9531509949036387,7.15550728778511,3.1629773836288173,3.4598021350193022
0.07160206256444493,-2.7487759457460896,2.872821637514388,1.0263457800789197
1.2389560451216934,1.4798458245064268,0.3343998820450871,2.088868205899555
4.398716070500556,7.354910176529348,7.264219170500585,-7.737161512265892
-3.6791513340650996,-0.5131104027520159,0.005058286614598728,3.4359077844365054
-0.637398884432901,1.0132600882687761,4.558565328991762,4.902881003294915
-8.173815682598379,0.3483685529174245,7.725850439361,-0.2596659144876341
2.4514038856073763,-0.35785114229389947,-8.357488713488227,4.270576005266825
-6.9924774319983785,1.2112311305777297,-2.241872671159598,5.602222977304553
0.30400711173083106,2.4788737847392284,4.42187371329597,-5.486734368182127
0.4270370189113604,4.213406054528843,8.642941907315276,3.8231235538473385
-1.3718379966354406,-1.3945634387990395,3.682146897024623,-2.6247506904098756
6.137111616178664,4.401097343199943,-0.3077868037700213,-6.798056180482682
6.606901285115705,-1.3848792931825997,-5.106570182680411,2.05087097289989
0.3749763985584082,2.344531226046616,-2.2666885331582094,-3.4645526615129896
-2.2849709362785817,0.8114721907116262,-3.7931820367229854,3.1480981946360345
2.184522582441195,-14.05867321838431,7.236513529551736,-4.889314271165389
-1.957040702987169,3.52964406515445,-8.34950685813298,1.9686574109258963
5.117523886443908,3.921537015965452,2.062890393801027,-4.630864537890261
5.40185961694131,-0.48779579783264637,2.625693797499732,-0.777700762681107
0.098742539791704,7.38648255103454,-9.911715558907328,-0.29347132394153874
0.478891199989324,-0.47108126923438576,-1.1805227963634444,0.7426112583711202
4.016246446830819,7.718917254248087,-7.98399706684059,0.0030807527343412744
9.75517718667881,2.8668953975073386,-2.5397151938348266,3.566066509724621
-1.9462219252835757,-0.46169349598543263,0.22813627952420035,-3.819541799124771
3.150686057631409,1.3877899310384443,5.5056727650066755,2.9727101730805323
-2.0576672033556407,8.47592544572792,-6.885263018009642,-2.6997762552627904
-4.977858595247178,-5.918036652399266,-4.692353136980611,5.610292895694819
1.8661187947882825,3.917718103948058,5.082665463552988,-1.034777332705204
1.9808363543634644,0.7117617186703171,4.36240261850417,0.9500976400731957
7.583468289512786,2.6609996414264465,3.1285423249651956,-3.794559847968614
9.136617158589408,7.799625932981879,1.549473630457559,6.930552646797864
2.5056553146629494,0.7133918059805318,-22.713028369240707,7.818396843851751
2.840983546112225,-0.3699117307223503,3.457401905264444,5.382602935232619
-3.940694050744303,-26.008891360666016,-6.672738714097893,-2.1988232137668433
4.729695807966209,0.28289406266762995,7.487015358415729,-0.5847343012316628
5.453557738375522,0.3245738227516135,6.912375374012125,7.05864930317296
5.330769914624761,2.079004385066092,3.787174711770323,-11.783059918671654
-2.5631162237822984,0.9569894602040669,-0.514100467312609,4.416281314943085
3.149051200454567,1.2074148914674296,-0.18967593626573986,0.7979937683301586
-4.171126729429199,0.3721980778929179,0.6226936313274081,-2.8350072904565238
5.825032275194612,3.338667230292341,-5.699865608047492,-2.4364144376292884
-0.32542231409135786,-3.1198390473156117,2.4121029745117646,3.758709563343622
4.229813376008229,1.2464281619219868,5.057730730831924,1.6210525409577272
1.506821091230587,2.3322104098435013,-2.402821957916043,1.4740838741100077
0.133981947782792,4.084770822796333,-12.319538821587923,2.0325088530574114
6.059282750931383,6.145657331275597,3.674789691412503,1.8232505722415198
1.9301966312600807,6.619288643178017,-3.5392642716540585,4.603523658101562
4.464867656439872,-9.333155796433463,0.3622568122947314,1.7911655486024962
6.493979529076975,4.122198420844665,-4.566663916510233,-18.08851835362303
2.2031433934614117,1.1465016875522167,6.44347548065215,5.583329150450933
1.139200918720716,-7.6448453324926255,0.4247365701477115,-7.34420349277535
2.3787498180063618,7.985048376231241,-3.69443752247523,6.003207822957915
6.487276558386138,-0.5023767655772566,4.632496952871083,1.901318922838776
3.0449976459282375,6.783379316012134,1.1903430569474018,-0.17754140157245502
-1.5931624054791547,-1.6756352404978827,4.611192784475804,3.0112695646287193
-8.15436640830464,4.028704134995937,2.2832053218989437,6.301183254377893
1.947702355858789,-3.3058944306322964,-2.6050015984469717,-17.77005028362902
2.4619997352857568,9.902981170579926,0.5979052359139203,2.342671623350487
4.810244218744844,3.3894954631892737,-1.476035231924314,-2.7662742388351376
1.477123730528993,-20.847073321341195,1.7227506018993246,-0.06547413314399364
-0.8352868259511591,-10.625199856417414,-9.956431158592647,0.6511659072948603
3.8426249192719757,-2.0837921042955045,0.6513960013611175,5.31322500761507
-0.8362941191381796,7.948352197434172,9.53446955208528,2.636065517619592
3.5334891397127093,1.4760862644325634,0.33287765672938363,7.436084410926753
4.1970883322565395,-5.352181201088154,-12.835343287892083,5.497699578023475
-11.524374236301849,2.366079294625333,0.030918508794723465,-7.319286868279292
-12.176540644968075,-3.667671326747435,6.479427033700869,3.71658138207993
9.435550746249902,6.261372861116175,5.435506829196189,-1.6412252508114165
-2.809191616744618,-0.8489576544380952,-1.63488237422305,-4.469403689548514
-5.1524937997862486,3.5287801518449022,-6.505773090620533,-3.987585955401954
-1.2654586984236362,6.207323245582437,8.805652952266119,-10.977483197020263
-3.539112671130042,8.757622275165478,1.1381238066399995,2.375183170464762
5.330750988846156,4.4301454855154105,1.140325144641352,6.0716930566052945
-5.776286823058977,1.7705620956777004,-1.3892507252644641,3.6426413148731314
-8.829720597502279,-9.102127825954259,4.503172297803648,-2.2497071551539207
4.987201859977281,6.910178186836795,4.481483493123118,2.7256104774058194
1.5813395326174366,-5.48657430706702,-10.348380111838107,0.15762116449106855
2.6967738406645596,-5.519279170577427,0.73602230075225,0.2859724309372851
-25.809764836120074,4.0234677350600485,2.3977736080634315,-3.287365634753968
5.1062588435117675,-9.652128996232296,1.3973778871586617,2.8817305216991542
3.5477017124426804,2.164968308773485,3.6398487507009243,2.5013159763824824
-2.7489621949173233,7.660929762280606,2.406357050397279,5.403465231700466
-6.767494180044171,-1.1088567950185713,-2.4446215581673307,5.5872044517358574
6.352303433012747,3.3943650329745196,3.6011310441023774,7.921283741477264
4.819213812172075,-1.0244994311682944,6.923208207918943,0.6759953521858009
0.810720463744169,3.6237785949367236,3.1459031483642867,9.70349626325093
-2.3674470740304443,8.228007731648848,-4.034590478629337,2.0332873810701493
1.3298556025043997,-13.356958264283225,-8.740332965538162,6.442467517039873
-2.7986102346351474,-3.209590359710649,6.954165657434366,8.010189785846162
-5.545475513833861,4.80621815715271,-6.675944506818954,0.386721959868602
5.100255082169237,2.106396766818417,-4.040687776034563,7.415406503582236
3.382058964335521,4.063921690946142,-4.694814147903802,4.760190915126035
-7.044460092101687,4.527950883386271,7.875540580383511,8.89095020863732
1.7629476644068247,0.7382451683993843,2.0325029655594022,-0.6568576185874875
-25.970116358839142,-5.732207566125364,3.3563420732640488,9.462447922096672
0.8104537063414878,-2.190763308455413,-2.7364871045431123,3.285998970125757
-1.413519297444997,-7.0887467304655125,1.2226563641048216,-2.1135424700936625
4.677180926273991,-8.41354084058391,1.1846305276045754,1.3975428669267522
-2.9359917745359128,5.639719325219954,0.5625789257106,4.791715426169294
-8.75284067714467,-5.456371671408011,-1.0742804814828943,3.053445276138408
-3.6110966845764145,3.7715472616537724,4.984237314403941,7.408926141212053
5.015825981251727,-0.13180807511349002,-9.457437542689572,2.134721493228458
-3.8851988662136105,-1.3995240303780996,-7.174968349533618,-10.926419962696457
2.1383673013808995,0.5506636208450324,-0.3584174725685294,-5.763737307565073
-5.057869024834771,-0.10737954179675668,-3.6835712133935665,-0.013311034091415763
3.100970395475982,3.738642428364475,2.5456952052480695,3.750574202656793
4.694887751265794,-0.779391351151645,-1.024697323325956,5.29104039177842
-1.6104574607351998,3.347323735992674,-1.3804326479178748,7.220564333614064
-8.072285101992753,-1.9919004009798051,6.3394769492983265,0.9107439042350549
-8.69344382241947,6.008025792138515,-0.04548594058909572,3.551631086705491
-7.8850359707323845,-0.4707712042448122,1.7655928163261585,-2.77793094550816
3.9841299501416896,4.944870922155726,2.5591249273506946,-0.41059487083002466
5.238924969524639,-10.663606127445878,-14.148980948182835,3.7538989129272338
-13.569193308565419,-5.440126923778816,5.952111218766785,3.075191256223448
3.7771183646526842,-3.559894308991499,5.781953481859546,5.144924061727728
3.105511325172236,2.396146655170451,5.662735648338188,3.4088154742764267
2.694772524214812,3.0582081811588715,-0.27741533546436514,-10.716024198495788
1.3146917917368985,4.9631012009592865,2.7958885159998808,4.39573926080865
1.8562083565517318,4.861102033422359,2.4598746312043325,-0.7970133502944208
1.3720467121361524,-3.572815972664781,3.4374383609136885,10.293656280507182
6.074907076238,8.386767514919935,0.48300044009025456,6.915161956092149
-2.812813862718418,-9.26494911424778,9.783501640714832,2.47289568496765
-3.534449357756997,0.9444397342141038,-3.3228801918824793,2.06311134166641
2.964479331633273,-4.829999172138411,-4.957161659891927,1.8663222246864493
-8.114120334532643,2.805939899830644,5.920438312290482,-3.582673697957226
-9.187286764615763,1.2977138871256386,1.0358133334396378,-8.464008526432814
7.698385805543342,6.292393750282503,5.12346097202126,-2.3169284193293294
-2.034659805257788,0.8745379810276113,1.5712923907677379,-6.6253020078009826
5.2150878521684465,-1.3200127921628706,3.2753449109497517,-0.8872706609796808
0.37287058272839374,-3.6116434064825,4.0022338320215916,4.607249407215374
5.387439611430199,7.402322019158934,2.8897503927696704,2.323016245003103
2.3116952538266795,4.662376554760616,7.608158595093325,4.399019588286944
9.848169258863267,2.4338576282331594,-1.0567288208576286,2.8785295121264483
-3.953061114494863,1.5962055392472045,-5.378099736960575,1.8543359575114025
-3.1405580689493697,-3.25966523090241,7.656993004056137,5.626591848177473
-1.152319996919803,-3.6284709256676884,6.71889403553762,-7.029842171690426
1.9004957183834819,3.960067699427281,-12.068674573146044,5.2057260811838475
4.6136819469802655,8.915903827763916,-5.6344959493456095,7.104560834274871
3.6014256019657913,-3.3761467345149967,-3.641642039781974,-3.65662921024866
0.23903464094009924,-3.0536420056075677,5.610878999159798,-1.7088776399232373
4.167255247327867,-2.2212579665978076,7.608539966865607,8.639886370146293
0.35920511255294285,1.0260305159228196,3.512371626846196,-12.915184921007764
6.685334786841653,0.8201227764997583,1.0136529438806967,2.0203246839448
-1.5356755701821787,-0.01320713281529251,4.654423355968216,-1.8457636530090582
1.0840112944960323,2.2275407273046675,-0.544111001073663,2.8818002333416857
-7.0324867750587,3.062667098768369,1.6335319648185909,2.0648224722860604
-11.696198165903885,1.0248238600364878,4.489105662691987,-17.116509758513573
-1.749316368011225,-10.407778624671703,3.596630159913463,5.180953934193219
5.58413951912459,2.9556827454568833,-4.029164206442513,0.534289878858786
2.600868897595268,-1.312503844792051,-1.1500512893382968,-11.270528784906723
6.116193589942314,-5.365382963254024,5.326196958686264,5.836491158370908
2.8972288747490995,4.5149557041374315,8.966859633912495,8.705278323646283
-5.231895382997703,2.8949645912621627,-6.01050035206293,9.938851698106355
-9.332774027504897,3.116404659862315,-1.3671193346058566,-0.2693679252302985
4.159053160060111,6.27940791653058,-0.3954411307388739,-9.727077197182048
1.8256524741881899,3.5187196167006327,2.4019570389806937,2.7350365822799354
2.944023576162211,-7.704235474201507,0.3746891089428388,3.7178747664222094
6.4409931196297885,1.7244784124408596,3.8290265100594567,3.7834945236828226
-0.7497092034267883,-5.843453297661508,0.3760030107828882,3.1911833105020655
-5.1755330544741724,1.290692680124014,0.14938332855422587,1.008666810051288
-6.614821122954754,6.922981249844309,-1.526778097535125,8.966588269601857
7.565095666160283,3.4544502481463972,-6.357001495306715,0.1520859505431389
-3.2767363743914273,6.775872299910045,3.937239700499994,4.230031452724049
-2.07995571860157,2.8345109403640762,6.415710079763219,-4.418276041307266
0.050622709931882524,-4.402868663406355,4.515051419428932,-0.8980385983655026
-7.639064869799328,-2.5257250825835236,6.4741593834766995,0.7257947612503486
-3.1138360035133466,-5.480950302540791,7.592247460504957,3.3869824039998804
1.4505260644585924,8.492535353663499,-1.232152759679078,5.128955831301909
-7.3981856594619675,-10.732706009459118,0.05038075814699994,2.313759241810928
6.837292227683929,-1.8281643482913275,0.7456701784730875,3.4052335046940634
1.6861100960274387,-1.1866409661361565,-0.9076687013504099,2.975468889434726
-1.1393541417278987,-0.11072181950414262,-11.107358454693664,-1.2565354511814917
6.663204503987921,2.513217133725302,-1.2667572158851925,6.08938341719913
-2.7997702947588987,2.865311131957416,3.5199493011272303,1.7472339672886577
3.1639365928413743,4.0557270806944885,4.599934816354473,3.29960406727497
-0.9040458792569216,6.894070997524295,-8.554282840455809,-0.6693693444970563
-6.211902909279795,-1.9730616680502386,5.981889602611421,4.444256025095868
-3.713865317942713,-3.4886895066422987,2.3279495638728243,6.10349450042375
3.4902472826864446,-8.530754062067,-4.16252398921446,3.9689928190993733
1.3451984461365134,5.15488729180662,-0.609052394122088,7.524261739831523
-5.5522608076093105,-2.357232858208551,0.5155826368027263,2.1112659471162125
0.9659096549071227,1.7180787747216328,-1.9718789136128585,-4.506110841827301
1.1200684746493685,-2.5771409258302533,-11.939044495328506,-1.703228228007596
4.9425362505332044,-4.975088415068626,4.181224959260756,5.952183103315939
1.7655748505040345,7.78257212713547,-1.9561411942489002,0.21015222938655853
0.7798303080285318,4.434745236462565,3.333047140785091,10.020459268789427
-7.9219781689956985,-9.699709489409837,3.599501397115848,1.5260204905019066
2.6408436676130163,-5.016732846993186,5.473291720129627,6.523300436048107
3.6719678468695793,7.7012074296310615,7.0002665721589,-2.5975807534754836
-13.430051319417965,-1.4665465127085113,-3.4111880542052226,-7.910383405027822
-4.1159356362320585,2.037355863494131,4.882774324026787,5.79681333403877
3.369256372829363,1.8184132117306113,2.0014667389738072,4.923467296107614
3.6112299772159493,-9.149456516551876,2.987125632103158,-5.885014907291406
0.6152988674765103,5.927080336824577,-1.535525720519324,1.1342729529456363
3.904838067737278,-4.138443014966239,7.052871912489348,-1.0569711925044771
-6.065545804862838,5.2477815989646,1.0574588639607647,5.496874276252477
2.021373217883696,3.9559841667720903,4.91699623190711,2.7539028991698338
2.34673380704607,0.9211132540324591,-0.4602502574545184,-9.764887824596435
8.508047860784501,5.5865475368939705,6.028505569691998,-11.400536208780224
3.4817503197541644,-1.74750339788379,-1.2562602715290545,-1.8275223456934597
3.3177842033108216,-0.8952476469025861,6.384211350465517,6.7934366498159235
10.545195253880426,-8.76314390819434,9.814601193284535,3.3027630342435934
1.9789958617153585,3.1877679619584853,1.5819652330718732,1.846962617285726
7.910994036472559,-3.9654034529742326,0.5966869634550953,0.04369106656161392
6.043140837306197,0.19867624674071394,4.097359969560646,5.497913960763523
-1.3783822121686442,2.15810348947797,6.407678059397856,-3.09038253755476
-2.5221441217348928,5.454673485838324,1.7770693065575323,-0.7931227996331458
-2.7951755447493905,0.30732027752852886,8.825317954289456,2.3398505551018403
2.7032921343972913,-3.752920781310465,11.446428554806964,0.9584644954968553
1.997305684810263,1.604499971668801,2.5754331704429703,3.5880552444579337
-0.04053585318151003,-6.820355024707485,7.8953894214385905,6.817538270641609
-6.776857110896137,-0.6405328008394129,4.013845465780598,6.2048729795945725
6.981753985981351,4.062894361520627,-6.651912324625652,4.42728454686436
-3.2942481344062444,-4.472584686374077,-6.182649536366423,-10.597156721945815
3.622367479691297,-0.4418036572297588,-1.7018418756222715,-0.24727526530268307
-0.8434434208379813,-11.318238984813295,-0.4935297022112586,4.0208329010445
2.9322552401069255,11.331655579306656,7.771506798477947,0.6760833585911641
-8.8502558996718,10.853361029225209,-12.04070531998715,-16.76888957381165
-6.975076606342318,3.8905429684974813,0.5933137335763341,5.437794393245138
-5.433304959722685,1.8999529249179048,4.686394149469319,-6.174288530727431
5.891983534416168,1.125648874535976,4.050488152184311,4.230254276364434
-4.965212093888296,7.553503645788606,3.0646558554943653,4.818494667132356
-1.088651890387621,6.550802365779475,-1.6882253848424256,1.4291696718819829
-2.6043824464998395,-0.8972005041061344,-7.527015221561651,-6.491560561686256
-4.098691987401925,3.2643482053664314,3.8171804391769584,10.739370191762696
-5.352813625562221,2.375447550920793,-3.683124575781047,-2.170759726982702
0.6467449101355315,3.430932390258061,-1.476832481552325,3.5177314886625837
5.1383379802428255,-0.8698617263470467,-0.9330927395910429,7.406917736777544
4.672865072954614,3.480455844964979,5.313028305250178,2.862765511822804
-6.4384734659033365,-7.042248535137762,-5.499918038971611,-6.842078797451748
4.433503172237346,-10.024803818720766,-6.826630481346765,-5.223758820840004
1.711457258078279,3.3008577913068677,6.237680033353559,5.769829846811092
5.362014467319912,-0.6086580951595089,-1.2591322813516932,-2.7415709135233755
6.8657311471141,2.7179191214335,-13.894260758968013,1.2202316344149793
0.10507853224117142,7.531165214113091,-9.648087939576758,3.4601717604771025
-7.401271884887968,-1.2490097080387805,-0.5399393337080518,-2.7522626681693225
0.03468619338155363,-5.934001999004696,-7.977751901962119,-1.7049630939838636
5.8013302527829635,7.257773724830944,1.0722496596632602,5.894118749110241
2.7403325776095344,6.2323948843108035,2.697568595335593,-6.945824406762235
0.8719692645509404,4.078191299544361,-13.351022221062987,7.181513866482717
-3.3022635906037485,3.1534532666995965,-7.477882892894161,10.713787841472694
