12,30,50,80
0.9351056570646434,6.832393115379585,8.133128882245789,-24.569625987949202
5.053282700044058,1.286755862475939,-0.7427913558417529,-8.084002913180356
1.3256588163295944,9.524960277537902,-6.622579093215638,-4.880559750740112
3.341352441173009,-3.274022263625813,8.129738759842692,5.990835885948041
-22.432301628541506,2.4171154214682318,-1.4407974029276325,5.7052985112781975
-4.822736150191243,-1.3933558455411514,-0.9688236242314865,-6.135969355863935
3.0017117733874676,-2.6216820517882233,3.318874041972304,-0.4338011809992963
5.0485803456085385,3.2613139420849784,9.416239724501391,3.1931645535822994
-8.26376683947513,-9.826580093011632,2.37699953073756,-7.595027442986357
-10.002911928523075,0.6635460894162435,3.156426991422702,5.291906406869938
-8.037501798782861,-3.1923767947039394,-3.5633654406388935,2.0856745916536426
-1.530777944637531,7.730541877465999,-2.5310119033273786,3.98887635228602
-15.466102973697472,0.6951664427857551,1.8768914209451388,2.881185924609504
-6.876863735672737,5.569094705806343,0.41633010936729065,0.21717123441955977
-1.195918447685981,1.7187924823393317,-0.8675349145518325,6.097078643801332
4.2157867046360025,4.110292367343895,-0.2608908480866319,4.127077185563909
-2.8082234316426073,5.6863297162544235,5.431860626926024,1.9495597740839479
0.917864666629179,2.505603698851484,-2.4980792504746283,5.771011759652765
-1.8571009519607755,-2.228485857828165,-1.5477217385986926,3.8689354971117957
-3.6963238744327724,4.011693474726922,2.4320771287509224,-2.6841207438097143
-4.260116707010599,-0.39544961802775447,0.8301430269895071,4.700106657498296
2.227590610431639,0.9568187477500736,9.540002108680934,8.39940239272579
0.16172017411161144,5.982107528036188,-4.476835620188634,1.9797779259554495
-1.5746177735545683,4.373749329772242,-4.440410174225246,6.8802371446977055
-1.0825134374560603,1.8985720957493477,1.3691249364587037,-0.19819003979112182
-4.693497888190352,5.411529026685784,6.326567484965391,-8.617859550260405
-4.371618013578624,5.318597107871728,4.407450804833662,1.9876517748579445
2.738509100883135,0.12851442648891265,2.206214687178221,-6.759649956354799
-6.040166824274362,6.210559328530067,6.304557966785403,2.780649687020073
5.435624602613945,-4.152757543163393,2.25766496980361,5.9671186167864825
-0.4308452106376772,-4.102944550634678,-0.9393216212771023,-3.89064493040879
-10.149452634630437,4.2602492020312575,2.6537638930907583,0.6758038630004393
-5.613506520166693,-1.7714162591176645,-3.536361613000107,-12.65307044769844
-7.59462469788526,0.7199276288677936,4.280460085993386,3.486217458113714
4.992372122694414,5.95003576773156,3.922913775331949,-0.6695220583641799
3.672851314206533,8.934204654664807,2.104944440279958,6.380668995462187
2.1240529639119954,0.21106718113153633,3.799774325808297,2.96060396158709
4.296587909047528,0.9749073901697862,5.842504763155681,-1.3014199422224806
-3.186140225886167,4.910368735002031,-6.868033222765742,7.030322116891298
0.15580559342452704,-4.315514298855188,2.4681914584793923,-7.742412079810265
-0.2533582103432872,-4.982010506953866,3.568005461032133,2.5070643992215196
-3.1543543432357093,-0.4726001729004494,-1.8954241835549617,4.974299856491754
3.2783702133347,-1.5405172064705859,0.05311087210701615,9.246572926611098
-13.492996352707864,-5.454481332420421,2.0481735125272316,6.315043885928638
0.22564960390268785,6.732406742951476,2.5097997210572878,4.889462455454073
0.6870108995971032,6.151258562321072,5.585125090596129,3.2214278303791986
-7.149278924286005,-1.3288266373190716,-1.6752936760960715,-5.6614550702860456
0.9524006968059704,-10.185986380882472,3.613548920082849,1.2835159397227898
-0.34314905012111785,0.5843322062717426,2.4519037632055465,6.885437228746792
6.288659879165873,3.402063608881054,-3.02121901697576,7.801278543341294
1.9919228323629183,-1.1113717577554887,-2.760967327481655,-14.363594376279835
-3.35643483070549,-0.2345124339052269,8.173170688132334,-9.035908025140557
-11.130727612902787,-1.1686951095543634,0.7680945228546534,1.7468449796466672
-0.10859928074130565,-0.0620252778142536,6.9168283000428055,-4.921582017705127
0.46932307137263285,5.830479651187044,7.1111542224135675,7.60902592194131
1.3210124263300467,3.597442231025237,0.6477453742356545,5.085189666164311
-2.7422434465035797,-4.2185946219988,1.9332113390987864,-0.6384282150012268
-2.002270603978858,8.688970376151548,-4.060834651932392,-2.8801255912009296
3.8227590419861124,-0.44048192032908773,8.566955847891041,1.9733738632433777
5.927063459419587,-0.9477609809572876,2.7499782417760876,-5.715779990138955
0.27235579923075726,2.8453613030229086,1.347690736330236,-5.042416505737002
2.458366554291672,1.944760345046408,-1.5828541553132247,1.857323837144488
-3.2206527061753376,-2.7806318896230025,5.824412068632238,5.496945215828674
-1.5499091770618008,0.5324996807255253,-4.814068782236578,6.152810411774787
4.352219370547493,4.361726507058076,-6.894791669711349,6.676762546767694
7.280380317186292,5.6489786470415915,2.8646880595314634,3.961297664910493
-5.460638978302468,0.08654496601224082,-6.2796598856404025,-1.1537932468355478
-1.125246868049722,2.335619678688598,4.229526357189002,8.267251003763775
-3.6221518994414725,-0.017054885266023945,9.363226556234036,8.080206468462471
-0.7424035684277626,-4.825595506709707,5.1346642302057255,2.519210440919366
2.8453164100408967,5.918779694348867,8.526512154220686,4.5544692594491245
-5.151530961406927,-2.7041305118100176,1.6160820750312865,-5.01844692712428
3.4186538051226143,-0.8940731825903576,1.800715664153774,0.8367309285697857
5.333161415434692,2.62257293797801,-2.625088147447716,4.4584877258930184
-0.9276278820852526,6.428974305849547,-3.41502384424793,-0.5445214509264176
1.991094528775546,6.2931662354624684,6.498904395437592,1.958619082085729
-2.2230514148400595,2.445671398907443,3.239589376487338,4.398760587461254
1.7760599965214496,1.2803243956403918,3.6930566517645183,1.5033174704775973
-5.5862504842960625,4.869977152845038,-3.511887180719274,4.578109608263155
1.0521401264460262,10.281275791637214,3.4849275567351903,4.585290008072892
3.6450832226782843,-1.533946691781157,-5.380114364607298,2.438508472453485
-2.6963815004807787,-5.0511624196623295,7.856993547390271,6.364328225009658
-3.4502521576545697,3.7575789733058933,1.4300151798460874,4.030938538321919
6.6932657778582865,-1.397487429995067,-4.597917972965501,4.819533072309071
0.75530921401718,-2.3214717613389837,-0.3060474709924925,-18.080751485533426
3.3867760897323365,-2.2274533100753366,0.5339638551547381,3.8393415254996803
3.793513247186911,1.5933249374706477,-12.716485456136514,6.075996719687357
-3.7510577836464285,4.604979616504021,-2.554439535269484,-1.0893267667233388
5.474848214104378,4.7434297496557285,1.9165890129294638,4.160059305232423
-0.48426462269673687,3.136686460737682,-5.488141802256944,2.751017293215366
-0.9756153255906987,2.2385749979176985,1.9363761856059547,3.431882168811267
5.507439450380875,-6.436493612387782,-1.5286000944077216,-1.754760505736506
-13.014188569932543,7.408378820681911,-6.302573557889122,4.367282691951253
-3.6541548857404504,3.778432079265688,2.358922687944638,-2.5437563034295323
-3.241994358510533,6.661982890368119,-13.225442895013789,-2.599671955980682
-0.8123139939498016,-0.05070903589993847,7.823685689740454,-6.934789292711102
3.1037386919411465,-8.986684935022911,0.8201371639852901,5.88453000914744
-1.1997344745061391,0.8336547971453818,-4.403304224822815,8.026018128968154
-9.62427921162987,0.43340912432514145,4.946613290768138,3.8715333141769364
3.9688629735113743,-2.415745698781638,-9.96721185517271,7.064147676561241
-1.9197331905195338,4.636545651207417,1.9373150153584255,3.332488475615108
-2.3458188843101095,2.202171798688891,1.6019951429021688,-0.08702088395406804
0.10275791264728351,1.3713048103155963,5.126495154732428,-0.904150039928048
4.335623116787309,-4.428543506661132,2.616311894647339,0.04387291601509702
6.712700108187574,6.749581799350899,2.536591279131443,-8.487392276678086
-4.648249188673393,2.4682354062737772,-2.359950646757998,4.0178025461638
1.498615872642113,1.262392849465833,5.475520949505398,6.10120423928424
-0.7323422346579607,2.773927523730041,7.664791508750032,-8.09220867097536
0.8980529122033709,1.3754147410946054,2.60753439676936,-2.09235425947967
1.5339856430750094,2.388520165351654,2.785818987595583,-5.898921257577534
0.7236938305721272,-4.523787288044545,2.7438972018533185,1.7842774677190256
-16.73232833821813,2.3098609137098727,1.3189099293421798,-2.2118545552179683
6.431363532875599,3.180619486708064,-6.424790775231738,3.407566827087056
3.377469732714705,-0.9271371619868845,-4.388192842242365,3.0742892718731447
3.5826918790862052,0.43659211358687244,1.5299020230096083,1.7063444916986512
-1.1383108735015974,-1.5710408229248891,-8.317761823234424,2.0360250921001466
-3.964393784018769,3.284942547083034,2.050697693271644,8.142627565125593
-4.149865124228821,-0.5571598729026164,-7.410883983293164,8.160144608427537
-0.9012684822571466,-0.6479893739167828,2.8502123847646743,5.490303192233924
4.101214777718269,-0.17246509636616025,-11.689494332813123,-4.067835512859553
2.7187132075847757,7.7477864100799,-1.9528158065009116,-8.579493630826036
-1.2320351293505474,-5.387937540457305,2.240179648768251,0.36520890875428336
-14.767440442258478,6.8170697867188075,-3.0406190492284857,4.713674325242522
2.6769945901678023,-6.1944215890429355,1.5229134279345011,3.036902881949068
-5.404365529661179,5.818999719723557,-0.3491062743231197,-3.3689071203395073
2.877301058473088,2.719844610215649,-4.544354541724157,-15.316842585069338
-13.00930072338458,5.595717475472394,1.748576721338324,-6.025933286360861
4.477280282942347,0.1523293642996144,3.3690153140328825,3.5631599289884903
8.62695605752997,6.25485979949794,-2.329071704335341,-1.4567941668133813
7.498237507715601,2.771644421958783,-5.335939497582398,5.803758635249139
-1.3005382416551434,-23.624498528346454,7.00851183067422,-4.847137405908839
-0.4273605321728975,0.9741772824575818,5.359380129799707,-0.46770034901739166
3.5456674437273517,-4.981056616911438,6.213605271739453,5.744800531656864
6.88648661819318,2.930136728201294,0.789807924211015,5.673497047376056
6.155186267820444,-1.1605800649776015,8.291416874139195,7.437576056946739
-2.655650575704344,5.809688106209663,4.588850807856733,6.775016392271738
4.576784650897473,3.3623572310358014,-0.40341835946459526,-2.966723620057138
-5.361719548814623,0.3518173591621867,7.628750248115161,0.3636588450452294
1.5829517296116886,9.01941510606881,5.770234089920098,1.2213622345352206
3.262586815383561,-0.2404892062929065,-8.037754700477617,1.4201575808118534
-1.179716223704451,3.023914696702409,2.3335909242869803,3.1117885759166377
-2.2131917213642294,-1.8435844280220586,2.1912562377418467,7.410292191629708
-0.34561376865659055,-1.8394554721364464,7.489432748324067,0.8779321038644952
-6.832781002645682,4.518447772364322,-1.4881635582910313,5.522614004751876
-2.08586210338686,-3.0544130503094955,-12.980692107812029,4.063930126607211
-0.07315416418991871,5.35742424135805,-1.4714656699870865,-4.970358578686046
6.606339935396452,4.207128925306353,5.093877841854923,5.501599467950708
1.5693406775446503,-1.0162289902059989,-1.5558478671392528,-1.2890080880024897
-2.812988466667854,6.060795871744187,8.139909461828093,9.188280086645221
-4.2714229362616685,-0.9913905359243671,-6.113224890891399,4.72683472308843
-0.03338582466280027,-4.492997391764259,3.3601751988003414,-0.4505754087317584
-0.668845374961895,-0.894250591591156,2.425540495622837,-1.315417310256862
1.173573603921547,3.075818586363223,-17.822720601588887,2.403531635286349
-2.0254781307321434,-4.917345481339964,-5.223059953058364,-3.835656719415148
-1.9590540695959224,6.3187908393291,3.5273741642780614,2.457987565778893
0.9722521598441327,8.63047260722617,-4.203165097554457,5.025066334363672
0.522381254713637,1.056426541010385,-0.7133327679815586,0.2950822674710949
1.0442341636964065,6.795560739699631,-1.139073347501327,-2.876844730145919
-0.21171837877494237,0.06979746530882736,-8.108005314912337,5.733408392109411
1.3535559933327157,-0.5705833698811524,-0.1093776841988543,-12.23148581233879
3.308332569484753,0.7844195615390426,3.735099047331399,3.7616204213636664
7.875204258888688,6.761874619291962,-1.2981948386553483,4.078679593863825
-6.113244551345465,-2.6519612009201943,-24.469653921759605,2.817193793419193
0.09092928988740168,-2.4369933112669884,0.45369944975745113,-1.075662208113357
-8.42554866450012,4.456461705557508,3.8892467318125234,2.273105302438129
1.0099263193152876,-3.1587510476214646,-5.388195634041875,1.3504588592476559
1.3082087141023293,-2.104647926766127,-7.605607653290409,-2.6968003071087097
0.17203428834356393,-10.543208850878433,2.863359132435402,4.052196909134054
-3.0479593923405797,-9.0940726714251,2.67663421182586,2.8163383303304848
1.029813518920251,3.52081136203142,-4.519230744575136,5.527065784950906
-6.657610874918257,4.615541136049842,3.0548132611035754,-0.4330755213501192
-9.575672138717104,2.8140100339808747,1.4554937010085887,-6.462358559870431
-4.385961615277338,-0.2599416367356149,-8.606072716681172,-3.9857680118084247
-0.9120370387137551,-5.918123492447773,4.597427595689883,-5.959557120968682
-1.3679715012639808,-24.852210919316217,1.0310986897708538,-5.839132158132138
0.6357882559257333,8.357960637975737,4.415562279700527,0.6574843545675222
-5.23411989704052,3.275091124609883,6.570523669490463,-9.39343838605646
-0.5164757161817999,5.228820288963703,3.2306633725899303,5.950374652358832
-6.360548431242295,1.1150333229094187,-6.730069095718914,-6.1010547676277795
-3.261125020660907,6.390032055112336,4.662730592182836,-3.7427031996228735
-2.415689246525494,4.131049848842576,-11.249757861211439,3.8703088002351578
-10.135747106440764,-10.96010599800977,3.5319585158184665,-1.7032098072284398
8.617619505357254,-1.4837777072125071,7.487863296179853,4.922248650042608
0.5645672486931002,2.990543602085417,-3.7515420881908703,6.575379009098498
9.10728552029229,-2.9322848329410647,-2.065523200218802,-8.28850390660395
2.8415322606163684,7.5867253243391275,4.5340148663900806,-6.197023089757359
3.882280855410649,2.4555673152067037,1.9428020285986172,-1.0178952162474602
-4.050095237493991,-6.441724387318686,-13.811043084846379,-2.148250384063438
6.55861516643677,-2.1333374211539073,-6.888358861225992,-11.728325215685977
3.9036405961477443,-11.337318531650741,5.116936091256914,1.6298024384115095
1.3092820185556437,5.745431167070436,0.9445043727425464,6.293850095336282
-5.249618145374548,5.189353190934952,2.8100222054646906,6.131482672022532
4.529165847349779,2.6299042813557705,-1.9771981473567841,0.7489449145400897
-3.991285161773616,2.451313107443088,-2.4313019224401486,1.543402574710509
0.23408910488336,-1.5069102753938601,2.943885523905397,3.4188331811270487
-4.444010019843029,7.068333796732045,-0.02728922791970234,2.358672782566856
5.802048649633394,0.24891375842705799,-18.719669627115064,-5.712515815646306
7.30385541038906,-7.5498357641696465,1.6993607377336488,-0.6098636120466381
-0.8540122724435633,-4.444545466885419,-11.947823936155128,-0.9592512301479417
0.717441746460751,-2.8907056116039023,6.746119678413972,0.6575687679303641
5.642062736683814,1.598675071934938,5.155451512741546,8.649098787990741
-6.172118726809423,-2.698346295078373,3.8779060615462164,-2.5396327309019426
1.4263701849141515,1.715282196113904,-1.635690798810316,-4.87933205860142
-3.1847108814760827,-10.777089720688824,-1.877171164956696,-3.3675727232146215
-0.12912806548107936,2.800808686725542,-5.717082310565456,-1.596031199217201
-1.2125676419564515,2.9601119544635033,0.3004244340860289,-12.959571142884386
-1.4733140707884007,1.2805533628833992,-1.5948904150918004,-4.390970785363244
7.037882965692056,-6.663029471101549,-2.7789852639324586,-5.158108185446878
6.439597712058841,3.6952486564543783,-1.8092123269689928,-16.172034452523256
6.269791904090239,5.590769595192231,-3.212186977634314,0.4078318740831577
-1.216301800724894,6.755085622349089,4.895425728944357,0.8956402981300471
-2.4593339216814907,-5.6981637165490575,8.634065538276676,1.7342850478196041
-2.2115951739260225,-2.9176316200297556,6.6422390400669045,-3.430105166652723
-4.749701087442729,-0.9360731713927812,-4.173621897877705,0.3238861121590162
2.7251982554314456,-0.8749548511889529,-3.9881184200179085,-6.217586681259789
4.258430352924906,-1.9397773703178594,5.437392197460365,2.3715985043732317
-10.33869963834905,-6.946469704302519,6.590205228546662,5.635777970134427
-0.9226367476390132,2.6535904111318906,2.601540884920155,0.6728755381331197
-2.7496452471837514,5.848195517088083,-8.603449970560273,2.429127666364959
-3.3446297706409713,0.07550905872974667,-0.5801081296325492,0.13975234195829245
-0.48671557535303567,-5.181073024543085,1.8525710838536469,4.222162891624414
-1.714722859692928,2.4353327662494593,2.8111216969144763,-5.854785167861749
3.5867343318763556,5.068760357578295,4.682069200913684,4.725500473216652
3.2716076572763595,-10.856065147213858,8.60019771405009,-1.217243579399522
5.010932313569482,5.835563631273256,1.502423036818044,7.135201309149235
-6.51039344396013,3.7844125552606975,6.5590717548582695,1.6614019576959045
-7.439557420410189,3.4402314325046532,-7.682684637054731,4.190896827980872
3.071845364310059,1.3147788558662654,-10.542312708142116,0.0836395877331384
-2.946834898452852,-3.9839230494350026,3.3515605904658585,5.961480141365161
4.621163660619641,-5.057275217301303,-4.157438441137021,2.274742819797371
-7.806161281149302,-2.0792728431272423,5.372186326464483,3.096189293223656
-22.086814354082257,4.434218515984103,-0.07591398808670746,-6.832049961233388
2.7397579204857028,5.146397340598121,-1.6580832158257053,2.797407409000485
8.300323540012378,2.380005182080499,7.235714501173344,1.71324144949061
-11.500429579366726,-2.0236915465503458,-1.8145855409587952,1.0664993955115492
-0.40329314658020143,4.756382213519199,3.902313378561896,-10.789601467686602
-4.226109597336563,3.5349670464684273,1.0676937771432549,4.415164682096513
-9.481583020771478,4.609294081849203,-7.847800015781278,5.478861818191309
0.7115177499486489,-2.668691854041775,-7.967798593941165,8.286154099630036
0.41849706823631605,3.9036419377801046,8.792848424409527,3.1575286040231134
0.25868569662872165,4.845895701548024,-11.79447994307942,-1.882746273484365
9.300456392410688,8.339677513554083,-0.7125126469501026,-1.9734851940986289
-1.0450653972461152,2.4280714286983525,-14.616068806960751,3.9460263376890694
-0.7000047498270727,1.4809342987298457,4.014013241236665,6.094672338706754
5.509131477625945,-5.825541943434466,0.5281466290010286,0.05189408799303408
5.799538682176003,4.992460117529323,0.058639601526376595,3.409790542582119
2.9184085381610654,-0.6295231020125591,4.735270677645936,-1.0097155858396647
0.3142267562022991,3.7294410798394146,3.1701356633841264,2.238418762923338
-9.199998485076192,4.288696548887671,-1.7214095108112701,6.767440610666547
6.556353931158309,5.015621790839546,-0.5656486437992818,-11.975414328435896
6.657586068299915,8.20626618004243,-0.515939923637557,-4.934876831621615
-0.40799843504287736,3.7020965277592204,-5.126660073830191,-1.9137373944058567
3.3731243915947853,-4.222722937259295,-20.42069408489812,7.7181633515680055
5.471789056527923,-3.9211146490167508,-5.534416449272928,1.4473386272225994
3.0098956985815297,7.320774544677025,-1.4353502857050664,-3.720129832140465
1.045904701928038,0.35377613195388946,0.42573713549115766,6.6864498918429796
8.63684856189373,3.5018410546631102,-1.4933844226534276,-9.377009312917579
-10.040716799696067,3.492556618778206,-8.563629400900108,3.3547050068014954
-6.146638153035537,-4.740971916998408,2.4484313093508803,-6.206978025651928
1.9620056299172475,2.4732756597893655,3.1585967216765276,-12.040414508187581
0.28964488089674423,2.275275216480214,-3.010544457015083,1.95357430167428
-9.383380656992914,-3.1541203780594387,-1.329800465026242,2.5433605368496295
-5.723207548019586,2.7297499072495093,4.537996684929919,3.9095104613120313
4.220763676671105,-7.191145692877885,4.386956461386781,-2.2147019639013266
-7.823407897366488,-3.7659652872044873,-12.868130276146342,5.4663584658425535
6.196635626728424,6.985775608189325,-9.636191902552024,6.2382881344109045
-6.386944025338526,4.077075452701141,0.5540083871316561,1.597527674484013
0.043216742813983355,-4.357183499476406,5.210185581580621,2.7845960817224906
2.274304377159204,5.21626147414484,5.1894877615903745,3.0881176205091876
-2.6490542912502018,4.459791418001085,1.0457380527964553,-1.1180970158315517
-8.649770019368585,-13.911748666963799,1.6363468427563923,-4.868228856245558
2.7995152236976795,4.297150148686779,12.020280583668363,1.0513727476187356
-10.498925615380685,3.084023863813453,-13.420135321729202,3.240092411364337
-16.233939332742196,5.206097664504018,8.098294642918844,6.239672873855859
9.98371164438947,1.7114479925970407,-0.9615058604654685,6.516940167775992
-0.07185058299433944,3.1449515796427896,8.393357103918536,-0.7929835402381542
-0.4855211449470711,1.6638351210730669,-5.4592443766883285,-3.3489522426334517
6.865430241038485,5.069289321344311,4.2381067331706355,-1.0807390343356857
2.310411104727226,1.2905670861210794,8.65001743969416,6.595254516585289
4.9539955302699195,-11.539121687792086,4.946053927862398,5.744305396091285
0.2540080915502667,-5.09818341527561,-2.1983212666019014,3.7352502768283955
-6.039616058749447,7.425637039628672,0.20294816905563806,4.765622503273782
-5.054548733523291,7.4224184603830246,0.5002290629336166,2.5947204065258447
1.52636725530747,0.3467438677358494,-2.3179929926091596,1.8070790085763306
-5.476812434295487,-8.442109348873974,5.158208052459994,6.804463804812311
-6.646260415243216,-0.7404956628112913,-2.4628246216349368,6.436892397362442
4.421455470585569,0.6194974229513015,-2.066886585248991,7.008151156519972
0.814757090218273,2.7165024289807285,-8.759812402977712,9.317511326015623
-7.2087863998651915,8.822142830424077,1.2435693572329605,5.288742557115995
0.7684528055364666,8.48919546302394,2.1234239711285845,1.270051363424848
0.13088385137582348,0.8060401175141116,-5.976301348325901,-2.93628322705505
3.7427128392485036,8.76119506283161,-1.1890008536881105,3.1582585476220757
-7.272310798228183,-6.106178738255938,4.846315013646112,-1.5371518950585497
-4.1008694889462145,8.719958511504394,5.255830459796574,-15.120101853253985
1.743631538000433,3.8895911034704973,4.740847876570875,2.3928969655788386
-1.5285895194253443,-8.86412480501394,-6.30191958694687,-0.9298700134625406
-11.231581706641213,3.520321827675481,5.0391408232980375,5.917572738437091
-0.8095099073929881,-1.797937514323575,1.0038602320976615,-6.088394291943395
-0.30062119340035887,0.2418169571840778,4.884577987822791,-1.1089090155751649
-11.557614759428853,2.3997035988454485,0.8626473603080846,3.3924766254148437
-9.474309269679008,2.0674309244672457,5.352870371835223,-1.4023332500261958
-7.65526564383466,-3.0087265978689963,3.7768917669360924,5.178818981358052
5.627818810640706,-0.6445675036458987,6.627661100302351,-2.318628385510678
6.744823113369943,-6.470099230386236,3.5461039682666105,5.6342910373527495
3.0633900589077996,-7.776718006960355,-2.3174308109695083,-2.104817195684852
-0.7392843790259289,-1.2435147411538487,-3.2024414719900456,6.614169517617476
1.5467739770335247,2.569036972720564,-12.703608838256795,10.743430697642633
6.177664202900017,2.5370022270081627,-0.8351396523625745,3.603442814298404
8.73714300485834,6.171106262615133,-3.3154990401886657,-1.0640322995503482
-2.55530437146608,-3.6585318666069675,-7.447721057044372,1.2565122784354728
7.349854450593435,1.228894462040298,-12.064524958198984,-4.880552858913056
0.9061299063893604,6.194517149837008,5.977118855474739,0.9038143705772015
0.028093675444390342,7.936230457407529,3.8638278070204137,3.1782554606025606
-9.420639060230238,4.560485410808216,2.190306546514858,2.420757911358791
-1.076511793063856,0.3904920981447937,2.629089270519092,-1.206436093650197
4.058998031469302,3.6991401586609776,-8.165878091864453,-3.589705485065636
-0.6555799056663605,1.473450299491681,-3.2536812736767295,3.9379269014045875
-18.97630058830854,4.023906172180265,1.462294129758643,3.2393655156202534
0.7841797525357235,-3.8271191641937,-7.742391892865125,7.1599872216033695
2.068027546873753,2.811157122251444,7.003258662694275,0.6311489931746195
-9.318993030204673,-2.940609141541966,-4.448643215439223,-3.949227071454459
0.6811479881192206,-6.727781148011534,10.388520964535807,2.4181099339043186
-5.212673686665166,1.0638302000900524,3.673825299590707,-7.686945188198955
-12.40643351705772,-2.2460749360588146,3.9537417158671424,-7.413266618573921
-35.82848657449771,0.8082383626932952,2.9544877916320793,9.234329638353788
3.8839616570544537,8.185342643427088,3.1301986870531984,8.13120567176816
-7.730470230083638,4.783103914538007,-14.880187591940864,-5.786214365985742
-0.4982094086987363,0.9787490247541406,0.8553373533128195,3.300621952306141
-0.6980236111081308,7.181551541140962,4.748554499095679,1.6167139109627051
6.559626091757766,0.4400314982557063,7.4113009061952155,3.8996447043034657
-2.673768409841275,0.44332392715412894,-11.702383426934954,-10.740719542004484
-2.790522889474134,5.870250581880942,7.4319886908687955,-22.65976495640595
-6.8530607506025305,2.3391850346926795,7.6171928469981935,2.1918425148711904
1.1225184712501832,-3.4500063923074364,2.8739300875551415,0.37276464107851837
-17.675168555963243,-6.713332231330643,3.1321182873095843,4.571980964371704
-2.0862840839878154,-2.0663009885417374,-13.953186922807784,-0.5788705858591641
-3.0979324093403062,5.667047955303914,-1.105488401215819,-4.507662335105749
-0.03028177821463318,0.6499159818656004,3.5521500509292743,3.090725844035344
-4.8291159058068445,5.16423357461392,4.139742371904255,5.492353787121488
1.233824518478337,-0.2989016717098636,1.798860695860764,4.31972275975285
-3.822502250784621,0.3456617345895019,6.8867005142856,-6.165809266603674
6.146247301494718,3.4736759286937655,-12.309719688411537,7.172298317877857
-5.52214838463882,-6.2187228287262,7.892539390232649,5.026317783616289
2.9168096177466816,-1.0536376929726323,3.15541605380459,5.75159934575548
-1.818646454695644,1.0535116278921564,-1.0552180532090745,-13.376537543523767
0.0894733921533466,2.924867795850627,0.3636964087771304,-2.2738301069000073
2.2477002319435315,5.7621055271471775,7.489154953051919,3.338249655138071
-0.1533445595199776,1.2009250879792006,-6.689785010888588,6.56599194057107
-5.610462973679667,-1.760506735542588,5.026765610535534,-8.416868976837712
-6.1163553466403275,4.370316389623149,-1.0693834714681927,1.8019352792838603
0.7130732162416842,-5.0661521745353575,-24.221375301028235,4.617456923526255
1.82187917333086,5.056082420055958,-1.8866292081871805,-9.59965548841192
-19.64678298593874,6.026235970619279,2.871584956753022,-5.6007361952379
3.6099055861809513,-1.5962296358950425,3.8604528538277805,-8.465835128385436
-15.163125165801384,3.7672150438733034,4.757550655838756,1.9937277872857635
6.4775866834939695,-2.246414104634276,3.9372283264642007,-0.9872602526513816
-5.1599837908369945,5.270959678453721,-14.638499436922768,-9.963835639212391
3.371363278278475,6.034737077864971,-10.246325321739189,-3.544997188907942
-2.26501814859223,-11.62399355735472,1.9237296765304244,2.226565290378428
6.075367449632717,1.3867486779697202,5.442614300040734,4.09220167188866
1.9823517405270297,3.3314798474763236,-8.650602597255155,-0.45388954189377273
-8.06797012654973,5.781859429297793,-0.4505004089570157,2.019898177025155
0.30087311283654006,1.6133706379089823,-1.1368717393976375,-3.2986596244609387
1.2424567399929134,0.5286955394400685,6.592951227136211,3.3158562134580833
-0.4877767762705365,1.7434269187893392,3.0422321530058163,-0.5453823547193224
0.5964855177847941,3.677493559973115,4.651671658136127,3.0661646214368474
2.7056302309730236,0.7729555183885033,-1.8442368157500617,-4.932714144301869
-2.4981184539356813,4.59197964767673,7.652099314105438,-2.2322216881624115
7.804969772537932,-2.080355945953958,10.23960048915949,1.2603561225363933
0.9538850593596266,2.688973554578169,0.8729395990256066,7.777836631444629
3.793336285987709,3.6020493411978336,-3.2181111637180884,-11.225865391128465
5.932744264183981,4.9154034494154075,4.5720981947840045,-3.3625252316984913
3.05982158204655,0.2861162919516289,-3.8937944281065633,1.1087712399425698
4.123539917370259,-3.4299557815374015,1.7588145497917154,-13.457270715711118
5.656517352211555,5.409951854883868,4.96678997878135,5.568460088126315
-5.138174666528922,8.05083051599296,4.8671193997901305,9.867791614331558
8.637981742534196,2.213464400842579,0.5937822343542081,-1.7326233158252293
-0.9775473673002835,-0.45082827049560237,-17.833215004718877,4.363231052146769
-1.7176319461577823,-23.012889498077786,3.635135891573409,1.3321469193096291
6.570183840720359,3.613580710210684,2.8427852431439256,0.3935012987634039
-3.0329544724699136,5.676469708283459,5.431152983169824,0.917545940479485
-5.328584376075126,6.172021541367673,1.1100709977138337,-4.320756605635275
1.2516930261836998,1.143185990661486,-3.5110266276283646,5.645572726910558
0.1933421182650119,3.452137072650327,-13.714339233250886,2.8773269988957786
2.42644524136772,-1.3425430623317105,0.38493848480165127,-5.7071445161351875
4.9109732755203,11.65877018857837,-2.2332467013418906,0.36154716741631177
-2.208102259651936,-1.1665420086591993,5.969533673688499,2.2108065067080354
-8.07404892702227,-8.415162495856126,-0.05452019781165163,2.3064159298362803
5.824125742049041,-6.980032588119226,4.4890395275805055,-3.876396379036933
7.640634771787415,1.8947674596071025,3.5199643683318733,1.3110272100359417
6.786292705831727,4.59468070655543,0.9447495053576063,-4.758417847997748
1.7380636304235413,0.6905889871198845,-3.1097836945881987,3.7769126611790433
4.9697356775245805,-1.9643930628865327,6.695296089643687,3.194802667899726
-3.3593509849388474,-0.7699470274794074,5.8607926015806235,2.9356978646807406
-4.255159469562107,-0.8709446256365716,-6.014081873981805,7.63400555230799
5.43301318081353,-4.35682987339915,6.3133832790407745,2.8346134229916977
1.4729839352644172,0.2499109721688626,4.884613274784375,-7.139441579229938
-13.673998000397399,4.700462174918851,-1.288958627714866,-5.206223360980232
2.4459807602433927,6.368619847411878,-23.134508203123264,-4.016809663027203
3.2467809094962057,-6.144177626108256,-1.8443509332395642,4.126144110803423
5.039463698580253,7.184412346727225,-3.85607318515412,1.549594448419647
-1.1418010411712456,9.017206396898398,-5.861141765490725,-12.612692544828448
4.807021682969843,0.35546586637500255,-7.2430403667818375,5.195725482502837
3.8889476665661222,3.127199499776051,-10.073126118460348,-3.1425359981510184
2.3046956727052423,4.113219079730445,-7.991128804037299,-1.0024117380032251
2.525364082118376,1.9729760039230513,3.1566428537329365,1.5858862128362752
-8.822425505840023,-12.436472694919562,-0.04164063956747199,-8.212637222791471
1.899373756487301,1.3292819310639956,4.449763312126549,6.570099401477357
-0.17792148780615635,6.042152181152467,-1.49587804342465,-10.201291712258623
-0.11793994267092467,-3.675800995899518,-0.48486553081669825,6.723184747765
5.078201967755052,3.2310702459192875,1.301720909845283,8.412639784084408
2.946244309661285,3.8438354856811863,-0.16760113224340856,3.3470789086993626
4.407511195759652,-6.26722446269461,3.015129667900471,2.350795629743267
1.280990378385483,3.0626050793153006,2.8716458954023665,-4.135437357491099
-1.3541023082734411,0.5267774562930612,-3.081375512874711,-0.01360549887854745
2.0272580208305584,-1.4281064476465701,8.057835739278996,-3.3351807016012813
4.9969094829720975,0.6834076148190533,-0.8699250539703804,0.9271724460859119
6.110172513564981,-5.224761249288488,-0.47667971291729216,-13.374392889109664
-0.20359383403198583,8.16734684798223,5.847350814923779,3.4316954308889116
2.1847321983188555,1.4332546390662202,4.778212131245283,4.55647426308272
4.158721609163676,3.2230735489257647,7.2470999891455925,4.599949228718202
2.9838304522465835,4.46064590913188,-3.8351528846941143,-2.8762437525503515
7.592877458980492,7.484705878687947,8.2516652811095,5.02446430103722
4.753766708698853,-2.554249639411683,8.910310137845133,0.6524836429597514
-3.438432408310024,3.5146103327739304,6.024822302042367,1.8761569667115765
1.495054838545934,0.7603644862507863,-27.266350251431664,5.159193933291135
-7.790920106203872,4.108795219198736,4.14219395418101,0.39487850036357486
4.501367572160449,1.241210058114742,-2.310264235988061,-3.8674575798382307
-3.244505249513303,5.77956617823358,8.711622606992862,-1.3259076435078825
3.3774933148261397,4.815756099166357,-2.6424279587476924,0.40487586619394733
-7.364761145826259,3.243083939680826,-8.745130137072163,7.038814963265935
4.982788481705191,4.256615356523955,-0.10751820895749731,6.976244728883259
2.655471246556509,-11.05336053129238,-0.9548958629949951,5.287334649228214
-0.17284557464888461,0.7602594021477067,3.5654666201400076,3.736029298884038
-7.080400707268641,5.350421765671957,-2.804872614783516,8.552938096195334
4.377499226450034,6.360142530601681,8.632773314957596,3.8530927126341368
3.5870873819967346,-4.3427772484079945,-1.7429004401134058,-0.004096237162386274
3.773625452044776,-10.057814105662874,3.108022427353138,5.398693316967698
4.693103440661753,1.1711321311123761,0.5069896090052843,-3.1919007805270496
-6.175763305567301,12.217408184502666,-8.548982246491097,1.496727170536829
5.459908115420015,8.22028004652162,6.305355468720343,1.9515939267413032
2.6170041187698,4.631442214202188,1.9453768851198454,4.875996908282996
4.1811189276108145,-2.93217513753682,-9.799330782286635,-3.9051641150606216
-1.8536092515376228,4.839101970092727,7.320098090932223,3.9673522499273055
-1.3256400105795811,-9.329871575588339,2.6968356447206325,-14.522878797459583
-1.2539910879769707,7.352842176795562,-1.1301343823073715,4.194772871357287
5.276265956564204,5.645199404514912,2.3492819013706487,-2.214346029862874
8.217328708931067,-0.8570815848615574,-7.690816157739636,-6.371553824650604
6.116127212695067,-2.370313798777474,4.755241110772275,4.683107859075712
0.35676305571942124,3.5835833026244757,-1.5697779402360688,3.698900642297154
3.068710571577003,-0.74442695447161,8.752099556759067,-4.219073531380715
9.063601529712498,0.43136091831005885,-0.08958529238854851,-15.078107987581802
-13.775812944396616,4.501194009126198,-4.710123328497257,-5.477616794704659
2.4197708530610407,-2.0273096785467786,3.3661388673903154,3.563427167857924
0.13710682951994246,5.476461239224275,2.558883650628335,4.523831487549735
2.4263990289391852,5.420378732713775,4.299629265636973,3.687283426813778
5.71398126126482,1.9841390312643732,-2.831541674981704,1.356826904404393
6.9768365526106955,0.9068992743956912,5.278320879889602,1.856237769442746
1.340382616105689,6.35629556919449,6.200167980165883,6.362869704524282
6.459288708306717,7.259046189906915,-1.1069423155545195,-3.4860551534510478
-6.522512942201866,0.28224457838244277,6.202814014445103,5.012633177219868
-2.2249425851583147,2.7254593020912985,-1.1714634731815288,-0.5928295307320255
-22.924969370449126,1.17119068547769,6.322802698097778,4.832765495092453
1.7010124174109986,9.286346636737399,-6.97500242113782,2.9776133853663715
1.939207354057342,6.488224955645627,-3.793592660362716,0.15576065029735275
-1.1816700657232189,-9.376651526242153,2.62877523315089,-2.3258972080261273
-12.245193375920364,4.733124085856172,2.579954202553555,4.735700663719882
2.882043442042982,-1.7697672683063672,7.655359092037166,4.619616080702727
-6.472550327552236,-2.474202989371175,2.574296234900178,2.3308449560742446
-7.614478796658684,6.2206729935890195,1.417638422252839,4.988528428346552
-3.2602709537519936,-2.0224448922932226,4.9081408837169285,5.333132566124412
-7.479607665174592,7.806432417752674,2.4269415805181858,0.9353622251285074
2.825518101754142,-2.5121852337920565,2.7887177465613533,1.3894890617975513
-8.281827982096344,2.556429299553262,-0.3609899521828943,0.6857889980654477
-11.417412283110163,-4.725547445734222,-11.574090077747055,-10.96716774103323
-6.918260183726288,4.330103505284235,1.8692487668981954,-4.770415292530018
3.6847620582339258,-0.2733518894513658,-5.3916878533505574,1.3034519833848428
0.150654709803548,3.7465167064556333,-14.270550686173525,1.4975908820404413
5.000327999035841,1.8330257247369381,9.299792346362803,-12.430938127577036
0.13011418610902226,8.989559424644025,1.003277514345907,1.075228675042915
-0.12347317950369874,-2.5190093216677027,6.68468906178725,0.031892762952907106
-4.568873316522419,5.332971216335682,2.960744311669309,-11.61866322355251
6.966178222067288,0.12440496841250948,-11.514976831509099,4.765160392902182
-10.199058606753386,-1.0308469037700831,2.720671553167268,-8.810524232734153
3.3370779053628787,3.9988189965463192,1.3209160192968419,-18.81666071097448
-6.911694773188451,-5.1517159370018,0.18480704944696313,3.8248399612665693
2.929144650507566,-0.5520405904520551,1.1577270151639034,0.18810304555698565
6.277913289183109,-6.224559463017485,-14.353084381783145,3.1278701736990726
2.8906306598897764,-9.570363632351839,0.8175577689583271,5.435220742439462
-10.58697345461445,2.767817841818104,-4.55045554257153,2.6822414906190843
4.7005189969418595,-4.521912789265979,-3.5867485185462122,2.073092166757654
6.114707712344503,3.139860216448845,1.4006644683007998,3.907014726551939
-14.52125209332979,8.17767067100905,-3.3502012323217336,-2.0142196512477
-9.134450212342285,1.5635522565077515,2.408996701550887,3.060514083620113
3.746434905681057,-2.248664976931554,8.25158882622194,-3.3656001891779113
2.6913462998640014,0.7142303514222483,-2.8362632357614608,4.9184308214626355
-0.1075084243716713,3.3079071469847072,0.5776556074467791,3.422419472165867
5.165401658044427,-0.5428753346478139,-6.82490328292025,1.18718641753037
5.746865222162562,-3.251258129176641,-1.5916067903138646,5.142122717670347
6.59768462491402,-7.305639326138024,4.5912314494681965,10.711884174877682
3.6076764480193564,2.8128005484014587,5.57574439835663,-2.3142942514553795
-1.514472612485902,4.32315732593181,-18.71330166132552,-1.4098104621236587
-4.914082655120552,1.201746547884408,0.09835130658090208,4.44032040567555
-15.633814260981483,-3.5233137414482734,-6.8059453240753065,-4.3083555167361425
3.842887340483042,-4.870258030947564,2.822657446571622,5.194426348225328
3.539746805482192,-10.1500965574706,0.5985162060813636,8.593552019395368
-13.570547385366105,0.8831017111573125,-11.336897909150647,4.109409668897353
-7.582755953351706,0.2002358782537783,5.674685576601465,-0.29402966302696143
0.11199002755900667,6.252259595588708,-4.7211171723542655,7.645795281459055
-7.323382448132216,4.799092068934282,-17.92465303656957,-1.919045446682773
9.968759778656214,-2.0346751270662544,2.9500191327498406,4.251536693377911
2.6430659280249906,-2.4768056529615734,-0.10217285083070138,-3.194237857449785
2.871987498365969,0.3301566010608461,-13.077556301626704,6.949841459162695
2.858927857659989,1.3542210967970796,-8.807998859662359,-7.185156025983986
-8.549830125916854,7.0705431657001725,1.719829902953638,-5.274794829314445
3.8916633579543456,-3.207239749375507,1.3416308250428166,-6.903323853293266
5.59296804759772,7.2298071328954805,-5.667039272667953,5.095984627621057
2.13218649534883,-3.4444879689720587,7.350496732059806,-0.5222581783099116
2.5914419587780184,-2.008912206526812,0.7947394833438999,2.5953242983210316
-4.870740145718182,9.621176935270569,-2.1613220123503076,9.319989332918468
-7.146169286066511,3.6414874176936998,-6.515322511605202,-6.541519281457994
1.0173554785530659,-3.2580637126074485,1.010102268554224,6.183979944943662
3.2787879448161146,4.725824811909579,2.5499065501680356,4.527793149899718
4.863908632225543,1.8419698821049515,5.11415957716045,-1.0955984564570187
4.500337664871127,6.431307526111027,-0.7527464332118257,-5.353268833097957
2.0251203369850694,-25.97523886608195,0.8047771812465143,10.455921430914856
-7.484935337661103,-1.245647764789755,4.65165268246481,3.146130304721428
-1.0684010467414486,-4.738941055265148,-5.491151037037458,0.7649530404307257
-0.3085808863217592,2.379666756016878,3.056991387056595,-9.786443650741717
4.992125830500224,-7.910609762240011,1.6454040912628756,-1.899585853503524
-3.7005186923608284,-6.61248366844757,3.304167810499127,-6.2800042266957234
-0.4734056636846171,4.02409171502903,-1.0028288496538913,0.10785208664475476
-1.2897041285830366,-3.507468294079075,0.889267697826206,1.9535215780306103
0.8649106236902144,-7.788710401548432,3.5387667010460753,-6.3194983635986475
3.724093591758382,0.5915299930397708,4.720570348411659,-0.006254440329456656
-9.907655913670368,2.946672477398394,10.070869317558824,1.3935184571611252
5.395503392519318,6.171289301998868,-6.4586338428079095,3.905533782528405
0.5114163187637366,-13.247981630731442,8.31909657489448,0.9180146734671553
-7.291742940891336,-20.36531608415986,-6.259203423076091,-5.527605286657057
1.3609847239414556,-4.583985499427566,-18.402382571556853,4.092530679283016
3.932063982642191,-3.2972684887780908,-3.3580517939164913,7.089256027353954
0.5002854222566195,-4.4096771990426795,6.890538759643288,4.620632186000201
3.2739488244970696,-0.92801603516779,-0.831719624312182,-11.246768641047893
6.24906031574093,-34.816374686749995,-11.593086449588089,-1.2577210194392947
7.777431394030149,-2.2067613285944425,-1.773404420584395,4.1492237264360625
1.0571109053660968,-0.18422842214781454,-0.8035569760046286,3.4181876039647143
1.2303315576750047,6.597794287764415,4.154076094721475,6.537497492828404
-17.903518203913663,0.6176226289576832,-5.371516497693367,1.1261413116717094
2.3815253827367497,5.551360179927823,3.47838364936122,-5.172859864787689
-0.6994040938889441,-2.972292164814071,2.7203969135656862,4.676399766668858
0.5610577638282246,0.25052919446601507,0.9609509780454282,-8.616353867161408
-13.72877053893084,4.4461387629678235,3.463112532819654,2.7092475555341764
-5.576060323043581,-1.1230713059983408,-0.8392675440135839,4.598124169634314
-14.415149713052047,6.0369464425089525,-0.7316677308276098,-14.496020945767668
-22.65283868544971,4.384095564159171,1.3167512594392754,3.8092047203208175
-1.5386425702345177,-3.0118792810243527,5.989909441444752,-7.605005398227497
-6.505585713682562,7.071759456310282,7.500698989077943,3.639565765348813
-1.3652425625680258,9.369600617767897,3.7599052305689753,1.954512058461134
-4.755232249202754,-1.629569568211835,-5.456663781127499,-1.2985107223936723
0.7660956048864229,4.604729604057717,6.416768751002746,8.203578180584579
2.794695835268675,-2.2690640160322673,3.0150084411907123,0.5927349332520393
4.592719626315918,2.9344045136016597,2.170437880430594,1.956410905019304
2.9675524873452126,-6.162646031937047,7.190695712903128,-6.211262970471978
4.2731466582671285,3.5143758421685014,-0.9228567376544845,9.757515389428601
0.9412283898381528,-1.0120737106892967,-8.46070015423378,-3.860088529946445
3.972162166632469,2.63992208528618,6.977693735494018,-6.8598722461465655
1.972322308790938,8.483669543276118,-7.936297607815728,-0.33671382299899477
-0.38498314156432656,-8.659642149780428,5.593282959414431,0.13089143700410943
5.559888286354067,-2.834503381078658,4.073898810942016,5.1411504137882815
3.757525434720161,9.723406036656991,-3.689905155779247,4.668639287505368
-2.8599723530004515,-1.3886686498501888,2.6032663168400774,-14.205000400472649
2.405879225000228,4.320917872822893,8.669513235966694,-13.631772966270802
6.080713419233728,-6.20488121761559,2.851327392039707,-1.3661531838351593
1.2484268376439902,0.6316621005772554,1.4796669199530719,-1.6924295414847137
-4.260178819744624,-4.556970870095771,-0.8631117160377961,-1.659039495333161
-6.306490834143887,1.445149347950938,5.2824190455557485,6.8543047875574
-1.0139926215939732,-4.270287652901946,-10.391390227530128,-3.0350217715333727
-5.051680480913678,2.324230711141457,-4.673941795451821,3.1125742656565905
0.9411515960569132,-6.645206447970995,5.111221178902493,0.4239878709601612
-2.1790645658735124,0.5571276583499234,5.885989596080606,10.021685311563669
1.794008093468353,3.714191711064746,-6.976409834948793,10.558082845668814
3.9571050589180583,-0.2800139606484464,6.3287024343064395,-0.3580788626933753
0.6546106002027761,-3.182236203177606,1.871062354104442,-5.469636591966676
-10.55936493862375,5.316952287337802,1.587377322616561,-0.16647728710606202
-5.485790351411165,1.3431175297081452,5.543534484470978,0.8946245170480722
0.5015873962687178,4.094776458155778,3.7426691946064246,0.04634167403681033
1.6885100028868472,8.803851947122492,6.811152681123499,-15.03773511375396
-4.952071849801982,-5.706677591004119,-5.985333081817455,4.303623282125837
1.180948140832315,-0.07369103172376867,-3.7385280061538104,-3.771486887822512
1.2430814986645111,-1.4034876836408579,-2.2083364202978295,1.7806471428689008
-7.248670026615482,7.070716972240003,-0.7375852085656618,3.4374825077100972
4.018229689160766,1.074883406065755,2.9328474431170406,-0.3226704089343144
1.1918032610801519,2.4697523975435907,1.6799573677942483,1.5696280792460477
1.2437801913259998,6.1922566698574855,1.3234444809721637,4.622022203103089
-0.3033903757621075,3.929419909039492,2.7792749182231127,2.147892534869115
0.6184279563861337,2.0027851580568097,6.850788829994659,7.2939899041434835
-19.18635717424562,3.545740903506431,7.301090517123864,3.523080233797792
5.603328128053663,-6.498075447165824,3.848419305830557,1.5101853562438912
-2.8687688021619793,-13.127933598731008,-14.221589846909449,-2.1294817223074602
-0.943645397172872,1.8405740436442706,5.821807667995177,-5.358048499131286
-0.4409695494410655,1.0493008294493507,0.47523523931052125,6.593204412172504
-2.154316822728718,-11.435874592423719,4.615226123151668,-2.163368785002099
6.934028343972544,-0.7788908277842523,1.0417114093485935,11.762668714599716
-3.347019950560967,7.152755059738492,1.9419828635452525,1.7879976675956293
-5.3007672457290855,5.3566908484401665,0.16802236969613915,-6.0101706790795575
-5.265410950284679,-0.8132355953848105,7.790515902926206,8.32234464431071
-22.5925527064034,0.9293436579866494,3.516006002782781,-3.065423535860333
-6.430424672460386,7.282321910336105,2.198649338481843,-2.225404630099817
3.4981019587665285,5.320397240134064,0.5822472866744413,4.316556563095929
-3.8045859693389033,-2.7199605915718017,2.2578641785110634,0.7809106543430318
2.846650897875941,1.7731654783438096,7.070258661555883,1.3102455115181328
5.060639002764253,1.6039997431221593,4.966202684913366,-1.4251737448285127
-8.145249094765543,7.770564501152773,2.499476768899651,1.8474891761434051
1.152856125874078,-3.0861780843777673,3.2051874698115235,4.360539971793671
-9.633792365205473,-13.502576362279004,3.7450161514715425,3.13020990510579
-11.305358891900436,9.53204253525058,3.3543952790101095,9.061510206957287
9.500916055537845,1.009441080571694,-6.351644200796233,0.8722159892403099
2.193696536483513,1.1769507242146915,2.2943625437830484,-2.6945422031341195
-1.2616616584937903,6.431909650582792,-13.117877982238479,-3.274525618435945
-13.12363014877331,8.960893905478098,-3.205274765214444,2.587083518098286
-6.413180965449433,6.1296749348570145,2.7027746276265034,0.5388785215268896
-5.463635252864993,6.4979915390361604,6.33950890415527,4.269680661242358
-2.8346459576742915,3.3238257864799756,7.152881083585907,4.203112359943056
4.712216461161077,4.309233678401849,-8.397636592349404,1.081551260322371
0.4673150612556629,-0.9602849545053438,3.2543929486536527,1.7437449240372516
-10.663078879296572,-2.7073460278025827,3.4910725763419883,4.191008770930125
-3.321092768830194,-5.655178541090677,1.4004654015093259,2.8272140079623895
-1.3614682647380096,-1.1172477988296308,2.2631637541112717,7.742014867315589
0.8922175272374324,-4.1982028127688125,7.4280850222794115,7.593812022202059
-6.442206977277122,-7.718472743987103,2.5530470416256783,1.9047897044642532
4.2306382535511275,6.513280727840652,3.4646815145736944,2.0545610339194447
-2.8727197300774505,-1.1088125779567015,-0.6929306732823903,5.067766857889332
-5.60403727321753,0.9047128395606947,-2.6872095522439814,-1.0103057400382554
1.9239004160158375,1.785202783333144,-7.550210216192664,2.210845693445254
5.574767159495243,-2.7060516436075623,6.653185347565522,-1.4434960646097608
-1.4135919471257883,-9.846580620110817,-1.7332824071637027,4.22895292045316
1.787597677526233,3.933109994119377,-0.5077685506885068,5.481191069668256
3.1114820056255375,2.2440570318666637,3.8902209398756185,7.359235217863127
4.286929176873972,-0.6741287911566474,-2.2759065931980444,-5.240715814312601
3.399745721750565,7.848921945330098,9.907993241453944,8.690892462300617
-0.491522539902741,-14.298558077486089,-2.658603314985509,1.044741221934757
-1.510283871826676,0.22462301078544655,-2.408409335651399,3.8118397737019336
8.207005338477067,7.090335914875016,2.781172981609192,5.852566718748463
4.301394177029975,-2.8117526305336895,-13.12735332692331,9.645035463703724
8.767523649046359,7.042642113668013,6.470970955994737,2.575188072559243
2.837700399410773,5.315582192152508,7.348380640815172,1.445285837291216
1.8377465737057463,0.35601838391493956,5.670485644544005,-4.6909311498326645
-8.061930042413863,0.7394358211073389,-5.4604076803715,2.231213440117088
4.488664231932267,1.7835517749313823,6.596079259924274,-7.229495983505473
-9.676361603190264,-4.023058203763728,-1.2362429936099417,-0.44058597813987177
-3.185876311590373,-1.2243443592212238,2.3256401108617446,0.5467012368420754
5.313435781871155,1.5176657351666982,2.6363230505446005,1.1338090879001612
-0.9925052314252869,-1.3144619927062742,-3.3414856795647303,-2.6932503149387372
3.60004705014156,-2.845184289390698,-11.115298932708232,0.7543418173174956
-12.830877634549912,0.2511347350576649,-11.451104917252696,4.632362223147791
0.5501049127749613,-6.183227438581387,-8.849923998295512,3.7269294847774894
0.6132941976786657,-1.6717140511482746,8.193885739854093,3.9334438934234512
4.120962853873184,1.0577616398930623,-7.584012409534385,-6.107445853426398
-0.519243546997596,-4.336599961228568,5.9900346116904295,0.7922211112356905
-4.365853002198158,2.4438553591976273,-4.434794140244346,-7.027817000047698
-0.7817825953613324,3.131505046287259,3.2396947147696835,9.716554126886578
-3.967832214314552,3.9830915974000547,7.322954847337506,-7.279162433041115
-0.9943541431619738,2.215213606037125,4.2223004942287545,9.48455424570757
2.4163990439661753,1.1990467819449222,-6.215964304997204,-6.372255934901595
3.819824682702914,-5.021326145868386,-2.2390149889915953,2.7293953868875356
-4.7182712032367,-11.633625227296395,3.147746882181341,11.029081447461795
-4.464352063007057,2.3451818388795083,4.8941590254259495,-5.892554755563097
5.946716972189462,-2.6446219782149036,-6.109590464917385,3.7018657168280207
7.864798474871442,8.811643095205767,-2.6568992993672147,3.9717187285449285
1.7565444237184482,3.861537281758892,-7.981162452628158,-2.703621777520624
0.6862300706601494,6.098951787555205,-4.055141300124735,0.23754751277978414
-4.50890182512887,0.7951272801340004,-3.0067563150557497,7.15113550062701
0.46858057150607624,0.12140521113147074,8.528470367833602,-4.3485138332668996
-7.80071975595401,0.5837782520931007,3.9409584164918243,1.5788009679512456
-1.7795951701020898,4.377965621120229,2.0445237932133757,1.143237950780481
4.438742800255929,5.349916492581102,4.485864714222622,4.5812556722340005
-7.531468533220082,2.4682467081107085,6.951556190126585,1.9427367382203613
-1.2508761224062939,-7.758077418156642,10.095373579231183,2.2541122768548902
-0.5758441771804099,-0.8377476919234788,3.834728107883638,4.922754695075579
-14.934378970568984,11.11492136420829,0.8957304634727414,-18.576482464340693
3.4771518457132524,3.1643424143702283,8.354588897341934,6.272613177838483
-9.834888209599038,2.8789555266370677,4.653703359899158,10.336164690890222
-8.695504039967545,8.928077859256515,0.5717615237683127,0.35937923498884317
0.14429562785563466,-6.287063815945139,1.0541528676720908,2.4793218796130994
-5.420598560114659,-6.503339059701439,3.8818446702996816,-3.115352457878906
1.035381732059898,8.0538979511884,3.803543774995898,5.917211729701794
1.5935558890290782,-3.332797839496809,9.20208072709432,-12.353467407046175
3.276413942590139,-3.1635577346988306,2.3448985656739723,2.249874088791916
-2.4601301753370195,8.498101286029542,8.43831062871601,3.4579775524775904
4.684975098341116,5.930868258396522,-3.6005873571130174,3.4564242625233135
0.25317317283329843,4.018897681903372,-11.994155728952048,1.9188933923170772
4.036061340934961,-2.6119324484196262,5.692652107764573,0.7395402736851935
2.6486664472736674,1.3786986872058442,-0.9862677039352619,5.629226017012694
-5.706413702020276,-1.880003077088137,-7.134562412562413,4.2047658054673605
-2.0646842586611425,5.4714203792720895,8.533992043070366,7.058584705880559
5.316043430946014,8.944964077993749,5.690819057783283,-0.6221595973795644
7.495844358334187,-4.6494020966210385,4.429630362543122,3.0502556580838416
0.53776306493814,-9.387941045484343,6.928060891804012,-3.353668249680787
-1.6945667475277366,1.2565516273933746,7.29040844595837,-3.417839734417271
7.198039581283407,0.9398826726067391,3.082700108141868,3.615403706444283
6.75096375033735,-0.3239699696500189,5.282540334350106,-1.227219769605
-5.19933552409735,-2.984088233020554,-6.658587524726197,3.2108586171083786
-7.111655507263972,6.437883618309748,-2.8551340324723036,8.70664903492473
4.0034490832801275,-5.93862191125487,-6.701587938225661,8.872501699274896
3.2383343443514883,-6.203834618741173,3.5926835175764573,9.276388270749166
-0.49110687448866,0.4633536487738432,0.4789026228714235,-8.019031085937698
5.533924660310486,-0.21120459960586757,-2.453101015436694,-3.0532157704395715
-3.5216582257276694,0.04381156764525329,-2.5030205585736454,4.072978838385815
-4.7028666238456385,6.580239174226843,-3.5840930982988546,5.041016555051282
-0.40140962351983145,2.1194789804028744,0.4430766612848309,4.733644479914808
2.7601944442071265,5.134599631269399,-4.1887947658937925,-4.032873327874178
-4.197560759556925,5.709823256587367,3.896726136768656,-3.5918452252176323
1.4841148391414216,-2.063922210900458,-4.212692456506883,4.230613827274169
6.147161007589,-6.250621860450533,-4.335526964253223,-5.943511948806744
-0.5711155863027475,5.102996030577128,-4.8907714300268275,-5.028685443771707
-2.4116429318777493,2.407717296907414,4.7993383020179685,5.637947472486367
2.092948132826873,-4.0945676853635575,-3.2312573953302355,6.797227988483122
2.291736467851685,1.6270354035011145,5.996278169548862,4.974928693781518
4.460698713551688,-0.6978606505493801,-2.5372017911922704,4.595677070345541
-13.172417633456838,-8.072580845713066,2.012089741585495,0.2666867195274847
5.2037177204885845,7.082873053361318,-0.9849533575724898,-6.9802146902464415
-0.46502031560125934,-7.523650943471072,3.4374876598010786,-0.1736313070105453
4.138274952963901,6.449422192691074,7.189735211757522,-0.8623523767226047
-2.47483013547255,-4.756742981810948,-2.5015939099029403,-6.728109344381181
-0.37938382784376623,-6.376474259426892,4.3423181962201305,7.010085482166453
3.940511146517496,-5.31214591033115,-2.1360770267980342,7.074606416465613
3.090314607347865,-16.360643275844136,5.025546549920758,-1.3166725692079382
-1.4379655988280908,-0.027223843338671116,0.8424387323697928,4.185097460099897
5.131677009594918,4.571849561676171,-1.6562979655032741,4.600778454019537
3.597763511138706,2.916272090170832,-14.866281052768247,4.693042069344941
-8.876375064246714,0.5940679476515278,3.0246236471008636,2.788899923640823
-0.4214270147238808,1.745639389596402,-3.418718518018647,1.7528204244884904
4.175146043617605,1.7031277451204403,-0.8654059630682482,-0.59662425329185
3.205810533570544,2.6244964498496692,1.698086754718215,-4.670589332050653
-2.476844398526753,5.817580730296015,-1.0063805695105899,6.31753466220815
1.1077323357348385,8.052709971267308,-10.578400653345046,-3.181294069702389
4.617881458732393,3.404702968193046,2.7937125257764173,2.496714745975609
2.214556381773011,4.255465298596665,-8.923493932156223,5.161250691971247
-6.007772491590099,3.305261202768648,-7.367208469391944,3.754968158366907
5.066333106495858,-3.1505318228546813,6.090852116345477,3.8003732460570845
6.857582257396501,-5.855900199932581,3.6621680659909153,-22.643612820033674
6.1207814264620435,7.172278640691037,-5.91510029558135,0.6506484414066378
-0.40590250886533985,-1.5940162197474272,-3.950267575395639,-0.9437326141331184
0.9386339550415785,3.3565246610465387,5.910391975254903,2.3742467797015863
-0.28091582966826767,3.6281971268225597,-13.104488200977361,4.969594087862951
-3.6425056534979627,-1.1292816682848148,-6.07314767557968,-1.615139473764117
-3.266659747005501,6.863099335078072,5.5329988308619065,3.9812857041374556
-26.874594341004396,-2.738463669373509,3.9931095234257086,1.5457061415998297
-10.312225736923056,3.307064919863066,-1.9970863548010485,4.928402106681762
-4.717382187305168,3.0273296520206934,4.127323678625654,-2.430715473402394
3.426977258839139,-2.0248665576328726,-19.656002509568953,2.5665400149554287
2.246862789156723,-7.94589237809431,3.961744318120683,-6.82568445586962
5.843068384100684,-2.216612888634085,4.262297679901668,-11.626595305501809
-8.461071058515714,0.01816791495360448,2.122658859764094,-5.1154210541415495
0.9746334500365783,4.154213977817911,4.7320869102583565,1.2717153944986066
2.5829768483771893,-2.338688134940437,-2.034584781611205,-4.899724619030636
1.8486614619270867,-3.830768420488514,3.4807949137208603,3.2758236122427924
0.8975660977796982,-2.658743003846727,1.5076984669288827,-7.814642882135544
3.69739172308662,7.760704332827643,-13.625389094254391,3.840192253577186
1.5945009422226262,-1.431624239255985,3.9554870231651087,4.178546363416729
1.939711471309458,-3.961948577659822,-5.495048991236946,-2.4374115181069698
0.5342256271534283,0.170260047616825,0.7622056607850141,7.929770336403877
0.44031051133427557,2.060421355870382,4.480325267761568,-3.880739074551343
2.8681783208064475,3.316497465065602,-2.1753209104843982,-4.387014995776951
4.290879707969184,4.814798012474572,3.9139064146558447,6.194740929465873
2.967316728540875,3.3807298561288555,0.6708600207984574,6.216885484380715
-8.801942553089157,-0.2892349038064914,-1.9325671232801902,1.2357297837807728
5.4006742676716915,-0.5069196150397381,5.518802854702919,3.3927946798923543
-7.197981259910664,1.5587969209085983,-13.008290117639053,1.019453839325962
0.12055307368949997,-5.287507360493933,0.7441278591559843,-4.494649204114047
-8.185520661087555,0.8039282912429542,8.491458479360727,-5.96362123300883
-5.039924379440288,0.8399898644745925,0.3361591152914407,8.335294783851122
0.4280213566135658,5.71939363644519,-3.424377345725741,3.431686665056887
0.33338697821523966,-8.387089925232555,2.7053910877148546,-4.533687297607351
-2.3066302363600104,4.92511440949426,7.292593529966872,2.82048252513016
-6.671070226452301,3.031832158476277,7.970540021186466,-5.2320623896861775
-0.03502890094465183,-1.9415057094730592,-2.668014124543138,0.828664286532188
3.4403440846339084,-0.6990826245924211,1.3090824225731836,6.904989252881169
6.519951864586572,3.314169389912106,3.4244753174375653,-5.816772329099898
-2.4441862049485734,1.59080582375395,11.714124267452402,2.487501126523515
-7.363714001003437,0.46324593038722384,-0.7232123613218242,-3.329736344912348
-2.205537618946598,0.4372802480138347,3.8330981208786277,-1.6072328580087571
-1.1706973748664624,1.864712265281426,6.020753240627133,-8.968123209641476
6.931949269185813,10.282304377929801,6.355882898945502,9.396603285439074
1.1663801912380591,3.935166446125262,2.4396962854746995,7.733065133508912
0.03373483412390543,6.482354252544912,3.147061921530451,1.828648083302859
5.054238769038449,-0.4584643922699385,6.026171246470362,-1.1068380163943772
7.885506820639758,-2.16072375768098,5.753749578616048,-5.4710619017658715
-8.734999710834956,-6.609818951975935,3.1501365894193825,7.182433339579067
-0.7556369267308738,6.0451463008488595,0.6841614529888993,-8.618751924574717
-1.1053475791647887,-1.2296915112636917,0.9323052579403885,-0.1063995333129597
-4.537501740573116,0.03276832927045703,5.619923119265671,3.208836610813819
0.8396506866963624,-9.685464617504838,1.2944929363406459,-13.593689906724713
2.8972758880000073,-5.932838692938596,1.9230610782255901,-5.324745937239278
-12.388228070593925,-5.005484068227059,-0.4469541621700799,2.6225108389193394
1.5258365908990585,-4.8518250720590785,-3.8605192613315857,1.4029581520883738
6.0510755433726136,0.5629042095683694,3.195934284642231,-8.54020658821733
-0.5643217830936056,5.979664918909027,7.492780879522776,-1.7405655640885058
-2.821067899713604,3.567780833281315,-0.20126346291501562,0.09878107329274144
1.6941699982760632,3.921926387064225,-1.3171226635125528,4.327229905773905
11.515957412867232,4.562086037714952,6.817689309943326,2.8291206614597044
-0.23778958096106573,-6.3383652330218965,3.5093306796018275,-9.127678832132197
2.383565149241409,-5.948951293629484,-5.387985859761965,1.5890527031463257
-2.5122533397525015,-2.0196246299615233,-3.026826713951575,-1.5525849472190458
-2.5156312636709557,-7.392992334292597,5.902988120418215,-6.97914346771546
-2.8761327854522274,-8.338846485660444,-0.8132723318351474,4.734184741699494
-1.8320893005997592,6.262507659876967,1.6240526996521076,4.016727799999497
0.4676182447166859,-10.51885252419061,-3.7225650776395334,3.9613324325368033
-4.263827303257207,-16.734708332598483,-5.214893947781082,2.444680269346197
0.3184528181722426,-5.8642020914298065,-1.0769121263471497,-11.975286862049927
-6.730604853467378,-0.10863931176113084,1.7236371340643046,5.355818266039673
-1.1445050761660127,-1.5205829541222151,4.638585100827601,8.445938653700104
3.5932164480509727,1.889836723869493,4.036247566223054,8.347963192315124
0.252355052768225,-2.256167677587797,-9.503286108402012,6.07347330705262
-0.7653436669587341,-3.2394044522635284,3.679755950704447,-1.4274173172368094
8.425025910242473,3.093797450260972,1.560925898819491,3.8223020184694683
0.16721252679374188,5.624592088302926,-3.4068868466990203,5.757880047149467
-7.957262912896738,1.070106443978581,-0.22170874605967228,-4.042228919099834
-2.6846116595774077,-3.887802210131664,3.8237854002826204,-7.864301146849677
3.220898202976758,-7.739545175359641,5.645234329443458,-0.5502489532906054
-2.764488443937735,6.195225957299677,-3.0161415488201264,-5.746868357564168
-4.649839686624649,3.38689593124683,6.595398108261037,-1.9728412952272265
5.073049176747569,3.2885676512748674,1.709237838235218,0.205505901956073
0.34231879249972774,-7.30104300715767,-1.2839747834059914,3.6129275659526527
-0.6791878733932246,-1.1955161647443013,-13.092611474612095,8.481710853769368
-2.427272403587731,-0.1261192484516016,3.643983228026215,-0.539036398357112
1.0865699294764557,-3.3401784047680714,6.935566711813959,3.4505501836763344
4.755689017034159,8.469729444453979,-4.188516129014655,-6.725764326153289
2.055216457423879,-14.04755076720716,6.026572242252367,-2.151717361911288
-1.3636309431888534,6.309897353889244,3.57189312376482,-3.315487162227491
3.0055104343241528,-8.40219714679765,-12.1232153460146,0.37838132124971224
-9.743114501326636,-7.3615743127388065,0.9581661675677502,-0.7568861621017575
-15.911802333501848,-2.7487900502760105,0.3378053496967226,-8.366980808853192
-1.2738679880523267,2.927468623724586,2.631931319406071,2.0990657909105224
-2.2428984062489117,6.724019027166804,-0.13934399045090018,4.523268472083199
1.7288831357713224,5.995963705280037,-12.791035127324793,-1.430265176770348
-3.3541370764435814,3.2893920073700436,-4.836900173614499,6.038469215168252
5.728725973250301,-2.109631187133278,-2.5399628276410304,3.2836964967308404
-3.5497766900246552,6.267191143001288,-3.0137141214932974,-7.520972614477799
-2.1362022454344554,8.513168689044353,5.514086884279141,5.875101353330031
-1.6750632767677458,4.005218751048979,-0.08336893760518294,1.3074411067502822
-3.161278642772245,5.276719708120613,-2.1759879951940064,1.2988533582140818
3.8134724587771056,6.936194412523612,3.418312207393111,-2.7246068403480663
-6.480436392546437,-2.532812491602712,-0.18336358785078843,1.9488227739953174
-2.199797087369651,1.760029197453516,-4.917841007125208,-3.9673985226016555
0.10715010260424762,3.8052277474045333,1.2085999027967702,-0.6719981010730649
-12.786697846144897,1.5438044352689104,2.606947143138214,1.7213188697192408
-8.850862404490558,1.7611188614225348,4.993951919163674,7.020050165887042
1.7922956663486307,-3.557230402383386,4.028665154999718,-0.1372027779280529
2.499189965671024,10.159362644781574,6.900895931441035,5.089879826197791
7.540907265002334,6.020081555838974,3.254651734579461,-6.158743671157325
-0.4337692623620186,-0.6912658469251554,5.471426760318785,4.704470002076786
-1.2362562795041403,3.642755853093327,2.2337543590867384,-0.04241977359533422
-14.406562814459408,-1.6872877594556037,1.4536851811712275,8.650782409198133
-1.4940320785310615,3.0214887937220247,5.7491550821711925,-2.12010479540384
-2.1802037115319854,2.2868113304758673,3.941381897903028,0.9934194642792278
-2.981718711588963,6.7667939029091215,-6.258160668111959,4.237983184959372
0.41726287591763955,-2.93204491153665,-1.9918196150558138,9.290423494649076
-2.5492601539022783,3.872141952554543,5.71693257714303,-1.5780883185601482
-3.3583632361755735,-1.2056377926181874,9.32995847652544,3.9865969370739336
-4.762880343489423,2.276384061788299,4.112491666426234,1.3240494098088718
2.799921291304906,-11.220764051750425,1.4068580249064944,-7.691596837397121
-10.199370224496848,-6.196312075645686,1.7333222522842817,5.955608618798667
0.07787275516496939,3.4918434073967966,-4.51465313078663,1.2870762264048459
0.32630847692590015,1.7073995297322107,-0.4649773931904271,6.831123954312538
5.097552516187497,7.71668336039664,-0.9178486127812278,2.8439593999640174
2.2634509465162838,1.9928836672082717,2.1539801745168212,0.2753357530989362
0.5559363593848912,-23.606198588092216,9.466833284744656,-2.5096325743918086
5.348035497134658,-9.733722643229324,4.007405872260321,1.669946568431918
-1.0588036606251463,-9.071355189445374,-4.300235114317491,-6.838454995845325
9.492883444216211,0.730332300576972,3.297024695306753,-3.848808119769515
-15.634851981842312,-1.7134373969290166,-9.627524537585334,3.5090487743711805
-7.214541125914312,5.386624874573595,4.568103985711083,3.2597925197674087
0.46005437904871727,-0.36227968076695305,2.180853456519788,-0.6808509781799046
-5.566293458180516,2.7276539143341623,-9.380586802712745,1.392038894913476
-3.646343019068421,8.57519543264361,1.7820863866026926,-2.3729053151854202
4.573533892554341,1.5478070524239271,6.5454677638991825,8.437003739572383
2.551983346009755,-0.20932625733508914,-3.4500777889257286,-11.71176962037449
-1.2877560151865488,6.56938047335743,6.421744690653668,0.20210917459056077
5.795706453739292,-4.8641140284167825,3.307219921463716,9.681720752547623
-4.79460121580375,4.6839531039297455,4.814012607082578,-0.36179761658483045
-4.400871136577262,1.2292029559108997,3.7095057975895678,-5.736640335428113
-2.104942462412678,1.2876758748424457,-1.0136978395658787,7.647135664088317
0.970892766667856,-5.857423834660786,1.7094011962829327,0.7870024158512123
0.32194233452871535,5.434226383300551,-4.793179812369285,5.438737263845098
0.042935849551061,-2.2336743379733726,-1.7546312571675458,3.738433620152719
-2.4630821168200643,3.472566005135267,3.6022444534547056,4.595649471117145
0.6218018868969595,-6.318897797312374,8.567410229593698,-4.223935582363765
3.101662740472996,6.152847344485117,-3.30660175292903,-10.802076381606334
-11.628071620564453,-4.075278385355702,-11.17460329524165,-2.1555745428019506
-1.500229680209567,0.6186799285695521,5.52129211307437,-1.3013998698234985
3.281154819727629,4.9641310557876395,4.9842306986646605,3.5245729175368012
-2.5412023391336995,1.056733202249827,3.9957278172648785,-5.710076181940352
7.143925607068391,6.327652812373074,-7.911035343932564,-0.7963525573828178
2.6889079571054966,-8.601471262474593,7.291749626570887,1.829177853594576
-2.817843301616889,5.0162696284100114,2.495250346890188,8.581051807747308
-5.49898070550039,-20.980098467571313,2.3238557987035087,4.784242108901989
-9.718703086778365,-0.1387633035635396,3.0236201859891167,2.564932241808439
3.1578104348815783,-4.089374218514667,1.331757815173642,-0.28033087445793825
-7.338427795993775,5.069413698129509,-2.199785940897616,4.260037836233369
-12.102485121062285,2.5209553902134836,-2.1872701745700027,8.305242726580293
-2.325995297496863,-4.069371413454146,-0.3156377992515651,-5.266531083001325
-9.737016311236763,1.9921613012754946,0.857016401037697,7.575646714243465
0.5987084908214511,3.090007336644998,0.7150101376192559,4.582254767592552
0.9268723743383154,0.7635617497326415,12.02559297675819,-3.6169179269209906
-7.468116229715362,6.213823337242161,8.001061679568558,2.074558592547721
2.541388312352883,-5.342875476321407,-0.9185756709633175,5.629103196436052
6.086238540791079,-9.064816322421347,-3.009800113962367,6.219368830778333
-1.0101396596767929,0.9816036605846712,4.895809182603724,1.2868366948069223
1.016671902073096,-3.817401940185551,3.766232704670333,5.3264442066397315
4.461314358222056,-2.720303747760731,8.618692994738616,-2.1627801473566137
7.723118105477765,8.036220488218078,4.651250535056096,4.922606629851458
0.0944483126932556,-7.267026677844971,-1.040940140253074,5.635744281936052
-2.29837165107643,1.2617367237877986,2.4780894673341685,4.060614747854498
-9.9043093549501,-0.056674948503495415,-5.351204226944855,6.706873333718342
2.860275723921185,4.68665633556499,2.7115522824860427,-1.1620056132578398
4.124324664984235,4.590384074773436,-1.6387861307768077,-10.271134782161738
2.688986455049972,0.6893204588704833,1.1279627965359715,0.6503919688322171
4.329745370561685,3.4844918272381626,-0.1706390178720376,-2.5738171544815245
7.041474030521471,-5.294684631079178,5.836673365435971,5.377823950831971
-3.7456473693726005,9.143438932024555,4.352183828366176,1.5495221402392332
-1.4573648262515415,2.1431946153095645,-4.023874811827579,7.755640183500912
1.8458275694299897,1.1277523375387943,5.617513557537762,6.166279866060712
4.730658705465981,0.008380898414838356,3.0550893481193278,0.8923810113427635
1.120664006376835,2.142774548849644,-2.3502983384109335,4.641315605837818
6.0200369406785486,8.412065157235851,0.5758355102336381,-0.17017838902190618
-7.387253553123342,9.132247203183816,-8.120264427479707,-2.052206278408896
4.119578931169507,0.7052316880526455,5.700568852598199,4.3469144670152495
-10.702412902839322,8.213848244032622,-1.4581497024464127,1.7931831606193676
-8.162701616566201,-5.004258133733792,-1.726532004441001,-5.964729335494994
-5.5350721230960875,-7.743724769296268,2.395921419996128,8.403069380238048
3.271054404686289,1.6708307826804365,2.661009267405845,2.537454386054055
0.13537640640539372,3.0176617168629036,5.455767305959384,2.018842685809588
1.3280443307195315,7.826649809097059,1.23624862392003,4.619656837526222
1.769679192358822,2.791811885506217,7.666236223801839,2.497867581733974
0.6012971379298699,6.142205668197324,6.49169850772973,7.152257845113006
2.5643068135350995,2.850369788346196,5.317210266421807,-0.7552264992381765
-10.86194421831329,-12.43645616022857,3.574334605832693,4.107377521632898
6.122682868570051,-0.04873282019476122,3.2157641237234564,3.5726857359440913
-7.496115812818855,10.436205493674425,-0.2511966972567201,4.856646505621555
-3.1513848060401233,4.430079140830681,3.728994830954658,4.759358281158839
-8.910299239130365,6.0312299269376695,-7.591313467164216,3.1320485829180136
-1.9326669926307392,-5.406122098417111,4.2783440161302835,-4.60593099784105
4.227808082002552,-0.9504846381785903,-10.434737372475123,1.5671301267820112
2.644207178133145,7.8107457716072375,-8.273256560371582,5.917512964033669
-0.6263952660641889,4.1070966833712,-1.9281637942108638,-0.45980487572522577
0.24683122469968488,-11.441248503772147,4.084285935939683,-11.335146302414735
5.068845560061627,5.460369559233143,6.951990397655926,4.598950885733949
5.9725430505537815,-1.7022534608058102,6.329584100290614,0.12752184260733657
-2.3933480168091745,0.3464145456771952,4.461803950104127,3.335552029210639
-7.833380710502523,5.8083085512398505,7.0693714340248555,9.717409684258062
5.68474491532168,1.4765049412804068,6.176496555892047,4.165240253264233
1.52539631017909,-4.25611552653287,-1.8286929203931415,-6.296003745652449
-0.43464040917811575,3.5785074323581796,3.519590824934795,2.185330471228653
10.254271168222072,3.7468502726129707,3.592070441050911,4.837576478939784
1.272161535810655,7.045288436814101,-3.878623044519454,-11.30748570214179
2.7596113211556172,3.5883743434513278,-5.661868301925605,-6.550100425328381
1.4813333425177984,6.666083136120779,-2.6433110225353396,1.9548898645520438
3.8043763076613124,0.4690720354073754,6.3211010185845,-1.6170452276436862
-1.0658492607774428,2.632187659163808,-7.402241821452055,2.9941284251349742
-1.1183129261620008,0.5465719203083204,9.30526277182754,4.986825858836287
8.816033667291494,2.8891849196608597,4.3381212320865075,4.735214178199364
-1.0309189396464182,-4.5657532862970776,1.8436307151324982,3.681410392449134
-1.9562885405323889,-0.25576730856895225,-3.1141184955685226,-6.994951191872673
-12.721122664662436,-8.032155208261397,-3.4883305139659164,7.185382447940867
-5.343146270594357,8.131382041330752,-7.139113315853873,-5.577003868844862
-0.41312856158590394,2.434244716881185,0.2809774450527769,3.4185590575996123
8.74529661173005,2.3414645231082716,2.025737277451622,-7.444817667896075
1.514244491599982,0.13341692955930995,2.999526006528388,-2.4891309543104185
2.5369854128598806,3.0743667335044975,-1.3589042961953801,-1.5862888568150524
1.2129321728701155,6.640237762055975,7.466040851449009,-0.917256875640291
-2.240631263004215,3.6814659743411013,-14.389790683694596,-0.23606873469390166
3.110824931154259,-0.14054145579708432,3.7945106400327084,-15.65304261604878
3.105972907452097,-1.200402591664389,0.3122644948788178,-5.589704208010971
2.60947812565492,1.439264091333527,-5.247785630731354,-11.534432250715682
2.4389204378517597,0.309066636833645,4.709689220639341,0.09365555085302901
-1.024214312697164,-7.756875822579094,-7.4349550204177355,-1.5878436234624687
6.580095970357759,-9.425430981334802,7.130274766762181,5.151254433465528
-3.3504039029057187,1.8085367056763637,4.817244124353344,8.02184471629888
-4.426615329835803,-2.3863268241259377,5.126957268447473,7.780084056231658
2.8511912768738874,2.864249324854029,0.7914956751973037,0.2895870328660948
-2.739350585756451,-2.4567622163345284,-3.5895085184428446,0.3732327755054996
8.127689739395727,3.2195953220255156,0.8471268992555636,5.954824010162341
0.971313680025313,3.808636397049998,-4.169481298205415,-0.37556579740242313
-3.3722822679476896,6.224422978145647,3.5163108887319297,-7.839540525915986
1.4108948823429326,-4.640025806458052,6.5859411840187825,-2.942729682402579
4.458304754743295,7.216678014793789,4.722506473595271,-3.039300360857702
-1.7848941941354486,3.9619442890986925,4.619029430608361,5.388440390980811
-6.437365755992056,1.8453994018367368,5.02151970345523,2.5214438877251055
-3.5439729464688434,-4.805224016204672,1.424674772165151,5.325241345455851
-3.3041986121182485,-1.4580001050987512,4.314988891542594,4.950279975487064
-4.365538106594419,2.420038764171725,0.39336729604979936,8.766647413886236
-1.5844488008188486,-5.261952200430294,0.6008111756294454,-1.8185266772298334
7.827981979937308,3.6622648717495174,2.70291881578893,-2.5332964202018005
-9.324624159935109,-0.23573035951102028,1.6338267434431089,5.768386567694439
-0.8242991915176963,-0.5900432531670035,0.8614952763370454,3.248443579353811
2.53707381759101,4.887784711318606,-0.5363901316638184,3.3722753819818045
-1.7040739671810372,5.001286594635776,3.075121484705896,4.0989541179892335
-11.489524912771529,-4.253705860501267,-5.380832564676975,-2.2400815622913015
-2.0953331842615364,-2.410628724472911,3.6255095714378847,3.7852304520167372
-6.66448450169449,-2.88361320730991,-4.89425626605286,4.669619396236648
3.547477333069404,2.5692299083591728,-1.0710539728471709,5.684799553558907
3.280540463158159,-8.17685259911686,-2.626917696173823,-0.6545934077151827
3.02281216053698,4.832273136490198,-2.7473566708183235,0.8539722657961022
-3.2801772626778205,6.023286731900932,-4.960712640302393,6.752845684301992
3.981376216009112,7.0201812117168,-1.0020384953591623,6.404985847997462
5.032660991114753,-1.0054375415353114,5.966684801193232,2.394233884223887
3.2003132232551104,1.91911867900113,6.329043267325861,-1.472951374357777
-3.0297678965218284,0.011999003379660422,-1.0358574808794039,5.5205408703776655
1.393892604489638,3.1630640453289978,5.055679434545038,-4.861542437337697
-0.8014624545054176,-0.564865886648203,2.9879134560498066,5.566677457312906
-9.631973061155863,-3.3399778075546998,2.9412621377729984,9.334442280839085
0.5747506375769689,-0.5612396505561499,-1.5193859234467055,-4.087564485821815
1.9705220217163462,-17.45477988252698,0.173391592984391,7.8319390369614865
-5.713257099387356,0.6043083632456536,-6.398033333618404,-5.604805130467469
-5.772246361266477,-1.2337872356494017,-2.8500343796025724,-3.838967667782363
4.610902170957724,1.1966953725070475,1.969567877677001,-12.969212567677054
5.24460887378363,4.741340963643726,2.902434329535456,9.325619749141687
-2.2687576565318373,6.248006752642059,-2.7615325164211093,3.566965940705046
-0.2494398764741952,5.06623502770692,0.9261445270810924,0.41489824565823596
-11.381833012623249,2.2192452216859166,-2.9953431386219584,3.676976838632797
-7.667713929337143,2.465134259403367,-1.0126153357968697,-3.5082223428672776
-3.6834846111597055,-1.1187353986420447,-6.296929762778166,2.091219303011215
-0.2029135067022696,3.8284197789384002,-6.9997959545537505,-2.3594630566080284
-1.769265820456015,5.861049687254049,2.8863884255240073,-1.0107334817312008
-4.545139617602844,4.4813074235438854,4.902080540386084,-12.38580865215588
1.6633835221832944,1.3455839925431476,1.683881397520878,-9.683487998019608
2.6397155156060554,4.6306622481664235,6.2502277699720565,2.025418927366829
6.6678276249373525,5.433621721709784,6.151217456135246,-1.2755943113917994
3.249065072781753,-3.746206424031037,0.26509118540974796,3.7846243943101214
-9.500349983776891,3.1209241713572595,3.844662834948803,-1.1686502546338673
5.529171378098205,-4.402697242415776,3.835422163659839,-4.833229423202013
5.830914971734314,0.20220433517188852,-9.80000698457589,1.0539293576025344
-1.0354086759605825,1.2459077495155917,5.748428642551161,-2.7138942679762437
-1.2129448508517044,-11.263632909451925,8.552850206036982,5.1763184034463166
1.450114397652421,3.884106483169038,-0.4807997196290543,1.180115594863544
1.5974703924289857,0.36166598126692406,4.160910366090082,0.19362657526713178
1.6245639541062178,-3.0881574548137145,6.101707033489166,3.2115923004285207
-0.06212545030039651,0.5681296451964535,4.578296068689777,4.134417590481167
-7.006373912991432,0.2863388985736357,-0.8084296039024288,2.206740111169612
7.434506542039747,1.765480637838742,-7.788321896044916,3.716309600598546
4.364013964196843,-1.2038976344061076,1.3731018930855932,-5.322708733448415
-1.179363408544904,4.9169584159229665,2.904418793251118,-5.2235340928553455
-0.055798256460231066,0.97901290740608,4.573861516248439,-1.7691691961606182
-0.6271679903524379,5.893562042782353,0.7702259191369158,6.917146712368549
-0.4464583555521586,1.286100600396459,4.173314187990272,2.71583306090222
-0.6230736231020217,-12.379232762703328,-6.276669136894956,5.498476402944068
3.5708926774131116,-1.6754108197670874,3.7952785476543482,0.24269032412239255
5.287738659017737,6.651168939133555,-1.480198005137776,-6.480495453392798
0.7097129863804974,-4.499649906168024,-3.6489250066345953,2.4513493440165774
-2.306431726988436,-1.4887727213718804,0.06351761650874366,6.691026211814474
-0.5518835561041278,3.1282245442817,0.0446969266361954,0.25603045147529
3.075438918923144,-12.714718376784635,0.24169325444183798,-2.9738957834766993
3.3330782745328906,6.0278872612339285,6.642712960777036,-2.1731650386866974
7.8750025331869065,2.6386480049960923,1.9326952280079723,-7.158256403764334
-4.191670301798297,7.011267559476298,6.964335754665285,1.7067945738500185
-11.450763099759566,-4.174161121074672,6.663481509860379,4.29963503750848
3.1924238595008267,-0.22174956934741274,2.5653101876285866,6.927954103948778
1.8333282437887415,-0.8485919197039244,-2.830625272092181,-1.7236283539606134
-3.762792054122055,-1.085077822495176,2.0185389431974237,5.471079996882725
0.7447044561124738,9.769357646225073,2.9203829169574753,-9.771838276224322
6.395820384308253,3.7701481886289763,-0.20081494274456801,-2.336690862214027
-5.895676440298285,2.6389151370922903,5.605426060993395,0.13904564296535682
3.7265040895731065,-0.6854890328948642,2.5372622975099404,-1.2425528620530315
1.651049153395121,3.1442265436698946,-1.1611567048516953,6.328289769764794
-5.548033886901678,-3.856293168049266,1.6432397370087415,5.223501884005625
-12.17042947360014,3.468156148932234,8.454971707445011,-1.6600960273093506
-2.3650463728645703,-5.060373077164243,-5.012719349092446,0.043843672958089996
6.818101880827983,-1.0021361791904084,1.2035967281256283,6.737088802637754
-0.15877241212524362,-1.5357050580456857,-4.014829950637097,-8.63654220817859
1.1040458746046364,1.7986918917032,6.719105826311264,-2.690060888688052
1.031041369940437,6.224429624198677,4.641095431174435,-6.633693848326956
-3.2329306889823894,3.2978468286519913,8.28431315396248,8.42322596882164
5.437975874794602,-4.631589495494495,3.877361610686556,-9.057967032243411
-1.4211781506873495,3.7035439774866354,3.1367831736128764,-3.2422967754856558
-11.054084752632319,-0.5599704493089526,2.682486686576116,-6.161634400067861
0.8879134311306498,-3.002289891413941,3.187334138643017,-8.354796823646012
-2.0922639990794205,4.764437906313976,9.18765796277583,2.7791522275912435
-3.282041611284097,5.5126931341199565,-1.2436781188393695,-0.5907009794532527
3.62150245234663,4.803823867746853,-10.133847176449141,8.232646246365483
4.367065307047508,7.211978448392852,-2.7619194494314705,7.782355928733061
-5.083702315817902,2.9785570813127116,8.634478149642177,3.1307763537212807
-1.4559792939396403,7.666374427296098,6.270171383393194,-0.9319525711256915
5.346503772531012,-0.6222914861469313,2.037975579420209,6.422285637423421
3.3211375470021127,-3.5458559832101777,-10.851388958038722,-10.593364654247885
-11.807757345926058,-12.312625602060134,-3.770333068239598,2.3628197803294206
1.921119859946305,1.0447564244228502,5.224798517416897,2.1140428407533776
-4.3767412288508645,1.7003091752889041,2.956768109137574,6.050732925482585
4.467933464719541,1.2047053945147148,3.5327960989617004,-5.986789978791521
-7.2693902723529735,2.2200344904847604,0.83258872502795,3.987480473008361
-5.1308492948623154,-2.247797071661708,0.8664648768672443,-5.267463298427536
-2.402203789112074,-11.69657339483469,0.07835968822784523,-9.321667065615301
-6.094141415244641,-4.499592095822365,-6.895894121263435,1.2223291545900743
0.9803432884726202,3.7638254173054726,-1.341559926001036,-1.4167426704417636
-3.2563402257703316,1.2881082948856921,0.09095479074320778,3.0797228695898298
-11.465481718848206,-2.568599731745394,-1.5664366918442916,6.327229136266105
1.336155628592113,2.8858404643856623,4.216102073537254,0.24756518979283726
3.4882570481148116,5.143374342328837,1.6313806973479075,-0.4219694421767528
2.813270709939279,2.4800234182347616,7.358745230434181,-6.403736738617738
3.369133481441907,4.078977687478822,0.09314517788759602,-1.1791559105105307
-1.3126166314367738,-1.1140101065903316,-3.589942443404052,0.33794096668099627
3.269718516772455,-7.760912156544048,-9.91005767419956,7.384951887523037
-5.708482828874457,7.6798516877003955,2.901642804084876,3.463029890634413
-5.60765566925406,3.561050618443261,-9.662606661285306,-5.392452086645925
4.095586185713321,6.689556804796826,4.179272135535729,4.452852841644084
6.695717867859996,0.1136672195870787,6.4234058771504365,-7.493910386205727
-4.502569753232507,-7.187679055948838,-16.37325081026402,6.85477438667418
5.0008848679870965,3.4849005686808994,6.395433294276177,7.806895345651775
10.850633301731934,2.8712094557730445,0.8273325204795512,-0.6885319874701779
-7.709085101388107,1.0188839325886008,1.2833102105784704,3.459132863605692
-2.8726168194080137,4.635792006036777,4.206352852097826,-0.2576842611804011
6.080815086329599,6.462470037181156,-3.4887689999495457,-4.60603732603569
1.0693323099883751,1.186422898707491,-3.3406861239555035,3.8256671786171843
-7.0543654445080275,5.731554331557138,-9.780433659228688,-9.60127121430935
-4.44220487394503,2.1735767707512146,-5.56571083546886,-5.857228208474915
4.397221539668742,0.7780561550636698,8.789759245422037,-2.890576814923037
3.696535082097941,7.3068916501465,-4.924575542066723,6.368765600398433
-1.7282456144432046,-1.6388279280683342,6.897526618281731,-3.101210437020896
-4.714356838764919,-1.6690088453091114,7.4768979325978755,-3.8403020899102813
-1.4872361101780114,1.986794162668648,-3.949112252280134,3.679408376968695
-3.114717345479366,-8.352383385888462,5.416232942522726,0.775902617454328
3.815208484695259,-0.13934961127844758,2.583704192690085,1.556593520789992
1.9266669763731765,-1.2836225081647434,1.9456361520147283,0.036395952984143776
1.5740987275151261,4.780775658253791,2.7018931025243234,-4.347411176982007
-1.0765508631245848,4.557287763769999,2.814048304288992,3.242520551139613
-5.497446722978276,2.0255549377167164,-0.793719005970722,2.8188839925870504
6.38728953389786,3.510459119111278,9.723519879303417,-3.872246034907519
-9.483800885345742,-9.091997007671655,-1.871331029206253,-8.06179853049072
4.68765681651391,-22.50028322253357,-0.2125795816497167,4.469572441568086
1.7945370064393005,2.236066405745543,3.288616926462314,4.285224413109667
0.2779204586438566,-6.666597950240469,5.539217606874654,5.606753391926194
-2.304006990187315,0.9332412695118961,-0.5687195012881823,6.697569443061759
0.4750558828106328,12.28551908215325,-5.106299199304747,3.9660566554468133
4.420143965211952,-13.23577304942707,4.538545680323345,-5.326657697724585
3.9442541978212673,3.7444390382785535,2.913229824312044,0.4691212398671496
3.9648163262203404,1.9269201152535764,-1.2052234159654347,2.1180758733326144
-6.3534726883172326,0.5524963041952056,-1.7078654423553736,1.0307446266238074
5.660361803578692,5.430105379820599,-6.0194421721534574,3.3647978890194743
0.1736812715062781,6.93023140687929,-3.4603867928943437,9.185994347877795
5.589699872289128,4.044972246545132,1.2849815164285268,-5.460754120382489
0.4402427610559341,5.095396971248402,3.12779614419858,4.216517266357041
1.4530008627979274,-5.110944819344017,3.068403806711906,4.5552170217297245
4.982734274910552,5.603236481784052,0.10408008393954304,3.4897072253961525
2.7251520203227724,7.092148498411131,-3.7638757026547687,-0.9515060238314987
4.698282930931413,8.684636591727475,2.137584894158131,2.742783970617417
1.3902344683046381,0.31325187802483256,1.1656705909012253,5.990126884357913
-9.408685695126508,-0.1022646764398587,6.906882338882191,4.882260332534003
-0.5492870314849623,2.1776866816091065,1.7185438376886673,3.279733785723213
-1.42226219514143,6.300462215924995,4.593299523552748,-4.522885489000288
3.5094645215803175,-0.3328279053972807,-2.2802491551114663,-7.655648455782391
-2.5023443379106456,7.155335987648812,1.596401943744592,6.394381920715595
-12.051510939727235,3.3321486579190207,-10.865726773008245,6.140461866279004
-7.028082640837834,1.9832195308009233,5.131091259893157,4.165132791839959
7.1184080585183285,-1.7229906156178245,-1.1063955231766442,5.262078497844918
-1.118391712035288,-7.353829776718275,-3.039308929047724,-10.540794749500279
1.103007846401864,-4.729019759879531,-2.3916185497620432,-12.443530002730121
-1.1912268148805913,-13.26024486161688,-2.263932164540197,0.9370334216419707
4.569334482687557,2.133533735857622,-10.14859182751334,-13.191097204369022
-2.4698035969861514,-3.16653013615829,7.163537163655363,9.579290420272372
-2.7418193772045316,1.5775698806246758,2.8580344211125244,-4.900068264319671
1.955997819673195,-0.6858698154423273,-3.8581732269867963,-2.854119950893235
3.8832080396329456,-2.354784584859207,-1.4532361670309832,8.104147458991285
5.0103222547405455,5.14107511258614,6.886761047142478,2.141899047301308
-0.4035154952100046,4.817929856773745,-11.597820015908692,5.399106715994424
-1.7967122024776487,7.973586646685437,7.039293483986938,1.4700024203400126
4.688808490911459,-4.4525352082029634,8.07861001637605,7.40057904746692
0.5665158222205973,0.5218049970603644,-0.2395922085047566,-1.0073188486246352
2.934227064013797,8.563467132539213,1.524466797758997,6.317892548755253
2.0260520608414607,2.161113666004102,4.3719473808986,4.16294424550113
-1.553691199553764,3.1460383803045033,-0.5304463959853969,1.7845884295058596
-0.6146936394025495,8.508809926779577,6.249482042143839,-0.12334379326313183
3.615178366429876,-1.0040385921363075,6.04952634890007,6.970322255610846
6.252390077268526,1.1718922745896343,6.244214746103687,-0.23172100454907252
2.2264128454427907,-6.2335349290099344,2.56028098983251,-2.679762598926878
1.7861580307905476,4.453313667925869,10.078338684335385,-0.28945612577894764
0.9132436316638666,4.740986444642715,8.926569233238933,-1.6303351751249693
5.430526228875813,5.824973413097691,-8.272516342517651,1.4584509021218999
5.360466624043986,4.320335061899151,6.118760567052668,9.282496375391844
-4.183902553159827,4.6013282121450025,7.48505880901811,6.87126568456771
4.536646993881524,2.1799702875844957,4.110898134824755,-6.26368994682835
-1.354067449035194,4.977851308828679,-3.8819986500668584,8.547679370878377
-3.095972327466933,-0.9253097860690183,-3.75897320949289,-1.6538434703139657
-0.8806211502820545,2.292732046503385,6.389452788607958,3.180276742916803
6.213512512433871,1.1145248635529015,6.046600099743738,-8.157239743978941
0.21916605521983468,-5.41861766803612,-2.3594372493035287,10.111988412048959
0.2671135493108121,2.4028648648052737,1.2388447415667123,-7.599012363434234
7.539916974362937,-3.919222539927116,-0.6701006969877135,-0.23462253956462575
3.7568082400549763,1.4978092455871561,-11.547115121676644,-5.826743400481469
2.2755131435843077,-15.527114227283139,-8.544892436444602,-0.2194214786421469
-7.4054515798575,-17.144082287959105,1.7908282027840876,2.8072291609986166
0.49668337267303286,4.6154456442792515,5.017998800684428,4.39165025045444
5.53422538841888,-4.779176950382585,-3.794140399092985,8.495164539334471
-2.62246497143942,-2.0803007444225905,-3.6780198640869948,-10.540880888433975
-4.210233822924613,-10.980328561598181,-3.5900502943892185,0.7026297643323574
-1.260954500402749,-6.9707328311471635,2.0662914872897424,-3.49529555264526
6.549541253421902,1.1678439542878287,2.4762241857359477,-1.2180118624394822
-6.478994708551651,6.341926817843131,2.4883707453957697,4.201239568653111
1.8725434855140064,1.886729558042802,2.4267902594759114,2.020205472728886
3.0103050549139967,0.041426021849801486,2.9161084450020383,-2.747668394072633
6.248040058251661,3.982706886560006,-2.839040521612393,4.452858472971862
-5.496242727499206,4.0485619804052,4.740522297918197,6.277020022612483
-2.5307233831500215,-1.0667396527846833,6.557675976065841,0.9628884729050711
1.7899611993831002,-2.680199689501997,2.1980373949278444,-16.059376665120283
4.370919778443945,8.485403777296444,-4.883312196728976,-8.00210136310173
-1.2628691168545525,-0.4205329643134448,-5.945416266208216,4.832557744171162
0.6848881170498164,0.5527418853543509,2.1201251780487844,2.4656185657147347
3.6368943132443396,-1.46715454233766,3.7824282849098587,-22.325366974579985
-0.5464461002694829,-6.510662460966351,7.15921175268042,1.002188999142767
5.0838890981806895,6.419396103371444,7.515842748656862,-7.2697195106694465
-0.9539087842114675,-1.5919265873187953,-7.387985729747019,3.2619515775358003
-10.422083881262768,6.266785632249185,5.801009546310933,2.9751064297368615
-0.371716389431231,-5.307080361402718,-0.9240734665379655,9.235169937755789
-0.6829468825326015,3.899004895642843,-0.3141977187321885,-12.577661699143263
1.5268195752302387,9.367771540609063,5.19991713474877,3.6013407590228077
-1.580280045781083,7.456907353862036,0.3568317297184791,-15.002602930180302
4.163247330769807,-4.244156157859983,6.954340359581899,-5.919714429298452
2.2071035232553156,0.10483389772355522,3.417765439713669,6.519042652817152
-10.926285824593446,0.3188781636414255,-0.39532154987754,0.5636086647490686
-3.3305017040254747,-0.7798770465210794,5.720967298158595,-8.726068741425713
-2.4084842517985536,-0.5610453509927886,8.833733863407325,-3.607113599469116
5.143811306798945,-2.7697587795797283,1.4295225046578253,-4.072369378860451
5.182404237335382,-16.738118859780695,2.2907221194487093,1.74245177593966
2.0375540500632594,2.0397325999645872,6.0365643846565575,2.4872800691385066
-4.941377552502312,10.372927272086336,4.2519501786214775,-7.046426166178861
1.5348586554584187,0.009657343969010412,3.3689331846608397,-3.995034676671324
-15.498967839319418,-9.204602374962231,-1.3522642146662278,-4.610527340806975
-3.3020485342630903,-13.7071239074923,-3.396211379457629,4.383207470915593
-5.5853649295080405,0.22651856569748574,-1.3057791320280678,-3.635863554605656
5.89690328787116,-2.8741963318086476,-3.9258164617636986,-3.488133190723886
-0.44991334577729436,7.266707558414705,2.3280001064047866,-0.8748206575795905
-9.218882752175883,-4.251418713557708,-15.610600524646127,-7.656657069646435
-0.34309012109532366,5.0612944775964905,-0.18267448352479576,-8.725400672235324
3.4023899692419484,-0.9861627759050755,1.8250997865249765,-4.289421556511591
-0.26828922098681796,-15.194014256675334,-1.369601835884584,6.8471171008014124
-3.061838932772131,-7.110236275796549,-3.0576200094847827,3.6375299006649797
1.795794870146409,5.414778974778702,3.7751441956400775,7.980942197678289
-2.5371208310570235,8.11878234623898,-2.551592880494141,-5.594035069502247
-6.60207786206978,1.7399233538579892,3.4699906376993255,-2.237065657839956
1.3623549560554866,4.201955649841317,1.0659714490200116,6.605609200618712
-1.705467183784481,-3.256598089191602,-11.731344157619208,1.5685583585351992
1.5116969288052307,-2.4464134156802686,3.626793440590532,-9.900107709963763
0.672572540343553,-3.1564144618956718,4.871260070748189,4.998988682390223
-8.584607515641071,-2.6902992697140675,4.8923101213290465,6.792169694983244
2.829264726804431,7.965939878665299,5.548961504610332,3.3666635566680867
-2.9725772924771294,7.554469544035943,-3.141610804672961,-6.676674448867175
2.230341163381,8.245144423174288,2.4964422237212247,-5.945492153856804
-8.690873234383032,10.41733525476524,-3.6810878384798293,6.75418386214708
2.2194072555268214,-6.087161693528007,-3.044124358050812,-2.3447395337875676
-3.8558954436233708,-12.613647898275548,0.6522285208480341,1.1818870142008393
1.0296233610380445,8.085262880094277,4.929194393622474,4.082873831279372
-4.1706365965485315,-4.60990403103866,4.0767095721776805,-11.288059824631453
1.0913940171538525,-10.572902007224851,-4.916110242262956,-7.64210039991017
0.5790952484456664,-4.15596477439836,2.0905685037392985,3.2820118552290616
-5.719405156475203,2.3439275841178464,7.285555165727622,-9.176698761699384
-5.018292156744074,2.4224285764281994,1.7931330865719843,3.8164625959409406
5.230470570700094,1.1582021069694228,7.895387461614778,6.248870013020323
-3.1250184378492647,6.834867813314755,7.061003644183636,-3.423393072959591
-3.0927435142689057,-0.5553565858480418,9.011052032374788,3.1376912181868377
0.9379551973624829,6.086135146853451,-3.738873489040383,-2.4668594406455924
3.060154254293664,4.988224715483941,3.0496013314229877,2.3594986207967423
-7.409845703511152,-6.4203227603331925,-2.6159985072808922,6.634147435187266
-16.54406078643595,-1.6188003850978454,2.2327108852855666,-1.557302622422391
-3.07785267863281,0.798865703992444,-5.143291442045534,-2.03454665726575
-3.557482810820321,-7.1048381996542425,3.0535142586354027,0.7031688133186549
-0.606424971721041,-8.13904365426215,-5.924139675718035,6.178743339432298
-7.227765400409199,-4.063574535579587,-0.20391884486719292,4.617223625118147
-1.4697880607698783,-8.849851101327882,-3.389611737385959,-13.612848456684667
5.608709445228969,1.5533770305535022,1.9798751080697379,2.7612730708183726
4.343610262815437,5.721756399304258,7.831217670833404,0.7668960164787606
6.689151078698069,-0.24817026788172214,5.09693924683063,6.393349405998258
-6.2644037944684605,0.6088722507634188,-2.8125254474484755,-3.6738588236343404
2.518301307165298,-2.6158472046378094,-10.32556624652344,3.488494808993714
-5.778862441813931,-0.877316950154075,2.6836974484074005,-8.738607102003371
-4.292213307692911,3.2233279866347964,-0.2322563001116542,3.2114786209634296
-8.032528818168894,-4.224964943489798,-0.2913740059266381,3.507616369343488
-14.34197231657099,-5.168751408548275,-3.1351869152139606,-4.780105665232263
-5.464117653761464,-7.276392574237942,3.636861792091146,-4.665422338854675
-1.0577401408462115,2.9065771872033785,6.658654370801116,4.925947798938495
-2.0263438795467876,4.347625573469973,4.056276274465937,3.766873552573557
5.37341335146507,-4.992411003145438,-1.6590110293893652,8.409361548426084
3.4819902770423568,1.0911478980838183,-17.82531146137843,2.246377253902285
5.108782323463176,0.8031304050268524,5.519714020564816,6.547236954087989
5.561265401882835,0.325544999255829,-1.0794643093237006,0.7172997666306031
3.017432164036843,-2.031542399833892,8.357070999791503,-7.699605649235693
0.7138141523738089,2.934067924425527,-4.973277402905605,-0.10345864293650209
4.133897413221872,6.851033573415897,-0.28515794856436827,6.3033561450398885
-2.5426167669925355,-23.292080642192513,-0.45644386486422306,-6.335966632274761
1.2776430791442064,0.15073080143845274,6.5102731157353695,6.554409348833083
3.5042190612363724,-2.7558050241814485,-5.225386982366619,-7.943457348667238
4.740673917630561,3.6545952388595957,1.6849119291416237,7.506776189510354
-1.0333249815681422,-1.3255919209900213,7.702400693699293,3.2475966675468726
-10.382411013839926,7.541485435046962,1.8798270507885313,-1.7242349297222859
0.41109132689129635,3.0923582168447687,7.7177363609983765,-3.9095983619601924
6.377605672495255,8.191928691727348,6.785844413783515,1.0829887466951078
6.202617862380368,-4.039299933287683,5.212533077817074,0.8063134199951918
2.039635933158078,-0.450233580152716,1.323367320623209,-11.66006548481647
-5.333365418320156,-5.007541184560033,1.9832758071806822,-2.9440493549036404
0.7099504004065758,0.15171963604552374,-1.0956424381041394,-1.1714385333692974
-2.2564289163747246,1.7755202756403214,2.0794640906862796,5.764541173013399
0.45705101697131845,7.863152846438901,-1.6349121159464453,-5.759729123742751
3.3434059545579835,1.944578369888621,1.1630741180725543,-6.522471090070624
0.2361452722199977,3.2217542843607703,-3.440477092699563,5.992614528493817
-0.3012905863769153,6.804316636600877,1.7730732743474569,-2.260290050754179
-3.972184405252239,-10.651276791413384,-1.5034219386569667,4.5608062844434585
3.057680879258643,8.553649813145896,-1.672124975323424,2.2031549878216126
-8.891818172554919,2.218483226441297,0.4376354205807438,1.9338590888691982
3.466788510843092,6.920984868399973,4.806669856446508,-9.273225976490657
-5.158115113774517,-5.559524539965313,3.8385623776396542,7.297406565949309
5.278222765815775,-2.7100123083282917,3.9559105130832783,-1.920048034889561
-8.038325974358964,1.8245479312532353,2.6256384068388527,-0.33801738104676105
-1.787923584574239,1.5473025240220082,-12.469611671703017,0.528150951656265
-2.091502575264839,3.9285364060851755,2.585452753496572,3.7050961263613615
6.519002598091518,-8.33170119157997,0.08519893538651857,-4.7333726116020785
1.3548759087478732,-4.713093295547601,-6.37292801461675,1.919604617319436
0.7876264862161839,5.144638329752464,-2.98671449625024,-6.0311401513473655
-2.884330227101057,2.0566618321358483,-13.877424202482583,0.2285237683080581
1.263771615153808,1.6489619779083604,0.0020607540960320136,5.9786220120632585
-0.9827515039607073,0.13062744085643985,-5.025438838427004,3.20804555685789
0.6237427634048773,5.6321269043765945,3.800995984589111,-4.931751099536918
2.1767892973474616,1.3056461410169824,-0.8668530046485898,-6.369633204741966
0.137613390277735,2.926809476523193,0.7603634677555853,2.0895731499453625
5.274900296744068,8.58158728276414,3.19961631265274,2.7029018283575184
-3.4276039717576476,-5.542356796956103,-0.688157925006454,6.822206180115188
-1.9644572189612473,-0.9631846872801155,2.647546385527537,-2.2162776215912174
0.09781024648490622,-5.255167529051551,-1.7213652276182145,5.0545969078731545
