Freq_0,Freq_1,Freq_2,Freq_3,Freq_4,Freq_5,Freq_6,Freq_7,Freq_8,Freq_9,Freq_10,Freq_11,Freq_12,Freq_13,Freq_14,Freq_15,Freq_16,Freq_17,Freq_18,Freq_19,Freq_20,Freq_21,Freq_22,Freq_23,Freq_24,Freq_25,Freq_26,Freq_27,Freq_28,Freq_29,Freq_30,Freq_31,Freq_32,Freq_33,Freq_34,Freq_35,Freq_36,Freq_37,Freq_38,Freq_39,Freq_40,Freq_41,Freq_42,Freq_43,Freq_44,Freq_45,Freq_46,Freq_47,Freq_48,Freq_49
inf,-3.3915159064285576,14.080037054709905,17.171124339525704,15.455548828446396,4.92816830532168,2.002042152895079,3.548151269780483,4.180715308502258,1.7812786701603613,0.5730264382136028,0.7042149147506507,0.7993028930118129,-0.025273621118110157,3.3209517129308352,4.12094678904689,3.992802355341105,0.8406919003521125,2.244499734160179,0.47019257428437555,0.7312025443035566,0.8066101649484665,1.3634468277183203,1.0662094208234123,0.49399088592170415,-2.1591698715361503,0.40868005744217584,1.8331851649400974,3.07522238540804,2.3729719984756485,4.3392258578364675,3.4162184711036048,1.834042450632289,0.3633107769909856,1.4299541096998922,3.455322094747153,3.55636982057041,1.999969017537417,1.9848688223883713,1.8705703099852542,0.5583416632472407,4.292255250720267,5.723835575482006,4.713818965424572,4.243615187597825,5.1328118093700255,1.0180612973399334,1.8153628554420038,2.4416262384464744,3.4377943164229023
inf,-1.2734958035425077,17.14046707394672,19.373198401644693,17.957502092877696,3.980363143102487,2.5317132429074682,1.8796757282375793,3.997958835905557,4.6011814301185545,0.37206827191627667,3.722809519926116,5.172837715505285,4.738905912143082,6.580668429052153,6.239184459055224,2.6666028488303297,2.090204104569189,1.8360992679805364,2.021590228570915,3.466113381794777,4.615552149862744,3.451573979353853,1.0715805577348618,1.5292349395789202,1.1705558410139716,1.6922809987390082,2.1221699710661355,2.9386926205127324,2.9916375009228844,3.0209277889399786,2.0498125429012717,1.9394573043268437,2.3371615163857626,2.564312188472435,2.2080827391866436,5.650015485859072,5.792814248055585,5.7263634848031515,5.5028856822281185,5.9841805375974175,1.774778568656835,2.3783196850274706,0.028175963499514012,2.5319328796434064,2.947954800912413,4.018891061263993,4.2108805931143465,1.8509568413054254,0.741966693113433
inf,-7.533902797002705,10.344161128661515,13.243758606626356,12.36012142375827,3.5133751621712506,4.546262391551423,1.3657581350201653,-1.578436890521239,-0.14311140181619209,2.5224440918000255,-0.12957925823655358,2.763891297008712,3.6898925405348777,3.858560971679694,3.2205446230899994,1.739743157772459,-0.025661877134844246,-0.10939548470104654,2.2557189017239736,0.7707059891675172,1.3421070266139665,2.356823448839613,3.3515963044133628,2.441383910034986,3.5018048731066216,0.5421613323766294,1.6231181976356552,4.237911195389081,4.384045507905007,2.4282154203292095,2.7588860506142723,1.869358499925582,-0.21575656302366752,2.220911999378039,2.2232450496350467,1.049241121875454,0.7028275341647685,2.163495204816776,1.8429563957042774,1.243519798769377,-0.9356434835552321,-0.2317457225452202,2.1229215117324074,2.7869687695100467,3.620362632109021,1.8509502582511317,1.0296481353492482,2.2512154326367693,0.30841711185514953
inf,-1.2510686255860377,17.11364303930964,19.144690992595887,16.16491572890465,1.7008434046155152,4.6269561533301555,5.405343173629362,4.364050119906548,5.03665488988657,3.723340289525538,2.3472622786499997,-1.1495295225146975,-0.6280100939353801,-2.1750036543979405,0.07193936033781512,-1.7132377097793139,1.0388587215379133,1.1797001087141155,0.2084918789184229,0.13553360247327362,2.0265639083817675,2.0151658592485333,2.3729074415486764,2.58825545682177,2.2103179937489585,2.621042744319503,2.121771263927279,1.047733951585002,1.475859746699932,1.9388065390359586,1.4850693847288667,0.6990907643298883,1.691849599569558,-0.8710926859709005,-0.6758182557063179,2.3072914697433973,2.4886952130270004,2.8492438256868837,2.4701298054682184,2.5740198042060456,0.9509674408512439,2.352483701165177,1.235526077991004,1.885794676151363,3.9122114797104146,1.0321898346334706,1.8591587235171616,1.905117979207695,2.4613224383553316
inf,-10.326489490919668,7.745196418667351,10.585099100169703,9.568621047150398,-2.266429131231643,-0.30068977460307167,-2.235344299447398,-1.092374345952905,0.32939957594541625,1.6520776541115438,-1.3492293330961616,2.004069804860748,3.829475511854163,1.5165695827459373,1.6035282709190284,2.2033600045020663,-0.4580648619249885,-0.9238307657691394,0.3568825104834019,-6.056980824655099,-3.9373249449855123,-3.3835340061625985,-1.622264604944334,1.3656303081498251,2.3405528979325396,2.763410409297464,3.0096998667611388,2.523534010087019,-0.20170532126531526,-2.6533984820856205,-2.180507489515456,0.012636986247592574,-1.1538076347475368,1.081295603891057,1.1342878663918938,0.9625455925556423,0.5808678870518023,0.3432393307892809,-1.1149160294550313,-0.015470646311605663,0.5847470673959307,-0.11519388754908277,0.30061557564324204,-1.3247274368218456,-2.098565970302495,1.4194637855563457,0.12638406225990195,4.661770801078518,5.695518346691145
inf,-7.506686873571878,10.08909434973037,12.87281735101276,11.598474808936002,2.225939203423433,-0.5353134484863844,-2.9359939450857055,-0.4061585135927146,-2.443955984716048,-1.49348983687441,-1.8078208724615124,-0.45207928698111743,-0.9451338942266858,-1.0125689498892427,-2.5968675714141654,-2.0800975955881214,-2.673547684324582,-4.9015380297928175,1.2981083011210188,3.6403212453604894,4.6240467317732765,4.452372868781673,4.961964515810543,2.6552636241567242,1.886157233164731,2.019033225503108,-4.423926442256999,-3.759075074692447,-2.4514565836071824,0.6739800973469414,-0.040931308408133305,-0.31923221720168726,0.953668361136863,1.6467957699156486,-0.9059121602262294,-2.196361289480542,0.7999733317822049,2.9249172169768585,3.030992253853057,3.9906967508339477,3.534266808179787,2.1311390596255464,-2.1179388707679223,-0.7117522248582802,-1.2565036655425388,1.3130410687564051,1.7490414358713267,1.6751280572147635,0.7835024484468676
inf,-2.8616939304518128,15.89085489664495,17.531476988092148,11.397126965768408,1.643454675108071,-1.0460477781925697,-1.8968504436577263,0.9980953021778447,1.8906114589008638,3.1432382061081228,2.459140281993726,-0.6549030426877636,-1.6371414723961593,-2.4239542463873818,-1.3012417310033584,0.8194942413529773,2.3326335449433984,2.9503175897556986,3.2577214385590096,1.7338163908138213,1.7309391014959132,0.2872288806188905,0.7483667548162174,1.349487804047186,0.983429204282551,1.3607640731952628,1.2070213807525718,-0.08748012359780688,-1.2776404428674581,-2.5777193414008153,-0.9140542769032436,-0.9239858298561927,-0.9671119810477435,-0.13543625518286717,0.7408437551252973,-2.509104677031381,-0.23349606490642572,0.12484607734716491,-0.295855352869566,-0.01619057783590705,1.6971219696462398,-0.11189893156680597,-0.3738636898651606,0.9721630817650535,-0.07691280458097793,2.381792827364535,0.6997858552779448,1.0572417196688875,1.1235047501413717
inf,-2.0390537170269503,15.224040417477294,18.21605780653215,14.951612220233493,3.1847663081220965,4.386459450150472,4.778678379401857,4.26864652334266,2.4700857032966645,0.8398882493613584,1.0329488729699534,0.6248713618386077,-0.969034064565129,-1.3095834285071106,0.7069874801720175,-0.4830069481884678,-0.8515183738562939,0.4447683185793352,-2.2841468336729776,-0.783073307677455,0.29612431730026856,-0.4534468408773762,-0.07935275043764278,1.1429882724163036,-1.8200565363666072,-1.4294369612220592,1.5453055003819358,1.6294229805476306,2.1039339936609167,1.4941495764489474,0.3479088893916966,-0.04035534827063003,0.0632988507730019,-0.9580192711555355,-1.82076489820097,0.33457491975639186,3.594638593374974,3.114821769123971,2.8681103933541934,4.623750307778259,3.2871330596370427,3.6040628151797307,0.0845647452592786,0.46857438498524573,1.5564345306184961,3.5048232382083384,3.730262002758117,2.0824879914803063,0.5159266579872295
inf,-9.810841502251987,8.688573652031712,11.252273989188646,12.028733565150496,1.8106034619003424,3.4934492746766033,2.1566424574761704,1.8929186514499534,1.796410302465901,-8.100580830311394,-4.660882373579668,-3.2473856529121647,-0.9420925562284381,0.0012582502378251093,0.029428015563986776,-0.1098182647844439,-1.3383206635237315,0.6057038870153164,2.489413735407126,3.266082980799993,3.9957375272215714,4.267211623004059,3.222909443206568,1.3738819908867086,0.7922104537370771,-2.6664369104301286,-3.43754829463456,-3.3743532225546033,-2.040059256429828,-1.5354324020369035,2.1959110544364435,1.4324874035635347,0.8847782528250008,1.0059885426945812,0.5912529132178506,0.19488361859621506,-0.9517414562961832,-1.2556716901545855,-0.7744574797355668,-2.150969924646958,-3.4038825624630817,0.02011118462908712,0.2662773693993046,0.5934498750475967,1.0666516282815408,0.8204608056214298,-0.8339405691146808,-0.8823153955966063,-4.600284558148708
inf,-4.51570027304782,13.953802253862289,16.44262154233372,15.914658866858336,3.383678863610438,4.025990759018111,2.286481894799369,5.347669825241336,4.789504926275452,4.413445388962245,3.010821442151908,0.08677325070399888,1.2282270658741012,4.421841517740297,5.262920237203097,5.048049392139532,5.2251808212124615,3.5427939157740482,3.418723741708689,5.691932383514569,4.675819402583407,4.581218038235207,5.499035477649869,4.551612377554868,3.155427567399123,3.305970830226414,4.240024399017912,4.863390527820407,5.4270346295053145,6.252869223322925,5.679726260474233,3.8793795071571466,4.1420358166669615,4.653537615564936,3.924395308570517,5.049040692836037,4.735726117975922,4.072280416101336,4.925043769941901,4.60819015163046,-1.810528504482832,3.212510147251791,4.973701108280615,7.084336098311269,7.403429941600649,7.052524374683067,6.097325965971351,4.981858377671472,5.350497498128711
inf,-14.894546666517398,2.4827143427062595,5.595206754422321,4.625446549956667,-0.6120866676191312,0.4076234094494211,-0.6305776622271324,0.22587993846166654,0.9084135616759212,1.1627358155806888,-1.034091994829943,-0.4966098869887503,-0.10568153245892375,0.6115028201073969,2.366901145667768,0.7563174916660529,1.3859883214279591,0.9746578790399596,2.424505347669765,1.950998023708145,2.137542460595313,1.892330137015179,2.9902701895601638,1.8911763630198237,2.9090362973070114,3.01018896157116,0.10145209449499504,0.5605434170632151,1.6393982567243057,-1.3606761825807254,-0.38635871304078506,0.39619007583046084,0.8109056767557234,0.36638282032689773,0.13397897797283775,-0.15326630047942302,-3.0698485959174917,-2.0237977311926088,-4.732193972480019,-3.6538538071965334,-2.549066695842029,0.8111007182227965,0.5952761768144939,1.887224275036445,0.7641636830575393,0.48269179418464603,-1.8024344997177835,-0.9373704365744118,-2.650604891141718
inf,-13.014617527651149,6.244698956308593,8.28960525362903,6.834050073857167,-0.7702173501887906,0.03969479429039069,0.5909726305367826,-1.320200809978246,0.6894640726620906,2.097242880538573,0.8283192348918504,1.8898755246187307,1.6100990464960674,1.100031077981491,1.8059504778179942,4.058581178619171,3.2238108614960765,2.027293836415822,-0.3067493942861006,-0.7319743010347324,-1.5108830054824764,-2.469123196469468,-0.7188390980715837,1.4650290405341053,1.6196873794473277,3.4596177397198105,3.5693914144064465,2.373236949359452,1.6249615853208326,1.9063902641024484,2.2845780812462735,0.7285930525448308,1.291884256137834,1.3358829867697537,1.0977575632833592,-0.2513486956318971,0.06087564731840445,3.214225248290596,2.4019296256123255,0.8500276147988899,0.11254744649671977,1.9664419254394687,-0.4651632498444229,2.3490920079364983,1.4991948587335386,-0.3466828515521456,1.8593944312948238,3.2089538149385746,3.5577873777259867
inf,-13.583501701204066,5.27301846782974,8.249584530757712,9.350003011085878,2.6215501315265612,3.79711970824588,0.7697344988877681,2.9782869006154726,3.5665048149301413,3.624231802391087,4.938101107460373,1.2763316502313273,0.4561204171922171,1.6508944858434589,0.8444761962965401,-0.9284655371678312,1.2874575352927735,1.3507821942430596,-0.28738602425390525,-0.07647617682265917,0.5328460231945087,-2.3224584387424727,-2.238897945041188,-1.6017524296038772,0.3080459448025721,-1.0345471590781443,-0.5461870138973666,0.16809782962867814,-1.3101345648206006,-3.8371970498754706,-1.9642932409352696,-0.6984846097624882,-0.5923038825810494,1.3793893346592867,-0.2792873398209892,0.14076246607270093,0.3221044486192923,0.4284883046369572,-0.6458523240460252,1.9292532527094366,2.221084701587152,4.347083612889115,3.8625371484353295,2.8436107558307313,1.5166823204732722,0.7786771248722459,-2.764661451488145,-1.8850325114586326,-0.5574202132935966
inf,-6.805676325884802,11.790789188555872,14.752798496774385,15.767226219686393,6.434974876522979,6.238732621146063,0.9720020316912823,3.055172547574635,3.6100345083424408,3.1447790622943366,-0.23061945411244977,0.993384045368046,-0.49231503526835496,-0.7111072677898278,-2.1872187946075314,-2.573157351357935,-0.3557110017264691,1.7161393161173777,3.2205902824475388,3.274751093304566,4.225169822374532,1.7979682508128576,2.486310028335872,2.685205240218309,3.8542613198635536,0.812782688926653,0.7807142196287487,-5.582942921634917,2.785931800834092,3.3539817618130954,3.640733571764592,3.5562529825210873,3.5264808770963256,-2.5924430863660675,0.5563447745952246,2.935818240882398,2.3587983054706854,4.667176158604711,4.293712095540471,2.883124470012099,3.610198394908707,3.9704582908775663,3.1611588247867104,6.0938523065778725,4.49083696374511,3.477263116178584,4.4309807465367825,1.0951859012186418,-2.9135785922645496
inf,-3.2799726048356113,14.40359213387052,16.91696538527275,13.676345919455205,0.31785363078709494,-1.9194298365612035,-0.8379365775895451,0.21037270461043533,1.1565496105018624,1.421564963759515,0.2546825734111593,-0.32731897605673055,-0.016647711575892288,0.5836491938751536,-0.1542257883380529,-2.881547739519384,-2.9841739399095175,-2.0947653153422863,-2.564277717360028,-3.067494635947895,-2.051936280258559,-4.932062565081566,-2.810673331522189,-2.948444388905365,0.5879383420904034,1.6165263440819402,1.338675266292931,1.8144490520804268,1.7732161322840412,0.49177665580211993,-0.10452552369250867,-0.9151415197597643,-0.5730201305615807,-1.5442864316713738,0.02870137572477205,-0.8716807657380485,-1.3983686228320096,2.2132436342673216,1.3331548343482211,2.1222160663226646,1.5290051485361573,-0.5022726170297105,-4.0027811706188245,-4.5034310435600915,-3.6498931763675415,-5.7266725520982575,-1.5347054277606489,3.113486726644254,3.791863654340382
inf,-1.1841959836634004,15.988107383255162,19.232987190000813,15.095656425797866,6.106744542171651,4.407081068554458,0.7708623911213373,-0.8609034637229485,-0.026910566001696168,-0.029119838033871304,2.2501770732658386,2.126966459278009,1.5495934899744483,2.487623118107379,1.993798787087698,2.5662474112764286,3.3708414716374833,1.7435593674970917,2.461271692100567,1.574125597268008,3.6782613055507056,2.881090819674526,2.9988057210709513,2.7160626903637706,-2.625140323851639,0.3244833942034191,3.312147455364176,2.2265186446864647,3.5972426633223407,1.9890290938723822,-0.4069115306624127,1.1077516886164034,1.9984813450358132,1.7680731670628163,3.113151725744018,1.0359803676811623,2.7020999660044183,4.980468198556302,3.8499039303070433,5.585378167256593,2.192724475799551,1.8822756466358896,0.16855687576481415,2.5523536190423997,3.6977261394299887,3.4678786719457477,3.55435104138666,4.703056643127169,7.281865233309539
inf,-13.678174846011643,6.540244899804316,8.741659389907081,8.655019123080638,4.441574501833802,3.5415399311977858,-3.2483384126151194,-0.46046299517217193,1.6188084437957286,0.8935089989778788,1.5106014444777642,0.08751812745700249,-3.9642164610853,-1.4966567387863279,-0.6543793777479152,-1.9431987541101208,-0.03889337367035495,0.8952713933529708,-0.34019288925588853,-0.28488529294912723,1.1871372391698287,-3.718942685648578,-1.127693973747725,1.7434710177919683,1.926855203705209,0.7417941218369961,1.096965833960219,-0.44378268741162685,-0.6968747753782765,-0.15659249526048313,-1.1870875850776272,0.12169504197018455,0.2593450479769217,-0.5815042917914042,-0.011732516271997895,1.0109395769471519,-4.188210262204983,-1.7305205774592096,-0.11965170001922587,-1.911953910316214,-1.6709232831823542,-0.6198373627011051,1.2608250241892804,-0.2309872656270926,0.5026645712552451,2.2563377647652274,0.779282875129347,1.530407480504664,1.1679084594279772
inf,-2.037083477609593,15.043910601852723,18.09599581449885,14.6980942091793,3.360324361090253,2.303490975518624,2.278491332553898,1.7042791519632274,-0.34732952705243747,0.8999410362803602,-0.40774526496321073,-0.2781433422784545,0.7209346696919638,0.4416390936635395,0.13014926941126959,-0.2704964596848569,-1.2971456405545254,-2.7972141225207565,-2.04203900063348,-0.27516392735687845,-0.8127524720611063,-3.0960930663022452,-2.764777873728626,-3.623142030947534,-0.3717460458509123,0.27998316928449896,-0.9258536775174662,-1.4419750154612458,-2.599588958758737,-1.8210267189959026,-0.2684944455366818,1.5698381821476985,1.1726119621499151,1.9666520205288478,0.7317621697901942,0.9119417381882542,1.0593285987688361,-1.2421470098154046,-4.348362660662481,-2.0477555245524144,-0.27410021839762777,1.6130371275024515,0.45785139745229486,0.3588456472730286,-0.5366427704597925,1.5481263725817342,2.4921505264730186,1.1088608601527667,3.4258382602386703
inf,-8.829758261357268,8.12091177247385,11.353601768907982,7.514639357712625,1.4545916389454696,2.4437531684926093,2.8807442015098665,3.2732241172297805,0.4137787206810799,0.6976991454702528,1.4742808690143363,1.672029768587322,2.609846631754138,3.3124169443788247,3.0641385352401684,1.0760547049073281,1.9748113898635964,-2.8068450777121257,-1.530521439895196,1.3642654316729264,0.5178809157247031,-0.24711255545529554,1.2293979231949592,-0.6430365589205138,0.33070867768375933,-0.14619556270844924,0.10378003779114664,1.3138084300896864,1.6823169158088476,1.7131121073560251,0.08685897875830761,0.6348168902487217,0.6220361861828394,1.887357516111372,0.6230117166484703,-1.1192579940888692,-0.07128271552863197,2.417386080805791,1.1909393256453598,2.1002268031186375,0.40902350984338653,-0.01974418649555787,0.8689670264364864,1.0693902639705755,-0.9764435857034499,0.6328379470035514,-0.5743286139374888,2.5955416885337925,3.394738628367726
inf,-6.080154359470956,11.686972986684458,14.304458299316924,13.529804413476,1.077376474595301,-4.553944096864587,-2.6993309538032335,-1.0405016355047891,0.40137414872241095,0.1537352850892546,1.9248346508850247,2.1117693504152726,-1.4727416786629064,-0.23269659445929847,1.1636263583127402,0.6120916965810963,1.0949499959333977,1.6378825208783994,-0.8669013056424077,-0.40921699889517527,-1.5573737091292372,-4.515376548514425,-4.974946299396258,-3.6062995244609937,-4.054594441202688,-1.388790252526185,-3.6208900467623266,-2.7227406730791017,-2.871939731689217,-0.6379775946050898,0.6807655280611655,2.219169067130899,2.350319510121011,2.0906758621133434,-0.6904786103662275,-3.56115005794652,-4.362963522235056,-1.8808012401877292,-0.33045234822584035,0.6466798081921965,0.8262227037602585,1.1033703531479446,-0.658150200335335,-1.0488324318852946,-0.7091442333121663,-3.7528725588622436,-1.581816141316537,-0.7135000999412924,0.07831282093543024
inf,-19.085558009654324,0.8150957399996273,3.6054358916286766,5.477209728672982,0.18934713081598886,-1.5237804460604316,-2.0801824326982725,-1.6276292856017776,1.5951106257001157,2.5898940689632752,3.6589114301371595,4.146729418484107,3.937758076405835,0.26025617477436924,0.28204748002377045,1.3464976285323118,1.9094027613617897,2.6600763145548356,3.697883471724822,1.0659514114919162,0.8713327701327245,1.0474487648310884,0.03051206846121346,0.44988532748566,-0.0712180132747946,1.3996033310391098,-2.584253097742078,-0.30350783829113936,-0.585564252089732,-1.4898885150152381,-3.1875727940684087,-1.5690236086229987,-3.608730480098373,-0.18137816052638556,0.5539297978948383,0.0367001235934481,0.654681682891777,-1.028388942243133,-1.4077168232022927,-2.6012492741316464,-2.6870259996683714,-1.8174125165311565,-1.8960959653977199,-0.8216756715939724,1.3885679591555729,2.310445413298858,1.863622964771622,2.6754256744676184,1.0326237542643142
inf,-10.992292216805408,9.484989786407834,12.142721112400451,13.534339211688485,3.7068226516619376,5.34037673227532,-0.23715576042005893,-2.3129059982057,-2.2226556462102494,0.3020998165901858,3.581226065940122,2.5964414206232647,3.254541388034383,2.866930671208742,1.440746581054242,2.0930920445936962,3.6554071174629073,4.278150819798412,2.25039819566166,2.647360859900502,2.5453147163021725,3.523860707056855,3.8067874356019757,2.8805673400279517,3.429534750041718,0.5980567617950001,1.1765747361250334,2.2050482212469404,0.9628159641996703,1.9137163420603756,3.399941396321651,2.360164367677214,0.4340066586081406,1.3161590261728264,-0.839214310788428,0.3465629266370769,3.861626625618925,3.8980897170516613,5.115920453900131,5.235778024762666,4.975880691382862,2.238374021755355,3.8908532453805904,3.7537791824793487,5.167529670184727,7.8616097460583845,7.043614731857957,5.79109761792688,4.224812329665575
inf,-6.056527055685777,11.096582368317168,14.187255274579359,10.062274919728122,3.2920595992949835,2.75524549432863,3.2762776328541996,1.4327903097914003,1.740953479985933,-0.060258865309528176,-1.8874226948774506,-1.7725126360733867,-1.6403013572314435,-0.12879193796877786,0.883619453249608,-1.1137301708793501,-1.4784546803526624,-0.8177096697970683,0.6868257072029778,1.7518912975320475,2.9806148221021616,2.8657277197316873,1.2719309163541368,-2.0067908619022177,-3.5811483724393014,0.7995451792787875,1.506706769579587,0.7069544722368306,0.348721376459757,1.6311068327421836,3.201673948887077,3.0237502159657836,3.934570139570546,3.289364796896116,2.3368732053519707,-0.03587952824958052,-0.1668922902475316,-0.12456788401748042,0.6782168026718622,2.2691914674268148,1.552200747744962,1.0159644567402495,1.2946548621127008,1.391800280983901,1.9094671900801217,1.4868648045153634,0.8738812547435941,-3.834099987956421,-3.3431784102800535
inf,-17.1978220754552,1.4117189172850324,3.2318555742321173,-0.45626376922652767,0.21672045747125068,-0.7662911950975761,-0.6281969959625826,-0.5070278592225819,-0.7627145282245706,-2.87533942867384,-3.862223809047279,-4.04257430776763,-2.347796617422347,-1.5058438957254054,-1.5909046368939386,-0.41392087582353554,-1.7527867199205147,-2.8426822724793936,-4.19962233793342,-1.1241366258278305,-2.185082787525886,-1.0799983185747095,-0.3784345160429652,-0.4332205339996733,-0.30411369317140213,-1.9788877825189104,-1.2754085694690716,0.6575946474721377,0.28446565366575527,0.06122814489131656,0.5534851855009677,0.18524250000803022,-1.4484622329035446,-2.572757105048005,-3.307320005974404,-3.5884772705551455,0.7116805108478559,0.5885493186362964,1.2659686724403798,0.9953174734350299,1.3741034702717698,-4.919498831092135,-4.475521077172971,-5.969799330653657,-4.676365938333404,-3.828386680566439,-3.2769906769881345,-3.3659200576231854,-2.7918126858646346
inf,-7.676765330739121,9.258557315927614,12.709669798471477,6.3960227190075685,2.7429946895400192,-1.667326663540731,-0.6223462603133427,-1.1788450092605274,-2.0316766560360975,-1.6761755231948356,-1.5357019272260217,1.3241296490105796,1.9148267478337786,0.9925654812399927,0.7056595741432758,1.3857786988157912,-0.030168546735644952,-1.3912361412613166,-2.3180707645509813,-0.91973985698273,-2.1514311145762903,-0.0655774752093734,-0.3602404220039901,-1.4389820119237982,2.869705811021504,1.2341443053784076,3.3071494830912513,2.7479311893170575,2.890495971568342,2.058300990298733,3.0298453236505196,3.860204227764413,0.3289657356164426,3.0175722293822034,3.2194687078433404,2.357102245918739,0.7024233092136924,-1.2209534086079188,-0.27175146141217255,0.6282959794804981,0.31570570296368317,0.1846579091742555,-0.9645299802941167,-2.9653378344288797,-2.0692737870933797,-1.03158961065715,-1.2992602487768181,-0.6087906957049682,-1.3335950904020848
inf,-12.159909175231343,5.5500554219937435,8.578612020296703,5.784763299834996,-4.603736228347582,-1.9878707039056174,0.8167366975647994,-0.8698557357812788,0.9884224664921106,-2.0229394133851173,-0.7838380597678309,-1.0075034144862016,0.708444491458927,1.3583374158144892,1.555758202996877,1.0420862740377856,0.7195333413884484,-2.230128085234668,-2.0999158653683807,1.2058432244210806,1.2782486578128953,-1.3786465876878253,-1.2804406488379314,-0.09865642499274685,-1.1640155232751113,-1.9115385285120183,-1.1497603012451094,-1.544780126677594,-1.5733790976559376,-1.1511506182612479,-1.643462118946374,-1.7254492342518049,-0.15263755742056162,-0.006200364782657175,0.37027732131148383,1.469126249771719,2.0257754696963914,0.5456774390341366,0.8629354710730723,1.3777370485735148,1.9659470985159757,3.629349742286557,2.5092471098119873,3.979135286831543,2.297349091516665,2.2967646473716243,2.50753759750539,3.3953441339727135,4.822258046172003
inf,-22.529743741731885,-1.600390941934652,1.2872824161600853,2.6444135816489975,2.5961341196927314,0.512469324616692,-0.4022681173991103,-1.5997925744265586,-0.3710431117325115,-1.0204380996174578,0.21715974514263792,0.04241202511326492,1.1825399730713713,1.227523272262431,1.7521267787347554,1.4308359006559286,0.9074921297387206,0.8883858761054526,1.6862316603455412,2.198409674364079,0.5632563846271594,-0.052215925475529446,-0.2614741576892001,-2.6817349375650394,-1.856760070097991,-0.7349795792110285,-1.8384100932069884,-3.494589580038493,-1.3348681078899745,-1.259000116570519,0.33009971125120074,-1.0232814447021212,-1.0046489915065493,-1.932862681759751,-2.7385510894450604,-0.0716964248861558,-0.3294562742586109,-0.8001896701454925,-0.8289104160772638,1.0825189268376718,-1.281075086007334,-0.9832334424477125,-0.7484710860856083,1.5250862766072828,0.5256418046586404,1.0536587686816432,0.8376305077591653,1.5010708429402726,0.6961649914335837
inf,-1.9850740167375984,15.304674766355333,18.221582491925822,16.484598215489175,2.535333766706316,1.366220700265977,-0.353053974673152,-1.7222492008884203,-0.4338743678315353,-0.06986622359238481,0.0521543033383054,1.0126485502865776,1.8347059371342027,-2.9491027569566057,-2.432724341834273,-2.8989002988509327,0.6515216920265416,0.7704676930784657,0.5256515738371093,0.6388321479745755,0.4146319575581998,-2.1867697023812838,-3.484311432788118,-2.4467603591120053,-0.7105684027301038,-0.007864130730290242,0.6548449601057271,0.8309273074829377,0.8047932233972404,-3.522318613622396,-2.7832595701600695,-2.973298477419455,-2.909965327399192,-3.1070858590435932,-0.178625510243549,-1.2612975938420092,-0.8876168669577069,-0.18008108814543533,0.6774730057902616,-1.037437693527714,-0.6965291323840148,-0.26250825154920676,-0.9618699687110848,-1.115140340186123,-0.9627659630168424,-0.9434545860708354,0.20798872998169315,0.19327749936958583,2.5213887174416314
inf,-16.084720914830942,2.0746809141319993,5.178328966977595,2.6638617131666322,3.567078540724296,0.8214292366078197,1.4035940300549186,0.675164380015957,0.9902668685596154,1.715777481756831,1.3847362772189697,0.456028668259691,0.3112786736654769,-2.0170154181823534,-0.7535075508852884,-0.09823821978309155,0.032582538586531484,0.5425865154513829,3.385393306190956,2.541113267707388,2.746482213768097,3.4787750013814787,3.2747826267881948,3.446875633762346,-1.4847614277942611,0.12534972170983139,0.6951637993218185,0.4565966930052383,0.17821746746681555,0.4832366265699619,-2.2787100719898348,-1.560539139563808,-3.7711545462830287,-3.0449127705339833,-3.39222416860337,-4.016280578414474,0.8982389743784509,0.4971206880140002,0.4964700689005781,3.057075325052253,4.059730757200377,3.9899257253657936,3.358930447577684,4.228509258208597,2.047130745856677,2.6867230942807367,-0.18394510096925387,1.070116190304013,1.2818595839665932
inf,-2.7265046746588273,15.452705205171338,17.884979746690405,16.32002076658823,4.33763600996102,4.225658911073584,3.9609038409211657,6.180161281069186,5.365107327674174,3.5578209877551394,4.582138216409621,5.398097537847637,6.205940316264602,6.506591811448928,3.990976090410264,3.0748113527683074,-0.9844271211414011,-1.154161636969988,2.301988443369879,2.2255569725236555,2.9168141999504726,3.6083562395946345,2.993925918130138,2.869371652070541,3.9533526323638384,4.033442786497957,1.226893857110106,2.8530189878626544,4.681630759354341,3.7166355821867754,3.162891551782188,3.705127273325971,3.442090487711596,3.1587947094224518,3.2614509915766945,3.4335288829868063,3.8934486244433586,2.901378863308828,3.7958100551964833,1.2815303018373783,0.10421646182160771,2.6834618401228454,1.4256090874837568,3.4546063395115496,3.27491639525838,3.5128807452599276,2.1315894200433902,3.9123242883170235,2.4835873711456955
inf,-6.067818685979756,11.418699731120252,14.339975827374179,12.874151524485479,0.9038636860126914,1.2066331452713612,-2.094114871879796,0.13569978597785592,-0.6624522476765478,-0.6755275543795705,-1.0542845729182702,-3.3292491107366686,0.5189132687493085,2.270855914076499,1.907354973208598,2.5868649276045304,2.19744151787917,-5.18164016818794,-5.16365051338677,-1.6230098649486422,-0.2513789263963915,-0.8928994711627922,-1.8166787441775796,-1.057348224668388,-1.1123423717140497,-0.5382621630211801,0.2793993709505571,-0.24919180613984082,-6.2841701632736005,-4.4610327562359515,-4.022594430370532,-2.288061350156269,0.24025807979099056,3.6537535475395373,3.524785211945762,2.886551392119678,2.0550660567299914,1.1406009235747163,-2.5531628493767684,-1.4568824119177677,-1.6553829440842733,-0.7130986148730187,0.1793323175528556,2.1248186084875442,3.5010482439943402,2.9187723026722736,3.044651062754369,2.004533848711155,-1.3954064583591617
inf,-19.369898768082855,-0.21483938674669645,2.9792967133575736,5.163903204764303,3.3424417599745375,2.5894937045145454,3.807192329440909,3.3061415895669555,1.7566750167333325,0.613967679532422,-2.4470513878337172,-2.1076698648536976,-0.9740289380951097,3.2884565235810186,3.442898214551377,3.3106937991818484,3.5904406176232726,3.0163648714909286,1.7607750977710666,0.6365931413109536,0.1798309772644231,-0.23451015267316677,0.19864294783484837,-0.2574499011303857,-2.4722947563647324,-0.7867685181904207,-2.732308830133846,-2.394924877350981,-1.990675875020976,-2.937907015234508,-1.6185639595190153,-2.882434855867828,-4.405708479618141,-3.480520209204464,0.6921530405545013,1.4029936864697348,0.9108410794855217,1.3962696111715402,2.6244271859681874,2.387954199099447,2.6950969732390675,2.302479162225893,3.716142419977224,2.16119517218209,-0.2144542973632042,-0.7590612646346173,2.8522499836585524,2.0777723299320314,5.12512963011681
inf,-11.318488756094565,5.81305005368969,8.892682293904656,7.127915752677431,-5.682202157402063,-5.203067396914452,-2.8553324202786072,-1.0564972814410964,0.24014689787925647,0.4257278900101582,0.5885133326197263,-0.48273092067374535,1.5447974394658175,-1.3345072763453345,-1.2078356190885842,-1.0990071061621265,0.8895991901928042,-0.21445506135022896,-0.1560411294797177,1.0433813601690645,1.5016277035631092,1.3174603435006915,1.0043884170331765,1.969929940240874,-0.9542684471454237,-1.598005770945015,-2.170900657955265,-3.697961804159185,-2.4677338753532183,-2.633614487805694,-2.0615935005293835,0.9304350711186444,1.1877978116704284,1.2567740516319077,0.8787660358556266,1.552872301985154,-0.3354769920263081,0.2863494299874887,0.7122955115160892,0.8807926247538092,1.3650417471480196,0.5803779794490893,0.03409763224117768,0.43316270182467775,0.665842388518108,-0.010356045413601578,0.23264364539440407,-0.34586892751804754,1.018072913622504
inf,-19.826875619619877,-0.9708316575739495,0.8499135543008158,-2.2655822036477744,-0.6075879059644791,-5.288114866040882,-3.767914978481805,-4.053969165805725,-3.9423786073399114,-2.5406723700930343,-2.215368033865076,-0.8790399474788941,-0.3740617937389743,-1.8018289757222163,-3.733234833454773,-2.503912109358602,-3.5155639613944842,-2.470010188925812,-1.0551004463683782,-0.877552075324374,-1.1825436488632164,-0.6384834682444165,-0.4278028598633554,-0.3868107540173895,-0.10295532235682003,-0.6422926783727831,-0.2179052934929615,0.7292558353071144,1.2430330031325454,-0.3975832073700545,1.2113695539083977,-0.6313553371915859,-2.1109120239780736,-2.012966591734198,-2.050579424016,-1.9666471627622713,-4.5485174353514495,-3.434179453783834,-2.4060529974583815,-2.48115522547554,-2.714198002129983,-0.39796114992289944,0.6296350928113057,-1.456210032613967,-0.9337192769044478,-0.610873167866508,-1.9493931116487744,-1.924297335157604,-0.8040854788436889
inf,-0.0022289507641892747,17.20235399548752,20.175820292637724,15.653795544870299,5.553281120198552,2.837338661698979,-0.47323399096140406,1.1433187035907864,2.6175116522799584,2.331361454045222,1.8349602159770697,1.27632102219426,0.7791389070887647,1.7868804057888354,2.332802265537623,-0.1390518351387371,0.31762404795632193,-0.7770471031729542,-3.5192857935576924,-1.9944600905564585,2.4519794613726518,3.224850034616736,4.087918887343832,4.3120382450520225,2.714516149483906,0.7026007448328073,-2.2996905091965587,-4.004117893650587,-2.3883424157705306,-0.922920068255543,-5.137897540005149,-0.45818055119942613,2.694194378797647,1.8409365051257396,0.8692002441498516,2.2768538366045448,1.5885431362614284,2.390314876929075,0.8815736133405849,-1.6431637475340608,-3.3133875303736886,-1.125813628061941,0.5282833807370082,0.7996329718906736,2.2231560123262,4.013636909861965,3.954639159996681,3.7933477132345814,4.7388213614834385
inf,-10.111760995062149,9.368038967505722,11.695949062771579,11.58525267951175,5.443703939347767,-1.468789835448515,-0.6078933385669174,-0.11413978751166809,1.3284174337551349,2.100732569553813,3.210209848342977,-0.7834459033839067,-0.5131187087705698,0.3416382954120252,0.26755374034047463,-0.2657569526003627,-2.7372067457114184,-1.2888269594683095,-0.8990941897666147,-1.6063661784626362,-0.7563777945562009,0.5096787401405294,1.5387877822694094,1.983652648769663,2.7309599512406635,2.9604960112910064,3.2864987688992002,1.8369295229799931,1.3617990592563842,-1.2581285521627237,-0.5136385491168838,-1.9379159758817295,-1.7197896558957737,-0.3510032750476242,0.43180994989919697,0.8932885526649983,-2.3533701261996285,-2.7605114609030963,-2.062370912094245,-1.5787232195813417,0.16719131686275546,-1.9697673598476442,-3.6988260660847416,-0.6437772596580658,-0.8641751803225688,-0.3012877330669781,1.5244222913062089,0.14904193795759824,-0.3470907692992071
inf,-3.515230813379906,13.783546900515532,16.930572696590538,15.615326792652356,-0.7954301575752716,-0.1471400113228647,1.3722340706052947,-0.04597929095904618,0.5477278868203044,-0.8314718400203915,-3.4848350956843888,-1.1173519698520806,-0.515367742481672,0.178878038315041,1.0130041075650382,0.9867873024231884,1.1644505302396908,-1.3413157384404144,-0.8803441436261252,-0.9667574396625014,1.4784018433069477,1.2234352448973524,0.4311732567975568,-0.07661913767910278,-0.1360325653627683,-3.8150588729290007,-1.770065968135519,0.15646266367947703,0.9907774921442041,1.4064328738029488,-0.5799483208495673,-0.16378434536159858,-0.3049153174866319,0.9129118305228587,1.349969198850907,-0.7174811250901882,-0.6723721814727313,0.3859226532695317,-1.1501235163545402,-2.107281643389655,-2.306871560543456,-0.09679495216538925,-2.139861283387262,0.9414146371452361,2.281390737469053,1.047650968682298,0.6834494009132612,1.776279817553288,-0.3638751490558292
inf,-4.84063269617454,12.814931311481532,15.570149881455263,12.796194331892133,3.970789799519725,-0.3284511279792177,0.618845620596602,-1.3357852811687039,-2.317512600242793,-0.1668748823041497,1.4516503028737944,1.6707538417027976,2.109029972253282,1.8404798571006111,0.6727822280243032,1.0635368832405874,1.5488546047188336,0.42971686010584875,1.0416205570157118,-0.14534022250180811,-0.09305392757274689,-0.4743629259473465,-0.2978143699304425,0.9856309635849243,0.9375748570391735,1.0993226411936874,2.3631316439950965,2.8516437501113074,1.4840190821010353,1.2912005378921947,0.8047362656597272,0.3680181225980661,0.7598346393057795,0.4113812655968374,-0.8613263995290268,0.31792751007709086,-0.4718333403044781,-4.523027390254029,-5.057680321306492,-3.1654818842382966,-1.5624817334862726,-1.7165494153745016,-0.4086728398054049,-0.9993657990045648,-0.36505148572315704,-0.4358068281719625,-0.506790342990243,-1.0658337206338473,-3.237578865823359
inf,-12.178334538997337,7.64800866662317,10.725313164118415,12.494819999705108,-0.12369664900288768,3.886320508918157,3.2397167684841293,-0.2309461034268523,1.6510751383306044,1.7406339535422788,0.23021621534376635,2.8490998489965023,3.809494330003936,4.141121216763082,1.7311045230044542,-0.09499389416950521,-1.201729858609049,-0.7247100178030408,-0.7178390102614216,0.5624342011993093,1.6666326013595736,0.7053083045810951,-0.40473484110297164,0.12919544521570003,1.9746754621715894,2.814833527178287,4.211586197158084,2.575618136142637,2.475993133485865,-2.318877035265814,-2.2537412440859868,-4.180872237785316,-0.4342822551263339,-1.7033315379653189,-2.054692574104486,-0.43678201923074766,-0.5490358430634359,1.0983332499481335,2.3050773013571373,1.6666729398309315,1.0723593219352807,3.0106110152477186,1.4666194094972056,1.2866477939893315,3.937071202977478,1.946672643859884,1.451405700329417,5.26891240269255,5.900433522229626
inf,-5.229413385313604,12.218704812242732,15.07726408747025,9.307790638624226,2.6995279095681504,0.9572634594173905,1.5789062146916066,0.3513357474602117,-0.23592165439955437,0.6340332729641815,-1.7146478228529105,-1.8888764527296118,-1.3006672994685289,-1.0756895491176977,1.4083668391952529,-0.13763786573372983,-0.05300723305255417,1.2683931702674514,1.460678825080521,3.6269246836042157,1.720464601175486,1.2204585704311768,1.0951454214628242,0.3276591251925396,-1.54146521670733,1.909372246806555,2.8429925835260192,3.9018529501212385,4.22241323051896,4.3615360632994395,3.739574207525088,1.6494101772659704,0.9551126681088462,-1.652680567486719,-1.883767075677234,-1.4210678629677744,1.6144185546780037,0.4559005514167538,1.713211322794308,0.6643954964294423,-0.6404851485054479,-3.8950821679325216,-5.110400464849121,-2.849468942738511,-1.0244834463187829,0.3612097724423293,0.36906575365087235,1.8603666888671384,0.24257368804332913
inf,-5.283218308728616,12.774351596859972,15.196879749954947,10.319857084370724,4.026365945046184,0.5681564873737308,-2.64764602196437,-5.375258870533827,-5.184306065143282,-2.498908013578827,-2.2968437444731293,0.0337002450220254,-0.8703362454640171,-2.464940817519569,-4.177467956599109,-3.9211700246300296,-2.374377457503094,-0.041546051316906585,1.807648287352059,1.691896043787402,2.459927659923906,3.898031131951498,2.0175941945854845,3.076583436462954,2.001897069804116,1.399566140509691,0.502062133956116,0.19029705219910653,-0.3082467809723397,0.7222224648017814,-2.3174939265490053,-0.19155695707848253,-1.3160673145182145,-0.33782243168674597,-2.4327213089818613,-3.231815496211347,-2.3430141491915535,-2.866144016504059,-2.0105018130708103,-3.7649263556584387,-0.8323720225892544,-0.861952106833229,-1.3598070150705226,-0.20925130677855464,-0.40100146706799933,-1.4391311307001828,1.17520626152141,0.859659003583026,-0.1537904412332054
inf,-6.561281628542934,11.030576025229994,14.055725741668304,13.594525057220155,0.17423016810971603,4.054435331596704,4.632583773178187,2.569635818336728,3.6415241770543503,2.7126482655705857,-0.07875224949836479,2.5007781266574014,3.8418000290050003,3.985372196172797,3.6772331346810176,3.699965870835264,1.4466532316460814,1.6538243428277042,0.715662919529052,1.599912856328885,-1.35326122649181,-2.3007574134057194,0.9480785465068138,3.3943576672327396,2.672277835727229,3.8659040460772403,3.323284373368857,3.567292992900313,3.3172957389840576,3.845929483678553,1.227966044237128,0.4512963140771973,-1.8019371540511955,-0.46884952802221846,4.49258953470558,4.190488849784849,4.101847736692939,4.2293701842272355,1.3130945942048626,-0.13379623328516033,0.14960648512830943,-0.34242282641729815,0.9409135481186439,3.4382558462541652,3.138803750527387,4.371188813181277,3.5770356606866045,3.8558602082899682,1.9850049006947899
inf,-3.9894464066074575,13.234072770805808,16.186471206948102,12.478797066257235,0.3601700228936835,1.9256675929548273,2.932661325188864,0.12919506291916605,1.0805994136546033,1.1261085026491102,-1.0963696979961597,1.6665227285990127,1.5030504273765928,-0.44455551760250955,-0.14013526904825824,0.13803127472878174,0.2379522698293286,0.6690698570386289,2.010203023327307,1.5182505159798652,3.0457309413458873,1.9281537290527524,2.051421131957902,0.28386502038264894,0.8953840768449766,1.487055692024228,-0.29749457783333355,-0.34035325062401256,-0.0026040801610278663,-2.0800786244245515,-1.3778995318856602,-0.47428397132600963,-1.768433807076157,-2.9011358448971336,-2.326305784463841,0.018816987739398883,0.13385733962954305,-0.8969856988207567,-1.2145238405032543,0.7407719942133824,-0.39574644602276976,-0.08577289313696923,0.7587825766546175,0.3840835501930897,0.5562337917554032,-1.40355633193262,-0.1436032175591535,0.0743665340058044,1.119785044390106
inf,-20.34588833684664,-0.3637367834794887,2.0026237480423497,1.8899152942062045,3.252222061445611,4.318692216617464,-0.3598656804158935,0.5074020321409023,1.2674537647476924,-0.03513212272675048,0.09226159197274342,1.097756388550529,1.0243990135404886,-0.2571743205846033,1.5898137549841067,0.9807452322209045,1.3470386644570524,1.978373714099014,1.0593443033936651,-0.34229248688314584,-0.1605973969651444,0.5802695348971127,-1.3087341188633985,-1.1718565528044564,-0.0679912198510948,-0.6121295538779279,-0.44201348886320346,-0.29312366774910714,-0.6547606500408278,-1.869955280899248,-0.6772088980089634,0.2962314671791404,-0.5604179080740437,-0.2747741040266405,-0.2691378457332121,0.2677749884849163,0.5849882677521521,-1.0387414224128477,0.2156984721338162,0.5198677289730469,0.92247373525435,-1.0286757414706997,-0.04249391231738997,-0.6978622511034018,-0.5371599066564698,-1.765464130592676,-1.8861433226793167,-2.5900789591680393,-2.515818042719445
inf,-14.358151910839942,4.5928265720413215,7.534936436335759,9.295231428510483,0.6931933623023028,-0.3323551045563171,-0.8778071447901326,-2.148455183237658,-0.04035233020795914,0.542866977660168,1.1300007848726494,-0.12408048426293306,-0.2466983200727384,-0.6977653178522942,-0.9417047725644636,-0.1598724967286529,1.0711453921438334,1.2417397416494538,1.2735170917977925,2.2221046651063503,3.095144318179919,1.9510913205795006,2.1545548491739552,2.223455413020048,2.171553111856994,1.6187413050198884,-1.2050279612196064,-2.250118318650962,-2.0559120631206227,-0.9330350836946124,-1.3099101909771278,-1.3224041662831212,-1.7806262814701057,-2.027612616281907,-2.1985667771378345,-3.3712104967313437,-3.031968443843155,-2.449231840567357,-3.6662534780812592,-3.258714151958138,-4.4953378952651875,-2.5859717632769375,-2.1941041705593776,-5.842644725091517,-5.2187745143206925,-3.9041952410302017,-6.834554198229583,-4.8765965810114835,-3.918630306711691
inf,-10.587699219729515,7.039902881378591,10.153737992024697,6.818558079487531,0.5615119486515319,1.590901153631986,-0.46286906718093235,-0.16074368451234022,0.3255521225904445,-2.0965854116074,1.013500700948228,1.431118531772313,2.7095460795635304,2.594452290362959,1.3735143630432276,1.295365268856905,2.5975494860860877,0.7721454184899912,3.1449195259595157,4.915667809037963,4.722287185900754,5.636564515890605,5.572743891151887,2.942289551135694,1.206787468967157,1.9668954630260842,-0.1677211714575222,1.3418450995228781,1.4184327787799305,2.325630989674039,1.3428584215950181,0.3065261134422812,-2.6558539981389018,-2.7726327268293502,-0.2453441869232975,1.9554682322821009,0.7911976256316464,4.208297849770744,4.782783336547283,2.4106112719301933,1.6835853825325273,2.7106615106560596,0.13112403440171505,1.1801411816928677,1.7617068033363665,1.6996817761015706,0.49509271492554774,0.2744027043452206,1.145248031381179
inf,-17.24286314058887,1.7947421225877385,5.001563146014192,6.702716484116266,-0.9219292986215812,0.5378134182428376,1.2764322735015696,1.4522899773390776,2.050517919422802,3.185896253623948,2.1899257238113066,2.2337296234142414,-0.41384091641251075,1.7365899155609412,1.819230045807636,-3.60025387374872,-1.178289931044688,-0.6981694516781829,-2.9949786716443754,-2.2396830174418128,-0.17086790095338245,-0.5641347202374973,-0.3540701100302712,-1.9021303726830467,-1.3394182356043416,-0.38000897160018354,0.7415908774191493,0.638152544663015,2.1342609359463793,2.443724189583804,3.435581842668391,3.2398741576097905,1.9402145866815133,1.8546383702015419,1.6680828753734502,-0.5424802082043954,0.19256762668639027,0.8358675549766517,-0.7563485707622348,0.18531748427660943,0.8187761700923204,0.9679215317134364,-0.5783588372110273,-2.114874155011506,-2.3382011169420878,-0.3111632054078797,0.5275758826191179,0.8953974164017993,-1.8788770751807178
inf,-8.716799682442826,8.169815867358654,11.592922438913812,6.544295405254726,-0.3970893916340543,-1.470575482672647,-1.2298144198546481,0.6429732465694471,1.644032094077609,1.4093843299730224,1.6507604220528478,-2.6777510631468857,-2.299749600424647,-3.310315843622419,-2.7582954810886093,-1.183364149973876,-1.7558353542032137,-0.8206916880409096,-3.0183828759209064,-2.5865985573514934,-1.1370382809793043,-3.7697463411307126,-1.5607711376110345,-1.1657295194069093,-1.68439267814081,-1.4059464426414507,-3.019212998564562,-0.200542490770502,1.207978398451644,1.6502307476450255,2.4253949463751425,2.001318871734597,1.4259303079235295,1.1380735601794498,0.07718955732957511,-3.439459609001595,-1.1683583806026476,-2.7171499087465705,-2.665839918499337,-0.232630845101653,1.1218687377893275,1.4307624864088595,1.6537234930220563,1.455117384273919,-3.1625864272489252,2.0115918002129547,1.992462294300175,1.7114664817853722,2.784675237908523
inf,-8.679284484266507,8.51468050629683,11.483819837808154,8.751994158646106,-2.8089308010737106,-0.8687059610888852,1.6708972682997967,2.3400696941308503,3.444399612126354,2.730496753016581,-1.2261299719270653,-0.8110804092379453,-0.7452635004967547,-0.47950586843006704,-6.095716756956065,-6.491022278029192,-7.056921978491076,-3.804787378005173,-4.737171278770276,-5.34301183498944,-2.556117839210316,-2.11760446938392,-4.922958634394078,-4.0179290665441485,-2.9083089531363555,-0.4190579358192892,0.8869781794541467,1.3249550056865047,0.3975708918495755,1.3690251987334392,1.647482652791453,0.49684049233242433,-1.7286355827865378,-0.3572815257932547,0.6924138005542275,-1.2222676822233538,1.6751151356891754,0.3004031728286307,1.2371179931362093,2.2643909773103488,2.2512912237329914,1.8269470516681068,1.1322126269423975,2.631707075018987,1.6235901858022501,-1.5165775459422406,-0.9258592107964816,-0.600311442867401,-2.558895351467612
inf,-0.7526062158948572,17.67148403179228,19.77565277445848,17.763516760079856,2.493058604655527,4.017610857427375,1.3366330060033924,3.1049643037669377,2.9406278210969177,1.47385005061345,2.7656392567174564,2.7170280500531376,0.7027803283511176,1.908560805465143,0.6766796643528892,0.9366811281070326,3.4612513309209376,3.997490883510295,2.8770707317445954,3.6624611473054856,4.345589780326058,3.266956530491022,3.808675231952222,3.452659702398691,4.064932716079177,3.960392445994941,4.914422876154006,2.3603905345189986,2.8804933074616272,3.5833865205785713,4.535127554980335,4.099724480766696,2.068663923985625,4.47417084914823,4.324216619795919,3.4077619071817224,2.7580320979972157,3.542107538352589,1.8128541445227953,1.9299336628172696,2.56299888696919,3.8667067558297745,1.4586583718093777,3.2514960167925864,3.8338537859569897,2.233690734284224,-2.8667296869603263,0.058588106650674376,0.6660426517014812
