Freq_0,Freq_1,Freq_2,Freq_3,Freq_4,Freq_5,Freq_6,Freq_7,Freq_8,Freq_9,Freq_10,Freq_11,Freq_12,Freq_13,Freq_14,Freq_15,Freq_16,Freq_17,Freq_18,Freq_19,Freq_20,Freq_21,Freq_22,Freq_23,Freq_24,Freq_25,Freq_26,Freq_27,Freq_28,Freq_29,Freq_30,Freq_31,Freq_32,Freq_33,Freq_34,Freq_35,Freq_36,Freq_37,Freq_38,Freq_39,Freq_40,Freq_41,Freq_42,Freq_43,Freq_44,Freq_45,Freq_46,Freq_47,Freq_48,Freq_49,Freq_50,Freq_51,Freq_52,Freq_53,Freq_54,Freq_55,Freq_56,Freq_57,Freq_58,Freq_59,Freq_60,Freq_61,Freq_62,Freq_63,Freq_64,Freq_65,Freq_66,Freq_67,Freq_68,Freq_69,Freq_70,Freq_71,Freq_72,Freq_73,Freq_74,Freq_75,Freq_76,Freq_77,Freq_78,Freq_79,Freq_80,Freq_81,Freq_82,Freq_83,Freq_84,Freq_85,Freq_86,Freq_87,Freq_88,Freq_89,Freq_90,Freq_91,Freq_92,Freq_93,Freq_94,Freq_95,Freq_96,Freq_97,Freq_98,Freq_99,Freq_100
inf,11.548642889037968,0.9351056570646434,-0.1036564603731982,8.603300078842064,5.971513591910046,6.832393115379585,6.300633411054118,0.5159579166260677,-3.3562586641890704,8.133128882245789,10.364449570846404,4.596746005942197,-9.014285797878724,-3.5722809712130683,1.96653205153736,-24.569625987949202,4.430973541898645,-3.947160618395152,5.571533396065991,7.67993590444172,-0.6589474581117329,-7.617065486776731,-0.10620641964226252,-2.665154393079291,-0.08739120724107607,-1.0174261826555906,-13.093976567601779,1.4558809528896646,-0.4896164163494703,-1.401184588826851,-3.662845610446638,1.9337570107248538,5.337862322507725,2.5943599769691303,0.41877620144951067,-0.5433618514502783,2.888690538329975,-9.63502584836877,6.132211671102894,8.728694157266858,2.229253078239637,0.09087412558483265,-8.563788670918314,-1.0603584581762604,-0.27312256577874194,-8.952738794332078,-0.4324029068199451,-12.886173941573787,0.18210213162034705,-9.47394027279826,-1.423904053097921,-8.756749629230548,-2.4246523931880546,7.784687815927441,8.609455921483118,8.688231625244306,8.433086178566327,2.8666163146171115,1.0770373774974686,-1.2353563988044982,-4.074471747201748,-1.915408830287717,-9.834010228334392,2.2519374177582705,7.15500056424753,8.895694944143983,9.34099002708006,7.015241002335671,2.4152052793002596,-1.2150502215679566,-0.7421269868637665,-2.388006090696024,-2.4472083952272072,2.6022114178466396,4.267425925094948,-6.206189618443865,-0.6209705377339674,4.327244067660601,9.054079800827502,8.528701373263793,8.572749048537993,7.531095119994525,7.305315711927847,-4.030342139811594,-0.8245437541306799,7.32616089822406,1.0620988705223695,1.2892591303059717,3.78699705493689,0.8300459696389311,-0.5704825696579618,-0.7189087931574178,-18.650406704848095,-6.030955171213982,0.8168848161617248,-2.0326428979714066,1.358841773169928,6.425077640367675,8.934722932872944,6.8773795781028255
inf,13.030922454726433,5.053282700044058,7.617657207597466,12.869960262599808,3.7953741908681238,1.286755862475939,-2.369393252663265,-2.259239209724626,-2.7982281901038597,-0.7427913558417529,7.877203810357763,10.747821481148602,0.9416858858608634,-2.0919067091932604,1.1574258971795928,-8.084002913180356,4.557891749242184,-2.7720533011707857,3.8007517372449513,1.6868120753401996,3.082287442906569,-1.2610918429428963,2.8799209492187288,1.38672478166432,6.29852107402057,8.100006712662651,6.651001694746242,0.5819206650639757,2.4079071931190796,8.434557649067997,7.061071775013843,3.514106953979983,2.7128753814379394,1.3942878670793206,-1.3005536650906464,-0.33364586607041957,5.497873611077395,-2.628213774091229,2.43174769631991,4.504086461202313,1.2254589549997092,0.739583144940724,-2.259952381458781,2.818425899434523,4.644696251932871,-4.745049118375519,-5.031217729059655,-2.5898601127582666,3.537029252094918,4.5852897349856505,0.18185768707500216,-4.429963409532192,1.6998046924874544,3.2185129916161515,0.891972550483537,2.7262070467417487,5.650120383637002,-9.021537005307906,3.657548120214763,-1.2566190816197818,-13.347371679302064,5.871414813163888,10.930753522227725,9.538884586690436,4.219594723763755,-1.8591067798951357,2.0979043266842012,-3.679861021232739,6.576258043248188,3.5162102250305196,2.3158624071131584,-7.394589267234387,5.639248298911724,3.8630630819814016,3.2834502041269076,8.441883772341761,5.681441723308737,0.6469259206507161,2.71594766513752,5.469175480112234,-3.115628478215143,-5.255832993310364,0.3534301763158467,-2.661019193712157,5.364371892346895,4.909978931879053,-0.8983066622774416,-18.522528462247138,0.31712291588808483,0.9421991439845812,2.7582708935126945,-2.348118813082735,-3.3997458337240545,1.9217138047229696,3.1809547836411056,-2.906799773743387,-2.842728395399419,-2.464808498245489,-3.93148416399071,-2.6894457133685563
inf,6.213583217405262,1.3256588163295944,5.409418020493693,13.617907951367052,6.942367677466887,9.524960277537902,0.28871241202111975,3.6812926965459916,2.9387415376863615,-6.622579093215638,0.7299933924640101,-1.4618410539458928,-2.172734498190163,4.950583769187734,2.750066156273995,-4.880559750740112,-4.241051824013631,-4.884770563425299,0.26617168830705396,1.2261204373479728,-0.17732273945418342,-4.762141247718887,-8.008840387247943,-5.425261433371297,1.16097974447338,0.98687653382391,8.43263371022546,2.8029163815330165,2.949593244858299,1.9424350432998096,-0.33546670782022403,-9.042436532151427,-3.649201429584032,0.13482555142787334,-7.826725394170502,4.647373233046068,5.9161607517858315,6.271665163047473,0.4607687874066144,1.8336078133782792,4.208866934077697,-3.9039671130606024,4.716611949320949,1.597909210635713,2.1119687513174554,-5.245086282556237,-2.7317328389733575,-4.954570843164234,1.9532736218616549,-1.8488274961136995,-1.8177485651086087,6.951600331772987,4.818241731243617,-0.9608511168112486,-1.8278072457208694,-2.630816106673386,-1.3599187665429113,4.933864237327711,3.446991216765234,3.0554939589724626,3.356988419853586,0.09420499929401416,-1.3455891446579429,2.0839995503362516,2.48030419153001,-0.17073664893507612,2.2561934650348334,4.1299867238894805,3.674982200633501,1.174756408294897,-3.290928976486491,-1.9502959916015143,2.506376942695013,-11.28877511686278,5.349550901414695,4.837519315911237,-1.7317753434974463,-0.8273943775610988,-3.2622098838471487,-4.72594267270518,1.7513995500331632,0.4584330731573161,1.2027976112184717,4.928549207021355,-0.010611315818593425,-4.510319906637136,2.0834495388066827,-4.609156585411121,-5.493978935155873,1.6486475482193015,-2.48984747764608,-7.779236162190273,-2.787258482838098,1.2225533277307008,5.721648010368398,3.785120581000477,0.877834639307359,2.1315545562542653,4.0413917193437925,-5.205031878325599
inf,11.779226345081547,3.341352441173009,2.2625517123346177,12.03811573953509,4.9350305342108385,-3.274022263625813,0.924395293956497,3.3273913364968166,7.197078465738244,8.129738759842692,2.0873951034824643,4.63709854246353,6.074568983661361,7.177874469207076,9.3040791364715,5.990835885948041,7.74519662596574,8.832365202381212,6.74734779505761,1.032972295640576,-6.313666538385114,-0.6699601981203998,-5.187736521414294,-1.564118768932289,-3.030799187310393,-1.8645773187536392,2.425939157988985,-1.7004507555844839,-1.0133836512811527,-4.025368200764028,-8.551051555404158,1.8921949942679603,0.4595021977518954,-5.751576541798393,-3.4705550217677725,-0.009801669954086378,-4.558822385766042,-2.1095402915261516,5.101220578050487,0.8952484942748526,-5.142922544384717,-6.7102192748365255,-1.4052338458290023,2.9144383561650855,-9.92048007260518,3.8667793112254785,-4.174105214751499,3.593244984012628,1.1060066291568305,5.692663474865199,7.359241562551041,2.426463013889048,-15.492465224604821,-4.533320356552331,1.9214958722743702,6.623657929413113,3.3614601420819312,-15.878130951961431,-7.277639419981611,0.6522053265513463,-6.800017357410361,6.144863341104546,7.159729878913858,1.7579265400790334,-2.869709702532589,-0.32491264045542323,-1.585361112038008,-1.2879067445917727,-3.7198561704585984,0.429732742880077,-11.071383153834248,-1.1402153192736364,6.3704881364950054,5.376906085374841,3.3954510694087077,-6.392988231400842,5.245217218300986,-1.9838147236787904,-4.837714910743557,6.519843384475664,6.604650162771179,1.1570721643010558,0.6081720341410417,1.0688116129279521,1.3104355353754684,-1.90032574624815,5.415273286947844,6.424963085087725,2.8170403305941676,-4.599975597610985,-8.242972016282643,2.797892124544198,3.1404824317401463,-6.56343629941307,-12.77779362411222,4.4940814514853,4.471630830441214,-23.513096354813918,-0.04203877740911821,-5.30505142043674
inf,9.763613355664658,-22.432301628541506,-2.092935397539879,8.379885256816788,1.6566058246917947,2.4171154214682318,-7.470528424836253,-5.498182520490651,-4.038197714194009,-1.4407974029276325,-5.375782184205477,-1.1494055024079302,-0.12745548765892067,-1.812339639269723,-1.294044979664342,5.7052985112781975,3.15233005742391,0.15256069644741643,2.2083281261998096,6.075874845522161,9.025299689355538,4.720433496987933,-12.709194848710176,-8.657140064589392,-2.8790390753901676,3.8737347467403893,1.610005899632462,-2.2667970434173412,2.25507187407144,-3.7681062069632816,-2.7313046749677525,-7.489821060627001,1.1477858701101624,-8.863330701198713,5.752231910128707,4.180893480579826,2.8307313442721735,-2.389604630482822,-5.35452734635269,-6.996790268432875,1.7902756000660034,1.826168375762009,-7.031580933808215,0.8589478903061405,6.04250336858221,5.7256409913046795,4.772552290099313,5.207039829768441,-2.5487004129486692,-0.6052202531175226,3.5753973136867003,4.744940103239635,9.719457428171559,8.931562643400866,1.778813983389135,5.508714156315563,5.462965033207723,-0.5540566080931484,1.423752535508818,-8.01736606019118,-3.9178566526230867,-3.2051528431221,-3.305310758951272,-5.745521426063078,-1.2711432873032606,1.359909428384718,-9.172398566118595,0.2413657258467481,-0.4121033168290751,-8.169019727754751,-4.283203030591579,-0.6210919914199522,4.318055020911082,-4.456608641268524,-5.619311854349192,-5.542251049774201,2.147100709189978,-1.2169191133970187,-6.411291595479234,1.3080149785905206,-0.4127073363078324,-0.3557348759504393,-2.1346347227899614,-1.5719730311165634,4.300692173404933,5.298221360235964,0.68171465930849,6.839048915147515,0.2690860225197298,-1.770798869591701,-1.856281719157849,-8.236056379795272,-5.104309474279262,-6.920960156805144,0.7191649202730517,-3.303483144542753,5.347307776960491,-0.2900949000111197,7.185354359536866,-12.11729964747731
inf,5.917858196373389,-4.822736150191243,2.9973444443434785,12.008982703547618,5.551409540670935,-1.3933558455411514,0.08652061238329267,-13.212428574703196,-4.775272721419125,-0.9688236242314865,0.46261419454540587,4.558007471482899,2.762329656969815,-0.5265124606013742,-1.702686944258005,-6.135969355863935,0.7989806493380343,-1.532549138317215,5.059673071259329,6.916143556416436,2.617879424566439,-4.020356911869882,-9.867933657061485,1.951466084374502,0.0070460071839022476,-2.405566678960554,-2.480858636542486,-4.79936367644347,-8.89773642684807,5.61135344692984,9.149905418035871,5.6149463625159015,1.7191332605711054,5.898646045279399,6.345587980057786,6.427484763982072,4.787828535153238,1.8776103769552606,0.4258275603512871,4.1707035833494785,1.8540330098168099,4.469366632955023,9.809945023618358,7.72771038976888,7.6693442863168,6.633621565840613,9.089774605851915,6.9421452830902055,1.41516634120957,-6.124763495870667,-5.077084533045905,-4.480354795807784,-5.39689005230268,-10.21695849762434,4.513430694602661,9.942425894723286,8.383317351907273,2.7415430888229935,2.432415297576057,4.21652484501616,0.7699512022172783,-11.964009233496768,1.4750645597439629,6.748398164929647,4.179873146585884,4.592585546711732,6.361815452639739,3.6322314953179955,1.9931302367856603,0.18636353929681349,-3.053841965507253,0.9207551732397121,-1.220873253901118,-6.713441370150669,1.356950185362777,2.759995096111119,6.07116148611194,12.434395192527049,11.152495843649326,5.9425184495421135,4.56798136748143,7.245891681635406,5.354851866852215,7.1260912405321335,0.9569919844890151,1.649564745074045,4.1618164003642235,5.379026582402126,4.701184023399122,-1.1379672487877102,-2.5252819153459996,0.6092500287615223,0.9153571816140911,3.5626869640143823,-9.498009397285244,4.970861096194781,-1.1720763157812115,4.991152180869271,2.5254505774875184,-5.09214973173674
inf,13.453168703055603,3.0017117733874676,-2.9703016097383186,10.77933509654715,1.9526072615113392,-2.6216820517882233,1.0283153745955538,-7.769018518789622,1.3265323556062008,3.318874041972304,0.5134411817275826,-17.283827907269778,-5.586268722813568,4.15425723595208,4.278096773411626,-0.4338011809992963,4.180357323244436,-2.911302688106126,1.1288995630049072,4.981030040619103,3.8372773631826043,-0.4218129259153187,7.340309521177275,7.682001396983843,0.4876153091380502,3.796297197651647,5.417000033891533,-2.307455247289141,0.9360922978451001,0.6886823497327086,3.264703232267024,2.02953982245176,2.046702862474966,7.64344897864467,4.5452777990563575,-1.3403093013176175,2.7379238940765163,-0.941276267266467,2.549641458780556,3.2073026827341877,5.341954881745345,9.77112981990393,5.88906113911797,-10.066385727644338,-8.420229441485986,1.6837775179939385,5.10148150364909,4.922213041202511,5.344659847777166,-7.8233750682855,5.302571993922307,-1.2098726458453584,0.8216400684822034,1.6538621370154516,9.392541870714602,10.285785765998888,1.9912913336406461,1.7999648839670286,-2.8337503616309547,2.2279345757857953,-0.7398241505858465,-8.192250452333624,-5.300811582247142,-4.784663815581901,1.4027760458012395,0.6405255493601558,3.9967738392959262,3.530669076290593,0.6126648370919838,-10.354091572293719,4.0474891447035475,1.4854403404807215,0.4882357586601316,5.7607836178641065,4.926519651046306,-6.479219353082513,5.462503776718883,4.570690254362603,-0.49307285299804704,2.9829148095497473,1.2439781573710817,-15.879824337122784,5.0548232838352405,9.323552631873405,10.066886887812217,8.320494831140273,0.5407561850283287,-12.771393930077707,-2.2648625683498835,0.8201620277555577,-12.654029979941349,3.5529557137122154,9.562302834922363,10.342139298225725,7.30221873388642,3.887484550965347,5.594245524707112,-2.85614428878025,5.818286653591976,2.7223629545564734
inf,5.252948219117924,5.0485803456085385,7.283368724957814,11.140855031546556,-6.945997023235613,3.2613139420849784,0.12019640715886126,-12.467833183308947,0.9558029453467505,9.416239724501391,4.426610848653638,-12.671709103658511,-0.5002871048040944,5.3380875998943935,6.407643808141277,3.1931645535822994,4.770174215555528,-1.391193744449339,-1.9724091636628316,-5.286799295586285,-6.145433770164736,-25.130679765790717,-7.597130459039434,1.618436616301345,-7.032503332897072,-1.318883598171027,0.2674417092960226,5.639710740062824,0.0815073849499015,4.14401854053969,5.406172418951442,2.4889226807187086,-3.237036141032938,0.9927538982790125,1.7681361821233992,-5.414668584368023,-0.375532270469094,-0.012679834805567225,-2.0886037130303734,1.3584535362630277,1.5312640754934321,0.4668510478090724,-3.4194777259584797,4.699500922165576,5.119526376609954,-0.7165127967133458,-7.7880597092092145,-0.5271693122738768,-4.6012022519479885,1.169814682642894,-1.0188847345119285,0.5335375838687284,5.160052574033585,2.735673113317681,-1.0812957786817208,-7.820433968737106,2.1062004375968257,2.466232060517072,-7.2287142466491545,-1.4678165194041313,-0.887713442876418,2.8317445642726184,3.9278494923089724,-2.563449871592759,-4.982935222798069,-4.941214402962913,-6.359480136106647,-18.86311984392335,-6.15974746310075,4.351211787801958,6.034722115388959,4.069745272007829,-0.22002905864538747,1.381975487182963,3.737652702367342,5.450628635763941,-1.2327418123050293,9.08902758282602,11.548332285061761,5.260981457449148,6.552172126463454,4.417276045620518,4.3944152275439095,6.823800749981878,3.2854272084198897,-1.9841012036551717,-1.0797373245505142,-0.9013507105858594,4.816697100827348,7.143640633230639,4.726383133750097,-5.512012420275347,-0.938665123538307,0.7615477663566566,4.75309285863689,9.902414495062231,8.983121664435608,2.165113842426969,-3.164774520747777,0.18193965393486167
inf,9.215825777832338,-8.26376683947513,-2.8747770418708205,12.084047051279777,-13.376294372086598,-9.826580093011632,-3.7566586966873388,8.391730908296548,10.288897930148458,2.37699953073756,-3.1880810974789995,7.082803523822715,9.845396975723716,7.9629362501304755,-3.820339817151961,-7.595027442986357,-6.191242174474894,-3.354964200707734,-0.7143201716673033,-1.0292540909689691,0.686686986110054,-2.8974518582616753,0.42222553806121965,-3.43269456406982,-0.740849787531161,5.596578410369855,0.6591839721972974,5.153357570934702,2.448616347224906,2.8744950037738164,7.4778669442751955,5.193881637190188,0.35984409322676925,-11.889757411910018,-7.3569581934536075,-7.053751323149669,0.1883971983702537,6.445324194614557,-7.92272725941983,10.84919638205794,12.466100097908676,10.504039544656244,0.7966653964372412,-3.218900524501734,5.154055716601739,5.816243501967399,4.357579640767611,-0.4721572087856529,2.01671121463972,-2.3626728756863358,-2.647888286597741,5.156363464633785,6.678903001966098,2.4006300326083903,-4.36976286585903,-4.989556418661564,1.9571513058745893,1.8209011962611399,-0.45155326912353644,5.248903121226668,7.5563840244716545,5.039341587888515,-4.648829073484912,-3.645994241652069,2.6369628178798337,-0.06385894566908235,7.6604536410355735,9.082208314043847,3.81994681711663,-3.1805463838347734,1.7091580424309711,-3.389659066293973,3.607123118316494,-0.13444756749405684,-2.4830555333076063,1.9467083000161551,-1.8075099572237079,5.253835145387455,-0.028437715730134983,-1.9079620278046718,-3.526150423272391,-0.8354350208992471,3.7684480387069144,6.452689505932888,-0.2495498237005691,2.9885176570449588,6.507275028256082,4.83967491257512,3.427138521310205,-3.7746830940023557,2.0671186684413883,-0.06265080313935556,-1.208474375819371,-5.717908562817726,-9.4061456870118,2.713991280067148,1.9736067608474457,-0.8702480539699025,-4.982388668476453,-2.0427931409711633
inf,11.109789937795682,-10.002911928523075,3.893184552976043,17.81611768910123,3.0216801029833533,0.6635460894162435,0.5086746669737927,-7.971938863257691,-2.9327244782485415,3.156426991422702,0.12228681220782534,-5.82866988149242,-1.6800334109812205,-4.547780787999137,-8.378839323903094,5.291906406869938,4.639825226434304,2.3880560383815563,5.465990392380071,7.000999087552245,2.1278531817463318,-6.896797256961342,-1.1592181464727176,3.1499567623091806,-0.14926608829326682,-2.340614064342283,2.593976157868539,2.2727966883246538,-2.362814785934809,4.139825871282916,10.354094351311453,10.72688682142067,8.413379692291041,-2.6548623415376724,1.8169605259981836,2.7324308887496187,4.752613958757678,6.017443046025399,3.109381140285535,2.4392841066482873,-0.7343334984472136,-0.46557717258155407,-0.3470186528532082,1.3612651678335368,1.688511445363126,8.429041966615614,3.7527014433540202,1.5428805703425752,4.049401668238467,3.6987028548133978,5.972857274837146,5.735071770627648,-1.1956014316466508,1.3173308373013128,2.531331133142345,-7.921803596689976,4.378148626724496,7.971503904557835,7.5841841763757785,3.6465740535585667,2.92115048953449,5.312952824842526,1.565071032428456,-1.2794234431090032,-5.38797484263425,7.232451410563371,5.262285675644527,-2.508904136636737,-8.734904377813407,-0.15716914516883662,1.913059248967926,1.1574288232674448,2.32060011693644,-4.342528869545227,2.0340097203346374,3.841974473141107,1.7842374654118132,0.6850353467624544,-0.07491478207484903,-0.894141576687197,0.07517421088756038,1.0715002691899471,-3.872758629004778,2.5441468134918708,-5.042700475623036,3.0526924712879904,6.013331554685131,1.3748996065732442,6.3039496358953215,2.1515734964655024,2.8075751961418973,9.606771332263847,10.989227714531346,8.772373282078767,2.3991324326572254,9.469479164719807,10.432918644822088,7.36011131640111,-2.058144956434184,3.026977969955581
inf,-15.745927140394414,-8.037501798782861,-4.837691408830248,-2.341820710775437,-2.3849056614226143,-3.1923767947039394,-3.1095202411202436,8.10942125495567,6.74390627151816,-3.5633654406388935,-10.180227991959015,0.27430324259200134,3.365608706112866,3.754204161675311,0.4442876915136367,2.0856745916536426,5.88411270938121,-2.7965011966751447,3.294601909522182,1.8517479885587065,5.691694031481724,2.9863192330118906,-13.06032438146277,0.8409645864448834,3.0701696315735987,-3.506085574561588,6.131893096997885,2.8302611754995155,-11.150434488754769,-5.095116481085171,-8.811359461279103,-7.882208231949953,-2.44994724018769,5.314549585919998,7.661614311079951,4.1923606467851116,2.226536646964192,-1.7358655933353333,2.174745986890727,4.968428354603596,-15.57606748455872,4.9890978321734,7.693876821945587,7.495691361016561,5.100776095683067,-0.07926121044108925,5.976069589877248,5.32435462118702,3.583011322430039,2.5751974793337524,-8.730269290931858,-4.194433133820162,1.8543463700732161,1.9798027968668706,5.1893789872401825,4.76864788428631,-1.2901078228511125,-1.6296251221696068,-4.640401398790168,5.129342206931511,4.787618361123485,-3.302445667175199,1.1459434690323107,0.5454476019480623,2.5106891138007583,5.207130932563743,7.639368628129951,6.872663600555633,-1.0810320982660144,0.13620089297724292,6.723716389380655,-0.22240110606800556,1.4145233583877967,-1.2684247684856942,-0.2741663262110734,4.142725459033528,4.9849017655192895,4.732877010690721,5.590520692278851,7.742593127810217,1.2502560287667492,-13.492767303057043,3.2916794618478136,4.819419653859967,1.8326881329788662,5.265439701372749,-1.2309576018679422,-0.2495145751734782,1.9202507862614056,0.46844305926776997,0.3014465987061854,5.7834818097414455,2.095358466910241,1.5009883030993194,-0.8095363746353641,3.155833704039054,5.837595701429365,6.3575411956493895,3.661667264077444,-5.995784331750322
inf,12.645662099124397,-1.530777944637531,-3.5929539602360654,-11.375218514885521,7.213087622684167,7.730541877465999,6.93419020103002,1.5117026398893785,1.0820501062250365,-2.5310119033273786,1.9454274580966917,-4.415858929994595,-1.313865921334898,3.841037558282313,-2.8693245482969942,3.98887635228602,-2.2363857827769777,3.711692919359063,1.210736580338839,3.6728644660920686,7.35815801814984,1.748987875815736,-1.3464958188819551,2.6019345034616705,3.688810347392291,-1.8449567808152167,7.400562428648481,7.192424209387234,3.4272276194325144,1.7587070951939907,2.6628506142299884,3.73351687568006,0.1921228963239372,0.5964141221119021,2.0747537395342235,-2.8137741967890335,0.5144068450646984,2.837588947572641,3.9230270540934384,5.4195389375475,0.8106533747151019,-19.378351089128508,-16.911010605034527,3.0295493021183333,5.485484061541868,4.231808878984751,4.5797681069350205,2.11427697009686,-1.085851698018189,-3.687914817933958,-0.7991961148161479,-3.9892960028835702,-0.6068242354224225,-0.67799232209304,3.1260256062058076,2.495546880574757,7.036911193311894,1.160449597952507,0.7212609880444987,2.218523670809624,-11.7009372210616,-1.069711449770388,-4.476411964401372,3.737795931727419,5.909307518587497,-1.0853602268197022,1.4000030127467937,-9.257993907567027,-3.3161571830797953,-0.6874166629324137,5.241597582625701,-1.2548130249495912,2.846171206254496,1.3065835235195138,-5.740268140974294,-6.193537267464507,-4.8493770741303805,2.919872220252877,-1.2581948915257328,3.31355161873055,2.7648342530314025,-12.3068213896725,-3.4113471860181193,-3.420801682781189,-0.5034169188377646,-3.3531238035891064,-6.487088942175994,-6.218734365291468,-0.4832793228052097,-0.06601658643994313,-2.0660980057543483,2.2107222058749443,-1.6562776268617725,-10.0843059322941,-3.04352622419421,6.424546015881866,9.94426988431308,6.5028156052574175,-4.3633760807263755,-21.729774735902993
inf,4.07540272862796,-15.466102973697472,-4.435429687517529,9.662595030535794,2.4985479589507946,0.6951664427857551,2.724395669950944,2.6264157238096857,5.44779802040194,1.8768914209451388,-1.6176136116362017,-4.424730758521942,-7.5309393435789325,-12.49292642243418,0.21124144053968763,2.881185924609504,5.941599596869018,10.030699450298918,6.751853939678519,5.539918538449189,2.928223096057067,-2.836384910074294,-0.5937878343378173,-0.33105589271860225,-5.47776640051103,-0.12063992866452367,7.081692826168421,8.393220894618533,8.956333425444484,8.102147622187971,4.8493748369955725,-12.251652500885818,5.404946236841575,1.1700812479059906,4.351959705536778,3.9920240653484598,-0.20761973136453094,-4.031283170319156,6.621538261325689,3.797862952155924,1.2639712592311412,3.8802483809664707,4.851535771910598,6.786844084847921,-2.0656338639471628,-6.2209966381995585,0.4875112849811316,3.4913497424871522,2.5153283403573354,0.5217323813659931,-13.582975929005677,-1.7092190060075723,2.3113897894024475,8.264506243191185,5.59831104230804,-1.4330246026715017,-1.7452470037278616,-6.327639207063939,-4.942699237594901,1.8733895178493611,1.7966455298225341,-7.122455946765108,-0.4074445095237351,0.41228776898368125,0.06334737222093167,4.116849947699244,2.4060008565796522,-2.329417429471981,-3.0166183697156796,-5.412678513901874,1.5982785728170796,-9.525815560268057,0.4156108519384105,-2.530474335343243,3.860528302710506,-4.080496693108607,-3.8261268326527613,-10.454061057552238,3.9813251773799863,2.627626762326095,2.22278250257947,5.225021680349506,2.3685242546663403,3.107542778819912,7.159894323601577,-2.10142946811969,0.40953851256369944,2.898918901142437,6.413043837365848,6.083281231144113,2.96421913829181,-0.3279149229514786,-1.8627516090850804,-1.1097275343874031,-4.178983013145157,4.156287575519713,-3.401162665245799,2.334131805183681,3.8948214170183633,2.3796382573137436
inf,-11.639026127183879,-6.876863735672737,1.3304729416148846,12.437861585627608,5.884610126263393,5.569094705806343,7.25761198695503,10.175332617090195,9.314771835787237,0.41633010936729065,-1.3233652066860913,-5.216737220901333,6.3685535213799405,4.823765547268067,3.3776748914497823,0.21717123441955977,-1.576370744331598,2.3314106738663014,5.744863828061277,7.669259613717806,5.949778533771543,2.171334748474955,-2.438950040916197,-0.9109540809494234,0.9574403457057414,-3.8147656919741664,2.163422263387133,1.9827261272665027,2.398282996210405,1.6861087924385174,0.08670128697811208,-20.564903543342602,-2.119330182182104,-2.4446392987317154,1.0342094986851436,3.3058846745530133,6.855317102101772,3.0255248900473504,-14.36132562121498,-3.173064290495198,-18.447937468743348,-4.6274317202864665,-6.104772511121418,-6.041603830823277,2.057528418525038,5.418268076469694,3.6545978044697875,1.3057426388019309,-0.9419908910307697,0.24140277293380308,-2.958924752333907,1.5607296728618465,6.168685660320335,2.397119499333826,-1.6564108209456592,-1.6019338388561835,-0.47295603912958484,0.49498329607640557,-0.1765279486310405,2.8036594235081083,7.884661403018221,9.870652028489104,4.443357114922755,-3.4963530891249235,5.105296999357591,3.98722017948392,2.928581019406998,1.7078647058286478,0.2565954860959039,1.6124630811883023,2.4063289633606146,-6.087774877427229,7.744015728174681,0.48604894903920126,0.20985275018570348,5.301701581582115,3.9267565511968243,-1.5642813210713413,-12.957050105459004,2.1402353443847417,3.300692603468633,-3.0271684119861817,2.701960181367788,6.984132442979636,7.705161340675467,-2.3538082190947662,2.3958769424990507,1.079325759700339,3.254506159029745,4.382369409268776,-3.725655512548549,-6.276811030799401,3.9716196059021485,5.235936606900047,1.897337270103172,-2.818364282284641,-3.143023010737501,-3.2725120564554686,3.9672110659423794,5.104980029118849
inf,11.014930272063244,-1.195918447685981,-0.011893262589286913,12.126410316109919,0.971254238520789,1.7187924823393317,2.204456828053491,8.128149987871549,5.989876222722405,-0.8675349145518325,-7.624988484501614,-4.802897994314048,-1.134904144576911,-5.933312395287864,5.678247816527822,6.097078643801332,-6.774794426191434,-0.8586122795660671,-2.2859380937954086,1.4178940569917629,-1.24698275154676,-4.168575320063809,1.5438024205155614,3.0260715358676933,4.8116980470480115,-1.8876693088313203,6.121372668281197,8.372928968107942,8.226057364411204,5.59518452121376,2.057342208090944,-2.767248410541903,1.9218743853520124,0.4564997086492255,-1.0079035631945175,0.5486114254800754,-2.101374205923861,-14.420745620297154,3.0695911865086387,-6.484506154837057,-6.812540481458782,1.9787520630604192,2.663754442862178,-2.5019055154916714,1.6111300635730572,-5.702165309950949,-0.6681465282601238,0.3457946875890272,-4.888178435415945,3.30380613506221,1.0131388744960788,4.510416040900658,4.787063977398759,5.154505978910535,6.313064581035654,-4.047802751646387,0.3340166888803182,3.6990745938989917,-12.402384266220928,-8.970827950600345,-2.055977927500905,3.684214584438429,2.674711834980876,0.07967020170509187,0.6921086561011123,-11.605082678874282,-6.442429115272262,-0.6057483149570828,4.134592749317854,2.20921341288372,-3.514147138508143,5.694836597866114,-4.270268717089863,3.7010824722432147,1.9955412905520902,0.9682454651210435,1.8632273443222473,4.166832243026775,3.885093422700372,5.605272491416962,5.127078405975176,3.898645246095434,2.7849173918878662,-1.5630323185096486,-1.765953861893756,4.8306058902688775,3.469492588973104,8.181683446461577,3.1040742145234503,-0.410270431648442,6.570397541519419,5.9655966449760385,0.8252680404484565,-3.3711544672406006,-6.678802263662114,-9.275950524180281,-2.2871950775715106,-1.6590420003882542,4.125446140077649,2.0575132431178673
inf,12.179847265953327,4.2157867046360025,2.9361635641198913,-11.419840795764305,1.4831050360988982,4.110292367343895,3.612058909228786,-3.1860782007611377,3.594118902722819,-0.2608908480866319,1.9840056066728806,4.848969089504099,5.627537341303846,6.264301692126317,3.0036080749265324,4.127077185563909,2.6642672965322163,-2.668519980305831,0.5303502882351196,2.366990797919435,-2.3116263441431926,-0.04198642769618033,-2.0557971378702717,1.489436115344617,-17.585764039217267,1.9421204939987717,-1.7196922806341632,-5.140814347176978,-2.2136668002540745,-2.386889726608217,-7.156374848294625,0.17647397109742968,-1.3988855689911475,6.10599018155488,1.010809520572579,0.022508691621716537,-15.272312602528785,1.9530405192068159,3.2628331093801606,-2.5840861309065417,-3.735117092314624,-0.9990703046929497,-1.8328289579828905,-4.418529297593324,-0.6190601782186462,-1.9260129430914716,-26.304747458802453,-0.8701132485464029,-7.297929202421777,-0.9182023169048819,-3.5887273555102794,3.082207152816366,4.193284666239229,2.3554595106365426,-0.04660599453438152,4.376008175575208,4.97535777415046,-0.29534293568926984,-7.324316565809191,-19.213545449047842,-3.7757021322642785,1.481260972802616,4.167151440871429,-3.034031157285419,-4.515809105214437,-3.060384141080135,0.8498974875933953,0.5043875907453739,-11.278735696785105,-7.234638477524918,-7.617203240238382,-0.4226449689776288,6.875278224088881,7.198843692874306,-1.586638812813291,2.678696092345696,0.25247494056360154,4.179624586426904,4.13417524320792,3.1824517941356305,1.436719887948577,-5.334362746846402,1.8899526294066291,-4.430051639056963,-3.978094729834524,-1.5714313184114417,-1.7336583907936287,-1.975258625975897,1.218418602297902,0.8828265988557504,4.325495173453355,-5.257375444452748,11.297577995969604,9.50110717918836,-0.7290209630005435,2.4652654366026354,6.0167832499126845,2.1890048505312976,-2.229658173906053,-7.1896254090258935
inf,9.391556447975903,-2.8082234316426073,0.3794792447364337,14.72504858592379,6.121092827541958,5.6863297162544235,7.518161666767579,8.451159110771869,9.300842355702596,5.431860626926024,2.803675395499994,4.59313675313436,-0.5654229884053272,-5.958077895993739,0.7067237950387479,1.9495597740839479,5.298649274683402,9.755312458607307,10.739069281449158,1.8009556166477907,1.0060501408288687,-2.14730328681091,-4.518024032667945,-1.7295300358676684,-7.619385116316963,0.9131856511128476,4.799372731478712,1.3359142215934696,-0.11924899169603975,-10.26435705273363,-6.62293077052724,2.3865534795441263,-4.485832703251695,-15.154960491033094,-6.340121961969565,0.11705478237840339,-0.9429853008525413,2.8676015705994615,-12.887118475896514,1.7645015944441766,2.2285629142253427,1.1550512496129954,-0.8960117465466837,-5.331119171051029,-0.3634475415663445,1.7321009727056165,-6.271464183884518,-13.868720596092558,-0.7116388723705214,4.330055429962776,4.0238631772045395,6.681121885093013,5.709267552397122,2.1360653913909644,2.9318534982189846,3.7104116345874587,6.516934859458011,6.460070726462746,-0.40329355490366225,-14.961626392161477,-11.910756893050447,-4.672639106617559,-4.683375951596815,2.221564569811939,3.5948224084354408,-2.4957280426763546,-3.336058202969909,0.13436330665201268,-1.0247351049639803,1.181668633014965,2.2420049772096675,2.4181389040799957,-0.04340408979471988,-0.9821491228228538,0.9192137245464664,3.936009059593097,1.2627607062606998,-2.4750152951006683,3.563814933997662,3.3621946854720264,-5.597275959206854,2.009440323958664,-1.2929110000913013,4.391015456525643,0.6558365330464042,1.1233410879754118,3.4151356809919378,-13.508257115381504,2.9492972479025497,7.0753515786219054,1.7568555715113163,0.47035782606374,-3.298527959646549,3.9342854799650553,4.037255759894187,6.532105248895,6.077324896011433,-1.8246197313923957,-0.06176686253534314,-12.503007738649657
inf,3.7954445341426535,0.917864666629179,3.0965440092680905,12.50953138965836,2.868926461708206,2.505603698851484,-3.55197083381022,2.2256565176990293,3.5669014928941145,-2.4980792504746283,-3.7022987932474507,1.1021555975166883,1.3202663878903778,5.289095340001683,8.060750861979894,5.771011759652765,0.6149041563506685,-1.2005869220864653,-6.167392858584535,-1.127123420501924,0.6454424172973816,5.03199071091489,8.847645964423087,10.163126448798064,7.306225760808527,5.113113953942118,5.785598603108511,2.8160260861750714,1.9685691775716805,6.100606398912987,2.8936188683935313,5.638802688391081,1.760133972928621,-0.8094762588687274,1.5071011273073154,0.04445295909364688,-15.222296702182739,-3.660436852715222,1.039062362716571,9.76797391714815,10.746171890933113,8.690900561332093,6.324890356208691,0.6761871596047655,0.19425362580993522,0.629487826567015,-1.935219615163291,-0.5056946293806845,3.875450247347736,-0.45966077918166803,-4.864074376932955,-2.0057391742034056,2.302594836203866,-0.07938379247682548,-12.459514111871378,-3.1166188889033393,-7.0669441352343085,-9.463483549232699,-10.187336797741928,-1.6263885067391328,0.0573725963437397,2.1488562883916273,7.528798357382648,8.300028926863085,4.753157714893462,3.3013840520770685,-1.7844295982248042,-1.8966737857324176,7.1415601804431645,8.01372248501076,-8.587429927765967,5.257610551481967,5.011382349223339,1.9431441614178695,4.557631428453313,6.369657361611502,1.9429749807865804,2.9359024536249194,4.994652348043118,2.1922464715040846,0.2228995852012403,4.428022063098048,5.339332923419704,8.502067007459793,6.368635977739885,-0.18315724411843348,-7.252254539236056,-6.233648292037344,-3.00506762829842,5.6615231684435585,2.5378883992305035,3.643037458005864,2.84276056886614,1.9551991081872444,0.5174935255194555,4.711095552368626,4.821920043784985,1.862196921871039,-8.59427878565021,-9.313928678720856
inf,-3.288113006142609,-1.8571009519607755,2.179415087770772,9.184107487396592,-0.13232022627650153,-2.228485857828165,-0.5286692884036981,-1.4675142699631358,-3.3936169837984096,-1.5477217385986926,-7.160795636214807,-1.6812520935758677,-0.8488973896419445,-4.508227450409358,1.888713272537636,3.8689354971117957,0.6274361827887347,3.452095869526307,0.8806534899600322,2.742625607567888,-3.8917220532435834,6.14887825912275,7.251025523106648,7.439032837536189,7.848467008291543,0.6924553250661418,3.2283379006942283,1.3139265768560477,-7.480733484024377,3.221503594342579,4.47014605588749,0.058946928913876206,0.5337285469202939,2.750279883521749,3.8224581615395294,-5.575533791753855,4.2181552534323075,7.239751002306178,3.5211475780449817,-22.31565118842628,4.176621067410615,6.358149447385607,5.21825669403578,4.701286250920745,6.8743429102678135,1.8771296171929563,-7.528185752657009,-4.927778804182246,0.9948121760023767,2.8294014847983036,2.1574973005606495,-2.6361872765632626,3.4930463283653808,6.146061495074946,-9.392875692189179,2.482955207696456,-1.771985141099357,5.199025964341324,4.280515658188925,-11.36014694828959,-5.7827907433809855,4.192413659685549,-16.81234722631894,3.4958586563094727,4.064528784091479,1.2598681889449068,-5.123327820655696,2.949061539270396,3.635936617895709,-2.8087184960075717,-0.11720207970436292,6.690755702743033,1.9809556335652587,1.4699659785587542,6.335635078884778,5.956832586571501,4.358961669686657,8.794088179380573,3.9058155878837226,6.9987571277079965,9.706570206415812,4.455715818574561,0.4156222492584476,-4.210720007266481,-16.977848499645354,3.4400673829075075,2.9842780945185723,-3.94590867570129,-1.5681828927186032,-7.511673478214895,3.8474338502943297,6.077597209675574,0.2804454949572204,2.8251550196868678,3.357987268160329,0.8932777215957657,3.619629607931948,-0.19078072788109068,6.519731621732518,7.203124334548477
inf,9.365686555128137,-3.6963238744327724,3.638892526217798,12.358203789523431,6.504995488203775,4.011693474726922,-3.3379794303462162,-1.6399935426423227,-3.1406910421587355,2.4320771287509224,4.543282583381654,1.3723808278487013,3.8327563236590017,3.8651249273443824,0.13867687672335194,-2.6841207438097143,0.40195686921276774,6.014299424463477,7.3965986498128515,-6.341838915602175,0.0155924507326759,2.1230820033317173,5.600967300278601,0.03859556626288452,-11.464092575577489,1.7169384035755826,7.1573093602201325,5.611089975380089,2.1203774981564862,1.1366163866247447,4.318617460021805,9.0395149517459,7.821495670277233,2.535253713845897,0.8846563674606571,1.5706484555078788,5.668014387443982,4.726991297326919,-4.828640661988999,1.7483461494645383,-0.29684717490718526,-5.390053671926253,-3.84447555190755,-1.1762697055229978,-19.87303176659281,2.340707853915717,2.877705132575464,-0.7946339886685507,5.411315558680563,-2.454783107159571,-4.4355113640925055,3.066392200079896,3.124810762417603,-1.8848472108300243,-3.8620272193787955,0.3455826191565876,-5.473575768061217,-13.79250460029315,-9.415360024727171,-1.9629205228097533,0.5533853734311904,1.3088023585766777,-4.408130962848119,6.174659211529523,8.123471167468594,8.888858331780327,4.545083292148071,0.9286696364037184,-8.936549902912105,-0.47398663823270226,0.07967140758491098,-4.897359010961409,-4.819344638166257,0.1590045777829161,-3.1129912563012,3.4145797410796206,5.825052053114625,3.6379361078498036,-6.721310999731507,0.26771801935310435,5.117964838532679,2.578193354043947,-3.500773441580087,-7.023152800304352,-0.372055890699869,4.124261008387826,-2.919470647311641,-6.883039722741756,2.7645307636096277,-0.916094941441294,1.8543080067431603,5.351027190528718,7.331400794180134,5.102983438141379,-4.150161162345299,-2.8344091102471083,7.343932053623796,4.297665432143894,1.0494240669685055,2.4694622438503657
inf,7.6103491706603865,-4.260116707010599,-2.0581985864308026,3.729672478691871,3.5027080105321318,-0.39544961802775447,-5.590164090282286,0.8741715921740614,-8.961417095799025,0.8301430269895071,2.220642219296092,4.259458017357478,5.530113700891732,3.3460143150702386,4.557898588336865,4.700106657498296,3.7689959471072427,6.399950926635441,5.381358872274831,5.201743208795776,6.292739879566977,8.374874202918981,10.515950729641379,4.741132277233813,-1.1274704414680485,0.9847169690244257,-5.553249758516742,3.537257337967958,5.5332593174440845,-7.138513145013107,-3.983392163966535,4.806137611094144,6.984608680409231,3.864931516907653,5.781322338764852,7.0681288278159755,6.192175920592447,5.539307140941638,4.712346321243764,5.534806638046987,1.9671123981605518,0.17391456211080936,2.2522185647969124,1.9696997555781977,-2.8274038553558896,4.053687869875091,7.520984783480905,5.889366098635058,1.7272732515960172,1.643860763555132,2.8262140277070174,2.7879203099867524,-1.0538676539987506,-6.1912220096045445,3.3659287602199512,3.6712295217416937,-4.1483622782381815,-3.0029770465277963,2.677505800693943,-3.3856790748546928,-6.46968588937775,2.6432153326742736,3.129944639159895,5.162483562265244,5.908255245069697,5.263863150020697,6.909953017375031,4.69799476889478,-15.77388183274499,-9.192136773304114,2.2895005834845676,7.130298229403962,6.220555572868065,2.3197150704887335,-1.980961027171901,0.09375412588176602,2.7148879570937865,-1.4665914892275538,1.9176872941151757,4.3469339966304545,7.718491057643995,6.1262127987425075,4.083405512945461,1.9205997046684757,3.6113672261126055,6.66916202924223,6.231977298293053,6.583449936786913,3.039898005424895,0.981364973582771,1.4082561105483578,6.53495118723955,6.559921396440302,-1.0161800272977004,2.9526528545561703,6.209741454292079,7.148765714219039,2.398396511482538,2.2427765377500606,-4.3551827327433585
inf,11.951536833230975,2.227590610431639,5.9371741805412945,14.431800627814022,4.7210379187917795,0.9568187477500736,-0.558631020461462,0.8005674023594871,9.424457495711646,9.540002108680934,7.291794119752396,6.126705457259543,5.881510950551455,6.214306577811939,6.085872241835801,8.39940239272579,4.152679482584322,-9.504761633230117,-15.671185429869368,-8.257922823711503,0.6109319563111271,5.185410772177455,4.651836856885563,1.0106964516282275,-0.9796217930983673,-2.1126103721131386,-0.6735123989646254,0.5294347626058808,-8.610160833992595,-4.429845173129991,1.5628278401947924,7.102056837567261,4.2939333061149725,-2.1221102010124966,-4.047800602150865,4.318930875457227,2.2389576721514075,-1.813549292514594,1.4006311809611134,6.315165386240352,6.432729854901709,-1.593173490846553,1.3661972495379118,-3.325519924127093,0.18808560219396497,6.81309465077927,3.47533581385661,-7.235902696817277,-5.957619745284511,-0.832325481715884,-4.146464262670982,-2.267351294225442,-2.7324895884148503,4.2718318663431205,6.843301982964874,10.08051619340921,-2.75983859880634,-2.156342769173577,-4.168634073783004,4.775841104099669,2.8865618877170363,-1.344071835528169,0.5726965791062355,-2.6449302680985554,-6.935466293163053,-4.772468139332794,0.38455163905972256,2.5005997191377034,5.1022042410643635,6.878769161187044,5.2984123614989755,4.946591885961801,5.032665076467225,3.472881335582592,-4.51284569509955,-6.414435953543666,6.286081270180524,8.849039076953474,5.487098230313848,-2.0277333802356523,5.628687997902475,2.064440349004414,4.186726910989883,5.323575020992422,7.547146041399863,8.922725173817085,2.70739334754186,-0.061226366315580094,4.63600764933868,6.9900259759994015,4.7018704017788195,3.0065613752784444,-3.630285290005247,2.618627748070267,8.155971546313168,7.051084586219133,5.407092389377354,2.382190035835386,-5.261925385284712,-14.892391287242553
inf,9.19356234126322,0.16172017411161144,-2.6207825751611438,6.894385669962983,7.95389857125506,5.982107528036188,7.095775861683588,2.212430106586382,3.8245578784415244,-4.476835620188634,-1.5367478975604385,2.907554226808255,9.331654673606774,9.131855160243344,0.18250187724814992,1.9797779259554495,2.6540053675111857,4.959644057515195,-0.9820484576755462,4.415492955025872,5.957234488639749,-0.7032406487427352,-22.07251943372745,-9.832515506895753,-3.6264856638206453,1.4606582065235614,3.9360834208925297,3.5505136611412595,-1.5278037446229433,-8.766668716938703,-6.077668837359113,3.643343417285287,4.586062481361438,-5.809383437144767,-0.6022070578233851,3.2458383249946365,1.0366275798334357,2.156284953497064,0.6167315419122588,5.226272597734436,5.890454194555389,7.509408295342126,5.017528018399915,3.4283645976039736,-5.97907100241251,-7.336238422310721,-2.0627870773784878,1.6282604179873488,2.1014949828188705,5.710904194013715,6.63059472589579,3.868766469139061,2.8974737360889122,5.527004116173835,0.17215936141204935,0.24934752901351942,3.151814353906957,-5.355600094836376,-4.477278174620231,2.5880162912639264,8.923880163144048,4.277853199631011,-0.8606363400785355,8.514419984334047,10.22152255112593,9.01284489064873,5.972518845120575,3.9443146023035354,6.710419111668585,7.46511244525837,3.259514348929912,1.7460371769459186,3.2073225786661723,4.3087006730493655,4.901940527439351,10.300066092832587,7.619027417899353,0.2951933482265616,-2.4302038653690587,-7.973120055616796,-13.642828427315514,0.013260974900966005,3.3603966080751135,1.0942206046228549,-1.754858945455915,3.1533357979261964,0.025838993489813333,1.9034869256825218,2.9467666416482032,5.472611114619745,1.1113736391191296,-0.70871965829555,-0.48851621763351005,-2.997116662011962,3.0733444165596424,6.765599387018696,3.574855262408043,-0.265607590835792,-10.035308594108727,-11.847060887761998
inf,10.698977415852918,-1.5746177735545683,-3.3239792399050048,6.965817726778209,3.686144369584472,4.373749329772242,7.263170570845688,7.155131310579261,-3.203817210506255,-4.440410174225246,-2.930002414501871,-5.038347165888371,1.414643613564433,6.205180313240255,6.946139148165521,6.8802371446977055,0.44095161275870254,-14.2560907315208,0.12350255858318349,5.54181284974695,1.3700058370470884,-8.558668612213204,3.138968944069788,3.546941817729021,-2.625464059672204,-6.954710697041655,-3.902471644617954,-6.083323063415094,5.1349143051244255,5.808456435937231,2.253570115639768,4.688466067616275,5.168737027088703,-3.925208413539842,-1.4209282867399011,1.0556030065160726,-4.453577558896924,1.997526378524654,0.8644800992052524,1.1903438151991566,1.827584950737723,3.3271996281441076,0.3476358765199663,1.6263163115293082,5.376274265481989,-4.848182303259385,0.05187707077699599,5.948315162350809,8.770662928531308,4.407054915336204,4.851341921294988,5.25246207650401,2.000381792456132,2.7687882619948496,3.96846908783818,1.3599466553836308,-2.8582668493581664,-7.428610563626002,-2.443387681627513,3.3932313238271945,-6.65901238277111,7.763079322303298,4.564324539949801,-10.702644937056483,0.37172081397104506,5.207793197751954,3.2424232391910905,-9.467943299487793,-19.43541667097344,-3.4534226132777945,-5.089199286313708,-1.6998811297033072,-5.0221892159608785,-1.6085197140517735,3.1162483008177233,8.699238886577405,4.656555856673968,4.732474864663203,6.433096070212947,-2.7731496365160098,2.1480828576260222,-5.551903632801817,0.4479201610653831,5.479608947801054,3.06887087789044,-0.42284271224333025,-3.6374623748528236,0.8449655090049077,3.9726963927056858,1.5248012661255501,1.0081217737285328,-8.116532811589359,-0.4904537621154148,0.1785182017425484,3.0982688107409757,-3.3520968603915904,-1.1759409997764223,-5.070033326358562,-3.9696364956817476,-3.081850859889144
inf,10.125768189187667,-1.0825134374560603,-0.4297309520809378,7.93275530336078,-3.0155094538666916,1.8985720957493477,1.4863863832170061,-5.418624258254113,-0.5503097861967134,1.3691249364587037,-5.0430845363147725,-0.9411980357835397,3.8495625944694183,-3.9014332221049983,-11.423639101857077,-0.19819003979112182,2.488514434621109,-7.745369516039908,4.673425871992961,6.482397243089512,-2.6444367624259257,3.436612938157097,6.616778574016422,-1.9809566522918445,-4.135920073629663,-0.701749277429812,3.784857939309198,8.464972988756102,5.5908968574002245,-3.2234914709704654,0.4347430035342654,3.5218208889432105,-5.40392384413903,-6.09103386473096,-12.698754029934264,-4.414108632180479,3.452372535557352,6.1448728308013685,6.291845347482123,2.9195952488098555,3.031149454777683,4.011620975522796,-4.3060146644764075,-21.42194396514804,3.143749224172687,1.6075345473788545,-3.0189429463179636,1.1420119096190575,-5.069566379966673,-15.420089046098354,3.4772328148269693,6.810040002353368,5.393914358965773,2.1113057362906105,0.36357383907274965,1.9287505004407421,3.3754343432699514,-3.7065626568898935,3.2480625464046042,4.199757172278041,4.1330671904061305,-2.5445489313425256,-3.877457301609276,5.575050276258615,0.07977825328931232,6.973312329748985,7.4245212796698254,5.182983699559479,-3.3024544495374357,-0.0922092209361125,0.8208097338481295,4.058107001030798,7.384114557183544,7.040257087927301,3.6506331773871707,-3.6730187820848172,-2.315393933168238,-6.866684794722353,-0.9981647238911222,0.8290508992378136,-8.526006495342322,0.9139324503703037,3.261831317918201,1.899625398540472,-6.156425584811906,4.460533790750539,7.623545026233678,2.2968001242652534,1.5103247618095565,1.6347589739690065,0.25373392084430435,2.348858701276299,4.877090236980408,3.0930847705582707,-2.484149804436427,-10.731963525570947,-0.8295600510710699,-3.03767655829985,-2.069724272802432,-0.1534222096745026
inf,8.109411703510862,-4.693497888190352,-7.833498438078801,13.059378786185256,10.217421937046323,5.411529026685784,1.06999823747271,1.834082861697759,1.2644554947335926,6.326567484965391,4.825062454646158,-0.08354070271114722,5.117462788655427,5.256658964080053,-2.5588039736925765,-8.617859550260405,-2.881367773717656,1.740416679522788,1.9243962636055656,-2.8058454617957125,1.2375050367176073,4.456606674565428,5.867258046688445,-7.350044715381657,-10.61367187936041,-2.5548967106423106,-15.190531190830448,3.370558320311247,3.1704954522419797,3.691550113081,3.969588704873395,5.920307114015408,6.870019919809096,4.539897531816074,2.2891222127215087,1.5360670514009271,2.6561492111642195,4.542802986499929,1.8487593811375973,-4.87835042192124,-0.40733615847518223,0.17231390103903976,-11.791114094171725,1.2386898518711575,1.7374292916339158,6.6388317925933364,3.0603314498102137,-8.855692963728018,-7.525897045600132,-1.24648719900555,-5.379407598888768,2.0585931553486816,5.288330828332668,-6.594921644805545,3.6624561240941134,1.8494305408064733,-5.234588265790933,2.3657311522811,-1.9406457013453817,-6.67643599037978,-2.970100649147362,-0.4021684914449537,-0.9954322826150843,3.2770334276886004,2.9958148199387935,-2.8950093382518958,-4.4301787909389105,-5.599138976962749,5.278688136359584,10.9040957849245,12.484891973439893,9.171286156474977,-2.590781246470428,-9.1374876411493,-8.137836774459018,2.102801843573282,0.6101476056245545,1.9922084744387547,-5.2590380722998304,-1.906531909592637,-1.004787477034185,-9.516132703403152,7.013957999056025,5.916898491165632,-3.4887262226804268,5.509217826873417,5.17862808594564,5.326410809608063,0.5371355549196011,5.195477974118148,1.7344914350948244,4.381042193227621,6.678154036783965,0.6597886005404945,-1.22479126161803,3.272470461550995,-0.4182427811182876,6.0685884542770125,7.1157681767455045,3.438138946619347
inf,10.838486726472219,-4.371618013578624,-8.76452358214081,1.0084756232819352,4.82757559095467,5.318597107871728,4.737011212385941,-0.06403749460101693,-10.691215254891045,4.407450804833662,5.158153164769814,3.802571842932789,0.3025787973068361,1.8118384410879216,2.013466940135949,1.9876517748579445,-0.86628307802237,-2.9750478104148996,-8.92060944184255,0.05071499491612741,-10.094978728456809,4.271396670458852,1.084502284963726,0.10040002030608974,5.0103753772480815,6.044822333994841,-4.014655057456892,4.456579439242361,0.2144782941262875,2.813378812250363,7.053878056183205,4.705191279169632,-1.3408659815255461,-6.55739433359561,5.335643515301591,3.529567448771033,-2.2236726492473693,-1.2382240092482348,0.9891422999808199,4.240900257687521,-0.1863288098140572,0.3626098409481813,-5.769962927032871,-3.985531719175043,-4.015183020191735,-1.738493678709638,7.1656409184235486,8.05021126491443,-7.456679808355318,-1.9595915052401764,-4.816576634519684,-6.5060043273402925,-1.5594249198251475,6.348164592829221,4.359839714433157,-8.212878501179269,-14.92087595988481,5.68387857836278,5.563360356870213,-0.9335248359567601,4.783246061170956,8.39332725822608,5.553715828263897,-0.6369209118191961,3.8679746440312357,2.3961623107744217,-9.462756895005597,-7.981450851756584,-0.31715325245588843,-1.1024638661658273,-6.74902718480012,-5.073321277112385,-15.313742958625376,-0.316093124165576,-6.450678569681898,2.262978692041088,-10.057426698675627,-6.764212261375036,-4.008336544256906,-0.07418109043084797,2.134947950597642,5.657770258639211,5.7203665976843325,0.5809539581903991,-13.619613003463733,4.572206635378841,5.518948129596303,0.3133969881590559,5.97837317163124,7.226442467975417,10.223842546998803,8.8741088997172,3.7848358347231326,6.001694715623749,0.9427228765096203,0.31054157018854767,3.9261424375818024,5.033516487959936,-2.4449968556577986,-18.26593789004204
inf,6.088104401461614,2.738509100883135,6.8708007233950905,13.002993855155943,1.4835987733154496,0.12851442648891265,-2.2549547918025112,-5.365446307079033,-13.64305137608979,2.206214687178221,-3.515908360262273,2.1258835682370965,-4.238879230973044,-0.8439850675402099,0.5962913002319468,-6.759649956354799,-2.5900710334850032,1.151531882255476,0.3652169445980462,-5.998702285272117,5.906462076240903,6.964011105350444,0.9609767399808646,0.09278643585862056,1.2208177336718222,-0.5768935279424952,0.9756184842365698,3.250131309161361,1.9151393162778376,3.0571974128772155,1.2880017684226885,6.438743352288142,5.608844267018341,2.8251052961808867,-8.280259187709866,-3.4720401734187547,2.3753925961567717,2.2623887426346556,1.8201624696429874,-1.2944912846129313,1.8781360506267717,1.861300544037526,1.5651460783988824,4.171204906521716,-3.74197523778664,-4.926311917368629,-0.6941929130280187,-3.8305349747256514,3.457642334397839,6.599833973762671,4.411584080269641,-2.410288880650846,-1.6770836554593345,6.309000772033052,0.6554606495037874,-1.885553827050387,-0.11025876032115178,-2.4610860387792357,-6.814740920723835,-11.217401688114549,-6.569401379468346,1.7133696848395559,-5.898200977833909,0.06383872438457416,-6.1507163330548025,3.5182748309018095,3.7959456912984777,1.6908071117550207,1.5277404635859568,1.9462999083270702,7.295147552905902,6.866204677154748,-0.6666854006439564,2.2190610484064948,1.579096507229714,-2.008832360067089,-0.8622519590413091,1.1896928840603351,-11.801217194463085,-2.181289856619962,0.7834529930273604,-16.039859215583995,3.38501579803048,6.203134107691234,0.17138373294326215,0.3432657939531296,6.865062106583117,7.098317893805472,4.320310480983046,-4.890194270489339,3.2519750166616817,0.6115496058422067,5.662271173166282,2.6585940269182373,2.610067221312846,3.2447874361864777,6.726205960661638,6.647701555199241,-8.831364957467684,-8.35988292253736
inf,1.348832110293948,-6.040166824274362,-3.352896237816558,8.831785647902707,2.2644397807862156,6.210559328530067,-2.60941930196433,-7.226877283897551,3.506353510258574,6.304557966785403,5.3444372409164025,6.643389962310135,-2.1718543171846783,4.32915270484737,5.289525338606737,2.780649687020073,2.156693305774887,-0.8247561175688034,-2.4283658545253317,0.6747621383440858,-3.2798960560624195,4.130306343976887,5.833739912253037,10.633481814782286,9.6437016744242,4.314370420078006,-1.1172229195159318,-2.9393398391407146,-0.3361882309123061,-0.8979211599551675,-0.3540751019046695,3.1584940324083632,5.428851130282403,0.8819292072274649,3.5701881937062865,7.653788922685649,4.412148138430744,1.4046151363294541,4.437198132161953,0.5704824508897488,-3.6821312133115427,2.3102021703183766,6.705047112867298,7.074148722180631,-2.4524286471743153,-4.4235536106765565,5.926596676297535,2.404259635268531,-11.695007916696206,-4.824256534427221,3.3344082665011356,5.583512727584839,-3.8666490987294395,2.0121322130881296,7.474875404367815,-4.614026710105236,-1.0402735066072069,-2.1313156036935865,1.597842331594208,-3.8054908094463116,-5.187111887261338,1.6915167526502728,1.3137616060759925,-1.7806922632987252,0.9065716858402766,2.0569684268090924,5.840807688402222,-3.0357525346190997,1.6294582383273735,1.2188916962803162,-5.029860180867473,-0.15694272697379574,8.202578306170935,5.042020742065411,1.7836795614572125,-0.19433977917837097,-5.0743047305707805,2.1548592695345476,5.036011527821714,3.5309735216207088,4.620232620823671,6.386251737955973,8.216755888879156,3.958947720684577,-2.3208778454866064,-5.838209361536123,4.671705996607386,6.806352563659338,2.994235007690783,-2.1107255955395914,-3.4010099539677086,7.412979647849447,10.216671243234828,6.106813254827323,3.813423513036753,6.387526117494815,2.4530893520087886,6.570273494298917,6.2439027219932655,-12.792295562559048
inf,1.741363581550896,5.435624602613945,7.360221043448763,11.247640212372701,-1.301495624032544,-4.152757543163393,4.8927471599775245,6.45639032902486,2.5471937580175883,2.25766496980361,8.397452309340597,8.458688151660393,-3.545647219671782,5.438309102829038,8.230775630126722,5.9671186167864825,4.89413152052451,3.235657701743886,-2.337084731047824,-1.7724553072378626,7.887890160277035,10.07287697602984,11.122526310843128,8.81554252098752,1.2288664799292093,3.7045278655483145,6.396043945975602,1.0851913393299952,8.577278331479008,8.907219911592847,1.8889042783515961,1.9081791787238132,4.70507210744416,-3.4951901519273747,-1.8509978146060106,-13.924586830594968,-4.935016217709759,5.981542370643844,7.868468980390659,3.094027336653525,-17.889907243386993,1.610730924369868,8.991954763856995,6.086549391517394,2.2533772159638232,-5.260855733126647,4.842840818811304,3.5978616844738625,-2.8006312319153963,-0.7281699143429421,-3.0715698838237273,2.9279678325509053,6.589522754679891,0.4032281218801117,-1.7272115620098631,-1.7598787570037544,-5.744607095732221,-4.688893379480518,-0.7431104559291697,-3.4520778406044954,3.673179833731126,3.7802805682492604,-9.037408237802467,-4.17322815333079,4.373120993798452,7.215888141433965,2.529881643478518,-7.6895008960715145,1.1593658513133462,-0.5088504442098625,-8.870856908105083,-6.7596648012539475,5.527949203990268,8.476571625011083,4.919069239337787,-4.426499236523583,-0.22697875691727631,1.7837252843509717,-1.6045928205818853,-2.62754709767092,-0.9701156126244257,6.915656365525834,8.297010144941105,2.906924141262614,-7.030526354772206,3.6340351356559992,3.562171425738889,-4.776386249159444,5.153006066166149,3.713093675468741,-9.033682725449658,-0.2424948017046873,6.249984297771178,-7.470933066975633,1.6793425782339284,-2.5118673083131497,4.300561962721424,3.0875227104826806,2.4723698280654816,-20.47749338425632
inf,4.790429683910329,-0.4308452106376772,2.899494734868555,5.71560173470186,4.268051927983347,-4.102944550634678,-4.216015463933264,2.23587213908268,3.7359433980794314,-0.9393216212771023,0.9735642684975261,-2.2982657574697107,4.0099077593347765,2.4675988489571417,-3.151185304856952,-3.89064493040879,-5.769611171694365,4.43765532163718,3.840424959769539,-2.3859349518588644,-1.3280703000206628,5.726333010514178,2.978347203571424,-11.299966517213946,-6.449987543198027,-8.984063045051279,-8.870278249659215,1.278143428198021,5.932292829543805,3.079808762042319,3.486680095053316,-2.7103850317958162,-9.940901111774124,-5.993811805930044,-2.3135790594105856,6.34238954618278,10.443536959993885,9.394000248153084,5.534032700620628,4.793976247240558,3.231321309927317,3.8433996191723665,1.4574892407688438,2.328021603102755,-1.3301133744603462,-2.185064993737271,-15.341661228099852,-8.999526838714644,0.39343235195070037,3.6435440339459007,2.1090568626607293,3.6648698651812808,6.974652589858131,4.448788625128564,3.6921975619246155,-0.5399552154087317,2.6026471936674085,4.549972776875947,5.527468755101189,1.163425957225769,-15.63417999847131,0.07905180940693413,7.44130106867815,8.527796362607042,4.762596832089152,4.692395788494807,0.348884842399265,-2.7848179775657727,-8.533579981812423,0.8810063488958377,6.869110036225436,8.553536823433632,6.197190903355107,5.251149770339985,6.797496938425908,2.850437927819442,-0.06610751127346504,-7.158263333309591,-4.099103002201758,0.3481670849300116,2.088130797936124,0.1460705740546473,-1.650904403732298,-3.9263653396048994,-4.9591196383236635,-6.183422171587885,-7.104927896183341,-3.3923996585627094,1.7966213117787788,2.8454250912103163,-0.1356112498827713,0.05799527442203356,-3.6142959304883107,-1.7978948461741595,6.92693413111796,5.859121919122245,-1.8976620897544265,-3.6897764045634176,4.124330422174253,4.2230670010799045
inf,4.423293280467922,-10.149452634630437,-4.708554414330062,5.313639647841288,-2.5341183667917875,4.2602492020312575,2.817452632608642,4.7886571419910595,7.197692484566254,2.6537638930907583,5.671141896258963,9.628492687055981,0.4243066545866121,3.1979250974170057,0.7538422144756254,0.6758038630004393,3.721686104504748,-1.466127779989371,-13.850202330459709,-1.1566965957117787,4.820307515778644,4.984293909064462,-2.256762410936446,-4.938504896610098,-2.963938561304971,-7.755665246654772,-13.941398406475912,0.132611022775464,4.15091711680229,-9.825811750583597,0.749638844068997,5.606768595781958,4.638643559442308,-3.0632553307509696,5.981049503345432,6.82580893902248,8.11673547841582,-4.022876054204524,1.3025564790405895,2.950894120464845,-8.042399465300335,-0.5177220612215976,-1.9698173297539725,-3.252626188162523,7.383528716041809,2.9274773252509476,4.154422710044869,2.395548595583982,-5.540423413030943,-5.247678047732016,2.2966191926891426,1.3523513589658194,1.3391503390888886,5.021542034336207,3.7516763441492103,-2.384692232770732,-11.015175885201963,-7.274902350043767,-2.977200255279996,-2.25615838846673,4.129328123376261,-4.583991386843408,-9.718376997874884,2.2108033280162473,3.335697907866816,-17.97133455552845,2.697194315372286,-0.8794609306109749,-5.611581997327036,1.6547955561989198,4.980240886560743,3.866051030205938,6.582861235844177,4.5376461176804455,9.181264568817575,5.564503216051513,7.843949118492965,9.928096655472515,0.954097844505533,-3.120664382186739,8.609882375716985,9.595776891821146,5.781539283857882,-5.6408881576290995,-7.654590902250398,-6.6672491321139375,2.179311895920314,2.57805663034884,0.7224975734415011,-14.612685198231716,3.915869946130151,6.885852642239755,6.0236432534083235,1.0095483782235277,4.590078414579608,5.515368996464602,2.60213002059686,6.422033322176155,4.711120283083744,-0.5717222490278573
inf,-5.514416741718421,-5.613506520166693,-1.859734194536471,5.339472916717309,-8.632565430871786,-1.7714162591176645,3.5306002814543334,1.581482480023375,-2.3241489514201312,-3.536361613000107,-3.770435695425107,-6.111030760031408,2.091589670621808,0.13280288804996587,-8.767346356804154,-12.65307044769844,-6.269459877525087,2.3169996320236415,1.9669590477900272,4.371624333543142,7.667954864084805,5.663378840713069,2.9937130484315873,0.93070625649856,-4.594167689614778,-4.645161171609807,-7.7931786205162865,-0.2773483351618111,-4.966932953794654,1.0354795213881616,3.949134502242167,-8.546146550499962,-0.4514932784723058,5.821264459876623,3.6546089581325063,4.8362617153309415,6.7531472711340825,3.407525118004642,-0.389286866669714,-0.3882118206793166,-14.731672750058003,5.448246255760125,7.698285996788215,0.8521695147027799,2.279639388247361,8.487441874025272,8.212305684127763,4.973964598111458,-0.807029376476919,-1.117562176852374,-6.819671359750281,-5.605572550259424,-0.7730307583398144,3.5703493204594636,-10.703208272387876,-3.3594143698705636,3.313507155284121,1.8154551670973476,-5.562320430934477,-1.0714220985469751,3.868862436528609,-9.780230173147856,6.138825448778263,0.3310647955654531,-2.1864975675704628,-15.912254842455546,5.4677920850875665,1.748401912686596,-2.212094995252272,6.0655002641560785,-2.801985934113702,-0.8374596597131898,2.7997673013883,1.1962897759183377,-4.739700088002998,1.3259174858205967,0.08745515051099062,1.3054478281890312,6.597718739052645,7.5129267094606575,2.502243225677084,-3.981282120679218,0.6486148723830283,6.884913027902407,-3.8084758146353295,3.892357853256364,1.9378902225971615,0.8819246444425701,7.999118287848596,8.150958540170812,2.0091784148828538,-3.83140189230447,-22.209656647329737,0.5300280830815538,4.195700315865807,6.055662832828716,-7.672332203968828,2.876602076209558,-3.874480109840107,-3.865930630087888
inf,10.246764351227124,-7.59462469788526,-6.60718752155766,-0.3986567018390055,2.0741777450563,0.7199276288677936,5.1866937369797625,5.287750991177273,4.342741262611742,4.280460085993386,-0.22906921354368492,-3.7607158754459427,-0.2754416112261815,0.8596554881948606,-1.027092618934482,3.486217458113714,6.945965998722194,7.158555734802526,4.3734934801594605,-6.83175658916948,2.131850484502543,3.630621436929488,2.8000798916326843,-2.5641892596103446,-1.6093938473130152,5.158894321155799,-0.5898806296410228,-3.1824105516587267,6.458402100213611,8.030132765050539,2.3474985688843404,-6.312859219135767,-1.322587097751743,4.0722872881133085,4.566388482240946,4.58497755927602,0.7572165702117033,-0.9535202563993153,-2.929905144695077,2.132248458536793,5.499871921573252,0.6632141900524786,-3.26427285594594,3.0432031225936313,3.698543763300883,-3.665551296195069,-0.7423220559111883,-2.6281444692815796,1.3620529783287552,0.8666107669324958,-1.6830902817800464,7.157501131852548,4.749019799035082,-3.154012091512577,1.721742551843235,-1.8225939177326325,5.185630281467127,7.4957600824183785,6.061262352775138,1.3402865763698415,-10.768210806199036,-0.6031235375074786,5.918064965707686,6.110567122866129,3.276544741601164,0.24589108387311143,5.524389508660299,3.878995745092645,-7.020233755419518,2.487950631336922,0.9071315038542167,-3.7251163825369105,1.7901557447740544,7.640783618809067,7.879310524770155,2.331088147039921,2.3571462418030222,4.10165919023995,0.6958646564854192,-8.35854273512799,2.3274585268480408,3.209159101067833,-6.697742895766822,2.333121602975446,-4.177375531999111,-1.7169872790621241,1.1867455280019144,0.9153968032601298,1.4737818084664696,0.7415598079294057,0.6271292786034195,-5.731789292139204,4.130152610268837,3.249386232153043,1.286799678873649,3.8017699288520177,-6.661286195407527,-6.67682257950738,-5.435834137711481,-6.350605559570269
inf,15.27242963454484,4.992372122694414,0.8362967728480131,10.548258146486528,3.5924085998151263,5.95003576773156,4.323048043647841,-4.202290857554701,0.3377351013583194,3.922913775331949,4.046976008686265,3.574967479000655,6.670977597844971,3.2957092686372285,-0.500313721587851,-0.6695220583641799,-2.578084582181802,-2.268243972170275,0.12424804814090606,7.055668307419019,5.7338817373339666,-26.964583147257123,-0.8746044355947618,0.8317144082817194,4.368521027397755,5.048467278111538,-4.160761384583935,0.27045580400697844,-1.4494243934670124,-5.273911108482622,4.015332266421964,4.347973942520568,5.08859709272172,5.1467500707599,-0.3249957190147654,6.187760947871638,7.4062384795221945,4.486800286689011,5.217115390125535,0.5131291141820853,2.4669187003338706,2.4755339383382733,4.716622210414947,5.232974808533314,9.610212941097465,10.57160538079427,0.6341531453333147,4.673927042001971,8.421052661403486,9.202951943264871,2.0064858639116565,3.179465679463277,-1.2651776466740614,-4.915726716054365,0.9710614115698988,0.24483715338647016,5.158468840779648,1.4649073540073019,-0.6463333188464659,6.130745185717721,6.784396637532353,1.2987080129928543,-13.640830899090794,1.6819356765677327,-0.7961688711087191,0.41696359527490046,0.6415014573073918,-5.959286148091415,-2.6070634364597467,2.5584351303632857,2.097983944829892,3.0967040761408384,-2.712427662549608,5.373624812362415,10.053227927803619,8.178457148445254,-0.21717161749017322,-4.36036289935852,-0.4092361032507341,1.503292265813748,-6.299273357057622,-5.6028254341786194,-5.5603919781428175,-4.245785896167867,-13.669211783125498,-2.446432225605413,2.4210398139018423,-2.7884400276719816,3.695033361702336,8.649192629216252,2.4261429717120038,-0.09660068421553802,1.7866201984487091,-12.509185726685367,7.884128503720461,8.50722871076077,7.3423151448431625,9.121933741346218,6.5779975025197785,1.5791951318208959
inf,6.383995783223366,3.672851314206533,7.5345857059630115,16.625239910962502,7.853646126880442,8.934204654664807,-6.433628786257685,-3.601724382189836,-0.6288701359214102,2.104944440279958,1.2457716803915595,0.0435079486230201,2.66234138864888,5.690952068617911,5.767964090696207,6.380668995462187,3.078988416918648,-3.62921022363755,-0.8251391942399948,1.8342209648801813,4.543008987139167,-14.983241770170629,2.423009791275433,1.278833134567499,3.1212308561266866,0.506606332874334,-2.4325912918924857,-6.616469809366862,-3.3719528265163916,2.2486728647682384,-9.136811356326383,-2.493998588076046,1.0954780189914857,-1.3947820755109248,4.3501432137956115,4.494401588320613,-4.847438318264068,-0.46788418534934806,2.0694619580525853,-8.974882362068769,5.614559560732019,0.3433158908326348,-12.072259703424187,-4.455939522186334,-2.479755703002539,-4.7425875677848595,-13.652386497739052,-2.952189976086686,-4.099718892801377,0.4744999909494112,-5.6749853184371375,7.296741203242085,8.855578465592075,7.596023531968797,-0.3281340340709633,-5.115800462245524,1.758169237634874,4.684033171277463,1.6503452946862467,-6.252251393782956,-4.266338343671748,-0.049523077126245596,5.214460162083348,1.5383234145912539,-5.4624009982497554,-10.945690121208528,-6.258769573195309,2.0901987587054762,6.048277652223163,2.3910364027251703,1.4435047710144815,-2.5055979437858014,0.751376988347161,0.9283779678772888,-3.28005578963554,-0.4398918919158348,7.628590194032903,4.926970413339944,-4.6177413378752235,5.266346019312955,2.8408009816716273,-5.08182971376295,-7.680211278235824,-9.635650406798412,3.2442674927248376,5.74787517406741,-1.299080935069071,-25.94578425846774,0.578852176959316,3.766424703694831,2.515578514782554,1.7010518267765065,-5.030106797913405,4.891368865940613,1.630863622636305,-2.9738638901185084,-23.466981589338644,-2.811214822430813,-5.761864979699389,-8.951727887147293
inf,12.237844421013556,2.1240529639119954,5.222480596922864,16.308211521240676,1.1647181917530567,0.21106718113153633,5.216354374687427,0.6191788216942555,-0.9220556834532836,3.799774325808297,5.226545430804514,4.387998482542525,1.9973720388465388,1.1131716768440576,5.87508170375272,2.96060396158709,0.3110845994402922,-0.3518440945357568,4.636157057408596,4.574340634609868,6.141826539636671,-10.245389071853253,3.3881841272252657,4.351178899400843,-1.3009998140529433,2.2102180966149803,3.736483519400096,-5.612026358356758,1.1328770938356243,4.284425548898078,-11.495243859529559,1.412217648560791,2.5451697621725984,7.7249963603949325,6.73554522914317,4.644179490038702,7.728401064183693,7.509712433188618,5.979683800725226,-4.253034979479267,4.711280413841209,5.85761445353787,1.8951022724294688,2.319200477476045,-1.0556564480056494,-2.362346072043742,2.234446429165587,0.5761054793418054,-2.7725391219883377,-0.6287361775931117,0.8375880624899636,-10.625669538244402,-6.916212267264555,-0.008608618507054189,3.9151344347521686,0.1447733086023888,-1.4813742213855008,5.882126766349337,7.024625324688053,7.396896018711928,2.674057515488883,-17.944828051372802,0.4691017161012425,5.936124865708173,8.116967442573753,6.778027603905606,5.869197878395774,-0.11479095070905032,1.6988050725144177,1.0899488126858685,-9.427563983710442,-0.5104754119778505,-2.980959382293179,-0.9989070982129604,-2.5383805880106607,-6.108092537740596,-5.984436196408389,-4.014191315422579,-4.260108048607805,-3.7059973958941015,-8.562898190297695,1.594790686293642,3.8107876460159176,3.522777002904114,-7.894302303734868,-3.7488428234133124,-15.782608119179876,6.143281851965753,6.250445808346541,3.653626726026175,6.744120700880657,0.6366890981007529,1.8518511021582285,4.627693395362073,2.924816690946521,4.744535026564023,3.248429758637471,2.048728550700936,3.375226963298637,2.68691328894991
inf,7.566340459052084,4.296587909047528,7.467768349781846,15.158107782867905,1.5539646625231605,0.9749073901697862,-4.106985481720308,0.32999793410032296,0.9878172987071743,5.842504763155681,8.733623529734764,6.775899970217203,-1.1128444219093758,-5.922405268966941,-6.4758086192201105,-1.3014199422224806,-6.585900629164961,-0.818724467826982,-10.609485023104568,3.716293707733989,0.9286327707603945,2.517445628198864,2.8028003133275305,2.955330543938871,4.031746774141659,1.4344561138193654,-9.62409707870497,2.69636265997827,3.8444090095340187,3.3551335227907515,1.2101800138927885,-1.2867099526434345,0.992840323030201,-7.774084025930442,5.723378793414817,4.636913596600941,0.49403827433423686,4.554214489731876,3.038997560229234,-4.58988106201334,0.9523591782257128,-3.356244207105135,3.0680234764750693,-0.9915800271615041,-1.9811409498591956,-0.9611022212634239,-1.136473987919409,-15.667562285014803,-18.76070276343041,-2.318328784169708,6.494628176759633,3.671702760553366,-0.3106245252206392,4.088262804071007,-0.4076102517294089,-7.900821319735428,3.555852162832508,4.573374540550269,7.271715240357544,8.597569855656992,4.736711867202402,2.262140712764605,5.5271384468452,3.6967974492588382,-4.8547684365967925,1.5244542666254404,-2.062808111734313,2.1060573577371287,5.75820709522749,7.493647017036373,1.9209228569411394,-14.509876095650569,-0.4484451331607602,1.224943821987388,1.644340686252633,8.28900800841675,5.802409010762901,-18.187512339466366,-3.0337182322461587,-4.3846771512488445,-3.023225749488766,-16.506667489448915,-2.900122571230071,0.11735775419184336,-2.7713939137192725,2.113889310637191,1.5940735894520728,-6.14316052878339,0.8585994802912182,-0.9311203421184118,6.653532156143804,5.331298843880312,-0.058043422463960326,-8.218267366205069,-1.7616296061363954,-4.330656677430412,1.3537914136793319,0.22420595576226532,-4.994171972426301,-16.26343465939226
inf,4.132648937570631,-3.186140225886167,3.279212080510537,14.945773694425434,-1.0635262760525208,4.910368735002031,-0.6936634446240575,-4.8415013488064815,-8.185570321914657,-6.868033222765742,-1.1676814653795056,-2.1801288846567566,1.4600915116307789,-12.17513820665414,3.3206296979228647,7.030322116891298,6.3740192563213505,0.9779738474240816,-1.8488652880452108,-2.6703556596498927,-8.540288450193536,-21.21538107152798,0.49985801191583334,4.930458601463577,4.833235316808832,5.758518571839055,8.690246821936036,9.736802785813463,7.494339380893649,3.421926694216552,3.2060991427637404,4.634114718406082,1.7032264487296302,3.8010701109623355,4.643154937915561,6.243124136511071,0.9039100575053496,0.6208522341209886,1.803993241659164,0.7027519003061542,-2.531862000385864,-0.32515271441392457,8.431714255987416,6.590871991044423,-3.8417588848642765,3.5288442137003386,5.533342444725406,3.377995157963838,5.056507747883515,1.6095868008678025,3.9161822638345996,1.1086662971686607,5.953173801080169,4.000764314553159,0.7317648305979034,-19.920386454335144,-1.30675887870904,-1.1436753686233274,-1.961300873811446,4.264064939099342,-1.6762551561504253,-4.71430456724962,-8.881525637768846,3.496239047916596,-0.03449575605027633,-6.668297974697268,-2.2070452723375524,-18.655167631815182,-4.176511070358195,-3.3936865675873804,-3.828628802543072,-20.076752138550987,2.419185127050625,6.943151841575876,-1.2345768467977791,0.9492694195218974,-1.8576176498308357,-1.9695050835999268,1.8760801523607995,4.40392959669385,-1.6631671799683687,-0.764186400700865,-2.3812827322012424,3.882936424405223,7.671971711003913,6.149072057073134,1.334439529465115,0.13711606943688537,4.563543039874247,-1.6118516834664902,4.775277422398524,3.264926619803717,1.6712756128401267,-6.405484684041099,-2.6051376438602034,-12.363528003506374,-5.042486134185424,-7.168780762623179,4.863866750546137,5.732634034803546
inf,16.464619773981813,0.15580559342452704,1.1419345208572964,13.1755149173822,-2.9858097373990766,-4.315514298855188,-0.18817824068729294,7.728938042567091,7.473003447831783,2.4681914584793923,-9.543860380462448,-6.495032899787429,0.37975453376300194,6.023144639332273,5.484431833848859,-7.742412079810265,-0.2327528158313541,0.7434020018836378,1.1841131513398437,-2.02562348634833,-5.6173712894712295,-1.5896549729667697,-0.3125706186787127,-7.99484888669312,3.6989708039998987,0.33932669602346976,5.0791964841058785,1.1179235075428196,-4.478747674015224,1.4159337628338022,-0.8298949970844305,-2.7762937598069684,3.1524507353496887,-1.3837802062736486,-0.6229856758875982,5.303211917971957,4.3180926335077885,-5.095685726250373,-1.9317081427449097,2.281785410898351,-14.05622027736014,-6.602502169574272,4.216733343748174,7.771147752414407,3.8662152456290997,-4.631917865688699,-14.356481760186199,-0.22153131361350376,-4.370753172478992,2.6330394737507277,-3.845599634094505,0.4742057990576427,5.562384771616657,7.754256596696585,1.7294040545128766,0.6158683485256304,9.42851951317644,12.821411631462102,10.168434479264256,-1.7576117411204066,2.8528476462845305,4.856599419704295,-0.6598434249234728,3.1874247157259816,-3.4637238992669523,-12.287531817399781,0.5601843880281763,0.7849584652513002,-1.5044351039091666,-5.159379442160578,-2.785560884580441,-0.5750136154006356,-0.8838154391758763,3.657740409715295,1.034435193833474,2.622472531052182,7.939918009331784,8.081565570495066,-0.5815011367464322,-0.9420032645006344,1.39770817421563,3.2472230153302277,-0.06753629135758388,-14.071987893171723,-6.6761487665405,2.294797859325918,-4.444883042809195,-2.9189951799301,-0.8077165664732604,5.917222028503907,4.274190891802348,-1.1284226182531114,3.967786920783844,0.7799496512429869,2.8605682682544114,0.5400215267151225,-25.253729256127485,-0.6827210388766716,-2.411076969276813,-6.780335218433407
inf,11.323889633326322,-0.2533582103432872,-1.845337031037526,1.3456200164046201,0.8037536742671705,-4.982010506953866,-9.025568944286178,-9.13390152131278,1.6861317600279797,3.568005461032133,0.020871346300733506,1.9111423199307787,4.634289376072477,5.9507701809705225,6.1932018179774175,2.5070643992215196,-7.460178268999002,1.094873241850486,2.8185100803632253,-2.7283838808220224,-2.349848388764414,-3.9776331970568393,-4.399199641315782,4.439416442066623,6.159289231742903,2.9598867486779383,2.0901316711623537,0.8633615668009327,0.6928275270975277,3.189814291029883,6.877470337114104,5.2204234216101995,2.4630117744024673,0.9451365410456205,-2.1201039115833282,-3.97936281506108,-4.285487644293795,-22.722239212420284,6.514668551168121,9.614432088978198,6.125346829621364,8.074310022973016,10.633321675707897,8.621122641230706,7.263010925431182,4.604986736614023,-0.7405353239708248,-7.152232226847282,-0.08740462845179309,0.7842838062646393,-0.6208237332560103,6.654650734831883,4.2980885885066655,0.8980849964310167,3.391846350572173,10.729408080536082,11.653329997997645,5.882032442633275,-1.5828910416912834,-2.04265262508747,2.944219559563514,4.684937445805367,7.295652876723366,7.918214976643448,2.90550525203615,0.8885413699079692,-4.586106248762924,-4.310492891198358,-1.1504746036857938,-6.234267139233907,2.221462336387063,3.4441026915326347,-3.9360334804135206,5.745111781972284,4.267720141386455,2.2751236764159017,-5.748655487400008,-2.9433070446218323,-0.2107987177589976,-2.814708028439867,-1.932624970439477,-0.884914506039145,-3.743988929354529,-0.5104528573954923,-8.976221448068792,-10.921576917588432,-1.5167940969160654,-2.8125518339789366,-5.377680652924369,0.5563747722961594,4.010504270921878,-4.9575021619324104,-5.90641001632828,-3.0067532619605544,0.5434903325513432,-14.485114914787644,8.141574897598993,9.471664567683852,0.09002973416514948,-13.0594684250444
inf,-2.5377762835676236,-3.1543543432357093,4.153115225521812,11.363554450232568,7.187847926941302,-0.4726001729004494,-5.949457221798973,1.5239242681137242,4.616285525846834,-1.8954241835549617,0.5355262315236189,3.69516699606746,-4.269741509972523,2.520837739499001,3.636023641073912,4.974299856491754,4.311933462923008,2.658821047818112,1.2804510353075145,-11.965698626974152,-3.4413200041587615,-6.800234160307241,-0.4923723682790211,3.9793744862483535,4.892869924419763,0.5217247350355265,2.181520765463233,7.8610252012495,8.992418406967875,7.449120269756293,6.312722424278412,9.776493969752202,4.987820991388375,6.405883521343348,10.014609767192777,0.34578388125732573,1.8175062024009705,4.341070309635697,0.0006847240855947234,-14.728720802147315,-14.37455673282134,-8.752160274714363,-5.147567724989351,-0.49487762895854814,-5.377880042468739,5.656295812637936,5.261555092475767,-0.8739128261211491,4.335991694527927,3.1654452061529383,1.537308038915576,1.1602124352262209,-19.181578716906564,-6.631375677460923,5.036253653320543,7.482228611462858,5.0845725712721475,0.44981021957829626,-13.859772725644454,-0.8521729188816423,-0.4613572682373146,3.595211250203967,2.8438489648357645,4.748282432706425,-0.5134424588866864,-6.160679425422394,1.9567274068946787,-9.674500916153967,0.4106778688443171,1.989397380860467,9.428673792515958,8.320361956340577,5.970479343723639,-1.512868405341706,-4.758383822178693,3.8995209984877803,7.010590894931482,-4.538857611583886,-13.115213446517927,4.665017243904735,3.926616111164158,1.5611029834022219,-1.043203046633863,-0.3549594113966066,1.411671579999826,-7.305653475253855,-7.3127269910673505,0.8890179770769748,1.9685282697993358,-0.6482263345690029,-3.5246004455774695,-16.936509350548334,0.9213577819760204,4.626486469354106,3.932484465928752,7.330779937137976,4.545372328207257,4.586345976148259,4.6550403214897145,0.35994885733204285
inf,10.295875698863476,3.2783702133347,3.164272441488656,-10.243104227328903,6.397856941120562,-1.5405172064705859,0.6700556504748185,4.462891990549782,7.649489391858193,0.05311087210701615,-6.24968978015611,-3.6910183683566764,0.7699987297175319,1.0117053720717344,4.666212849520242,9.246572926611098,2.176742527681448,-2.1119899806068787,-8.134598029224279,5.049079445391271,0.7326532772288274,-6.750401204851578,-2.524846154437469,4.995969365881198,6.41943486913744,4.137391793592151,6.2974275308180765,7.362595431552631,2.4917918201964184,4.919288959278262,3.224893242424855,-11.838928994020733,-6.1869602046681536,-1.0180490734713388,-5.810356450170211,4.253874024783066,9.302218654785598,5.02828847523373,-5.223093504693097,-4.65546087641701,3.1420659666676016,6.875677826866948,-2.61723209477492,-1.8979225308551761,0.7719011248696575,6.262604926702664,-8.061120454106366,-5.84318356779022,3.5616882623350037,0.3718651553547687,-7.0164763157751295,-1.0468854236041594,4.703747930248994,3.2805762761192483,-3.403357242578224,-7.733670502221443,5.963210766988809,7.811278492288217,4.930190636095254,1.7303155638601595,5.73041276278034,-9.657384018102896,-2.724616256571707,-3.774448622640442,-4.629084504541865,1.8646776649214587,6.014030951920837,4.078144651425482,-6.3396494788370745,-3.6905264087034837,4.696857738733492,4.307675456144423,-1.27420622866709,-0.7169377553107239,-3.0687993560363296,7.054507390751958,8.225908213776172,2.9550747113290328,-9.30636036316183,-10.82452420805916,-11.650783136990817,-0.3420668043693169,2.0387575135894735,-3.031430829465087,2.065312386930259,-4.1977288551077905,-1.7898937935136772,5.208806551924404,0.04076408967457468,1.8068759043225597,2.445974877361273,4.952184186737192,1.7953809207350275,-2.5230697679601377,2.9019518132200446,3.3024295570541113,3.6934226918053668,1.4859427593296957,2.687559030525186,-26.114801179945786
inf,5.119553519872245,-13.492996352707864,-12.892460686111004,6.1497839190758015,4.955861467693314,-5.454481332420421,6.778193480413179,4.389757191714811,3.3625360051006012,2.0481735125272316,-1.859424146064228,4.086664123444535,7.304204210195383,5.276189003378466,6.86940503138953,6.315043885928638,3.593662734883143,5.1510354947953125,9.364267366067526,7.208757241575185,-0.7687782012837943,5.549935624014548,3.9723838552006256,1.0368623743692993,2.9987135282861956,4.409894463548895,7.3405236211892415,2.718546940409176,-1.5304315934239838,-1.3330426666665431,-0.27779957734918526,-7.007796993503042,3.996959359217641,7.021598771828494,8.994087509535241,6.945166996968602,-1.3606656681176332,-1.064671974420719,7.880708719630803,9.097215479587117,6.007689047278205,4.393894089533333,-3.3458339505855292,5.49980388458701,6.916844680810655,-1.5505404971759518,-13.16151064844155,5.666589431260505,3.6075545565085747,-1.435825808902763,-1.9089253337116858,-10.90911361824653,-6.188923331456067,3.8347846171092073,-2.555671846814448,-2.3345298975455506,2.2511173797792665,7.124972920717866,5.490292087815483,-3.865556607385308,0.4902902026503426,2.5894462670315264,1.012833842785021,-5.9258062361955695,-14.671516651546035,2.9511427060001054,5.103422290994935,4.29769359327539,0.8406405667409516,-8.141513567998416,-2.351782303018936,-3.1576288674224173,-5.20814739079885,-1.1267492031378552,2.55132242320488,-3.593240556113706,3.844507069041285,5.249255822494952,6.617430921190888,3.6223910394692567,-3.856760034145111,1.5491267471733963,5.267996257975035,0.208159309831224,4.7789325792857085,4.05909559780347,-5.616188186058061,2.360718410345001,3.744696969778879,-5.315370276896438,7.234639460508575,4.729173285861322,-6.700002493440927,-0.8510772392479922,3.7173952574240516,1.4837596530297716,-4.645086523037222,-0.6980412944662078,5.628552742438309,4.748873496507542
inf,13.552710099156686,0.22564960390268785,-0.4614688300909444,1.1523963816089235,7.416110147836278,6.732406742951476,2.793324703321545,4.817638979351269,-0.9379949647276611,2.5097997210572878,2.485943091790471,-8.624020509859843,-2.5133475772668454,-4.021066911619016,-5.3093318354077965,4.889462455454073,5.04908506237166,4.71681691645211,4.685391295043637,-2.509075354826628,-8.85641627132425,3.66328102993468,4.3846987679176905,-14.694030199681976,1.7202367251584079,1.2248474264007356,7.548369774181854,6.481955033261386,0.32181011623631406,3.635993079084372,5.526046013241938,-12.604636419557359,4.013775950017354,-4.646868120494936,1.218475152776918,1.4172084013693862,6.868891936879621,6.544869765675891,-6.874080899939429,2.54243327451168,0.7369547999229198,0.07866355245104018,-17.103149758958715,3.0747251838090435,0.25155296227056567,1.6351599985473726,6.259180768046711,-1.8650957676906685,3.324062886586276,-9.671743609365706,3.5404226972235335,5.159172344121423,2.168062037199377,-2.7269853023554944,6.194015910243877,1.047988333741344,1.3210323184000288,-1.2680908825923467,3.843560742784412,3.2220948397498717,1.292382795727569,-3.6930621735200404,-1.5102150384694681,-3.5064537012989234,1.3236789683749635,-9.319724331053905,1.2951337046744342,-5.115924818711214,-10.449168980018051,-3.937137204702161,5.1543264420299835,5.487945091845127,0.13888258802737852,-0.036607636160475465,2.8883001645661395,-0.5406503640585143,-8.76939736543109,0.2534735131890571,-0.1959030600569065,4.688593944094819,8.033827723164158,1.1540237279152379,-8.068374699908894,-8.404144744887269,-7.436981772292533,-3.3198504310711456,-3.0097227212411397,-6.9936178108678675,-4.133108656967792,0.4888783890577315,-1.5724401128149097,-1.4739401592078138,-5.931116936184402,0.32782303138719726,4.313011677422239,5.698270117160433,7.880356463949447,6.019292492602197,1.7799970931919091,-2.355621719493783
inf,6.437903758295128,0.6870108995971032,1.7026306178433979,8.648505550361266,2.5861912099304227,6.151258562321072,7.543395061415374,-1.444737987465878,6.265869732499901,5.585125090596129,3.2939673177243733,-0.6735902764341937,0.6821576410395735,0.5581856098483122,4.5635148786982,3.2214278303791986,4.250587795526606,-0.45820966993468915,-7.626920231343213,-1.5851312018506931,-1.4905653882889496,3.209017576982575,3.8108983142507995,0.11016212633844447,2.556907697011752,7.095580610532586,8.40259851917066,3.7074516690116326,8.344455087687415,3.8971177294517005,5.160271661999374,7.07614365405481,6.1963874206030525,7.19400241885333,8.887974173020165,6.275662725844917,-4.059096910365994,0.17563990273811925,3.2540262992152975,-4.401204432781682,8.070911967484243,9.122861112088444,9.031880505550035,7.426980363502693,4.356237419039417,3.669125640521777,4.976127860474719,-7.436781114164049,5.725336494512241,6.429544464698644,-0.017890193181905545,2.117309328189961,-2.296329702122449,-19.789415062944485,0.2885779236871997,-0.9859068625417393,4.735385847125933,-3.179100371645717,5.61911553476849,8.97727155891679,4.259442909057867,0.5821169487160418,0.45982392040598796,-4.588885641188064,-1.3924729494914203,-8.412199462252438,4.252837178924921,1.043840133164224,-1.7737499001102393,0.2310318854516069,2.6941718883786123,5.577464789709708,6.653341994194719,6.197020966817853,6.262662270051457,6.174424445143593,1.7620251816383288,2.572067149659631,5.665965149160009,-0.42989372118632474,8.498170446559506,5.450015823672452,0.46497956694700093,6.125010361650325,-3.849399887324985,-6.525140942773135,-0.04740929142945305,-1.9370722193056338,-2.8919841494944407,-8.882447818834336,-10.655904722882859,2.445478677555812,6.885024219590683,1.5515808151901211,6.553526040018397,6.420443562025525,-2.6914795007920205,-4.95187817148642,-16.185092600891892,-12.361745359695902
inf,8.706004730182608,-7.149278924286005,-7.032155691757228,9.108659542886327,2.7720365103960276,-1.3288266373190716,-10.105723903022756,-9.105342861369692,-1.8205200047155756,-1.6752936760960715,-1.853710570277208,-0.35711479377547306,2.0525535629714504,-8.630841924680873,-0.03332706083769921,-5.6614550702860456,-0.23912305196815709,-9.41744313065412,3.663449464654306,5.292511640852666,-1.7689311259849774,1.6583341060429717,-7.417839561843344,4.588396839685785,5.363335351564476,3.523677359640523,0.7233190580254174,-1.8103447447539907,-10.559368304147704,-4.200832844570456,1.9733431105644357,1.673573511034398,5.332159060625813,0.0795135506508231,4.853034059363999,5.548846499215266,-2.308856140004586,2.110275622887137,7.379911166669061,4.592103181517096,1.6305768393445703,5.467994558552519,-2.173463263109902,-17.009897081388026,-11.41097841953632,0.7741694708533089,9.525878828027757,8.259858740966287,0.5706972676634194,-10.662179316110397,-6.620607126531333,-9.061193644634557,-10.721923847926902,-4.864912987254932,-1.512858807055359,3.513977911288052,-2.2499826522850697,8.050949923086414,9.127873627070315,0.14705460586609576,5.427544198708603,3.7644607531940935,-3.189283788247465,1.9611321415560212,-5.751041114901739,0.3227908538125135,0.08557370864981806,-8.191827803512972,-6.789609399149455,-6.215355308612416,3.512137240978106,-0.010508902667048403,0.8727186507372835,3.1011144916551245,-2.2801415325239134,-15.337869599237067,-1.025202258803752,2.6151725310602814,4.49211630035461,4.141357659105431,1.9106326420062345,-9.63250500886597,1.2307343098637844,-2.324134486616664,-1.4014926342948186,-0.7733067446952759,-4.570137247371413,-7.761148811435753,2.8084363319689345,4.8714919572749835,-3.303302860865408,0.9281232839153972,1.8617093664463695,4.636747938808796,8.952226375553863,8.261853399780492,1.9937812444903784,3.5364964467153754,2.399473222046673,-3.8095690559503623
inf,3.033681218200023,0.9524006968059704,1.8533522690311837,9.447920523179484,1.601945750247772,-10.185986380882472,-0.03797808242322276,2.5432831346488314,-1.6107434360078834,3.613548920082849,7.327149382520741,-0.38167626495156526,1.9923852251708745,7.639457224666028,6.613143012420604,1.2835159397227898,3.7806339959462534,6.775444031273015,3.8415572363639825,3.827705300134003,2.051953800149299,-3.463931579820489,-1.3980571506803372,2.384050970984049,-0.7513244137192672,-6.67354392504533,-9.217192018495822,-5.500618280552111,-5.388626633669325,-6.847037426337835,-2.013434282854881,3.2350728532638087,0.6372082183645276,-15.708615210826657,-14.52121951880195,-2.5179878455030718,5.062980610403457,6.2647538773558225,0.2655555214776939,0.67626148927598,5.15928075026774,6.322016120708348,5.826371774777044,4.545623074732241,4.650892096511043,4.769823521877761,4.994629608111325,-2.093266604074401,-10.523204061935147,-7.758247106828414,-4.704531593202894,1.4995741599234904,5.727315557730449,4.282228796480837,4.320479001663436,4.521238626308957,5.537220566576202,8.263274557188474,8.08943592136037,-6.195881929162844,0.21011335902034745,1.5910753805646891,5.478008684573346,-0.9262692997942281,-17.129730709273062,-0.37172211688281465,2.8202453793791875,-0.8467033708173091,2.5472620629113507,6.566939640850308,0.6944482565915635,-0.24899706015726508,3.1316913340550485,-4.197055488996888,1.9443234989210936,6.999320249546038,7.238967028440115,-8.404534663315545,0.8095722081229155,2.801214657579976,4.994513579728213,-0.7226947400212751,-6.005777339917508,0.06774458739553779,8.14840365235576,6.695976118441706,-1.8524873112998321,-4.521979746663668,-0.9347541327693705,4.011053241306513,2.3795421469434004,-11.543946706389796,-2.875477260855263,1.7079174533982382,-3.9254582347312663,5.05221937805328,8.207002986762681,-2.3113574149904963,-3.9642439665288904,-15.981887578753629
inf,10.846638634419623,-0.34314905012111785,-6.620081308344196,9.701096247353552,-19.88503814826732,0.5843322062717426,-9.28961828277631,-4.600628982609798,-2.1901406725389805,2.4519037632055465,-1.8068951183181063,-1.974309666311381,6.6210193213960835,7.464291776961289,7.781004980098473,6.885437228746792,-3.6705980322088507,-2.8943205447586067,2.551678617268003,6.175637345833199,4.742055182456706,1.8623243280811295,1.123389654720505,-21.181251506372284,1.2298253109536716,2.4737601166864494,1.6319078945252699,-3.7596984017132016,-1.1622719559406605,3.1923651487960782,4.504508870410525,-0.5776379235959865,-11.536442916579638,-1.1992089253238518,2.561007220835684,2.856907696773959,2.8712785676418804,0.797307343003979,5.329522306370002,2.715522672611037,-4.371380914278994,-11.717397111846338,0.8240909587709169,0.8499897661591262,-0.03500953539134599,-3.66129099537374,-6.154487102690425,4.251668625815675,4.188881226729997,3.6277369300351623,4.8469633192025725,1.4294028813925692,-6.418048453593087,-0.3701761508853494,-5.468325587779503,-0.5586998150542115,-0.5064974449701651,6.624766716957858,-1.3876514477348039,-0.08594768565684774,6.340467676053805,3.487166697500662,3.647767942214564,3.7671353179928175,0.28072320894816016,4.26982585781991,-10.051666427152966,0.15595483348595707,0.15200140849231047,-2.4823958798686547,7.164968240283066,-1.9462919575655278,-5.513106325460811,-1.4561959429160396,2.212733982565922,7.804865592889271,9.30851076111113,5.8322729377709095,-2.4817377301172243,-3.188071412847748,6.247192372774315,1.7398974994332548,8.744416088502966,8.65420238633947,8.075924371213254,5.261197628191248,-0.3223670993358141,-0.7909767843806321,1.1722909604140028,0.5403696042137156,-6.757274528994699,1.2758310571754023,2.6141173675757585,-13.133213517569516,-7.907093222228198,-0.747049740269766,-0.4287773099082557,3.0801601590784884,3.4827171257439318,-5.1709924854891085
inf,15.948342171850838,6.288659879165873,6.270637621108185,14.033451990059374,-3.4533175795898714,3.402063608881054,-3.8616203414383214,1.3923945508428588,0.3513402253500253,-3.02121901697576,5.604364516517368,5.12633681694372,0.7576650183742899,-3.952275656366467,8.639017588326379,7.801278543341294,-3.365889249808255,-6.836384757463669,-2.383625351329755,3.09624004240834,1.6598326712014355,-4.646367703854622,-0.16625893017156557,-5.391958406412257,-6.301786317371224,2.2269056421383553,3.1991023415398274,-1.6245803020253646,1.3746183566041026,4.437506049865242,-0.03417428862153571,6.540226933787473,5.751371672456337,-10.79201349189644,0.4406562568806862,-9.414827928283799,1.0309480344257764,-2.7540679469261633,6.636993569665734,9.127110822966827,3.8307894996821616,-0.7387789384749794,0.24475496805541042,3.153498492530467,1.3387378346136813,-1.930820364416526,-3.916915050507015,-0.2847557681552857,3.7006150953584793,10.27522402703967,9.772452283944872,3.9595667065713585,-8.897821681252495,-7.352119484633057,-12.652146407134786,3.772633961046381,3.616054531532491,3.948019998081847,2.4399350717943236,-6.038238528338525,6.396460508228714,9.095086750582027,9.60692139659244,1.7606639912384523,-0.9306057589934937,7.991311142398146,9.131340887804484,2.666733560067989,1.0580288423043385,6.951379227265917,2.0336671261887176,2.8129710564563766,4.093040872184233,2.87040087390519,1.2829609563309319,-5.840743914009586,1.7870307018044045,-2.120498032834057,6.955152695704399,7.722309342072364,3.855632257417433,2.35203481414014,1.7899220294846074,1.008186627716789,1.7100442224815353,3.8684688749658704,0.9700155196193521,2.4987606359146994,-6.582001907973542,-0.7928214260056592,-0.28822671142346934,0.7486808645322469,3.202168088359869,0.7611352226774954,-1.223684119362396,-6.925549044959141,-4.910477038087421,-3.1408469920214515,-1.254072147110989,-1.1273220424054529
