Freq_12,Freq_30,Freq_50,Freq_80
4.847963356341349,-0.1453929837880037,-3.2156858833616857,-39.174780453606665
8.386579752284907,-7.348840404229326,-12.150479304125712,-23.334974772826435
5.2840861260498695,2.0380616838690426,-17.79563424119581,-20.14224215923032
8.602951759860119,-11.171778369888859,-3.228933869441951,-9.185159407600425
-1.5252336154742734,-4.6369265959777906,-12.601013281320519,-9.462123005366783
-1.301662259607351,-10.160419480919902,-12.234841241981908,-21.253486320696204
2.2338774750709445,-9.143760092183108,-8.047774313420511,-15.634486336049994
5.414417040743615,-4.9896992408688705,-1.9468561175269654,-11.9847108375438
3.5992848318263633,-16.045700874262586,-8.970064433576992,-22.80181711172878
0.3442124979586372,-7.002301939123032,-8.229381594692022,-9.905488144579062
-3.194435036895216,-9.786745218169518,-14.974036229916987,-13.086466328810017
3.139243117367296,0.46306304804806864,-13.876547713035599,-11.192691622202382
2.760526955142985,-6.892587968201286,-9.476197739752717,-12.312271125479556
-7.145897016756727,-1.5386408416763242,-10.815118194438567,-14.933498998551668
2.8752723611391953,-6.088633875633758,-12.120635181335029,-9.08571504889643
3.8584224983094533,-3.246814459859734,-11.733080763264171,-11.073886002067455
-3.5159869010449416,-1.6118787934277492,-5.885417038229146,-13.240128920531914
4.531167295480851,-5.371033234024035,-13.669383287577567,-9.430593495961206
1.1703476804627475,-10.863051511145137,-13.001577731009068,-11.288496056170318
-10.025432845177223,-3.3324552438726034,-8.94448184381356,-17.826551587131952
-7.309244882872704,-8.149811723635068,-10.456880557610662,-10.496731155093734
1.7812712914750186,-6.336484666883309,-1.7665397423740847,-6.782541077462096
5.660710392781316,-1.1750745810812928,-15.694691672633581,-13.215985011226975
2.410816698364774,-3.3250990113537284,-15.821206671881637,-8.300907815363834
1.4693324227336229,-6.168604931628448,-9.835502375152887,-15.430871071919912
2.1688675886060995,-1.6751547020360222,-4.9939025623538225,-23.75454209652458
3.1221032758369085,-2.004002955230945,-6.925951453709985,-13.191156628622123
5.758690690255265,-7.780701690072903,-9.213184977101427,-22.02074833607974
1.3046077983337603,-1.21367543017256,-4.97918516859981,-12.405271544081675
6.24364069022674,-10.776992778426443,-9.091459539056736,-9.211955635083038
3.802940722532247,-13.388893711237817,-12.211606163972863,-19.07377067467499
0.09625816708421642,-3.1279364620067245,-8.629450314563876,-14.511183308763998
0.12620058454001848,-9.495246228475175,-14.754070215218103,-27.84716392447836
-0.5205510768881849,-7.221045368639168,-7.037248927510275,-11.715661685841992
6.945895040384922,-1.9343646067994351,-7.345151353275792,-15.88921980381206
-7.414885087528404,1.638769850261911,-9.244830302879137,-8.809173664269968
2.790842842138052,-6.867264517231136,-7.519647316302882,-12.246016019829835
6.102369349012584,-6.156961048931456,-5.4267428045599235,-16.50672931555043
2.294355352876721,-2.7287178590442283,-18.016761693566135,-8.155478057581261
6.627446264378127,-11.298165679636785,-8.884553442408277,-22.832060025516412
6.311130692985941,-11.597726350437146,-7.709758513612714,-12.686598343998174
0.4359142055686518,-7.097733383266704,-13.353313031495347,-10.190457390606676
4.708742606979193,-7.852514064190644,-11.320374095098504,-5.948256648314663
3.5046666762585716,-12.64628171651352,-9.236104827080153,-8.865308508235643
2.2906467701538973,-0.6017533879242736,-8.773174688794915,-10.304686522521207
2.0736881504620417,-1.3195257892846204,-5.673572021364572,-11.95032912820816
-1.120809869924261,-9.04071988098486,-12.968210133897005,-20.844406164408298
4.699503109896012,-15.223655903360605,-7.655335688961333,-13.916843379389261
0.2919957211604398,-7.187225096941815,-8.903620266591425,-8.286120188774861
6.743687423646982,-4.4679258755025115,-14.296616225959635,-7.38652826675334
8.732845271239343,-8.830811317053694,-14.110370046169834,-29.58462555480017
-10.197939540892135,-6.614793504881047,-3.117973872712348,-24.17815610905611
-7.09338822928061,-8.79365706352214,-10.53429037667557,-13.450259658568589
1.8752877710800464,-7.721082885061912,-4.395532085151365,-20.113770583202573
0.9670965125784896,-1.7731477399527709,-4.14528750797791,-7.586868127393936
5.817160142966705,-4.629008447170215,-10.537919032536466,-10.119051393620984
5.172211971681353,-10.355761732561266,-9.274822411914315,-15.806214559233423
-5.563652148793107,1.266517835610085,-15.290752788106598,-18.026057014076244
6.2222467030497475,-6.928637568953744,-2.7619903698015076,-13.21324777674693
7.3849553543701125,-8.613533021132369,-8.518328240842063,-20.90241322844112
3.6815023775948257,-4.649292216314758,-9.923684569974956,-20.176245331213657
-0.2591091882289027,-5.873240241091538,-12.880763688364585,-13.325068245446454
8.15351160534916,-10.840240538936875,-5.39855610382908,-9.683897948199272
-0.9984876941285545,-6.888517291976666,-16.114791088626106,-9.03090538697595
8.426057155914634,-3.7656480653627566,-18.388167492820116,-8.51517565339853
6.490067860407078,-1.67707477774914,-8.414578457021346,-11.220120109927825
8.288134755272493,-7.292577253613232,-17.838085340825227,-16.384553678386965
-3.3957612249225013,-4.776462688230795,-6.959232303217547,-6.938402695945543
2.0896129603611646,-8.261973149333464,-2.007535611438672,-7.098770052401559
1.4569310233094355,-11.904709302300791,-6.126237670169738,-12.682389968075189
4.594221532448167,-2.0636730045010623,-2.7363354447875325,-10.64165253778309
4.3424917844374855,-10.185428771652777,-9.666838188797175,-20.216885887442174
3.5561865062213722,-8.48880765121757,-9.511860643671085,-14.338872229921625
9.33787219007606,-4.962886527081411,-13.95606483160784,-10.719483208454587
5.967115138483408,-1.0880886846540792,-14.76642917950668,-15.718849138250162
7.470438684898398,-0.3654466183970193,-4.813023197342636,-13.233785826110944
3.4232511184859717,-5.757677708109802,-8.148769515959682,-10.820680126626804
3.2849392160109763,-6.740198333137585,-7.548456909935366,-13.697783732397495
-0.3441018793385022,-2.1903957779791305,-14.69806632004073,-10.60097625978134
0.3969024809755517,3.106115480031347,-7.715544084925597,-10.576158179992047
6.057660862637859,-9.942995667791461,-16.607390168581095,-12.720518610526328
6.371376150006907,-14.910158165787816,-3.460195581092526,-8.805613889350548
-0.7244206897823622,-2.966364098612198,-10.037317335265046,-11.169005448032822
10.530822731221285,-7.0717272166618725,-15.61471775880419,-10.384461533316173
3.611502557528383,-9.180334842678093,-11.524053344723013,-33.45731353500064
3.4978677683403263,-7.8429613325202086,-10.632064709576413,-11.38531131685532
1.76410992434949,-5.4167126895067055,-23.47095223339545,-9.119022522716572
-8.103253438523502,-2.881788009866608,-13.815434374573538,-16.299245533226944
7.289938446587909,-3.568528560704043,-9.521173481850562,-11.009015818798034
-5.779015936065301,-4.501025199169417,-16.619595505772452,-12.423053580976664
-9.248980911251838,-5.773324587102285,-9.297462901108586,-11.729363570373225
7.4720986843139166,-15.934410526566335,-12.987671261812158,-16.94344382377841
5.04146725699496,-0.36640479482976085,-17.35132895082408,-10.815923031855334
0.33763628687408653,-3.6697693094284487,-8.844123699577688,-17.763657920130015
-4.727982101896034,-1.4768652904283854,-23.787684848305783,-17.785455097591907
1.2383221011704606,-8.461093890273425,-3.5150086280060773,-22.070694232611544
3.934387067251863,-14.588266180860035,-10.600992289410707,-9.288923326188177
5.495100241591972,-5.939935025097902,-15.634871674222065,-7.157451790464933
-8.303471243623795,-7.873690355818678,-6.296925304914314,-11.321835420235118
6.978166506118034,-10.527176981141622,-21.021091000473763,-8.125068391894471
-1.210437421892773,-2.3586882123775457,-9.426710944022728,-11.842935469566628
5.211596438327524,-5.599126611791328,-9.761391421057317,-15.275141751732653
5.555114820816577,-6.180653481039648,-6.188990104158332,-16.07084900922942
8.17613476112674,-11.716733315786225,-8.639259656562114,-15.108870697104587
8.692122596819523,-0.22665948411667447,-8.826996781458217,-23.75845212328189
-2.5118221986752998,-4.459464546318672,-13.57481558548584,-11.164543856966214
2.127103844012556,-6.795500692822691,-5.877596066564568,-9.10271141341624
3.8510894597649226,-4.571870668832204,-3.636585508907417,-23.270223060778
5.414967692331785,-6.687009275333646,-8.61315456414868,-17.24746203964115
3.5126867171852103,-5.230976436085885,-8.461458267117894,-21.068018991894625
1.40979120587943,-10.479520515290588,-8.617549109088332,-13.394078899065795
0.515550441918132,-4.238387447178951,-10.135116937741504,-17.371864702302652
7.239544518783068,-3.6132777593137915,-18.11776524593736,-11.816514319565758
8.391003372139428,-8.679700985567557,-15.674865753676542,-12.114113768134876
8.804259401099294,-8.028338463428948,-9.739875028373811,-13.468631721730388
-1.4643790216241737,-8.773914098902388,-19.576483841229642,-13.129222406555327
-1.7087158909750988,-3.7615846814163394,-9.3941781819232,-7.021211072905732
-0.44276505024529644,-7.456341424350588,-18.483872340053832,-7.0173992869354205
2.765406434867763,-8.586487454178588,-8.466953636147965,-9.694460183183596
8.092941818016307,-6.528923233990112,-23.462695953144372,-19.192086436838423
7.815567997574105,0.2941372929467869,-13.20955444645772,-23.778430459320482
-0.055284822995230964,-13.181487987051273,-9.09466472173313,-14.822932482167806
-5.393787372796972,-0.4820296864474827,-14.377034244519624,-10.469959243517028
7.237317123539197,-13.250436962195309,-9.806872127878616,-12.137974433261505
0.07225875776124413,-1.6104513365466007,-11.710464243985038,-18.555323977744344
3.047644607722513,-5.432286376249977,-15.974266203236052,-30.404088907177673
-3.855599219163599,-2.790425013238792,-9.709675958088948,-21.10922364700339
0.5954593470329081,-7.551722840186916,-7.977573658105264,-11.634806424178032
8.981923952304696,-1.367423457154926,-13.63503476424729,-16.615557976708892
12.734615557835882,-4.1749464806956675,-16.785528774226318,-9.388541541259285
-4.721226672447116,-26.69691562257654,-4.301640141284741,-19.961486041309882
0.8271269190446215,-6.401573738114696,-5.93163538900968,-15.649359081290305
2.1971256915890027,-13.661673046170542,-5.120632558103949,-9.44671612166365
6.5603090503754515,-5.283115153171209,-10.652358689947423,-9.497869701753197
2.431055148520225,-8.225244651422194,-2.992456040527607,-7.743425498890177
7.40017902040732,-2.148648719877035,-6.80703076179751,-8.39563821979886
7.33122837714866,-4.551490490998742,-11.587335705056313,-18.10857217267067
2.407538649466538,-7.653139297802793,-3.670492852673271,-14.841356486549229
2.644413642810462,1.4089764748880356,-5.559775421548089,-13.983128441627548
6.738002487771113,-6.852906104831587,-18.84363468996518,-13.816328794915561
4.150885911321176,-4.08559964901478,-8.878229600659148,-12.074889825344847
3.0802493892146097,-9.076454181818143,-9.118140404194568,-7.77603900643394
4.888158725818429,-8.68782718641965,-3.827045064789341,-14.317366556911642
-4.011596716920652,-2.8572981142708542,-12.778667467962933,-9.674060612305011
0.4701244518933372,-10.071220439915194,-24.530767226302235,-11.128441732952991
1.9219178533011698,-2.2797389373290473,-12.922943416399065,-20.189717710682572
8.396473598073403,-3.222285131659354,-6.212226793596532,-9.677880920290544
7.044002192696199,-8.121942308359689,-12.825883080693584,-16.460498110912255
-17.062086443131385,-1.058327597440167,-3.186846607584112,-6.002546173369792
-5.008450684728546,-9.033257401001531,-17.383611094705774,-10.471347414858807
3.3100575071390272,-12.254189189311539,-7.8720512637922315,-15.69165552532675
0.38931119882749465,-8.196015688120823,-8.898866523154698,-16.49245053489937
6.710050603674655,-4.553143478468343,-28.6288761298163,-12.772919144503032
2.0696346997138124,-14.581384493788427,-16.762462812230506,-19.00674429357845
-1.927904537596791,-0.09890888963901379,-7.583686901472683,-12.671042319615982
1.3603353190008605,0.928443842140064,-15.121906662272618,-10.119791337197945
0.9521236728788178,-7.015882348819663,-12.013616219493908,-14.889488371214275
5.710527924869014,-0.6550841657907567,-12.548085904599697,-18.060861436455674
2.0165584865434902,-7.053615899342604,-19.3376037024446,-9.458185441459221
7.354194885165456,-8.130884532157495,-11.475383591726956,-27.429245370214744
2.5002782322346846,-6.346058494178107,-7.561416527511232,-11.423254167068881
12.235242956934526,-1.338325109316167,-12.425950280577467,-11.13889617444935
5.2620697276450485,-12.062544212309085,-35.73676833251869,-12.40676383348182
-2.8300601156837724,-9.0712495157828,-10.927664754746306,-16.23313365968687
-6.103624447136646,-2.335338848451097,-7.496671370867531,-12.93503965774016
3.1375101406533763,-12.397884249688047,-16.716774927260154,-13.80621862646644
-1.9050379881678152,-10.31154086391303,-18.967081401021456,-17.868887840083524
2.1944541307724954,-19.817359068041565,-8.39929026577372,-11.123345592350553
2.381760038045009,-21.157957253819426,-8.641809499415768,-12.388241977258646
-0.03771555394200199,-3.981654884282219,-15.585568817954783,-9.642851579900906
-1.0722692732512673,-2.7464376205622987,-8.233350244351984,-15.619604610872367
-0.7851997297727134,-5.14198000064435,-10.015673301178815,-21.763658082316226
-8.952048622820401,-7.542388831071144,-19.963392290137783,-19.15241639405137
-0.2030123377239037,-12.901656948121147,-6.6959968700520545,-21.137768423862006
3.1146076374042115,-24.579562274201965,-10.261281550843195,-21.036198939623254
1.1118673557558754,0.8311718945534365,-6.876431474555595,-14.538777861296245
1.9973118531211396,-3.8554163761264517,-4.73098230989612,-24.54961897683541
0.03043927313667094,-1.36415166072279,-7.957637784619495,-9.253528564660831
-4.310500230560356,-7.0129390306551445,-17.753439798453744,-21.22921279561536
3.2130076275243775,-0.6238065164731035,-6.571152176851543,-18.92406833942865
-3.282026215413353,-3.7258951570830803,-22.32873893401299,-11.320603334882497
-4.950935290821128,-16.959732868651688,-7.792345578579962,-16.88487942036739
9.015020100418404,-7.731786398659518,-3.8555733520279176,-10.27326400733338
3.250496846101945,-3.9888679538194785,-14.983836359455907,-8.61208725957422
10.111954581833952,-9.479298905108788,-13.153971572121417,-23.402251826958953
9.716021697674574,-0.3801907776043292,-6.697069794770332,-21.51781813092431
6.425554740004282,-5.43657590070181,-9.374338093052883,-16.223203477348534
-12.852002167746152,-15.007165530977105,-25.57302301854956,-17.340988340788904
9.9680873537935,-8.907402129566016,-18.041396327022493,-26.935944939699027
10.185688475158006,-18.350913264348662,-6.166913493854022,-13.549331026405246
2.5370031498184717,-1.988276728036058,-10.317504630845367,-8.874495551223452
2.314568920766927,-2.0684182281603656,-8.484309627601796,-9.052118135129744
5.66787406792566,-4.406536868868285,-13.45360889894943,-14.414086571552742
2.4175244211823617,-4.501345446877784,-13.523245769396333,-13.598073141784214
3.4936786434055405,-9.496714217926549,-8.4341527220776,-11.782472195629243
2.2130750114730207,-0.5395214821582823,-11.34995708005263,-12.827368006109909
7.824757260792327,-7.573752724520358,-29.742814624558225,-20.910657446196147
12.865109295619341,-13.631036754032426,-9.574556144237604,-15.806144724121074
-3.767588711905397,-13.291361234675634,-23.8384068834971,-16.196650795196298
4.992783705832213,-11.134888630563392,-4.5856760471455,-14.513151973497012
7.870534788484383,-5.800548132251765,-6.10516059750616,-6.532259550993711
5.705348432573443,-11.289382251915843,-7.4963790089863735,-17.763394539202203
3.057558406359906,-6.4177969189545765,-12.882241673269549,-20.046740974052973
3.8037039313473064,-20.030379614847377,-13.169655982638929,-18.573623696160077
4.458768183353214,-4.3743697747044346,-16.932753044472808,-16.790811140096217
-7.061778010070567,-4.210073601852133,-11.048647763993673,-28.093988991434777
-4.9705103288019385,-5.441110813304186,-12.841439931290774,-19.469085838176177
10.796657001293184,-16.295343984442486,-13.920076266072758,-20.400228274021543
10.803147121919856,-2.8545750869413826,-13.38585106547687,-31.735744072735123
9.658573536369582,-2.5603664075908172,-14.72474500348919,-14.793674008941109
1.1504661339560927,-0.799415021968263,-6.385362830569843,-14.279269669211876
4.486081343346067,-12.06519775957912,-2.6206872641298737,-13.44049592922502
3.1894023896106853,-11.246047475495384,-4.608102280894058,-18.602350715717456
4.6724378025093465,-7.723610663602089,-15.512388092557611,-14.850184616614905
3.63979336544027,-8.364939000704144,-15.580732266305251,-21.305794799041443
3.9324251249702233,-8.981112812460182,-5.887550833788959,-12.817366149471711
2.699442280398511,-16.302944254350173,-4.688466320833205,-9.539564512868639
-0.957320201687549,-4.557709033939496,-8.789681777291856,-14.484767534266181
3.1724982134083684,-1.5105544065907166,-19.930933853526373,-12.767554163559934
1.8015933375809732,-7.402861127174789,-11.946079511918876,-15.048192069721106
2.7112112005713573,-12.894203096006088,-9.458802591467412,-10.964004743894689
0.7898278059078825,-5.415803817956374,-8.463558459868775,-21.163606362288036
6.344865396967927,-2.3205200949645155,-6.749741368953925,-10.42474837337645
5.532817742527841,-18.874236927952634,-2.7295632087632864,-16.386473736583504
9.144340611898947,-2.6241648901919827,-9.860488578534024,-8.030669438734458
-6.407887958433484,-3.2062581920895976,-4.721321941584616,-13.510159932961761
-7.337573885695447,-3.3106214961047966,-19.066897225441995,-10.983626325929068
6.351432578122186,-5.453453007599344,-22.073480104323277,-15.082946700550307
1.0539267210977583,-9.360143661116268,-7.810957708707953,-9.250771945268056
6.022902453125814,-14.143581224576966,-15.514935608114481,-12.88368411648313
5.608192662973758,-10.440562038596656,-5.97166019353133,-12.073411791683354
-8.787898330488474,-2.5373674822149184,-11.386745648078078,-22.07305406323193
2.411100492968305,-2.5782801747736563,-13.000145649148092,-12.371791160593874
12.071872012063851,-4.741162055753992,-3.9715287856706993,-13.494789672346398
1.3587842895341238,-9.481350045775912,-13.159354648439521,-14.11629283720321
1.2328281398072927,-2.7943591583714573,-7.370983088269826,-25.976815892444172
2.7308470911733465,-3.621982744563721,-10.136524755286493,-10.761934964693284
1.116315614611154,-3.487883249041775,-19.399319209740817,-9.684860725409578
1.4286399161410277,-11.02112243442555,-19.397264038299785,-6.910412392936362
-1.9461152514389228,-2.603518203885775,-2.5561677259893827,-12.005761014431462
6.300183759073043,-2.7508931807838346,-22.756680843945833,-17.07079475897318
11.261541184438562,0.6188431198923716,-12.121031266946273,-17.147396717629825
0.8433029993386927,-4.9848280770778075,-25.870594843749537,-11.229265633706712
-1.2079623972507765,-6.577971318423358,-7.205111984679256,-9.101833134384089
8.284936959899872,-11.548430671329822,-10.654685419459032,-15.175519595073046
8.56355754149874,-2.3584165924377816,-11.071045404678305,-11.740451837905814
7.2052536548885655,-7.692605604557616,-6.633291310750188,-16.225806804654432
6.141101733811892,-3.2796452737921022,-8.07047844565724,-12.954801824057599
0.08131243878708982,-3.2234211806390176,-12.922127051470426,-8.417385954876444
4.31958056203765,-2.8865852421232594,-11.673865006938987,-27.321001448568545
10.341212817513831,1.078923202273508,-11.713992530419251,-20.067366806930607
6.648995118839338,-4.111731051042193,-16.330128226128906,-17.110270102440197
4.756392979825322,-11.52410568578361,-31.18960383760732,-7.488993572410003
8.544701470462961,-10.674664304133412,-16.934101518322052,-13.754330440748069
4.587810668618376,-0.37422546986705507,-12.525470152806443,-18.969022422274065
4.591913424038584,-7.297233646054303,-10.78490573645746,-8.50833697883224
10.937256202788625,-3.8854872601161192,-12.7204239298293,-24.624332133288192
6.377533264431818,-4.202465441331323,-19.789397874267788,-11.838733897814157
-5.997174622055308,-12.628140468781485,-8.83710557512166,-21.413970829748187
5.6859267670312015,-5.124488093563483,-8.201079351449117,-27.1621437637434
5.116290661180095,-4.589381899500231,-14.318123838018703,-13.2261079214858
1.2710441794472416,-10.337606620722415,-12.68179697275474,-12.63909397388197
-3.809145945526766,-3.952128587461277,-6.778874810089491,-11.285203565391045
8.128048884868528,-15.57901668905646,-6.902497319713875,-17.40192908406911
-4.8609859451333275,-10.062487420248324,-24.51219188703466,-9.734826590832293
7.285375728169847,-0.5584077091646336,-20.73638194265897,-8.947628636148082
7.068926241087117,-3.131054148251857,-10.737698576220208,-13.56621871499644
-0.53329162225736,-11.103334310790185,-6.1017522854393285,-12.396422716839384
0.35185857574148294,-2.001837313104203,-6.127665323461088,-12.086091168176099
4.648044999754128,-3.127187375078071,-10.275067718694018,-16.302076441439624
-1.3742680833143606,-31.372963895494557,-9.816154069633736,-20.065190579878234
3.968791625110822,-2.9762218441556687,0.7248130818710883,-14.130171176710823
2.4394690611808785,-4.307253553838084,-24.735898227479982,-11.948382122553802
-7.861370544426363,-2.8000502085789334,-3.1549667426294565,-8.945251796405335
11.490648776636808,-5.91800608088598,-12.344079881300738,-8.677995929581071
8.097550883897776,-4.041155232408827,-2.9429865921447336,-15.955982069528352
-8.710854234011299,-5.044525572878833,-16.85607960222119,-18.500398738629663
6.91533705766331,-2.6875623372447572,-7.163502607450313,-16.31846143491554
0.2736815557772503,-6.08963396700996,-2.6907168556492707,-8.5917095924459
8.483260457915861,-19.952064229682485,-6.362793422265707,-9.442346054853326
7.814030739221107,-13.411209728252704,-13.458965917586976,-11.446169793150178
0.9333545680329705,-0.43273884791656414,-10.982060396185396,-10.408068391211069
-2.4131787650730594,0.2675310651726468,-10.819584891365816,-12.587323625412687
4.645911554627728,-8.271912675822207,-13.402829580655027,-13.38630530491474
-1.7636715878244784,-15.931028527056682,-6.121217608287237,-8.385115566945363
2.987804797575469,-7.820059835518005,-13.843998231597855,-8.743971528899873
6.451089973748218,-7.206495282031466,-13.388718130599084,-8.165668294595514
4.851061775132828,-4.393812769804284,-19.887869841827218,-5.880883087198255
-5.579031416357376,1.5549045242987243,-10.110142906300892,-9.90904246311924
4.7069599616642765,1.2088718983803153,-9.232885640011682,-13.920125000757006
4.857109934905388,-6.441843467851107,-17.44401010318037,-18.045017826710072
4.907412824571809,1.4152931818364691,-12.431430918566278,-12.014689805857532
3.3325526624040376,-12.084280476674497,-6.38471390642435,-16.749212439411465
1.9462268851700444,1.3500987932890547,-6.0713388482333475,-30.497734595229616
4.642751621300217,-3.368794002491107,-6.507805425891226,-12.787135049104077
-6.145386867879562,-14.336932522219382,-18.030855181509835,-16.180765247470518
0.18616422135245525,-3.2506345780276282,-6.3541010396785556,-9.290226232212614
0.873256816214159,-10.182463792353026,-10.195683908288395,-21.178788329626045
3.72978964046553,-7.197216327869461,-6.431988376207688,-16.26384829843429
-9.162112242201188,-4.997266990734517,-10.419195006416574,-11.782576953345254
-13.014565297189433,-5.702091426024414,-5.9005148849934415,-16.597020839665866
-2.3168841521188055,-9.090297852948758,-7.465897690002489,-9.98090669321866
8.741110516287321,-8.090703541348958,-4.678856661675537,-17.500997956078486
11.320090318116494,-15.681265716053804,-7.670320718012208,-9.565683586804518
-4.354608332751845,-17.141699078338483,-13.570076020612788,-17.25597464248311
0.39349323330021235,-9.75690380751476,-14.69869721548751,-8.596108439354582
2.428782836536514,-5.689190722854138,-23.863089059616225,-4.450656808751053
7.652945288071729,-5.8828037847581465,-12.323728840423088,-11.54034041894943
13.492275921803516,-0.9345036508514921,-14.512254945655297,-16.214550540155457
-2.5792601410503657,-10.910531879280938,-18.686538817331467,-13.948102618113479
7.590269294782303,-6.2026144123746585,-23.26538707724627,-20.105744527078485
4.501209249937824,-1.2590317852978936,-5.36879226170783,-14.303754349589537
5.894469615471099,0.6027232961687448,-7.449335518183561,-12.0216664690137
-2.5158858785560305,-2.7252481640324104,-9.166388426022094,-12.766419285607874
2.387426739593628,-7.576011016683192,-8.589070827958647,-16.402368285027137
5.908634138663324,-3.5243883263822893,-19.58580960231232,-18.7869668532565
7.118702309301826,-6.369036191552067,-14.561607938107638,-11.240760054524074
-5.779542881068531,-3.347578279564547,-9.811479520576338,-11.95788860207925
7.691804933874432,-11.053708898966129,-19.207229831698985,-8.019441544991215
9.027909936163274,-4.72068505563002,-4.255476697660333,-14.56742422936624
-0.6691765367636506,-10.262837016055588,-15.77187628097212,-19.129270631670586
4.027249619750885,-14.44099628618848,-0.9154915784302498,-12.764729091526789
-4.618466454114982,-6.5602392160885445,-7.619020855400517,-22.743616919335942
-6.091724750792226,-10.103611236120916,-7.294650894678737,-22.652278188513158
-5.740554622078138,-5.981936432815194,-8.40086876303613,-5.947621098685767
4.9392424680262,0.8348736626128739,-8.229998820593028,-7.063414214601293
1.8146273343192005,-2.351369405770046,-25.708619722595774,-20.923161455906403
5.357791744005755,-6.583031016671101,-10.499721308169192,-11.876704590754388
-0.5479369113957628,-0.16510172583527893,-6.59904219577041,-13.566304876358272
11.006549169857026,-7.051971929710352,-3.922798103388148,-11.279516140615257
8.097865440995117,-6.610513263635782,-22.613121234391198,-25.878375371184532
-2.735811572848661,-1.5923615045184825,-3.8564013445006022,-37.65134900588299
2.2793292084191465,-4.867046230278555,-3.702445550014219,-12.98672498304109
2.0847061326935776,-11.830304362681211,-8.508117381380455,-14.81486490676288
2.9384022266215712,-14.191012420356806,-8.174260822283925,-10.622723287801763
-1.9669937384173934,-9.3861290251456,-25.374700174837514,-15.73874152287736
4.427177889399861,-1.788398542636985,-12.399538016552329,-19.69603979838392
-2.1231258441389222,-7.464125189732415,-7.86229807004017,-12.058334431350543
-2.66814718174546,-1.9110007309010326,-7.112543468056536,-9.702646753191878
1.7553645983067263,-7.810324140476188,-9.422057514877974,-10.875722274605247
-2.4593904990020015,-6.920443882223357,-4.422644571557422,-21.385437675052742
2.115404055928526,-4.366384910480956,-24.322849259438108,-8.022563905800164
7.107507241761977,-13.023389651429639,-3.4285513072470515,-10.159368318068797
3.2263110640335837,-7.143097405352958,-8.251447737988133,-9.419958265739705
3.8277147226774355,-5.660768734565543,-12.24389147932782,-28.619708796606282
0.3556210674657043,-5.009580872041886,-10.798341881346138,-17.50418383382931
7.3402547591051155,-1.4411151668153366,-3.8325902139756334,-11.833218663752236
5.584459941609583,-5.642658658533098,-17.897913835944454,-8.619297977537563
-4.361015896461753,-8.24006749524914,-6.234052750624304,-23.719561069466643
-5.209272707818618,-2.452415015225733,-12.260920718476912,-13.368752818332256
3.341851374632159,-12.205739968247372,-35.30447039582951,-10.572807471198326
1.5044509468576108,-2.9472805263958213,-13.007187140305216,-24.795734799951155
1.650637127910655,-1.1944864014646317,-8.45532504631668,-20.818741227559485
2.842593150555279,-11.487914268235603,-7.637610559537954,-23.599692386246417
1.5710029682988238,-4.1604992206559945,-6.571358025692241,-13.175177306244573
7.298858702446888,-11.53761035559798,-7.310988996397455,-16.189099774372288
0.7088670903908674,-2.7395772296746124,-25.120431660053704,-25.076874098779456
4.996742976826083,-1.5277527313855144,-21.68646182148563,-18.736011651084574
4.422447370938012,-16.346996552883013,-9.469667639212592,-12.986825099271874
9.319560205539736,-5.562389019294389,-5.8918420308312704,-11.096316730107203
9.835435478828465,-4.742715926656563,-19.91737518095893,-15.654807879017737
4.338940030206507,-1.5982655813680395,-11.747923997105996,-13.161680577702176
-1.8554955151594665,-6.28549082807072,-12.569984337843835,-18.43650068537061
-2.9042513252960855,-6.250653822131924,-4.676234536093691,-11.862486170286646
-6.6776925276108745,-5.152044842953328,-8.267324128685871,-15.719409534002205
6.7014003085923415,-4.294038172597699,-6.640428793660856,-12.145140206346245
3.380287712826324,-5.2226715517493885,-12.902920431897488,-20.158625816344163
-5.7769368201490465,-3.027435712309482,-3.621087314040512,-17.400803799214692
10.803860091531705,-12.173020727252297,-1.0782967955936966,-13.99092094754719
3.951921399763569,-4.460643227241285,-10.36742248135181,-7.412532497912155
5.747353227118711,-3.2952990843065466,-14.416794578782667,-26.46473675051992
4.989222171170383,-2.394622181116615,-6.762740864157459,-18.522388588778917
11.34211590587612,-7.742824351925983,-15.156097153393667,-14.061783545086746
3.137173471737356,-9.04744375252739,-9.442225127068287,-28.820487560673307
6.563996756100737,-1.4683315163679476,-6.369655948280556,-9.58689334304488
2.7475215674367575,0.5752697333150594,-6.459268921272145,-5.321104487107952
8.863041127731515,-5.896016410732721,-10.85969664976543,-16.906838907589965
8.885806155000463,-8.40133130358183,-29.62193434206439,-10.812025891666954
3.3607334935073117,-31.632715625151413,-7.69387019297011,-13.855459355788915
9.980276319168064,-3.362767056054415,-8.36131207959758,-14.756058948534106
6.434575727417574,-1.6295152412419984,-5.880020110579212,-14.262795679029422
-1.290781916476334,-1.1578430393474433,-10.155321921495222,-19.492202691963172
7.1536259913119675,-6.744292597518666,-14.806965936616155,-9.528185533469363
5.656299172590607,-3.4535249521724936,-25.59778024827131,-12.290004731880694
3.3616645814756403,-9.423981174754982,-10.989060101327253,-20.910823071460406
0.8077373744431697,4.1281114213909085,-13.540675541023436,-14.832576282830635
7.845548707246687,-9.393660344147047,-5.392329294485908,-12.97622435077586
-7.450087031371037,-14.946202765534231,-11.302662341204352,-12.882072098289463
8.147481904006504,-14.282901341132398,-6.772368777000754,-19.08544662149653
13.30916692021673,-7.1211944926166675,-7.690994815954019,-13.929252511344542
10.48057906571026,-2.7718607439841056,-10.412383623091381,-19.956410845790323
9.190661605449838,-7.258034429292141,-14.3471335044017,-11.398434107058394
7.6247905535515645,-8.014009824261116,-4.530486144016285,-11.985062989028886
3.496213839920112,-7.960819413553247,-5.4643616673536215,-12.262513147530777
-4.900048214703981,-8.03273361564801,-17.17698066538725,-7.565439006391667
2.7858210894996582,-11.152627283760815,-5.016840678845327,-12.35383175445695
-3.3518908425726543,-7.087333996590599,-6.368136197316662,-22.29037217390139
-1.8861510589080979,-2.7236822466982282,-12.616105356718322,-20.381398437078175
5.90136269845743,-1.5265940842276189,-33.90433509360733,-19.21208912455851
5.978255604554482,-12.41537503368643,-13.086430903508234,-11.068631560291795
8.402184175283688,-0.4215606869976427,-15.181852903714919,-13.629884239869027
-5.558477055926627,1.3243572121138283,-17.095133531628598,-27.886286140872954
7.192602528016773,-6.743562819177932,-18.76780804342547,-9.98580418005833
-1.2994372212758645,-5.402445769146039,-20.735728834791367,-18.33379918420171
4.674596055497675,-3.602456430935976,-19.019127396290447,-16.13812879340199
8.102747161302613,-5.259648194904284,-8.060968475026845,-13.580944862359901
1.7972478148948001,-18.176004938299645,-11.301963351643382,-23.37832619060643
6.241352424645363,-6.3372940614041715,-6.829180286356513,-8.6110895011101
5.548839092839103,-1.0318346021910756,-12.905230787222795,-25.32835232155547
5.745610055691798,-10.954688071552177,-11.702085385668074,-8.450508906637424
10.165525499085545,-4.201300234105617,-10.03958578842334,-6.767096839743402
7.481961015142271,-3.6618766806093,-11.455868560610934,-11.839796380647504
9.494350942862525,-11.39821073883401,-8.395528101646214,-12.858285234871722
5.356311171124414,-3.72720786952517,-8.496312275574912,-19.387927681114654
-1.1659359166087997,-6.122019364116325,-14.472929178065542,-15.202885865166108
-1.0319035442642317,-7.729965682114218,-3.2138923191203714,-18.5197325798191
9.2599842141471,-6.423708673238045,-12.426685711865952,-14.195621581920298
9.71421004175418,-11.632821700435251,-11.657553933606918,-28.650890377136243
6.415987551569836,0.7023817193148592,-5.464558926162468,-11.755237952750027
7.018549993579835,-6.160257684608298,-6.554010210792004,-10.636124707340091
2.219424123419801,-4.305799321800589,-4.10341998853034,-10.588379575400639
7.651087520458921,-2.639094105981486,-14.937838986367236,-18.07447064825252
9.415967267702891,0.3453240122894714,-3.111072355624973,-10.158550532292358
11.248956353128603,-10.145411145769838,-2.369318268457608,-14.513327192272994
1.6671577566747642,-3.6984109978539736,-5.25772718834823,-13.308177766886553
4.823962660899433,-6.058050073945519,-37.682405193054436,-10.025929176382961
-1.7354294409616404,-3.0189625638068884,-7.177431547699603,-14.813482753684616
8.200394029167054,-6.2043809568868165,-13.5925905670397,-19.076848315136267
3.8963678320506223,-1.7246988982135836,-2.55858772441303,-16.477215783917693
8.550395062291233,-2.0340338084545477,-14.083524486608834,-14.796228220334504
2.123923958699236,-4.450176246337926,-20.061452840061097,-8.13878226258135
4.510823489541553,-2.0944777267047314,-11.266600802688142,-8.197864240439321
4.415212947125862,-22.022479868694262,-12.15922362546474,-9.913695889860126
4.233775763805976,-6.144255381774966,-7.815680851352939,-11.464389231241084
-0.7549901893912319,-1.7200976130270513,-14.278670197066099,-6.64618943132289
8.813921945531288,-1.3976632423326727,-2.5872284152544873,-11.35702379907082
6.0734258363005456,-11.822098791929111,-12.99394806665062,-15.199609490993113
4.070646590979665,-17.453094101973154,-8.209336710345063,-9.773512308904134
4.527235789693769,-5.956403090246664,-10.723480045688156,-18.364304724734367
-0.9092811361150201,4.888365733843172,-19.62815838024988,-13.703384049233348
5.622967238274881,0.6465439202740622,-5.019383244487345,-13.270594208783686
9.179173696967034,-3.2583245467890043,-9.41343004569811,-10.314842174440082
9.246616589802926,-9.377171446351227,-20.7621960666763,-19.11246433488988
-3.2212727452014205,-3.11372719629457,-4.010195349625515,-11.198604059974066
-1.3028131939008096,-17.526587537631386,-8.603006773377224,-29.713738864768025
-45.797466882419066,-0.3257901268330574,-12.364638428416633,-10.98822835904051
9.527958483437702,-2.157497090031044,-8.913061296006754,-17.452428049186963
10.582214298245782,-9.196950503703217,-19.008373370705367,-21.61292019844995
10.328685397328293,-9.376777642933828,-6.527162080080039,-10.495590831875981
2.9921898218689527,-4.104325852077321,-13.002393969339607,-11.470077088942615
7.717761940042348,-8.787646458281305,-2.55341321507448,-19.36349208071953
9.336233074861042,-6.514292679786675,-11.435547917056816,-30.393542667531747
6.434277357274775,-3.133544429870736,-15.936932003022743,-20.592658138739885
3.9826071094435362,-8.525231038663588,-7.875008818534637,-11.606141557924113
6.559964001169833,-1.589878389331325,-8.695208978812625,-10.67926134735016
3.7074009403643786,-2.4172333238986328,-7.009078634045364,-11.488473383768506
7.230903314475783,-6.0891550643646015,-14.271323448425797,-13.863287736695886
7.949777074095985,-6.514910178834101,-6.07277596351344,-13.341903950707172
9.198577066057995,-0.6561420822329946,-4.993838223829934,-8.838801456645665
7.789266675308443,-0.3363680971655376,-12.22202920185252,-18.72302467852591
4.945851428678766,-7.59687591211391,-5.039272434888648,-10.167269935417647
1.4809295380442162,-5.528284645952156,-12.530380500537014,-15.802900332619286
-5.398096963879176,-5.781831909080631,-5.018445438706209,-10.351555849723084
2.825820660673049,1.8940393255523686,-18.17182802826864,-12.209462948677889
5.248612318697108,-1.2073850914197592,-15.08042232797779,-15.059272010444056
5.263938064852072,-16.771309486776666,-8.656513310576292,-17.504599914454616
1.1108786630180907,-3.3745112146927534,-8.658943471088469,-10.451963663660846
5.239407890113897,-8.831748480185798,-3.7855968942957627,-10.514645002503446
-0.4549484760976341,-11.22518889998366,-8.810411824763547,-12.859064012864202
0.4606886060974493,-1.2953254732409656,-9.90185120938786,-10.19173963072861
1.602264566023749,-8.13120128052497,-6.443515510271482,-9.831285280939323
-6.055336599347832,0.32414365954526225,-8.88343046937026,-14.251551627837406
6.728890944982956,-9.624109294911914,-8.466101555157202,-13.813579974446538
-3.837111407489413,-5.965296440419183,-11.659424929695769,-14.453834991591988
-12.342935138780614,-11.44477862635831,-23.362766236022072,-26.076668315669608
-3.4684008944040485,-3.0184603940539647,-9.464503170956243,-19.921550423327083
5.784479879910537,-8.952279616831511,-16.95635225736336,-13.918243053641488
6.193873736604837,-3.4168689069217155,-26.058217223730235,-13.704033583793587
7.01602764005379,-4.516110835170385,-1.9150218198855748,-27.498576006771685
3.7006061794749137,2.0657761504551466,-10.404054127063196,-14.084693218927972
6.362069343273259,-10.515581337716704,-4.600956583537803,-15.142146559044045
-1.384246992713071,-2.121287127296414,-8.383171567866205,-26.75487128573284
4.207363855128022,-6.8350667022013285,-22.91379066290816,-10.429050219299208
5.456550148827473,-9.099981386142993,-8.604885543914353,-24.00798554299378
8.090518411644469,-2.658114300500989,-9.921621940490233,-34.75245612946149
-9.79786264315813,-10.634698290700118,-11.140869119786531,-11.342852017993971
4.750597465560786,-7.697795607389099,-10.195758998863466,-15.016623536881974
11.420838288010716,-12.04730567090321,-26.583444301057188,-12.021875245941695
5.6864599292523135,-18.887939243643952,-10.531751332949739,-9.735113692725896
2.2276033316927095,-4.488677515792764,-15.794772012893027,-12.492718775054163
5.243872584499753,-10.731010242443286,-14.690821399537846,-13.098438957935047
4.783037480552809,-4.794728007757221,-9.796548880320055,-11.292247900029144
1.9137988216835637,0.7150660378478024,-14.603221071172047,-17.196558597061987
-8.319550767010016,-6.0595280383891135,-8.823880936048253,-12.115446781734894
7.2845260261753415,-9.570371334559745,-3.057085136552457,-18.541184341831
8.753550068551478,-6.339759403482726,-14.100793049474053,-10.265119616513998
2.1183210801999808,-3.9812618665347097,-10.691498255011378,-11.7650871647308
7.377347379550867,-8.144493781451175,-17.991675720941515,-14.002638915596785
11.319309889341662,-11.149891500869629,-12.891702532862931,-10.034209006379156
11.081057082719683,-12.900465199412604,-6.787485355252715,-4.4708880644495785
8.301614737460886,-5.274123599777973,-5.727932099082725,-17.527833526843693
5.918088632910084,-2.904327439942006,-29.649680590794812,-16.607791574607006
2.115157738356457,-5.70470622135793,-11.156873780736298,-10.756674254566297
-13.044274785923145,-12.255706673480763,-18.174353257467462,-19.51574369040511
3.1127252324358436,-12.04449242090374,-8.534445971275101,-10.003782980278862
-0.5424801692612822,-15.584727915086646,-10.801527855975213,-6.578084259437453
2.397197367976069,-7.166803481399685,-22.37296902801084,-11.051422046783467
2.057851137738694,-7.419725169470767,-5.620221752895041,-15.489385896167581
2.7837446350736856,-1.2842855513831335,-16.16166470992209,-7.547441043207867
-0.558004052356063,-3.207741036702264,-30.545317589462353,-17.03437005267621
10.733169103685322,-11.471915925952313,-8.526737968833986,-10.9041443927501
9.83373675965928,-10.044666501825468,-11.420610453801151,-18.386569568142143
-1.8770536892064031,-8.000290743793212,-24.68252863961249,-8.227032087622879
8.598448576021173,-6.347712255792964,-19.96870362534147,-22.3695624001067
3.994179105039897,-0.27134210072022524,-9.551560037118808,-20.444541553352714
7.032888966265493,-9.554372838421692,-9.848066334523697,-22.155122473297652
8.686764681628128,-0.11950318863641396,-17.152067417692916,-10.07891072199595
-3.4693033155286495,-9.618174018099975,-4.004701825251216,-15.711693377215882
6.611288769855645,-8.66498325599915,-10.58020791197324,-12.57893544247053
3.8298344231021284,1.8495649777564225,-13.615718515631428,-5.864548143718752
0.5442039483947774,-4.0475840084909995,-17.754920341872786,-21.728629941925902
2.408455358146581,-8.796886527378266,-10.452687615193554,-9.025908609212394
5.410179014441544,-3.077882434279794,-8.615992935244243,-10.630815150504835
5.768304967557809,-6.119496840151174,-6.247321154127441,-16.276193016165912
8.498595032463232,-1.4640061301322387,-11.97674119392083,-20.581184745236122
4.894465554588096,-29.508762752130302,-10.404899444839518,-4.723727158118901
-1.907439855599491,-7.3994151425216,-6.726482749775871,-12.04179366511085
-1.0470766915748646,-11.679149138514884,-16.77701811703884,-14.419284150362104
-11.381595150141225,-5.0564951106111105,-8.246663497814442,-25.021617594732575
-0.47504197992273545,-18.40357967889139,-9.720253714309754,-17.11440909324562
2.3861068199776883,-11.862170026116214,-7.864630392589698,-21.582748874278217
-3.0263970968327722,-2.8825495309164317,-12.23031181469427,-15.111283017024919
2.329912820902151,-9.528416268872451,-10.497701379880555,-13.208887702280078
3.180881877538245,-18.235182108239407,-7.840971289129907,-21.503807075070327
1.3244007558978454,-6.456182023463582,-6.588397828942785,-15.17793350150315
6.081660193613802,-4.515367727868392,-1.228582204658224,-13.790580730427402
6.551002520820264,-1.5990891516721533,-17.534718322173497,-11.264719923568622
-0.6676002111171395,-15.861723740750268,-3.013564911600503,-14.315646701722807
-8.148417071716029,-40.45504052462409,-17.609764758458045,-20.73225227676069
1.3503689819589004,-12.768953853677012,-29.969273966410096,-11.086404784162289
8.766100325628749,-13.358558777291204,-14.46785266176364,-8.071869779367626
6.026973571241348,-11.332743496925744,-4.397671185360954,-10.570354794398943
5.866722589320888,-7.174272606759817,-12.14012902859824,-26.263741087638635
7.294721933178288,-25.921515132023046,-23.101651790505727,-16.426463954984605
11.779114022403418,-8.75174777828952,-13.02384825062516,-11.00481664203519
6.3749290607244795,-7.916832018761064,-12.039820252980217,-11.753244133782559
1.038326223367786,-0.21018764917519572,-7.246545935974616,-8.648155539132553
-0.9508823081762716,-6.766279561219453,-16.58229533863255,-14.055830998733557
3.4213739580170546,-2.316713339597153,-7.7092452047803075,-20.324713069974095
-0.05114501848457209,-11.48421271705292,-8.565285152538218,-10.518686633160529
0.1899009208280904,-7.312308924546122,-10.315923045888372,-23.833938978017265
0.31279169116155003,-3.5484448061885763,-7.796503660963364,-12.501421625509494
-4.168253985694803,-8.576346406559502,-12.11798939489981,-10.591187687492978
-8.173867725185632,-0.8868142249811837,-11.79551297759631,-29.3738986657689
-2.553207670939857,-3.0320484496184523,-10.009985850370313,-11.379349410536607
-2.5670208051399737,-10.540124886868568,-5.316360336735141,-22.789775173734938
3.0527163176472216,-0.23330917624849512,-3.7589270721777144,-11.525245146026736
-2.5932381604674593,1.7754193310107567,-7.534240557380997,-13.231854850287247
3.438166557022842,-8.618381172565194,-16.901075548810347,-16.508510386938063
5.409176465337571,-2.456638762088729,-4.859801971455016,-6.985128793988942
6.064423108880781,-10.402234862110713,-8.262114910624982,-14.611092925562863
9.31377607404859,-4.339119199480993,-9.120041127112012,-13.234746774419717
7.828775111897987,-14.859627394708117,-4.137321280208685,-21.37955689733458
7.247029696636224,-3.5697375085875356,-12.295646422796139,-5.430391683145816
7.069545556673129,-7.449171538293581,-19.953344182511522,-19.020185055570614
2.174383434403197,-5.199817725356351,-4.295145981748288,-21.9981487184304
8.235295590617708,1.2230501156863183,-19.51937209079499,-15.486087376478684
3.8512047874564983,-16.652513165281373,-5.721129216696447,-15.061802947688145
9.049156596393077,-11.18568172694058,-7.180302828916318,-10.064458367890525
8.169753148393191,2.4030425416825336,-15.113324721853992,-10.520067901592567
5.797102820231402,-9.502934130036579,-8.694710345061742,-29.36607854994751
2.555065426408414,-2.4700995521034024,-2.580485107700735,-29.015407741779
11.075404426636783,-14.696494635279048,-8.3403591581064,-16.567114117702516
5.291866510091831,-6.67704123900348,-9.796847624709985,-16.889820728532264
0.055285437292515116,-10.540758626336071,-12.338526831594837,-16.85661279115157
-3.0162835863638184,-6.165804729409932,-6.042677805950994,-8.327745298918254
2.964991340531557,-11.16752235307812,-21.50190199758482,-18.24826762207922
1.560153491819641,-5.249803134967565,-15.877258331737572,-12.074529104144268
6.061056429732748,-13.89320195042016,-6.176507699182093,-14.750273811049384
-8.132116027323798,-6.474621619362565,-5.394533650388453,-5.160546848308041
6.993044350020962,-3.639019317468656,-18.262168384229323,-4.625105066376422
4.4803208416892515,-8.556846345549676,-4.9132177977989775,-15.52203643015884
2.7230749650928474,-10.693044850276276,-9.44209125350029,-20.62928570237799
-10.37067856807853,-1.8308237293856848,-9.771788023850842,-15.386974536659048
1.0830023400884057,-5.6697377372377185,-5.799941038287958,-14.306194820896946
3.693529364530575,-3.8215649696017087,-7.525820370141375,-15.091156912347143
2.3132818490623417,1.1594695828145176,-4.492579989025157,-29.97318332710332
4.556352709020196,-14.841235468495572,-17.129786582759266,-10.858725097497045
-1.0244790534967496,-7.202655724019906,-15.07802304698318,-18.945549639195427
6.50256184327531,-8.684148041943462,-13.736359694718441,-13.441632086312834
-6.214450792555878,-0.02729026067524476,-11.985591498502714,-11.733077626896472
5.898400736798801,-6.793044063543211,-8.420276535642092,-15.526232849121373
5.635786811427175,-4.381231986806101,-9.570768538857944,-13.597236929488849
2.040517491831128,-0.5715402437034642,-9.826155276258568,-10.574143326329287
5.65680914609743,-3.5317948863721895,-8.537135905750137,-13.02221746637298
6.09176508174927,-5.352068599605041,-4.45049437952376,-7.88386768584588
-1.3151428723643983,-3.81106885932265,-3.966040997962665,-11.650672212941286
6.921731230390244,-15.337597420366475,-7.5096783856256355,-13.681808572053905
5.1134675298292915,-16.707460902028128,-26.438010097519392,-17.235114708055796
-1.3079705444179028,-5.381396476206821,-5.48155556806822,-20.555035617973893
-5.647269710602979,-5.521116191409605,-10.879299789150433,-8.603347376395925
1.461511622275875,-17.557619457192278,-6.737631163404309,-17.328442513458505
10.317394228217541,-7.561094377877681,-10.257363339690189,-3.426445934773615
1.223885277868022,-0.188652442420973,-9.336180788603533,-13.378681467862775
2.0014917043888056,-2.0826749133872635,-11.049438769329011,-21.26411260700538
-5.166245258884283,-8.70225123939208,-3.505181813890009,-6.859984613002439
-4.157178450299561,-6.674062439457349,-7.813207357623352,-18.24077454570473
-18.540237603073024,0.199115889336813,-9.230805143570535,-17.348546649381248
4.919020065114701,-2.462045628358932,-10.781687850674665,-10.859075313435849
2.981179343410874,-10.678831460596786,-9.08414012789,-14.402070352431048
6.396325862638365,-5.23236528270919,-4.180738601105359,-13.849513227586739
6.557976842132449,-6.1079178645543655,-6.423918329804547,-16.54161268793758
-0.9360029183236054,0.015338318003811136,-8.81261936440866,-13.349495201400833
-3.0774579095204064,-9.326208043123039,-8.18238321483425,-10.83398875351436
1.6036100943686435,-18.907210866069015,-7.563306908801966,-12.063775984167636
-3.754976315409433,2.085175766845354,-7.96660757583766,-6.121339580745312
10.73227273388455,-5.916502888530389,-18.101229304884445,-14.335932161432813
10.440826226845054,-7.024127010876943,-9.031229461075505,-17.82559024979536
3.217266217871568,-1.295187711662387,-24.129323703169,-18.481606193442005
-1.5257279285963214,1.6144622231053316,-14.53586962238293,-12.59544073862176
-16.154073394615544,-1.3276299527576807,-8.595863786994645,-14.643197669599763
-0.9014178412354004,-1.196405944932013,-5.010049193008639,-10.906200256002489
-0.9132456001005553,-4.011827057329248,-4.1962728851012745,-11.00111558817177
7.413480685610195,-4.196196118887438,-19.553316196141324,-14.139714601328931
2.0006548362571692,-7.783420730579752,-7.9528658003172765,-13.471960497200227
-4.176787238644675,-10.759234000618989,-7.9160380860549076,-11.013147345835074
-0.4787456456283219,-12.967379146938985,-9.923089653892207,-12.353544110973962
1.977238022798727,-7.648599326489578,-8.94767516712037,-7.430076581255763
-4.849060213640025,-11.608845699535735,-3.8721955557660976,-7.585366500300067
1.7908056278835827,-16.270192184648,-8.823255984856281,-13.308679210035203
4.033209733359339,-0.7031053023029878,-7.844713346776894,-13.129377357345591
-5.794502227302155,-8.582871188737087,-12.064102039621798,-10.11524060908174
0.8676786107410677,-6.174537247472309,-13.896460280713644,-16.185804593518135
2.625744391481787,-5.1237635627065865,-18.72408579917965,-12.969946887188136
4.7324858387746715,-11.141882810999189,-4.610896497238335,-16.620263157412523
6.732559930205815,-18.456958767469843,-12.986414636735914,-10.950917598156666
4.786276374536901,-3.6044165515217266,-11.842577982623727,-9.701005113566103
6.728047356099266,-5.307116017479715,-7.440312093954841,-7.827835811696504
9.350513718441704,-8.22818679316012,-13.66033482653528,-20.461537911001983
5.609417886609593,0.9992478282598856,-1.393294084669967,-6.476982473459657
4.024388358962086,-28.30626225094113,-13.955856752621319,-14.113484077710192
-7.346872630117534,-6.925293543993178,-13.805020030397902,-11.385953987852888
10.454845657331012,-0.4044463619476688,-8.462792147237781,-9.317665727663924
10.737046301414052,-10.023618133484831,-24.038324905799332,-5.5436752628361425
10.85183592409499,-0.17970300067247846,-4.955101449065584,-12.574261457531383
4.545668528508611,-2.226088364012953,-3.9745152987283037,-13.752438054294855
-1.9578467856590995,-7.721962130597029,-5.614649317621296,-19.909410978409987
3.1767314122708177,-7.583270910383727,-16.694667886178685,-12.960237224066054
6.771390451615543,-5.927667482665721,-4.725905883305552,-22.45376827704802
-10.333272681142518,-12.349774130837055,-12.467132935269353,-15.63881627497427
-3.6546914334597354,-7.583803406602972,-9.069872484938536,-14.654466291784333
6.9836531388052565,-5.01309574139304,-8.636079899742468,-14.086793040178643
-14.352744634519118,-8.638069069689788,-14.603052980236505,-17.87604711809182
5.105553355766326,-9.378925299656224,-22.652758367118143,-14.400158719230047
3.813506008767263,-7.000185279708444,-22.546169317482462,-10.546067969804836
0.8307320173241135,-10.291235479681877,-20.148627124537526,-11.496037946888954
3.617937086750038,-9.093807974001848,-3.1290914428798704,-11.249207982579344
2.8827823070456473,-5.506083348122613,-19.026511239891388,-21.37686295058041
5.47505112180159,-11.986695546772957,-5.310469218321439,-14.392680645020777
-8.893856069122567,-4.6594482370976245,-15.643818531724538,-22.18778487808656
0.6319877536570444,-3.921723243783087,-8.090652360402498,-5.459220407809248
0.49333010941476463,-3.5774339458937856,-3.9821724877546876,-22.51955549820115
-0.5603242849218608,-5.208935169256315,-7.107815833924278,-5.69606409851705
2.2307536403304304,-6.498738228588718,-17.682326710976042,-21.554684634144863
2.0372529107940736,-12.38331206275511,-13.33669427649247,-12.512032644535642
3.7763292970490667,-17.298867858485647,-8.13620861362318,-4.153940594630667
0.4379698371089509,-4.750430549295274,-6.3510852426882405,-21.022197754128435
9.117166637016162,-10.192794364014127,-17.783652455167328,-11.50822747971379
10.561048018343834,0.5716909202189315,-14.414101056860634,-11.149945855419077
8.5267937617799,-4.0736450005246025,-19.47496226394265,-17.862646629219917
5.2194868368931875,-1.0312472413112186,-15.513339134790243,-14.950577156005311
-0.08459571665113064,-6.294069182602928,-14.363460960237909,-8.034690965619408
3.368794706129478,-8.055502508648757,-2.8242681428902703,-19.471149944249888
-8.01087604961844,-6.884528138833075,-7.342281496897256,-13.608931922552157
-8.722329594996461,-3.2602692111645775,-9.24419318233989,-14.053313414712362
9.256782754173194,-2.409731955477632,-6.741731921244664,-10.592165133789859
-12.043967234841249,-5.384151739629577,-4.381491107312918,-13.250298725166841
3.4346160067186875,-16.716281585478242,-1.1904113797025833,-12.941895718189022
3.683844361171572,-8.64363707130525,-7.505903893458871,-10.242765716674803
-10.232991979077434,3.9220247101759256,-10.363693453646347,-33.82724329519808
2.7875435291895148,-3.6593983743585135,-2.9063289966210446,-8.901113394476083
3.404381964184582,-4.572996988097363,-6.642757721435473,-4.845063346218582
-12.440175220394142,1.5291154931927675,-10.792160044328295,-14.811152034083642
-0.3478067036801149,-12.931918273243046,-10.248546356083502,-12.720125853355992
-2.1265914344212007,-12.746914406134596,-7.357700490544744,-18.316451138635053
4.515790262030533,0.665626657915134,-7.48317086725433,-9.266506121808012
-1.8436334834184853,-11.3683570216286,-2.124893123612652,-27.46587093031041
4.991406286545843,-10.434814330972443,-8.988702500438752,-12.924490686346747
5.7657016898232225,1.2115786976844327,-2.8540388131961487,-11.737197164813708
7.808453699306228,-1.7476993040861561,-14.737359901849484,-11.707817014214639
1.6631746888224956,-3.046829544264609,-23.690042662776317,-13.265866227079874
7.702425493244355,-11.125235547927765,-5.645430678502862,-14.436501839033971
7.941035299994573,-6.307719824212149,-12.338352995751428,-9.547318383748403
-8.028258145187289,-9.502420389469812,-18.363138861443534,-10.972247879664947
3.1616379090084745,-1.564214186308802,-2.7394340826358903,-8.122544830590966
9.412267307572742,1.5658642849254485,-5.596433787989547,-15.837207182477679
11.24327420981135,-11.404170151556766,-6.929799509609733,-12.149004718130218
3.21817019070989,-14.37151190672596,-4.411092324113365,-18.53398286995406
-3.2067064727381283,-6.992381659793941,-3.9173313352278427,-18.654263238353963
8.049410273771555,-7.9483967711349655,-8.22529926660312,-11.582735832422857
12.233695506258845,-8.665975190785886,-5.984176526854375,-16.429609169750186
-3.502797885249679,-9.397198253552933,-18.054171638087805,-11.948056179165969
-5.060413287095352,-1.4150782343273436,-14.2429034787366,-6.47850849849787
6.204190089198624,-12.117108453436703,-18.13493130016451,-6.307457459732396
7.089169712418167,-11.758883354654674,-7.804969996850383,-5.900052249467363
-5.2905359295269925,-7.803375273387037,-10.923410270995957,-23.200840189286694
9.218998058147406,-6.883470179266744,-13.878531452033123,-18.242450227711245
6.722423117691022,-7.557919718675438,-13.84760006220873,-11.113975869628915
-0.6751554934263888,-0.8345801575397571,-14.811567935252217,-10.140477514476848
-13.48160773464012,-4.914216093338559,-10.795954429447303,-10.46843277679357
4.401752134768612,-2.3542945987346986,-15.418409772891184,-19.2073481359054
-0.5725309122194102,-1.9533355896931974,-7.356536467498691,-18.780479985257017
4.712115162454064,-8.623259821601582,-15.70795916723499,-10.936150170364904
8.302484965107084,-14.104677201470267,-15.6457796185206,-21.15666114715991
4.716774286215074,-2.546106201700275,-16.521839431673815,-20.122939060686562
0.2212791788462547,-5.464080900883608,-6.535980077614086,-9.541329027261492
2.7444040574222046,-10.672033462673337,-14.502121155114274,-8.376948173664426
6.052069061584927,-5.553949971381692,-5.32397940526141,-10.207900199964588
7.326382594559811,-8.366085388786189,-13.850389731187857,-10.591405626800913
3.1923806867507527,-16.829859402106425,-9.23548147676777,-14.929377316284706
6.9312486897559,-0.16347976253065166,-12.335765724875342,-22.158454528583476
5.2197386481723385,-14.59353069743521,-7.891810091164231,-15.372211155834682
3.5563442922811506,-0.6368043930868854,-4.136545693836892,-16.06534602734522
-0.25042750142460957,-12.529798494203376,-13.598752072499167,-21.84758029447972
4.7303501447936025,-14.394998722441702,-6.912814051445036,-8.176749434318745
6.227035396229817,-13.201598551780002,-13.338890848145596,-8.115876732376476
1.6749114081256755,-19.41029615130121,-6.248255309998978,-16.514958314848577
4.9216077282349175,-9.732837812866986,-10.606096951984178,-11.02932471322604
6.393071380026135,-2.958960488589545,-12.97706072196287,-10.57638475151852
9.342212513912958,-4.66604822429121,-26.22770543929076,-10.495714764587246
3.800863191868266,-6.396381706680976,-8.337120426032962,-12.415191351033425
2.6068906830483285,-5.613977482179325,-14.781475280662843,-13.448514168007849
-0.5059716488704717,-6.26001334600083,-12.073655173518265,-15.782180545739108
4.6536146720962,-4.814198104910221,-9.4925224099496,-19.932713486531206
7.220041297413218,-1.7993066359912335,-12.276748247727852,-8.864434552941493
1.4855363345915045,0.7443353609407781,-21.97703828866923,-18.376157458489267
0.9396407483431424,-4.561670067607451,-8.376309122233742,-12.735330672575671
-4.051242943401284,-3.8318126213165593,-19.985801438557587,-10.034202378479561
-10.947870058996255,-4.730442863266139,-18.69625176208076,-11.4093989647713
7.782701249136185,-9.3364696560362,-5.205962818781902,-11.383459169395627
10.078481813166434,-11.7671992276264,-7.476820314840602,-38.10284893395766
10.577110250143223,-0.32206374965844287,-17.304152546540866,-14.504274409155952
5.136714360988208,-9.031018604410452,-15.317122267674836,-16.119904295323465
4.092264074776849,-3.8211546728233374,-5.380124845131977,-12.81655107093117
3.9625812528651165,-3.621313951320121,-24.060211033845576,-10.230563656468895
-11.298185546203298,-8.455107941778131,-17.34121214109126,-16.796624970576723
3.2237483484715477,-0.3449722131337061,-5.734755007579825,-11.211811052741249
-4.467661122758293,-9.918468202556596,-7.3375993786458835,-13.653430994506115
-5.590243411534162,-4.185241351304698,-13.302271833425365,-10.252737023754383
-2.987440635991467,-4.4246389950805805,-7.20163941579033,-17.600843609518456
7.406708803200283,-9.747685773572854,-30.861688181911443,-12.633152874585582
5.966159820122257,-13.716605243123556,-7.320123436517626,-22.063347435067584
10.43628921542539,-8.486868422630494,-7.130340145632058,-26.959497225902872
2.244228071133933,-9.069268548687027,-9.25137223957913,-20.19584079153725
4.044480405761423,-3.5990463478076844,-6.549063250191088,-13.907694387703414
8.109352481181963,-9.568874511816194,-13.298663369583657,-20.088592460221314
1.8536615408221802,-10.889861082307526,-7.785379305653743,-11.903188956228465
6.809553275336463,-10.107979097388071,-9.71597919123002,-22.93566989774193
4.682123967911467,0.1577159656745022,-25.403966908165152,-11.359275412443267
-0.7984898874986452,-9.041062499433053,-7.256632524303745,-11.011837661338442
7.926965488562161,-10.507149007272915,-16.605276716407573,-17.666110436097107
5.973832217720835,-7.6263081997408735,-10.57324490878795,-7.250601881182872
7.199286291297967,-5.808984929711795,-6.790298193706192,-19.046581875467695
6.834970529421131,-3.546909159969921,-13.414093400953497,-19.550282055080487
1.4627254472766524,-2.842706767921719,-7.468700102948022,-8.982880090680867
-1.140428072904629,-4.276509571653167,-10.696673453929213,-8.955848463416118
0.5057802736464065,-8.24809683166987,-13.14168725853655,-13.93239667149272
6.674773129961263,-7.7844014137979665,-5.765150683711374,-11.782967019681495
2.8618024662506403,-6.213184192348453,-24.962635577220574,-14.140612133918362
-1.0309408880421183,-11.375285150587011,-10.465241074895179,-19.69873450457301
1.525369369783776,-5.957079091519419,-2.7640483750391995,-21.17656741762582
1.834928950018643,-7.672658449584671,-10.889598605303565,-6.87450534599447
2.3499015080430743,-2.3957404275191037,-14.454816203246846,-11.740515545461632
-0.8073406315408547,-16.197018180277965,-8.621988969612733,-19.74895069647431
0.43417473367348336,-2.0920674604380496,-4.03232642993523,-12.379551034461185
-1.2215936366799962,-4.645712963116282,-3.3372351317383853,-20.3852076240425
-2.784373740717797,-10.214720797902402,-13.979596184176756,-14.36547369192465
6.556029839914571,-8.078045195970567,-10.004765465173367,-8.276765516889032
8.360740019632619,-4.040863048618475,-7.996324768028471,-21.098507704057305
5.697791723221817,-5.631607895319751,0.4082857989221633,-12.700408866986045
-5.3400681876940315,-7.872894266351639,-12.210738914443459,-18.487064113395682
2.7890483296615423,-7.285472482390239,-7.45429373392982,-16.807112521322814
4.123897875296116,-5.765469262890828,-5.264513500230894,-24.163707712526353
10.001788994082943,2.8742465101679366,-4.957862451390224,-5.793389894689408
8.389551443488758,-3.682173459662912,-8.896673365452479,-7.454809306240472
3.4080667462643772,-0.6644885356796051,-8.112863769517475,-13.33766865863661
5.5632977219102395,-6.740302471403628,-5.207541204416847,-16.327567163345932
8.615794419193477,-10.976584932116676,-5.602316228167604,-20.624506720112088
2.7373575332800453,-15.522573161703882,-8.242276206194953,-8.016992467910812
2.523947364573059,-1.0206962094512226,-10.728119654716332,-23.75504463949023
-6.499876023934021,-8.586386421530285,-10.287518498484381,-15.284044171548638
2.799642140795603,-7.003684391217694,-5.702066869319623,-11.97905682250082
5.127089466118079,-17.721742219442966,-9.928205953619207,-28.89250109330777
3.146994402594427,-10.873311273556101,-9.506352366966922,-20.47417250028373
-2.157578866163699,-14.135492366070249,-11.556929485729546,-12.522980846729999
7.304126086207373,-11.84594692476956,-15.185601733201,-13.781099009826741
7.682511111284288,-5.153052305937444,-8.123369153009712,-23.661055060634375
7.879817107022949,-1.465960863324283,-3.8038234599044447,-16.939824889955673
-24.69142196351622,-4.074698464987682,-11.539614898750983,-15.086066349205334
5.922135221313049,-3.7628830163091758,-12.708386501276586,-10.854052793881033
11.029261614173787,-3.610334840092362,-4.382105344585302,-12.403580327150197
7.301134242099474,-12.805284752835082,-7.7330403725199925,-24.326462975116648
6.40464297041192,-13.930963252866029,-16.473499445981023,-13.600941116032162
-1.1721314608797098,-11.254838553958841,-14.567238898110098,-16.74779563734723
1.7363306740713935,-14.664988588008057,-5.451307957540051,-22.13815210857649
0.35981700636973546,-15.299558504705068,-12.087747816597261,-10.451440877039229
-12.207561734091218,-1.3401738142856452,-9.56494611383801,-11.145903543410748
-1.6739468249161824,-15.267863230206732,-14.81180704377211,-11.21104786749622
0.45959119723557906,-20.53586517819279,-16.37228099620135,-12.759385901632466
-1.7028674846192446,-14.228870259074167,-12.455032085975263,-27.102459512406398
-3.528835164352783,-7.1589769923614925,-9.559926906282893,-9.831005209713236
-2.382419764497281,-9.545251849584403,-6.7221192899377336,-6.749620329162246
1.1521220203043612,-4.914398465074932,-7.294769918014914,-6.834626663921567
6.492311025782813,-9.710765414193634,-20.56149784520467,-9.125622816802416
2.399683054055154,-11.096581118259234,-7.643474578840301,-16.61536039111396
10.990427512094316,-4.270847967228523,-9.971050376944746,-11.411960845098829
1.0182406314756696,-2.0342457223313444,-14.523390304914908,-9.443576216738613
-7.5601071323165066,-6.255658630891783,-11.501362023242862,-19.24664185162809
0.043383222123739795,-12.194260248611695,-7.513391898115476,-23.01846173675377
7.480115334175736,-13.012654303166553,-5.602254596619138,-15.707258360515256
0.5443935723490867,-1.1956394337061687,-14.266525905923146,-20.93010366397383
2.665997235712433,-3.8783400921107516,-4.687276804117781,-17.127748450908214
5.741803948397992,-3.5347469194052232,-9.649884685934115,-15.004413305653673
11.14583826834046,-12.92501635064422,-12.568623838123907,-11.5735747598451
0.6189019413755061,-8.115006703552048,-24.92973026372449,-6.718234391821314
0.7576870483436311,-7.838136606861572,-7.6457484267525935,-15.73901191406184
2.3653832271580963,-10.903517855080018,-4.356823250951881,-11.742213499008493
7.6825136655969235,0.9536729128744388,-15.68575713227927,-21.971398647293192
7.605615214346826,-19.07387868896799,-5.326901926238442,-17.30391834891232
1.937428845353308,-1.599244635231151,-7.842907740239333,-18.553683713756527
6.976016409271048,-17.437930934830632,-22.170734429378733,-14.889340603018285
-5.780052432923659,-15.863955571202382,-10.251056368293373,-15.905516865474786
-2.4977893351361757,-9.819961279301747,-10.964323802330524,-23.541325091954413
0.7803178964816886,-4.391916734242208,-8.643161909916973,-13.080339836783375
-10.111448822229468,-1.0902751831817863,-11.425777009446591,-10.655436734191587
2.490154701860404,-1.5236639097521572,-23.934572025835223,-16.59911483157871
1.9181181377606853,-3.4835904251922356,-15.920747155231435,-9.124840887486664
2.9160021480958314,-10.529228948145523,-13.792386892828315,-11.88604945632157
0.009711076387004525,-1.3740545889827898,-14.152618851522544,-22.760729580818868
-10.158632045044214,1.1185352479646733,-5.791370458705488,-9.310181393321441
-8.734158868244714,-3.185337726756803,-11.425961065549007,-13.880816996249225
1.049353163077888,-2.799274398743652,-13.325550338156031,-13.866038757728928
1.5421855237883606,0.2262999758075086,-7.759596611873732,-18.021667319389586
3.033012706390646,-11.3223842588136,-11.442052284250783,-13.255581399133666
1.6874524671635005,-5.814665295827919,-16.169659351445432,-19.163072160129083
-5.705157082222431,-3.8028710775118837,-10.167082434152839,-15.828560195564288
-2.9414904578590972,-5.858321365051762,-8.721495046308467,-13.469144801436796
-11.858863932286104,-5.7338870152589,-6.274260588790195,-8.16047211574283
-0.27746656551686666,-10.044866838867538,-7.311018898729802,-15.338233112039392
-0.7677109575167949,2.9642738262778625,-4.413787186913802,-10.0914551951755
7.741264842505303,-1.385142333233163,-8.003348191310915,-21.299042832771327
9.208326883416369,-7.946165309839402,-5.846161833364938,-10.50659097301004
1.5401817840142102,-4.457308951255037,-8.96904004526947,-15.245304375995842
-7.063694073474821,-8.99563515374398,-9.78506484328966,-6.53194433007763
1.188899883931387,-4.2534655684253835,-5.555612059265814,-17.306455228809256
-4.708888191470399,-5.1801709009970915,-7.382204466415514,-14.179100380436141
1.267390982791757,-0.9169551940405198,-17.503528349873086,-10.951567287568821
1.3681474100798896,-12.08570713227802,-13.301902839564221,-5.897717560542031
4.85078198548504,-3.572288591309869,-5.672847911005489,-16.8144470967133
-2.3558199052508124,-9.003649831140716,-1.9863543658956218,-11.202914829322784
2.7279461434245365,-4.838281423972242,-7.138140704834132,-13.870424435898608
-0.9316687551789489,-18.83000258408879,-10.040967167422728,-22.864705612708427
-0.6805373444621097,-14.152259992000523,-9.540216603547776,-9.222200913985377
-1.9123547681762876,-4.308578951805157,-15.735830539630811,-13.885472814753866
3.6763972046530613,-6.029950598883505,-11.834226035302947,-8.360978491135764
4.802157411173546,-0.28037920321474763,-12.023591039216484,-12.321511329926595
7.2807809434999395,-5.292713385761451,-9.246244661865362,-14.893111245544832
6.978335552207106,-26.231270810994133,-1.8584516546934413,-17.670980210345498
1.6923359505985436,-16.694395651003017,-7.438938798701745,-13.558054289459973
5.9981977631514445,-16.315439954622445,-15.600172291454307,-22.0146083318145
8.032048265587276,-5.184183994139247,-8.136626816685137,-19.157301323874357
8.62374905748918,-8.392831705331893,-20.71290784701352,-11.693300781901858
0.49645552832500206,-1.6077809693815857,-6.79671224166831,-11.903892008814752
1.7252353010349815,-7.984317310008849,-9.134424617578855,-15.867115615686016
2.132264342416491,-3.9365349139747705,-20.62746543658391,-13.843100841076856
-2.5718560196589584,1.5683486178380202,-9.620519435674193,-17.56606401423199
4.359926957733613,-5.753103997634974,-4.826714643197647,-6.76444841179595
6.848931756325959,-6.826423281724705,-14.795626547779474,-26.933213973040253
4.102339333437648,-1.29565860199933,-4.92382228698407,-14.99654353783667
6.8018707613622835,-13.415602421656239,-8.051451616130942,-5.506887318310364
2.2978359945763125,-3.2941322622260314,-6.474350473391697,-15.536765350928734
4.306655674013663,-5.823412548975102,-7.626440802287002,-20.86478779434077
-0.9254359568874353,-6.090240787626969,-12.262405635541393,-7.526905467951758
-2.423185976726577,-12.831239173784066,-9.569696214225125,-14.393164025300495
-1.562075260014999,-2.0463060546970873,-16.434736676180588,-9.75855539050233
3.3348926774632237,-9.15462010825836,-13.09203595178975,-11.439338487152643
2.785316053734071,-3.8695100156364486,-7.653974153554518,-10.583317961392192
6.303246103731366,-12.75075112335519,-2.7880749334432,-19.459381449853048
4.486098032591894,-1.0320880593707118,-14.681647263135329,-25.95803420997806
-0.4071126876920341,-12.403169475123672,-22.49367399200813,-17.372589985344575
0.07420012109538021,-7.267424781780071,-5.811483828158471,-16.466527096915968
4.454427262200815,-2.560786852817743,-6.25201195461883,-11.671717012278917
-3.294170588280126,-6.116430022620329,-7.20043010716596,-20.877159523197086
7.873295917904918,-0.500158451797025,-18.798490964419944,-15.948177910817543
8.966255466348375,-15.728097476723423,-3.9901133319082644,-13.352717255804352
5.322603514786483,-2.495988268274014,-8.852711255261234,-6.596874821686978
-12.57364877935249,-40.79072888564274,-8.973230323732837,-10.405657187640683
-3.5270493422165954,-7.231042913924807,-8.274403923160005,-12.615478102788641
3.4628676633403064,-10.093280144157266,-9.83878866798641,-15.424601966460576
-3.870516039528013,-2.3685543596336656,-13.41853201979778,-10.921809136656233
-7.820946100276554,-5.095262332921368,-13.587311883056959,-6.877233701966107
0.9297750727714487,-12.87219917452553,-11.676072614404362,-20.50766208494742
-4.426197705176202,-5.161423775075092,-10.483584805052828,-7.614026888381826
4.9536448216980755,-3.2760211024298167,-10.411994875083217,-10.605609070432992
1.7753573114256567,-6.343984450804892,0.6943211681263479,-18.827005156348434
-11.77429226534226,-1.1230025579539742,-3.2978893844044954,-13.118488356690888
-0.6171669264452748,-15.40699735710745,-12.12938946515654,-9.545769630940915
8.529955264629344,-12.735657090948578,-14.338829990758011,-8.94360816708146
2.1277282524703787,-6.191874792536301,-6.337231459102604,-13.86483812074991
-0.4751342248095205,-11.892759481729588,-7.591421047634769,-9.857053246966068
2.5215395924216195,-9.562009647947843,-2.715793708498542,-17.31231230004701
10.20441724917099,0.4232062129448302,-6.7401931313248,-10.23053822778048
6.3151294239076075,-13.1091728467422,-12.438060887197508,-9.551539204572267
-2.607092110105982,-6.506331871590436,-8.82925885614255,-11.124378652250487
-9.693470727438868,-6.894649849023968,-16.789672350393925,-8.473323491636096
4.133639831351745,-2.4653844596240964,-8.602425348807706,-16.329646872861396
5.745275787758773,-3.0984189875294437,-13.134079337160461,-25.340903350974884
8.646327763020944,-5.871792932981561,-10.080400026083531,-14.4978230889326
8.313700836094453,-2.9584396894404046,-11.649295251933868,-17.793450756862526
10.990314612096412,-13.450620728711247,-5.522722634627794,-9.793196330320912
-2.10736184094118,1.6580507007470318,-6.842366719988643,-13.592140527475893
4.713926186614369,-5.786959033190517,-15.322128202207022,-7.424011149537346
6.59720727654023,-6.284826277756392,-5.785468221955448,-8.993184323832493
5.903826896866915,-7.889973781815372,-8.126304804408141,-14.33028029000497
7.324357883056513,-4.777704533126881,-13.50832243719854,-10.558701806590369
8.528503013375117,1.2900089729695916,-10.552122947859655,-15.40027769662827
0.7209427359916312,1.6174700985769834,-19.067474012328244,-17.224597776845364
4.833413273159327,-5.708468621209781,-5.540073558560186,-10.826723101889634
1.0378579770525769,0.72672152308103,-12.75343616979066,-13.391733924441914
-14.292021687593115,-12.974393211063294,-13.234687404798603,-21.23758584087924
-5.529465617284584,-13.00721390284081,-9.017027854831628,-6.782229929729466
2.276070220227379,-6.600250203450577,-8.522997552795347,-12.667560058548498
-5.281214232966159,-4.413040678571826,-5.844214743082832,-13.17042204628534
6.476653701755005,0.6396614912513212,-9.9910645349265,-10.583176539387885
4.7242569086575035,-4.586124156693036,-3.609637525622678,-12.677621942422077
7.057213470635836,-1.5379194716480322,-4.845581578807297,-8.021217440746788
5.06762392836817,-4.438037104701974,-5.885807560716984,-15.959803516649027
-4.955488730123079,-16.034122807268748,-7.810940866570961,-11.07416681457074
10.06424188285912,-9.310842440519078,-8.073599183944015,-11.603318403155793
0.7038730603298471,3.2228623271756884,-11.627475096503673,-10.333456492279465
-1.0537094855797413,-3.153840351763285,-7.5375950147778195,-10.436819547691753
0.7444164183724364,-1.0188918478873488,-18.765849721305383,-12.039745903728127
-3.164941816640921,-12.986958516288638,-7.044974388309599,-19.807318817452945
4.819598598906161,-8.14339291437921,-21.84109167422317,-13.615969469774987
-6.775978583394595,0.5700614216045743,-20.00013611251087,-9.298746535174905
7.140816133433615,-3.9764240477682904,-13.32946828210703,-15.623211948048423
3.097967670847372,-19.51589319522507,-7.2796674047995165,-26.436922390210484
7.910326958876872,-1.0664147211210748,-4.456756518964774,-10.573995420854507
3.0603023025856273,-8.002698935355735,-4.796148004235773,-14.943718350514628
3.5599533311476366,-6.983645023127916,-6.865108003064725,-11.845970866362277
-14.22379786155424,-1.1206018523005383,-4.262063252778098,-5.4594087872867725
7.647801270979012,-7.074743749122963,-5.106180742063744,-10.989083389618685
7.744165703363817,-10.5221847983303,-13.249503921567907,-21.528825164685635
1.6303492439668115,-4.070432037775418,-7.7332409539147395,-12.97356568693747
14.045150299048695,-3.064203664280729,-7.829477462737854,-10.366341374904941
8.585042608957869,-0.6224552713431817,-15.156553380021279,-26.46086505005085
5.006250441153447,-4.553394492855961,-17.038514330281703,-21.64510958974514
-0.08664839104487365,-0.3729702007572473,-13.943846596148486,-13.240011879217251
4.283243260208314,-7.923062751263523,-5.030668512951825,-16.818352217085952
4.151032308955376,-4.522565307099743,-18.77977383338324,-12.196248842840214
-4.625565211079652,-6.811241466203605,-1.9967841161060385,-10.196921066165613
4.448018895667404,-5.167269363080973,-7.02878769276372,-10.459414982151092
9.568285880812844,-12.84577550381151,-9.458229735335157,-11.477060888497794
1.092464297080602,-7.162241902737455,-14.565244607746823,-22.10917618008397
1.3373548971321405,-14.654044108966975,-14.939444957377376,-8.000723489728747
-6.521459345420217,0.6964217506937169,-18.526196261419138,-20.77373421743757
2.004506892516671,-4.157137639078827,-11.072797861015239,-11.784139923695069
11.121231880377536,-6.240854247321557,-9.225739650902216,-22.492981331291595
7.460474908286013,-7.098598748537012,-8.352797789879185,-17.647335622889045
6.611504518478909,-3.8657035841392595,-12.75735150342139,-16.789826044748672
2.438708588949423,-0.9689660124374808,-3.793901669960132,-16.120265342699007
3.84298654440832,-2.994402016284792,-25.132730352776345,-15.383634016564931
2.5836477121796695,-7.605735543472645,-7.45915557280089,-30.93446967787949
8.242917103925404,-8.877535712440093,-10.993610934436095,-20.815838318502806
7.536199639597707,-4.74346889215405,-16.522561143561685,-26.643887094585104
5.567876259153147,-6.006314604582097,-6.5094341159219375,-15.084377152664599
5.259743744224178,-15.734403488266068,-18.746861230194767,-16.768638182613905
6.666593011954294,-13.543384572422287,-4.128308146893775,-10.021260923531136
4.964010032215793,-6.147622097691198,-6.56997016794352,-7.149340825730505
-4.595025500171904,-10.278865537498874,-6.176092157148114,-7.409702605030752
7.000651544024113,-4.7849780018198524,-10.403896152232326,-14.865472572514
4.868086216871462,-10.644545552453401,-14.791582287908739,-14.770352573429582
9.174618538021004,-4.786106114492039,-10.33037999750316,-9.23214489066008
8.466204882473878,-3.1625956233370873,-15.638337325635675,-15.547987956543226
-3.93557038151185,-1.4137074563584946,-7.752429249952936,-22.98915069132368
5.047117725644145,-12.643952296805619,-4.757555323026371,-18.17504480155501
4.099247051687424,-0.7295870655884658,-6.74424724177438,-18.238640351781513
0.7246073274914293,-3.8525160414973127,-6.763898979160546,-9.794868134618842
-2.8550388835225267,-5.884743002436941,-6.33964748168755,-12.679205847055298
-4.325158019314007,-13.97785307260547,-9.94120687140439,-9.867847195896298
4.798333487274258,-9.447076182759975,-6.9755419189053605,-10.229399306438188
1.5963441586489413,-5.033829751393534,-10.887665085930236,-6.419534347860214
-4.828060154175386,-14.498505524297407,-10.5884142126826,-17.04248694575309
7.269995258500334,-4.684371173249783,-8.732289664617378,-17.75853986104179
4.588675314962973,-7.299578387517168,-9.649298161650979,-9.424527861669473
-4.780885174652249,-8.44434427481519,-10.50427940269512,-11.929325106470277
1.5601863857851381,-1.97381060732973,-11.765499953258622,-11.797738178633557
1.9913812997783802,-2.307755318323016,-8.237127707413226,-11.089043564678128
-11.013933109766295,-12.393383964221123,-16.696471511464356,-17.414742757876773
-1.162857525584145,-10.142247495429896,-7.7091529276744115,-11.36363817328052
0.3945385475116079,-9.602855775662686,-16.279756196296585,-10.523164895473633
3.8653164307271695,-4.362723407224347,-12.525237672902279,-9.520246279519721
1.2996450433034408,-15.406629845935395,-13.688407432430932,-15.786414271456303
5.202100863355517,-2.363157427566767,-14.094824171133585,-14.324252357111325
7.099713938785767,-1.7460067862826127,-16.06838228997686,-8.4198092330897
6.479921387371277,-0.3384185400917503,-12.289992351145436,-8.781401275315112
8.000767463687506,-8.091181571462052,-5.298415004532329,-12.808131814231215
8.477679276038891,-6.654463723685704,-5.027986261292201,-16.67327554627886
0.8642018685078718,-7.344705943720748,-12.316360636907678,-9.661271709282962
2.140763780457731,-3.384450301279643,-6.137541142738563,-20.138731706227112
4.190473154903683,-7.345732115512937,-8.388712206730924,-9.617407031461108
-9.00693078187362,-11.275381052078782,-8.41748393207391,-5.846784066704039
-1.6191619859338715,-9.430405767616044,-13.123427282333711,-19.23529844638726
6.2945097382559885,-22.394489762305568,-11.224726844518726,-7.336487979893521
1.2747166089575441,-6.770897192633918,-17.39114770093218,-20.851639049360124
0.013535747848865576,-8.120844436700512,-14.18475563104531,-19.063497823966586
5.875929308062922,-5.502383930418664,-9.452342048470623,-28.42515546518778
10.148443348530446,-2.858997043376209,-8.4712227842783,-5.852059540195105
-20.12503081322216,-1.5767003763042258,-14.20448905322123,-11.631032627299048
4.94255937502132,-2.878985431551823,-10.448967668297337,-14.80024237437008
0.7472032162722315,-5.315388203082484,-14.34175709624245,-11.501808806266801
-3.608124373700167,-5.818911452162449,-12.179877290943413,-18.66346765670321
-3.8848584624311613,-8.559459655777772,-17.736077722429446,-13.108285703610294
2.8824490239366405,-2.986937212638865,-18.07475580440358,-17.46358548375168
-0.35960845656847384,-1.2423318338475662,-8.429358156803488,-16.1784875706623
0.5324073793924091,-3.2886683736941027,-6.386479387581495,-27.488404734281374
2.4166999616750324,-5.999536214781009,-9.702775268383231,-24.795390557600292
7.425307777638482,-2.6323517154351324,-5.0055225477409415,-13.1591825477909
6.544664187033606,-2.215322677931911,-5.129698328581318,-16.499069027910764
7.992964404372806,-11.402184115947662,-11.121074605294112,-11.434683370930722
1.04569379102283,-3.3694881499483094,-7.614192556469629,-16.336619624746213
7.320524175722463,-12.547089078381852,-7.545391987930136,-20.006676917984414
10.326855884917789,-6.3438436928426585,-21.476996985522263,-14.109993161069598
4.8292241472141395,-5.807906796673788,-5.564493923668655,-17.8837100330067
0.8733364545355311,-17.38446900052396,-2.720515732292294,-10.01734527776729
1.6516391678068862,-4.026643265355935,-11.730098673130618,-13.967756071285335
5.25623434097338,-6.907939802599974,-7.102327310162451,-14.977875932968816
6.48049608157384,-10.559570423206054,-5.188057891134871,-11.977259140742742
5.162138159137079,-7.309680598375086,-6.7397742593302965,-11.041727659572855
-5.800634109068598,-7.276903524320789,-12.095204959207477,-12.978978749100746
8.553228860044673,-5.330688443339155,-19.42764386747555,-11.472900882301719
11.777033372789852,-9.507307368391778,-10.071894267246424,-20.55602595585917
-0.9377611929199254,-2.3026855427243333,-8.41795411092246,-20.431087459101356
-4.607873490430356,-5.603453683294345,-6.714877369571166,-16.97323076744329
5.5781690933682775,-1.2449587522576078,-10.504451735709427,-8.283631275972018
4.26530214620496,-6.237459527599319,-7.2349769646260995,-12.442710320777719
0.8432824686971125,-20.916225644881045,-17.451783542781715,-9.68200876606737
8.224617631218422,-8.570728420055012,-7.502278297180581,-14.948195508436848
6.661269656463437,-0.6025346950072481,-12.758346820953903,-21.854187173066805
6.227726397833566,-10.600404037372464,-15.069813303711609,-12.755250274329997
-2.4755737717527886,-8.484734144360761,-11.24415586491076,-8.49216546438547
-0.6224358062356785,-3.9080632834001756,-11.220422778663938,-14.912714682932302
4.2648152844603535,-26.424745090288084,-11.141009230815657,-18.070287320510502
7.469179918858848,-1.7763926930311698,-4.62438168011696,-17.377293042995234
11.31304533754517,-5.14622682839549,-9.310273513629284,-22.34200092516538
2.326969239393332,-0.528614980877248,-4.356157114809026,-13.47851325021019
-1.0704964421735097,-10.922702703482685,-4.654646072793468,-10.859618858029256
4.0482732767781675,-7.568200799328115,-8.655207004594764,-8.256354377598075
5.246697090244811,-8.750140620310543,-13.976585573907453,-16.874493466281734
-0.49083376697306536,-8.606397281456697,-9.323873531125725,-9.71380605195347
1.6182945351472564,2.464720536062695,-8.446561726938153,-25.003865300032977
8.022136715117458,-3.855393398492976,-11.614997249604174,-17.47964886124911
6.709028300843881,-5.301418871487464,-5.642352699863105,-15.043913331293771
4.320075780976833,-7.893542965968131,-8.652833617381788,-16.47180290685685
7.530959388616058,-4.9900016750192036,-12.426639869915011,-8.848472583442554
-8.522348081702114,-9.477377633846952,-9.574856124729415,-9.957010297935655
-5.010316572514782,-4.558019598800974,-2.8164012872016606,-16.824725799933553
0.251334121028425,-12.11865773227991,-16.318276802451845,-15.100917705638127
10.228045108389502,-8.214032743093362,-10.12071878658315,-8.436019863414138
4.783645295455302,-9.0534762437488,-15.44229040958938,-23.829490472330725
-1.5520044549152896,-5.5356824462707594,-4.575104259985758,-17.88177486249966
-0.9197504674508057,-0.7611021426148978,-6.775704082263617,-21.868364696002182
-1.4489579021614647,-4.183387135797445,-3.0117976328877765,-6.768864158728823
10.207668585930556,-12.213221939704336,-7.508503658405413,-24.24242263188662
-13.151825957262458,-3.4868621564739213,-8.155262989138427,-18.420978664621757
-1.3979554269972683,-8.341509842774673,-8.607067488142121,-21.327689169589178
5.641286357339611,-8.994554895573408,-7.969524736106303,-23.747374020233764
3.944221456899519,-3.2155766994981896,-2.126368553531946,-12.37650559944007
1.4551832544855117,-2.0362270928990602,-12.491743015032771,-15.762684568945831
3.981198805051039,-2.452085553889347,-21.59514610260003,-6.960417652027742
8.899678049973211,-0.18458603594959655,-14.131171136681733,-7.408476721201515
-1.7233267308832776,-4.531697992587107,-2.6771318033023714,-12.051651094607156
2.118385951338129,0.5346977398766719,-4.968026025609946,-16.153703378550716
5.35571841656223,-7.671782435284137,-9.208954055165439,-8.765127725799408
-5.37638918314099,-11.75032460605366,-21.861260847879123,-25.72498123326921
-1.4728887411698723,-17.47368791177195,-15.14362605878335,-12.802354190812828
4.016753499226706,-6.094991155951122,-6.07786597765139,-13.058984475247515
-1.4925724887706089,-6.132134666692399,-8.342303165745081,-9.14461274170795
2.2283321203669404,-5.877457056227466,-7.830887526545995,-21.17376004719855
2.51944887912888,-4.995401751259263,-10.493939089350077,-11.186557029230007
-10.272852853387937,-10.985150817252695,-10.565132269745654,-20.533989577883304
1.712816448331128,-17.399021933805955,-11.242252332096962,-24.554873763535902
2.2197944375050445,-12.29090159727222,-18.246404841230426,-13.94634692650442
3.188676834101504,-3.158852054715986,-12.519798900988235,-16.617411576162326
3.466458672529874,-5.964856019117458,-11.258242905279403,-12.116972497461274
-7.8768217798774725,-9.311128057227933,-12.813402085237342,-8.859826201239802
1.5562269728102591,-4.329401420937938,-7.022604842000723,-14.919788891036026
9.099500209324258,-1.9758146823675444,-9.55595076216833,-15.65340773152163
3.3705095226222204,-6.086834827458115,-3.9254331032085723,-21.61606000747534
4.580507977370063,-2.7910239852037337,-11.45099114779529,-16.399716685302053
4.39918964152997,-7.833104895080894,-14.780867077830447,-14.866503951875393
1.575967986080471,-16.39405356177174,-21.35158513249475,-7.789357996239367
1.154862723528054,0.09249813595159795,-8.462799264775215,-11.73579411531363
-0.9510880716721517,-4.517094746536576,-21.383155135900477,-20.628995752234886
1.8764854250542446,-1.1842349519558004,-7.1102078841383936,-10.716145913931951
9.966255840239516,-7.400944074251512,-4.8224763559567485,-22.727279028759554
6.951149075322237,-14.43264111495185,-28.182505792154803,-8.339225016646054
5.872073127001907,-4.506859124351282,-5.005212621848706,-7.390870063394983
13.948065894630336,-5.830101914845092,-10.666861585121925,-15.910921205717186
7.494233018205464,-6.686057864837314,-10.071994478921466,-11.705720121307442
0.7258412147468056,-1.9237215474189018,-7.197845878105335,-15.422355699019848
7.45717420418373,-0.7907342332881173,-14.701388088396303,-19.85233278121528
5.975326816265051,-6.8581159777436005,-14.548684859693704,-11.35857835284638
0.45418740229618715,-1.5792669485816369,-20.349923264755144,-24.991589808883433
3.4930308303530024,-5.055448153069542,-16.846213175278347,-21.044741819784328
8.421245348753637,-5.339582276623937,-2.5441848184032825,-18.124171938890612
6.729591638058905,-0.08351864701727685,-15.692495927575205,-8.848862107522177
4.007990311621734,-9.785866114347371,-4.409730808599896,-18.320398605467062
-0.6967159428428484,-9.551061166734137,-3.745901807560526,-19.015064625368936
-2.128306057420666,-5.854730101071767,-15.13671459689946,-11.515697752265114
-2.1807961189096954,-13.98165104526596,-5.865529489473312,-14.389842265264212
8.77123790503913,-8.196361972180295,-8.654374448092582,-13.609972917604148
4.396378067031103,-7.872730649218757,-9.359758842175138,-15.158863870413855
6.063900758167526,-2.5500006044079653,-8.607372917573477,-19.529968324420786
4.8427916078193345,-2.1313301362335464,-8.413416713579748,-11.909254937175632
-0.24997607047612558,-5.8414488247628364,-12.01548084869928,-12.359976100086556
10.077197162852604,-4.715461715031458,-1.5381665665794149,-19.046872638495692
5.521331165463131,-13.994601680685818,-13.267932168187183,-23.322933110032658
9.535934585110763,-29.214126131112586,-11.353115723492834,-10.730434509334216
-2.2313048674456724,-5.8021149847934135,-8.029563656841496,-10.880316666699917
1.9884501673497543,-16.764422687485833,-5.729442346715983,-9.550591688479093
3.1128756855574857,-6.425773145353172,-11.879775919472648,-8.471351653024108
-3.412542355797319,4.754965256255204,-16.466260749915886,-11.213823773096252
6.075229424560403,-23.67865386713748,-6.824934250477526,-20.469228130269194
6.323197935612587,-4.45096900386069,-8.479934469354717,-14.67492035568059
7.716852103518544,-5.104204128483693,-12.624128934099353,-13.081852203364567
2.7716450215568083,-6.598058661023974,-13.098500651341205,-14.164331233035002
7.800621774467661,-1.605346889656806,-17.184605605405416,-11.783578998069117
5.883003794017938,-0.6751712542961403,-14.557029807018292,-5.999508359227738
6.487700945654389,-3.4458916409333584,-9.989993664798753,-20.649735780297164
8.913857833171157,-1.916876087337024,-8.214030350383382,-10.939220645616865
6.793964814086541,-11.812967343331113,-8.168571600776167,-10.645302617596553
8.600141888542009,-1.6118901829628918,-11.117462404454812,-11.685697428449746
-1.3880352590175642,0.06399042082571871,-14.93085728067491,-16.189303334859837
8.6191958204425,1.61553787729777,-9.264524059249656,-12.431314579407168
6.375589678588087,-8.031860160457573,-9.996993178174076,-9.179668607865416
2.8051810297542326,-7.556436368865266,-4.363747123832887,-10.299851503973144
4.576228553407526,-4.865965402639681,-9.61060652143929,-11.91800721441991
-1.4315395792448937,-0.8871155713400989,-6.715152178894558,-19.768888484383353
6.42785472369561,-8.499435917628887,-13.695389262496814,-22.769093606054604
2.088056653962135,-0.3972562758320475,-9.678328088016642,-8.78634159518952
-2.369392758965237,-4.23510973290713,-22.34738871310293,-9.050759658292497
-4.308794604286808,-5.417737966556536,-6.152683509536811,-11.024413761092292
9.661911258348274,-9.435753807167984,-12.530853202862415,-9.912708210969189
5.244812096062358,-12.546279378537115,-14.351827294070297,-25.677515691616485
3.228100977222231,-11.729374122268148,-13.714644636651538,-27.6077932423118
4.887336423966724,-21.92811273750508,-13.358223860548325,-14.205603377508057
6.37611264926369,-5.134777931416356,-21.57526656718605,-28.342698894594086
3.319017987102354,-9.661758001648856,-4.206448937910873,-5.591474638704886
7.418305063046466,-5.476475014139493,-8.499377083624783,-20.042916661524934
6.2875695304289,-7.690202884111566,-15.059927627996661,-18.004625746170397
7.6097076005450806,-8.813655321582402,-12.81490659198235,-7.068640681228947
4.898882929205037,-1.9711858138381206,-4.4446816002696,-13.05256229717999
7.531280905527873,-2.9952649592462723,-22.523500626272924,-9.786698463992556
2.6428496253619933,0.8546656818774072,-4.268038270010647,-13.687225044096897
5.249841964143153,-14.265153629095881,-3.252172444490385,-7.766569821816651
1.0487600142992015,-8.657323942331654,-11.784646809178058,-16.12173595854855
2.5596059630711823,1.5029777751293145,-9.876355334624833,-8.880189662663977
-23.358826106294693,-5.721245324857427,-6.9790599660133825,-11.02161749414473
3.2423271102568907,-4.27414328410474,-11.777934145944645,-13.411776581011965
1.2440660560193404,1.1129769558250748,-5.0359371760586615,-15.29774020592289
6.518615137614196,-8.641365504212565,-5.270406631132145,-8.223912115042774
11.281038933382748,-6.504717382711653,-5.066751023369681,-15.428991893301037
8.691373461761925,-13.519674169289157,-8.724232675601929,-17.87329935293304
8.423803502931772,-3.316275926105047,-1.2428135043506963,-15.436791131010926
6.352144935465693,-2.729284132468641,-2.3698755724782536,-16.815096809982286
8.858521117769502,-1.0448221027935496,-20.001530054156134,-13.765867305299986
5.174947255317662,-3.0227985557667294,-5.143181396477466,-5.909258277108236
6.964846639188664,-2.9214532841705827,-3.843458360025946,-8.30651957027344
4.946482052583624,-5.238634840677141,-7.219104135970841,-21.460178737115562
1.5289826333754617,-2.6817956829520275,-15.372515022613573,-6.629881383081363
0.0484312485230074,-7.969153509726225,-15.141851423836464,-16.85282858167662
1.914563805951836,-5.350375507193985,-4.9073231577276175,-12.011189097916592
8.988642725130692,-5.710955640611883,-5.268532199319541,-23.28498484248646
-2.4016682273344454,-14.754304553362331,-13.752305111353692,-5.0725070069340195
-1.401319230021894,-4.448479568551455,-10.018528035014477,-22.792099739604907
7.912259916102756,-9.543149668842638,-11.824756727254744,-15.42464814643674
6.899602283201762,-5.784257922575056,-22.202962994541863,-20.961295676733677
4.399655755579379,-21.28067897940107,-19.979686177766776,-15.400022893720822
-8.228384490843132,-26.386308133018318,-9.367164359441368,-12.38621306681332
-1.2049654636344176,-3.4846150945303602,-6.249047901429778,-10.816759124687957
7.860116295472401,-13.443144303507712,-15.224144762870399,-6.668111607502951
6.214119715824747,-10.685670194296694,-14.81443917524096,-25.655768794084686
1.1058645575626533,-20.377452135396304,-14.736848587716072,-14.469823292514183
-6.131876487677502,-12.913361419520722,-9.287656806938253,-18.681058592671747
6.92082676737806,-5.062274440712794,-8.817058179575458,-16.418822756966584
1.382178982753346,-1.2520886545504508,-8.851125994780201,-10.985843714629198
2.880310318163223,-5.719206758336454,-8.910465814518826,-13.162492740384154
8.415920828613068,-5.551239052322782,-8.285834561026357,-17.98809599635348
2.274257198246404,-3.010907321873689,-14.293741261188185,-10.735043130397923
-3.277573294527927,-3.8101025486146423,-6.605931719741207,-8.922055581045544
0.10755810627995821,-9.228031692382395,-4.715938586049221,-14.19586426417356
7.430671857509298,-9.601380137057415,-9.039658794261541,-31.051355194370082
3.8613716238236035,1.0690593345709578,-16.173082330935532,-23.216219471582136
0.44511560099719194,-8.410020366234583,-17.40626143407341,-10.33374076688805
2.3322174230893555,-8.225950932706283,-9.102416158445292,-12.71130479052216
3.377616555529913,-8.512257119993947,-7.516552365810153,-37.384972408401495
6.342397331531,-15.28795949115014,-4.160693065986745,-14.197880936188026
8.268833223324261,-0.7482087099499952,-3.801139697425115,-22.48339164394784
3.1224454592616744,-9.152407220196867,-19.104888849611047,-11.952183953737679
-7.548026032074487,-0.7967065397780266,-5.505258015233789,-12.21370849606773
2.5769504033456476,-12.047056808373998,-12.21998278787961,-5.948949672374285
4.525513251908222,-3.4642820433412727,-11.670254475681825,-27.84548928637681
4.346021035277498,2.0114495433975317,-6.104868908297597,-11.585162644927376
-0.9805668579671725,-0.03714161048869702,-10.940363402345627,-30.374013068031232
4.816640897312451,-12.205640690071345,-4.40496138022736,-21.18557852004713
8.330075278034792,-7.1660600365476474,-7.934332378899564,-8.676513507133462
-3.1201634697368466,-7.644488866525969,-11.644444596632253,-14.623674061937779
-4.0134463705909065,-8.643119400136282,-5.470699147839303,-23.757549862906657
-1.6254573601563544,-7.888607251146158,-2.4767587453464897,-18.790853399390848
10.179015303617252,-10.32245050144001,-9.86038746830016,-19.241717692853427
9.411687376873186,-20.6546713594566,-9.060113207181189,-13.437661136793826
5.951308562655405,-6.045765798122969,-5.310253892884042,-12.649539941874776
-0.48389080923849104,3.027791439994787,-7.086245270860733,-22.222759904817565
2.9599441857835895,-7.240866336985527,-7.960534682902562,-19.15766726528969
3.103364151409187,-14.739126950630002,-12.503811936903773,-19.872534926865058
-5.735267401729253,-20.701618084015404,-14.789146645299923,-10.819433259503286
-1.4544318878757103,-6.459447307032847,-12.475110880024042,-18.833255386834523
6.370845430790807,-11.204211715549533,-15.40610434763705,-18.654779539846253
7.194359046794434,0.018992336529762177,-9.02853468490575,-16.011351059239203
-7.992268667114429,-11.883534186258952,-27.11150650148667,-22.83871873573922
4.519106437711566,-2.224657619371377,-11.500195175728884,-23.932851344861525
6.781608032419719,-7.695680506541275,-9.406762805909361,-19.528713260414328
2.705014086724884,-21.371924708907365,-12.660188501808136,-8.338322968165727
-2.9241806896356497,-14.638136531363052,-14.379954781448088,-11.548998539047385
4.541421831283821,-1.5348285020528856,-7.355865194761959,-7.237023371130169
1.5500398347545685,0.5209544514704683,-13.78594824195022,-20.754177082884233
-3.2330516923134667,-5.962109916776803,-7.824965487317446,-17.426743661387178
6.748120959142348,-3.982464910124407,-10.065559351562849,-8.569286186233782
-4.168090378475114,-10.601861366631677,-23.089765777601464,-13.606990777549138
4.552110609626102,-11.363704915133873,-7.824468983466396,-25.10886683162245
5.870880891091682,-10.600866930173918,-6.429374269498728,-10.192560006050718
1.148284903237344,-8.758617385516455,-6.472752002913014,-8.37611392762236
1.8061979404923512,0.12388375681348762,-5.719821989175767,-11.861835213474007
-1.2803443050360706,0.11965736581782949,-14.489317189107307,-21.86374740717588
6.020300423741759,1.1114419929296326,-8.880845508516968,-21.17908699969952
-12.913528910461176,2.833918391731509,-14.942541207205664,-8.421748594625162
3.3909330847128514,-16.36515121743385,-14.591103198610842,-17.52450140662603
-27.322297977082826,-22.30973941754126,-10.673313477908653,-13.98638535573612
-3.068407256928852,0.9304321300514586,-6.310024866003655,-11.111156950411427
-2.21381091384057,-11.126923023041066,-7.17671947537967,-26.4485771903016
5.709452465567873,-18.592362955863354,-16.226947422131122,-22.76190763536458
-4.34755815211635,-10.6759109405236,-9.16057058542151,-11.91311616927001
-5.924734026567094,-4.694756488997815,-3.97687962154645,-24.441439736563375
1.0973468901278896,-4.9662879238814535,-9.501929107928614,-11.370131570564297
4.859793464335713,-5.950558609413387,-3.422825214947756,-8.938057504428684
3.62328941700968,-0.3007792419538178,-4.234183063721607,-18.634688027958205
-14.508972023378673,-9.504741804417087,-2.342086092270751,-12.068986814798901
-2.4921109786435043,-1.0084474889622985,-15.213936600482768,-17.630096264323072
0.48157348034170244,-2.1809940521099414,-8.317046022549675,-12.806430818195492
-3.7694059047138433,-14.610014808912847,-13.98408789797649,-8.553353427477022
-14.279586478992888,-8.99625119974376,-9.081732193245381,-16.741464067436645
-7.1965516503652225,-5.94932316137647,-16.63670838353761,-17.163342292377273
-1.3817307519464759,-14.549702888909046,-8.263440058416888,-14.474861002743365
-1.999732483160635,-13.390688116583632,-17.383112141312022,-8.996154974092265
-8.726924040835533,-12.110537310382878,-11.513767781587795,-10.564439293041003
2.215920804995813,-16.545631178954757,-14.743546939286691,-28.793916641099358
9.191001183283694,-5.571908645142325,-9.322242813192018,-12.433567332360766
9.598903160167792,-1.4507985138004997,-3.4863639524874053,-14.401013802178072
8.598379348655381,-7.343207327310705,-6.300356715934447,-8.796945172406312
1.29018338127879,-7.4225441887603685,-14.100584653401242,-18.88239171865763
0.7459985639675466,-9.633287200614067,-21.54266214758417,-11.690851053220083
1.001543170210982,-7.144788869782855,-8.693007476683128,-23.97790982401343
-7.709319435452208,-4.537838914201074,-11.565665336520246,-11.96556085706899
0.22240911713632272,-11.488481203961452,-11.553279875481925,-11.684599753379588
-9.09587822004797,-12.036582517793466,-14.528976937178662,-19.97329735101585
4.1376585860776025,-15.387709871777119,-7.664517921276104,-19.85959174050592
-7.919386198544581,-4.672795801862185,-4.649143835093135,-10.265689179024946
-4.849668659321344,-3.3127028966768437,-7.292424254374584,-11.42213000290447
9.60042202447063,-12.339443237607792,-12.95677567342867,-6.765627796016149
8.82933248612849,-5.415296722720419,-30.102222846253635,-12.93312359076632
9.640132370820467,-6.862444667401591,-5.805362888945366,-8.635283246534375
10.686787687660942,-6.449008305772355,-12.248111991821752,-14.458390349547349
1.8167067061507998,-9.102505549510216,-2.9564593117559834,-22.85682903899589
8.196608855475269,-4.154048407292107,-16.515024000700784,-15.285436659194927
6.082054813271945,-0.4510618274187137,-11.45563306062539,-8.87396472325387
4.4768207159850135,-31.542283232467902,-11.766552820567583,-21.532114987631523
4.135406905408884,-8.348501348968874,-4.852622875682296,-8.643314205827597
1.9393115631239901,-8.760622472894621,-16.846852156610932,-23.210871976507995
7.709907050674353,-4.389302833481941,-9.671217761925352,-7.701378633400756
3.4605491790198326,-10.531320646151205,-3.598418771121361,-11.958771148391296
-2.5209927115490363,0.10530259819268561,-9.438895054301316,-16.90272176457748
-3.8837420759031493,-3.570718230470547,-3.6207116306039753,-19.10876506612759
8.478836215025877,0.3240137030363157,-4.471579627068712,-14.129972486136547
11.873937791749023,-11.506169990683752,-6.070159143925304,-14.359755939824984
5.547720642231611,-8.167969039504282,-10.024133247210047,-26.896781629792812
7.056048782248017,-10.99002618170169,-9.373002312816938,-18.132127842155995
3.282049958037652,-8.655660525222643,-12.576312707282554,-16.391843799107058
3.1343672655521404,-5.518176408455246,-9.198170721980407,-9.412639330428789
