Freq_0,Freq_1,Freq_2,Freq_3,Freq_4,Freq_5,Freq_6,Freq_7,Freq_8,Freq_9,Freq_10,Freq_11,Freq_12,Freq_13,Freq_14,Freq_15,Freq_16,Freq_17,Freq_18,Freq_19,Freq_20,Freq_21,Freq_22,Freq_23,Freq_24,Freq_25,Freq_26,Freq_27,Freq_28,Freq_29,Freq_30,Freq_31,Freq_32,Freq_33,Freq_34,Freq_35,Freq_36,Freq_37,Freq_38,Freq_39,Freq_40,Freq_41,Freq_42,Freq_43,Freq_44,Freq_45,Freq_46,Freq_47,Freq_48,Freq_49,Freq_50,Freq_51,Freq_52,Freq_53,Freq_54,Freq_55,Freq_56,Freq_57,Freq_58,Freq_59,Freq_60,Freq_61,Freq_62,Freq_63,Freq_64,Freq_65,Freq_66,Freq_67,Freq_68,Freq_69,Freq_70,Freq_71,Freq_72,Freq_73,Freq_74,Freq_75,Freq_76,Freq_77,Freq_78,Freq_79,Freq_80,Freq_81,Freq_82,Freq_83,Freq_84,Freq_85,Freq_86,Freq_87,Freq_88,Freq_89,Freq_90,Freq_91,Freq_92,Freq_93,Freq_94,Freq_95,Freq_96,Freq_97,Freq_98,Freq_99,Freq_100
inf,11.54864288903796,0.9351056570646383,-0.10365646037320442,8.603300078842059,5.971513591910043,6.832393115379578,6.300633411054115,0.5159579166260571,-3.3562586641890597,8.133128882245785,10.364449570846396,4.596746005942183,-9.014285797878738,-3.5722809712130825,1.9665320515373637,-24.56962598794913,4.430973541898634,-3.9471606183951664,5.571533396065988,7.679935904441713,-0.6589474581117472,-7.617065486776809,-0.10620641964230515,-2.6651543930793338,-0.08739120724109739,-1.0174261826556048,-13.093976567601835,1.4558809528896646,-0.4896164163494987,-1.401184588826844,-3.6628456104466025,1.9337570107248823,5.337862322507718,2.5943599769691374,0.41877620144951067,-0.543361851450257,2.8886905383299464,-9.635025848368763,6.132211671102887,8.728694157266851,2.2292530782396227,0.09087412558484687,-8.563788670918285,-1.0603584581762888,-0.27312256577877747,-8.952738794332149,-0.4324029068199806,-12.886173941574086,0.18210213162036837,-9.473940272798174,-1.4239040530978997,-8.756749629230612,-2.4246523931881043,7.784687815927434,8.60945592148311,8.688231625244306,8.433086178566334,2.8666163146171613,1.0770373774974615,-1.2353563988045408,-4.074471747201699,-1.9154088302876673,-9.834010228334407,2.2519374177582776,7.1550005642475085,8.895694944143962,9.340990027080053,7.015241002335664,2.415205279300281,-1.2150502215679282,-0.7421269868636955,-2.388006090696045,-2.447208395227058,2.6022114178466254,4.2674259250949405,-6.206189618443972,-0.6209705377341592,4.327244067660629,9.054079800827509,8.528701373263779,8.572749048538,7.531095119994504,7.305315711927854,-4.0303421398115304,-0.8245437541307084,7.326160898224082,1.0620988705224192,1.2892591303060144,3.7869970549369256,0.8300459696390021,-0.5704825696578695,-0.7189087931574889,-18.6504067048495,-6.030955171214046,0.8168848161616893,-2.032642897971513,1.3588417731699494,6.42507764036764,8.934722932872937,6.8773795781028255
inf,13.030922454726426,5.053282700044052,7.617657207597461,12.869960262599804,3.7953741908681202,1.2867558624759354,-2.3693932526632757,-2.2592392097246403,-2.7982281901038455,-0.7427913558417494,7.877203810357763,10.747821481148595,0.9416858858608492,-2.0919067091932533,1.1574258971795928,-8.084002913180356,4.55789174924217,-2.7720533011708,3.8007517372449584,1.6868120753402067,3.0822874429066047,-1.2610918429428821,2.879920949218757,1.3867247816643413,6.298521074020556,8.100006712662644,6.651001694746213,0.5819206650639615,2.407907193119044,8.434557649067983,7.06107177501384,3.514106953979997,2.712875381437968,1.394287867079342,-1.3005536650906535,-0.3336458660704409,5.497873611077367,-2.6282137740913214,2.4317476963198814,4.504086461202313,1.2254589549997377,0.7395831449407311,-2.2599523814587883,2.8184258994344873,4.644696251932871,-4.745049118375519,-5.0312177290594775,-2.5898601127582097,3.537029252094854,4.585289734985594,0.18185768707497374,-4.42996340953227,1.6998046924874899,3.2185129916161515,0.8919725504835156,2.7262070467417203,5.650120383636988,-9.021537005308097,3.65754812021472,-1.2566190816198528,-13.347371679301958,5.8714148131638595,10.930753522227711,9.538884586690408,4.219594723763713,-1.8591067798951997,2.0979043266841586,-3.679861021232739,6.57625804324821,3.5162102250305267,2.3158624071133005,-7.394589267234622,5.639248298911703,3.8630630819814016,3.283450204126865,8.441883772341775,5.68144172330863,0.6469259206506095,2.715947665137513,5.469175480112241,-3.1156284782152426,-5.255832993310584,0.3534301763158041,-2.6610191937121996,5.364371892346888,4.909978931879117,-0.898306662277399,-18.522528462246797,0.3171229158880493,0.9421991439845527,2.758270893512659,-2.3481188130825714,-3.3997458337239195,1.9217138047229696,3.1809547836411056,-2.9067997737431526,-2.842728395399618,-2.4648084982453824,-3.931484163990376,-2.6894457133685776
inf,6.213583217405251,1.3256588163295895,5.409418020493686,13.617907951367048,6.942367677466883,9.524960277537899,0.28871241202111975,3.681292696545988,2.9387415376863615,-6.622579093215624,0.729993392464003,-1.461841053945907,-2.1727344981901844,4.950583769187727,2.750066156273988,-4.88055975074009,-4.241051824013574,-4.884770563425256,0.26617168830706817,1.226120437347987,-0.17732273945419763,-4.762141247718944,-8.008840387248,-5.425261433371318,1.1609797444733587,0.98687653382391,8.43263371022545,2.8029163815330236,2.949593244858278,1.942435043299767,-0.33546670782026666,-9.042436532151243,-3.649201429584153,0.13482555142785912,-7.826725394170452,4.647373233046075,5.916160751785839,6.271665163047466,0.4607687874065647,1.833607813378265,4.20886693407769,-3.903967113060652,4.716611949320914,1.5979092106356774,2.1119687513174767,-5.245086282556166,-2.7317328389734996,-4.954570843164497,1.9532736218616762,-1.8488274961136923,-1.8177485651086371,6.951600331773001,4.818241731243575,-0.9608511168112344,-1.8278072457208623,-2.6308161066733646,-1.3599187665429397,4.9338642373276755,3.4469912167652055,3.0554939589724697,3.3569884198535433,0.09420499929404258,-1.345589144657879,2.083999550336223,2.480304191529939,-0.1707366489351827,2.256193465034862,4.129986723889466,3.6749822006334654,1.1747564082948614,-3.290928976486562,-1.950295991601621,2.506376942694928,-11.288775116862588,5.349550901414695,4.837519315911209,-1.7317753434973397,-0.8273943775610704,-3.2622098838471274,-4.725942672705365,1.751399550033149,0.4584330731573445,1.2027976112184788,4.928549207021383,-0.010611315818636058,-4.5103199066372355,2.0834495388066614,-4.6091565854110925,-5.493978935155852,1.6486475482192802,-2.489847477646208,-7.779236162190038,-2.78725848283824,1.2225533277306582,5.7216480103684475,3.785120581000477,0.8778346393070819,2.1315545562542795,4.04139171934375,-5.20503187832562
inf,11.779226345081542,3.3413524411730036,2.2625517123346133,12.038115739535083,4.935030534210831,-3.2740222636258025,0.924395293956497,3.3273913364968095,7.197078465738244,8.129738759842684,2.0873951034824465,4.637098542463523,6.074568983661347,7.177874469207072,9.304079136471497,5.990835885948037,7.74519662596575,8.832365202381208,6.7473477950576,1.0329722956405547,-6.31366653838505,-0.6699601981203784,-5.187736521414266,-1.564118768932289,-3.030799187310379,-1.8645773187536179,2.425939157988985,-1.7004507555845123,-1.0133836512811527,-4.025368200764049,-8.551051555404115,1.8921949942679674,0.4595021977519096,-5.751576541798407,-3.470555021767737,-0.009801669954072167,-4.558822385766078,-2.1095402915261587,5.101220578050466,0.8952484942748455,-5.142922544384696,-6.7102192748365255,-1.405233845828981,2.914438356165064,-9.920480072605287,3.866779311225443,-4.1741052147517195,3.5932449840125926,1.1060066291567807,5.692663474865199,7.35924156255102,2.426463013889112,-15.492465224604281,-4.533320356552345,1.921495872274427,6.623657929413142,3.3614601420820236,-15.878130951961431,-7.277639419981661,0.6522053265513748,-6.800017357410454,6.144863341104539,7.159729878913907,1.7579265400790618,-2.86970970253261,-0.32491264045543744,-1.5853611120379725,-1.287906744591787,-3.7198561704586695,0.42973274288011964,-11.071383153833949,-1.140215319273608,6.370488136495027,5.376906085374863,3.3954510694087148,-6.392988231400913,5.245217218300937,-1.9838147236788757,-4.837714910743571,6.5198433844756565,6.604650162771172,1.1570721643011836,0.6081720341410843,1.0688116129279663,1.3104355353754897,-1.9003257462480576,5.415273286947844,6.424963085087725,2.817040330594139,-4.599975597611191,-8.242972016282664,2.797892124544205,3.1404824317402813,-6.563436299412949,-12.777793624111695,4.494081451485293,4.471630830441242,-23.513096354812113,-0.04203877740926032,-5.30505142043674
inf,9.763613355664653,-22.43230162854152,-2.092935397539887,8.379885256816783,1.6566058246917876,2.417115421468221,-7.470528424836246,-5.4981825204906585,-4.038197714194016,-1.4407974029276467,-5.375782184205484,-1.1494055024079337,-0.12745548765893133,-1.8123396392697373,-1.2940449796643492,5.705298511278194,3.15233005742391,0.15256069644741643,2.2083281261998167,6.075874845522151,9.025299689355528,4.720433496987919,-12.70919484871007,-8.657140064589463,-2.8790390753901747,3.8737347467404035,1.6100058996324833,-2.26679704341732,2.25507187407144,-3.768106206963246,-2.73130467496771,-7.489821060626966,1.1477858701101624,-8.863330701198613,5.7522319101287,4.180893480579826,2.8307313442721735,-2.389604630482836,-5.354527346352668,-6.996790268432875,1.7902756000660034,1.826168375762009,-7.031580933808208,0.8589478903061405,6.042503368582203,5.725640991304665,4.77255229009927,5.207039829768405,-2.548700412948733,-0.6052202531174942,3.5753973136867145,4.744940103239614,9.719457428171516,8.931562643400852,1.7788139833890853,5.508714156315534,5.462965033207723,-0.5540566080931555,1.4237525355087826,-8.017366060191286,-3.917856652623122,-3.205152843122079,-3.3053107589513786,-5.745521426063185,-1.2711432873032678,1.3599094283847108,-9.172398566118574,0.2413657258467481,-0.412103316829068,-8.169019727754687,-4.2832030305915225,-0.6210919914199877,4.318055020911089,-4.456608641268552,-5.619311854349114,-5.54225104977413,2.1471007091899494,-1.216919113397033,-6.411291595479192,1.308014978590542,-0.4127073363078537,-0.3557348759504535,-2.1346347227899756,-1.571973031116606,4.300692173404933,5.298221360235978,0.6817146593084971,6.839048915147515,0.2690860225197369,-1.7707988695917365,-1.8562817191578844,-8.236056379795293,-5.1043094742793045,-6.920960156805094,0.7191649202731156,-3.303483144542639,5.347307776960491,-0.290094900011141,7.185354359536866,-12.117299647477232
inf,5.917858196373384,-4.822736150191249,2.9973444443434705,12.008982703547609,5.551409540670928,-1.393355845541155,0.08652061238328912,-13.212428574703196,-4.775272721419139,-0.9688236242314971,0.4626141945454023,4.558007471482899,2.762329656969815,-0.5265124606013813,-1.7026869442579908,-6.135969355863928,0.7989806493380271,-1.532549138317215,5.0596730712593185,6.916143556416429,2.617879424566439,-4.020356911869854,-9.867933657061577,1.9514660843744878,0.0070460071839022476,-2.405566678960561,-2.480858636542443,-4.799363676443463,-8.897736426848063,5.611353446929819,9.149905418035864,5.6149463625159015,1.7191332605711196,5.898646045279399,6.345587980057779,6.427484763982072,4.787828535153224,1.8776103769552392,0.42582756035128,4.17070358334945,1.8540330098167885,4.46936663295503,9.809945023618372,7.727710389768909,7.669344286316836,6.6336215658406275,9.089774605851908,6.942145283090191,1.4151663412095061,-6.124763495870781,-5.077084533045834,-4.480354795807706,-5.396890052302666,-10.216958497624283,4.513430694602654,9.942425894723279,8.38331735190728,2.7415430888229864,2.432415297576057,4.216524845016167,0.7699512022172712,-11.964009233496888,1.4750645597440126,6.7483981649296325,4.179873146585884,4.59258554671176,6.361815452639732,3.632231495318017,1.9931302367857384,0.1863635392968419,-3.053841965507303,0.9207551732397405,-1.2208732539011464,-6.713441370150804,1.356950185362777,2.759995096111119,6.0711614861119685,12.434395192527063,11.152495843649334,5.9425184495421135,4.567981367481401,7.245891681635335,5.354851866852215,7.126091240532155,0.9569919844889938,1.649564745074045,4.161816400364216,5.379026582402126,4.701184023399151,-1.1379672487877528,-2.52528191534595,0.6092500287614655,0.9153571816141124,3.5626869640143894,-9.49800939728523,4.970861096194724,-1.1720763157812968,4.991152180869335,2.525450577487561,-5.092149731736676
inf,13.453168703055596,3.001711773387462,-2.970301609738323,10.779335096547142,1.9526072615113286,-2.621682051788227,1.0283153745955431,-7.769018518789615,1.3265323556062008,3.318874041972304,0.5134411817275861,-17.283827907269707,-5.586268722813575,4.154257235952084,4.278096773411633,-0.43380118099932474,4.180357323244426,-2.9113026881060975,1.128899563004893,4.981030040619089,3.83727736318259,-0.4218129259153045,7.340309521177254,7.682001396983836,0.48761530913802886,3.7962971976516187,5.417000033891519,-2.3074552472891554,0.9360922978451356,0.6886823497326944,3.26470323226701,2.0295398224517385,2.0467028624749375,7.643448978644667,4.5452777990563575,-1.3403093013176317,2.7379238940765234,-0.941276267266538,2.5496414587805702,3.207302682734202,5.34195488174533,9.77112981990392,5.8890611391179775,-10.066385727644388,-8.42022944148598,1.6837775179939385,5.101481503649097,4.922213041202511,5.344659847777159,-7.823375068285408,5.302571993922292,-1.2098726458454436,0.8216400684821323,1.6538621370154516,9.392541870714595,10.285785765998867,1.9912913336406035,1.7999648839670712,-2.833750361630983,2.227934575785774,-0.7398241505860028,-8.192250452333816,-5.300811582247164,-4.784663815581986,1.402776045801275,0.6405255493601487,3.9967738392958907,3.5306690762905575,0.6126648370919554,-10.354091572293619,4.047489144703562,1.4854403404806718,0.4882357586601742,5.760783617864092,4.926519651046306,-6.479219353082534,5.462503776718911,4.57069025436261,-0.4930728529980257,2.9829148095497118,1.2439781573709894,-15.879824337121697,5.054823283835269,9.323552631873376,10.06688688781221,8.320494831140266,0.5407561850284495,-12.771393930077366,-2.264862568349699,0.8201620277556216,-12.654029979941178,3.552955713712308,9.562302834922363,10.342139298225689,7.3022187338863915,3.887484550965347,5.594245524707112,-2.856144288780392,5.818286653592011,2.722362954556509
inf,5.252948219117918,5.048580345608531,7.2833687249578105,11.14085503154655,-6.945997023235602,3.2613139420849713,0.12019640715886126,-12.467833183309004,0.9558029453467434,9.416239724501384,4.426610848653635,-12.671709103658468,-0.5002871048040767,5.338087599894383,6.407643808141273,3.1931645535823066,4.770174215555514,-1.3911937444493603,-1.9724091636628174,-5.286799295586299,-6.145433770164708,-25.13067976579172,-7.597130459039377,1.6184366163012953,-7.032503332897122,-1.3188835981709985,0.26744170929603683,5.639710740062853,0.08150738494992282,4.144018540539719,5.406172418951449,2.488922680718744,-3.2370361410329807,0.9927538982790125,1.7681361821233637,-5.414668584368023,-0.3755322704691366,-0.012679834805545909,-2.0886037130303947,1.3584535362630135,1.5312640754934606,0.466851047809115,-3.4194777259584157,4.699500922165562,5.119526376609947,-0.7165127967133813,-7.788059709208795,-0.5271693122739052,-4.60120225194796,1.1698146826428797,-1.0188847345119711,0.5335375838686716,5.160052574033557,2.7356731133177377,-1.0812957786817492,-7.820433968737021,2.1062004375968186,2.466232060517129,-7.228714246649048,-1.4678165194042734,-0.8877134428765103,2.8317445642726327,3.927849492308937,-2.563449871592802,-4.982935222797977,-4.941214402962885,-6.359480136106598,-18.863119843923165,-6.159747463100835,4.351211787801951,6.034722115388973,4.069745272007779,-0.22002905864550826,1.381975487182892,3.7376527023673134,5.450628635763955,-1.2327418123049156,9.089027582826013,11.548332285061733,5.260981457449148,6.552172126463503,4.417276045620568,4.394415227543924,6.823800749981871,3.2854272084198684,-1.984101203655193,-1.0797373245506279,-0.9013507105857883,4.816697100827348,7.143640633230575,4.72638313375009,-5.512012420275468,-0.9386651235380512,0.7615477663566352,4.753092858636904,9.902414495062246,8.983121664435664,2.165113842426969,-3.164774520747777,0.18193965393501088
inf,9.215825777832332,-8.263766839475133,-2.8747770418708205,12.084047051279775,-13.376294372086598,-9.826580093011668,-3.7566586966873565,8.391730908296545,10.288897930148458,2.37699953073756,-3.1880810974790137,7.0828035238227045,9.845396975723705,7.962936250130472,-3.820339817151968,-7.59502744298635,-6.191242174474915,-3.3549642007077196,-0.7143201716673175,-1.0292540909689833,0.6866869861100113,-2.897451858261711,0.42222553806120544,-3.432694564069827,-0.7408497875311468,5.596578410369844,0.6591839721972832,5.153357570934695,2.448616347224913,2.8744950037738235,7.477866944275185,5.193881637190167,0.3598440932267408,-11.889757411909912,-7.356958193453615,-7.053751323149733,0.18839719837026792,6.445324194614564,-7.922727259419901,10.849196382057933,12.466100097908672,10.504039544656226,0.7966653964372341,-3.2189005245017626,5.154055716601725,5.8162435019674135,4.357579640767611,-0.4721572087856174,2.016711214639699,-2.362672875686364,-2.647888286597727,5.1563634646337775,6.678903001966091,2.4006300326084116,-4.3697628658590375,-4.9895564186615715,1.9571513058745822,1.8209011962611399,-0.45155326912356486,5.2489031212266894,7.5563840244716545,5.039341587888494,-4.648829073484961,-3.645994241652083,2.6369628178798195,-0.06385894566910366,7.660453641035581,9.08220831404386,3.8199468171166373,-3.1805463838347947,1.7091580424309498,-3.389659066293916,3.607123118316487,-0.13444756749405684,-2.483055533307706,1.9467083000160912,-1.8075099572237505,5.253835145387448,-0.028437715730163404,-1.9079620278046434,-3.5261504232723837,-0.8354350208992614,3.7684480387069215,6.452689505932916,-0.2495498237005478,2.988517657044895,6.507275028256068,4.839674912575134,3.427138521310212,-3.774683094002313,2.0671186684413314,-0.06265080313934135,-1.2084743758194065,-5.717908562817726,-9.406145687011573,2.7139912800671553,1.9736067608475167,-0.8702480539698101,-4.982388668476709,-2.0427931409711846
inf,11.109789937795675,-10.002911928523076,3.8931845529760363,17.816117689101226,3.0216801029833533,0.6635460894162435,0.5086746669738034,-7.971938863257691,-2.9327244782485415,3.156426991422695,0.12228681220780757,-5.828669881492434,-1.6800334109812205,-4.547780787999102,-8.37883932390308,5.291906406869927,4.639825226434304,2.3880560383815634,5.465990392380071,7.000999087552238,2.1278531817463175,-6.8967972569613565,-1.1592181464727318,3.1499567623091664,-0.14926608829327392,-2.3406140643422972,2.593976157868532,2.272796688324661,-2.362814785934809,4.13982587128293,10.35409435131146,10.726886821420674,8.413379692291038,-2.6548623415376866,1.8169605259981694,2.7324308887496187,4.752613958757685,6.017443046025413,3.1093811402855565,2.43928410664828,-0.7343334984472492,-0.46557717258153275,-0.34701865285313005,1.3612651678335723,1.688511445363062,8.429041966615607,3.7527014433540486,1.542880570342568,4.049401668238467,3.6987028548133694,5.972857274837132,5.735071770627634,-1.1956014316467574,1.317330837301263,2.5313311331423165,-7.921803596689969,4.378148626724489,7.971503904557828,7.584184176375764,3.646574053558588,2.921150489534469,5.31295282484254,1.5650710324284702,-1.2794234431089322,-5.387974842634257,7.232451410563364,5.262285675644556,-2.5089041366367084,-8.734904377813443,-0.15716914516883662,1.9130592489678406,1.1574288232675158,2.320600116936504,-4.342528869545191,2.0340097203346446,3.8419744731410717,1.784237465411863,0.6850353467625965,-0.0749147820748135,-0.8941415766870833,0.0751742108877167,1.071500269190075,-3.8727586290047,2.544146813491885,-5.042700475622958,3.052692471287976,6.013331554685145,1.374899606573237,6.303949635895314,2.151573496465467,2.80757519614189,9.606771332263833,10.989227714531332,8.772373282078753,2.3991324326572183,9.46947916471975,10.432918644822138,7.3601113164011664,-2.058144956434255,3.026977969955574
inf,-15.745927140394421,-8.037501798782866,-4.837691408830252,-2.3418207107754476,-2.384905661422625,-3.192376794703943,-3.1095202411202436,8.109421254955663,6.743906271518156,-3.5633654406389006,-10.18022799195905,0.27430324259198713,3.3656087061128552,3.7542041616753146,0.44428769151362246,2.0856745916536283,5.884112709381199,-2.796501196675173,3.294601909522175,1.8517479885587065,5.691694031481724,2.9863192330118835,-13.060324381462799,0.8409645864448834,3.0701696315735987,-3.5060855745616024,6.1318930969978815,2.8302611754995013,-11.150434488754783,-5.095116481085171,-8.811359461279089,-7.882208231949882,-2.4499472401877185,5.314549585919998,7.661614311079951,4.1923606467851044,2.2265366469641705,-1.7358655933353617,2.1747459868907413,4.968428354603596,-15.576067484558763,4.989097832173407,7.693876821945565,7.495691361016547,5.1007760956830595,-0.07926121044108925,5.976069589877248,5.324354621187027,3.583011322430025,2.5751974793337595,-8.730269290931766,-4.194433133820134,1.8543463700731948,1.9798027968668492,5.189378987240168,4.76864788428631,-1.2901078228510627,-1.6296251221695783,-4.640401398790225,5.129342206931497,4.787618361123471,-3.302445667175242,1.1459434690323391,0.5454476019481049,2.5106891138007867,5.207130932563743,7.63936862812993,6.872663600555612,-1.0810320982660144,0.1362008929772074,6.723716389380627,-0.2224011060680695,1.4145233583878465,-1.2684247684856373,-0.2741663262111018,4.142725459033507,4.984901765519268,4.732877010690686,5.5905206922788295,7.74259312781021,1.250256028766735,-13.492767303057121,3.2916794618477994,4.81941965385996,1.8326881329788804,5.265439701372735,-1.2309576018681199,-0.2495145751733645,1.9202507862613984,0.46844305926774865,0.3014465987062138,5.783481809741453,2.0953584669101986,1.5009883030992768,-0.8095363746353144,3.1558337040390825,5.8375957014294215,6.357541195649411,3.66166726407738,-5.9957843317500945
inf,12.645662099124392,-1.530777944637535,-3.592953960236069,-11.375218514885521,7.213087622684164,7.730541877465992,6.934190201030013,1.5117026398893714,1.0820501062250365,-2.5310119033273857,1.9454274580966953,-4.415858929994638,-1.3138659213349193,3.8410375582823164,-2.869324548296987,3.988876352286013,-2.236385782776999,3.711692919359063,1.2107365803388461,3.6728644660920686,7.358158018149837,1.748987875815729,-1.3464958188819622,2.6019345034616634,3.688810347392291,-1.8449567808152239,7.400562428648474,7.19242420938723,3.4272276194325286,1.7587070951939694,2.662850614229967,3.7335168756800527,0.19212289632396562,0.5964141221119306,2.0747537395342235,-2.8137741967890406,0.5144068450646913,2.8375889475726197,3.923027054093417,5.4195389375475,0.8106533747150948,-19.378351089128486,-16.911010605034186,3.0295493021183475,5.485484061541861,4.231808878984751,4.579768106934992,2.1142769700968387,-1.085851698018196,-3.6879148179339083,-0.7991961148161764,-3.9892960028835702,-0.606824235422394,-0.677992322093047,3.1260256062058005,2.4955468805747785,7.03691119331188,1.16044959795245,0.7212609880444987,2.2185236708096028,-11.700937221061743,-1.0697114497704092,-4.476411964401365,3.7377959317273906,5.909307518587468,-1.0853602268197307,1.4000030127467795,-9.25799390756702,-3.316157183079838,-0.6874166629324421,5.2415975826256584,-1.25481302494957,2.846171206254539,1.3065835235195138,-5.740268140974408,-6.193537267464443,-4.849377074130466,2.9198722202527847,-1.2581948915258039,3.313551618730571,2.764834253031431,-12.306821389672507,-3.4113471860183253,-3.420801682781324,-0.5034169188378215,-3.3531238035891278,-6.487088942175944,-6.218734365291496,-0.4832793228052026,-0.06601658643997155,-2.0660980057543483,2.2107222058750082,-1.6562776268617512,-10.084305932294072,-3.0435262241941956,6.424546015881859,9.944269884313094,6.502815605257489,-4.363376080726262,-21.72977473590349
inf,4.075402728627955,-15.466102973697476,-4.4354296875175345,9.662595030535787,2.4985479589507875,0.695166442785748,2.724395669950937,2.626415723809682,5.447798020401937,1.8768914209451388,-1.6176136116362088,-4.4247307585219495,-7.530939343578925,-12.492926422434188,0.21124144053968763,2.8811859246095075,5.941599596869011,10.030699450298911,6.7518539396785116,5.539918538449186,2.9282230960570743,-2.8363849100743153,-0.5937878343378316,-0.33105589271861646,-5.4777664005110225,-0.12063992866452367,7.081692826168414,8.39322089461852,8.956333425444477,8.10214762218796,4.849374836995551,-12.251652500885854,5.404946236841575,1.1700812479059906,4.351959705536757,3.9920240653484456,-0.20761973136452383,-4.03128317031922,6.621538261325682,3.79786295215591,1.2639712592311554,3.880248380966478,4.851535771910612,6.786844084847949,-2.0656338639471414,-6.2209966381995585,0.4875112849811103,3.4913497424871593,2.515328340357314,0.5217323813659931,-13.582975929005777,-1.709219006007551,2.3113897894024404,8.264506243191185,5.598311042308069,-1.4330246026715372,-1.7452470037278687,-6.327639207063918,-4.942699237594951,1.8733895178493682,1.7966455298225625,-7.1224559467652,-0.40744450952377775,0.4122877689836386,0.06334737222088194,4.116849947699237,2.406000856579631,-2.3294174294720236,-3.0166183697156583,-5.4126785139018025,1.5982785728171223,-9.525815560268015,0.4156108519384034,-2.5304743353432784,3.8605283027104775,-4.0804966931086,-3.826126832652754,-10.454061057552096,3.9813251773799863,2.627626762326102,2.22278250257947,5.225021680349492,2.368524254666326,3.1075427788199192,7.1598943236016055,-2.101429468119626,0.4095385125636568,2.898918901142423,6.413043837365834,6.083281231144113,2.9642191382917744,-0.32791492295154256,-1.8627516090851515,-1.1097275343875168,-4.178983013144979,4.156287575519713,-3.4011626652458204,2.3341318051836524,3.8948214170183846,2.379638257313715
inf,-11.639026127183875,-6.8768637356727425,1.3304729416148815,12.437861585627601,5.884610126263382,5.569094705806339,7.257611986955027,10.175332617090191,9.314771835787234,0.41633010936728354,-1.3233652066860913,-5.216737220901347,6.368553521379926,4.82376554726806,3.3776748914497716,0.21717123441953845,-1.5763707443315838,2.3314106738663014,5.744863828061273,7.669259613717799,5.949778533771546,2.171334748474976,-2.4389500409161755,-0.9109540809494021,0.9574403457057414,-3.814765691974152,2.1634222633871545,1.9827261272665169,2.3982829962103978,1.6861087924385032,0.08670128697811208,-20.56490354334256,-2.1193301821820967,-2.4446392987317083,1.0342094986851649,3.3058846745530346,6.855317102101779,3.0255248900473717,-14.36132562121496,-3.173064290495219,-18.447937468743753,-4.627431720286424,-6.10477251112146,-6.041603830823249,2.057528418525017,5.418268076469701,3.6545978044697804,1.3057426388019095,-0.941990891030791,0.24140277293377466,-2.958924752333928,1.5607296728618394,6.168685660320314,2.3971194993337903,-1.656410820945652,-1.6019338388561195,-0.4729560391296346,0.494983296076434,-0.17652794863101207,2.8036594235081225,7.884661403018221,9.870652028489104,4.443357114922733,-3.4963530891249164,5.1052969993575985,3.98722017948392,2.9285810194070194,1.7078647058286194,0.2565954860959181,1.6124630811882952,2.406328963360643,-6.087774877427208,7.74401572817473,0.4860489490392297,0.20985275018568927,5.301701581582094,3.9267565511968243,-1.5642813210713058,-12.957050105459082,2.1402353443847915,3.300692603468633,-3.027168411986132,2.7019601813678165,6.984132442979622,7.70516134067546,-2.353808219094823,2.3958769424991075,1.0793257597003532,3.2545061590297877,4.382369409268762,-3.7256555125486273,-6.276811030799365,3.9716196059021414,5.235936606900069,1.8973372701031934,-2.818364282284527,-3.143023010737437,-3.272512056455419,3.967211065942422,5.104980029118877
inf,11.01493027206324,-1.1959184476859863,-0.011893262589290465,12.126410316109915,0.9712542385207854,1.718792482339314,2.204456828053491,8.128149987871542,5.989876222722401,-0.8675349145518361,-7.624988484501614,-4.802897994314048,-1.134904144576904,-5.933312395287892,5.678247816527804,6.097078643801325,-6.774794426191455,-0.8586122795660529,-2.285938093795423,1.4178940569917486,-1.24698275154676,-4.168575320063809,1.54380242051554,3.0260715358676933,4.8116980470480115,-1.8876693088313274,6.1213726682812,8.37292896810795,8.226057364411218,5.595184521213767,2.0573422080909296,-2.767248410541903,1.9218743853520266,0.45649970864925393,-1.0079035631945317,0.5486114254800469,-2.1013742059238467,-14.420745620297339,3.0695911865086103,-6.484506154837106,-6.812540481458754,1.978752063060405,2.6637544428621496,-2.5019055154917567,1.6111300635730004,-5.702165309951056,-0.6681465282602517,0.3457946875890556,-4.888178435416023,3.30380613506221,1.0131388744961,4.510416040900644,4.7870639773987165,5.154505978910528,6.3130645810356185,-4.0478027516464365,0.3340166888803111,3.6990745938989704,-12.4023842662209,-8.970827950600338,-2.0559779275010186,3.684214584438429,2.674711834980897,0.07967020170511319,0.6921086561011478,-11.605082678874183,-6.442429115272255,-0.6057483149570828,4.134592749317861,2.2092134128836918,-3.5141471385081786,5.6948365978661215,-4.270268717089813,3.7010824722432503,1.9955412905521186,0.9682454651210364,1.8632273443221834,4.166832243026704,3.8850934227003364,5.60527249141694,5.127078405975162,3.898645246095434,2.784917391887838,-1.563032318509613,-1.7659538618937276,4.8306058902688775,3.469492588973118,8.18168344646157,3.104074214523422,-0.4102704316484491,6.570397541519412,5.965596644976031,0.825268040448293,-3.3711544672406717,-6.678802263662291,-9.275950524180288,-2.287195077571347,-1.6590420003883892,4.125446140077557,2.057513243117924
inf,12.179847265953327,4.215786704635997,2.936163564119886,-11.419840795764305,1.483105036098884,4.110292367343895,3.612058909228793,-3.186078200761152,3.5941189027228155,-0.260890848086639,1.9840056066728593,4.848969089504092,5.627537341303842,6.264301692126317,3.003608074926536,4.127077185563895,2.6642672965322127,-2.6685199803058737,0.5303502882350841,2.3669907979194207,-2.3116263441431926,-0.041986427696187434,-2.0557971378703144,1.4894361153445956,-17.585764039217096,1.9421204939987788,-1.719692280634142,-5.140814347176978,-2.213666800254103,-2.386889726608217,-7.1563748482947105,0.17647397109742968,-1.3988855689911475,6.105990181554887,1.0108095205726073,0.022508691621780486,-15.2723126025287,1.9530405192068017,3.2628331093801677,-2.584086130906499,-3.7351170923145673,-0.999070304692971,-1.8328289579828692,-4.418529297593274,-0.6190601782186889,-1.9260129430915498,-26.3047474588014,-0.8701132485462182,-7.2979292024218765,-0.9182023169049032,-3.588727355510251,3.082207152816416,4.193284666239187,2.3554595106365284,-0.04660599453437442,4.376008175575208,4.9753577741504955,-0.2953429356892556,-7.324316565809191,-19.21354544904824,-3.775702132264186,1.4812609728026658,4.167151440871457,-3.034031157285341,-4.515809105214387,-3.06038414108005,0.8498974875934167,0.5043875907453454,-11.278735696785098,-7.234638477524776,-7.617203240238332,-0.4226449689776004,6.875278224088959,7.198843692874341,-1.5866388128132627,2.6786960923457457,0.25247494056363706,4.179624586426911,4.134175243207977,3.182451794135602,1.4367198879485485,-5.33436274684648,1.889952629406693,-4.430051639056948,-3.9780947298346305,-1.5714313184113635,-1.7336583907935434,-1.9752586259759468,1.2184186022979517,0.8828265988558144,4.325495173453412,-5.257375444452762,11.297577995969597,9.50110717918831,-0.7290209630006146,2.465265436602607,6.016783249912834,2.1890048505312762,-2.2296581739061097,-7.189625409026107
inf,9.391556447975898,-2.808223431642611,0.379479244736431,14.725048585923787,6.121092827541954,5.68632971625442,7.5181616667675755,8.451159110771862,9.300842355702592,5.431860626926024,2.803675395500008,4.593136753134356,-0.5654229884053414,-5.958077895993725,0.7067237950387479,1.9495597740839479,5.298649274683402,9.755312458607303,10.739069281449154,1.8009556166477907,1.0060501408288403,-2.1473032868109527,-4.518024032667924,-1.7295300358676968,-7.61938511631697,0.9131856511128404,4.799372731478698,1.3359142215934767,-0.11924899169606107,-10.264357052733601,-6.622930770527169,2.386553479544112,-4.485832703251681,-15.154960491033016,-6.340121961969551,0.1170547823784105,-0.9429853008525129,2.86760157059944,-12.887118475896521,1.7645015944441838,2.2285629142253427,1.1550512496129812,-0.8960117465466979,-5.331119171051107,-0.3634475415663445,1.7321009727056662,-6.271464183884305,-13.868720596092373,-0.7116388723705214,4.330055429962798,4.023863177204582,6.681121885092999,5.709267552397144,2.1360653913909573,2.9318534982189774,3.7104116345874516,6.516934859457997,6.46007072646271,-0.4032935549036978,-14.961626392161392,-11.910756893050525,-4.672639106617524,-4.683375951596879,2.2215645698119815,3.594822408435455,-2.495728042676319,-3.3360582029700083,0.13436330665199137,-1.0247351049639377,1.1816686330149508,2.2420049772096604,2.4181389040799672,-0.04340408979476251,-0.9821491228229178,0.9192137245463954,3.9360090595930544,1.262760706260643,-2.4750152951006683,3.5638149339976337,3.362194685471998,-5.5972759592068755,2.0094403239586995,-1.292911000091415,4.391015456525601,0.6558365330464042,1.1233410879754189,3.415135680991895,-13.508257115381639,2.9492972479026207,7.075351578621962,1.7568555715113945,0.47035782606371157,-3.298527959646627,3.934285479965041,4.037255759894194,6.532105248894965,6.077324896011319,-1.8246197313924526,-0.061766862535421296,-12.503007738649735
inf,3.79544453414265,0.9178646666291761,3.096544009268087,12.509531389658356,2.868926461708206,2.505603698851491,-3.5519708338101985,2.2256565176990293,3.566901492894118,-2.4980792504746283,-3.702298793247465,1.1021555975166741,1.3202663878903778,5.28909534000168,8.060750861979894,5.771011759652765,0.6149041563506472,-1.2005869220864511,-6.167392858584506,-1.1271234205019098,0.6454424172973887,5.031990710914883,8.847645964423073,10.163126448798064,7.306225760808523,5.113113953942118,5.785598603108539,2.8160260861750785,1.9685691775716805,6.10060639891298,2.8936188683935313,5.638802688391095,1.7601339729285925,-0.8094762588687558,1.507101127307287,0.04445295909363978,-15.222296702182476,-3.6604368527152573,1.0390623627165994,9.767973917148169,10.74617189093312,8.690900561332093,6.324890356208698,0.6761871596047229,0.194253625809921,0.6294878265669652,-1.9352196151633052,-0.5056946293806703,3.87545024734775,-0.4596607791816325,-4.864074376932933,-2.00573917420337,2.302594836203852,-0.07938379247683969,-12.459514111871265,-3.116618888903318,-7.06694413523428,-9.463483549232869,-10.187336797741956,-1.6263885067391683,0.057372596343654436,2.1488562883915705,7.528798357382627,8.300028926863085,4.753157714893511,3.3013840520770614,-1.7844295982248255,-1.896673785732439,7.141560180443143,8.013722485010732,-8.587429927766266,5.25761055148206,5.011382349223382,1.9431441614179121,4.557631428453334,6.369657361611502,1.9429749807865946,2.9359024536249834,4.994652348043125,2.192246471504042,0.22289958520111242,4.428022063097977,5.339332923419704,8.502067007459772,6.368635977739835,-0.18315724411842638,-7.252254539236191,-6.233648292037138,-3.005067628298505,5.6615231684435585,2.537888399230525,3.6430374580057787,2.8427605688660122,1.955199108187216,0.5174935255194342,4.711095552368633,4.821920043784999,1.8621969218712096,-8.594278785650069,-9.313928678721076
inf,-3.2881130061426163,-1.8571009519607768,2.179415087770769,9.184107487396586,-0.13232022627649798,-2.228485857828158,-0.5286692884037016,-1.46751426996315,-3.393616983798431,-1.5477217385986854,-7.1607956362148215,-1.681252093575889,-0.8488973896419303,-4.508227450409343,1.8887132725376468,3.8689354971118064,0.6274361827887418,3.4520958695263033,0.8806534899600322,2.742625607567888,-3.8917220532436048,6.1488782591227285,7.251025523106641,7.439032837536189,7.848467008291539,0.6924553250661134,3.2283379006942354,1.313926576856069,-7.480733484024469,3.221503594342572,4.47014605588749,0.05894692891388331,0.5337285469202726,2.750279883521749,3.8224581615395365,-5.575533791753813,4.218155253432286,7.239751002306171,3.5211475780449817,-22.315651188425974,4.176621067410629,6.358149447385607,5.218256694035773,4.701286250920745,6.874342910267806,1.8771296171929137,-7.528185752657116,-4.927778804182147,0.9948121760024051,2.8294014847983107,2.157497300560678,-2.636187276563284,3.493046328365338,6.146061495074946,-9.392875692189264,2.4829552076964774,-1.7719851410993783,5.199025964341324,4.280515658188904,-11.360146948289483,-5.782790743380957,4.192413659685563,-16.81234722631934,3.4958586563095295,4.064528784091507,1.2598681889449423,-5.123327820655739,2.9490615392704242,3.635936617895723,-2.8087184960076144,-0.11720207970443397,6.690755702742997,1.9809556335652516,1.469965978558733,6.3356350788847635,5.9568325865715295,4.358961669686643,8.794088179380537,3.9058155878837226,6.998757127707989,9.706570206415812,4.455715818574511,0.4156222492584263,-4.210720007266751,-16.97784849964578,3.4400673829074933,2.984278094518558,-3.945908675701382,-1.5681828927187524,-7.511673478215087,3.8474338502942516,6.077597209675567,0.28044549495717064,2.8251550196868465,3.357987268160329,0.8932777215958012,3.619629607932012,-0.19078072788131806,6.5197316217324754,7.203124334548448
inf,9.365686555128134,-3.696323874432776,3.638892526217795,12.358203789523426,6.504995488203768,4.011693474726918,-3.3379794303462234,-1.6399935426423369,-3.1406910421587533,2.4320771287509153,4.543282583381654,1.3723808278487013,3.832756323658998,3.8651249273443717,0.13867687672334483,-2.6841207438097285,0.40195686921276774,6.014299424463481,7.396598649812844,-6.341838915602224,0.015592450732647478,2.1230820033316817,5.600967300278576,0.038595566262905834,-11.46409257557751,1.716938403575604,7.15730936022014,5.611089975380089,2.120377498156479,1.1366163866247234,4.318617460021798,9.0395149517459,7.821495670277223,2.535253713845883,0.8846563674606713,1.5706484555078646,5.668014387443968,4.726991297326904,-4.828640661988935,1.7483461494646022,-0.29684717490716395,-5.390053671926275,-3.8444755519075713,-1.176269705522948,-19.873031766592817,2.3407078539156814,2.8777051325754854,-0.7946339886685223,5.411315558680535,-2.4547831071595283,-4.435511364092555,3.0663922000799033,3.1248107624176242,-1.884847210829946,-3.8620272193787812,0.34558261915663735,-5.47357576806111,-13.792504600293377,-9.415360024727022,-1.9629205228097177,0.553385373431226,1.3088023585766706,-4.40813096284819,6.1746592115294945,8.123471167468601,8.888858331780305,4.545083292148071,0.9286696364037041,-8.936549902911977,-0.47398663823265963,0.07967140758489677,-4.8973590109614165,-4.819344638166143,0.15900457778294452,-3.112991256301129,3.414579741079635,5.825052053114618,3.6379361078498036,-6.721310999731401,0.26771801935309014,5.117964838532679,2.5781933540439397,-3.5007734415799803,-7.023152800304494,-0.37205589069982636,4.124261008387826,-2.9194706473117407,-6.883039722741785,2.7645307636095637,-0.9160949414414716,1.8543080067431674,5.351027190528654,7.331400794180112,5.1029834381414005,-4.150161162345299,-2.834409110247151,7.343932053623746,4.297665432143965,1.0494240669684842,2.4694622438503018
inf,7.610349170660381,-4.260116707010605,-2.058198586430806,3.729672478691871,3.502708010532128,-0.395449618027758,-5.590164090282279,0.8741715921740578,-8.961417095799053,0.8301430269895071,2.2206422192960815,4.2594580173574705,5.530113700891722,3.346014315070228,4.557898588336869,4.700106657498299,3.7689959471072427,6.399950926635427,5.3813588722748165,5.201743208795765,6.292739879566973,8.374874202918988,10.515950729641375,4.741132277233795,-1.127470441468077,0.9847169690244115,-5.553249758516699,3.537257337967958,5.533259317444092,-7.138513145013114,-3.983392163966549,4.806137611094144,6.984608680409238,3.86493151690766,5.781322338764838,7.068128827815961,6.192175920592426,5.539307140941631,4.712346321243764,5.5348066380469945,1.967112398160559,0.17391456211079515,2.2522185647969195,1.9696997555782332,-2.8274038553558825,4.053687869875098,7.5209847834809125,5.889366098635065,1.727273251596003,1.643860763555125,2.8262140277070245,2.7879203099867524,-1.0538676539986795,-6.1912220096046084,3.36592876021993,3.6712295217416937,-4.148362278238224,-3.0029770465277394,2.6775058006939148,-3.3856790748547425,-6.469685889377956,2.6432153326742522,3.129944639159895,5.162483562265258,5.908255245069711,5.263863150020711,6.909953017375017,4.697994768894759,-15.773881832744898,-9.192136773304021,2.2895005834846103,7.130298229403969,6.220555572868051,2.319715070488769,-1.9809610271718654,0.0937541258817376,2.71488795709368,-1.4665914892275538,1.9176872941151757,4.346933996630462,7.718491057644002,6.1262127987425075,4.083405512945497,1.9205997046684757,3.611367226112563,6.669162029242187,6.231977298292996,6.58344993678687,3.039898005424874,0.9813649735827568,1.4082561105483506,6.534951187239571,6.559921396440352,-1.0161800272977004,2.952652854556149,6.209741454292079,7.148765714219074,2.3983965114825097,2.242776537750075,-4.35518273274338
inf,11.951536833230971,2.2275906104316343,5.937174180541289,14.431800627814015,4.721037918791776,0.9568187477500629,-0.5586310204614513,0.8005674023594835,9.424457495711643,9.54000210868093,7.291794119752392,6.126705457259543,5.881510950551455,6.214306577811932,6.085872241835801,8.399402392725793,4.152679482584318,-9.504761633230082,-15.671185429869375,-8.25792282371146,0.6109319563111555,5.185410772177473,4.651836856885566,1.010696451628263,-0.9796217930983602,-2.112610372113153,-0.6735123989646894,0.5294347626059164,-8.610160833992452,-4.429845173129962,1.5628278401947782,7.102056837567254,4.293933306114994,-2.1221102010124753,-4.047800602150851,4.318930875457255,2.2389576721514146,-1.8135492925145371,1.4006311809611347,6.315165386240331,6.432729854901673,-1.593173490846496,1.3661972495379189,-3.325519924127029,0.18808560219394366,6.813094650779256,3.4753358138566455,-7.235902696817554,-5.9576197452845605,-0.8323254817159054,-4.146464262670904,-2.2673512942254135,-2.7324895884146514,4.271831866343163,6.84330198296486,10.080516193409196,-2.7598385988065246,-2.1563427691736408,-4.1686340737830605,4.775841104099655,2.886561887717022,-1.3440718355281902,0.572696579106271,-2.644930268098598,-6.935466293163024,-4.772468139332815,0.3845516390596586,2.5005997191377745,5.102204241064392,6.878769161187051,5.298412361498933,4.946591885961666,5.032665076467097,3.4728813355825636,-4.512845695099529,-6.4144359535436095,6.286081270180581,8.849039076953424,5.487098230313833,-2.0277333802357944,5.628687997902482,2.064440349004414,4.186726910989975,5.323575020992415,7.547146041399813,8.922725173817035,2.7073933475418315,-0.06122636631540246,4.636007649338737,6.9900259759994015,4.701870401778798,3.006561375278487,-3.6302852900050766,2.6186277480702174,8.155971546313168,7.051084586219098,5.40709238937734,2.3821900358353574,-5.261925385284826,-14.892391287242852
inf,9.193562341263215,0.16172017411160478,-2.6207825751611535,6.894385669962981,7.953898571255053,5.982107528036181,7.095775861683585,2.2124301065863747,3.8245578784415244,-4.476835620188634,-1.5367478975604278,2.9075542268082515,9.331654673606774,9.13185516024334,0.18250187724814282,1.9797779259554567,2.6540053675111857,4.959644057515185,-0.9820484576755604,4.415492955025869,5.957234488639742,-0.7032406487427423,-22.072519433727877,-9.832515506895803,-3.6264856638206524,1.4606582065235472,3.9360834208925297,3.5505136611412524,-1.5278037446229575,-8.766668716938725,-6.077668837359042,3.643343417285294,4.586062481361459,-5.80938343714471,-0.6022070578234064,3.2458383249946223,1.0366275798334286,2.156284953497064,0.616731541912273,5.226272597734443,5.890454194555382,7.509408295342126,5.017528018399915,3.4283645976039523,-5.979071002412525,-7.33623842231075,-2.0627870773785375,1.6282604179873204,2.101494982818849,5.710904194013729,6.630594725895797,3.8687664691390395,2.8974737360889335,5.527004116173799,0.1721593614119996,0.24934752901354784,3.1518143539069285,-5.355600094836383,-4.477278174620189,2.5880162912639406,8.923880163144027,4.277853199631011,-0.860636340078571,8.51441998433404,10.22152255112595,9.012844890648736,5.972518845120547,3.9443146023035993,6.710419111668585,7.465112445258349,3.259514348929862,1.7460371769459186,3.2073225786662505,4.308700673049387,4.901940527439351,10.30006609283258,7.619027417899339,0.29519334822644083,-2.430203865369066,-7.9731200556168815,-13.64282842731577,0.013260974900909162,3.3603966080751206,1.094220604622926,-1.7548589454559362,3.1533357979261396,0.025838993489777806,1.9034869256824862,2.946766641648189,5.4726111146197525,1.111373639119158,-0.7087196582955357,-0.4885162176334674,-2.997116662011976,3.0733444165596353,6.765599387018739,3.5748552624081,-0.2656075908360336,-10.035308594109502,-11.847060887761785
inf,10.698977415852912,-1.5746177735545719,-3.32397923990501,6.9658177267782,3.686144369584465,4.3737493297722345,7.263170570845681,7.155131310579257,-3.2038172105062657,-4.44041017422526,-2.9300024145018853,-5.038347165888371,1.4146436135644258,6.205180313240241,6.946139148165514,6.880237144697695,0.4409516127586883,-14.256090731520835,0.12350255858317638,5.54181284974694,1.3700058370470884,-8.558668612213232,3.1389689440697737,3.5469418177290066,-2.625464059672197,-6.95471069704157,-3.902471644617904,-6.083323063415115,5.134914305124418,5.808456435937217,2.2535701156397465,4.688466067616268,5.168737027088696,-3.9252084135398633,-1.4209282867399153,1.0556030065160797,-4.45357755889696,1.9975263785246113,0.8644800992052026,1.1903438151991779,1.827584950737716,3.3271996281440863,0.3476358765199308,1.6263163115293011,5.376274265481982,-4.848182303259328,0.051877070776946255,5.948315162350788,8.77066292853128,4.407054915336204,4.8513419212949955,5.252462076504052,2.0003817924561815,2.768788261994885,3.9684690878382085,1.3599466553836237,-2.8582668493581167,-7.428610563626101,-2.443387681627506,3.3932313238271874,-6.659012382771017,7.763079322303312,4.564324539949851,-10.702644937056384,0.3717208139710877,5.2077931977519825,3.2424232391910977,-9.46794329948775,-19.43541667097365,-3.4534226132778727,-5.089199286313786,-1.6998811297033782,-5.022189215960999,-1.6085197140516598,3.116248300817759,8.699238886577398,4.656555856673982,4.732474864663239,6.433096070212947,-2.7731496365160595,2.148082857625951,-5.551903632802059,0.4479201610652339,5.479608947801019,3.0688708778904115,-0.4228427122433658,-3.637462374853037,0.8449655090047727,3.9726963927056573,1.524801266125479,1.008121773728483,-8.116532811589437,-0.4904537621154219,0.1785182017425626,3.098268810741004,-3.3520968603913275,-1.1759409997764578,-5.070033326358576,-3.9696364956817476,-3.081850859889059
inf,10.125768189187664,-1.0825134374560634,-0.42973095208094225,7.932755303360775,-3.015509453866695,1.8985720957493406,1.4863863832170061,-5.418624258254113,-0.550309786196717,1.3691249364587037,-5.043084536314758,-0.9411980357835574,3.8495625944694076,-3.9014332221050125,-11.423639101857027,-0.19819003979112182,2.4885144346210986,-7.745369516039929,4.673425871992947,6.482397243089501,-2.644436762425933,3.436612938157097,6.616778574016422,-1.9809566522918587,-4.13592007362967,-0.701749277429812,3.784857939309205,8.464972988756095,5.590896857400217,-3.2234914709704654,0.4347430035342512,3.5218208889432034,-5.403923844139051,-6.091033864730939,-12.698754029934221,-4.414108632180515,3.452372535557352,6.144872830801361,6.291845347482116,2.9195952488098627,3.031149454777683,4.011620975522817,-4.306014664476422,-21.421943965147463,3.1437492241727085,1.607534547378826,-3.018942946318056,1.1420119096190575,-5.069566379966631,-15.420089046098084,3.4772328148269693,6.810040002353368,5.393914358965802,2.1113057362905963,0.3635738390727923,1.928750500440735,3.375434343269916,-3.7065626568898935,3.24806254640459,4.199757172278062,4.133067190406123,-2.544548931342476,-3.8774573016093044,5.575050276258622,0.07977825328926968,6.973312329748943,7.42452127966979,5.182983699559422,-3.302454449537535,-0.09220922093604855,0.8208097338481508,4.058107001030869,7.384114557183551,7.040257087927301,3.6506331773871565,-3.6730187820847817,-2.315393933168046,-6.866684794722325,-0.9981647238910654,0.8290508992378633,-8.526006495342287,0.9139324503703392,3.261831317918201,1.8996253985404223,-6.156425584811721,4.4605337907505245,7.6235450262336855,2.2968001242652747,1.510324761809514,1.6347589739689923,0.253733920844347,2.3488587012763418,4.877090236980379,3.0930847705582423,-2.484149804436349,-10.731963525570933,-0.8295600510712546,-3.0376765582999425,-2.0697242728024534,-0.15342220967459497
inf,8.109411703510858,-4.693497888190354,-7.833498438078812,13.059378786185253,10.21742193704632,5.4115290266857805,1.0699982374727064,1.834082861697759,1.264455494733582,6.326567484965388,4.825062454646151,-0.08354070271115788,5.117462788655427,5.256658964080046,-2.5588039736925907,-8.61785955026042,-2.881367773717656,1.740416679522781,1.9243962636055514,-2.8058454617957196,1.2375050367176215,4.4566066745654105,5.867258046688409,-7.350044715381749,-10.61367187936031,-2.5548967106423888,-15.190531190830548,3.3705583203112326,3.1704954522419513,3.691550113081,3.969588704873402,5.920307114015401,6.8700199198090885,4.539897531816081,2.2891222127215016,1.5360670514009058,2.6561492111642124,4.542802986499929,1.8487593811376044,-4.878350421921212,-0.40733615847521065,0.17231390103903266,-11.791114094171718,1.2386898518711646,1.7374292916338874,6.638831792593322,3.0603314498101852,-8.855692963728075,-7.525897045600054,-1.2464871990055855,-5.379407598888854,2.058593155348653,5.288330828332668,-6.594921644805545,3.662456124094092,1.8494305408064236,-5.234588265790862,2.3657311522811284,-1.9406457013453249,-6.67643599037973,-2.9701006491473336,-0.4021684914449466,-0.9954322826150914,3.277033427688636,2.9958148199388077,-2.8950093382518816,-4.43017879093896,-5.599138976962749,5.278688136359534,10.904095784924479,12.484891973439872,9.17128615647497,-2.5907812464703355,-9.1374876411492,-8.137836774459018,2.1028018435733244,0.6101476056244977,1.9922084744387263,-5.259038072299909,-1.9065319095926228,-1.0047874770341352,-9.516132703403152,7.013957999056018,5.916898491165618,-3.488726222680505,5.50921782687341,5.178628085945633,5.326410809608035,0.5371355549195798,5.19547797411807,1.7344914350947462,4.381042193227557,6.678154036783951,0.6597886005405371,-1.2247912616180088,3.272470461551009,-0.41824278111819524,6.068588454277041,7.115768176745455,3.4381389466193255
inf,10.838486726472214,-4.37161801357863,-8.764523582140814,1.0084756232819316,4.8275755909546625,5.318597107871717,4.737011212385937,-0.06403749460102404,-10.691215254891066,4.407450804833662,5.158153164769814,3.8025718429327853,0.3025787973068219,1.811838441087918,2.013466940135949,1.9876517748579445,-0.8662830780223771,-2.9750478104148996,-8.92060944184255,0.05071499491612741,-10.094978728456816,4.271396670458856,1.084502284963726,0.10040002030609685,5.0103753772480815,6.044822333994844,-4.014655057456906,4.456579439242361,0.2144782941262946,2.813378812250349,7.053878056183205,4.7051912791696395,-1.340865981525539,-6.557394333595674,5.335643515301584,3.529567448771026,-2.223672649247419,-1.238224009248249,0.9891422999808483,4.240900257687521,-0.1863288098140572,0.3626098409481813,-5.769962927032886,-3.985531719175057,-4.015183020191756,-1.7384936787096592,7.165640918423506,8.050211264914417,-7.45667980835546,-1.9595915052401054,-4.816576634519656,-6.506004327340214,-1.5594249198252044,6.3481645928291925,4.359839714433143,-8.212878501179304,-14.920875959885066,5.683878578362766,5.563360356870213,-0.9335248359567885,4.783246061170928,8.393327258226073,5.553715828263911,-0.6369209118191677,3.8679746440312286,2.3961623107743932,-9.462756895005683,-7.981450851756641,-0.3171532524559595,-1.1024638661658273,-6.74902718480012,-5.073321277112392,-15.313742958624637,-0.31609312416550495,-6.450678569681962,2.262978692041095,-10.057426698675691,-6.764212261375135,-4.008336544256956,-0.07418109043090482,2.134947950597656,5.657770258639218,5.720366597684354,0.5809539581904559,-13.619613003463634,4.572206635378805,5.518948129596282,0.3133969881589991,5.978373171631198,7.226442467975424,10.223842546998796,8.874108899717186,3.7848358347231823,6.001694715623799,0.9427228765095919,0.3105415701884908,3.9261424375818095,5.033516487959943,-2.4449968556576778,-18.26593789004248
inf,6.08810440146161,2.738509100883128,6.870800723395085,13.002993855155935,1.4835987733154639,0.12851442648889488,-2.2549547918025254,-5.365446307079026,-13.643051376089755,2.206214687178221,-3.51590836026228,2.1258835682370893,-4.23887923097303,-0.8439850675402241,0.5962913002319326,-6.759649956354828,-2.5900710334850316,1.151531882255476,0.3652169445980604,-5.998702285272138,5.906462076240899,6.964011105350437,0.9609767399808504,0.09278643585862056,1.2208177336718293,-0.5768935279424952,0.9756184842365627,3.2501313091613326,1.9151393162778376,3.0571974128772084,1.2880017684226885,6.438743352288142,5.608844267018355,2.8251052961808796,-8.280259187709852,-3.472040173418833,2.375392596156729,2.2623887426345988,1.8201624696430159,-1.2944912846129313,1.8781360506267148,1.8613005440374906,1.5651460783988895,4.171204906521723,-3.7419752377866615,-4.9263119173685865,-0.6941929130280187,-3.8305349747257935,3.4576423343978107,6.599833973762657,4.411584080269627,-2.4102888806508673,-1.6770836554594055,6.3090007720330235,0.6554606495037945,-1.8855538270503587,-0.11025876032114468,-2.4610860387791647,-6.814740920723729,-11.217401688114577,-6.569401379468367,1.7133696848395772,-5.898200977833831,0.06383872438450311,-6.150716333054945,3.518274830901767,3.7959456912984564,1.6908071117550278,1.5277404635860279,1.946299908327049,7.295147552905895,6.86620467715484,-0.6666854006439067,2.219061048406502,1.5790965072298064,-2.0088323600669327,-0.8622519590413518,1.1896928840603564,-11.801217194463177,-2.1812898566199266,0.7834529930273604,-16.039859215583846,3.3850157980303877,6.203134107691227,0.17138373294330478,0.34326579395317225,6.865062106583139,7.098317893805508,4.32031048098311,-4.890194270489488,3.251975016661696,0.6115496058424128,5.662271173166424,2.6585940269183084,2.610067221312839,3.244787436186485,6.726205960661481,6.647701555199156,-8.831364957467706,-8.359882922537231
inf,1.348832110293941,-6.040166824274367,-3.3528962378165597,8.8317856479027,2.264439780786212,6.2105593285300635,-2.609419301964344,-7.226877283897579,3.506353510258574,6.304557966785399,5.344437240916399,6.643389962310128,-2.171854317184664,4.32915270484736,5.289525338606733,2.7806496870200696,2.15669330577488,-0.8247561175687963,-2.4283658545253104,0.6747621383441,-3.279896056062441,4.130306343976887,5.8337399122530265,10.633481814782279,9.643701674424193,4.314370420077999,-1.1172229195159389,-2.9393398391407075,-0.336188230912299,-0.8979211599551817,-0.3540751019046624,3.1584940324083846,5.428851130282425,0.881929207227472,3.5701881937062865,7.653788922685642,4.41214813843073,1.4046151363294612,4.437198132161974,0.5704824508897488,-3.682131213311578,2.3102021703183766,6.705047112867305,7.074148722180624,-2.4524286471742798,-4.4235536106764926,5.9265966762975495,2.4042596352685166,-11.695007916696426,-4.824256534427214,3.3344082665011285,5.583512727584832,-3.8666490987293827,2.012132213088151,7.474875404367808,-4.6140267101052075,-1.040273506607221,-2.131315603693608,1.5978423315942152,-3.805490809446347,-5.187111887261352,1.6915167526502657,1.3137616060759427,-1.7806922632987252,0.9065716858402837,2.0569684268090924,5.840807688402222,-3.0357525346190855,1.6294582383273593,1.218891696280295,-5.029860180867516,-0.15694272697383127,8.20257830617092,5.042020742065375,1.7836795614571628,-0.19433977917838519,-5.074304730570653,2.1548592695344695,5.036011527821678,3.530973521620716,4.620232620823643,6.386251737955924,8.216755888879128,3.958947720684577,-2.320877845486528,-5.8382093615360375,4.671705996607379,6.806352563659338,2.994235007690804,-2.1107255955395203,-3.401009953967538,7.4129796478494825,10.216671243234842,6.10681325482733,3.8134235130367387,6.387526117494801,2.4530893520087034,6.570273494298839,6.243902721993251,-12.792295562559005
inf,1.7413635815508925,5.435624602613942,7.3602210434487585,11.2476402123727,-1.3014956240325333,-4.152757543163403,4.89274715997751,6.456390329024856,2.5471937580176025,2.2576649698035958,8.397452309340586,8.458688151660382,-3.5456472196717463,5.438309102829038,8.230775630126725,5.9671186167865,4.894131520524489,3.2356577017439,-2.33708473104781,-1.7724553072378555,7.887890160277017,10.072876976029828,11.12252631084312,8.81554252098752,1.2288664799292235,3.7045278655483003,6.396043945975578,1.0851913393300094,8.577278331479008,8.907219911592847,1.8889042783516459,1.908179178723863,4.705072107444188,-3.495190151927325,-1.850997814606032,-13.92458683059472,-4.935016217709872,5.981542370643822,7.868468980390645,3.0940273366534825,-17.889907243386943,1.610730924369875,8.991954763857002,6.08654939151738,2.253377215963795,-5.2608557331267605,4.842840818811283,3.5978616844738696,-2.800631231915432,-0.7281699143429847,-3.071569883823628,2.9279678325507987,6.589522754679848,0.4032281218800904,-1.7272115620099129,-1.7598787570038041,-5.7446070957322775,-4.6888933794806675,-0.7431104559292478,-3.4520778406045167,3.6731798337311403,3.7802805682492533,-9.037408237802566,-4.1732281533309035,4.37312099379843,7.215888141433936,2.5298816434784897,-7.6895008960719125,1.1593658513132823,-0.5088504442098198,-8.870856908105253,-6.759664801253905,5.527949203990268,8.476571625011069,4.9190692393378015,-4.426499236523597,-0.22697875691736868,1.7837252843509006,-1.6045928205818853,-2.627547097670849,-0.9701156126243333,6.915656365525784,8.297010144941076,2.906924141262614,-7.030526354771986,3.634035135656042,3.5621714257389314,-4.776386249159529,5.153006066166107,3.7130936754687056,-9.033682725449118,-0.2424948017045807,6.249984297771164,-7.470933066975711,1.679342578233971,-2.5118673083132634,4.300561962721368,3.0875227104824248,2.4723698280654887,-20.477493384257684
inf,4.790429683910325,-0.43084521063768166,2.8994947348685502,5.715601734701856,4.268051927983336,-4.102944550634664,-4.216015463933264,2.2358721390826837,3.735943398079428,-0.9393216212771058,0.9735642684975083,-2.298265757469718,4.009907759334769,2.4675988489571417,-3.151185304856952,-3.890644930408783,-5.769611171694365,4.437655321637173,3.8404249597695355,-2.3859349518588644,-1.32807030002067,5.726333010514175,2.9783472035714027,-11.299966517213946,-6.449987543198056,-8.984063045051286,-8.870278249659243,1.2781434281980282,5.932292829543805,3.079808762042319,3.486680095053309,-2.7103850317958234,-9.940901111774203,-5.993811805930072,-2.3135790594105785,6.342389546182794,10.443536959993889,9.39400024815308,5.534032700620621,4.793976247240543,3.231321309927303,3.8433996191723594,1.4574892407688154,2.3280216031027763,-1.3301133744603248,-2.185064993737228,-15.34166122809986,-8.999526838714793,0.3934323519506364,3.643544033945865,2.1090568626607293,3.6648698651813163,6.974652589858103,4.448788625128564,3.69219756192458,-0.539955215408753,2.6026471936674227,4.549972776875947,5.527468755101189,1.1634259572257761,-15.634179998471353,0.0790518094069057,7.441301068678136,8.52779636260702,4.76259683208913,4.692395788494807,0.3488848423993147,-2.7848179775657442,-8.533579981812196,0.8810063488959017,6.8691100362254645,8.553536823433625,6.197190903355093,5.251149770339985,6.797496938425908,2.8504379278193923,-0.06610751127348635,-7.158263333309506,-4.099103002201694,0.3481670849300329,2.0881307979360955,0.14607057405457624,-1.650904403732305,-3.926365339604857,-4.959119638323692,-6.183422171587857,-7.104927896183554,-3.392399658562667,1.7966213117788357,2.8454250912103305,-0.13561124988270734,0.057995274422133036,-3.614295930488261,-1.7978948461740814,6.9269341311179815,5.859121919122238,-1.8976620897546397,-3.6897764045632684,4.124330422174253,4.223067001079926
inf,4.423293280467917,-10.149452634630446,-4.708554414330071,5.313639647841281,-2.5341183667917946,4.260249202031254,2.817452632608635,4.788657141991049,7.197692484566243,2.6537638930907512,5.671141896258952,9.628492687055974,0.42430665458660854,3.1979250974169915,0.7538422144756183,0.675803863000425,3.721686104504734,-1.4661277799893853,-13.85020233045968,-1.1566965957117858,4.820307515778644,4.984293909064462,-2.256762410936446,-4.93850489661007,-2.9639385613049853,-7.755665246654807,-13.941398406475983,0.1326110227754711,4.150917116802276,-9.825811750583632,0.7496388440689898,5.6067685957819435,4.6386435594422935,-3.063255330750941,5.981049503345439,6.82580893902248,8.11673547841582,-4.0228760542045165,1.3025564790405681,2.950894120464824,-8.04239946530037,-0.5177220612216189,-1.9698173297540293,-3.252626188162509,7.383528716041816,2.9274773252509547,4.154422710044884,2.395548595583989,-5.540423413031007,-5.247678047732045,2.2966191926891284,1.352351358965855,1.3391503390889312,5.021542034336207,3.7516763441492103,-2.384692232770732,-11.015175885202112,-7.274902350043774,-2.977200255279975,-2.2561583884667584,4.129328123376254,-4.583991386843415,-9.718376997874863,2.2108033280162473,3.335697907866823,-17.97133455552855,2.697194315372286,-0.8794609306109393,-5.611581997327086,1.6547955561989127,4.980240886560715,3.866051030205881,6.582861235844156,4.5376461176804455,9.181264568817568,5.5645032160514845,7.843949118492944,9.928096655472494,0.9540978445055188,-3.1206643821868028,8.609882375716971,9.595776891821146,5.781539283857903,-5.640888157629142,-7.654590902250206,-6.667249132113952,2.1793118959203497,2.578056630348854,0.7224975734414798,-14.61268519823161,3.9158699461301296,6.885852642239762,6.023643253408359,1.0095483782235064,4.5900784145795654,5.5153689964646375,2.602130020596853,6.422033322176134,4.711120283083723,-0.5717222490278502
inf,-5.514416741718428,-5.613506520166702,-1.8597341945364798,5.339472916717302,-8.632565430871779,-1.7714162591176752,3.53060028145433,1.581482480023368,-2.3241489514201277,-3.5363616130000928,-3.7704356954250926,-6.111030760031401,2.091589670621797,0.13280288804995166,-8.767346356804197,-12.653070447698425,-6.269459877525122,2.316999632023638,1.96695904779002,4.3716243335431315,7.667954864084802,5.663378840713069,2.9937130484315873,0.9307062564985742,-4.594167689614821,-4.645161171609821,-7.7931786205162865,-0.27734833516183244,-4.966932953794682,1.0354795213881474,3.94913450224216,-8.546146550499884,-0.45149327847234844,5.821264459876623,3.654608958132485,4.836261715330927,6.753147271134075,3.407525118004628,-0.3892868666697282,-0.3882118206793592,-14.731672750057967,5.448246255760111,7.698285996788194,0.8521695147027586,2.2796393882473396,8.487441874025258,8.212305684127749,4.973964598111458,-0.8070293764769261,-1.1175621768523598,-6.819671359750323,-5.605572550259396,-0.773030758339857,3.570349320459435,-10.703208272387961,-3.3594143698705494,3.3135071552841424,1.8154551670973618,-5.562320430934442,-1.0714220985470035,3.868862436528609,-9.780230173147878,6.138825448778242,0.3310647955654389,-2.1864975675704557,-15.912254842455482,5.467792085087581,1.7484019126866102,-2.212094995252272,6.0655002641560785,-2.8019859341137447,-0.8374596597132253,2.799767301388272,1.1962897759183235,-4.739700088002905,1.3259174858206322,0.08745515051099062,1.3054478281889104,6.597718739052603,7.512926709460636,2.5022432256770486,-3.981282120679275,0.6486148723829572,6.884913027902371,-3.8084758146354005,3.8923578532563923,1.9378902225972539,0.8819246444425772,7.999118287848617,8.150958540170834,2.0091784148828964,-3.8314018923044273,-22.20965664732951,0.5300280830815183,4.195700315865778,6.05566283282873,-7.67233220396875,2.8766020762095152,-3.8744801098402277,-3.865930630087746
inf,10.246764351227121,-7.594624697885269,-6.607187521557665,-0.3986567018390055,2.0741777450563,0.71992762886779,5.1866937369797625,5.287750991177269,4.342741262611739,4.280460085993383,-0.22906921354368848,-3.7607158754459498,-0.27544161122619215,0.8596554881948499,-1.027092618934482,3.486217458113707,6.9459659987221904,7.158555734802519,4.373493480159457,-6.831756589169501,2.131850484502536,3.6306214369294807,2.8000798916326772,-2.564189259610309,-1.6093938473130436,5.158894321155799,-0.5898806296410157,-3.1824105516587693,6.4584021002136005,8.030132765050524,2.3474985688843475,-6.31285921913571,-1.322587097751729,4.072287288113294,4.5663884822409315,4.584977559276005,0.7572165702116678,-0.9535202563993721,-2.9299051446951125,2.1322484585368002,5.499871921573252,0.6632141900524573,-3.264272855945947,3.04320312259361,3.6985437633008758,-3.6655512961950834,-0.7423220559111741,-2.6281444692816365,1.362052978328741,0.8666107669324603,-1.6830902817800322,7.157501131852527,4.749019799035054,-3.1540120915125343,1.7217425518432705,-1.8225939177325827,5.185630281467127,7.495760082418364,6.061262352775117,1.3402865763697918,-10.768210806199086,-0.6031235375074857,5.918064965707707,6.110567122866115,3.276544741601164,0.2458910838730688,5.524389508660278,3.878995745092652,-7.020233755419554,2.4879506313369646,0.9071315038542025,-3.725116382537003,1.7901557447739762,7.640783618809046,7.879310524770148,2.331088147039928,2.3571462418030436,4.101659190239957,0.6958646564854263,-8.35854273512821,2.327458526848062,3.2091591010678613,-6.6977428957665595,2.333121602975474,-4.177375531999132,-1.7169872790620246,1.186745528001957,0.9153968032601796,1.4737818084664198,0.7415598079293488,0.6271292786034124,-5.731789292139268,4.130152610268837,3.2493862321530074,1.2867996788736136,3.8017699288519395,-6.661286195407797,-6.676822579507494,-5.435834137711446,-6.350605559570113
inf,15.272429634544835,4.99237212269441,0.8362967728480104,10.548258146486521,3.5924085998151227,5.950035767731556,4.32304804364783,-4.202290857554694,0.3377351013583052,3.922913775331949,4.046976008686265,3.5749674790006445,6.670977597844971,3.295709268637218,-0.500313721587851,-0.6695220583641941,-2.5780845821817806,-2.2682439721703247,0.12424804814087764,7.055668307419012,5.733881737333963,-26.964583147257365,-0.8746044355946978,0.8317144082817265,4.368521027397755,5.048467278111538,-4.160761384583964,0.2704558040069429,-1.4494243934670479,-5.273911108482629,4.01533226642195,4.347973942520547,5.088597092721734,5.1467500707599,-0.32499571901477964,6.187760947871631,7.406238479522187,4.486800286689004,5.217115390125535,0.513129114182064,2.4669187003338777,2.4755339383382875,4.716622210414982,5.2329748085333065,9.610212941097465,10.571605380794246,0.6341531453332863,4.673927042001964,8.421052661403486,9.202951943264864,2.0064858639116707,3.17946567946327,-1.2651776466740188,-4.915726716054273,0.9710614115699201,0.24483715338645595,5.1584688407796335,1.4649073540072877,-0.6463333188465938,6.1307451857177,6.784396637532353,1.298708012992904,-13.640830899091114,1.6819356765677185,-0.7961688711087049,0.4169635952749573,0.6415014573075126,-5.959286148091309,-2.607063436459633,2.5584351303633,2.0979839448298137,3.0967040761407745,-2.71242766254953,5.373624812362429,10.053227927803633,8.178457148445254,-0.2171716174902869,-4.360362899358499,-0.40923610325066306,1.5032922658137124,-6.299273357057679,-5.602825434178406,-5.5603919781428885,-4.245785896167888,-13.669211783125505,-2.4464322256054913,2.4210398139018636,-2.7884400276720243,3.6950333617023716,8.649192629216259,2.4261429717120464,-0.09660068421560197,1.7866201984486736,-12.50918572668565,7.884128503720412,8.507228710760721,7.342315144843205,9.12193374134619,6.577997502519857,1.5791951318208675
inf,6.383995783223364,3.672851314206528,7.534585705963007,16.6252399109625,7.8536461268804345,8.934204654664796,-6.433628786257721,-3.6017243821898717,-0.628870135921435,2.1049444402799544,1.2457716803915737,0.04350794862298102,2.662341388648848,5.690952068617889,5.767964090696193,6.38066899546218,3.078988416918648,-3.629210223637614,-0.8251391942400161,1.834220964880167,4.543008987139153,-14.983241770170629,2.423009791275419,1.278833134567492,3.1212308561266937,0.506606332874334,-2.4325912918925283,-6.616469809367018,-3.3719528265163206,2.248672864768281,-9.136811356326305,-2.4939985880760744,1.095478018991507,-1.3947820755109817,4.350143213795555,4.494401588320578,-4.847438318264125,-0.46788418534933385,2.0694619580526066,-8.974882362068747,5.614559560732019,0.3433158908326277,-12.072259703424358,-4.455939522186398,-2.4797557030025885,-4.742587567784888,-13.652386497739094,-2.9521899760868564,-4.099718892801334,0.474499990949397,-5.67498531843723,7.296741203242043,8.85557846559201,7.59602353196874,-0.32813403407102015,-5.115800462245652,1.7581692376349096,4.68403317127742,1.6503452946862254,-6.252251393782963,-4.266338343671727,-0.04952307712631665,5.214460162083363,1.5383234145912397,-5.4624009982496275,-10.945690121208877,-6.258769573195437,2.0901987587054407,6.04827765222317,2.391036402725234,1.4435047710145241,-2.5055979437857303,0.7513769883471184,0.9283779678772746,-3.2800557896355116,-0.43989189191593425,7.6285901940328245,4.926970413339788,-4.617741337875074,5.266346019312984,2.8408009816716415,-5.0818297137627795,-7.680211278235326,-9.635650406798781,3.2442674927247523,5.747875174067353,-1.2990809350692274,-25.945784258470383,0.5788521769593729,3.766424703694817,2.515578514782483,1.7010518267764212,-5.030106797913504,4.891368865940606,1.6308636226363404,-2.973863890118267,-23.466981589341614,-2.811214822430422,-5.761864979699439,-8.951727887147555
inf,12.23784442101355,2.1240529639119927,5.22248059692286,16.308211521240672,1.1647181917530567,0.21106718113153633,5.216354374687413,0.6191788216942413,-0.92205568345328,3.79977432580829,5.2265454308045065,4.387998482542518,1.9973720388465566,1.1131716768440683,5.87508170375272,2.9606039615870934,0.3110845994402993,-0.35184409453577103,4.636157057408589,4.574340634609875,6.141826539636675,-10.245389071853154,3.3881841272252444,4.3511788994008285,-1.3009998140529646,2.2102180966149874,3.736483519400089,-5.612026358356694,1.1328770938356385,4.2844255488980565,-11.495243859529523,1.412217648560791,2.54516976217257,7.724996360394918,6.735545229143149,4.644179490038695,7.728401064183672,7.509712433188604,5.979683800725226,-4.253034979479324,4.711280413841209,5.857614453537892,1.8951022724293978,2.3192004774760235,-1.0556564480055997,-2.362346072043792,2.2344464291655655,0.5761054793417841,-2.772539121988295,-0.6287361775930691,0.8375880624900134,-10.625669538244338,-6.916212267264839,-0.008608618507153665,3.9151344347521544,0.14477330860237458,-1.4813742213855434,5.882126766349323,7.024625324688039,7.396896018711914,2.6740575154889115,-17.94482805137266,0.46910171610129936,5.936124865708194,8.11696744257376,6.778027603905592,5.869197878395745,-0.11479095070907164,1.6988050725144603,1.0899488126858117,-9.427563983710215,-0.5104754119776871,-2.9809593822931717,-0.9989070982130173,-2.538380588010611,-6.108092537740376,-5.984436196407991,-4.014191315422522,-4.2601080486075915,-3.7059973958941015,-8.562898190297382,1.594790686293642,3.810787646015868,3.5227770029040997,-7.894302303734712,-3.7488428234134616,-15.782608119180203,6.143281851965824,6.250445808346541,3.6536267260261326,6.744120700880629,0.6366890981007529,1.8518511021582214,4.627693395362108,2.924816690946514,4.7445350265639945,3.2484297586373714,2.0487285507009503,3.375226963298701,2.6869132889499525
inf,7.566340459052077,4.2965879090475205,7.467768349781841,15.158107782867901,1.5539646625231498,0.9749073901697862,-4.106985481720326,0.32999793410031586,0.9878172987071601,5.842504763155677,8.733623529734757,6.7758999702172,-1.1128444219093616,-5.922405268966948,-6.4758086192201105,-1.3014199422224877,-6.585900629165046,-0.8187244678269465,-10.609485023104597,3.716293707733982,0.9286327707604016,2.5174456281988995,2.8028003133275448,2.9553305439388566,4.031746774141645,1.4344561138193583,-9.6240970787049,2.6963626599782913,3.844409009534033,3.3551335227907586,1.2101800138927956,-1.2867099526434913,0.9928403230301583,-7.7740840259304065,5.723378793414817,4.636913596600955,0.49403827433420133,4.554214489731834,3.0389975602292267,-4.589881062013333,0.952359178225727,-3.3562442071051066,3.068023476475034,-0.9915800271615112,-1.9811409498591814,-0.9611022212634452,-1.1364739879193877,-15.667562285015158,-18.76070276343045,-2.3183287841697293,6.4946281767596545,3.6717027605533374,-0.3106245252206179,4.088262804071007,-0.40761025172947285,-7.900821319735414,3.5558521628324655,4.573374540550262,7.271715240357537,8.597569855656992,4.736711867202402,2.262140712764598,5.52713844684515,3.696797449258824,-4.854768436596871,1.5244542666253622,-2.0628081117345616,2.1060573577373063,5.7582070952274975,7.493647017036338,1.920922856941111,-14.509876095650348,-0.4484451331606465,1.2249438219873028,1.644340686252633,8.28900800841673,5.802409010762929,-18.187512339467176,-3.0337182322460947,-4.384677151248958,-3.0232257494887236,-16.506667489450336,-2.9001225712303054,0.11735775419165861,-2.771393913719315,2.113889310637262,1.5940735894520657,-6.143160528783511,0.858599480291204,-0.931120342118497,6.653532156143768,5.331298843880276,-0.058043422464010064,-8.21826736620529,-1.761629606136438,-4.3306566774303406,1.3537914136794598,0.2242059557622227,-4.994171972426393,-16.263434659392402
inf,4.132648937570627,-3.1861402258861733,3.279212080510531,14.945773694425425,-1.0635262760525137,4.910368735002031,-0.6936634446240575,-4.8415013488064815,-8.185570321914657,-6.868033222765764,-1.1676814653795127,-2.1801288846567566,1.4600915116307753,-12.175138206654097,3.320629697922854,7.030322116891298,6.3740192563213505,0.9779738474240744,-1.8488652880452179,-2.670355659649921,-8.5402884501936,-21.215381071527815,0.4998580119158049,4.930458601463567,4.833235316808832,5.758518571839062,8.690246821936032,9.736802785813456,7.494339380893635,3.4219266942165305,3.206099142763712,4.6341147184060745,1.703226448729616,3.8010701109623213,4.643154937915568,6.243124136511071,0.9039100575053425,0.6208522341209743,1.8039932416591498,0.7027519003061187,-2.5318620003858996,-0.32515271441392457,8.431714255987409,6.590871991044423,-3.8417588848642694,3.5288442137003244,5.533342444725399,3.377995157963838,5.056507747883501,1.6095868008677883,3.9161822638345924,1.1086662971686536,5.953173801080112,4.00076431455313,0.7317648305979176,-19.92038645433464,-1.3067588787090472,-1.1436753686234127,-1.9613008738114814,4.264064939099313,-1.6762551561505177,-4.71430456724962,-8.881525637768966,3.4962390479165677,-0.03449575605026922,-6.66829797469731,-2.207045272337602,-18.65516763181585,-4.176511070358174,-3.3936865675873378,-3.8286288025430935,-20.07675213855252,2.419185127050696,6.943151841575876,-1.2345768467977791,0.9492694195218405,-1.8576176498309565,-1.9695050835999695,1.876080152360764,4.40392959669385,-1.6631671799684185,-0.764186400700865,-2.3812827322012993,3.8829364244052513,7.67197171100392,6.149072057073134,1.334439529465115,0.1371160694369209,4.563543039874233,-1.611851683466469,4.775277422398538,3.2649266198037594,1.671275612840148,-6.405484684041113,-2.605137643860161,-12.363528003506374,-5.042486134185573,-7.168780762623527,4.863866750546144,5.732634034803539
inf,16.464619773981813,0.15580559342452482,1.1419345208572933,13.175514917382195,-2.9858097373990837,-4.3155142988551844,-0.1881782406872894,7.728938042567087,7.473003447831783,2.468191458479378,-9.543860380462476,-6.4950328997874,0.37975453376300905,6.02314463933228,5.484431833848856,-7.742412079810265,-0.2327528158313541,0.743402001883652,1.1841131513398437,-2.0256234863483655,-5.6173712894712935,-1.589654972966791,-0.31257061867874825,-7.99484888669307,3.698970803999913,0.339326696023484,5.079196484105893,1.117923507542784,-4.4787476740153025,1.415933762833781,-0.8298949970844163,-2.77629375980694,3.1524507353496887,-1.3837802062736557,-0.6229856758875698,5.303211917971936,4.318092633507767,-5.095685726250402,-1.9317081427449025,2.281785410898351,-14.056220277360332,-6.602502169574279,4.21673334374816,7.771147752414393,3.8662152456290926,-4.631917865688685,-14.356481760186156,-0.2215313136135677,-4.370753172478949,2.6330394737507063,-3.8455996340944694,0.47420579905757165,5.562384771616657,7.754256596696578,1.7294040545128624,0.6158683485256162,9.428519513176411,12.821411631462091,10.168434479264256,-1.7576117411203072,2.8528476462845873,4.856599419704267,-0.6598434249234515,3.187424715726017,-3.4637238992669737,-12.287531817399795,0.5601843880282118,0.7849584652512718,-1.5044351039091097,-5.159379442160571,-2.785560884580377,-0.5750136154005006,-0.8838154391757129,3.657740409715295,1.0344351938334881,2.622472531052132,7.939918009331784,8.081565570495052,-0.5815011367464678,-0.9420032645005563,1.3977081742156443,3.247223015330249,-0.06753629135767625,-14.071987893171773,-6.676148766540514,2.2947978593258753,-4.44488304280911,-2.918995179930242,-0.8077165664731893,5.917222028503922,4.2741908918023555,-1.1284226182531114,3.967786920783894,0.7799496512431148,2.8605682682545037,0.5400215267151012,-25.253729256127144,-0.6827210388767995,-2.4110769692766496,-6.780335218433095
inf,11.323889633326319,-0.25335821034329076,-1.845337031037534,1.3456200164046095,0.8037536742671634,-4.982010506953866,-9.025568944286206,-9.133901521312808,1.6861317600279726,3.5680054610321292,0.02087134630073706,1.9111423199307929,4.6342893760724735,5.9507701809705225,6.193201817977414,2.5070643992215054,-7.4601782689989875,1.094873241850479,2.818510080363218,-2.728383880821994,-2.3498483887643715,-3.977633197056825,-4.399199641315761,4.43941644206663,6.159289231742893,2.9598867486779383,2.0901316711623323,0.8633615668009327,0.6928275270974922,3.1898142910298617,6.87747033711409,5.220423421610192,2.46301177440246,0.9451365410455779,-2.1201039115833353,-3.9793628150610942,-4.285487644293809,-22.722239212419936,6.514668551168121,9.614432088978194,6.125346829621357,8.074310022973023,10.633321675707894,8.621122641230698,7.263010925431175,4.604986736614023,-0.7405353239707892,-7.152232226847005,-0.0874046284518144,0.7842838062646251,-0.6208237332560742,6.654650734831911,4.298088588506694,0.8980849964310522,3.3918463505722016,10.72940808053609,11.65332999799763,5.882032442633253,-1.5828910416912905,-2.04265262508747,2.9442195595635496,4.684937445805424,7.295652876723395,7.918214976643441,2.9055052520361144,0.8885413699079692,-4.586106248763002,-4.310492891198372,-1.1504746036857796,-6.234267139233985,2.2214623363870345,3.444102691532599,-3.936033480413471,5.745111781972298,4.267720141386526,2.27512367641593,-5.74865548739983,-2.943307044621804,-0.21079871775900472,-2.8147080284397603,-1.932624970439477,-0.884914506039145,-3.7439889293545576,-0.5104528573955633,-8.976221448068912,-10.921576917588368,-1.5167940969159943,-2.8125518339789366,-5.377680652924447,0.5563747722961736,4.010504270921928,-4.957502161932069,-5.9064100163280955,-3.0067532619604194,0.5434903325513645,-14.485114914787772,8.141574897599014,9.471664567683845,0.09002973416514237,-13.059468425044443
inf,-2.537776283567638,-3.1543543432357137,4.153115225521807,11.363554450232563,7.187847926941295,-0.4726001729004494,-5.949457221799001,1.523924268113717,4.616285525846827,-1.8954241835549617,0.5355262315236082,3.695166996067453,-4.269741509972523,2.5208377394989974,3.6360236410739013,4.97429985649174,4.311933462923001,2.6588210478181225,1.2804510353074932,-11.965698626974138,-3.441320004158726,-6.800234160307227,-0.4923723682790566,3.9793744862483393,4.892869924419763,0.5217247350355052,2.181520765463219,7.861025201249504,8.992418406967868,7.4491202697562855,6.312722424278412,9.776493969752202,4.987820991388368,6.405883521343348,10.01460976719278,0.3457838812573044,1.8175062024009918,4.341070309635697,0.0006847240855805126,-14.72872080214745,-14.374556732821432,-8.75216027471447,-5.147567724989365,-0.4948776289585055,-5.377880042468803,5.656295812637914,5.261555092475824,-0.873912826121078,4.335991694527934,3.1654452061529597,1.5373080389155689,1.1602124352261995,-19.181578716905406,-6.631375677460916,5.036253653320564,7.482228611462858,5.084572571272155,0.4498102195783602,-13.859772725644497,-0.8521729188816352,-0.4613572682373075,3.595211250203974,2.8438489648357503,4.748282432706404,-0.5134424588867503,-6.1606794254224155,1.9567274068946574,-9.674500916153683,0.41067786884434554,1.9893973808604883,9.428673792515951,8.320361956340605,5.97047934372366,-1.5128684053416777,-4.7583838221787005,3.8995209984877377,7.010590894931461,-4.538857611584049,-13.115213446518013,4.665017243904764,3.9266161111641793,1.5611029834022006,-1.0432030466339413,-0.3549594113965924,1.4116715799998474,-7.3056534752537985,-7.31272699106745,0.8890179770769109,1.9685282697993216,-0.6482263345689248,-3.524600445577512,-16.93650935054808,0.9213577819760133,4.62648646935412,3.9324844659287166,7.330779937137969,4.545372328207257,4.586345976148131,4.655040321489686,0.359948857331986
inf,10.295875698863473,3.2783702133346946,3.1642724414886487,-10.243104227328889,6.397856941120555,-1.5405172064705965,0.6700556504748043,4.462891990549778,7.649489391858189,0.0531108721070197,-6.249689780156125,-3.691018368356662,0.7699987297175177,1.0117053720717237,4.666212849520235,9.246572926611094,2.176742527681437,-2.111989980606886,-8.134598029224264,5.049079445391257,0.7326532772288274,-6.750401204851563,-2.524846154437455,4.995969365881198,6.419434869137433,4.13739179359213,6.2974275308180765,7.362595431552609,2.491791820196397,4.919288959278241,3.224893242424841,-11.838928994020883,-6.186960204668175,-1.01804907347136,-5.810356450170254,4.253874024783052,9.302218654785591,5.028288475233737,-5.223093504693068,-4.655460876417024,3.1420659666675803,6.875677826866934,-2.61723209477492,-1.8979225308551477,0.7719011248695793,6.26260492670265,-8.06112045410643,-5.843183567790291,3.561688262334954,0.3718651553547545,-7.016476315775115,-1.046885423604273,4.703747930249023,3.2805762761192483,-3.4033572425781884,-7.733670502221564,5.963210766988823,7.811278492288231,4.930190636095261,1.7303155638600956,5.7304127627803325,-9.657384018102618,-2.7246162565716787,-3.774448622640527,-4.629084504541979,1.8646776649214303,6.01403095192083,4.078144651425482,-6.339649478837046,-3.690526408703505,4.696857738733428,4.307675456144388,-1.2742062286669409,-0.7169377553106884,-3.0687993560363225,7.054507390751979,8.225908213776123,2.9550747113289972,-9.3063603631618,-10.824524208059081,-11.65078313699076,-0.34206680436934533,2.0387575135894664,-3.031430829465201,2.0653123869302803,-4.197728855107918,-1.7898937935137056,5.208806551924404,0.04076408967450362,1.8068759043225668,2.4459748773613157,4.952184186737178,1.7953809207349423,-2.5230697679602514,2.9019518132200517,3.3024295570541113,3.6934226918052744,1.4859427593296388,2.6875590305252004,-26.114801179946596
inf,5.1195535198722375,-13.492996352707872,-12.892460686110997,6.1497839190758015,4.95586146769331,-5.454481332420432,6.778193480413176,4.389757191714811,3.3625360051005977,2.0481735125272245,-1.859424146064221,4.086664123444539,7.30420421019538,5.276189003378466,6.86940503138953,6.315043885928635,3.593662734883118,5.151035494795295,9.364267366067516,7.208757241575171,-0.7687782012838085,5.549935624014537,3.9723838552006114,1.036862374369278,2.9987135282861885,4.409894463548888,7.340523621189238,2.718546940409176,-1.5304315934239838,-1.3330426666665431,-0.27779957734919236,-7.007796993503028,3.996959359217634,7.021598771828479,8.994087509535234,6.945166996968595,-1.360665668117612,-1.0646719744206905,7.88070871963081,9.097215479587113,6.007689047278198,4.393894089533319,-3.3458339505854937,5.499803884587017,6.916844680810655,-1.5505404971760015,-13.161510648441258,5.666589431260505,3.6075545565085605,-1.4358258089027558,-1.9089253337117,-10.909113618246366,-6.188923331456024,3.8347846171092215,-2.555671846814441,-2.3345298975455933,2.251117379779245,7.124972920717859,5.49029208781549,-3.8655566073853933,0.4902902026503213,2.589446267031512,1.012833842785028,-5.925806236195491,-14.671516651545893,2.95114270600007,5.103422290994928,4.297693593275362,0.8406405667409516,-8.141513567998366,-2.351782303018936,-3.1576288674223676,-5.208147390798729,-1.1267492031378694,2.5513224232048515,-3.5932405561137983,3.8445070690413417,5.249255822495009,6.617430921190895,3.622391039469285,-3.856760034145047,1.5491267471733323,5.2679962579749855,0.20815930983115294,4.7789325792856445,4.059095597803427,-5.616188186058146,2.3607184103449868,3.7446969697788717,-5.315370276896374,7.234639460508589,4.72917328586135,-6.700002493440714,-0.8510772392479993,3.7173952574240587,1.4837596530298143,-4.645086523037051,-0.6980412944661154,5.628552742438345,4.748873496507528
inf,13.55271009915668,0.22564960390268118,-0.46146883009094886,1.1523963816089235,7.416110147836278,6.732406742951476,2.793324703321545,4.817638979351269,-0.9379949647276682,2.5097997210572807,2.4859430917904675,-8.624020509859886,-2.513347577266874,-4.021066911619009,-5.309331835407789,4.889462455454058,5.0490850623716526,4.71681691645211,4.6853912950436225,-2.509075354826642,-8.856416271324278,3.663281029934687,4.384698767917694,-14.69403019968194,1.7202367251584008,1.224847426400757,7.548369774181854,6.4819550332614,0.32181011623629274,3.635993079084386,5.526046013241931,-12.604636419557671,4.0137759500173615,-4.646868120494865,1.2184751527768753,1.4172084013693578,6.868891936879649,6.544869765675891,-6.874080899939358,2.54243327451168,0.7369547999228772,0.07866355245103307,-17.1031497589589,3.0747251838090506,0.25155296227053725,1.63515999854733,6.2591807680467255,-1.8650957676905549,3.3240628865862973,-9.67174360936562,3.5404226972235406,5.159172344121409,2.1680620371993626,-2.72698530235548,6.194015910243905,1.0479883337413725,1.3210323184000217,-1.2680908825923893,3.8435607427844047,3.2220948397499,1.2923827957275975,-3.6930621735200404,-1.5102150384694397,-3.5064537012990016,1.3236789683749706,-9.319724331053905,1.2951337046744058,-5.1159248187110435,-10.449168980018001,-3.937137204702168,5.154326442029998,5.487945091845148,0.13888258802742826,-0.03660763616043994,2.8883001645661324,-0.5406503640585996,-8.769397365431267,0.25347351318913525,-0.19590306005681413,4.688593944094819,8.033827723164137,1.1540237279151668,-8.068374699908922,-8.404144744887375,-7.43698177229254,-3.319850431071181,-3.0097227212411184,-6.993617810867697,-4.133108656967771,0.4888783890577315,-1.5724401128148386,-1.4739401592077996,-5.931116936184601,0.3278230313870978,4.313011677422203,5.698270117160384,7.8803564639494255,6.01929249260219,1.7799970931918665,-2.3556217194938043
inf,6.437903758295121,0.6870108995970965,1.7026306178433934,8.648505550361264,2.5861912099304227,6.151258562321072,7.543395061415367,-1.4447379874658992,6.2658697324998975,5.585125090596119,3.2939673177243627,-0.673590276434215,0.6821576410395487,0.5581856098483158,4.563514878698193,3.2214278303791914,4.25058779552662,-0.45820966993468204,-7.626920231343256,-1.5851312018506931,-1.4905653882889425,3.2090175769825535,3.8108983142508066,0.11016212633846578,2.556907697011745,7.095580610532583,8.402598519170667,3.7074516690116113,8.344455087687408,3.8971177294516863,5.160271661999367,7.076143654054796,6.1963874206030525,7.194002418853344,8.887974173020154,6.275662725844896,-4.059096910366023,0.17563990273811925,3.254026299215269,-4.401204432781675,8.070911967484221,9.122861112088458,9.03188050555002,7.4269803635027,4.356237419039431,3.669125640521777,4.97612786047474,-7.43678111416402,5.7253364945122485,6.429544464698644,-0.017890193181933967,2.117309328190032,-2.2963297021224633,-19.78941506294428,0.28857792368725654,-0.9859068625416327,4.73538584712594,-3.17910037164571,5.619115534768476,8.977271558916797,4.259442909057903,0.5821169487160205,0.4598239204059311,-4.588885641188121,-1.3924729494913635,-8.412199462252367,4.2528371789249135,1.043840133164224,-1.773749900110218,0.23103188545162823,2.694171888378605,5.577464789709687,6.653341994194719,6.197020966817874,6.26266227005145,6.174424445143565,1.7620251816383004,2.5720671496595315,5.665965149159973,-0.42989372118636027,8.498170446559506,5.450015823672544,0.4649795669469299,6.12501036165029,-3.849399887324971,-6.525140942773227,-0.04740929142950279,-1.9370722193056764,-2.8919841494943697,-8.88244781883428,-10.65590472288298,2.445478677555876,6.885024219590683,1.5515808151901211,6.553526040018404,6.4204435620254685,-2.69147950079212,-4.951878171486477,-16.185092600891977,-12.361745359696052
inf,8.706004730182604,-7.14927892428601,-7.032155691757231,9.108659542886322,2.7720365103960205,-1.3288266373190787,-10.105723903022756,-9.105342861369728,-1.820520004715572,-1.6752936760960822,-1.8537105702772223,-0.3571147937754766,2.0525535629714504,-8.630841924680901,-0.033327060837720524,-5.661455070286024,-0.23912305196815709,-9.417443130654156,3.663449464654306,5.292511640852666,-1.768931125984956,1.6583341060429717,-7.41783956184338,4.588396839685771,5.363335351564466,3.523677359640523,0.7233190580254032,-1.8103447447540049,-10.559368304147725,-4.200832844570485,1.9733431105644286,1.673573511034384,5.332159060625806,0.0795135506508231,4.853034059363985,5.548846499215244,-2.308856140004636,2.1102756228871087,7.3799111666690465,4.592103181517096,1.6305768393446058,5.467994558552526,-2.1734632631098876,-17.009897081387876,-11.41097841953637,0.7741694708533089,9.52587882802775,8.259858740966273,0.5706972676633981,-10.662179316110254,-6.620607126531333,-9.061193644634592,-10.721923847927002,-4.864912987254932,-1.5128588070553661,3.5139779112880376,-2.2499826522850626,8.0509499230864,9.1278736270703,0.14705460586607444,5.427544198708588,3.7644607531940792,-3.189283788247465,1.9611321415560354,-5.7510411149017315,0.32279085381248507,0.08557370864980385,-8.191827803513107,-6.789609399149462,-6.215355308612381,3.512137240978106,-0.01050890266708393,0.872718650737319,3.10111449165516,-2.2801415325239276,-15.33786959923708,-1.0252022588037377,2.615172531060253,4.492116300354567,4.141357659105431,1.9106326420062558,-9.632505008866069,1.2307343098638057,-2.3241344866166784,-1.401492634294783,-0.7733067446952759,-4.5701372473715125,-7.761148811435788,2.8084363319689345,4.8714919572749835,-3.3033028608654007,0.9281232839154043,1.8617093664464193,4.636747938808817,8.952226375553877,8.261853399780506,1.9937812444904495,3.536496446715411,2.3994732220466872,-3.809569055950348
inf,3.033681218200016,0.9524006968059644,1.8533522690311761,9.44792052317948,1.601945750247765,-10.185986380882472,-0.03797808242322276,2.5432831346488385,-1.6107434360078976,3.6135489200828452,7.327149382520741,-0.3816762649515688,1.9923852251708603,7.639457224666025,6.613143012420597,1.2835159397227898,3.780633995946257,6.775444031272997,3.8415572363639683,3.8277053001339922,2.051953800149292,-3.4639315798204464,-1.3980571506803372,2.384050970984042,-0.7513244137192885,-6.673543925045273,-9.217192018495965,-5.5006182805520325,-5.388626633669347,-6.847037426337856,-2.0134342828549094,3.2350728532638016,0.6372082183645276,-15.708615210826586,-14.521219518802091,-2.5179878455031144,5.062980610403464,6.264753877355837,0.2655555214776939,0.6762614892759586,5.159280750267719,6.322016120708348,5.8263717747770585,4.545623074732255,4.650892096511029,4.769823521877768,4.994629608111346,-2.0932666040744223,-10.523204061935253,-7.758247106828513,-4.704531593202979,1.4995741599234336,5.727315557730449,4.2822287964808226,4.320479001663429,4.52123862630895,5.5372205665762095,8.263274557188474,8.08943592136034,-6.19588192916288,0.21011335902036876,1.591075380564618,5.4780086845733535,-0.9262692997942281,-17.129730709272728,-0.3717221168828999,2.820245379379145,-0.8467033708173446,2.547262062911315,6.566939640850279,0.6944482565914996,-0.24899706015713718,3.131691334055091,-4.197055488996895,1.9443234989210794,6.999320249546024,7.2389670284400935,-8.404534663315353,0.8095722081229368,2.8012146575799477,4.994513579728242,-0.7226947400212183,-6.005777339917508,0.06774458739544542,8.148403652355732,6.695976118441699,-1.8524873112998463,-4.521979746663689,-0.9347541327693207,4.0110532413065485,2.379542146943372,-11.543946706390265,-2.875477260855213,1.7079174533982737,-3.925458234731124,5.05221937805328,8.207002986762731,-2.311357414990212,-3.9642439665289544,-15.98188757875316
inf,10.846638634419618,-0.3431490501211232,-6.620081308344203,9.701096247353545,-19.885038148267242,0.5843322062717355,-9.289618282776317,-4.6006289826098055,-2.1901406725389982,2.4519037632055394,-1.8068951183181063,-1.9743096663113953,6.62101932139608,7.464291776961286,7.781004980098466,6.885437228746781,-3.670598032208879,-2.8943205447586067,2.55167861726801,6.175637345833195,4.7420551824566886,1.8623243280811366,1.1233896547205262,-21.18125150637232,1.2298253109536503,2.4737601166864636,1.6319078945252627,-3.7596984017132087,-1.1622719559407173,3.192365148796071,4.5045088704105325,-0.5776379235959936,-11.536442916579638,-1.1992089253238802,2.56100722083567,2.8569076967739306,2.871278567641866,0.7973073430040287,5.329522306370002,2.715522672611037,-4.371380914278937,-11.717397111846267,0.8240909587709027,0.8499897661591334,-0.03500953539134599,-3.6612909953737045,-6.154487102690609,4.251668625815647,4.18888122672994,3.627736930035134,4.846963319202516,1.4294028813925905,-6.418048453593272,-0.370176150885392,-5.468325587779532,-0.558699815054176,-0.5064974449701651,6.624766716957886,-1.3876514477348039,-0.08594768565683353,6.3404676760538194,3.4871666975006477,3.64776794221455,3.767135317992775,0.2807232089481886,4.269825857819903,-10.051666427152632,0.15595483348607075,0.15200140849232469,-2.482395879868676,7.164968240283059,-1.9462919575655562,-5.513106325460875,-1.4561959429160325,2.212733982565929,7.804865592889271,9.30851076111108,5.832272937770853,-2.481737730117203,-3.188071412847755,6.24719237277435,1.739897499433205,8.744416088502916,8.65420238633942,8.075924371213233,5.261197628191191,-0.3223670993358425,-0.7909767843806463,1.1722909604139602,0.5403696042137014,-6.757274528994948,1.2758310571754095,2.6141173675757017,-13.133213517569239,-7.907093222228141,-0.747049740269695,-0.42877730990834095,3.0801601590785594,3.482717125743953,-5.1709924854889024
inf,15.94834217185083,6.28865987916587,6.270637621108181,14.03345199005937,-3.4533175795898785,3.40206360888104,-3.8616203414383143,1.3923945508428446,0.35134022535002174,-3.021219016975767,5.604364516517364,5.126336816943709,0.7576650183742828,-3.95227565636646,8.639017588326375,7.801278543341294,-3.3658892498082693,-6.836384757463655,-2.3836253513297834,3.0962400424083363,1.6598326712014497,-4.646367703854644,-0.16625893017167925,-5.391958406412272,-6.301786317371253,2.2269056421383624,3.199102341539856,-1.6245803020253717,1.3746183566041026,4.437506049865242,-0.03417428862157834,6.5402269337874515,5.751371672456351,-10.79201349189649,0.4406562568806933,-9.414827928283707,1.0309480344257977,-2.7540679469262557,6.636993569665734,9.127110822966806,3.8307894996821474,-0.7387789384749652,0.24475496805549568,3.1534984925304883,1.3387378346136884,-1.9308203644165545,-3.9169150505070363,-0.28475576815538517,3.700615095358536,10.275224027039663,9.772452283944794,3.959566706571259,-8.897821681252239,-7.352119484633043,-12.652146407134659,3.7726339610463384,3.6160545315324626,3.948019998081847,2.439935071794288,-6.038238528338596,6.396460508228728,9.095086750582034,9.60692139659242,1.7606639912384452,-0.9306057589935435,7.991311142398111,9.131340887804491,2.6667335600680033,1.058028842304246,6.951379227265903,2.033667126188824,2.8129710564565045,4.093040872184247,2.870400873905176,1.282960956331003,-5.8407439140095505,1.787030701804433,-2.120498032834057,6.9551526957043635,7.722309342072329,3.855632257417419,2.3520348141401755,1.7899220294846003,1.0081866277167606,1.7100442224815993,3.8684688749658704,0.9700155196193521,2.498760635914671,-6.58200190797352,-0.7928214260056876,-0.2882267114235191,0.7486808645322114,3.2021680883596275,0.7611352226773533,-1.223684119362467,-6.925549044959169,-4.910477038087464,-3.1408469920214444,-1.2540721471110885,-1.1273220424055665
inf,13.181775988513582,1.991922832362914,-3.9604436488381323,10.67499123509344,-0.2671539838666881,-1.1113717577554745,6.494473271690154,3.266061908867563,-1.6301288404453587,-2.760967327481655,3.9806115152626624,2.591870338783991,-4.29235311343432,-6.076997240656532,2.8320758606904555,-14.36359437627982,5.352022639709769,7.475076128016276,6.567744475252024,4.348452460302148,7.423621156621465,5.851834670568479,5.3332278018187225,-4.162511657444995,-7.5933783049065795,-0.3006852853329107,-7.884662345994201,-3.011870781630037,1.414858398345153,5.205221043990235,4.6416177971640735,0.3700190134871377,-4.350830286941836,2.105678784534561,9.182036054986515,8.2243654561188,6.700272649679874,5.094358528129369,-11.60866604419045,-2.1575205564068085,1.4762545625696148,2.5042708368023625,1.3546666060961954,4.732122148335108,0.7276760312495725,-3.5117904155212543,-14.045125611614019,4.878190556113651,4.854250442270157,4.301000145389452,8.711441379496954,-1.4172810177054842,-6.353669073302228,-2.517536223017217,-11.306574750097205,0.2144628692447128,9.209442057282324,9.735868837743396,9.439596481183315,9.429732074293938,3.7745653683412996,-4.206440747614963,6.363154398885641,6.679527463922355,-4.783598625759026,2.1473135427221877,6.99223412651758,9.923376063205026,4.468296472649655,-2.3830988651182494,-2.310317252083742,2.5211085906647384,-5.46824660621234,-1.33950161107348,2.582650958643228,3.0491710484904004,-5.672374836283083,-3.485335170342907,-2.5105202573253678,4.870926977522835,0.773232477116764,-5.294198080340479,-6.030155855155897,-7.926854469166102,4.746826817301951,5.63534486089987,0.025422200472306145,-3.167807398225385,1.9457930975345192,0.7588122916184119,-1.7351254131231926,-4.215763847245185,0.9764186876045642,6.27764684995968,5.4840804979138085,-0.1466121848425459,-2.810340134347804,2.6367477466791343,6.813231818170387,-7.94716188577619
inf,1.0122773581408246,-3.356434830705495,4.224852569646716,15.104182577113708,-18.37910636619432,-0.2345124339052269,4.815518031694889,4.737649217346643,9.350453223347774,8.173170688132327,4.753701033814274,0.17015568945364024,-5.693975286061683,3.849223439451805,4.025471924833877,-9.035908025140557,-1.4214254792945198,4.453681694527006,2.8597743189543827,-2.427967348852036,-5.03358742045716,-1.7086628686441756,-15.39762875229605,-5.12332333515463,-9.650179375120999,3.042618121805887,4.520140943437177,3.7212155559655073,-2.620502389228939,-4.976524512290737,-8.623587597144358,1.119338219164021,0.9903062136662371,-11.499378058888361,-7.780170376038335,-2.9829044630066903,-3.8359732565293427,1.2495659737953417,-2.3803750476496432,-5.151652058224478,-16.648506890392476,-0.004780526527760287,-2.832836055845128,-4.580650171728124,-9.601773725976031,5.663847171300873,7.737624223488055,5.430983124074757,1.4699212467807072,3.5877574464548587,7.62254015409043,6.299501602826382,1.7222093523208386,-0.41466470105333997,-4.190779043315402,2.340451251008176,-0.3717866481414944,-3.545285772443627,-1.5569743404752998,-3.010096527605299,-11.608613144109079,2.602393768731808,4.066179779160372,4.309332712990006,-5.716282343685492,1.875083469774701,3.9835129647825696,7.123849863102549,4.839619312087095,-4.454002073866953,-6.974651005873923,0.8644927560149256,3.2619361152971607,0.8353196829314058,-11.647739540471434,-12.368416700124179,-0.3864951228237814,1.2885872931648947,1.1617693149422266,-0.28040453819097877,-0.020407180686227377,2.5814156037951648,-1.3249369558979183,0.2583230746926617,-1.6327467785766459,-2.2181160880752984,2.631414835379978,-4.6815149108166025,-7.094296461521225,-5.902290948661111,-0.15978423891115057,8.666568589676707,9.318641202339407,6.490433279469215,3.579600764240702,0.6385463224787458,-6.856570774165867,6.751022347520063,11.265407747959891,9.110265657224453
