12,30,50,80
2.957534288229369,-1.2689999016754605,4.743236144163955,-4.004929005663428
-7.242808058619648,-0.9587284655973001,-2.374361406017318,1.1522609080383361
8.540897568805383,8.205311976840736,0.985975546785113,1.0196368202119999
4.71858406418399,-0.9422877291651837,-6.649382027541204,2.1846138282728518
0.859912360586632,4.506256720618573,4.847023054931213,-4.654226719166388
2.89021410632145,0.8525649691375143,-7.886406093858636,4.990306549791505
4.383296444224197,5.4671738276602255,-2.5034355548305633,-16.00905655998516
-2.818380196597968,4.16547279901005,2.1624863073970104,-10.075508827941881
-0.9000728437335364,-2.6409861277421136,-6.502023567967246,-2.124825487206138
1.1689498897609194,-2.071981467092783,-8.492326214468111,-18.901563428281875
-6.792594126496356,5.840347307590722,5.753706980695309,-2.4230658714424678
-1.7571126617032244,1.4338991184276075,2.0900020319857227,-6.607478802389551
-2.9588010925993964,0.4533469140306572,7.7691261287443325,2.670721169478572
-2.128445085514646,6.9590069333875455,-10.655120725428059,7.689820995378145
2.134912903774498,2.676216781026131,0.3578104064006453,-8.44677730949401
-6.404920510465513,-2.240495159375051,1.7562428508612484,3.1476891986982416
-4.4954336608765715,5.192327834076682,-12.057610621871444,5.141674332300738
-9.455817804854313,5.093326513302969,-1.2301590648767835,2.194870893710835
8.172857503122536,4.192529145027937,-1.0561831077972883,0.740194238771771
1.4342968302485488,3.5090431507124826,5.198740964271931,10.26135584637418
0.822246221222746,2.1514302694127707,5.930152108633973,2.509189581004108
-10.43905930093654,6.102484080023828,0.12938707090828672,6.386680113104099
1.1006282265133591,4.88456924728613,1.1966955778441353,2.5526275191026926
-5.150047974567769,-1.5526115878201558,-15.725609365166864,9.067773739711967
7.301822874325114,6.324323624526247,2.5379506403175824,-5.734961876723439
4.1359454489545575,-2.6361341589688507,-6.416643958314655,-8.455538318798283
-1.42063514249085,5.117804559492736,-1.642071171960854,7.447321423470726
4.095046985494485,8.790404535726292,-8.020286071112448,-0.3440822618699855
-2.0287449583227835,-3.7522227525613268,8.14638805113815,0.42848392519763223
3.9781277152500487,0.5979444411627135,0.9176761730819898,-6.657287579113415
2.694213805826859,4.1245688134374525,-0.6639030312144776,-2.861189235312345
-0.9788092669435005,1.9203100674684244,9.385625244251845,2.434568293338362
-8.040443200111381,-6.3700097453949205,-10.870764845551133,-11.090115183387077
-5.089811535855216,0.729459393121985,1.577124450559939,6.60917765911708
5.4664493120809565,-0.21166780998241208,-2.1530144472036348,3.3727463972112766
2.926987339455565,3.874720870479873,3.499800803778811,1.73825184233419
5.836488767954972,-1.6265869530277932,-15.290458452755072,2.500072098434469
1.3968211857728017,-3.2447110112384046,-0.00877445181052039,8.009328318485384
-6.318630988152766,2.405515187883047,4.703247200193722,-1.97841076304762
-0.2660364060333621,4.428581872808863,-7.552955046032093,-6.489111686511713
1.3417682766873678,6.597067508952037,-0.9464702554305227,-2.869820988391652
0.8660023244410171,-2.8382563876811453,1.9220598687425152,0.48237445801102297
-7.413901679395489,-1.7890367063732917,-6.9271845106680665,2.192586630139857
2.216421322311087,-22.739797202314374,-1.7803937915931805,1.779533249113534
-3.9238501217025856,11.493399123056895,2.629910352481719,5.50151659559581
-7.324589865505617,-0.5884500758081828,2.6897467942712865,-2.805182280047589
5.907148253855223,1.5239866959136812,5.552962124961265,2.0734033366127065
4.356641531258798,6.104879211224986,-5.063804958366571,5.319227121461466
5.302528705162275,1.6146316262855294,-3.179670064510052,5.076086574392395
-3.072454372442088,4.263835504318898,-13.664907087496903,4.642944791668814
0.7765339269786753,4.468639347863785,2.2463295027990746,4.163171691855265
0.4670437190677728,-0.8009367968714542,-6.231939364980956,8.138715114412292
-0.27505561533039524,6.044076135905041,2.321260462128514,0.6968587758694937
4.032233308972573,6.017846076054134,6.116397613486704,-3.500045455272506
1.4040579701149158,0.265688732717706,4.543950211025319,1.9889781910570754
-0.6499850686507748,-6.185691645968845,-3.208260045067238,5.083172965499124
4.334629122086785,-8.932580994376043,3.9769271056162445,1.2005196325983043
1.8355448723527912,-9.863024990285172,3.683977479663273,3.894845250658417
8.645158301778872,4.492501789668474,-1.36207720193228,0.3502453149854077
3.1675716690388662,-2.095926684994385,4.659993194816014,-1.6584354690926162
1.0066865592650196,-3.794568935311297,-1.4472710713884247,-6.667872284932201
-3.2989346091825493,-11.242088648961957,-2.694030149784613,3.9791551508732894
-11.467402504209542,4.181753211734005,4.786104016084444,9.257544706691984
5.640448688950602,-2.175051979165641,0.6468507686121754,5.1848778165291804
-5.718465746742188,8.04436190045508,9.35520538915047,3.637682540779668
5.9159916737507965,3.271525164136545,1.8463490807435967,-0.5072271857025612
5.122698270280549,1.6137000454946993,4.037764916800004,3.6761476569762266
-10.35484474310262,-21.055218322340036,4.345358661035345,1.860397785263082
-6.71774094114028,-1.761187647771564,-9.944239340329528,2.7169936196887683
1.9131223256034302,0.9105364681739054,5.765566395835123,5.911415619622645
1.3208981708814547,3.393360077411792,-13.612617033734612,-9.623427348075957
5.774687763217755,0.9350355596158622,3.0085053575267153,0.14493099068634052
1.066872848757918,-5.4991299678848975,7.304897856461668,4.252830900511359
2.8339982648767963,4.667121546075396,-0.023523509593591285,-9.20339655204377
0.7096250721495194,-6.705634576190793,-4.597464368123301,7.073426584595708
2.6144370851336522,9.102389931341282,5.949057340641758,1.7814870165675245
1.8376236780074275,2.3755670588672153,3.4721928772512207,2.685003919213191
-0.3597914057917679,2.359667959649503,6.072943796941551,1.9556387911713564
-1.7537676669933646,0.7711692885772372,-3.859272737557408,0.9289040011519987
-2.272905711068552,-7.351025896865291,4.660827140433124,8.75162883648063
-2.104563530090477,1.3655614427955776,-8.033462882339169,-10.122296908700314
-0.9473025949855693,1.1820267703132892,2.6937557191867327,2.7884535060944415
0.19801724312404,6.03611517260757,9.660086866620237,-4.908258363744942
-4.6046982836746135,-0.7486399678179474,4.065770636106336,4.862618527590541
-0.29031191050568506,3.3406858424414274,-9.177282312860893,6.819736193895963
-2.627185594627908,1.4592908914945149,6.818544699723265,3.6549156222257686
8.877873195165005,5.259015178543951,-18.249892822575244,5.5532016246894855
-3.02409528007851,-0.9045724214690765,-7.289610125074393,3.2781213025451663
2.3706036901666665,-1.8555268909059563,2.771988563211682,-3.054407672591182
-2.264937145688986,8.415206215897872,-8.052461605382167,3.848820587789728
-1.4739892809474167,1.4053950710478027,-12.504489848463944,1.1488258294944274
1.7292005294583654,5.555329489853815,-1.5470193074231418,1.0809321673218903
1.3336209584004415,6.817441880281621,-2.0552824814328723,1.8124839266393593
-4.6467539576432895,7.996986091773778,5.922767967526486,-10.87902222787394
3.0292531242626186,6.368416950139494,3.2803815504587632,6.865514119692307
1.4734004387516755,3.6065752030091467,3.130690375941821,-2.544341308254417
-1.7554127948664466,7.099107421289563,2.257297241415305,-2.6680334497598466
-7.903128443439408,-4.674829651021771,-3.3151863457593045,-4.304409796853875
-2.875369051125769,2.322482765978325,4.015257662106322,4.725690767818342
3.5582601983842577,-12.244066585119395,4.904206220210899,6.252465714006618
-0.14263488724755796,3.4574750664662552,-2.0826548145089347,4.92266268140304
-12.365268963548928,-2.2478120724118114,-0.10312119227177874,1.6356437453281032
-5.619855349589285,-2.027963658504518,6.585836453422047,7.33296952025994
3.0081479911743463,-7.202428567148939,10.851689012152548,-3.003843740982802
-2.94225427523807,7.5684654240845965,2.7354838382988156,5.391648403559209
-1.9451689322133974,2.9599664462115456,-16.03605734531457,1.8360997371540506
0.9072064470605588,3.482389319774885,2.9372982817641606,-10.67905086486244
2.110871778433279,4.224961934782694,1.5785924973355563,-15.980443071302744
-0.6625105799085891,1.7009272338659542,-10.433654935967692,-1.0888577650425333
0.6904337523007607,2.1457522192254466,-4.344494485533847,1.3938247431335107
5.485622369553485,1.9965053714702385,6.72665913976093,-2.250953718150626
7.446677336466982,1.4961644038149302,0.8474376493333935,1.2406710552356195
0.7947473853395391,-7.917444659184245,-4.361132566713305,-12.727589607810067
-3.2391533867075206,-2.541118619104701,-0.07289376023088678,-3.3976504480534473
-5.783539364697995,2.3506182188897426,5.153211799751151,-0.7003536948297722
-20.51336742590256,0.9281073524258616,-10.737772563048846,1.4163541142623401
3.556174674741575,6.668904384438722,0.952529948605374,1.7423883761261294
-14.234993789194146,-9.702908664334213,6.324256964857579,-2.566055726928205
-0.3094840287962342,0.9533698929616143,6.719911334291165,-3.5163652324322854
4.6289797932950085,-3.1547403457699055,10.667305216273977,-4.710682950003495
-1.6153204549711395,2.6168179698777614,0.5981336600899425,-9.134829069990047
2.6533957274522275,-0.7955515135900697,4.788610653572224,4.778840017059252
9.536460734461391,6.918173353490914,-1.1214990669424694,3.87856739371054
-0.8964620416685233,-7.252268202678952,4.6167487282108866,0.65710754157314
4.653527466138498,-0.8375466557635818,0.8324822382001784,0.28065278801145155
-4.590920758730052,7.760666667173666,-22.907651772909173,9.411796960808786
2.9176273616422725,4.063488382756606,5.139624214336859,5.24040873439424
5.06974020884627,-8.246897596127187,8.148337871356212,3.7934914822621693
-17.32362122099704,2.8166112353091,4.796341024565567,2.0533612841677424
0.14950521178018278,-2.863242794142703,0.22482575157596685,6.201744846950767
8.996922575099603,-11.81711967009171,1.086071468619302,1.3217279446473071
0.3123334510720284,-1.9365180639855808,-4.338292296354506,5.387628901111629
2.554056778471878,0.9796808717861438,1.5224021371340477,-8.543789024216977
3.717806814056388,0.7830078557021203,2.8287243410950076,1.4614320474490583
4.176656824535703,4.350135311972991,4.027099389019259,1.4309841166596833
2.1199962227373645,2.052664290409112,8.489468121795863,6.668386857268253
3.4922852988015762,0.9000861753408138,-3.3901697291826345,-1.0190848179345835
4.398357193294591,-10.891022548338253,0.31218373322571935,6.04253626659419
6.45196253203024,6.607777619406367,-4.60461935270369,0.5411090862378742
8.590037060574629,-5.270783849936276,-4.187487786553202,-20.925099437169877
4.884012060156858,-7.2458645916356055,4.505940467091275,-0.6908225321661803
0.535761495339573,4.579990149034916,-11.576100511941373,-0.28472705441969737
-0.06305421769857691,-8.502396420640327,-5.864649428685869,0.812032710194039
4.233984329828538,2.97070578372222,-0.4072815779105241,-2.4972829070593363
1.8647442017052962,3.83695487458564,6.30603017491681,-2.6440219100132083
-1.4783271619422333,2.758742352774224,-3.7966352624498647,-16.335718787138084
3.9651966880827536,-2.8675756066445253,2.4240407315694625,-2.2134444643109674
-2.888749853893769,5.835704237417669,1.7219836993181659,3.582232569986882
1.396302964891237,6.043470481883126,-1.7349786463718395,4.608180586563652
4.191105494634703,1.625737713457724,8.087069188305104,4.911032151607937
-0.2526426088512337,5.2254121259477735,4.431718372744815,5.862814847855031
-7.352215983473924,0.504861028539235,8.384824004649172,-4.600507860876121
0.5995896357532031,-3.656526769493844,-6.668590652262079,-6.306082534731225
7.240589641777783,-4.565638031303823,-2.8413508271771555,5.664532663105575
-7.189302974575969,0.3852186997615199,1.770802641898566,4.410794367483668
8.663864167996879,-3.4377633881008762,6.18577612038877,-7.254778095753579
2.655803026989372,4.384807266658829,6.077411718176958,-5.705724834048809
2.3382620802912464,-2.4512436043994548,2.3368324778990477,-2.218376765554737
3.031473844959948,-2.9672914386591422,3.8579674252726512,5.439870279005373
6.221184244111088,7.375546909485131,2.2901102115545875,8.057317478824626
-4.6927245568043245,0.7118729530646846,0.927437901370535,7.4550096811693365
-4.016479895123813,6.064273258442835,4.997201699735566,2.2556070093755167
7.783528535418964,8.626195501926713,7.369892436209348,-7.315534399398274
-7.47504080233736,1.9927869880599864,-1.6197899991687272,4.508835782504406
2.5064515574628627,2.7594894253530207,-1.6107823259252676,-4.76912675207047
1.4611104132066095,-5.698361756057793,-7.634972150758326,2.886318137475808
-1.2611945591394715,-0.9759189494093299,-0.37456994196652715,5.359568196193045
-1.1729460776884522,0.009758099610404969,-1.3896410057553403,-7.355743158152507
-2.6630751735796268,4.256464177099858,-1.6806731697816844,1.3340136738561732
1.4260446163846523,6.833708309027191,4.8754134822446495,6.553848885159319
-2.0556225742304233,3.960581140939574,3.778582783234416,5.317140975554878
2.6468987010364486,-6.388412674306583,-1.1170449386979904,3.607290849844855
5.255505662495972,-0.16387787631034811,6.361027021621826,3.0646500582595806
1.53453760768721,7.0396317149450205,0.21844646000111823,7.2894901116111654
5.43800545250643,1.3450222887003491,7.421639884807121,10.624644651250101
-5.655957812850146,-3.6064378511024344,-7.391646266890373,-3.105745150260539
4.572082922211937,-3.0850839878820544,-1.2449141948312494,8.15387596873375
3.0475075671642915,-6.005138369071783,6.963185608360568,-7.1000708976764315
7.482605690060045,-1.5343285318029523,-15.037848604162942,0.3565709144809688
-6.182120141954247,3.2811047589479223,1.2940952941275512,1.3368474602467089
5.275582160723776,2.101518140319339,3.538004401523967,-0.0721091872846813
-6.575476625035317,-4.529251268228094,0.8369351557358087,6.1817520816657705
-1.982013409744599,3.3673849370780466,3.993616072292941,-0.9163534011716123
5.040337672169652,4.408320051498027,4.366602960631081,-1.4092323816235464
7.155305834145145,0.5061921553533786,-4.80134975802677,4.79906612169335
4.819182858521341,-10.77552204658181,6.103265838314655,-3.006317179685034
4.095688771046275,-1.3885715130549627,3.5349636757803644,-15.310776838993363
-10.80557284075955,2.3135791874112677,2.20623848118419,4.205030144141933
6.748295247516801,5.950991107901157,3.6263536713697064,-0.32251514158947003
-1.2813074249893868,4.031276570803687,8.522925327981778,-7.261118134535749
0.18587478382308723,-5.365929051007171,-0.5061245762808753,4.862963071437665
1.2049944281144187,9.789708149368915,-9.924673179286916,4.132238771019015
-9.01126699702592,-0.7774558497200452,6.877721142821564,-9.947199708664868
-1.9345578329928979,-2.0307396995210105,-7.690601699051154,-5.506097800699656
4.093876428527183,-4.345549021559769,5.5633227829989345,1.5987823853551788
4.772434980002305,3.4456330116300613,1.7117241522051145,1.716242468481063
0.5503801500001735,-1.2404576881182585,1.6026872215651657,1.068557312579692
-0.1767970826909258,4.817415799106488,6.2137989835035405,8.64939106229243
3.0236265913796783,8.272845172333472,8.52457012712997,7.256844992919724
0.3561092899014862,-7.621982537727522,8.65552463239823,-9.978929726249248
3.772619333676716,5.1781709943475995,0.8503238115397806,1.8447272776451058
8.851995868095617,-21.286810084403076,1.5352654243442032,2.4572580546711116
0.41777461658443377,2.1698691598873694,0.14248526367770253,3.751340748294332
7.802958141214743,-5.887500753130816,-2.657367162987896,-1.289726360408224
4.3365211689856,-2.505757685297649,0.18589265289591594,4.646620721018309
5.204087064293923,5.56834567592885,0.525356257301187,4.339528732069674
4.3161634990680895,-5.303666234264494,5.240408189520579,-9.415534132941474
3.6196295791269555,2.7623661887655366,6.037111070144004,-1.4299400081260103
8.297072035134798,3.6226615972712004,5.455462930567553,4.903230725845042
1.9213804613806356,0.19291104207904652,9.641238465412751,-4.331451989023968
3.4562857514268837,4.723409162320166,0.5286392340416874,5.878315292206182
2.641582149377782,3.692517688353167,5.127744496539641,0.8923041227972135
-1.0787587855060925,6.697412510450331,-1.3508742717019615,1.7106464534445927
4.783228553040331,4.114064567325244,7.509958575840869,5.239332594897853
4.709326172524676,4.883965984661064,5.789693865101391,8.718205368277765
-2.2730043227373713,-1.1106297139784935,1.5887250476966734,4.630349176386041
-8.349987294308722,2.3185489727046225,3.0661931151283603,1.1752225521805357
-6.863383573519487,2.6441269115769472,7.268141392572243,-6.6946196576001356
8.162198342079071,-8.695619817594118,6.666542918834324,0.6819733385562898
-5.754507884930452,8.18998900680857,6.159986862360892,-10.430814273954255
0.10171318439366822,5.9734196675822915,-3.956919049110379,-11.879843323820154
0.995594926678188,-1.0255992636721913,5.38399542845352,-0.4904492321528906
9.396973321944925,4.637850858595943,9.693864042395749,0.013567436376412445
-2.6761741949819813,-0.07626674699616487,-0.452870340983214,2.144726075241298
-3.6257558253160593,3.9577588201931526,-2.759561867071749,-11.909365707470862
-6.79904731987432,-9.892489864405082,6.066936756450769,-14.799978187344074
5.944330091918339,5.757984276394421,-4.613598110102902,7.175790053330825
5.96804346050625,-4.8242190526984245,3.4137670244459173,-3.26307980306062
1.9326750157685377,2.5733564338619317,1.8279214390378975,-18.339085074008445
0.7950112041779882,3.3245780645852854,1.9436007967172948,-5.658360390617361
1.022615703175494,-18.388049487800625,7.431257050416992,-1.0085532772554444
5.664238008250601,4.207653238616835,4.582568555193777,-4.1089352204037795
1.086498866500752,-16.458079003751617,0.40966314934974335,-1.876592169438176
-2.8243930255874985,2.1240094455219385,-0.2417441934914173,-3.848842012743617
-1.4875630828606856,-4.280137018915855,8.392775851532583,1.4162312818656488
5.775225787022153,0.2520545578129685,2.615899386576796,3.239128633517865
4.171997395875799,-7.760160356235307,5.147697003892411,3.336283881641247
-0.29617087300061773,-13.916157989470303,-2.755563246499417,-0.6945621464399068
6.283536307461795,-0.40601857198949176,6.1976771402433855,6.578589342217452
-0.5947122658961957,8.265423614553143,6.1860198355322815,7.623656372078276
4.013390917375653,4.976554528661584,0.5661939784377878,7.508785452082478
1.8790192153353327,0.9269433258830624,5.6590120952635985,4.252024286173366
-1.0675982569948932,-0.6483231700389815,-9.761306923460406,-10.872540112824026
2.2531527619216525,-2.8342114708400317,1.4277618421214306,6.032125354082076
7.884164301548432,-5.933716721836536,-2.547940330942307,1.4772740702153655
4.056668016802626,-4.42245870541889,4.73939499949886,3.180625970224316
5.0493210562390525,0.3009405327036774,4.53553932255382,-24.005149865898787
8.293031696442165,9.4017931028468,-3.9503145800031625,1.4847119047645236
-3.9306338313738,1.1346801716713664,7.0331816549692086,-0.4978443458811199
-3.233019960219485,-1.9029553757227191,1.4420266693609811,9.042563195376967
5.388303866807994,5.9671372868517665,6.50418264725997,5.17377565988453
0.4010204046852042,-6.209954343639787,-11.800210648825871,1.2604779997087334
2.032388903222729,-0.19893379460009797,-1.5614129249344408,0.7290250120755246
4.222590689631634,1.4855657430896123,7.277231863511009,-5.160902015436676
3.8002646816576107,-1.787295421143579,5.3700446450310615,1.1005058868539734
8.774669593072248,4.070297070662331,6.661221999564841,0.13928410281707215
-3.5353402768740967,7.816508854142246,2.4299710923169116,1.8288898403814215
2.2397447614972767,7.224832940531503,4.579522710593498,6.387032088247082
5.159790032901762,10.025305523296735,3.971238653195286,3.3165339390569244
9.122858583813345,6.72973678735497,4.765807924251757,3.6832757576978388
2.848678155194261,3.386310311508389,0.37885618827440837,3.3095763171891335
5.211774392958385,4.255321958054978,7.260813567374601,-1.1037205010444922
0.872179584641602,-0.25844155477884456,-1.252302856875513,5.514402685134598
5.6316631533986765,0.6367452291525666,5.4216460226239676,1.4448407583768166
4.054016210788003,6.400137491787429,2.76770295791545,6.845929086524485
1.9761055782301877,4.530295817306179,2.4652151926453563,2.958821949287536
-4.75562462080863,1.4276472622826475,7.3869416412219735,-8.515961813827616
6.97313116053562,1.5917072381722512,0.9369573784176985,-0.05269186060213116
7.371858735124383,2.8022483534344964,-13.272377759013157,6.495033196578664
1.5548719799965949,-0.5004577861944064,2.3195158190325067,5.22018434846008
-10.41558124800052,-7.9452868360898385,3.7536598178397718,8.470973705025948
-0.5363990932733748,-12.056023462721068,2.516813310469395,-4.808288540708475
-3.446902964921195,3.6903243386033147,-0.971356179966758,7.207028276552851
0.21002305781298053,-1.4267416843829253,0.49651402663043953,4.404809771300247
0.8477291367120837,1.5185712078219993,5.957016687304613,-4.721675319778463
-9.941866852627372,5.577581381271322,-5.343032307978614,4.0893400270363145
-14.381906569447475,-3.779756069279191,6.4861409336163085,5.203979531899254
-0.47974039100882826,1.4942388952769683,-12.53519896102696,-3.169253785140633
2.8965908760337924,4.935505521839847,-0.7336735353423514,6.861940663260903
0.045812961240585294,-1.4679320700190068,7.803658880193314,4.4592813437209955
8.041824857746507,-0.8449109805526689,0.46013880267832263,-3.8989566399580937
-3.534202274369742,0.44254187275347334,2.9541412947190473,4.696675151350242
-2.177058830902371,-4.973803734827257,6.667841735250754,-8.909322521985061
5.00246224192028,4.460998590575816,-5.419176679301469,-6.938749025260229
-2.686565999013047,1.540197224829157,6.931122747015159,0.752672329834347
1.016985673623732,0.4468696811338475,2.3244953993342143,7.847707707839895
8.31630443193624,0.6345245046507095,2.8322987325231814,2.5053378364028376
6.478209869817447,-5.725249044099957,7.52630943427339,-2.7342231423108245
0.22237275505354887,-1.8598550113122236,6.08087372745365,2.2041867705403355
2.819524931391162,5.190529826473266,-1.4009578335432025,1.644815118271044
6.650058666913801,2.301104667806218,-2.2431085308031378,-16.371929876640102
1.3990190512080833,-2.6365648455478485,4.477009223694875,-1.8558682856987687
1.324985893814131,-14.824822861286801,1.6125557184415236,6.71951613186706
5.593164779001451,7.274228226101684,-0.2104014068616209,5.473758751885676
5.971324552448046,1.2571752085092953,3.789514575702597,-1.748778688269212
11.038182125338729,2.499745281631025,-21.122968377795306,9.033356601961835
-5.695964532568628,1.1436294099373896,-3.1387958032543786,-1.7001409182983096
-1.7132537763160842,-1.3158189158006195,1.3726434392987343,2.8300372535214464
2.105714937889307,3.0140166461706848,1.985754180498521,5.095825545833854
4.234034165055446,7.3789394207311005,-4.476053110522688,9.765075403556668
-1.845529138979979,-0.043938672458331496,9.74922267829431,-8.53843333770434
8.60671414788316,6.007533786109825,-11.548694407386716,5.291839348215511
6.669383049324726,2.1803618529846283,7.093830074342378,-1.1245453600336788
-13.256828700783402,-1.6889676327080494,-9.562279983435221,2.194559484962525
-1.2502420220952402,-6.6479726602946805,2.6977664371584424,-11.481478734150059
-2.9312352835960733,5.5651687663205145,0.26025044742814885,-16.392812930067166
3.7404042117927827,-1.8163857120583273,5.025366393439249,7.0491654809872735
-1.3097646623799555,0.9721071702270585,3.2135334127831996,3.6829740092912395
-0.12554873097788052,2.687775091470499,5.803293351124687,2.1408243863076066
4.132966235173976,-3.365761194128133,6.949061040423057,-4.210671175910669
7.173360475344572,-4.8799671482193325,7.110636239113617,6.3367360106420705
-0.43005835310469925,1.7406494053596013,-1.4010847023019934,2.9775684379384515
5.101655656449133,-0.124733114262785,2.0256896273233984,0.5123624751658298
1.7517428973187246,-18.85924681540015,1.1539391381667485,7.305892212838966
-4.887456488121059,8.490046783066191,8.414035832718863,7.477141029642404
3.280289488598101,4.111521576927121,0.5469401961433356,0.20735871902225256
4.330386075146731,-7.003320480423465,-5.710837680163063,3.00400147701135
5.336603799972311,3.0897281258732576,8.391331105551568,8.200434899867723
6.091124600333937,-0.7009676669669531,-17.827890187880154,-8.889072211991582
0.04463201139854627,7.124700233437512,6.218836458838606,2.8589362361056985
1.926127101017011,2.62523145155642,-3.751762390933191,5.767779975072795
8.134456004954526,-3.09200037710011,1.38691662424473,6.763481528157023
-14.54867787205783,4.794981373857638,0.8458211820277661,-7.840823067088095
4.952612423211217,4.991131808892785,-3.6555688581508967,7.699606669934482
8.383248248037143,-1.511547272022927,1.6953754784500532,4.488768371025515
1.191558152000867,-2.9782442274800154,-0.7787400069957329,2.8598802200862146
-3.2387410343686187,8.284871968512903,2.622451246806069,6.06271594802152
1.4026059517443048,-2.676137357195202,3.05646013453061,-7.343436959062004
6.314188498919341,-2.804194913069619,-2.2799730983038486,6.236318632635147
-0.17609117860107798,1.5850493492472317,4.094116476285873,6.501415906415062
5.886597845487814,-1.290863558382899,1.411344387408299,4.906425656697383
8.199904981386972,6.5540888536060855,1.1030578986992978,6.389010694058804
-3.689388888015688,3.357339227380077,1.8180877922170247,8.575013687003946
-0.04631797397780483,-1.227403260729485,-8.144176855927878,1.4055409527283729
-5.16362685298978,4.426249338615516,4.695813391070445,4.715554123703399
2.822506740623876,3.101217579067189,-23.297961644921795,5.485184650842946
-8.019042026977205,6.91773138176567,-1.215292007231696,-10.520413536082998
2.409155225225659,-2.4086445847358355,7.67237376667028,4.19010444394771
-2.130440373484436,-0.49640272407266295,7.491221059492222,3.3202225936057843
-3.1255874209994663,4.11081218115724,-2.42950513599817,4.731562362395433
2.8118216318795244,-5.28475751992076,3.5219188992234116,0.8413993371187729
1.7402260899490973,4.087118683009955,-0.1692815974708175,8.893837979834796
-8.780838058717219,-17.228376936751264,-8.118010268749803,2.190726875904005
5.890235597993711,-5.810461460729197,-12.670128904446411,-6.0235596273557945
-3.3097278211523466,4.887043452108195,-7.090098264486809,0.501007243493973
-3.194908973306894,5.863276637746409,-0.7530291067357631,8.156869156097684
-12.808305530220352,1.8031749255574034,-1.7339591250605757,-6.0302880791541185
-2.532232206122285,1.3833016991545826,-2.7229864436357225,-4.475286406491499
6.205093045037103,7.6130009415391555,2.3395159986422023,-1.647750332201845
-1.4051456244155156,5.533692154889945,-4.5014081568171385,2.6354652688826476
-2.7170364888929757,-8.472227417322383,4.086220160882611,2.6245078048793964
4.133517365833469,-5.864708803347376,-1.6168072996432592,-3.85996608498872
-7.5282689142327746,-5.251023204556731,4.722781268171683,-7.163084553832441
5.06931981153476,-4.4633101487607725,0.5932127651484329,-3.1775174830613153
4.644038927288955,8.52321808261864,5.223752156046903,0.31373507572120474
3.152642724540921,7.74615094753786,-2.4345243552285503,-6.525247614519557
7.037893859749879,5.1013794838486,1.1227743076446934,0.3239749449806695
4.601136069972349,-2.3246025427400596,-26.805567387318103,6.114164969877294
3.3433248773695805,7.002793528407327,0.2573163628013653,-9.665317050489612
-6.974946024644099,-3.2484452150186875,-4.978953446333318,9.519990707011406
2.5936579874142667,1.5967494885076654,4.928538514542577,4.317168130220534
9.541709959485178,2.808509214360665,-3.004513596849666,3.9936359855165087
-2.541431034270668,3.413775296631062,5.816698370124318,-1.1199690624322471
2.482550659364455,7.200958716977848,6.049523115204387,-1.6778268624039114
0.0938090021751962,4.951746301605546,9.264763145982752,0.6693770725657586
5.952200837170339,-2.3505984012433707,0.5395256477413284,-7.61408123462634
6.812071826120712,-0.051435385798360045,1.8659042758710775,8.114279330266129
-5.732497340590495,-2.942122105153654,3.8433940066794605,-2.4278251822648755
-2.967307688294542,-3.7599702155541763,3.8898655512339637,7.741753988131208
-7.89822819128402,2.429979747777793,7.768890360544134,-0.6753157979580848
2.0061080221661878,-6.134156704254927,-6.391070154457434,2.6947551905120406
-3.3520133574738824,5.937944817938689,5.981008729230286,2.360555479070058
2.442374845749767,-2.001644850118101,1.9650518394752474,-4.115841556318038
-4.104419820886932,2.3992841409294563,9.911135499943896,-9.540730900284274
-0.01625660154027448,-8.604775704780476,5.321557839147122,-3.8094448997715205
-10.219858698179241,2.714864703258023,-2.6518631539934177,-4.918597268831881
-4.458482191607201,1.6626304763009436,-12.96843207326054,3.4829920483378416
-1.6856894625316976,6.583213924479917,0.19959849523797857,5.696136182451912
5.473374731897229,-1.37088576333419,5.9181389397556465,1.6896365004040135
1.8779056799265483,-1.1024163178227369,-0.4986947934712944,-8.651059017873443
-5.898027421265076,5.17604522799353,-4.157046728979768,2.1971624965771426
-2.5950794212406896,3.8986113827336872,-4.363152793859587,-6.391046156393045
-1.3791482700152544,1.9943628506155129,5.210614521512571,-16.570141607423345
-5.51764252944687,0.35041592523641896,7.959762076279635,-2.1629946617415143
-10.809145627523662,-0.18966667311518037,1.0939722597249393,-10.563130837297301
-5.4067222395312005,10.013939029978477,-2.8689606473487466,-5.795820550131289
1.3910314309219358,1.4973737320789802,-3.7355166505270283,-7.1502318468505095
6.000739650967891,-1.6716463475986245,8.769078889826112,1.471924476214344
-0.6998534185805748,3.5561620219113195,9.430592267010567,0.34608310176290047
4.189315709604281,11.474130739769514,2.930082468167047,-6.801874064634433
-0.671458052938211,6.711444016043362,3.6254960811749584,4.665011776559453
0.37572336142931023,4.57922782168724,-3.4619593492670653,2.930045421378722
0.41068210475418643,4.34052233945506,2.3883837149761433,2.0016629790675253
-4.10625010549466,-0.11025056534734645,-1.7143388546612002,1.4906892177343636
6.472572006645659,4.379497677540332,0.05946491821341482,-21.8208624547392
6.992994345837968,5.203081395851182,8.634992511982926,5.443438178193567
1.5652578939868198,4.437220702132013,0.4130878317300706,2.6060600893576478
-7.484931312421438,-0.8229664176035172,-2.2684726749651603,-5.569034588132716
0.22638806918669852,-18.17236511867311,5.398898698390017,-3.323594643643233
3.259726685092238,4.110005180815282,-12.59201523788838,3.301710360462536
-1.0404329451209586,1.6956866214549855,-1.8494287344401172,4.721251679472367
6.2439876792549125,5.209936909192599,-8.884899574563494,-10.183855823385557
6.817987534846515,0.41216549644698475,1.681473668805097,7.398241735410284
8.173255805291104,7.301268606775899,3.1744742915455895,6.542651737936598
-3.7471086796035706,4.670457427024683,0.0177137750083034,-0.030861403389437214
-1.2692265381459593,6.335132811942923,4.092256511697098,-6.036993744578986
-1.1841421942080463,2.8751255999310743,1.794694059120097,4.469788962077992
7.157431964541086,5.671456262867384,-3.987191010976371,-4.005359594591383
4.367589183226065,1.6177566226254143,3.0229055942374643,-0.7273229289382002
2.0751044070234848,6.514522747941999,5.525011644564415,-3.3921626829996328
5.479858780958379,-3.587012616985888,3.365882179284604,-10.090538842126165
-4.320627247651226,6.5269005465974175,-3.5760855456506526,1.5078396265009744
1.2018560373571374,-3.073626271881647,-3.7214609085486323,5.122951612188061
2.521669255488359,0.0709007955854446,3.799752494135838,1.666005698570732
0.7489496739134178,-6.592853009056281,1.2050802883693095,-5.248517120709806
4.014685494806678,-0.37992733654439803,0.3666943735117556,2.059837423791194
5.914363004368946,6.531736952792894,-4.607772291654772,3.454543395720023
5.260913791751498,-5.475955416148167,5.946684304601035,4.781278197450597
-3.4796842825997607,1.362164882803956,-0.04506926378389409,-7.182907578973158
1.5212297243333102,-0.016644233418393384,-2.1880039200065617,5.476285202855497
2.8623919373730504,6.03203800803373,-5.67869488326706,-4.6238937381818275
-1.020474740050057,5.00157414489372,-0.5603460739681054,0.3521722288457738
3.8543151529039488,-5.325722459338692,-0.46023444346947784,-3.286937469584508
-2.9476815486386325,3.7313761303923023,-4.2838750459210395,-0.7453692139781225
-0.7052132776925847,3.3816955835807043,-1.2325545607063901,2.961108589137936
5.638358635848621,5.379551611827797,9.309587858437752,5.315878482383816
-2.6257419397303616,-4.621161007288439,4.953239829016169,4.485189967231545
2.3469488056000207,5.3933351475382345,1.9309583111297428,2.3883881072985673
-0.899054728427507,4.150969145363881,7.397031000195337,-1.7564389024280658
-9.799919286938193,-5.556749476623846,6.184703002345863,-13.798808289369823
4.837478445585046,2.1899719562823705,-20.475633790893927,3.828479728532841
-1.2220961727213577,2.687783781413355,-2.1841391534561474,4.625492013141006
2.8399601850294682,1.2233321226497473,-1.1028789303802178,2.526864805697894
6.937025218583097,5.309569124037434,-4.841917096304645,3.2005692259044274
-6.333990172255597,0.5060164766879183,-3.7035027554654256,-1.396357778241132
2.8018509235345173,-4.338659047756703,-9.827721508333365,2.488598870967081
-4.0846374144506985,6.855316272177813,-1.2419184291679777,7.833356014635083
-2.1907247914020695,1.1792346524964934,4.341267700145973,2.3098207664116437
0.2199215447691793,4.116970573356301,1.4007848590982732,0.0737808731252656
6.542802791040624,-0.15215037270326448,3.484024475831049,-0.3070234690051592
0.5875917476458852,2.536204064710116,2.157740731457668,4.414509406841205
6.371123042234655,-4.536974647909378,5.895794718765469,-1.294630620559154
0.9859058857612395,5.3185685448309705,2.778422376651509,2.5718450910978063
-1.869242735919996,4.778207217447278,3.0762444160644122,1.5516631913766012
6.912747122314819,-3.1540598253296146,0.9145791036906417,3.537961884932159
2.605822282251609,2.8275618495635975,-4.4120102473350435,8.01209171285904
-6.828067183762828,-3.9581072079826463,5.0759056627242,0.0013199604855316238
-3.2342410186852546,5.649724333208365,7.917630772083449,1.2871631757105746
-1.3058090043862192,-1.2616059832144444,3.247714900207761,3.745674504190873
2.779003794376424,2.7280772193633744,4.168667445926122,-0.7461574452792021
2.8576045960705327,-0.3163719260437574,5.446807822545988,-4.237762709045882
5.1789040686555134,4.456810607117053,2.1452208788626272,8.28806022449368
2.3503726526598405,-16.277365257176815,-6.776867035361999,10.017253554895369
-6.2803075792755685,7.314328483445134,-8.229397739998351,1.9843673912365425
5.5714319423245735,2.870399826092605,-3.305634112989903,-0.4746035587197426
6.450558190535413,6.595777545469485,6.255616087870084,-2.00317346959109
7.7229223196433345,7.57195116317661,-12.02212709044002,-4.882091460270878
0.9274374855183243,2.918772426072959,4.275536771131172,10.048254663047135
1.7494482473666935,7.692662013402451,-7.210693561233644,-8.936400886795063
4.21624469331318,-2.768101866817691,3.4941769924019184,0.9133098892799936
-1.1034765835049725,-9.403661332934671,-8.000638248339147,-15.578073483010293
1.1129887837159156,3.5917958000044656,4.931950829896092,-4.2070712169852555
8.501870826755468,2.7491433477832956,-0.07508511966528886,0.3144349324257121
-4.4393558205334696,1.5767426643265665,1.8726557010070266,0.8288593234251493
0.9645741283938438,7.296913026671145,-3.5876937342587816,-1.0456446494464942
3.974596799822011,2.326328557073264,1.305184767636888,-1.91991288301584
-8.834551460690006,4.561235732415145,6.438288456557228,1.7937087771035465
1.2622096793629116,0.6404122046510317,-0.2353932298866468,-0.9273542362644704
6.430015061484029,6.204864123429619,-7.026404419981542,-4.162907545852278
6.198061100239476,5.813922867304118,4.49105132439805,6.328399528284876
0.2229128600634283,-8.35164950930287,6.235993267946078,2.7006765702890405
8.591826848471648,6.35568626145605,1.9010254424612363,1.9531457772614154
5.706877495247535,2.8639584758408,4.4384874935052245,-12.495670983067718
4.877365159817454,3.5243808439334607,-3.431720044447477,11.487679408517348
0.2339315225255713,-0.949416569706262,1.319971247502874,9.742408672970797
-1.1104172249822528,4.9098716781147935,3.7092503397893886,3.205169164247785
9.548821102079064,1.1610545776906562,-2.4927509333291873,8.023353676526767
0.6551342557703905,4.445037644626186,1.5402324809095767,1.2541454333993087
4.263340061170792,0.44187717206707333,7.513082378965915,3.230321816712067
7.17082460780765,2.5380725843981367,5.796908235575472,-5.596932317319897
-2.6887127295777202,3.1085953690698496,3.4540631446500676,0.1720953129791809
-1.286365237900651,5.0699072542809915,1.240595563594205,1.2061126726164417
-9.954391494374507,-5.079189140963319,1.4411301215226224,-10.084030512090692
0.7547583745336841,6.898677545677856,4.480665066621977,6.809403512661696
4.2419149701484375,6.7008001770766725,0.5495390868585872,7.188762044821317
1.3817691596379356,7.2848296684069425,-5.181434187517166,8.935162980670597
7.180605807820485,-5.62994407767852,1.3467218767094096,-2.3574856476540376
-4.291885235949881,3.6663768353910697,-4.3673039727405545,-2.4747960652038756
1.9346670023104071,7.140105556806638,-5.724519998408315,6.0641610831584245
3.7167680268498544,-0.20974755551334212,9.177631286909538,-0.9461085229970863
-2.1409615206204804,2.886902382224836,4.846093227477301,6.346259045972708
7.709221543619235,1.8699054687067118,1.8196165624457414,2.016844395196287
4.493889611424555,6.283468366412237,6.55247821283869,3.304572436323987
-8.353029165044058,-0.9967078326598156,3.7071112225101324,0.5757076149250437
-3.415770326830097,-2.3024290555733593,0.4823043676118566,-7.404307092031267
-6.41979742747712,-2.8733846362693285,5.583262466543335,0.06677248225379628
0.4476868596825006,7.6077004919579885,-0.387123747986557,-21.159279002745336
-5.070472871302176,-0.06741906037510148,-0.04935164305971895,3.163292397314244
4.866467181501002,3.3136593990170873,-0.5868996014564836,3.3975044001070493
-5.1666364981300115,-2.9305115042855583,-4.654434235928935,5.582549044898755
4.166720727071435,7.932859908930922,7.471233468693338,8.557872881760893
5.661703965095323,-0.6923280227878301,4.610383349231281,-0.8280514770339806
-4.623191567046935,3.1028961719640797,-2.5855514804371893,1.4753277694684854
1.131175595919138,2.244238348540808,-5.554220440940181,8.226605055206104
0.4768445750194313,5.651064551968172,-1.6510665520609287,7.49431146556222
7.363569913476094,-1.000057825229721,2.215370830850329,7.810194946647439
-2.103435973697622,2.4074510511531635,4.009634715030696,1.3071135642161025
-4.825619772757588,2.7597160777385845,2.836182240971869,7.02984106916648
-0.3822443623604151,3.486651876315797,1.856604463880604,0.2572081733365934
6.641543860499394,0.26341317183356594,3.0237623522218726,-3.8257615996418224
-8.324565993677725,4.999795554951671,1.5307643114839777,1.1948635321000864
6.81616945680208,0.6015477839447421,6.104174226290592,-4.031551447770703
1.1519318599832333,-3.0954718631394265,0.06638508323419501,-0.09970520579087605
0.6821262880852474,-1.060757656866432,-1.7772697707621319,3.770995015810186
-0.1724426901190834,1.5727222355911685,6.157341470967811,-1.9713007804067004
1.59628290162839,-4.7195669789221775,-0.1521445832213928,1.4879045118980123
3.2038780019244277,7.1935999184495145,1.7787080262081894,1.3584948683927571
-4.081446376104844,4.128413097772356,-6.572085594715329,4.8238987063746706
-12.003548307809947,-5.720050443521636,1.299496273329897,-4.313680655553334
1.8019907032317137,-0.4107928783210788,7.9610630899617725,4.405762377146775
-1.3388365135554101,-4.653980473346682,9.578424543126854,-6.676482491753383
5.847361808267816,4.237668698027157,-2.14321790699875,0.07376076223291506
2.970464726424467,3.4227658788310045,6.8178715492142885,3.645728053162266
2.050745924536188,5.406946695349859,8.038154349652942,2.804035796460102
2.3142674749665253,-3.7059176586699003,9.350842770212306,5.9579196997248935
2.3574744286715563,-6.160110215460907,6.600721793842876,1.5088974250492306
1.0146697221354704,0.18869458176606102,7.1547783397602664,8.226943329833055
-2.6667379189061227,3.387364051102022,2.6899343417713872,6.114651610206572
1.0011165508565725,2.921885786831126,-6.9819496899631694,5.585263458932893
4.977261307258048,5.802948493284159,-5.4629507837107205,0.24522470206142089
3.3230197569886126,3.59544795898665,-1.0459472885147214,-4.501166646632591
-2.7689952301996947,-1.3178890244698742,-10.329981421033953,3.18955302993653
2.862551500836252,-7.749337205235921,-3.9295188384426645,-1.118086897283355
-2.42884961501787,8.035997430961505,-4.522388137740489,-5.385529096266318
-2.5410092015735963,1.1004348142566762,-3.1731495297003924,1.0003142522542348
0.6065467403915088,-7.717437012161799,1.2405289978316318,-0.3937165543399104
3.4928320110194977,5.585856400427598,2.8132654720237333,1.4692897208914104
-2.1242756614824923,-3.5648485761040227,5.849552190878846,-8.344719338647025
7.918249036303567,-6.1062543868841,1.0608118622201737,0.9811549988653852
-7.78464855001019,3.6546850332296543,-0.058773284327575226,6.351304987313583
1.490893765947226,5.308174144256544,1.292688835759268,0.8612419306174957
8.910543367480086,-9.636987000833177,-2.866371035822713,-9.817073199606355
-1.4784986889662546,-0.8107508209825589,4.923036105535491,1.543444636365841
-0.09567275463573188,1.358657461349079,3.703288776502422,5.747227888064188
2.9809989510801644,7.001425159686331,-4.233020634369179,3.634435828155098
4.775357418255354,-7.745204082759816,2.079458345778473,-1.0957526648538831
0.962032302259964,4.64044921171886,4.3699101626250645,3.476732290620653
6.86964506949088,-3.8388989033400804,-6.44644968966011,-4.628150210425815
1.5668920377119064,10.501834241517475,4.144102990902958,3.6548007860213616
-5.410649591941536,1.274349067102218,2.4893890836090655,1.6643182454524705
-9.287993464440707,-10.67631178930284,1.9670093922675456,3.3108464260274566
2.9044443162661095,-8.542396778958523,5.968506549447014,2.8627460549028676
8.629026136449104,6.531021305357953,0.15738420949298515,-5.89179885013035
6.216140223638512,-8.615656624571503,-1.4614631993604732,-5.096557842004096
4.137058903908039,8.252546885648549,6.779730180465233,-11.050379020151112
-8.696416814794643,3.401642102611895,-2.080374058327365,-1.4923455073173528
0.9998898013463413,6.364164343540882,6.377076027684016,-7.477019127301752
-0.009966036015759742,0.49457531351251305,-4.39108156335001,-1.2354104584300245
5.3096676339795525,7.115154957227034,-1.336857019158014,-3.292134102545681
1.0445506208818063,4.627491165412209,1.0296604071458972,-1.0105162254121893
-7.546901895796326,2.6725755560812914,4.544218151519313,-4.880990583398507
4.296549190452055,4.933659707483027,3.8187253075955034,-0.3729427437151287
0.260236677285755,3.034410955522624,-0.2502376464290599,-8.233986824559778
-0.9430762334168253,-3.211485290779219,2.472988801868894,-1.6095921748017261
-8.68541083787971,-1.5130377775072716,6.85604474271263,3.205660734096959
0.36022484673223426,5.20397893978868,-6.405249208534425,3.663273964795696
3.0762976233737462,1.0333014791902393,-1.9068587189926731,4.853112370189081
3.0483061853637845,2.7072189661636443,4.799630044156697,-4.868430241384743
2.7284292092257107,1.1495300547168128,8.645961592403886,-0.6745108585371611
-2.308283444012107,3.6981807132081848,0.2087409810408971,-0.5845588602822005
-4.184582933587928,4.58974489150723,2.011449190774215,-5.173485658105484
4.134394165589256,-4.854820725019341,-8.494706539700086,-7.166174669331383
0.6502144045188034,-1.557928059060668,-3.9631397760955487,1.096720641454752
4.716373747643183,3.785917606104743,-3.9563923562528096,-7.813166319456087
-8.67773449789364,-3.8242052137027223,-3.6690362566154953,3.0466560365000674
4.824224028333896,8.734390696897542,-3.114031622878695,-4.683371005882357
0.5120558155479797,3.8936961057663204,-3.2006945174893424,0.7363554194059745
-1.4057526973387546,4.823662443193545,1.9469435954603433,-1.732889173218993
-16.470548387097043,-15.564960852188744,-1.8068856339334651,4.729732896805849
-9.064441778316553,1.8102679626098137,3.013701441383219,-1.1285572903352872
6.1111777987803855,6.234331469940745,7.040725427775893,3.3144780860160132
-0.7262111610678617,3.7016161243005072,6.530101439669192,5.95064180428119
6.979285607583576,-5.705613379428446,3.8053241116532526,-7.434813957650626
-2.1911437486342185,-1.6538273602907942,8.27950278836651,2.771367676381985
5.2691377739735525,7.741321428993672,3.9764582407355675,-0.9193358920945158
0.4900546980648373,-12.225430287582324,-0.5719757526446436,3.735701965752156
3.5756964871529444,-11.539441157212803,-5.249187667984966,0.1318004747206416
1.202990171437522,7.201562860007659,-0.6440176013138732,8.210185220041105
2.4556066663308553,-3.126875262118414,1.5504991519046492,-0.4028138970016215
4.477896444495993,-8.491552786999168,-5.045879171048991,-5.633009901846208
-6.23512768986381,-4.474009079011552,2.46779530680789,6.395776492323247
2.865631802809648,3.739930464763127,5.557975720794012,0.5740014684107706
0.4370599194690505,0.05869703654228786,6.009427042730682,-14.479644766177515
2.8453106750090367,1.2591414521602182,5.082170373473691,4.428989645514168
8.496625777207484,2.380859889573692,3.6828439882073454,-1.1793039081939725
-3.962878043144706,-4.232492458451535,-0.4543957794256279,2.9823754815305783
-10.068371292804828,-6.772445788722177,1.6310181372706545,0.02076428742107339
0.7123753629960068,3.482772397508459,4.493922272981916,5.772367027101524
-0.49556841451328826,4.1690323436573244,6.076773500317902,3.9514599306487384
2.724064374226359,4.7244319774756285,-0.9673550754064699,0.13153441380320174
4.566555249209831,3.7333109526853647,3.5262334079243125,-0.5454359810734104
-6.184021166403715,-3.352661879407961,4.624338119403124,0.999550308723478
-5.401344594523784,1.447345272286352,-8.911656791499677,0.9478254371817769
-1.046805242711463,-2.5129959937595707,4.54750334271171,-0.6449840586746518
3.7255519925611074,-2.062401122666248,0.9583168718220101,-3.6539937693648383
-3.6202731265679944,-0.641742722068706,0.4822554497056579,2.766536414333274
7.585289218961492,2.291937148061802,1.5702444259240238,1.282240431529594
2.466647173338767,-10.149992652905777,0.15546090719303507,-15.63059601095648
3.5249654077058614,-5.371767542889462,-5.657830617587475,1.8075072690248852
-5.243886190032881,-2.7397906010985977,1.2294539822301687,-4.686463031033341
2.931940353872162,6.310842934002263,-1.6845412925513408,5.873647870857511
4.209461210526473,-10.036309518278248,-8.878641743610718,1.320498027283005
-3.5890367628731807,0.09110278362689073,5.462593929143626,4.256610836561286
-1.076609544947853,-6.317655739846451,5.167694830382029,0.9892837824301353
4.505171429759756,6.4840523356620245,6.373582465810415,-7.161898014352545
-0.255255626618045,0.7540106019064545,8.963281418157898,-1.1959926775247212
-2.5047775276067754,2.6328026187856928,-1.5303965592228153,-18.494758824353795
8.071781235497335,1.6624962626698903,5.070886558034186,3.6399289683439378
2.9382364631891367,-3.094265641301238,5.217942424402089,-3.911709781910396
2.815680684755719,-4.619325688914305,6.636541102462523,5.95354973315029
-27.869071377061037,-4.0519463924036,-0.4164761694256853,-7.748538194418266
-0.1277509118776835,4.941688817207979,3.405088402591673,1.7078441234710127
-3.0045944444145896,-3.524625249267558,-1.59208159936248,-3.2116822066471684
2.190508680904822,2.3950264463951783,3.879377813838932,1.5097467400344762
-10.599515661271743,1.6096639541782665,-19.29089933588671,-7.044018865311429
5.8764981879628655,2.298016219521621,6.843299561187781,1.760134374312205
2.4191990537916763,3.720745322986648,-12.964903675935634,5.903565993071297
-6.733962610034297,-4.875013670764801,3.8015171860536405,1.8860629958239876
-5.723635940273394,6.777571474761995,3.6462625861635907,8.353800476281997
1.6245788921002011,5.705819823183873,-7.4484367530041915,-1.0645649490251898
-7.339737294106935,5.895793743501148,-4.4042807873496095,-7.821961359854392
-2.03245838937172,5.730882774128084,3.9092436094005905,0.11828029546643393
-2.112836090742207,0.2929926993018235,7.212516844069224,2.946069589832458
4.392607362864092,-2.473991042340277,-2.750329946875933,5.815046480455621
0.5795616461186206,-3.0963616548390043,7.803448141037098,3.7138741024984725
5.131869334035144,0.8606643678616059,3.72913473699942,-3.259995426676795
9.882641879404384,1.4090498299220364,-0.06636368981865104,5.380549620199211
5.5404332635374045,1.3593419027025817,2.370123998246715,1.900983369873785
3.9816645368456105,2.468933635335709,8.281563647421269,-8.323558366686491
3.7529885599687773,0.3478527119540651,-3.3919780169208558,4.2760179616335705
1.7919721734000018,0.2989192166252792,-3.4760718282958685,-0.8448400107741278
9.091570296486196,-5.996618922744002,7.3767631292046865,7.2045260134860705
6.22388293587933,0.2788315017171463,-10.334223395742274,1.4097408037208936
3.2172504792334835,-1.7787563936649775,0.4437793620531103,-5.8158243524995115
3.12238081548075,-0.6717115648845642,-5.227677845972924,4.702479189291015
-0.05760194845813393,1.5360135702318765,-2.132708739813509,7.476584565323716
4.104273378432688,-2.2515032662219845,2.5405105354464688,-0.5701238780487401
0.8494139995289989,7.4384828019789,-1.7222048390474676,2.195167387960737
-3.631301746310975,4.660500684023223,4.345196949238048,-15.631561022946578
1.0586515142836082,0.8194231795743576,0.10846458142101412,4.1036753631326945
-12.55694718555755,4.605266041344947,-8.463691594288687,1.1239052779461787
-1.6503634998801653,0.7717221421891942,4.549105856905324,-0.6387981247814736
-4.031264844075637,0.7340218696402552,2.0220697244693255,-1.8400844909793719
1.8906234181517065,-0.6612403393953379,2.2052582310799203,1.0695829676017041
3.814152227151395,7.690220585776114,2.5511763483370586,-6.015258869462208
9.525905347171804,6.159940523661085,3.5071807084790727,5.4712700077415874
2.6199118915908834,-5.06761272086867,5.106565838300611,1.9459720913670964
4.960744619245886,-8.026481956576031,2.1891760485168383,-1.1467741617264053
4.225879025542386,0.9650207209638317,5.685834593034773,-10.193165076534655
3.275854422162083,1.51288341171351,1.0126954416247784,4.707069064155579
2.716177914348341,6.860397650346346,4.7738991240960935,3.316673387069848
1.943093711673317,0.5887549414020796,-2.5293026251075297,5.026102929123326
1.7543131771624174,0.008544913206286253,2.165385792380942,-5.759310484373657
0.0348005754554604,-2.042450674565515,1.002254546858822,-13.178591006122033
6.767728583079153,-1.0458305781073882,1.3922791921468516,0.8914261250226474
3.556609777237304,-5.040595572771544,-1.9926169731695609,7.525774092304829
4.279111176748661,-1.3235785702448766,0.9203482430275294,0.9537212620456259
-1.3582527850814579,3.7325143067677544,0.12209323501423697,-3.3435414865331765
3.528690125707989,3.4387836930872027,5.942180596480096,2.818107154991658
2.5019144425848716,-16.39882261327153,2.382591885063725,-8.863431220158887
-2.202417844252116,-0.9920883162878944,7.244156647047557,-2.912860702785629
0.4956138756609834,6.0049794339483356,-0.5220503766119045,0.9235656826966121
5.1519489659426325,3.0996689010657796,1.572431198070941,0.405159787063738
4.590320810799873,2.9567044877908266,4.685312761953316,-8.404632069936419
1.0505261808681987,5.789312991179425,10.713346856614855,3.5222945035265134
-14.550360266370546,3.4955584080223474,-2.749104643336377,5.487250137246548
-0.8261636051084481,5.283153930489078,7.650733510989717,-4.613253771599986
2.6235201244254784,0.3249088639081599,5.88393038782705,2.939507673553585
-6.227266696307737,-5.57188577501422,-0.48058625116101794,-2.3199463673630945
-6.1147973709858485,-13.41517496807656,2.993512445448541,3.2729763751791303
-12.575968643409144,1.644787386624106,-9.118155249185488,2.4060653520513213
-0.4894523413003329,5.503045574197024,2.6268549664507823,4.548388861245726
3.814602970599791,6.650348446960368,6.399926650709386,4.361936671977073
4.955399662415811,-0.8899936815270486,2.2581941099754346,-11.196959773166405
-3.404563835528645,6.1914222684562645,-5.9569514571286,0.37096056470825545
6.8445237498837015,1.076263275206344,7.792583521085373,-2.9559134980697905
1.9700671272968862,-0.9268649813607404,-8.433404650576794,-6.832950833619819
-12.450260463534349,5.388637124392233,4.713571658920699,-15.553233323248321
5.6740684906843315,1.4716824054186368,-0.10103593812192102,1.5986136450304045
1.995606282653113,-13.56251907297229,1.068944729877142,-1.9869361472588878
4.312328106900224,-2.5197979030526447,-0.46471748392945145,-5.453625803455182
2.0157176139896764,-0.9359296561269375,-0.8970101954905836,8.271806566555306
-0.7583693006797408,1.1611530903272467,7.695053622449489,-19.314469190049508
-2.5714418024011487,-5.138933734615037,1.4300760067779485,-18.249267866196057
-0.2543203908795824,2.0726392780544067,4.222478529263725,-2.604765191495332
7.694250429624044,0.141046826952973,5.439064776956094,-5.1287298412356535
4.536977704854865,-5.198553471375551,3.209316093748253,8.880161114396142
1.4351911107580748,-2.133710621858537,-19.416578119134858,-17.227477403713195
-0.8971599907006722,3.318008372704263,1.5846481584157317,-0.5442794380203253
3.755825424359394,0.8985369059673012,-13.952830899525775,2.9118567578123944
-2.8737474940998826,-4.758679554033812,-6.397286756315733,1.7920780822603426
-2.86432894958383,8.30729961535906,-11.79941800983313,-9.782778936636007
9.531559343812164,4.621726860266573,-0.36715721098783405,-2.200621444206611
-10.697557139238327,7.695328872285312,2.666053371616922,-8.365560028965263
-10.101788594820835,3.927969456613468,-0.6684229246791524,2.8084037735089638
-6.327854984125725,0.7919105577054992,-4.192479072762904,6.094059776925313
1.6394490523187455,-5.652498012774341,5.966510351331888,6.882589778577181
-0.8889892148191681,6.872479470875806,-8.45764487126591,4.895447680154465
3.086681993093674,8.29454219275851,3.255763003887939,1.2386017855693758
-4.482248515246457,3.736899809105175,2.2030831905187718,-4.221414436647073
-3.145447057186193,4.023767846836979,-10.41192359736252,-10.205699205919345
2.1653311304278504,8.672972093301752,-3.3390446088787904,1.395796271259055
-5.50204305922398,-2.857407131241473,-0.6803234816277559,2.027569964647789
-11.11779543424076,9.2543861691111,-0.6974686981628686,8.952942035559904
-6.785923849398258,-6.247730422881119,1.5849588891006263,-1.592578613958004
-2.096134905045533,-0.1954194662311295,-6.804054682263423,7.662220809862475
-0.31252336849066864,-15.341187112706056,1.6209628299896828,-4.1852667035473985
-0.39363287206105063,-10.915940138348194,-9.430725152717248,3.247243954166276
-11.660095044701855,-2.017803336078064,4.431495055102484,-2.9543787414667833
7.182200208630849,-3.8316112439163135,2.828167182272246,-3.308104481685156
-0.30906685122957883,4.01574295045091,6.4154430301722165,5.227120307637328
-4.860816887719742,1.2597925052615295,-16.033509571004462,-5.901081481872957
-2.256754594096565,7.3315664774823155,3.0768275562464176,5.752947918182809
6.799488100757761,-0.4299729388792919,8.07182617053979,6.209007611109243
0.7842818016136853,-5.307727005773511,6.893747266698931,2.9971687093239296
-0.7481611196808515,-8.915915535267349,-0.31922278860902864,-2.1472303801462758
4.139411170435942,2.7617530729844084,-5.479627927420577,3.01338688267041
3.5003153993224188,0.17925344821998124,-1.3753475620274642,1.8758466272979106
-4.936196339655967,-3.303061057327213,8.529713651612798,-3.7228577743201043
3.0483834398206464,6.7149182846247975,7.279240810339534,-4.073177285240099
-1.7345412529109983,-0.8544899221439621,-0.23591339379206744,1.543429735866983
-8.25363045411869,5.785969034364204,-3.210016342690242,-4.8671927139080395
1.1211694197091224,-3.879674794389313,0.333361133226699,8.072750188668298
8.739694517125878,-9.321792970310671,-14.39065640313694,-2.443140734420723
0.3428698603942907,0.7919276967693385,1.8133932117137626,-5.59367097449983
-2.676452161363406,10.217218123198919,-5.127313313925573,2.7707851198416336
-1.9588692061140023,1.3291005498012183,-1.5118896116050955,3.4941074535255225
5.411246108379382,-8.501125279305082,7.809417143310078,-3.7405814223740492
12.038085953617987,9.865438112669707,0.551834626437369,8.27771506195019
1.3481584042412489,5.9670758785565425,6.11831335730443,-0.013150949665423184
3.2759235553711497,-0.7646457288632753,-9.331585415686188,11.05196072667124
3.8444813097954076,4.343222518383666,4.664494513087856,5.885904182949602
-3.7232364425799793,8.251270596359536,-7.901584810842007,0.48135313268216606
4.345008276923456,6.096339553251628,2.126657302998307,0.9391789361655043
-3.5882337179715114,3.292699390260548,6.187709050648184,-15.441923596482681
-16.595200709056503,6.238623452147362,-5.342315832796491,-1.2685609195805583
2.7684216686427825,1.7272787682163226,-1.0806528776584052,8.455241088917717
5.0418285944088845,5.210450667647574,-2.932001121340388,5.293744787790249
6.326236010544552,0.7761160896026063,7.965429291101692,9.629661953056942
9.237704807517963,-3.6996247472005095,-0.1611612347607796,-3.329685030488058
4.459530816234428,6.000395489505159,4.579098422501151,-8.840960125756936
-8.863438466100337,7.0370187071758465,-0.7582256895931536,5.974222402542132
4.774857987478112,-7.245524022125718,5.297159400507198,-2.832652221960842
5.075122740842963,-9.411079791679814,9.196007892388351,-3.7512832241094856
-5.254117780513335,4.153110659319019,0.7714394270879517,6.876208225145348
-0.03246811098027857,-5.085483030168376,4.7304417382914,-0.4167422457105445
-5.132327699273603,-4.698737100465465,1.696784567739794,0.027577503743692944
-0.6840213351696324,6.992286567412254,-0.7762373482311595,3.9648782612545013
5.81331481959453,4.0585496122084415,-8.210122149535696,6.204957066023685
1.8031228015549796,7.239416061275026,1.3537479352978004,3.9040695980050586
5.71290638275909,3.813643969939804,-0.9500928737523751,-8.012184293219988
5.024796148112487,-2.536539164882978,0.2774681476994907,-2.9017653487515176
8.206935905287933,5.2419000839301475,4.58131479824856,-13.559359307049306
-2.2171333044416612,8.271569137282516,-3.2656545190968735,3.230562011890388
2.5034932548543467,-2.570298384645845,4.010309006226574,-0.13515253272675665
-6.405379427790231,6.392142749091047,-2.126916024366949,-7.020376080764308
-4.403331949627828,3.9338539462597346,6.218333070081332,-10.938135557056626
-0.48313505866971324,3.6737201860549185,4.596872315108506,-4.088951991943837
5.116213554567749,2.3166707993053777,-3.8981130911684865,3.0413462863264975
1.374409342391876,6.1569092437162425,-1.2009235555226105,-2.977478291189904
-2.9874793988645383,4.065107281206604,-11.08427967220646,0.7576696787483286
-2.179460965952065,2.297265562426567,-2.0660221823071367,0.8085558822910457
3.5555849571890055,1.3432131824970739,2.0631807952558283,0.9724317739184158
5.779038018246554,8.152443808960388,1.992907010412491,0.5192127985104378
0.9485517311310993,-3.142764680265426,-0.4299790393739755,-2.187035577608981
-1.0019620017439324,-12.163998644605119,10.605367388217289,8.661934852537005
6.178352415878368,1.4885917114916047,5.1278191353547875,7.400329733201403
-1.2011745078726408,5.829274360745046,6.906466404594678,-5.217396888458161
5.387909328474586,1.1431370940702408,-1.0784251735411061,-2.4840936864607386
-11.81696508643246,5.267674712037689,4.378977753106074,-14.116258151492097
-1.1875431558760905,3.500790455524349,-6.328280396025594,6.879657853624831
7.592807446887056,-0.13531792320867808,-3.1043806289742584,-2.288548538019633
-0.1281304816442951,-4.416718249525896,9.128368526015919,0.5385379333961922
-10.965613386621769,4.634563884470598,-0.34400100313678195,2.2956884512293065
4.552537103811595,4.024206407369139,5.69239079823657,3.9413400640297915
4.053606044275618,7.840380105955617,6.6370347137597925,2.8266242668689507
4.542090076715992,1.4255359890661055,8.610099686682172,-32.28825429647138
5.04982551298587,-10.098349554185265,-0.0910463384274216,0.7284919060949875
5.359454910128665,5.750578315124763,0.6282785825473383,2.575252586391496
2.9973987234599506,8.999675818804096,-2.2592829126962464,-5.5910728177985405
3.774438689589375,4.54140846793722,6.030480008024249,-3.627640301224311
4.573468812397172,3.170479089835009,7.831853139292718,-3.4792351383843254
-1.313530981366735,-1.2052023504597997,2.730699877960653,1.303037001954518
7.2812395265848595,6.840161131554588,4.46680651831781,4.098469427739364
3.036574216227302,6.988439596036407,-22.526327950652085,1.9062920055724248
2.4093716850207794,1.008495704737289,9.019767473594687,-13.057192536506733
-3.7174857178854688,-2.0087220567457145,1.9739036800786671,-2.320246108605602
2.2002128322250263,5.739925001127318,0.6217240940082291,3.5764351416767397
-1.3657341576728363,1.7183407274637759,0.9596678587110681,-2.1641966927420526
0.5447758099455986,1.883324219021322,2.5993342986811605,-2.036299668719195
1.044207973000189,-8.366292911272925,0.7606007021741341,5.815268761408809
5.789267758941468,0.035761282542896566,-4.224428070874094,9.886330299927863
1.390689548700287,-0.4742814909175763,3.4329896100169393,-4.543887457291319
1.5947840303882757,-1.5731682950905004,-1.5361619674850466,1.6514213307058263
-4.2884061546066965,5.042641834089292,-1.733513454615931,3.1947877908979443
-8.060619053537334,-9.547065996661491,5.711995012526533,-2.2254884781890283
-0.012021407045674372,-8.03065532965977,-7.362108177076269,4.067004817284776
1.740595905082354,1.481912460271026,6.4806469858873434,-2.122255853614007
-2.101974554334746,5.590258233325841,-0.07644209977983962,-8.604317973861171
0.21528692759857215,1.7358152048097182,-4.682931488593415,3.517629132245233
-10.568449680414478,2.5101949768179708,5.993877291392295,1.4650714502899724
1.73004273538756,-2.5845617643474235,1.650535180193227,-1.2640143185675754
0.4455968637777929,-8.11410474139404,-3.010460601562567,-3.438521317856413
-10.990184017205028,4.420807738434075,-5.671960365932652,9.34656383834863
-13.581781629076376,0.20966001418485902,-0.4331758613400858,5.647461976092458
2.955721049085875,2.007503182482747,7.46969242794869,5.252388579690457
3.05688324868724,3.127469120869577,6.8830596287855705,3.5712314422840166
0.2614646745500279,-4.207994773007332,-5.175655933054099,-3.088818359262504
6.639419764448499,-3.1877668198008635,5.480148748367082,4.3170037631020755
0.27211442600535346,0.9125594975902551,1.9384855348507415,5.430909560611738
-9.294597858644634,-4.658729304163128,4.763743027083752,-1.8872419166798906
-0.5827294593369112,4.6082491376723596,7.645004625858668,-0.5628344060727102
3.5336104371888366,2.0178822272992036,-0.6770009988313319,-4.015228781220571
4.547611929121288,4.318898149754663,-0.5907519258816905,0.9827689396859185
-4.570664461271364,-2.1080743057157036,-3.8253891952233054,5.449135732250287
-2.8003917420396935,4.107189897799799,-13.377410671696847,6.464716057281414
0.364421314239002,-1.6086400763064503,0.1849058860626691,-2.012958282740776
0.36560690358597153,1.0135296372744094,3.655249043914143,3.4917557019612033
4.721669031332829,-1.7745163993278226,-3.6013629303523267,2.4577091655000984
1.2173152402239176,-5.266427406679032,5.515005228736701,5.732707592961866
3.563992888932847,-2.550007556062738,-3.809152085278722,7.501422746371286
-1.3709722438596728,3.192693749629239,3.3448351606977624,-11.678843206097909
1.4406558018263713,-1.2145039852876387,-2.256141254573418,-2.751324652840289
2.2259111645683265,7.8820998841445515,3.300349474052549,-0.5156298720012842
1.3369406390278684,-0.9038178876706553,0.7130131863646838,-3.3408245404011296
-3.1564461249918603,-8.792710986317946,5.207727178163324,-5.705254096905534
6.377727103918243,-1.2020061024117545,0.09285087941668735,3.8111458552347415
-7.178510935889276,-3.661560372870273,3.4824559750061077,2.7308086062048034
-18.02788670758038,-20.38432974724284,6.33892199600405,4.293941473650129
6.3740401307781696,-6.740699090522018,0.8903762011295875,3.6426680650172756
0.44353710986352796,-2.7825935875573293,0.7665398027566006,2.9015077374161216
-4.120710177019343,1.1675470847512948,-7.06403829103542,1.1240761459610766
-0.012070921756351386,-7.218999194504509,7.294725620310775,-12.414422351984811
1.5506585033755371,2.474598594742666,1.1519285633964174,5.010851634568876
-6.028673261687108,1.9137925881061975,3.2247797302973247,-3.9486660485249416
-6.554255752654996,-1.687864388631695,-0.677531585260585,3.031380100410267
-10.138397368404043,3.7504397534774334,2.507368730164842,-3.9583278637501067
-1.090765536686384,1.895222124473225,7.83381816497111,1.9768635403723103
-8.327198124523125,-1.9769118761900906,-1.1055404716452948,-2.6429577906458235
-0.6030889090294825,6.644019194549038,-5.2197166945635125,-7.112599759279107
2.130408053006509,-20.2669364095043,-17.228372386773156,-0.15635489264093394
8.751521404107717,2.8324742441980533,3.854007279924982,-1.3866013828197552
2.9033212795264145,6.545353880322459,-2.659987671894118,7.263411868093417
-6.574719089014725,6.294808224133067,8.85647836665402,-8.013205161711483
8.178594757989275,2.107993841131883,-1.422272895586012,0.06500002288947826
0.9367388866536921,1.6952670602470477,3.5201114600053742,5.705860455122554
3.3095325258721457,3.7752751265477187,-11.020205498798074,-3.668647821117929
4.088057670293069,-2.4708720441397922,8.029300644242408,5.049090319608624
1.6734165602296278,0.6691276257823873,-10.558079734256335,0.21464323209326608
2.2498492737821825,2.7112356129046766,7.015203264025292,1.302535210502004
5.161830056342204,1.897710099682783,6.003529874887892,1.8176961147431356
2.098165021167469,3.750555383054003,2.463210391612847,-0.5031454752614692
-8.064678811230843,6.023330147866247,6.183229390032871,2.069657059559294
9.511552294652471,5.378825743210218,7.648766898246581,3.1392446437849593
-1.0600827937485804,4.229197791766342,1.6170167734983636,-0.9034521705634049
0.4294193825277193,6.9026508362084265,-0.553283889671615,-1.9691097711296237
-0.09397704870144186,0.221902681595882,5.045204152269239,3.9227285892291555
-0.06993709589551628,-16.36718881016296,1.5006929823701505,0.08562265514238732
-0.012894588686965077,-1.4456668153798056,1.7184853636495916,-2.4786051617440563
-6.935297644343016,-8.896092478403208,-4.847414339960384,-6.03063812817674
-7.5232930838000005,-9.748749952276402,2.926721572383112,-0.8317633545239502
-1.910948463478406,1.211898225931023,0.02095414620101721,-0.8505840539898415
-2.184596591005277,3.130990083039322,4.115371884626601,4.308901875410193
-0.2489204555141632,8.129572852007346,-3.664440467900139,-1.190181426999601
2.2448282096576424,2.8222075484133597,-0.27054815691655065,1.6430881150884318
3.493439353452417,1.5559865890360953,4.246258420436995,-3.1087312097741986
3.9735502276160735,-5.040724434686673,1.2440705329550816,-16.228866114668463
1.975884217252783,-1.2904582148839765,4.59612392698692,-21.8169356954853
2.479834981902941,-12.431418282499816,0.7088693977350893,-10.412791025554597
3.9075145750994973,-1.518407342479282,7.309928634755536,2.6152048312668335
-5.692901610010328,3.144757749688157,-9.14222071805808,3.542856749845175
-1.7980934339260424,-4.684700218215259,-0.13197334258506999,5.340523354481832
-5.822081559044226,-4.672558772949742,1.1315946479607177,-4.924822842699157
3.1291980888354494,4.685197525890519,-1.0671119985176638,-4.593013484379128
-4.33778705979667,5.392512241514915,-4.030421243130011,-11.710210725055447
-3.143088944832854,5.7248898799743415,4.688577411230451,0.8416729664964464
-7.9805484856239834,3.9702122752822007,9.927098720558657,-3.47437776031974
4.678978762020736,-4.623116697043152,1.1673429200755656,0.6670488677957991
3.644017945335294,-7.690533080087075,-10.188014394908013,4.181890187278977
7.871061772582706,-7.2890875141054146,11.684151886767594,-3.785258313056943
7.4371587555711685,5.3077586134118135,4.3104556307854125,6.277850588710216
0.4622704090762761,-5.18476686900334,-3.396056888893437,-6.599631078105382
-1.006572168765944,5.916518538271529,-2.1405995872492554,6.545439877784496
-10.982150617522754,3.296154818068075,1.7428325337471726,3.8944061886127095
-3.717609860146697,-6.677838025010015,11.823096967199632,11.590890485193686
-1.5125339897585566,4.5048187967494755,1.3957775979137033,-8.68723568275555
6.618232939579775,-4.199190457261384,-4.739734634245888,2.2791065669333506
-6.989395520710544,-13.330505533686857,4.799897259604389,-0.8035672845308994
3.807805342741443,0.5082476454737446,4.450995991373226,-5.218123549168347
2.449678289669258,5.362205201205416,-5.728050439956636,3.096239656685867
3.891022610102352,3.0063618487967183,-0.32754111039296063,-4.410532410760041
-11.009199582220202,8.23284461308134,4.423651238940888,-1.9533248463109274
-3.795139091897724,3.5967386432575843,2.5758405567439517,1.0268164197912242
0.18702576849393676,-2.4940308018681847,0.3382075442815662,6.274526974117521
3.1906167471736677,-4.862086803417551,-3.7261949480741414,0.2937570275329975
3.2444214988843845,5.374775965631674,-1.7891223606106585,7.46180701302784
3.2592254105251888,5.1430632543448205,-4.410471051332554,-3.0825411656216772
6.273555142570607,-0.3432420414207016,1.41030344406634,0.7341302631867421
-1.1864169577669306,8.88456907083225,1.0991816501038478,-0.8913468359036045
-5.422531009606927,-10.411567437634265,-22.328169847170738,-10.620722577499862
-0.2922548614773822,-4.624228751762729,-10.74770821050316,-2.570556472170395
-8.007039933883263,0.5638660251461012,4.02515951065002,-13.375358392416622
1.7775764041816604,6.4599565345987955,-5.584239810860193,-0.4150263324442349
-12.732351417180215,-1.7724908570638398,9.382136369111024,2.675560755973045
-1.8991100268670116,5.404663156101066,-1.9382552686702361,-4.101976307625172
4.434143793413582,5.806782408373245,3.5003101962814824,-0.29451178217679086
2.5681848688291473,-1.4396799209393656,-4.543456265176335,-0.12230726651988277
-9.918027257344514,-5.729093675924183,-5.828340027321762,-10.37202089636888
2.9179031276167526,6.71744133420043,3.6232444036112454,-0.44820958499884966
-2.370969043628092,1.9626482642131222,1.771078872470671,-8.978234448918514
4.2145998530954945,1.3809259273267855,0.14570011383704795,5.645260003256357
-1.2195640434564268,0.7638096716459231,2.746347739879294,3.4615927244681046
2.259547984074642,5.106700426025462,-2.8966255023621947,6.156069630307535
-1.7025916134589805,-18.410538139151928,-2.4369683883398885,2.5521591211468646
-0.5512212809762335,-11.726310283374392,-4.605490383275519,3.5424141678189365
-2.4124690018338084,-0.9240787702631899,0.7616470650894129,9.180093857190286
6.643059923028985,4.8803505524570205,2.1629156205683913,1.5549997589580435
7.520302645377051,-0.9616419641529568,9.231109634379688,0.40748631709951866
1.9660086455501946,0.29415865695313315,4.49485612208003,3.6540790080862138
-9.289508833567785,7.13917586356656,-4.849784536989436,3.351620404389415
5.718918261691328,-7.773901482532519,-11.876946079196681,2.089169312123655
4.914898350679901,0.6060634377493166,-19.582682490865157,-13.881271993734444
6.819192778637242,-0.2462054844045376,9.598982910157456,-4.913729004401532
-2.3618615720441585,-0.052278175754171485,-6.559585585149488,5.67233488878766
0.2476408495458144,1.9820038827133857,-1.8885466424141448,-0.3756590098354309
-0.5691111130266505,5.945605715422214,-5.557330388397833,7.572340443847743
5.781042719798439,4.962071137372494,-4.409983650509165,-5.799169559528323
-3.2416413844067615,1.1069624730201006,0.45199713786632145,1.4553709077067047
-3.9101425862877632,4.367665242532546,0.675348248290117,5.324256434968756
-3.086441706365894,-1.4451789838164295,-1.6874796301076387,1.4430657261785171
0.0864740807572415,9.654825391954434,3.175434474559612,3.449892589097395
-6.04393521195252,1.6848720353224742,-9.738527110155761,-4.61930733016586
-10.279418616321552,5.709471014658554,-11.496825989863847,3.083597123840775
-2.9674092635764087,2.3879021121325543,3.226726535431215,1.9370494059482084
9.06134114785622,7.30702632446982,3.3556114484279433,-1.1071310309517557
-9.340329377341302,-2.229085225642809,4.560828370833974,4.054360618145907
-17.84763726127759,7.850952420097141,-0.060676590875736736,-0.2625665940947286
0.6081294833731998,0.8231982561289222,-0.5370923703270734,2.8691011667506956
5.631044789959944,7.469609007170231,-0.3221574197243413,1.460798223159955
-5.088517453077922,0.39884547676857096,8.00650453127199,2.7242776272581075
-2.221268675933832,-3.27353092706468,2.2424819917146444,2.9366550828806375
-4.087593499391249,4.8394190359578,-3.084337058991661,10.171457283271234
1.2767045372043164,2.383751132132037,5.481973160693354,0.23294646844554023
-4.4016297753290745,4.1895295150242085,-1.4010030582289765,-5.86709639164188
8.07813943850812,5.195354800182521,2.0011938544743977,7.183521121276115
5.983135876829324,5.529670230933668,-2.9467441920053936,0.7036384740206714
2.6366689657739366,1.2299915374518626,0.2676056590054934,-1.9877346251049772
0.8389613934547789,4.481270891516875,-1.1562190734068665,-4.14231375487411
-8.503096457854156,-0.24468995944512173,5.61613676938104,-1.2027325700269742
2.642820843290023,8.089455951069791,8.516156583934386,3.4696115459130468
-0.47737548019356074,-2.2730762168572483,-0.8083817421451087,-15.452135527453294
3.7428002883291196,-1.9794233598528024,-1.0499179110444175,-3.1521969756183594
-1.280364597101713,-1.2173015761994712,-24.36673556163011,0.3480399724479142
-7.855975775898391,3.360326695710434,3.473145979871891,3.1015349538760475
-14.746150084330923,-0.5274622275722578,-9.733083041415501,-1.4659306414952837
-0.006363214258143901,3.274457928774247,2.4852444143384815,3.9504499760768965
3.439718967897072,-3.1458940510748334,4.211264836954751,-1.3610851222580536
3.4077005928760618,1.7431054859538442,6.334223620346631,-5.723506125961265
2.951991368893925,3.441867471124201,4.578345111898177,2.1289378412894138
-8.379330928163817,2.593080959310498,2.45097003727534,3.0703328785813824
4.337724812053698,-2.6839517103713924,4.333261569981261,-0.73534222226629
2.4447612810297685,2.849280552404391,2.035004326685357,-4.470547495866171
-1.6616702490871516,-0.8123130132586418,4.1190833284688075,1.8160017690497305
-8.296803784656129,2.46801643591073,5.57111590420018,0.2476721623760838
3.5488682099676345,6.464650662267697,1.9911224044057931,-4.803265050086033
4.740919862377972,-2.9594479048216336,2.9541722065704406,-5.464544982067871
-2.998729550655419,8.264236967587628,-0.35791194940588866,-2.524038562237621
5.832446537372078,8.601069992830979,-7.533559711217816,-3.2981760057215936
0.47820983509210707,4.849971962802471,0.9277392932470896,0.8053038211409245
-1.8210264624483774,-4.301734306452037,3.537004174314795,1.118712385259201
0.1370578680579504,-3.2930581737975153,1.1396034944094815,1.5168495956936816
-18.26762412269584,7.109020158980378,2.5225070337835938,-3.1891708084232704
-1.7394961214925604,5.059561312266357,-2.7279037324622983,1.1023307965207252
2.8006538759361725,-3.1310176341006546,2.052876751938335,4.501195689409865
0.44069134930383513,3.3928754157366505,-1.1002594905676553,-1.4738129689181534
-1.4626777650850045,0.4058967371332578,1.8083365155779099,-0.10644984760610043
3.0005439033470456,1.8620402432958336,-0.4077842356091175,3.277042497964583
5.438298174334084,0.9938495840202926,-0.3859699805048784,5.280966123344179
-22.66816887269188,-2.071501477146949,1.7130463431544776,6.1818592284259
-12.778922519566448,-8.278165793470915,4.043123520565828,-4.516972462133694
6.000224096929842,5.312946977429679,-5.373751595450305,1.4679678378316368
-9.43255844095025,-7.596401650221633,4.445946516057553,2.1914978261967377
1.8567697173171616,1.9992802168619086,-2.171407196272046,-4.8128788664388935
5.118481723038142,-6.749027593148806,6.218183527466209,-1.4836060053773537
3.2955681705362063,8.99341672081037,5.134081469468722,2.707438738061029
-3.3617396546714837,8.693175116964056,0.22864005016471367,5.090955986441088
-4.420284376753623,-1.5867169723678565,1.1773923970127989,-2.5972259522747976
-4.4243986715452275,6.42864821988525,5.772605220546165,6.859084334970319
5.778942210498395,7.088536485102239,4.4657326777380995,-1.5723396480097165
7.970655701916262,6.917925854008676,4.073560132980649,9.172909009005245
3.514441709971577,1.8509553331427284,2.533880106207686,-13.013718676914479
4.914933414120083,4.508064802998177,4.648534205817718,-1.0329865290939253
-10.775685223515081,2.78990452425813,8.51983139410974,4.4638384546818095
4.214770671467132,-2.713730153754657,3.257295645039111,2.6412247381266667
5.805737752563496,2.8598697236735298,-0.8549795782885639,-5.719411322570501
-5.356858068094165,0.31876894250154564,3.7683677383442173,1.0557575723415198
0.6027481758073705,2.110975590542072,-1.2090891808525193,6.552332078553022
-0.28042720994304016,3.9415457177559077,-1.4435197748269282,4.0867906133924805
4.655142908354467,-0.13730344904046987,0.7982884971931661,-15.812632559215174
2.077692009809999,0.9199423429403559,-14.207203744513489,6.667958935192317
-3.393289962765788,-29.568152340361426,2.6414674870340598,10.36168794821543
7.225025810348044,4.857608404996245,5.812335216554189,-1.2394143443888552
2.949467365150833,-3.0592012080721354,0.19676415483346332,0.903811394322581
3.589832564568598,4.2483616707521925,0.22031676901942632,-3.6755365448185415
4.284437232136786,0.3934940526366688,-1.7783302588304934,-0.81304323503295
5.206886730056216,-9.414515443013844,0.20293411795577754,0.8152103620853168
3.116177701364156,2.4146788498812803,4.390999592400007,4.6950709564603805
2.844163765826204,-6.737683859183992,3.1204271602814764,0.7727255622262774
-5.468044467541581,-0.7852100825992885,-3.4134100627463617,3.853015471819269
0.5345485909190186,-0.9864767604690137,4.158104006966461,-7.298198570211852
-4.798726364564561,5.465502443727917,5.978845314241674,5.737221064413632
5.2255166492491645,6.201943735078686,2.975957441926859,7.317061699231601
-3.3448099558705686,-7.880795519294029,-0.6710155625217524,-1.2689698036325012
-1.5793366191332159,-2.9556278807268868,-7.616251895542899,-1.4965720182635636
-6.130792771126072,-2.2905360961880277,-2.607643398093199,-1.7659241146826474
2.184299595381083,-1.429676691729398,1.2553826995771047,0.9851664804707241
-0.7210244759009815,-1.2448757188159547,7.169383144672324,1.3339432697409066
-1.397254016513676,-6.88278646729221,2.3223117906396595,2.070534333079646
3.4365316313239447,4.343584026966624,-18.53652425763941,7.397369693137762
0.7361865580567594,-0.6266977961635654,5.209320622253241,7.106220106905216
-3.9181365521505875,2.207553097042368,1.7401155082831181,-3.2034794261305635
-5.502116050801323,2.856874095522958,5.054515679726535,-2.7402108162545034
-0.6778467279804536,5.698975871473191,-4.624032147534049,-2.3556630353111956
-13.756632365593928,0.6930537132243728,5.184370384183605,1.615314050933705
5.159465968637078,-4.9007507239504555,6.176694860804002,-0.05388460739066403
-2.0053905702592525,5.72455927987297,0.8959688670027184,6.759202541404811
-2.345130530003003,5.500222581645584,2.716638156046013,-2.4920200679604534
3.731474402970434,3.648635775165989,4.559840475003032,4.210914987496903
-4.5791540532769215,8.884324742793083,-1.6814689823928752,1.9375158767893943
0.8994973050352175,7.035584715520162,2.2354992141240118,-5.070748424620447
-4.296072984842777,-6.582564694834673,-3.4020326216290933,-11.67656834650947
-4.669911938811745,-5.582662315284317,-4.380960383593784,2.1736155162118678
-12.186674130484237,-3.8597572688630315,0.05211208482640117,-16.32113158965661
5.452679464333738,5.448976685551447,-2.4245602187451496,-1.7943128907447345
7.113397527220237,4.6546274214877315,1.8206297372608518,5.091505706320884
7.097419925953335,-1.0433538359924626,-8.258451313408404,-1.561719689511044
3.437543078198877,6.385083548933434,5.3399339172372855,-12.086618784222786
2.5921343415842486,5.757772356901587,0.8656761413385006,-0.19246823726329154
7.3475760527182645,4.712469796773224,-1.2355106558072215,7.863884910507821
5.628618730807315,-12.343835071263602,10.712022981576506,-1.5999989231448595
-7.662343117273947,10.555494782149955,4.711542366325634,4.385190212190992
2.428702785283735,1.9514246391970147,7.14137553363312,0.6466420699062425
4.230328872032209,3.705833402156202,-4.6509097407005875,4.31826185792567
4.028064446486605,0.9386156443644502,-9.608769920800963,-4.693093094415232
-3.076519007982575,4.605053874109913,-3.248288954663561,-2.3068475659645173
5.635062064991781,3.8250590482848104,4.257853671024492,-6.738414446294115
-1.4503131166075798,-8.341542652177832,-12.99931404232812,6.275958070185823
4.394173575281155,6.592116975797563,1.5509306304255546,0.8383319184731945
-6.186991160617359,-3.5002703659576007,5.072916399981583,-4.461028938745017
4.547893534474559,-0.5641919760321095,-3.6244246986235247,6.324449994056177
4.585904270956793,5.6620928585023975,5.662026302161252,-4.20337949962299
-4.554340825837305,3.096212028510312,6.559318069512855,4.709095178739197
1.6474265895955884,5.08853096233857,7.41023299287275,-5.902163264373399
9.359703288551769,3.92825750132371,0.54362103603032,-2.182595411938898
5.80235317034067,2.2131729448096458,0.0041447399350040826,0.7172421449117508
-5.273120893684467,-5.23918123096546,0.25679126536543606,-4.555961031539184
-1.8086476142042673,-7.671312785678001,-0.15169451416297974,0.004128125508167102
2.60531929929028,-4.912265850186767,-11.873940104914485,5.407083224767312
6.373611887229264,5.931483774061661,4.540387131586304,3.4162592327255688
-6.566057559572918,2.1782428287561615,2.5302018818713705,-3.993397987470047
5.288642431090612,-6.764339597485407,-1.9187998731758604,5.160992260701608
-1.1288522562480188,4.500187631216331,4.363747954549744,-6.602567845889197
9.973380799923396,3.838651024144589,-1.982999232150192,1.0294047281666252
-9.566980010148995,-16.104462595120022,6.517474169014594,-3.587868573166091
7.96538207091463,2.9059333362672994,0.997524026937036,-4.539804819682814
-1.1659235512683321,2.5804994818441394,-2.2310198534767167,-10.76236713175328
3.406630359275517,0.32460833376143583,4.377235606969034,5.790431637271524
-13.783803459726423,-5.657411254736868,0.4089526353430344,5.959971097668728
-0.11365123066683133,0.9922878437465883,-5.59654689909976,5.782024051329486
4.610720830536019,-5.32103830425671,9.447401963110678,-9.293510054584786
1.4145375443015238,2.9014360627166447,7.115357257344002,1.8655548499027006
-5.234092152655152,5.5425570118647975,5.251283418624016,-4.177707651384736
3.221610574655813,-16.97198109885974,1.8553935767709575,-4.460671067195051
8.725662297240094,-8.036544858613933,-3.3331661853511356,-2.928061811425593
0.2502054454345068,0.07627834051482552,4.096122018074432,9.2028440891518
-0.10767076512517587,-9.934740976956792,7.002411976540603,6.2140290969328085
8.676307986297841,-4.980289694569116,-12.969610290298984,-3.5966669650873513
1.6848747582640275,3.9632879870326327,8.367367817178803,3.9219675272164665
7.63300036503687,8.563627259270593,-0.33400101804080506,-1.5187262407080198
5.4465316186292885,-7.625893711077044,0.9826620449946581,5.182695953951246
-2.9889341391423714,7.634617266246732,4.193359968211006,5.070963420379762
0.7608329995718104,3.9921006215158314,6.232877480467227,8.838032118233215
4.358820241647442,0.9094803664633879,3.1716084266333056,-0.6228487850178439
5.115215656252555,-1.8801195094105765,3.510183996885747,2.537058490421842
6.3960840823315905,9.620854265881626,5.934687146093651,0.2568572766995345
1.8875956354771537,7.314058505737002,4.8893767287591565,6.589878790169703
-9.19168389603617,-3.163248671826622,-0.24314818463226473,-7.855196799325547
8.169755839861205,7.538015293640878,0.6467604502661217,-5.224592550715322
-0.9110242846968075,-9.996196127147709,-9.126332338617413,4.552850728673551
5.411152786682102,2.7843853230593503,-5.386488156027351,1.298789113782469
6.933439273286787,-2.930971630728081,4.991974239340642,1.5049585030652821
-11.424031904590288,-4.2456880369881596,6.458621804229214,-4.993373909122873
-4.945054323921163,1.4487834243698892,-0.2712300935322105,6.351140809930207
-2.5468816684395637,-4.511207355460318,4.212006642503624,0.25840421257480983
3.9718089221270323,-5.942020021968116,-7.9707620587346675,7.503224072540892
5.867239572809606,1.3929484544446744,5.633416615626022,-6.79744085659879
3.468807837068869,2.55662205982474,-0.518460629414129,-7.335369602170928
-0.06677450523678245,5.2294603674656415,3.3699789786016012,8.85275630506019
-0.8264122506476732,4.955769254072152,3.5108815062759184,0.02111244433244508
1.506261538253302,-8.631783575804764,-0.23746179899048414,-1.5428405649493726
-0.6457953864801919,2.5077264165868947,-5.319740984109256,6.693788248744582
0.1979391268027885,-9.988821763179292,8.1508341601591,-1.4712579588882946
-0.8415615973053976,-1.0042180358532882,-4.463703011238632,3.0260421536063546
2.5476970555463274,-0.8795449249138194,-1.0962856403840355,-0.869706644292016
2.7112686432512794,-4.678433090509191,6.846134883387371,-10.078093839490961
6.510200156314691,-2.1732087107218625,2.1086361921955046,6.682499275429915
0.784905504211938,6.0343675991663766,2.608351560276116,7.497503359233097
1.6048632794851578,2.8335636167861864,-11.114232152839929,9.115302849590158
-4.439451089829854,-2.389084238369108,8.348656833306478,6.203055093468535
-7.655494203414277,2.4812408508097192,-3.5037652888361173,0.9618887420253941
-6.597587633442929,4.274125162997386,-0.534404660274653,-10.208896803255186
2.3864829024902985,-35.59656625188079,2.803606700733315,1.4316561253132107
5.8423955031177455,3.112767964277868,3.0839377133538086,-0.7970310087975818
5.4604422945937765,6.031557122725218,-3.317430456647383,8.2263495128871
-0.7295543876251581,-1.8555110817564078,-13.86485533483047,2.0549373297099507
-1.0684165520952946,-2.895756577068628,3.4355201752806224,5.22877536036345
2.671410452350179,4.038921233427573,4.926243296318965,-0.25638022114657133
5.309509480321274,2.7303730729472306,9.721519895174364,-17.182638075365432
0.912783383134912,4.709173241180029,7.053485783391228,1.419912097156434
1.6699695318797905,-1.697358112848736,-1.598068037258706,-3.7471271185314095
2.4294046943970935,3.518427342917537,-4.991404771082504,6.892357840037569
7.352011824221596,3.9728486221128243,6.277122401611091,-8.411576086038721
5.140331250096411,0.5922666137208097,0.5590983439349664,-1.312347547279714
-0.6826386796023713,3.3591843768011067,5.858955400557804,-0.9294127314402942
4.388331426870225,7.2621458788027695,-3.6862829357478795,-1.8124872506672958
-0.2425071221166817,-2.1244475333540187,2.6673257321668693,5.164578488724214
1.7177572952145812,2.5551641080395235,1.0536250963882061,1.6319688509101198
-4.214994586433239,-2.8299073170436344,-8.258394915105082,0.569684877728335
6.042374483495146,-4.647854985226697,3.2592119883692057,1.7244675321851943
-8.403505062075867,3.656878519914965,-15.3403719601809,4.907759205826849
-1.2981420811819602,4.100475322878385,-3.709861280086937,9.730253262927654
-2.203444582245313,4.1288304418650945,2.6536852768499664,2.54778010300387
2.2350289126591285,-11.25759336280002,-3.726226881703486,5.270413652401402
3.1835370599686508,9.365670097600525,5.917331212216283,3.623431464073761
7.152425485252344,1.662771501903233,-6.300936703909709,-1.6397326583946494
1.1946855907940108,1.9234039275276693,7.511242646062158,1.1394856589765254
2.259636970720647,3.325790546963308,-24.14897244401433,-1.3750373805916922
2.9025586352907373,7.4538609468850225,-0.37731301989005317,2.443889120833198
3.512193379515431,8.112286149032482,9.93359883658285,5.334911391602212
-3.5254542350784783,-3.689660760092149,2.649413936073266,-5.183676416125195
1.1047634041569998,5.591332570871575,3.2102044909509537,2.601540640887958
7.184261311481122,-6.208690344788092,-13.423373502378485,4.281532786668443
-8.314242950681946,0.4701044276464259,-1.4165273970057797,5.541630628803958
4.235687155884251,0.6945752061230372,-3.5802064373144837,0.05988388629938868
-5.206404969309972,-3.2228378706742014,-10.744314713551464,-7.4875409695741695
1.9034196935869576,-12.188441332257884,2.7963669066934322,-2.157356629561747
6.152643042773117,3.9962402834887207,1.6426637324195532,5.0087069320751745
-1.3992139694842427,5.061261500094318,-1.1051788948527985,6.622258947657535
-5.26076653844301,4.54931741036199,-1.1917742616053424,10.479859277483062
-3.327063076078883,4.3735294293182925,8.489272146075916,1.6974573413965715
4.159468050085037,4.534111386463763,3.809229415512654,-0.9954040024832551
-7.579157025848818,0.6757838950626542,-2.8580718339705875,4.494885955385207
0.4179027793313089,4.556911096515588,2.9759621363210407,3.693541602509182
4.918405758128427,-6.6868818521127515,8.237916208694127,1.7317162866439944
1.8255642395524085,2.634978726018389,3.4907743451634765,0.011228738205559807
-6.790752388291323,1.2202809215415655,-0.8858912860340489,-1.3503623308239838
4.969177669620845,2.407616717128878,-0.7737089470294656,6.754564963821469
2.114758486018196,6.853903934785947,-7.701107585210433,5.389223640510192
-1.5346653992184434,2.831814868276499,-1.9554340106355532,-1.6148286628373043
5.253543954161899,2.0141040307767497,-6.192026787695635,-0.6219352061611545
4.457781326694647,-1.8414362486041718,0.21103484519923654,7.637912662477312
7.626892361346228,2.2710127736798498,7.262072516812108,9.138824839546984
1.24616288758055,2.762685809660848,1.692873967782738,1.020724408894246
-3.691483862525737,-2.261245593063066,-0.738547581812405,4.953061290878395
2.744362916040335,4.918915429652301,6.233658073814038,-0.5804820459969733
7.52429111648442,3.359107525556258,-7.117994518196465,-0.4661545927252888
2.042535997643335,4.825031217532928,-2.514891005919001,3.743792137742041
3.465681920962816,-2.5991003027613004,-0.2597141924553803,2.150818273167367
-8.57252986861703,-6.086731495598361,4.333925164309175,4.447055978532106
4.336794736812869,3.87094579930163,4.101090031596726,1.992476175350479
-5.006905282762871,5.978314444975798,4.363205544911477,2.9488298653549556
2.168016274258999,-7.388921754594687,-3.9317769204539523,3.0473673902457747
-4.789456539899802,-3.893671639765625,3.613782617910335,4.770428923555016
0.7593186567574295,-0.33127810476243624,-2.577547699426532,-8.09415437787063
2.212035173599817,8.432220186718304,0.8084371047218752,-11.277542352121174
1.7469678197269312,-2.5972330277819324,-21.811800766218337,5.180533559005173
-7.582218018344814,5.674997926400479,-1.7925003683848395,5.295342764500546
-3.3295047332438164,-3.8843975042260617,-0.04181363894959489,1.687599619309406
-1.5763824180718964,4.837667808450579,-1.2649118688414625,3.5166978695995113
3.8843614909452677,1.6059579353546738,4.368573822691797,1.6098655237016608
1.9600842715875102,-2.373640751762057,2.9759665026931863,1.9211038552087771
5.293638935956868,-7.453279539913151,-1.300696650041516,-2.0772838702007093
-9.373581953800233,1.1513381207595863,2.289857975417913,-4.867669407700021
5.228864741073614,-0.8944424784985685,-15.80732927356237,1.1479022761774402
-0.0775029656055105,6.83899819824698,-1.7968502631704126,-0.12945126282557595
8.354367371941468,1.6733871163792777,3.0250486639515834,-0.09466510512029203
-8.196612285060215,-4.544805741431464,1.1030758832806207,-4.462557018393497
0.7083164820585124,1.3967378764653304,7.043638703361864,4.455923764964236
-6.459668675112772,6.163042623247396,-6.8081515315239365,-11.530952206770635
1.8890121005315408,1.788365037544466,1.1288639881567413,-5.304039137437954
4.487225866999027,-2.2821414679655874,8.396563129672934,-6.441628498356302
2.7471297743165817,6.604715067927106,2.5589272452701586,4.648343207025018
2.614922991800137,-8.024523930487884,0.6256935910604113,-0.768399489082455
-8.360669772594582,3.0950623672124884,2.2760103594712398,3.994872734666391
4.111935316265268,3.7559110203560486,6.953833123160678,2.6030670685962782
1.2332707101876115,0.8474190382679332,2.3769041879607222,2.8265525830367935
3.2824269089728255,-1.7638155450147401,4.792575330574657,-3.434804920089995
1.8356828072326314,4.104668356702046,7.780195689378839,3.6383215790243177
3.3146020735940818,2.3576508601817032,2.8962309313168113,-6.083539851923874
1.2931144630996187,-2.9494348409754814,8.831070595960398,0.49029761590023213
-3.181885200033362,-0.8225747485259873,-5.396590957697004,3.4849752134295535
-3.5472892327932497,3.9351786783339584,2.094096141588011,5.276472981882044
3.8133384434565114,-19.318945052976307,2.844186619361313,6.941715471363839
-10.109280259862926,0.18949456823523647,-4.285980255526116,3.1373898219831666
0.5176166700294802,-5.687706673869226,1.3891820325484865,-1.6534600957813552
-17.8285469483979,-7.239910181024232,6.232532520075971,6.292349417501477
8.480142297846522,-0.3441487326653281,-1.5404391543473004,-6.2347786727236
3.3626071486132747,-0.2264316032293756,3.8946332756037094,-12.801959716693489
-2.372843804961503,3.0867042658329744,4.149240165939737,4.877707394801696
-6.88078937658599,1.0425979277152813,2.5432463604574984,5.736213781399581
0.46619876416520883,-4.693922746504544,1.321856944259654,6.175800853966223
-10.48177388373232,-3.7458931217056453,3.843327999345778,-0.18266502687890096
2.614211464748435,3.2204864363855457,-8.851041720802808,-5.04385859196541
-1.638634135992859,8.380960709304237,8.488394678285719,4.553870983244707
1.2474889703321657,7.924380435992759,2.850489825029083,5.4609098496337936
1.108826991319221,-0.03609493399259023,2.6195614342093556,-4.734130673569034
4.193633064282045,-2.5893073697421087,9.15730112748943,4.728002303244818
-2.1010632997633687,5.623656921325857,6.365854697647897,-17.477448660518768
6.6036147619084185,2.8824844836401695,-1.3878726631143543,4.2473145054834305
1.941850292994037,-3.9061689511553936,7.936423286851085,-7.098428410317297
6.959387545015397,5.799615616984543,0.7686246380202952,2.517102169017008
-5.612133918194642,3.596767633480038,1.6946293988853292,3.938299834705063
2.546259545584489,-4.5068161196754986,-3.911712149182403,-7.0134733420510855
-7.214644447222541,7.84865571216131,-5.694602830674366,4.44350882471279
6.537022792276567,4.845992903676013,10.619051039761374,-4.392522318263019
-5.112593350430446,0.8672049264741979,5.504612884975469,-5.26719585440415
7.729722425249542,-9.972572181479453,3.225796000152709,2.776508237131406
3.6408347425850462,-8.276704122038712,9.67072640544318,11.10207390873061
2.8061004391141116,-14.495871565129026,2.0164429991808284,2.874737229162111
3.600201152677925,6.969304865210731,2.491838536209208,-1.982040953463759
1.5250685582641754,-3.1964637087895333,-2.0406878474331513,-5.491583152887202
3.9379566901524,0.5897742465003653,3.002763512740284,4.9322178754630315
-6.604485674413643,5.816048566648515,2.151818272573383,-6.155329063942887
6.746124980836273,-1.4763040296705725,-6.043059273782799,0.4242103060289537
-5.122255745655875,-8.810458999371928,3.811747021150964,3.6236962213711337
-4.25859050284408,1.6200924629480191,-3.4443244554720955,0.7954301109166408
-1.258598968948347,-0.1258027817814522,7.496035522973951,6.570474859827584
4.0814532689342515,6.505729384186079,-0.2853861770868136,0.6298306240637501
-7.9933421477754045,5.4500220521644245,-2.409414811026803,0.8534512777879186
0.5190228125836689,-1.1437431394742283,4.002751975871572,3.5899328448104484
7.415676276015653,6.915759623918678,-3.1347893129053723,5.603562064003047
-6.898850035977918,-1.9565652180734006,2.9066341357714123,2.2347688108456403
1.4811373065542053,1.8050843604273474,0.4244454873650092,3.3691484666669993
-1.3486567096419209,2.5134198907746494,-7.737452375781853,3.83858665324696
-4.524992724417225,4.177688791447803,0.392186305183575,-8.71792983650117
6.526006408159772,4.5136978230381075,7.4400683432802275,2.523649949886682
2.471723238616459,1.144080556643516,3.6106693997960413,-2.5323538723177066
-4.719592494886611,-6.431662034904054,7.641162409464865,-7.68950640224385
-4.060086351801689,5.76867053523776,2.743447570034977,2.3142266394744517
-1.9948821324384132,4.515771288569287,-7.199122366335676,-4.643085002819198
2.3348691043869247,4.359957286311975,7.411561731327257,-2.6792142769854053
2.963343969960493,-0.8989004529011773,-0.31334190554625607,8.615013874101592
-4.4733469541218085,1.887178389473302,5.859923295472949,2.9051943040973462
3.828711434871471,1.3467227375611834,2.5840165180121026,-4.410615424512571
-1.810910030010874,-13.395938275632357,5.808970704529916,9.837273067821855
-2.445832419706746,2.8582542261660073,-0.3047738456631812,8.57574683228523
-5.510675842243684,-5.2258275521721345,4.630880079434345,4.757901045139761
0.20996034340492095,-0.032518490667790445,-3.1935852815221004,-13.865529553657382
-3.6853277060040774,-8.527413241759408,-5.4000998913576375,-7.274489052999684
-7.885875218852068,1.5231782654822865,-3.057152014409045,-3.2495398717229875
-1.1491865688132077,10.315057982720118,4.961914895290203,7.921895021066774
4.81316102833446,5.64954143688815,-5.787032413041775,0.1919576031993273
-11.57235901455102,1.3605164243441976,0.03203184710929108,4.679540491885142
-22.235471639362512,0.5972375258455216,-14.688153194947017,6.737023004050048
1.9940370910003762,1.884056026876106,8.313964137754105,6.8239377624282085
-8.310826777991684,0.18091093940347136,-0.8971917508468081,-7.3198539559108795
5.226156953468434,-6.519509405012247,6.728757191246967,0.13277283646665694
0.9377132157650578,10.162812765550385,-10.433752258628555,2.528148837692612
1.110893962270398,-8.318817236375086,2.5150149662827594,-5.974457171756811
4.570977335697258,0.8387907128164009,-8.622062917109194,-1.123499028727366
-3.889972097407715,3.5494355991571425,7.110532605288274,-9.990055423380845
-7.701389228006301,-8.357490638080716,3.313010863389106,4.112908263239145
-2.11258766373322,0.8077367960298574,-4.688720279652106,3.166786861885477
-11.00855350200374,-10.428747249047309,1.4164724633617425,4.146724011101213
2.2255164849293267,1.504253200370993,6.314499060288455,-14.675544589629979
2.7210016183675885,3.8786129387432986,1.0336742105267014,2.538214225838246
4.30811899134584,0.06355015068489678,-4.110590351358486,-3.948429298077876
2.3647984780296274,2.935407349549731,-5.553558848086052,-2.239671808340262
-3.0627853917549657,5.156346672431763,-2.37412635481898,-5.480451729756574
1.4175644023125835,0.2317891599961186,5.475755621483412,3.38137262393429
5.42393080304546,3.6142929086847992,-16.977691368857574,5.012324707835987
-3.5011836446480697,-13.884867016438047,-2.788061024607142,-1.3423399933863962
-3.1258747008631627,6.322780624419828,1.6261370032488145,-2.605255931258853
-0.2105307182591461,7.261115194739453,7.112936032602455,9.394707552264403
-4.849106806972523,5.52421197139428,-5.1598710408107245,-1.085184107349626
9.695510804058797,-4.518900201567732,4.321743373466251,5.497327670720161
1.0074245208119335,1.3688853355898694,-2.043102080549893,6.996243058842282
-1.7634591746172432,0.6818150056662482,7.363292132833333,0.9909799432946969
5.782244023303218,5.664014751944354,2.1733567750073384,7.8612780149499635
4.411972527017276,0.2450837509422108,1.0421607151046643,-6.060578694082196
2.6264793462821987,1.2304443592539478,4.36992659175079,-1.3318092398113066
-19.463821561478326,1.8803620546051931,-7.664600350240324,-6.500825238483657
4.848799912157962,3.454587902485109,4.189961788262451,6.6454445598191825
-1.801683795075836,3.744806350623474,4.3576799646926965,-4.718652072309929
-7.141458999057152,1.6356788017550237,3.173005040959847,7.156796600797442
3.8153707392382725,-16.40546190209486,3.3363061067762345,4.666177697936188
5.1894288806047,-6.293994785066047,4.422889848169675,-1.2423891525030086
-7.2675841244776525,8.118054405031195,4.465947314972372,0.33507793685645737
-7.5155471656187585,-3.7866518623363277,-16.54190668463036,0.1402190839637214
-6.830271090123536,5.391857521223432,-6.764429803685385,3.911066165258166
-7.087186574933495,2.609327392117425,7.497917158040824,9.264932441876091
2.0173809860088068,7.254403875705808,-7.010181939991572,6.410209388503365
3.154388675847053,1.7112283297148743,0.7687098398665135,2.6980871582518873
-0.1981184407453351,4.4370002883024675,-6.737769713234915,5.862250367119742
-3.3256507532064874,6.275727720069497,6.645412333905249,6.076287382153204
-2.3065876115480055,6.821989519894554,-7.830276426948334,3.4053562872661445
1.3406602617219665,-3.043905751743889,-0.4064213674882886,6.389893094798211
6.061343541351197,-1.0862614031223785,10.045000975610527,6.39073369033304
5.325399626083612,-6.675096479149861,-5.4405895051634126,1.775024032525728
0.3446327958286421,-1.5519038727930656,2.821309328494042,7.692227389510656
4.7422166363233,0.585087102568913,-1.8525163236786497,-5.0184674135761185
5.012746471941901,0.9845004650299636,-2.353463445110858,1.4772816633493733
4.229909760269535,-6.551830764608841,3.208568955490499,3.8674889998224202
4.17160872960077,4.9898910490724155,2.1376244228676313,-4.518207137720175
-2.524142655256408,4.076582278028457,1.3573560057684055,6.498290273051772
-3.5296152431241326,2.954696810729306,3.046860455157155,1.149649505686284
1.7990896497183888,0.9962045128675179,-0.7260297830195448,-4.84212615087052
