Freq_12,Freq_30,Freq_50,Freq_80
7.692856700653533,-2.4643569004574446,-10.10313706318728,-12.458948554145724
5.495327008649889,-12.16125614397309,-26.01305594750044,-28.91465130170205
8.442010727408917,0.7883099648578709,-9.231031053544895,-15.171185426135736
7.227482287973157,-4.481233963639497,-5.742676410447951,-19.225637149760022
0.5272109297276502,-0.9805908663602447,-13.493117735618448,-19.239179485408275
8.985037508268409,-16.23488529205126,-10.214882971301545,-20.723594816713813
6.6927063150658395,-4.330224015612229,-11.117518876206592,-14.890481343710633
7.610788927027347,-2.0501509636391204,-7.370231525383076,-16.567775980277794
8.057447072695776,-7.151683504380815,-9.96895976945465,-19.22202378424082
5.180193202458907,-12.432569585036685,-6.1279384211332335,-11.498747006753813
7.931728467410429,-5.723308254204431,-16.904695078423384,-13.456813641700439
7.597787013989575,-7.465574484549421,-9.063337325892398,-13.698252083666244
8.289807050599197,-7.183482795448736,-3.9020639243132025,-12.914144973633213
4.777208589526947,-0.04118032833750851,-16.891948379918873,-27.525020191833413
0.7009525644817609,-4.320386885607329,-22.176920353536744,-8.162896942993335
-8.368104735035484,-11.200385920548454,-11.800193888057178,-15.972882840697565
0.8515802792965959,-7.854087343483464,-8.82430953487587,-13.00491841227186
-0.4303357584254237,0.24831221004697834,-6.823670209805492,-17.873190446400038
10.893477005489258,-3.319759873265832,-23.473867467048567,-18.72126250025772
3.719116544985678,-1.081498884526375,-2.9173770260238077,-8.727810317156273
-1.7725053446655625,-10.442706969716346,-9.420873609237264,-16.250962840625917
4.48818841068854,-6.644162653906289,-6.712175411698325,-12.332101409615102
-3.9751568426449584,1.2635938878217339,-5.390250993841413,-15.841192812118386
3.414327211489643,-5.356723031164297,-11.515055687386983,-11.571639606860199
-1.745351970101125,-10.026935138742827,-6.741271500059106,-26.647827101549808
4.412183310683172,-4.31575108294315,-6.01924899615746,-19.187334638312592
4.4331772691272775,-4.551045390996546,-7.641019022838076,-8.036439244998977
1.8074091879946215,-2.504270674822729,-12.9430486773682,-21.19653988106925
3.9516827808850365,-17.020120688903834,-4.493608165765814,-10.310178407429344
3.0307226935465947,-1.9076403165384979,-11.681648055521917,-14.059685640785833
12.01509527335621,-2.8736188328293486,-15.99415023967854,-19.2182604225812
4.185056688612148,-9.475300917835733,-2.461225837541915,-13.794915883916822
-2.5373698403477487,-7.748657667517948,-16.42853890779983,-16.716126845699925
0.6209853350209049,-6.070661173051468,-10.660999920065098,-13.796838765174058
5.645015798961403,-7.136784792340251,-17.57572194686039,-30.93670271911632
5.77116351836701,-17.694541056590836,-9.387708164655454,-11.506989158355008
5.898136201040392,-5.4380140127825864,-8.793356327760122,-11.41509515829554
6.472103399328155,-10.299479937429249,-15.073827982717788,-12.972986982742317
2.296954610328713,-3.326885871937797,-19.621971743311686,-12.186771789502007
8.276950038734816,-0.3983730202038642,-7.424055406112709,-15.51573103606
-4.154532209971072,-3.361651493227989,-5.6778544655205785,-17.302786318711163
11.587189755654059,-8.610347815257162,-20.29145523315934,-15.789046814061795
3.507122417030105,-4.659616713655614,-21.294666918864024,-9.510714459261067
4.568338661606621,0.06889806799977372,-11.474668969558621,-18.559256484405083
1.9131000847822626,0.023795154815566377,-9.35420717154253,-18.83576919672574
4.24792017269286,-5.151599497793065,-3.487553628814229,-36.689979238452445
1.3515287787028394,-3.932422001693571,-13.20101028249439,-16.676900766847954
6.755019289602612,-4.029308336707906,-1.7949271764842742,-10.190017664226843
3.726323075883567,-27.99387302182874,-6.513800726448471,-12.786523598437878
4.302118450453031,-4.527585660330585,-39.44749482273805,-13.5995989880646
-13.708614766571127,-6.3431488810887835,-30.52474365305254,-16.747083159733585
-0.10851865525812343,-16.9827076611413,-19.439988869597897,-19.407831420531085
7.1979556163232115,-15.23855609184106,-9.289441392878228,-10.847899394017695
8.23128453201016,1.576064355898938,-6.330308574490033,-16.76893431605281
8.131190560131188,-5.612603856576964,-5.456987480951245,-11.76714656873111
-18.07669041822429,-6.798007612965987,-8.729290975842002,-13.32689633021118
6.4576252166129375,-11.666342857819268,-13.43371794397012,-20.663488198178296
6.70661164103266,0.17405569419609268,-11.232592840755736,-14.42009236250665
9.232721444352038,-6.810453582430524,-9.643397800010586,-12.423135284467541
-11.727688722190823,-24.46898069521552,-8.022032710369158,-13.296894514594644
5.357129499529666,-6.288547424598242,-14.12256927260248,-22.939466946666897
-0.6455470883155447,-0.35712115789398124,-14.165904689809008,-14.04564082156616
-1.4406371522858041,3.6192155642652613,-20.122706959632353,-10.312523149440974
-2.873068923114168,-2.60289492995932,-3.970025676321384,-16.690479731093255
2.6764546590950196,-6.202804370810927,-6.225414145612044,-8.538414975983365
3.8754438710807713,-9.961530985618701,-9.799812762941531,-31.280738889474023
-3.9214742092965604,-12.092450039655203,-7.023591952311559,-14.316448061554205
7.393941576610972,-14.76205392880515,-4.601231646843697,-17.415591936117476
11.344470484755583,-6.522503959572608,-3.7137400043449653,-7.009788594589206
12.583660953868577,-8.977766674163615,-13.522110844822055,-19.248103226852827
-2.509886892937316,-1.382803803387651,-7.861074119820941,-11.621974339277077
6.187118514876024,-21.41566422913987,-13.674754610629417,-10.955589201846266
5.267509973538301,-5.937897372558172,-25.491589540204778,-9.92004505248497
7.331696835785333,-9.348325215089295,-12.54078980043812,-12.494563735635378
5.355425124526913,-5.638960545561806,-10.720920692317382,-18.97751416968234
7.084401514713372,-4.175973226093809,-10.149769444338935,-20.32789748370015
-1.088790319763783,-1.5635829998702966,-10.696906968594337,-8.089226865480938
4.632932736091655,-3.2599722850030406,-21.81003864704778,-16.447185280767435
-4.022855613004779,-13.409860556265594,-5.869452149265626,-23.702411555436107
-4.72259930938825,-5.642962096916801,-15.863876018384563,-37.23082542882139
5.057376061560768,-10.613858748002535,-7.336562772530582,-10.726234059158323
4.4866514244273805,-4.689908424224527,-6.053852057001951,-16.738179993473654
6.97677733162105,-7.1420931485238,-4.587686741430783,-16.241567718489158
12.594338013545755,-10.90070983354356,-10.516597208893906,-28.492532141577964
3.7487867650812925,-8.026763871601707,-7.305470018353828,-14.086587711522395
9.177903344195322,-15.201298451021975,-2.203298582049443,-9.902111531967797
4.978339235083691,-5.456838815251258,-10.47483882782074,-15.245737221606422
-0.15506468833787546,-0.3908310306130125,-5.05593875709566,-19.698269676280106
-0.8984931678731076,-2.4276559198553183,-7.992004305911166,-10.887310410655573
3.3591028110974843,-2.3796378410333845,-15.0369013476069,-11.422513573701668
-2.7631046748955272,-4.323029193158543,-5.199758212913977,-8.550426966001112
2.462114253452204,-2.8024465419478513,-16.606995708881676,-8.883859229738416
3.9789216077493004,-9.638234712668737,-8.533703717025528,-18.242124498924824
-0.9311228173135646,0.472061183405994,-7.762224240699421,-22.037529366063758
3.8408778013773013,-10.513778281786829,-20.454851705745455,-14.038498748138505
-7.217470826699905,-4.399868964392095,-10.78025112383257,-11.725174307329421
5.546736140595975,-12.895204792015054,-4.5448011197624325,-11.696523371306707
7.687772469135027,-9.77341384306426,-19.328315302193893,-12.535837229209804
7.389613586372265,-15.320425685257502,-12.213173357287417,-11.201490071563107
6.59705131580125,-11.821504123015353,-9.654960181261547,-24.412856388741947
0.2514816778997089,-6.95998288376884,-5.677320578670379,-18.182782182154188
-1.0493461872155576,-2.245430528790044,-14.416227168986975,-15.690904019882407
4.608490671407466,-11.843438549778783,-10.077393861367364,-7.263467513775917
8.68322518080711,-11.92515005943108,-9.312568517391103,-21.0979239971709
7.746954864708011,-2.9101407729007147,-14.184498887211571,-8.922471068246217
1.4314347924868727,-2.2118406472710794,-11.363724663467998,-7.7088398054613
4.190032577876406,-9.391244727419666,-5.478284247813136,-19.70055598590596
-1.1788710388393646,-13.053375572167043,-3.148937865713919,-26.778374094360863
-7.238347716698649,-13.5976348363607,-23.832589309400614,-11.56401144625027
-5.0979720292889015,-20.389056322314243,-11.85408838889514,-12.227303827588162
1.4541941945307901,-16.790399441666203,-15.07557850204007,-11.762204818763255
3.4931031521818325,-7.472399446743584,-7.089667043392389,-14.214166716576436
5.202103004304246,-2.6437607481668173,-9.105407352319986,-14.96404304691129
4.227841076389656,-8.433981706051204,-7.310331387851733,-8.641980043138673
6.056436209265734,-2.307194208682842,-4.570824473020796,-14.24789284501469
-5.0848470408119235,-4.791398815577642,-7.652538000775003,-8.85475625440733
8.350171837729153,1.7349720458912026,-6.997997118112183,-13.811036348523146
0.7704771482256114,-4.392128771287901,-8.88321396276309,-15.6804773865395
5.757359313162356,-4.191699675013329,-9.030086243361085,-10.524557665696356
7.747144140168733,-11.638648739302978,-14.953195243401339,-23.098657861323776
3.8701871571936097,-8.439740058016758,-8.26178054534182,-23.837674127279215
5.242241017790896,-7.958245809649265,-10.602451041693527,-9.674729037450092
7.162040723956555,-3.9828830510312776,-5.761340526368247,-8.252221206456273
4.382794770066393,-7.5415029664237405,-9.042670782929083,-11.245688875034759
0.9692298967794284,-5.385314490920841,-2.892247371110668,-13.811957735220247
10.154758469458294,-2.054786948529698,-7.226324859417538,-21.19629603053468
9.172943278999501,-9.129749421699916,-9.913313175227174,-13.626616123212052
12.258731427745882,-9.083332681262,-2.874562467463727,-12.96574285474285
-1.8822359827590667,-11.751080153052843,-6.00966131538695,-10.560390350565587
2.532076452611429,-7.105027271536278,-11.217883858743894,-23.07740400130235
13.184906795184776,-3.099087245959597,-4.834983675040135,-12.80480198378621
11.19528378589333,-0.23882872009212752,-14.042649023038518,-9.855534787455472
5.605361643647786,-2.8907598378301675,-4.371461809804263,-19.03801652902462
2.110028718109123,-12.243511040933587,-5.411777132887037,-18.622708689055727
8.374614021605158,-4.873858938271706,-13.537993698376276,-9.794802697431805
5.209351313395414,-6.9729003278961486,-27.387546808578605,-15.437750386383989
7.886775346336163,-8.330796929964578,-13.425723341809451,-20.230360701112417
3.7050543196779993,-14.469370338556137,-21.17037211709337,-11.294514413616355
5.25854797405163,-14.902350431040736,-2.517955261016279,-8.258945575581542
7.034823581368119,0.5710410518469198,-9.98605225809689,-19.742813589125436
8.225642239372867,-17.299556344661433,-7.823115036667588,-37.270326641319684
3.442768906198328,-6.591432406932043,-22.295258394427815,-13.753707095066495
-12.754616661674536,-12.551852114912956,-8.008408803912687,-8.810144980798949
6.674890115621177,-18.499943693894544,-4.8037708661583665,-15.925613100252459
7.508641698157366,-5.000027125148749,-4.544769588787757,-8.46580370334356
6.442317494670842,-6.691501576011097,-10.708105732542851,-14.347097733182881
1.9323738790274159,-9.730280682428475,-7.6699820722660625,-18.73768592182099
7.51694757252384,-10.910347971755268,-23.993365275800002,-24.407868494189167
2.6952720164491915,0.21580379294976249,-7.108498996686208,-15.493814315761878
11.215401655069858,-15.900556418700207,-16.678894047695053,-11.152061298326313
9.348734599167873,-5.7801570252239625,-9.30637778480049,-9.014002575737784
8.636939548942294,-0.2849526433354881,-13.439430999097809,-12.993104549328347
5.2874691666382745,-14.706797058184597,-16.948535001949676,-16.088665556293332
-2.0437476739680998,0.987350428158174,-23.19035476454969,-15.932845738216443
11.597653997309276,-2.4763748003378567,-8.564457781413708,-11.989165189343918
9.79776924285109,-18.932640884591603,-13.17428512468766,-13.020594230261807
5.889049528764401,-3.0248878651901614,-5.98707420720992,-12.975750947883654
5.608691930379394,-4.928926211952607,-14.335269452674666,-15.510750506490577
6.747873412066667,-0.004313956681776698,-9.805286923818656,-18.180360685514323
6.780206249670272,-0.4891534991268425,-14.839125025783428,-9.38594059156015
-6.373077024425844,-14.590929062747142,-11.354977386825677,-10.044366613004797
-7.575781763122422,-8.026834682835416,-12.46939015670832,-12.093519556069221
6.74600338017491,-7.804329739302624,-19.162001643208296,-10.135976746456109
4.2511938689786675,-12.319615199984014,-10.734191589503508,-16.37036684648581
10.014299664442078,-23.193833059617667,-13.257873842802766,-18.287585015531814
10.02553047874248,-20.525443527705008,-20.98114844984463,-24.540123124844673
10.108037462994096,-19.799412480556903,-5.635373911099791,-6.718984967640668
7.842895614015326,-3.526964209558763,-6.633949078197293,-8.298295836115681
12.115596607099487,-7.647350620247549,-7.474404865293769,-11.55248307596349
6.295511284384988,-4.459162896533837,-6.706787498110597,-18.862615309306246
1.8349831622899984,-2.357909805399822,-7.063991205959329,-4.44754995242833
6.7211618272156635,-7.803822357679758,-10.71379669576951,-9.722044699234015
-4.180400914170398,-19.733968683844445,-9.50194703941225,-20.592249949921573
1.369070478144006,-9.303921881157223,-4.189776291162531,-15.49455767163321
11.076586641375059,-8.088894434674282,-16.749757160790168,-8.554800225613842
9.9370832207536,-6.501476489473211,-14.932623811020065,-13.837415203830243
6.790509713422841,-2.299127308934874,-15.308076511176111,-16.045838267958057
1.381361708263587,-9.037393163495414,-12.542888688751813,-8.629226086580587
2.531334117563118,-7.091206529887554,-20.019804388188536,-19.74863046269651
7.815896438505865,-11.963512998001539,-23.373740334130858,-14.976971845233454
11.54367827375783,-5.5276240205909115,-4.151535399145969,-15.80233610030134
6.180566155006578,-11.62708775704742,-14.10424389993453,-16.408204493367514
4.287312309646827,-21.98178278511611,-8.62609199048701,-10.880510884266116
4.5362705776995345,-1.7961127158092478,-4.737845145326679,-8.340872775527757
9.640708393550087,-4.212879849393682,-8.771334746049266,-10.982677443253252
9.17565100919536,-9.276844084978833,-9.177334455283187,-18.28771369839158
12.744622173484888,-13.457758768054324,-14.439871775215842,-10.549822314116863
-0.24527124057606908,-17.358557119893476,-5.697798546957813,-13.530553599471617
4.857563479360404,-4.646355250792688,-16.905184128235756,-11.157213481462577
4.898531050544127,-6.6925908980366255,-10.419823075807042,-10.293768513737778
-5.896384567085076,1.521374073849688,-6.251315307380477,-9.317014807394731
1.8108015582720955,-2.624765443042365,-14.11228651583528,-22.095481123701525
7.6384478371368605,-8.881884050549452,-7.164683878801878,-14.188140661944313
-10.215477003690356,-9.251855718448725,-13.090195529180175,-15.452986453917351
9.123256728767016,0.5259189306797531,-14.50792806718249,-9.448859131025884
5.143075208126812,-6.8052415569482285,-9.57387345587674,-22.244365824038685
1.7948234235756293,-4.393830262720831,-6.7187939750555135,-14.839478115517931
9.386303711756703,-7.595986425876612,-11.045773139036639,-8.781533709525721
6.1943524251521485,-17.559109915455764,-11.802757084891468,-17.193466964905543
6.501865091847872,-3.740343025949033,-12.512898563787495,-14.117425833702846
4.48431582015046,-4.962030754756984,-16.727029613373,-15.584751299610403
7.393784560913554,-2.793137884059893,-9.697243485501719,-12.540355833843734
8.698584235082233,-0.789045110662228,-9.673301132689767,-14.162828430016678
4.39487011690095,-5.854216535791386,-15.05146749865047,-20.301411514198936
7.618094631101515,-12.659574337862608,-9.004158246767243,-9.461663191907235
-2.8408663600831012,-0.45101878742740675,-7.8368314951568205,-7.404673523213268
6.146029799257551,-14.073277046988613,-12.894450590417584,-13.96401692435435
7.362143543578861,-0.6569250474116437,-5.988407304432981,-15.032878423314944
13.476587887632682,-12.702966497799268,-12.834235679519828,-18.835808931912418
9.344670003872373,-2.2914272756473664,-9.15014833581417,-10.217720091264493
2.1702942582081404,-2.0500034313207514,-17.038005426428313,-8.95747245306449
7.73697951845057,-11.484750114837436,-6.96237592701285,-16.82229177124602
-2.4583360136719037,1.034358423091581,-12.766490940387072,-12.066221416332368
-2.7540147239092363,-4.134348633133902,-9.334813473943218,-12.816408103689724
4.72366416861334,-7.124066046144282,-5.618381112267615,-8.482119132353638
2.3343409578040806,-21.120518383478114,-7.878494176697995,-10.90511511393471
6.169247282899791,-6.9787374195729175,-14.082205202399827,-18.415539213828204
-9.364522201289994,-23.65522948613099,-15.713350711698823,-24.447594577776883
-0.09596472345589468,-5.284344559159537,-12.774905826531176,-21.64160055796966
7.81524035679074,-2.2555422947714328,-5.399752742196622,-7.024345038656299
1.6803600114132973,-8.278285014968072,-11.97682462869336,-14.264490765624053
8.009768038803912,-5.454748946183219,-22.73374158717964,-8.625570359166439
12.139695907499771,-8.78272803820848,-14.564997647929282,-7.339393924303596
11.26220943553739,-5.205031714683491,-15.428287750889549,-8.298886956772314
3.8055171846369507,-8.728992256994264,-10.205590868035344,-19.312884666586726
7.264498239937715,-4.081633479019162,-18.409475021563217,-9.067062961713923
9.191739196071783,-16.644425975828682,-3.0071730568405513,-7.4881399929764525
-0.3941372815491646,-3.2853344853804214,-14.741326741691683,-9.022103135312989
5.2929729551285885,-12.524011971093673,-11.591934979789693,-8.434769895931282
7.72456511505328,-5.199939460752345,-9.257623373329853,-10.857663769226995
7.59454424467119,-7.296343218667282,-8.297274657668888,-11.044973403523358
6.608598545829512,-14.363502818475995,-12.543762279842406,-45.398439635771346
12.095302376338537,-7.5360144525583035,-4.782963536258713,-10.276854488261048
13.162758295205172,-6.416756235648091,-6.8458707240300996,-13.391955273874999
3.047346746152212,-6.214106752088021,-6.981889118608574,-7.6168987571335505
1.6124073809567396,-28.586259094410096,-1.5966578437108754,-16.886975200959206
9.209305554928179,-1.9000639370025927,-5.6087325450088965,-11.38748261120221
2.7571904111096135,-11.526363161457256,-7.2600255708176356,-12.467153577383268
7.340499382582497,-4.285199210154879,-6.820789795979726,-20.31189950059516
5.063176943266656,-3.820571934686535,-10.013790662199687,-12.822943016061625
6.667238092950376,-12.297222178161364,-4.200794939000266,-9.26202593281063
7.792060018869836,-2.4768707669624006,-9.15965463138956,-19.339515438718614
8.070166030566558,-11.466426607733789,-8.945640110644714,-11.249480629431027
10.856575216565187,-2.7831195470523746,-4.683516910667025,-22.927928964955292
3.467664641333532,-7.983084205957647,-10.257549849159822,-10.192554386892283
4.938188340446849,-3.690015279851693,-8.76575990072687,-24.602628711758573
3.7044289004718216,-7.113283424068337,-10.628654382043528,-15.489469456061219
6.586896499431322,2.6083982810123763,-14.93252915150827,-15.811479244546124
7.716361979009902,-3.190962733394628,-9.779078288535654,-12.230755300926837
1.629943043513895,-4.153006811748426,-10.196851733970378,-15.376613112455239
9.195176073132949,-7.734612976448986,-20.40013470338092,-18.595493859852784
-0.30247952316182847,-5.815465584790179,-8.516054735710162,-15.146908418735315
7.419061452893789,-5.300232491907872,-8.409460634319942,-7.757501167991351
5.535573670133088,0.8592193930675642,-17.79587802166952,-16.55010908716854
-1.330866129382394,-3.375399449657476,-13.09570847892542,-13.132455654929547
4.421125349586648,-13.812326634521972,-4.369279206214248,-14.73969101285838
6.593220727026752,-6.13758198777213,-1.3085007186296163,-13.904700648988992
6.160670049588331,-0.6287072106687686,-9.162801018156548,-12.140669906864911
10.269211993070668,-12.826702504733186,-3.9405253105445284,-16.699505102743217
5.011012113813187,-6.674897269362788,-13.19738338467927,-12.637944478315074
-1.9487151890811605,-1.2747357669331172,-32.7892332674816,-16.03750695740499
3.032209877145582,-4.397725231899225,-15.360457433163283,-16.708721898768285
-1.8104445762077574,-4.775090702677721,-16.319497203724815,-7.093932642779559
0.48784613897277573,-7.48746628797141,-12.662137508562386,-34.09572368169521
1.8393050535199027,-5.984663169641406,-4.532482411955769,-14.81815663865708
6.848572781346357,-10.106389598548029,-15.96153117045413,-22.756027328011356
2.8473134683010044,-11.24515732908761,-7.777004486940536,-21.027615405224896
3.9527703629792788,-2.2384274347812894,-6.4446629144048835,-13.17403199410311
6.2143591584138385,-9.209742006477216,-8.266284702773806,-14.152975072895444
7.560293308910812,-6.434967225125019,-14.444774311546617,-14.609826793077538
-0.7123614148569244,-6.830554074350259,-4.180433326076274,-15.697411315224457
-1.9566994816354475,-9.185022673919866,-3.792921464233866,-25.377852726774567
-7.891585807363719,-0.9702293778085784,-18.611074163556157,-11.474887332836168
3.4016116079813603,-2.3484541982378695,-16.107949003753586,-16.8103515289313
9.186065620343197,-6.066317801287591,-15.067268678193468,-10.052167627831892
10.47024713929315,-6.664806476606799,-6.863109458432376,-12.698607404314085
-1.8040228182697868,-1.6190946628584943,-18.050138107982285,-12.41577674953206
1.9294332350803052,-8.478771357230523,-5.747975830443194,-23.21683635582992
0.4100104360144501,-11.029376467339858,-5.446302442180134,-28.5777239116395
10.649716240446722,-10.565162639721748,-5.939720770030441,-13.976267879490017
9.207626381482083,-5.288854455069954,-8.928576621951496,-14.4975976115818
-3.348255396910278,-4.7492248391824585,-4.193512866550357,-19.39755838664158
-2.3906346617237766,-11.029400436908167,-10.53855938141187,-12.79493818707013
10.96821780165201,-1.518592843387204,-15.033941159421484,-15.528641518431286
0.37969330508487875,-13.145141290648711,-5.25082313610152,-7.29505503653871
5.215637073500235,-7.96056386248471,-5.060941985109704,-10.793397134538594
12.984009624262082,-0.8905758836922066,-10.09160935504919,-26.787621710230848
11.18626074444272,-22.269322676175317,-5.741875370926097,-8.942685385764094
6.719502889593734,-12.46113541089836,-9.583827297976327,-12.440642286439942
-6.920461081318531,-7.509153295485312,-11.546175957778956,-24.449209389215536
5.494404024123747,-6.7872586206076715,-10.493866381513817,-14.758821162584109
4.831073677147251,-17.22028684806752,-14.22400014131782,-6.536823975931802
-6.5638320783002095,-10.532539687855339,-5.7014666918883385,-14.085867743640378
-11.842587420484005,-1.4624475080208463,-0.95358867477719,-17.648146933782208
-0.32472668520777326,-5.891221244917412,-7.338282887249271,-12.303032334213842
12.388586604759904,-12.509748498938443,-26.017228138886303,-9.507363852312519
11.697295124840618,-5.118118237597271,-9.414938665768506,-14.557124060728349
9.996295058198951,-3.78384048694685,-8.310782209703266,-11.931055511926605
12.277659498084013,-3.153548834568275,-10.14452912778502,-14.49023211401527
5.421103831247633,-3.745958628785188,-6.985682629540735,-18.48107147045047
-5.557544130656928,-4.935748327494302,-1.8370238681955846,-22.44321419531405
8.402489382247676,-4.335437726429795,-27.102537882424265,-8.192433764504838
11.649952534453469,-8.013779532081799,-3.328511130484237,-13.284753284836295
2.489391433277712,-10.851208162706483,-8.924528065308165,-12.605306530332346
7.85248300978284,-9.099291255963927,-17.788720869281505,-14.47099809386335
-4.248701947982894,-4.6984575131210224,-11.628092819627893,-21.00163330938034
10.073808468618903,-5.752792303881664,-5.794168094335976,-13.9660858963877
1.6965058451421124,-2.8375744897754003,-2.3184776989828353,-17.16471059065279
12.195322727473979,-11.469229991787474,-7.644933396149634,-19.726467441495366
3.235010352237131,-13.01058697313922,-5.044854977614671,-8.00531020703545
8.322512917220436,-4.368277241352958,-10.634176339253523,-5.555611571290076
0.4001859360903106,-19.527668129647967,-10.422721183958942,-16.06899000408587
11.243477333043113,-17.447400551755855,-3.3778871192488613,-9.342655689149687
7.6174723901485875,-6.762609026856502,-21.077351958750363,-19.531651993548216
6.713132770478325,-0.5491123089077878,-8.326869488970079,-24.581609344225896
-0.39271539132932975,-4.97716838664874,-19.93868232614145,-9.40051728015564
10.58349506086541,-1.2964202524772541,-8.236009745952662,-15.271499362105189
7.097265343270909,-9.288181670767974,-10.168940526612351,-4.985204662960445
7.882156694400558,-5.16570453429714,-17.4998466226545,-9.478908613499662
1.3902893310268791,-2.2720025314526464,-11.962327148728633,-17.665881817395977
5.090990952143915,-0.33318376372150826,-9.167990952249529,-17.391661658657682
-2.6404226777749384,-20.083457615057885,-15.09229541938964,-16.588132963363794
3.5998820154605573,-8.765390564815508,-11.052839284549632,-11.826152907102184
3.1428239834294924,-2.490896471434159,-17.227671169520725,-21.009455208550648
-0.8911443136958632,-1.8864363651509355,-7.477919378641246,-17.025599476838238
-8.608161658224603,-7.631042166483473,-10.277821284977344,-7.123874298028523
4.922937973969803,-1.752540496396517,-5.036831548939119,-11.375413054016938
5.63980243413432,-6.936915950579333,-3.1590730802209417,-12.403278785917696
-6.159775680623336,-3.1274403201116505,-4.874547383539742,-11.701271953140697
1.3866937961743762,-4.008247562279337,-3.1424802165659647,-9.42174306928765
4.766875270653209,-4.032311879682261,-11.752922303979567,-15.831444599288837
4.891830113768682,-1.3856704152065755,-10.40112783853403,-19.634270215279123
-13.469730771834122,-11.839894264244768,-12.691997462231837,-11.55779494547555
-2.7256199648873123,-4.629093979308086,-12.400718291890623,-11.95483175795692
-0.48827950710503654,-6.267528146136803,-6.908222795690531,-14.35686408821569
-11.801866429453487,-4.889922244328222,-8.981526339359494,-22.857549663724022
-3.2910307827880114,-5.357002181139833,-13.761927068546282,-11.242890096609258
3.8949156650053216,-7.3065399024756115,-11.139713707425908,-8.80255267578928
3.002026604278532,-11.988382301127384,-5.0984561625505105,-10.03370791618006
2.308611369240837,-7.9173783790610255,-7.073038035794212,-8.43220510117153
4.026939897591704,-7.289728077522504,-8.455283369855936,-15.037689865845003
4.786170538113174,-16.488089258849378,-9.857834218392917,-9.295158803766405
-3.9911892887625493,-17.923149163115063,-5.9055313441550386,-15.137036154072405
10.214668761031596,1.0488862051047183,-5.459899772226953,-17.081526416460193
2.272256182227876,-4.846083905679045,-12.301930601350463,-8.393653523210297
5.868201952826894,-2.2324455833383996,-6.948869469634998,-19.234917485214986
8.410655613101412,-4.466623929651334,-11.762916352479198,-16.78728610976882
1.208489049131492,-10.798030838522317,-13.71613717264771,-11.037790859337722
4.039206591418557,-5.448647830213984,-15.55709374665846,-13.782692712897578
8.501872445894936,-6.182108969932765,-16.28547678444144,-17.444163205501553
-4.247617712258406,-3.412448673372435,-10.917289842495112,-13.384281673539583
9.661329287470686,-6.659569663278818,-10.622341990988424,-20.964471635697798
7.186569479176245,1.3691451358109452,-5.428627377231679,-16.58626529359223
13.951784259459753,-3.731846112616205,-12.46112105549672,-11.207913538889574
6.221093597902328,0.26711486279564767,-16.727337317257756,-19.066504483640063
5.929461190529968,-3.3128877926250317,-5.660913393161984,-7.191140406870404
7.882305986218341,-2.465601464468216,-19.898161605874392,-7.137061220775322
-4.841262169519828,-6.384284655219968,-5.670578733612093,-25.949814138291046
10.934562403184469,-0.4414910663830174,-6.945722045494556,-16.115294877642196
11.310284237780333,-24.05701472827451,-5.7989650709914,-14.116115706584065
2.5471950581317198,-9.519690523526577,-8.858348533867192,-15.609325268507398
9.639903832702906,-12.18276906171811,-5.039180872113697,-20.1014343614671
5.4199959628666585,-9.809438931174578,-9.887502641793489,-12.835769069916374
4.388579703870686,-4.6035883141696345,-3.4407289663967986,-17.4987578457641
-2.4801308152345314,-15.943268001732777,-22.620650900668696,-10.86678842853885
4.896114795047428,0.027042007903103293,-11.903784363454422,-12.036298344340523
4.9107397981894385,-3.374644500143942,-6.018506323139908,-12.373076919359715
4.1509977533608335,-5.712250671358634,-4.246650484300702,-13.627947034477266
-0.4507093223124894,-7.431349732919577,-8.095366386334671,-16.611669191107975
7.479016908809073,-4.841218454384862,-9.93090844580064,-11.484284831526008
12.583236095202246,-11.430469182143641,-16.467408906311647,-16.84601507935957
10.407006523589608,-3.968726486948737,-7.703133356017862,-12.224660494697929
10.023106262342125,-11.514287168529327,-16.790583143904335,-13.612205977169879
12.029867848687584,-14.401652143197365,-3.190906664922808,-13.948367618176622
9.972360917941561,-26.101349323473062,-7.651531154552545,-10.657511328743784
7.17829093628512,-4.4088558804894475,-17.692254652992567,-9.89681063930771
12.937383533793856,-21.09597631537364,-13.4065350617301,-20.015480952794555
8.628533098906843,-3.5641119127190595,-18.82809732362223,-16.688320330998383
-2.587014659909621,-3.6546176551344263,-9.656687555184597,-11.631067993192254
7.199501861403786,-12.273869457131813,-10.049976589642764,-14.735204450506863
-4.148962055144904,-8.407323825342589,-6.469511597727767,-13.148918397778672
3.1871711703632766,-5.325363464947076,-5.074026142225492,-12.811984791112703
4.682100404248651,-3.7405327613503228,-13.26464660761781,-11.75892935343833
9.738152328279735,-18.74921336305368,-19.980963136306514,-16.413247799595062
10.283110131682758,-3.1214465908665487,-11.23958635952567,-14.193180884714224
1.4602530892865762,0.43416996642725936,-6.433581808665023,-10.652385742874394
4.375313622699018,-11.858587221063374,-10.794177903257715,-22.10890464080546
4.377556866774658,-6.990748618774919,-8.179878275538469,-12.830540222578211
7.628311500017357,-3.026144701642943,-9.674998337528518,-11.962974199243455
11.288264234219735,0.6811625917743833,-17.97237867266234,-10.796330754000909
3.697017916144871,-6.2444348011844895,-20.17365608922548,-9.981322600994286
5.355506743767304,-1.130071359120778,-17.60187764883654,-13.796647333386488
2.9826660195587107,-7.5909234756684985,-8.229052650371239,-13.38753458425105
3.9500561603466844,-5.03912838084679,-7.524737310700809,-17.264299048131626
-4.188780113853183,-6.733451758865543,-7.86620394682129,-12.020609264051977
11.295363419528169,-8.129735713280246,-5.439833201110469,-7.790796349577506
4.404847767665437,-4.211722249723149,-4.916296051282593,-14.022224424912807
8.539795584026907,-13.176029008591444,-6.741946316496126,-14.202796865219913
4.074432633317624,-15.51996304475817,-8.84738615454636,-11.493665052986568
4.07948389972302,-5.631859327307616,-9.00971733419258,-11.85200985772192
9.319721147136498,0.002752140204695497,-9.98020982319709,-17.94629609249446
-1.1935347412017556,-7.0405608433735605,-13.752039272193919,-11.839948176798867
4.10706511495551,-8.193534819680568,-9.453346868290296,-24.838864025743167
9.153027323727168,-2.0293945439281207,-3.4553611988807567,-8.385735431602754
10.958193999580406,-15.443637361031177,-5.137006624185133,-10.546291202842333
9.597845662287039,0.5742258529846711,-7.588233175042747,-23.06527840821955
6.646008350746076,-0.6567198027762222,-18.771088909147164,-24.70546135724475
5.016764655793449,-1.778409624662833,-4.833563177561633,-13.942620234742154
8.154896716769525,-0.45389343811978256,-4.643748987981702,-13.822228887222234
-11.453258573272105,-6.979957068596587,-14.192553715595075,-11.367051323861052
-2.8098555248257915,-6.878277834736634,-4.355996435706325,-9.590565133373115
-16.068246011914567,-3.076736616883386,-4.745857002721067,-10.189206877642235
8.070724402629677,-4.288940650615469,-11.250653880762712,-12.391962642456658
0.7334336900276472,-8.470664817970638,-9.70998185855776,-5.32963915410656
-5.527497746677317,-7.1370961721163475,-4.1366850426527275,-12.934262868431595
6.152541812559589,-4.54157099746638,-3.966122366538293,-11.533569191800193
13.717735081959354,-6.665655254003763,-9.415731880411045,-8.52113669087947
11.660102518490426,-6.443898941062004,-13.845951644820524,-8.337530022900875
5.030438662173197,-10.30083197508629,-0.8754295833820507,-33.0057324122756
0.96550038670668,-9.158096798237349,-14.209120519018132,-9.339912347657638
-1.5431936456732753,-1.7487674594050548,-6.154917976955531,-10.705529089813158
7.674921468159005,-17.244452438497895,-7.505767278097357,-11.40556974978455
7.448303108795992,-13.032212352626113,-13.286211582073587,-8.515759321836779
1.1978454619448913,-5.6777547506660415,-4.052280434776089,-15.336049423847115
5.547964742043225,-10.506380620794909,-10.690139378698493,-17.538315992779964
7.99914838336011,-0.07889691952615463,-12.130223520618358,-11.085651548391642
-0.23482732127018657,-3.710141564329153,-7.620472385764044,-11.963594845663195
-2.1566723222935913,-9.670214045768807,-9.794837739294287,-17.23845178093251
-9.188057963862782,-1.9839513118261363,-10.812486040955214,-11.446778396696622
4.965203390647883,-11.162373032612479,-9.785270609615685,-12.440230216174506
12.617822759263742,-7.396121820256434,-25.58450175224639,-14.663333794391747
2.821289015803763,0.7802466766152483,-13.56051094863843,-21.134473528167476
1.632753891574751,-11.769455054628713,-11.815854646452209,-9.098411590416593
8.124571615407048,-8.523380902747165,-15.175185115537474,-11.956765214772453
-0.048589784552088844,-2.8223638659125956,-10.908574996038947,-13.542042644275519
4.378666740368212,-9.775279829318842,-5.416662163691516,-19.107790453806462
10.002409925627674,-5.107381813819561,-8.9525252070301,-8.700673220651101
8.188203213859257,-7.528292207152385,-10.38395396314467,-14.0958870830639
6.3854463525070635,-7.971632376766268,-12.362434609290748,-14.607299773418163
3.311165606092519,-11.065878067508313,-8.251766300207803,-12.215819224685273
-10.487323891250824,-9.553337762196165,-9.656642913257002,-18.10240228344261
0.8994002087967989,-3.1097466477367735,-3.4668274652443434,-10.921151111739274
7.44433563367768,-3.213752941149051,-7.8436071637229485,-11.493178800419294
-1.2067729987446683,-7.928484889118275,-11.776188562240506,-18.801326927656092
-4.104318414185115,-15.188873510148012,-12.829237941955046,-21.002123325736875
2.012800137709422,-9.791510748213923,-5.88740735092772,-20.660854002996913
7.790934662120967,-5.316103446723165,-6.356480025783286,-16.967725561863215
8.647845966604645,-7.570674197041583,-10.123405768056172,-20.526311900968413
9.862381573455988,-3.421437677435661,-7.033593432882739,-10.771055360987042
6.1448558716103605,-1.2928854035604833,-10.76950028736492,-17.400531194302843
3.3185695827536548,-9.068684312542294,-4.018469029713476,-32.734954057799676
1.9452577336993297,-5.34809525400628,-10.60768288321892,-6.640903177390821
0.5551601365187304,-4.634508254245771,-9.787068401181072,-16.602400091329056
4.41255450246599,-11.79773634899918,-19.932303099945734,-22.490194342042138
7.247190235005844,-1.4834923091733034,-12.167599845893507,-8.450655816315624
9.444936101920343,-5.807699115392049,-12.531570149295888,-6.0615532539406205
5.66065697897437,-5.947207302260116,-15.972003995745013,-21.664345280368646
6.124993136149059,-7.000247170336118,-1.5870773196724106,-20.45324807237757
3.6120749375358576,-0.6362461596754758,-7.662932912542921,-13.081358184424193
10.326321950310453,-6.27321032013575,-7.036242145312638,-8.33759040262725
11.830431658330198,-1.9602884664956748,-19.36941012058313,-42.19679136004558
12.256652088332046,-5.209656798505396,-8.877565861047646,-13.207743865157319
12.732911138013407,-0.8586581683676138,-8.861789217391651,-12.234198225137767
2.8278418991852337,-7.581735420544547,-15.730180619654483,-19.180106319478668
0.6520681917879063,-1.803649987919385,-6.3465475976622745,-7.665022077390669
9.476423383144322,-11.343051515069378,-12.2896090346871,-12.623916053429465
-2.9468050546803566,-1.314823637877542,-1.2577447588709005,-12.71349177530709
9.265198611247772,-3.144507357979927,-18.867924796451437,-4.599031526036845
6.781499895471736,2.1250253181004144,-11.570657585756205,-13.15377765035472
4.825467757070245,-9.612223005798986,-13.091624161335535,-14.209836451824437
7.366064548180789,-14.278524075635081,-8.070168634189288,-13.213288816683686
1.340934796003448,-24.765381765847962,-11.839924830999072,-11.49026766734967
9.37767464448477,-8.809863939212756,-29.62899099305146,-31.979452773828108
1.3170434333833239,-3.611978651099386,-11.839139128393168,-3.5211363713530144
7.1727948742924665,-1.2023937923243015,-16.286553601806652,-6.774788084702528
5.377352049378224,-11.316796688470893,-8.460421850609901,-13.012851418302112
7.6896144462896086,-15.10059157038298,-14.647237108860388,-20.70138022036722
3.5654595909948807,-2.5518966081006105,-13.131169331025617,-15.272447502276709
3.909068723565305,-12.475625141447171,-6.851616261721256,-23.018346525622242
10.409541875250296,-6.5701098417210275,-26.048625683533118,-9.846066049194185
3.0222997635620805,-3.297296457032782,-8.29094732768201,-12.514925741176647
3.5670178691990353,-9.775765970716398,-14.300827245033737,-16.360610513865872
4.530168197576527,-8.343059855562206,-8.607488011982445,-8.930974452812915
-0.6524498455098828,0.1799903562276084,-8.90712767146037,-20.12262701994656
9.026915945524031,-23.44896604624552,-9.522747241413672,-8.651940686601293
6.919981153147239,-2.672509632985388,-9.681185418680336,-10.418547614735541
8.305046434516981,-3.6298235600625754,-14.69890109116793,-9.791603144492196
5.848328153385728,-7.768921265789434,-18.724122833536775,-21.50031889960107
7.1320100806433935,-2.687941515033882,-18.131812189813438,-8.58795890272813
1.8739237561104076,-3.3420880533487947,-6.566111275765582,-20.293055472402038
0.3149096168972707,-5.134277551177824,-20.581802606866965,-6.660548258457834
12.160394296439762,-0.47792030600051927,-7.782757177595494,-11.984989553748171
5.688229433002904,-8.583313904626442,-4.0038509724001266,-21.817184091255815
1.0822476194237869,-6.865504726003065,-10.314334645867802,-11.766773585641822
3.957603598751411,-0.5133978091404168,-9.663191356167472,-14.780485984938515
6.223375113207853,-14.645994389866301,-11.927610712425796,-12.057868366981058
7.584163787659038,-0.9210474150469952,-8.1138522656629,-13.369799450622118
-7.126736033647238,-17.74603807162898,-2.881245061737602,-18.116877429438752
12.403514983852563,1.4586798361347362,-12.156630270471812,-11.95632935334655
9.323419667388379,-4.9789617756193145,-9.513099323940715,-8.410793836788368
5.568652948100339,-0.32566593127797017,-10.087654713264278,-12.504717813630805
1.4438046700123415,-9.609975848511997,-19.938899122602336,-13.306449124535973
2.1032296127766146,-6.522165423063949,-17.628114173015696,-11.03683441607749
1.1769514675620083,-12.987121762818624,-11.46389217430429,-21.394005860068198
8.243156208917394,-2.8344773674928887,-5.463245177891343,-11.678774137642911
6.464815721701791,-12.376538721301978,-2.7747496805369773,-9.873081592013047
5.5037212234567345,-22.492696303914983,-8.462296137528607,-9.176484017555765
5.949530000904643,-5.182381794030041,-15.479284876913166,-15.395602159049432
7.867978598151226,-5.384253735954026,-18.741714577715605,-16.647560147382134
12.969025261999068,-4.795459141168953,-14.90613071295757,-16.26717412917841
8.589508465014122,-0.3860145758677169,-4.252306288066496,-13.643183777730904
6.06375800170705,-6.933332645463983,-11.987633903351439,-11.225370272670236
-1.790653860365759,-6.312747908025676,-7.822023465640756,-17.081305092680186
-7.934582059221568,-5.188596284327085,-22.230036450860197,-9.979020269640223
5.939427830655156,-1.0017081041447127,-4.525003219210603,-13.903446522242124
8.368094909212438,-4.10514211025491,-21.701391716568182,-11.439646019213654
8.52988409660166,-2.1149850698077484,-36.962477489227524,-20.84901937547821
4.038899317140832,0.32647123516337473,-15.247353926881317,-7.981158260319549
-2.5994467227099376,-11.067574670034585,-4.179789683408957,-20.616845059382864
-3.169308213843145,-4.783148793398459,-5.5997738225352265,-8.340098917897066
7.596196302297679,-10.732685059438335,-4.7256587364129405,-13.54590016012547
0.12260945879986895,-9.91865977503727,-10.644204800539372,-14.599764187455765
7.7744461901509245,-10.335722259686671,-11.46890940750571,-12.604656244083237
-4.494579193500301,-1.275888189443458,-2.199910442687791,-11.941175659251481
13.307936386182892,-10.303742375048529,-4.718971580656362,-16.67833347010503
12.989188741597587,-5.1367648192182696,-5.187981730037947,-9.565048069877356
-3.919251106892462,-10.132584670554719,-4.842108228457944,-11.424090048513268
1.4837317232520737,-9.997672486635915,-6.987657324679013,-9.501550014921477
-2.625653860424263,-1.1356436979729554,-14.298275612963234,-7.458170108886239
9.374601463252784,-5.3699746681500695,-9.313090638450433,-14.463372611939693
12.382248968568668,-9.772267657202084,-4.909407301782883,-12.434809417194131
5.613715024466531,-15.75901287986648,-8.417995099421521,-9.034206077503978
9.573904572591495,-1.544616743762758,-5.979919942444564,-12.730005702823554
6.4566357387580116,-6.29665223539617,-12.540511652569755,-9.355699110282277
8.037916957933593,-5.736317724354766,-23.39760122105792,-15.475183412069956
7.516236956947705,-19.621663205889078,-9.416542162484019,-19.52132234095805
5.023445868291545,-1.1464997758538638,-8.966084903397835,-16.862043247082845
7.461392747777758,-8.599989656245063,-24.094090625031363,-28.87391953612341
8.369047835170814,-5.967941229615057,-3.2575584629176935,-11.37680247038525
7.034867727656038,-11.933131748694906,-4.677339989126887,-7.704074009306139
8.250851947551695,-5.339858283253275,-10.644122069473276,-10.479454960908662
11.280915397571743,-12.834864782639519,-7.999800698481421,-11.336976593342676
6.78645749494747,-16.31415075370106,-14.197166139049376,-12.24826711662245
3.5720792266131505,-6.33724702350108,-2.6422589620468044,-16.69448553107763
2.873512374963003,-3.257093991230183,-11.412717907921405,-24.792834805325604
1.3708744705869176,-4.839680002325688,-8.361457063404925,-23.22414922322541
8.507782864189101,1.0475158341581132,-7.64273257470418,-25.052850570028603
12.442428695255622,-14.094476761646371,-26.61605521559445,-10.807681442574236
4.168480731517291,3.149401881998744,-3.702324343225628,-10.460064090137038
2.194722566114126,-20.271982041755614,-7.651614756114121,-10.483362486612133
10.030118550498273,-6.110177584121372,-22.767622757405718,-10.059519230816282
8.115066429526038,-7.024023679004495,-6.132546036970233,-9.91591960649221
2.9555269835707647,-2.2626689902983084,-9.017112163102206,-19.662050457149313
7.440925022690856,-14.781541302196592,-18.260801066667852,-24.280329427338376
7.367601828651149,-1.8418206611087347,-13.69830038495444,-5.929844817230083
-3.9717869961623187,-6.861288793394641,-16.44011193195579,-11.984622984573473
5.11954791604799,-11.9659671434782,-6.6996189704312545,-14.362248482921153
5.323175157466279,-14.793743106381909,-17.614104823103332,-10.025128766828065
6.067210022394445,-5.295060221996684,-11.712342689495292,-10.668962536322741
-1.8481289111374277,-10.268794787529572,-8.594296657939454,-13.392501470625795
2.157168674411124,-6.7992018124296845,-2.9339384574702634,-15.510410214298055
2.4320525054330213,-1.6089309220691885,-8.105859947716471,-20.155126815600795
-5.361396026917373,-6.71385212170072,-10.125129693847208,-25.956271772059253
1.936446177759066,-4.026096433606559,-5.107007219646597,-11.178498108924074
-3.8084264688584746,0.047009242166643705,-4.465467131277395,-11.551174643653148
-1.362921566690427,-5.906594137076343,-15.612198000205066,-11.483141311528051
9.121651605942606,-3.5617089585520447,-29.110020625645667,-15.882322164350619
3.494140333821111,-0.8606559400021916,-4.893908419664584,-12.03759814128572
9.592374788050233,0.5759535939824336,-10.22767144147644,-12.538411077822936
6.194192838817569,-10.872744426110273,-8.49825451245536,-19.911880295326405
8.997409965655685,-18.22165193332742,-5.629028496465773,-21.589211293800062
10.343154878220187,-23.254763063435938,-11.925627541606104,-12.477674210477602
-19.86609759889734,-7.320043459717034,-8.782409542249479,-7.9144801354845375
4.49714039023579,-4.200049676348829,-6.463462774572941,-21.560900967897183
4.9213860068798505,-10.56158445555881,-9.029319458436005,-16.398459891397636
-0.6685267417169998,-0.9065893211927767,-21.971724001521057,-9.995952811302956
3.7188189970225753,-8.422938138820724,-5.175516306000132,-17.327609906848473
2.51414766067919,-0.12336933903056613,-9.848257410604674,-13.686855573752432
7.482669966624782,-9.945706903523984,-2.367911871811619,-14.031546119441302
10.211479839518024,-3.3855452002734823,-8.399661342219293,-18.791533576100896
6.086087266472559,2.529485881162389,-2.4650202016565586,-10.009538214134416
6.383645358994858,-13.003338152137422,-6.835244162983736,-19.352768176933523
7.734602760747291,-11.827825615760053,-10.127010466457186,-16.45244811870082
8.229594174167076,-4.748350800880072,-7.78312129320436,-18.67829790185459
-0.5300756213102815,-1.017230278782487,-11.00142231085056,-24.123596265855838
9.87060514371736,-8.08587507990875,-15.924968950375874,-8.30197946117746
3.059446879583715,-3.374392452320627,-6.492099789683762,-16.920115960483063
7.304221399662876,-4.6448047956664595,-21.92656208025677,-12.853302710186945
0.8347697878344382,-2.711199128902552,-10.034491016216796,-13.723875202419869
2.5563712267664327,-8.720328761288494,-15.611508770304326,-11.792716116381992
-13.472120287081886,-0.7870412270767457,-10.718497687618632,-13.200966287545938
-3.493354968861233,-18.108021033894403,-8.261314432709945,-10.833084937883807
-0.9498404742809896,-7.6271436312541105,-11.757176898660145,-16.93996982686222
8.225152881204673,-2.2243326182967205,-4.995112215082372,-7.734899938822838
11.228331596524963,-9.923826636267913,-9.717281063905656,-25.137501280376952
1.2354198123937918,1.3538451272315404,-11.056503589079606,-19.263861040866487
-2.21397992684427,-9.32727639561033,-20.983604094563407,-11.87790279770169
3.743061593640079,-4.118221422376177,-15.776006712360584,-14.370440678140916
7.516837136654213,-16.407368300174518,-6.869105007957529,-11.97762912767475
5.977644638454402,-12.805633100652443,-13.0264988449098,-14.708158094462597
4.141534054414914,-7.5969077175760535,-6.852174984559305,-9.304807370555995
2.877406628240013,-2.7607288069503624,-30.616152714942977,-23.287312511052782
2.7884768169119414,-6.746652904737729,-15.76805668306202,-16.981714263014617
5.184548329177964,-5.147224478721702,-7.554655394448581,-9.396193803468371
7.08578163984249,-14.63696287598738,-7.119919496415372,-24.007729245888548
-3.169005041865206,-14.365708618484438,-7.896128775229318,-6.397194379616596
4.045197420152436,-22.96196190540341,-9.080536439042142,-13.604558366476368
0.87289715415017,-14.089969376728087,-7.042809747186146,-8.375327708778979
1.713483538445712,-0.7789406448712963,-5.025525979379946,-16.816095909244968
-5.892838419498019,-0.9920278074938866,-16.04094376653603,-12.402956733755154
9.642408391608562,-5.181154318926255,-4.753346940865214,-26.262353526102604
10.59127199073966,-3.0645333620425297,-11.348195104070962,-10.712493154299477
3.9241838709705066,-5.243165307867718,-3.704052158892258,-29.713565873154558
7.996731199253765,-0.433139051744186,-16.824895379036228,-25.2384992343433
3.8163025560676243,-2.9269183060332327,-16.1219274669562,-8.42714496604209
2.5968258814622485,-14.184062648027366,-10.72386045559182,-13.398471898074522
11.658542618953753,-7.762995625397913,-4.066441426657438,-9.169341569722125
2.8444465072482745,-2.6829867645340006,-15.320455752147186,-12.77520830821144
5.107482179725352,-5.571261689367951,-4.790730330588847,-12.730479188214353
8.74775787834932,-6.5818690803713675,-17.90722891473773,-14.533268841406986
7.248235329364635,-1.3502926305175298,-6.54271146405582,-12.02712136691526
2.15113613089542,-3.467070195077269,-9.579394498212299,-16.85697586158892
4.708435447768524,-12.619176697086887,-11.86115729784551,-9.271337412943229
3.4579680109884245,-4.057333161456995,-2.349274773490046,-15.300960479930264
-2.7902998135193204,-1.0205620104808344,-7.125734758746399,-15.329715909301125
-1.0489144945863327,-4.662778128735008,-8.367294407494041,-24.155550127213147
-3.3131083476449037,-2.088589557404148,-6.377546606545035,-7.107106102559757
0.703656274249501,-7.503024991480087,-12.122754969853311,-12.345384988097234
0.7111885752406413,-5.596562225582781,-9.631149251144969,-7.35878135947076
1.4757475902865909,-2.841230228596205,-15.06013598624147,-11.451861630474877
-4.954480843105302,-5.421657310232989,-14.308760486509211,-13.607513972107277
3.921621832622283,-2.6148896767763543,-10.02575943207888,-6.78555869845201
-7.82915847452677,-12.663216131897867,-8.648154227767186,-10.255530583200834
6.934294279367711,-5.196861937165767,-16.596428479627455,-11.25710848552222
0.5422914353608634,1.1422455944674827,-8.230437522029115,-14.455175162110006
5.624178651849755,-3.947118009181874,-8.870659872727297,-38.067927043337825
8.240227378958231,-1.383673330482042,-8.320576932704906,-24.43837020711234
8.91771851706714,-16.601396657935638,-6.7226533479204456,-17.448756352145907
8.612054402889285,-10.989315385096297,-8.366077540973496,-13.132752746329778
-10.291184838173763,-18.371779691749442,-7.637040154793722,-6.849334548044092
4.537026420733313,-8.130322462303978,-5.933883634235688,-8.810785932831568
6.696202900476267,-9.771810464798984,-8.873636880673548,-7.849505288460068
10.257321809513723,-8.46646767337489,-11.8497455428601,-10.282472987565523
10.502505213754262,-20.723770908720574,-14.18477795183112,-13.536361818891717
15.561116246858823,-3.8415528762208946,-14.156742192019504,-11.524747951816511
10.305940625876534,-4.9934796046507035,-8.145631683311315,-6.550608227496581
5.804472868882673,-6.116590477697152,-4.952938112233458,-14.13141198088034
5.3607396839620804,-4.596263929810107,-13.870544213987674,-24.990391302020406
-0.9925776757829219,-5.668934816371387,-19.79389347274147,-14.697770451273335
6.531928340297411,0.17080649273993842,-19.363193384719942,-9.364598818757162
4.926310875082122,-2.4527451803698574,-5.23214469707364,-14.321645209889173
8.879540628229755,-2.753469824559653,-6.0071430186334815,-16.322090793544383
-12.351637950164335,-3.5191066971538256,1.6939862324103416,-12.525350996109207
8.212211523473833,-17.174339934891584,-6.521992484273419,-13.538491739555297
4.4244373646099175,-9.145187372087376,-11.024061553590672,-14.405963378027764
7.891395422890814,-8.861559958253714,-8.998544875422755,-12.524826899273489
6.63530080808248,-5.211037960459054,-2.671862518903484,-10.852209886173227
10.921632354125919,-12.705445997921084,-21.535868450065735,-11.969698218816575
9.926572739521976,-5.583968491977011,-3.3562868361817944,-24.340280615353905
5.430944190411713,-19.876005185888086,-8.715840486098323,-10.446252400314947
9.10929312350427,-11.24684960899865,-15.21963275588914,-14.523837649628671
7.257957893207214,-5.525694867624274,-26.077818231140956,-15.391346919029413
3.050425114518559,-14.728943953413966,-11.426706258268243,-8.013676053395145
9.712561111147041,-11.471542346942803,-14.122145356408115,-12.54584616465375
8.806221675279211,-14.55161373108547,-13.514016096515128,-6.7174536078566325
-8.012948260898874,-5.819371437972752,-17.29389165719328,-18.004453484689403
6.176925475816336,-9.401554260191341,-5.917442043061982,-16.27359793424922
-1.8393199341513071,-4.615435706265654,-6.3689366673198435,-29.93973515187544
-1.8549603407066986,-0.0688962321070492,-19.54890890580296,-12.817639177617657
10.627761661609878,-3.5328399932000747,-8.660317737391658,-24.080468148746803
5.005745643829224,-6.7700166294382615,-20.83092812739203,-11.24871027251358
-7.058143110370993,-17.92536405784495,-4.339344331120987,-14.63536713989031
8.499930618479457,-19.298935420122962,-8.977525942817856,-9.601456582044605
6.370245815706108,-16.81107267898352,-3.850432294223809,-17.44930896834409
-1.5222026048168615,-3.396111458712117,-7.03354049587962,-9.103580987099132
4.9362192952958255,-7.858401025431844,-19.376356774339662,-9.223366490016279
-6.972269994547527,-4.796505641933969,-4.520164348788073,-13.160297612173192
10.283234078233704,-6.215407871556934,-17.96220160471441,-10.45012441447036
9.875975422104535,-8.953641057442624,-12.99571553321875,-11.623435880312364
4.9211222553922065,-3.190281010258579,-9.206064986757418,-31.112246823447094
6.9581295703217005,-2.4554450796329763,-21.21311368534451,-10.848263917583093
1.3309360638264198,-6.056031162717577,-7.717151313970794,-9.270561064403548
11.29231569067992,-9.22854277428115,-8.659901383940287,-15.52220315057799
3.4629161252466494,-6.219417264951524,-5.690142923337552,-10.194839663144506
1.4342297073028734,-18.839577467585833,-14.249935028160262,-15.453275998039317
7.745256437182289,-5.403174972805822,-18.977166558441613,-13.34658258316988
-2.6228880057649926,-0.7878306223934204,-3.6922774612134703,-13.84713189202781
0.23976851091857343,-6.7327059824712165,-19.167205038623614,-11.959496674003724
7.76239913932145,-6.382439133850079,-20.09729719736096,-11.645172678988708
6.74261394893427,-5.212384569474645,-10.21016613775454,-26.801208646216917
9.45236402678468,-11.433380791582335,-14.805292407964288,-20.38249031384675
9.993559824348981,-8.589493114849095,-6.318446317555658,-11.303142487070026
10.754606215887083,-16.56199469537646,-6.675406995794917,-16.377289886294463
6.630903397337148,-4.803932141909414,-17.132568228161038,-15.71763440096597
3.0390180776373517,-17.01353254617156,-9.924684341610051,-20.350490893716117
8.593445963589325,-1.6574697802969758,-11.584995514998425,-23.915196649658043
11.915931769869953,-9.984431531929213,-7.864026934007958,-4.901006910647227
7.018698541080316,-13.480066177631167,-20.432582956331913,-13.212095052424587
2.9780462900024505,-5.388059655931652,-17.785435408120673,-12.524203667627912
10.348052939650334,-4.0462241000352925,-13.990109010947549,-13.825133651807587
4.640968137386295,-6.854081705270469,-6.095328706896847,-10.161826878629405
-14.268108355003363,-7.736723452761062,-13.74858930648745,-19.53642616001776
-0.5429874253477536,-3.655328767153573,-8.97559031144148,-12.923596033725257
-1.47576662475418,-10.082898657211906,-7.976858379955177,-17.888605352915654
-2.7834734646991697,-13.152895270751953,-8.89057182751627,-8.080393629907846
-0.7212482188731473,-1.8661813834005039,-18.043092787431853,-13.824306700397525
6.560134714672925,-31.453440625198375,-21.215804126072214,-10.123243734709284
-1.8299556505933001,1.4874049223943937,-13.76733198827111,-17.972208778501766
-9.922349077277659,-10.610990572324434,-14.653566940779214,-10.092083565194574
5.130508423000532,-3.6781196995566066,-12.275811558535386,-9.058623223371189
10.535352312803994,-1.8212552368338701,-5.147584108468539,-8.752214668899786
4.72608523708888,-4.567374376617629,-10.553538806441917,-12.322552655726774
8.819025680887698,-14.497046418391355,-15.502787440818814,-25.227836136967916
-3.4624232505754433,-1.8137197068893864,-3.7690577734948305,-4.941617992024264
5.0729164262811,-12.793967977963026,-7.8773413866089115,-17.996698070795695
3.0281676722031383,-6.283428186101574,-17.964486465590824,-7.147240393434742
0.052583026064336735,-7.506360073614934,-3.0958070288545483,-11.896230622804676
4.213912906199444,-23.77375209487844,-7.599606797448285,-9.672889089856106
2.291518723282196,-7.3221768668649805,-8.322293565420754,-11.184305709331966
-0.5562116244972533,-6.013171967188029,-8.85070347683826,-10.622104722174054
4.288456756720099,-5.6178988890016175,-4.592920180244546,-22.1943443736942
7.347119311370358,-0.6954931169609204,-9.891326734684627,-12.514896156125438
-4.68153740716445,-2.2676864295720747,-7.783488287398498,-15.928336114958533
9.439932614881887,-13.292504594176913,-4.718738105601272,-11.465717012836436
2.9819963135816923,-10.817605021637387,-10.972480116404729,-4.226453659217735
5.392977284522772,-3.6759873768963174,-12.09547820570447,-12.997946823920138
6.568652168126443,-4.367398366615021,-13.597801114214352,-17.061318583251428
4.543358034066454,-3.8124095939495324,-5.874324912549946,-13.797937011496888
7.687505125695186,-10.355058646265164,-5.36037052115071,-19.0067513302068
8.987486884958962,-1.637002301421338,-7.631943606075387,-13.709195428513421
2.979068803284922,-8.474347525597858,-29.709475275693535,-15.65639773542297
0.8421182398725211,-7.2536657788653205,-20.365753973686157,-15.869627807494265
5.912724851852081,-4.215869095711682,-9.970313313259506,-20.04491681313481
-0.08954781117378374,-5.391974524764443,-9.55478427647686,-11.171129122355069
1.9411716327177404,-6.948387506565085,-12.264615220899175,-14.397115588130156
-1.7110864791211817,-1.7491995032182968,-6.971376043768185,-15.257660624106705
6.507962075108869,-1.1839354258232233,-10.563991189481484,-21.624514640481127
3.3642867172620736,-6.134080437562323,-8.302811689799135,-11.127950093504047
8.399263304040128,-6.3858951360630805,-10.660704961480675,-12.647333074290952
7.359221701835456,1.4492383209232007,-7.532192726479646,-18.206431863852103
10.488710074101656,1.9353291964450108,-6.796172259787877,-25.784301113017627
12.787959534608422,-3.5277477807761533,-7.597996971080995,-18.45384513042373
5.742984916791409,0.09022608200809579,-16.71409653244612,-14.050209891823211
-12.857995530231953,-6.087300862131915,-25.68463677706871,-15.86016283373289
-0.1198544498175731,-8.026941721573333,-7.808468022389238,-11.217364105414582
2.063846854268259,-5.156049441483365,-7.061785120148182,-24.92399859214038
9.198497349264652,-11.2265229536631,-11.805079788422276,-21.669347436722745
8.233108524013094,-1.1151746065050836,-7.84676746818392,-4.923547359586349
6.214115121992267,-4.491447823071924,-11.661483351742415,-10.421078078014226
1.3704042415666469,-4.281621803096277,-3.4457255071434987,-5.7523977486689075
-1.4001774183280977,-1.9106478015456942,-12.35988972801597,-19.324994239363388
5.494876498849737,-10.418035354312872,-15.525920773889581,-7.163808251481352
3.6196916438299267,-6.881404637352686,-4.579565583136038,-13.44845894269909
9.011482142341091,-28.10148376755609,-8.413476398192508,-7.780188951511616
5.75697534115463,-17.698508324990943,-20.99612980242738,-11.757586108480396
2.4478774374556576,-16.36858424409925,-10.39432576021207,-14.219575297946808
5.180232592305622,-8.272980374192874,-29.490999281602562,-21.655901218252378
7.243511686181661,-20.35908505709541,-4.234406006577199,-8.806962803027663
7.694797885069051,-19.62028164268986,-13.117090897322875,-14.987554056577313
5.1242321741978,0.8414055076059328,-20.402723492538588,-19.00052902549519
-8.703961506841235,-5.557065270543857,-15.646678114486413,-10.04932411763459
-0.3273453964295121,-3.0051215542003695,-5.445443291568207,-10.723707979837616
3.684713203456372,-6.895044061897204,-15.35039148405745,-18.00310974054238
-3.8821074159630866,-1.318814900095671,-16.066088533952247,-10.466488401445112
-13.195895159805666,-4.35339672944801,-6.181580933175667,-11.105394698900614
-5.765725516667449,0.17413328618294832,-22.8746501649046,-15.314173378148201
2.1936335759173033,-14.108544506659657,-5.020454731522344,-11.999774556440087
-0.18061213785173136,-5.142054721029181,-18.251070826381657,-35.21651584833385
13.255780423700923,-5.104262182173796,-14.630542651632403,-14.271754668259845
-1.6383653870378971,1.4143144170224748,-11.260219517359658,-22.788958341809224
3.566506436038587,-2.0844598564855317,-11.929866356852742,-14.17779466504766
3.032658246058531,-4.080311886587658,-10.509524719386645,-8.837027023707922
4.703911458854174,-3.8786161029719124,-11.101522170308147,-15.927208636733422
2.487788486949378,-12.362208528309393,-10.942110993178167,-22.609333348346553
3.285441050184592,-2.1864226864692635,-11.391806417509056,-16.612965388849975
4.875905421430863,-2.04528964919789,-5.131278431616222,-15.512007075873427
4.894903069065272,-12.361639605958189,-12.128028203121621,-8.692013614833417
-7.182583112786067,0.0969213057287206,-4.526928508137743,-14.579298162017544
11.54460459449539,-7.5563355165425445,-15.445230178404088,-23.41773344867432
7.138589574872296,-3.039158938539719,-3.7109405616525275,-21.96661078950129
6.849271750726297,-9.456401285296215,-4.716191746959705,-10.233768446801282
-8.839907593581248,-7.108270047487025,-17.115608385657655,-9.849692339887543
1.248651220646254,-6.216880347722002,-4.586108054627239,-8.70564449838615
7.561827757216702,-5.904684312559899,-4.032485159230241,-24.31251812429506
4.821474010210949,-2.2778199847479406,-19.754157383144268,-23.31889635141747
8.365074018251953,1.604871549894009,-5.119445511862921,-8.953457799345706
11.306755571745526,-7.37424963785954,-4.910206816722264,-14.040692535824075
-3.590013134936825,-5.741293912149008,-11.712864235358653,-6.870632957705658
2.7286326075691525,-12.612102370238846,-19.47489101969222,-11.7853496397634
3.681313631637547,-4.30022270012628,-7.3975163689926315,-17.681334111282723
3.685117573042836,-2.04766461032999,-5.4953428087644145,-10.987520321421254
1.8960022875289513,-0.36961827646643775,-7.457655569304622,-12.867033468023045
2.3297725447899156,-4.673140013350178,-14.32662297605312,-15.43769807817046
3.029937026390616,-2.967473461457463,-24.672374433196538,-19.77112427267003
5.1511271200363,-7.462615851255151,-12.455060668446158,-13.927163009110792
4.6662096289618145,-10.355004306939955,-6.984304020996124,-9.666457997520606
5.152540686650525,-4.086907233646659,-7.608694356156933,-23.073303873635844
-0.30187456629169285,-8.834340582672043,-4.49677620852124,-14.793920729230383
6.7489532548387,-5.743294989251574,-10.015660437382293,-16.251591039393848
8.980276613098521,-12.455221698742795,-10.398598393420603,-11.692924109144691
8.381545336976558,-10.335050470742098,-8.091663367916308,-8.003377474859054
8.55115997302173,-14.608330823960872,-8.312324463114562,-15.37595222720643
0.4332469978271485,-4.2792060773645595,-14.187600021769246,-10.138980619831266
-11.259392771800833,-6.59494167241802,-5.008535427552548,-19.244766301869074
-1.466303506618126,-7.034413094425872,-11.5986153575058,-8.299452840730105
7.094490630262594,-3.9483894874183094,-13.303738859576178,-18.741590751475403
4.832508616332606,-7.24589230706661,-8.293266163494781,-15.145126906275664
9.768200308835432,-7.5339287818144545,-5.2520749985188235,-17.539124266593042
5.334427849285634,-23.234206008663456,-9.599010248749034,-21.831226648134006
10.096581467072625,-13.830377816881187,-14.527753288986624,-14.121771382904306
-9.65372732072317,-6.29808524546686,-2.477028948226303,-17.64462495369582
0.4860653376472328,-14.387187219603002,-9.251108830992226,-34.272021835481205
5.331916133040297,-3.6120816614478044,-8.55242893618171,-8.431391231935145
4.148591355653213,-7.0095768383872645,-11.501508893803594,-13.345422048903021
7.150787394143108,-4.648524664800769,-9.960417359937166,-14.543288788063961
10.213690664672182,-8.818217302548398,-13.970463753289629,-12.655848719425876
9.083646512586707,-3.4461329258137643,-7.595458876705777,-9.077804433440953
-9.60931958374788,-15.874089883384753,-7.3099849366591805,-13.140470519525667
5.307964108051014,-2.422008889925793,-3.1246921083665415,-11.786558460115895
8.585641235812098,-6.939421277408899,-2.4715865868713816,-18.132084965656105
4.328011090442383,-2.293354641802178,-12.923020473153517,-18.605626470830675
0.16563195639063633,-1.7118296006404088,-6.687302803977904,-14.110090585159465
5.322206068970704,3.122584658914032,-11.170259005361835,-6.512096378558204
-0.9578929658631026,-8.519816553969173,-10.834064628239595,-18.175151094117894
3.2026427659494083,-3.9573378904189043,-9.673592166728383,-8.815120070267579
-3.743020917167761,-8.814419737694095,-7.516694046074342,-20.643451775196482
-1.1923004267051,-0.39251918590455714,-14.059016104847611,-18.901631298847413
5.976577071865254,-5.5989722130297945,-5.410359228011288,-15.55576708025718
10.050818907657721,-7.492705799104913,-8.085714002330914,-13.241976967169261
1.1937594940559375,-15.00881894928664,-23.055209411128715,-17.112143844500743
9.523920925928868,-6.460557429416738,-8.52636689299535,-7.69882158210988
8.344441391610559,-10.372608394078968,-14.352002454778276,-11.24678642715891
-7.899738220877151,-1.5161828105557906,-12.049369271596383,-18.582811629472666
1.0821933346406383,-2.1136615070947804,-3.285020648655546,-31.216025628258755
4.67858363619876,-8.173543454854991,-12.779463556972171,-13.594004587131124
3.688523885499321,-3.72900629873234,-6.637598082634071,-16.450211060680623
-8.902420981917977,-7.3961136366206635,-10.00736184580627,-14.213951874573091
-1.7123206389337549,-14.162494812027942,-9.281437753909923,-15.202115753207185
-11.509063331640334,-2.6301509020872724,-12.282111102536614,-9.192674867212109
-1.2532199033639086,-5.933925971443774,-10.190258669167203,-18.11067617257992
8.493219036148403,-16.3084514114363,-14.000193362481522,-20.308992110900512
5.552129905117292,-7.069253642248599,-10.702412024419335,-8.042046297166578
6.841503405301914,-0.9491456302215893,-27.71661610290755,-15.957459357741474
7.9582010717205005,-9.085016694681642,-9.043934101151152,-8.417557995234954
4.002445441605209,-11.993879150178897,-11.67705575435489,-21.765641201450528
-18.78556542744204,-3.8911669262945083,-5.095776709171918,-9.549040806607607
-0.9915857327825535,-7.079802129045593,-12.459194212029889,-10.081062604182609
0.01686868686139764,-4.9873567708691535,-4.106596542890729,-8.727515645418219
5.995348087392471,-18.513338259317873,-16.362465527718488,-16.142143898861608
8.743108680128314,-0.7838214642853516,-17.143170355720233,-21.089083472352893
0.6100118799814815,-4.297112135048408,-7.216297098464906,-25.49650838281911
5.866132189864592,-3.0592171746837455,-10.092832138188026,-13.326569798933129
3.941157283696397,-3.032385292939924,-7.992584974729024,-6.926465529560635
6.8535975157898275,-7.787486689379451,-14.285237073545055,-11.230957926002517
4.576771940575077,-8.697083956094065,-9.687313966575548,-23.682230663208745
7.1427717580301575,-4.912369721192928,-32.57461718457455,-12.188494879200775
-0.5506905645549129,-4.387958275232693,-5.606368769247512,-12.65306521095826
6.075351250419631,-5.708228771950521,-13.865238423015168,-9.02172360404856
7.740821628018373,-6.156140017975167,-14.497165811056867,-19.928562012341363
0.9407572513243792,-10.446549269107804,-11.58000631645172,-10.921316928996362
-2.196203107870631,-9.434016309279142,-5.947329516953788,-18.493781575276916
1.1746364169171086,-3.032194102106583,-6.886659961165833,-19.40770857042324
3.7818453314110565,-15.5241866323168,-9.59582948455413,-10.293999471836962
5.033970457041436,-1.0503568063144244,-15.904826564259146,-16.92432244570711
2.0787541059869525,-5.80789280031737,-20.96170192076297,-12.909283811110253
5.018255121924858,-0.5333224355402741,-12.129375041235189,-20.783566063005804
6.117557087864405,-1.8021920634747253,-18.75409098104528,-14.954310279174504
5.008994613328706,-4.356136690476426,-3.8930268268087276,-9.00802504634709
3.6025468027904193,-8.978748346556312,-5.94253123656447,-12.808004210027274
-2.7453443916936076,-3.6773806547121164,-4.6420291908912255,-14.54894074332524
9.210283806197008,-0.9307359193554987,-5.3829092943917765,-14.299508389375866
2.9140076708508054,-8.853196408480088,-7.382826492896102,-17.164262375448978
5.949881559532072,-6.884386877777642,-7.124062035224636,-15.036839842540395
1.8056829605544211,-10.196144940835502,-7.646063384805162,-17.27135100471328
1.534848784203989,-5.590963804193125,-14.297849006019682,-22.253730242521257
-3.5394918927585817,-1.762609461004304,-29.353019704792885,-16.795284947332803
2.7560707722429743,-4.631931850839239,-23.977796862360503,-11.09601048996161
9.93503768599206,-4.942098803853058,-12.382394504604356,-14.44929134482268
7.983955998627858,-7.509291792077564,-13.69688119367957,-12.951279298244668
7.633055790867678,-3.676281932166851,-5.335074387981686,-17.063968931169953
3.3021884388286233,-2.0822035045690206,-8.572629036422091,-23.45304198941909
3.38818944031712,-3.4066782320515236,-4.9343266384808775,-9.927112000062156
-7.637793268426624,-5.794585505853414,-14.448993888288463,-16.569143665858373
8.46729849963011,-4.5059262143952825,-8.0506711857983,-12.875135426920252
9.871157582485115,-11.407860368279705,-10.939899067362163,-12.764190585433088
9.090105576095528,-10.159482929362566,-8.716529660658072,-14.277788812138787
5.032001856121166,-5.064773508633552,-12.667789900497407,-16.796687632143488
8.30369734564505,-4.15469735338287,-14.933270423949054,-11.335334246778597
7.135612155207133,-7.285718169204712,-6.7968704986741955,-15.88622888491081
10.842425862322937,-4.920053317257674,-5.632322449565438,-18.941910458423507
9.457132685345035,-10.457890589276095,-7.7544406702276785,-12.164883423405307
6.1274707916828905,-3.2487383787437465,-12.970598168277107,-17.301383047140785
-0.1163558077752449,-28.897413707925594,-10.476152453553192,-24.85212565594114
6.640257473592291,-11.67641834961389,-16.51365123608817,-9.192580327946835
2.5276693506415246,-5.046569160536036,-9.202966394787948,-11.809356758976822
-2.112842681854686,-9.187753475494704,-16.862531253370605,-27.527003004917205
4.090123115560144,-9.141249563863976,-3.208069972717117,-14.666497436858673
3.2876001498286733,-9.589112073007698,-5.430989006765445,-19.89189939640047
10.125313310394201,-31.51759777091278,-23.95759571994561,-13.551551926774184
6.770261107699768,-9.166528151989086,-6.2143550981482765,-23.597313444141825
-4.376004872515209,-14.503877697112275,-23.454018344857854,-16.250446321188996
-2.4809137789877234,-2.627277576244237,-5.8026038069214945,-12.898038750210876
-3.6568183751056447,-1.6598498653349556,-19.668070848653613,-12.991806060996957
8.675891925467234,-3.392008847878358,-7.084444105230929,-12.692245094892225
8.579427699073321,-10.785548718432588,-9.31730762816696,-10.655907494861836
3.0434084237192724,-8.543644359779908,-14.412876305661605,-18.342956053353916
9.151157025247588,-6.264963407604091,-15.017856992235188,-22.15767638738729
4.636845706291356,1.0998524562145193,-9.708351484276372,-18.192214826813796
1.5897456933762861,-1.1413874110767073,-18.694514673005635,-19.322597486493795
2.3266095207184874,-5.663092802195376,-24.148570983208952,-23.433946526059444
7.01066301191377,-4.563641602171433,-14.127314652378253,-9.731799941655389
9.322162224487823,-0.9768044568035879,-7.6956683287577015,-21.93982577437027
3.044591993978698,-14.556726901534875,-5.730906054253282,-8.817526774090183
1.9562390974767536,-13.031686950128291,-13.49539332120974,-14.72527498831121
-14.997592283876276,-7.136887070980228,-6.839363236595206,-10.717954106068877
1.8125383745221084,-1.1689370529629417,-8.064643735593208,-16.650489440974617
-2.407453507848598,-11.376391797369388,-10.189164715166594,-12.456902711131576
9.29515591223052,-2.7057467501280192,-13.97798505668785,-8.328572016135283
2.1855011448708836,-13.278531550088827,-13.628984186135881,-11.474998805468946
8.189234984755092,-10.884096683291094,-22.282198959476858,-4.686487015993134
13.175024471965553,-1.0242062303374762,-12.909951075794368,-10.071515329709992
9.832112107454192,-5.318543559492182,-9.26312694871465,-10.252334215669002
2.3122876541557744,-7.06578911270595,-12.064564531199087,-8.863583094099962
12.703288676793594,-10.656405451192278,-10.165041443435024,-19.48958053030704
11.13806045114347,-5.1511755436273425,-10.421346782394119,-25.19682489347467
2.0090761880876835,-11.53880941710235,-5.794668298477129,-17.653383983587318
-5.529337460438316,-8.77425917350707,-9.747608122547103,-10.045381307196966
4.893187680383835,-16.22066844191524,-8.36531351836841,-17.816706356860866
2.9132884889465647,-4.380890434679998,-11.172219370497439,-16.426946400787788
9.322897704695581,0.13920983469292159,-15.088586314183345,-15.484214282381316
2.3687467467664507,-4.937946646693167,-16.520048030437938,-11.443448570468089
9.5309312988737,-2.7785219375004284,-13.042000580217866,-16.65293427702087
5.2742247686234,-5.417058627928403,-9.912965631602818,-13.106095832677653
1.5147550795561155,-1.8463910954048592,-11.427263660973288,-15.24748591240138
-4.1103575811949336,-9.251613935706454,-2.6163844085282926,-9.930645454725887
1.9869388398709573,-4.990624492190637,-7.392435774539406,-6.8045296369581925
3.789163821031281,-3.3346499269040444,-19.822355800635595,-13.384792316873458
0.493004453578175,-2.3543352488395395,-5.375583039785617,-13.694363863928633
1.5573636201704308,-3.9742963395323074,-6.588203090377505,-23.42240277355429
1.704981588736093,-2.898279750100357,-13.709936624863918,-10.020040612037825
0.4852848449944558,-2.0323464063531778,-2.209674291622312,-16.86655915788356
4.201564729563798,1.6588626811774625,-5.974510193030442,-20.41250884521984
-7.30609581821217,-9.090424512642919,-8.219856316469874,-12.119397130949107
-5.869987516767352,-6.802721961290128,-14.410213478725993,-14.569464127117847
11.429796739168939,-14.537092308060904,-5.735126745247587,-30.26927772246112
4.569999063474942,-4.504231777892315,-11.987488536317294,-15.12092303225877
2.4991840430109744,-0.32144369306700726,-8.542220107559405,-11.569758594168707
3.9390655786925652,-3.8957878884055304,-5.674315648199391,-14.723856861474008
1.8784509077856768,-4.659602367813918,-4.625363037578648,-7.415539923054843
0.2350582656227731,-3.224724716758851,-17.703228025320172,-12.987496477020482
4.756595694255425,-8.94042280931882,-12.021874173394998,-18.449059201054748
8.666439455716702,-4.36796255439822,-11.29793255190207,-8.846023296191255
4.085537693817667,0.41470268204215754,-10.056573585580914,-19.464306591606388
-9.142977150214364,-6.58093699433368,-18.458995798052506,-24.683920918957483
7.835048476070228,-4.863436259303976,-7.724507121351831,-12.777718847711181
7.184698904964879,-11.975792254371832,-8.412143750919824,-15.517896932325279
3.766428387532968,-15.867902789282065,-17.42608944096949,-13.442682382325192
1.3955991813097024,-3.0850083558610666,-4.921914507310172,-11.293186907683612
5.9396933153888,-0.15701580968750806,-14.660962849829719,-21.58774220495719
5.179822477552374,-15.863793434392766,-15.28024822614141,-18.4289015297232
3.9320176779803795,-4.605183856134261,-16.53307329321168,-16.33856408298465
3.2026626333452417,-6.09061003599124,-17.53585803460937,-11.092925258118186
6.037471662594003,-9.568299163408057,-10.588593291707502,-23.907901751229623
-0.17522881563235293,-7.747129293186292,-22.570828085757448,-19.35865180354522
4.389192462382759,-10.893140077974733,-11.571942469550015,-3.2967340280313184
2.094739326190876,-11.645615907189061,-6.792495181187384,-32.460316526948716
6.071798332951431,-8.608953536989027,-13.637660323068953,-15.583082124292591
4.754382669226881,-7.2306000068187135,-17.960488531645293,-12.740696199077433
6.609923838524122,-3.66413693102171,-20.41506823064657,-26.193284657598333
-6.786841790279598,-8.94386725664234,-9.592867725182991,-15.424477216152805
6.4484506340352326,-16.31556943670749,-5.195068296337141,-33.8751032103092
9.594495885233268,-2.2465629643197578,-8.501752983944474,-12.598138667990213
7.710539172031978,-7.693342238103275,-2.892738635264404,-15.723350248970338
7.125633651741886,-1.5806626170390534,-12.340117824910172,-12.241035778164925
0.4010855182505919,-3.783504680272341,-7.878512555813199,-19.722131413057042
12.339096376424028,-11.667421438229637,-11.803081038794605,-15.186535860950535
4.664170303322696,0.3628598693302565,-4.689793905732177,-10.614585938619442
5.678281023344093,-4.833536033649409,-4.147294036562956,-10.228474056582044
-2.03825534593824,-17.74027747589953,-5.34604220492553,-16.053856756075827
7.0933928885718585,-22.5724334823545,-2.8561859158911864,-10.43362097290775
8.283247650296492,-5.785044826397035,-9.73606399338121,-19.296344972739355
2.2285548690585095,-3.1239619564096013,-11.564771241768051,-12.631220816589082
7.061618955738852,-6.524024715053153,-13.421163733803127,-26.2901419923215
9.402612917501546,-1.1467130179702267,-7.034229057328279,-10.88637471791619
1.112272853245266,-10.46903827983793,-14.630100538438715,-21.65024117553983
-11.424984196311723,0.9894689175928026,-8.601977037211773,-11.944388669793316
9.409259317586855,-7.752679633314518,-9.493052373907219,-17.293166758809267
4.986675914230282,-2.5011288019463165,-5.826936634826701,-14.569108223855444
7.150400574001664,-3.151882494060097,-5.644488796734921,-21.81744013821283
-0.9557863971809812,-9.210305316016813,-14.159737525040018,-7.2997724813060385
8.443123554196703,1.2271628186314663,-9.894692853737668,-16.601467836346217
9.27130841375692,-5.807259964134458,-3.062304733031348,-23.02105694669376
10.02010281511376,-12.005079794964884,-10.670730764770765,-11.162954911503697
11.410108975765755,-11.960218699983901,-6.986349272629175,-19.633861215021227
1.1660864907328345,0.8402032459992435,-15.713137479655082,-7.863825044482518
5.047579098021085,0.1357953569302377,-8.327483080488705,-15.442973685831056
0.28403554197374703,-14.566537671127646,-11.6095106212694,-11.660827626762547
1.947490968024168,-5.938138041607679,-3.55034382419814,-18.56183378953672
8.248325335681026,-2.4178100125069997,-12.23776365446166,-11.774478690460239
5.213658409055104,-3.7248049207836433,-7.3866975455936466,-12.269165685152213
-12.424933052337142,-0.6868616462583934,-8.502998890276338,-9.104854281855875
6.614232779293424,-0.4387015205154312,-9.391470576203078,-8.716597415011886
3.488256189763183,-1.9472447242980482,-4.795116693691863,-16.753064901464583
2.3408072048249933,-4.53774013800593,-7.4825932138553775,-13.308516437184885
8.533167475304875,-0.5883493981430004,-9.108198413163896,-9.92289046882351
-4.247850970288645,2.4202823526539037,-9.904192680832761,-9.421372993745457
-7.636633417329938,1.3788404293247276,-8.230144557899091,-6.854141739747418
11.547618451012681,-9.366795443063728,-6.326397110971726,-6.838498895064531
5.778096078557368,-7.70237847053928,-12.737676441291516,-9.810579756800795
7.735849075180352,-23.406330556736425,-6.596057921826805,-17.875874006307747
8.695334298084834,-11.827370869150345,-6.414781371680208,-7.111437666604931
7.1577927783548345,-2.3342619122590818,-33.264391594451986,-7.431419136609054
4.453331273967379,-3.393154349825472,-6.699954426514182,-7.065057827760705
8.67018753996148,-5.539575212694345,-10.231129357411369,-11.333755959625769
9.971665849914917,-3.062979320172318,-14.515684616145979,-15.576801810113004
13.079774749746306,-2.3615696326931306,-18.02893933811437,-12.667653874342786
13.806794521779377,-2.5492228286029994,-24.71612959359823,-14.081559440320419
12.67285159008373,-3.270258239385592,-12.460142901205298,-13.515370806296538
-3.5663880285756315,-8.130269397225799,-9.962522247898672,-17.628410559475384
9.437145789796766,-10.576666758232912,-3.820019888618329,-16.721166265105335
3.016543609299611,0.17557277059496723,-5.978365425325137,-14.909064220018028
-13.997132718901309,-6.237371998628092,-11.560925361684001,-7.1807482275766
-3.45345709548908,-5.771024317284928,-7.437829335819821,-15.762287147450117
7.169520517968525,-9.421525355977195,-26.06198911563242,-21.89286444655319
-9.269110607699794,-1.7050587178154024,-16.522870325130803,-14.840617373896375
3.669378427881783,-6.338877565672533,-13.295329501729952,-9.382051268546348
2.9853064493222075,-10.846464696722572,-2.3616253756874257,-20.633297722194634
5.095435505514465,-6.192280800814077,-20.979807532137972,-26.54679885029551
0.24513898374586196,-7.2942418556434045,-3.5782908143080028,-10.971237801148206
6.21352674012972,-1.6068273546888618,-16.51168982792813,-8.765337960724711
6.506866581890314,-15.964607494365074,-9.873537296144024,-25.930376270284995
5.727032267226751,-10.811294730566773,-9.829101985468991,-12.837663443989758
5.025724020361297,-9.349106668177074,-13.233501791663713,-9.009968703842826
7.307782805791433,-13.875338303748782,-5.425572673514525,-11.886435670271176
4.710449207617922,-3.7571870814964066,-6.967343583571115,-10.96950816340565
-0.9961628156641877,-3.099851623899658,-8.680039874875499,-7.34594425839263
4.727090749780527,-13.891061249434758,-3.443401377033267,-24.508720135700038
-3.5338321526222387,-15.397643423552266,-10.357668863839995,-17.242310468758614
3.2837776031127555,-4.7592834471857515,-12.911155953445926,-15.440306767991729
3.4839093524287654,-1.2748387134051993,-8.29444902894491,-18.85827977379862
-5.778813683256403,-0.322549866588012,-10.792326830996123,-13.037691937840233
0.41843897970340516,-5.996255513671128,-6.219131294024971,-10.975272927382914
9.630008603253927,-19.373468812157157,-39.05005106603198,-30.408822885233796
8.088433472774927,-0.686738184547413,-15.469224917260217,-22.60690995688018
-1.216283238612231,-0.7434605659692837,-11.941554293476589,-15.006479033295573
10.585564506130794,-6.944997862157567,-5.614367423586087,-8.211387864024275
10.423067880268789,-4.976822713150343,-5.807804782051246,-16.9079150553866
-1.9881867549121255,-3.0283461888651124,-7.610540499356031,-11.866475055098181
8.668427952621222,-1.2322305080544633,-17.2791046786702,-12.185884068929656
1.28050290110881,-14.875670655558837,-3.3879727103209976,-9.419969663821131
2.1044114126767473,2.0528036092812068,-8.502044908200904,-19.680871381183763
-6.499746154478692,-8.107593569688104,-4.363071300779062,-18.23739635299786
9.105556052808268,-5.480481089580692,-4.120305241692005,-22.319744178876014
11.769884019929705,-12.550198028586891,-6.008677704124013,-14.808228650985676
7.0546925516867995,-10.159008333833533,-10.349307911245694,-10.849013690195541
1.7499611298127564,1.8150289195555218,-7.511552685184327,-14.31554241609135
7.96376701048933,-8.600022487948323,-8.32439608357991,-9.941905717003962
11.375996008161408,-4.007955682783175,-3.7743016100298523,-12.763430429531507
3.792507873153609,-4.088196031347701,-5.023454681944575,-16.52114416688764
-0.8776350508108868,-12.589728499510118,-8.300473808476317,-19.323243259842307
1.9628762470575982,-5.711981954663832,-8.021787511980952,-16.583944942241665
7.032830272338251,-5.325218148508112,-1.1562187636582792,-14.648424062947502
9.007758779318166,-3.5532138830589832,-11.931959919485147,-10.494292692044073
9.547595824317664,2.2104117109517167,-8.769176875433441,-10.555255372065151
8.064188818411473,-6.029923838740604,-24.82243745463548,-22.331873195493635
-7.408402865671531,-24.773451058718877,-12.041367131616095,-19.1610242591779
7.292904786101675,-9.53744614953033,-5.03865714861138,-13.088900325204047
7.673304338958489,-11.334021473414982,-6.9909389202096595,-10.286054032375429
12.269476675966853,-7.958814974970267,-5.3263380858468246,-17.620607741229797
3.6125182708104564,-0.042615907716637036,-11.283567266708104,-22.524077786291524
10.108560409834745,-14.745893296467786,-12.38072779287645,-22.571862599503753
7.815511591157968,-11.918400266608511,-10.562862016853444,-14.970565511332083
8.91877777773287,-5.812022929315495,-32.83625730356324,-9.982067683940894
7.107052154457847,-10.122688021385096,-16.09891241457466,-14.992208790740783
-2.439044082597122,-0.9986884360260517,-18.43807478524902,-13.748589039402002
2.656366613014658,-0.5180892987124679,-15.169405827085413,-18.206649684906765
5.49636678407841,-18.549435665672085,-8.76729967325419,-17.956862082697228
8.59139287343179,-4.129311799697545,-18.83228882845407,-17.87363453728674
0.8872871182671744,-4.821534073372289,-20.821053215717175,-22.603988231376917
-5.964906470438316,-17.355133411238022,-3.124791663270291,-8.547253545212243
-8.671517627052374,2.0265711674066527,-9.594451977533407,-9.231576456178743
5.414081907129747,-2.4611459393098447,-10.971681693470192,-13.106488399821224
8.587616238461585,-5.790635879883659,-7.940981268288885,-19.05070543532615
13.487867318139632,-12.472931846005622,-9.998839119261714,-17.7188915478777
-5.452682342887212,-10.973805502448789,-8.601128417018266,-7.876783383193803
6.440179954195381,-0.2482817959662107,-8.138643659278621,-11.724498209552387
-0.657903754864944,-10.25473844582348,-8.432369050205168,-14.152414678614548
7.033080264794616,-5.891041321654759,-10.975527509670634,-13.092887513229453
10.081757932217656,-0.06107281557242139,-4.038239256774197,-22.921177860742844
-3.946390728281334,-7.9885218187686995,-11.303978227053694,-11.747037649358123
-2.5334980794298536,-6.309039775862367,-6.753197488618552,-10.277132380245423
-3.060754210977156,-7.051465816392447,-3.578200976851863,-15.445112544174762
6.586589534770751,-7.7448822198284475,-19.654387906638178,-10.912504146377778
2.425045622616293,-6.276409976281997,-13.54579202751679,-9.582083314892973
2.596201080098187,-4.931322626376653,-6.87952833102737,-20.66499225749455
3.175957230313165,-3.170643536743786,-2.6561107011022442,-11.361973818086511
1.0057752977548016,-8.940215531244629,-7.626254102532812,-17.807486846291546
9.802871978943312,-3.026266223076259,-11.61349371224163,-21.977938123678904
12.49414050606607,-8.730711459480515,-16.403605562908016,-13.130105801583191
8.77864369802798,-5.131085749668619,-13.58476569963258,-18.648485310128233
2.9030894830051457,-6.585417148772947,-15.102441922719716,-12.035889731502838
6.004193612048902,-20.87483301297729,-4.076338237658771,-20.06961303091153
-10.338897368396804,-3.8412390034770163,-19.681200457733976,-13.216744190940048
7.303771159382959,-3.4849784762180547,-9.237405135673177,-19.815823127560087
10.466841283146167,-7.90367844241932,-8.674423077924692,-15.961600944391833
-5.090301960206541,-0.06789325068042507,-21.149848932815907,-15.469767659478983
6.938632777858485,-7.863357047418496,-12.484375570353166,-14.440473360003953
4.373236908392187,0.3165158087646991,-19.294450887881396,-15.178205050534292
13.345576202249706,-4.547183869441074,-13.82502739915278,-11.615434293224776
9.497301455982956,-7.891469640750353,-11.07434654725106,-19.003985311928243
6.623213264443365,-6.003512373487611,-5.799041688495031,-12.210459647781366
6.095272416560942,1.0236187147134517,-18.216771251114814,-17.88844961948055
0.3911995092766176,-13.315877027299782,-15.989216793022436,-9.573375844017225
6.400255266420297,-3.52433920610969,-6.216533531379223,-16.2161219567035
8.369020803796712,-6.731992373522374,-6.93426493618534,-14.23441370490156
8.871167867002741,-4.698029524418045,-8.180621676251505,-18.979091352702206
14.802501706880868,0.4314396191663219,-9.755875715485821,-8.254199680291173
6.486953612800773,-6.770780151717412,-34.284576175400666,-7.363305651728193
7.186674870211457,-7.766234968726685,-7.84543887420655,-9.799288955919195
4.542148910621865,-33.793174446707496,-17.951597280492486,-17.381515954039987
9.20172763011946,-7.108905568739326,-3.8126532100287016,-15.767901916615475
9.534968238031244,-7.124170132794189,-4.389105788424034,-8.125105701779269
10.726837111221968,-5.385690474281926,-7.509705477243987,-26.960982389466068
7.0209289516976465,-6.521634503408144,-11.804028127865177,-10.76861902313485
6.003120948093613,-6.123377146695395,-11.500935920542076,-14.387444236378965
0.3272632624508409,-7.085321952119896,-10.676675396318142,-18.0168370842157
7.726783388053686,-4.127909005531954,-16.975777151877754,-17.62257314477636
7.918816488484608,-10.474800548606208,-8.892836677186773,-11.424563529603603
8.572276438730249,-6.200599788624663,-6.25254206961349,-13.562594006257935
1.7640183981120745,-5.088839144476976,-13.705730471502068,-13.709864157933747
6.696201179931462,-3.3039487443528617,-23.597067272588767,-13.14817538935597
10.632772746510792,-1.2600471459802152,-7.624005449257455,-13.361332362331762
8.362527876414255,-0.7613835579091415,-14.822813156511252,-10.578378404475977
8.80541121730241,-17.047370875878364,-10.955733985101107,-13.394470060597051
6.294346499686046,-3.3530128900669403,-15.885370989836801,-33.27835034572781
9.239336633716853,-6.31121680561842,-4.8670024140353725,-9.602278721700262
6.406325705315211,-15.109448794144852,-10.877282166479596,-22.523621499598523
7.729560789466703,0.5609552714930657,-15.005220697894408,-9.177759719999166
11.767279978943403,-7.859703745775649,-6.664181173313954,-13.284060192418423
8.45137729514579,-0.5747104761290922,-10.100049832674417,-15.359124836647318
5.989712780258392,-8.99785903243435,-6.695022211247872,-12.171005500884661
1.022212476898508,-3.3426272945717934,-9.023017518512154,-8.881086500564766
4.754327615479403,-10.905915951418512,-13.912132009238103,-32.8933162138239
7.704315820996574,2.5147229279075414,-10.69473649396437,-12.839512692772562
3.995219088695994,-4.014499074134985,-12.76956709969063,-17.948258925911045
4.985138766050612,-28.26224761152811,-9.575895094018144,-15.248145095047722
-5.167188639995476,-18.01337940351316,-21.250565725694248,-14.533431828450318
4.181776286200045,-9.609221189937644,-10.64940332164249,-9.869513666239385
5.02887498367247,0.5474360117345332,-1.7655420292477175,-12.546482348577626
9.034823213644913,-5.879230192058833,-10.977494428339579,-7.747734225425284
9.375789696557023,-12.828839200325996,-24.13632936694538,-9.685797739029518
3.3459343202083787,-5.0835118582548,-11.270349626696664,-22.501042213542426
-8.262581007348572,-11.08714658309148,-4.825808338231299,-11.467159182474514
12.654176588993433,-1.1140058553915106,-5.865243166090286,-16.820903231275874
8.382078683035488,-8.200446386228672,-12.94170320307221,-19.650704859584668
1.1981730259368624,-3.8876263435588903,-17.8033711880323,-19.172090600898812
1.5613568446780766,-1.2575630386473367,-2.4970789328246137,-26.166823917217762
-6.7513506991140995,1.3280544949350088,-10.171428220362007,-12.80976966585882
9.859468920626835,-2.967322318669655,-10.16414179316692,-9.110899670802304
-1.9476072412519674,-5.713382705240811,-12.692010479202057,-11.540149564714646
0.28519887988525383,-16.54538354080419,-6.795705010203662,-17.435468380129127
6.917035203839081,-0.4541652363867641,-6.816480334703501,-12.45611046716747
7.848172414018128,-12.935943148517245,-21.63855705847793,-15.02610210378213
5.254381658706497,-12.889934423502764,-10.563000312833864,-14.898727867963984
-1.6496138662626194,-3.359200884508945,-8.901302730879213,-18.468404939596187
8.88811742756388,-16.913068587228768,-9.908130233337648,-12.297909659574074
2.907917885393169,-5.265314521853719,-7.679754043748346,-12.675882076376535
6.73497962968697,0.29045231192070853,-8.910009047929266,-9.778692858156209
-2.3993183318675877,-8.625416796996209,-13.743470924923237,-9.594466075585995
9.678876121712584,-3.9724730645502997,-7.698294368376242,-7.260927175190463
4.1122191774910615,-8.394759939839481,-4.380548811692929,-14.506610432822349
3.4654074793699428,-3.73447210782184,-8.147222737229816,-5.479224525080311
1.069660804133886,0.8224425275227643,-15.345138426508182,-13.15007853690463
4.887815829314041,-20.796663291656756,-20.05729271934402,-8.739919246528316
5.063581451385477,-10.717384444179551,-4.344066757213174,-7.173333226050064
-3.3178145179993175,-2.6328764142167,-17.988293397520703,-14.80085679168716
6.742431153059071,-5.287667609985915,-15.359286534804216,-7.769055357010369
6.3176855517018815,-3.3268977878042825,-15.988049055646744,-10.423929453776811
3.883736916705865,-2.8970852965768414,-3.4301941594158616,-6.291278883757415
5.4681931540190725,-6.690573788773124,-9.27280988576409,-15.842928776023275
-3.772021968335298,-12.942562461283737,-7.933084939243294,-5.721132512088084
3.92680149638405,-9.4452819577905,-14.011081932524725,-11.893380646153975
4.904991157627282,-14.34198183909878,-10.083558719376029,-17.299271984410467
5.552862195249443,-15.680917346785117,-10.125213991345479,-13.789802864852003
0.8464044254037497,-1.7520998399555539,-10.740308746416925,-10.392229031681158
-1.4936267523338431,-12.694387702079524,-12.365640009728923,-12.130160422022037
0.307372649267875,-3.6007051444351137,-6.316593772822031,-7.774110815308357
6.162959188198122,-7.5660110455861425,-20.779884327291608,-13.046502010701719
-0.6997501275164391,-8.783561900535151,-18.482402093736795,-26.109388511551074
3.750207639097235,-6.814510449178009,-11.671229687171802,-20.94479099365623
-9.160785776021587,-7.456295842969267,-14.975007852363369,-15.198059205378073
7.133147913366241,-3.747049620780769,-8.74360641183726,-11.430281857140546
10.462819555923403,-8.14811551496057,-12.322639576881034,-9.891641468610079
3.775275772557357,-4.040346602777678,-12.684609629923514,-7.963399590848705
-0.7650513485152413,-9.379787244656669,-4.9648217631421065,-14.271196221488879
-13.12290661203663,-1.4320609069899972,-11.322745501390234,-11.63647915367007
-1.2794215382896388,-7.846043915609352,-9.535794084851062,-17.95565532117903
7.040498603558982,-2.524448656248859,-8.735764009012485,-15.589441679135948
8.988689448913833,-18.02510942739705,-25.48146598083629,-11.43154119125104
4.158884403440864,-12.907618047834227,-5.346704772225312,-12.108961108530355
6.298251943035911,-10.823605333502229,-5.528067123279916,-10.041194559243053
7.0603188205791865,-5.066493473759506,-5.634454159509193,-11.7729132045968
6.954320723662898,-4.319225284552562,-11.570496238904465,-25.903711993086716
7.593494947270121,-2.447852137097184,-8.502693945764399,-10.78728153452953
1.0276855812966303,-2.5559315651820707,-8.831878347040174,-15.980777134605901
-1.5617745610529221,-11.10906515964987,-7.871415942952158,-4.888670075728156
10.477168809078858,0.9646602902209342,-10.830895272905018,-8.266284813359448
5.628792892135668,-16.49791933271327,-1.5214270932813379,-12.709958416379049
-1.9210296661353707,-6.406161224148095,-14.615649584806846,-13.120374171549258
6.044287632409392,-12.14353524562811,-16.258888212356993,-13.315079898395052
2.802641976485749,-4.6103257697055025,-5.384189536969473,-18.76780490202013
-3.446126535961027,-6.119116525591279,-10.26382704681591,-23.653921212992678
10.543739377704041,-1.0920340428282702,-6.178728558452022,-17.499598922783438
8.77239484167387,-6.513174736704272,-9.727049562404249,-21.810456813973165
9.13543580411616,-8.72478950275091,-8.026734523880013,-16.070139311005526
8.58180834192758,-11.009492653072826,-7.288249910978566,-10.573875962967477
10.256469177145782,0.0659114897151225,-8.4215476572242,-12.8617531741399
4.698873721574789,-2.761662388337473,-3.694290090948947,-10.784608055793814
14.47991995488314,-4.960995529598847,-12.369820206419192,-12.305119484219656
9.536046948061072,-5.8070337731174,-16.66813089652635,-13.327880345370229
0.055865612815010124,-10.608753338672802,-3.643117502452831,-9.5586254152483
3.0502172752632593,-11.031616214115235,-4.584914438018483,-22.209775495172774
7.396524657152853,-3.4233615282159717,-23.37517374479277,-9.977031322301759
5.80662821577924,1.5092923890147438,-16.933271114346972,-8.07898240851775
10.285687952242505,-10.756700615561359,-14.948869423184867,-18.837572156845496
1.625860005124837,-10.380850873477778,-5.696584985787242,-16.89173959980155
9.825257901378642,-9.564192323029147,-3.690694418529825,-6.542117016316497
-1.305624078744282,-6.425624181875202,-7.788183918073349,-28.09177802555054
11.498765866788986,-6.517052926708722,-10.284021854049675,-13.162701033240463
1.5640692731092627,-7.410452298903143,-6.654585703985193,-17.029082098374925
4.373108236630565,-5.092498760802007,-11.841476709716373,-12.303092641743504
-0.8237686157362667,-4.3600578399460055,-9.672306342338025,-13.118292638114127
-6.6761662573785,-6.379616761298184,-6.818654028832134,-32.314153630023625
1.2797015462227908,-17.96810719932723,-7.700965650623697,-10.001092024023624
10.321014219587273,-4.412525619314737,-15.328874379879394,-14.647947485671725
6.474834423825262,-8.61225960753469,-12.460670766883961,-26.430047456776734
11.597491516654873,-12.71251642495712,-5.973057163933403,-9.345592128967667
9.988659111108817,-2.9519863884972266,-2.33377071280877,-6.47657187963416
3.3981084629061327,-4.539910145662676,-17.289262305727856,-5.2425846399790705
-3.373622875469561,-4.3008668774306145,-12.669112652082866,-15.451541104689024
5.872841535609826,-1.167141265572711,-11.692252878613516,-24.914965009181437
8.552375298148434,-3.9208363422826715,-8.907129702525586,-12.449633568472887
4.448718815556954,-15.1160576866067,-10.932369189635347,-11.463165412126546
10.451834755815447,-5.615043847959532,-7.466954044641774,-11.403109116396312
-4.282481942117715,-13.354284628127614,-10.931456112530746,-11.991832238037794
0.4788791750938661,-6.017765708016233,-11.16029461708445,-14.179045108460294
-2.3565080410582784,-0.5093461697832034,-12.81504200619239,-6.215038580797063
11.390497170222517,-3.8940978980150125,-17.708307473943766,-15.03686151797065
-3.9635735874050075,-0.6183835077752073,-7.362492391533401,-10.953570048892445
-3.3821321765119334,-4.583932209808529,-4.885715544726363,-19.603675552561338
2.4741505333472262,-11.884855515139881,-6.785747059909525,-16.08107792352454
-14.624767036098731,-9.861994401843003,-4.8329963608457085,-14.459715081391519
0.20393343090519034,-13.065801058582442,-3.715514540483189,-11.795025995177507
4.360102020715387,1.0910708336033499,-12.549785476652186,-10.05253725686218
2.0337087775256313,-18.40029440851138,-11.26808031214598,-12.872789279439584
10.80224192061428,-9.093137903218652,-10.559762949151587,-11.780672908094829
9.606332998473114,-8.673294619833843,-12.19751151274405,-12.209170375083815
5.496518342072547,-7.60658897755644,-22.423796268051536,-16.43987109995645
9.712498095916242,-4.837086543108287,-12.5633333687514,-9.095854721727708
8.007455690226013,-4.556582683902484,-7.79107373385386,-13.434260042757508
5.222815367069731,-3.3867044989451265,-6.7059771312732135,-11.882055571151156
7.5066862017236975,-0.5288501874111291,-19.83606379024357,-15.856168524887359
0.5413809228665447,-9.192370099407126,-5.326303879803191,-10.737498203024
0.3037404382040716,-10.830365630038349,-8.969038977939253,-9.080444066007693
7.7319722500676225,-15.819033822253042,-15.474182330501034,-11.213834588681483
6.866160496718184,-2.260547288288796,-11.90694504550834,-7.658287254162775
2.0380400764773574,-9.795779067796786,-10.7830280741582,-13.07100679921102
5.3957091132892,-5.7087671566294205,-13.284601154065623,-19.690362990114146
6.480259097714237,-9.954675251061133,-23.26547136807956,-16.88564235259963
9.889725102467485,-12.382942415463226,-7.127675757019627,-9.23155691669832
9.54669422721344,0.3807188162060018,-13.262206625125291,-14.971927244553779
2.34060322022124,-2.9493903621879194,-7.966034294555538,-5.162507738043561
-14.488307009177998,-17.123238491195572,-7.703059316014167,-13.655537281176816
5.375408367112765,-12.381114173423214,-5.827860263514083,-8.659871519331872
8.870698365115587,0.24895868360486428,-4.294517746227763,-17.779937559795297
-2.1207432150158825,-8.814937249394427,-14.706607057921921,-23.09681273097444
1.1089889706994787,-5.318707680033496,-6.421405950463543,-9.386818187991441
8.155896454640175,-5.522547759786864,-9.301962992549068,-10.25916144020134
9.840801980313362,-16.566259154314118,-8.320344756144166,-21.07736055066094
7.930679434948735,-1.4667822536778172,-12.848024712376672,-14.047989227914563
4.877825041558722,-11.636839548262161,-4.249028298448948,-16.237444920359902
-3.5553506254383542,-2.2001333916965966,-10.248537135727057,-9.686207211938044
3.7324369174972323,-3.4351206522052773,-6.3823183998761355,-12.428237080552698
-0.4132129972255578,-6.455520054366394,-11.757428129249462,-24.944434036293504
13.481909563704228,-1.8194799540282784,-5.277233144010717,-26.57714373302791
-0.7195313571139863,-9.191700393134239,-12.551155120834615,-17.01234088353306
8.743728644356693,-8.376875872710649,-4.916542691168047,-8.390274619732363
15.15394337513753,-16.272957256573626,-1.490238717372479,-11.880293732399185
11.20887844007255,-4.150573068687478,-9.716524855351825,-13.336890215940606
10.268478554884936,-11.342513915746244,-10.710839776910406,-15.14251152177896
12.997388720439616,-7.228753614973664,-7.20387568309763,-9.684638167374924
5.656732493285519,-5.273527284119114,-4.892299771244115,-18.275392285091794
4.297607438178145,-1.9357340373169403,-9.52803633930766,-15.976942860686997
2.958181594409467,-6.989698353546535,-2.4765118915451265,-12.838780248590197
6.200390219091034,-11.193982799054634,0.14369763354290965,-14.224879740574433
4.127849686702004,-5.770149695840198,-8.730044001274182,-11.596079877877798
0.7774504246461675,-14.160094975023563,-3.402838694570932,-8.365075814516182
3.1106761312245768,-8.072238953291361,-7.2895643073415,-8.979197092702822
9.566763949633525,-3.2665479567244495,-17.97504293054658,-10.758452132667134
7.809641073761799,-11.824065233149431,-17.477894433833846,-25.783886018591687
5.042687853680038,-7.8279289798058596,-12.983280152347685,-15.427959783473554
