Freq_0,Freq_1,Freq_2,Freq_3,Freq_4,Freq_5,Freq_6,Freq_7,Freq_8,Freq_9,Freq_10,Freq_11,Freq_12,Freq_13,Freq_14,Freq_15,Freq_16,Freq_17,Freq_18,Freq_19,Freq_20,Freq_21,Freq_22,Freq_23,Freq_24,Freq_25,Freq_26,Freq_27,Freq_28,Freq_29,Freq_30,Freq_31,Freq_32,Freq_33,Freq_34,Freq_35,Freq_36,Freq_37,Freq_38,Freq_39,Freq_40,Freq_41,Freq_42,Freq_43,Freq_44,Freq_45,Freq_46,Freq_47,Freq_48,Freq_49,Freq_50,Freq_51,Freq_52,Freq_53,Freq_54,Freq_55,Freq_56,Freq_57,Freq_58,Freq_59,Freq_60,Freq_61,Freq_62,Freq_63,Freq_64,Freq_65,Freq_66,Freq_67,Freq_68,Freq_69,Freq_70,Freq_71,Freq_72,Freq_73,Freq_74,Freq_75,Freq_76,Freq_77,Freq_78,Freq_79,Freq_80,Freq_81,Freq_82,Freq_83,Freq_84,Freq_85,Freq_86,Freq_87,Freq_88,Freq_89,Freq_90,Freq_91,Freq_92,Freq_93,Freq_94,Freq_95,Freq_96,Freq_97,Freq_98,Freq_99
inf,9.723810552021297,-5.846579347738231,-3.082844412881406,14.787269764660165,12.758717823340644,3.1613273507558084,0.238616315494518,3.019397958953185,1.3213035620798443,2.3777957410510773,1.9819199051262189,2.3391028568689585,3.939658978647106,-1.224670107149791,-1.2807531148176565,-0.7568477435426004,-0.11125392194579575,1.7993472493310847,1.5233834228124934,-1.3970949390792526,0.12551342390206344,0.5761743977230722,-5.7988546108118015,-6.573376960467094,-6.329163838821287,-0.8715381128772961,-0.605419448580804,0.23218085589798676,0.9960510869492012,2.52384897713317,0.28386085706629416,0.7278477370781715,-2.1933291182981094,-2.419661329059906,-1.093865794533727,0.03356353005045776,-1.2661804717111806,2.023969605660646,2.492696461254006,0.9347059982203731,0.6610685647951371,0.30676151144579933,-1.0612214803036366,-0.22433897131494973,-2.734227790008852,-2.6737871354348144,-1.9762299170325264,-2.6666846644424,-0.6356944121644332,-0.039909406559758054,0.3159822281746614,1.4117735258298723,0.9218650181256365,1.832773145478221,2.003967071118616,2.8423372005913734,3.346611943244156,1.0400178397453672,1.7259010416977318,-4.0460269381734335,-4.58901195508691,-0.47809400752094433,-1.3502403385534336,2.2984800854456395,1.0594659158665536,2.035154581778869,0.8514368356948481,1.6039639616959818,-0.11345253758250351,0.46252900137403685,-1.2536360362020673,2.0866946320689124,1.9173108194759578,1.1913633021056782,-0.3886900587918234,-0.13587957407587936,-1.4021256612274726,0.19548821986063558,3.3868928893271573,3.01569594281478,5.170483189733673,4.2383676685083245,3.398586511439561,2.1835427127590066,3.387971734778617,3.8431628068925647,4.73043463337396,4.0377502677858885,0.5365884228488298,0.20221158458001298,0.4403682233447981,-2.7166193823753275,-4.3374177393721,-3.5255073491743616,1.0328707685505378,0.22473341655007317,3.0726335053693106,1.88053132596918,4.034267800094874
inf,13.556906972011763,-2.477012133041876,0.29153607645409085,17.900972497844492,18.68582236359346,1.5605038659179904,-1.5262548342445896,-0.4363717982656006,2.0867144501298434,1.527051662323185,1.3137686176631966,2.3814185096999516,3.0997696298322275,3.161585482190766,3.80165792001711,3.388599081569133,1.9926316370678308,2.379407846484945,2.0550550844069733,-0.32358140233249344,2.940652485800726,3.4015978924059382,3.016058923678962,4.529737841662339,3.141049806068935,1.2198595753717072,2.093219958079402,1.2645751632022098,1.0594339999151003,3.315687727301068,3.4970647990322163,4.274089199865408,3.445885489066278,0.1347327160416043,-0.12275998037773661,1.1786796724138568,-0.5093629002798892,1.2147389037902911,1.9067020508765111,-1.883225123195004,0.3869715243841867,1.0080365275579908,0.6261844517875161,2.3331044179202607,2.04967016477201,0.7500140988181982,0.8632717317695651,-1.2135569895894704,-1.2365563135043942,-0.2310714857266234,0.2326651313131478,-1.5278432436390759,-2.113546484124356,-0.4073614555202383,-0.4955216220339267,0.206058962270248,1.5000939417314356,1.1950581375979539,0.9135441148651964,0.34408965005924586,4.1701683831480025,2.8847206219820904,4.142995635623855,4.395975965190878,4.565335748515039,0.5257076272738743,1.6337971080069735,2.0598418246588253,2.1147998595425435,2.722941904479491,3.717091726279719,0.663183020462931,1.560414074039727,4.82474796245419,4.142996784233716,3.5911305764216337,2.1193616658017547,3.440934203843085,-0.09875255908484348,1.436584629919885,1.1327574895552388,0.6613608993418509,0.07521782254973886,-0.14917941774099575,1.3388567147930601,1.8639109253350554,0.6647553380788693,-3.105291246650289,1.8910898284033877,1.1388863367474613,0.8484002019897687,-0.5156007503605906,1.0864460935827154,1.5851251494478902,2.9417972373656482,3.271993721589915,3.4836028926853047,0.5193392881759067,-3.3855856926706664
inf,10.598150841663053,-4.952139674672733,-2.175338696585576,15.331138032952804,16.805864925555532,7.251172843362756,4.683893620302417,5.182214766023446,1.282385115812147,1.04728382188323,-2.4195164095810426,-2.9047456492311134,-2.893230864456246,-1.8337385832590272,-1.5354034584021221,-0.9696621148016291,-2.676742144027017,0.08045735196092352,1.6310507091858142,1.103723228471793,1.726768836116264,-0.09017376896346008,-3.397334555999116,-0.5462676666997197,1.0199925925776867,0.9087916725806835,1.803833707509007,1.4460741460607238,2.041626173236679,-2.6924030348667216,-3.0640927680014016,-1.1400207466324233,-0.3179829458089216,-3.057159213530902,-1.515750432352391,-1.5205843823145884,-0.1390906587652836,2.448948613791387,1.5220995783033047,1.113640710755682,1.1013694172928155,1.0369648395769104,0.7157307937627948,0.6331911933979555,1.5547900546322921,0.18808664056270175,-0.14051889191159717,0.03852548802654354,0.2309707149155784,3.8168473733349373,3.9148616069218036,2.6307411510215886,1.6572464048758562,1.3000897303622168,-1.122982496348989,-2.0880005186336277,-0.603392161788527,-0.20142903690945246,-0.8921001515203315,-0.2583439904278748,-0.40280661611334523,-0.5470447154905145,-2.7430598858270727,-3.5969388404246985,-2.586942687660901,-2.7597232566506946,-0.14677744623478617,0.19947754935576967,0.878359791336635,0.4063876077837918,2.2185606326474954,0.8378308303976851,0.618090014688164,-0.0939400523591587,-0.557486826169189,-2.1507202515304087,-2.195809632472894,-2.644238956267529,-0.30578495393838523,0.19821106890422868,0.5022958083938889,3.047502700558752,2.317208040750053,2.473880027946123,1.5567263019258064,0.7469088705490705,-2.8897507693836673,0.022272984666876994,-0.08725928407777417,-1.0317315609744924,1.225386265748135,1.024546689118793,-0.19338502137051705,-0.7802895937086163,1.8362417547888583,2.18800779511011,1.4539666807571905,2.9377864537148355,0.9894822573790023
inf,13.10423645637307,-3.3384262191439267,-0.7906004200797296,16.661953385360974,14.021969922632643,4.6223383431310126,-0.8823641036469034,0.3920165892199172,0.19163389992268876,1.8844997209120464,2.135459268677039,3.216054448206272,2.0982239735925496,2.575033284145583,3.2417151859739732,3.1572144831935525,4.1350537900376985,0.7624071092495299,2.0800263418394493,0.9526357338153844,-2.7301866923445317,-2.298067110550363,-5.512562138279101,-6.32755162019599,-5.520695906975277,-5.43296307828254,-3.860533080288022,-4.902549717094068,-5.080644765488792,-2.196982537176119,-2.4540407723821716,-4.117861308717174,-2.7165168338154615,-2.239944553256393,-3.904279235300791,-5.1326489254399235,-1.8539145529240102,-0.79873182998044,-1.3603528629985675,-1.0078524929378503,-0.2634495393337133,-1.1102248722709618,-0.5489354075956996,0.634724565990112,0.8802805970979222,0.6571237161447527,-0.04825264443150701,1.1404967469870968,1.8316049843168543,1.59939302817466,-0.6035843681642206,0.021565416251881686,-2.2207251426937376,-2.082239078862365,-1.997374930832926,-1.8682831258808932,-2.0084385354717824,-0.1040991392402546,0.5970081179032576,-1.272884116285212,-0.4836558508563513,-0.4372303861982658,-0.2689877964052201,0.12211446644808888,-0.4811027734193942,-0.5898309657367307,-0.2726535128470289,-1.0601356939261208,-3.1802806628053446,-2.748578464427368,-1.6330957440325875,-1.816430880900775,-0.6871385413368003,0.660202077161749,1.9084409586619628,0.9688824543698473,0.8290161524387187,-0.8495330928526386,0.23630456541688005,-1.0905543554060557,-1.142128619492091,-0.6454447172847608,-1.4903938572157287,-0.6309952237893555,-0.19157093744449583,1.1081089598770006,0.40227241818430315,-1.0075607545586323,-1.2901524246122023,-1.792924109814109,-0.9458645214806864,-1.105839779626585,-1.8672199098267015,-0.04669187830657506,0.10432736828489908,-2.914962950556209,-0.9878662067884392,-1.6357088458557385,-0.6488829761285473
inf,7.116415817652008,-9.629799397933176,-6.904040222188443,10.581047655809838,10.657995346778199,-2.693773203153505,-1.4202760903669613,-1.176869751201778,-4.7280331992222,-3.7530009127189707,-6.340745076771853,-4.758154082650588,-6.4132741195705485,-1.6562783210945327,-1.9484004933531267,-0.6090430506761422,-0.49121569200075754,0.950632296849264,-0.7176142588589727,0.3159466400897202,0.49625319987862326,1.3180782170081144,1.132019876397024,-0.865451979852331,-3.578146867225911,-3.067266114403907,0.5988475576544303,1.5264731909559188,2.451902311020895,-0.03555641929520448,0.36756634841000846,0.0167319091092466,0.10507019319240385,0.21805599321969993,0.5273156564837151,-0.1985431444417003,-1.0557931750379197,-2.960553463381302,-2.80342826445321,-2.7613351613428705,-4.672556906600377,-3.5032753946931265,-2.667013615918613,-1.9212539806073963,0.05617248779646644,-0.5745294728446524,0.6103765824986098,0.6012043367863029,0.5209003005340449,0.6396024915676009,2.297725006364878,1.2342978429807374,1.7818323884918712,2.346559085443964,1.8108884251113366,1.1194291745776042,-2.0097602827889745,-2.455519805443437,-1.3200890001352263,-4.045634513739834,-4.4376374198703274,-6.504128214355262,-5.293482246306837,-3.0284099081935523,-1.1680323881410288,0.9598965488368592,0.20285612948833887,-1.3157173447624544,-1.9963253153809433,-4.246220798226943,-1.1544771035879933,0.8547279480786472,1.111380170535469,1.442808483458819,0.3645384111006962,-5.396831310210807,-5.153172563622469,-4.812561772164841,-4.152253202260852,-4.2893835285071376,-3.6387521197885278,-1.6306171982814845,0.8134890932592711,0.9845952126745985,0.988831302545421,2.203891729771364,1.6331717776937964,1.5837320287574528,-0.3717553558928657,-0.7327744973567363,-2.199503098094894,-2.7658856512340932,-3.546824774980493,-2.118732937114835,-0.3479814252281841,-1.0020621757900443,2.1241559609133205,3.1432154764746443,5.545095278796467
inf,9.092410648857355,-7.010107019413683,-4.1915253963245105,13.144290709225782,14.520154939358191,-0.149811054579974,1.694405679723264,-3.04491475456609,-1.8235664125825828,-2.739085369954342,-2.4515676544205576,-0.9914627657060144,-0.9890230016092296,-0.386216924887961,-3.5537475493190627,-2.300168313440196,-1.4098674139489091,0.2547036945911145,-0.4787565223234793,-1.7628673935739556,-0.36306989568853254,2.02770364069341,-1.1242929629707632,-1.341774923478276,-0.817653083021753,-0.08633465859783485,0.024755369307243313,0.010704238789621456,2.677469607125907,1.152798817058482,0.6296684133826744,1.4625058895337943,2.632661747032003,0.020164500241435235,0.8392379805808972,0.5579357830881975,1.6767792941216015,-0.3542669873390949,-0.30292733772727587,-1.2891789169779457,2.2508804576317942,2.1515103984851223,3.10734207877249,2.6788073970243715,2.9417867240064126,2.991572964892711,2.6092334210009227,3.334237546795066,1.8329274071217014,0.17134621641935865,-2.3772144389790597,-4.787264956783716,-5.855950492240673,2.2071553028365543,1.094647993460292,1.3764241183833619,1.5665703512749332,2.4002770108881535,0.08895975282749191,0.09019564108610467,-0.4787125935916663,0.3985287820102954,-0.8252076884550803,0.4122988850461127,1.9892632653371862,1.6109307882492985,2.051862526624184,0.10969972375977477,0.2752771137219199,0.2980106183134055,1.3196507125003833,-0.7515748028675233,-2.8860656038933,-1.332926683241304,1.3930356174012246,3.6842678797038104,4.174184497634904,3.974159432738354,3.6248268544837856,4.273345808421915,5.33886225031948,2.198102589124524,2.3583741537858955,2.4856215978577154,-0.1086240488140362,0.9291757382424422,0.9784189215422785,-0.0919205677358832,0.3623647529888743,1.0600890291185365,-1.2307692861494886,0.9195534803048773,0.9662517573654839,2.1103214733755067,2.1813815731037423,4.659218541389137,2.7568023653565064,2.5094170654836674,1.8991590339783073
inf,12.690376796148504,-3.8481159918139034,-1.2224658537677167,16.16339347062436,8.793483342275952,7.183839468322784,-0.08434354964883539,-0.2718272919982496,-0.15794173265483025,-2.787541747405033,-3.1732966074722952,-0.26834815486958163,0.6804522204601398,-0.7478069672494314,1.7649721928998474,2.591075238628971,2.2576507926933935,1.453263737194419,1.6478978953905212,-2.099000141753791,1.7122854044373526,1.9070106812010152,1.9464503588739817,1.0299535014258083,2.146352737611842,1.4130999822100918,-1.0188856215218607,-0.42515593064298685,-0.40649665027349613,-2.4016668207299148,-2.9481209414647083,1.4280626830979486,1.0159460379325083,0.10897506894161779,1.7939439255013312,2.583495240894635,1.6994183413744395,0.6251362043133781,1.4030691256634142,1.2801818626002444,1.4817333836729745,1.0062206658462642,0.08977674048663431,0.5143727731544487,-0.5802854543890419,-3.37713941456402,-0.5518921005818598,0.679106666767936,1.6002923669148146,0.613202413316273,1.5933811957413155,1.3255536573196522,2.6402289896613595,2.7484499044715065,3.081353288867696,2.8883609872144547,2.952510792476666,3.2683137672733054,0.0025487763260372276,-1.7191510347745051,-1.9080679862228465,-2.400039252025252,-1.5690509487520572,-1.8472403761158773,0.7739066183586019,0.5086550105794032,0.05563040974042366,0.3761936352964952,1.3973120371054222,1.0554590639527106,1.0328301765300765,1.5732093324056748,1.2221202330365202,0.9945207997489831,0.6185920312504507,0.24690156299788413,0.234496625707159,-0.17339466681842453,-0.3916588824751983,-0.6352712249704595,-1.7880137204083084,-0.2414147119445289,2.171146909456219,2.30677520760122,2.7399301310402464,2.5270122896591047,2.775902532214033,0.4100294186935258,-2.0441946418972776,-3.8983190321408614,0.3884018314454991,1.666153480681551,1.209145771900097,1.919819686748724,2.6560307824548417,2.8961073244694475,0.8832749684812597,1.316004530261175,1.5824670786445054
inf,13.078562902654472,-2.5847051094086386,0.20153412149646943,17.50559634972138,17.462210247012298,-4.134435914428355,0.3293628542771465,1.8219459826932187,2.8588486144083625,1.9676775681690373,2.6614477428995187,4.016685087995878,2.965419466086068,1.1662390930399837,0.6860942064710862,0.5487996071306043,0.5614322886483976,-0.8882323252578246,-1.6763270994863007,-1.8390268246500412,-2.157218463605659,1.3853238100424292,1.6871483068284334,0.13353678325713503,-0.42427231024619516,0.7989789582265843,0.5782436003169025,0.3730768882209645,2.054758298133727,1.7202751320380614,-1.5602777528894123,-1.7069872125083307,-0.758537761631807,-4.2024857288623565,-3.5169283442101644,-1.9869483104101135,0.32228939999809825,0.07588764205905107,1.0188213099142303,1.6152567320366842,-0.6884714562433416,-1.872777253223461,-0.8128997406761655,-2.3583882583511766,-2.8926860178072644,-2.236755341285651,-2.1089622779150616,-0.986652154316829,-1.8219881283162707,-1.965350810573284,-1.3294356291253564,-0.5929565854344432,-0.8584773900124105,-1.3096283483779558,0.8465337198174936,1.0821056421820998,0.376089935049599,-0.47948341675029127,-0.6719148820274867,-3.3643760140783527,-1.343437196683496,-2.6472641568714153,-4.207950924441086,-3.7071706146321617,-1.4181873614558214,-3.200430606111482,-1.5751261142056805,-1.2830356168533399,-1.2810604304969004,-1.6669989791705717,-1.6615685302028922,0.4229839962452573,2.9421942937812275,1.576919382438554,0.9882369884533233,2.208913229491337,3.368194113137754,3.4369421677981222,3.6575374164649332,3.962684859853063,4.935307191999463,4.273708701456734,2.99110651281201,1.0781703446633841,0.04699577530055876,-1.9796859386600971,-2.7761072038164656,-2.1264673651812203,-1.266803575155322,-1.362572047916558,0.07623254088409936,0.18283845618026362,0.22140041474454364,2.672135752458658,2.6171450950871034,1.4210219370572403,1.466786633764663,2.1707490934003744,1.8199125796661875
inf,6.598994510294872,-9.412167131645377,-6.6466194573663016,11.000143596631542,9.919826926028334,7.28191553685636,1.7230421399635958,0.8291337922458197,1.7999301226465825,3.352691457190023,4.387145200446849,3.298166584608719,2.9429421198846306,3.357573094662751,3.26846595260767,1.699170274350486,-7.142527502209198,-5.3207238943040025,-2.2766423513024634,-1.4549077965300938,-1.849949573864599,-3.0715501418811755,-3.6341991587107074,-0.3878289494546294,0.14201413487325,0.5292645703633454,0.11769685666853746,0.12945338219849134,0.8980289333116005,1.5608004026272368,0.7265381071275243,-0.360048140500524,-0.3842399840063848,-3.21204572669901,-2.9840193472497347,-1.3320211101026445,0.2930375826974796,2.3761226666686213,4.102744097744512,5.007524128917957,4.750475525692671,4.73771649949596,3.5115659570033912,3.293549673387858,-0.09347998318848028,-0.32063496280661496,0.31926007153044367,-1.915144383271823,-2.119126291586099,-2.5017964322536628,-1.1054858082406511,-1.085060186823,-1.5391678314577604,-1.3269637516221877,-1.8363363059987847,-0.71349077645975,-0.7935786242426843,0.8097638315161362,0.7770081120074437,1.1473078190512638,0.4244395878637306,-0.3671424893614983,-0.27719450315188254,-3.657174568518805,1.2547048634950144,0.9908194376921671,1.6086292269914395,1.1589388978630097,1.5425143896081295,-0.7481978314160642,-0.10943924403264305,-0.16437403337759093,0.4020831062490089,1.1114255102704647,0.543117575769628,-0.931628873541662,-0.1936362676798069,0.6812957425658226,0.14329092863338388,-0.9420854899251978,-2.969942746261907,-2.454513373476587,-1.847536082584675,-0.8226027771997764,-0.42405029573233577,0.49760271549741475,0.9014717864887345,-0.014660287324922194,0.5013967112237836,0.40725382522518316,-0.4393531250881537,-0.11043871541360772,-1.5880427419991463,-2.3784562488246266,-3.9451104740945624,-2.917468501444297,-1.8230324280538923,-2.250136195710027,-2.283087002452028
inf,10.725124179574555,-5.555818930871194,-2.874329675694173,14.745741310580588,15.152120580051772,8.889422428709313,0.09078697990454998,-1.408042796389097,-0.3424424542724225,-1.3287629775294825,-2.7568200569274097,-2.4043801165469425,-0.04153340682240625,-1.085364421184174,0.7017642400445716,2.5923321878232066,2.5223161580201214,2.481926422684815,2.7858325506382755,1.6784296727513777,0.10605640965466279,0.7037034531024062,-2.306613796831158,-4.455837851010777,0.1804418746706915,1.6865859101137701,2.9510987964164315,1.939206624908202,4.268272667414244,2.793946873553523,3.808029619639875,3.9172258333274073,3.3125448896937826,2.5699333489063534,3.5496469275390012,3.2965561372397545,3.4372265977166165,3.1390716353474772,0.12044785447213968,-2.6285798905198376,-1.1830257414247782,0.08797976465547208,1.4311731961900733,1.6842842341582411,1.3953337393776266,1.2885749683983718,1.3646380811935046,1.9100581328640516,-0.5276366813686124,1.2849888446689945,2.465900225403878,0.14374672066504246,1.5645794437554272,-1.063982859125062,0.20906537779407586,1.0241583753368815,1.2255868185229843,0.47687591130815576,3.3717328958826656,3.981336022989737,2.3146280350156516,3.493173191767873,1.683566213584072,-1.6299171495857223,0.1863129588504009,-0.37703444077436643,1.5193914241482886,3.2427181569219385,1.8156628422141452,-1.1481439920741465,-0.5914568703215437,-1.9123108019857469,-4.066355202869893,-1.0363401196973783,0.6085474170521792,2.018150841256052,2.5223955773855877,2.784859996694415,-1.3764355642064174,-1.3675937521857477,-3.073042217296866,-2.43108009753832,-3.1181487003391126,0.6972053648979184,1.0028970469327518,4.18892886832824,4.646772158507339,4.801150936326927,4.47553055860989,2.760238550519901,3.5488208872373193,3.18906135129329,2.4891386417358774,5.380007470818313,3.1943566097932248,5.366574810527453,4.62803626525718,4.001822271819073,2.4450514763310167
inf,1.182646497662411,-14.063878281290714,-11.282300502125484,6.654340286925594,8.21384721760779,0.6577546575599058,0.41065942112112097,0.40341342268222036,-0.48117721958428916,0.9768869639764013,1.7120551299436286,-2.751164115479593,-0.34770379439460086,2.3735390417890905,1.5842833372582916,1.7027846129520583,1.9846846439336865,-0.07637061700557979,0.29123047557168036,-0.7257006450219095,-0.04507844667833183,0.22396999049759359,0.04086376699659411,0.5443102887874218,-0.2688914251279684,-0.1411623665334858,-0.4681882963502062,-1.3005575036519588,-1.265955253352871,-4.250497621781996,-7.079949605707846,-3.5494336657694987,0.8166217381368526,1.8450223774275187,3.2456412316993237,2.9228118675015082,3.063280946854775,-0.9021211265455591,0.1687117704757597,-0.761972872882545,0.7264006966333696,0.8066438024650822,1.288606709612509,3.25171623213501,3.5881258692562525,3.9354415440683894,3.3615022452934156,1.1104193277460368,0.3170159160102415,-2.107167040987676,-1.7688945233535307,-2.1906839973164622,0.541451797952746,-0.1033756320989454,-0.9789241241038837,-1.4396547217137652,-1.566927237473628,-1.9665528706341036,-2.80355599369215,-3.0712915538349037,-0.6291843721758426,1.0091759000818499,0.5638140367473241,1.2696090559965683,0.7200804624893493,0.642046662950456,-0.005412812639391973,0.2025090368219722,1.4393316623176702,2.6970756145135795,1.037571142047156,1.6949330031630154,1.7089466935780067,-0.15342332531539427,-1.313445096927488,-1.7611203625626004,-2.0135380329386123,1.340316575121662,2.283604330670542,3.0797362177887706,4.012708835192974,4.233078289467848,1.2277929044782283,2.1253504646744474,0.9401775676647617,0.6904994461082552,0.7383459907799548,-0.2464622017485283,-2.0038406346085367,0.7028722052967709,0.026674171222843768,0.6966487697106487,0.12858429054787734,0.6495519081855221,2.2809121488555064,1.925275349251713,0.7657168660914948,2.076423437120546,2.595507743103326
inf,6.642492471782919,-10.450126250843896,-7.978511855824883,8.596313957013766,7.705821477658208,3.204136777112417,3.231168089614073,1.7874695458705538,-0.08636590417446754,1.029692454104957,1.746129455819176,2.197502866252915,2.164075629858342,-0.15924479752164444,0.056433398751259745,-0.1623633342811246,-0.8935112025102256,-0.7135507752501269,2.039724531387165,1.881736101308924,2.14258422841759,1.1352010036728686,2.4130532404035634,-0.25935851181851177,0.3031921228102732,1.6191749009255645,1.2034187480375351,0.21199671707469747,0.62928648000603,-0.19953062297281576,-1.727546206314365,-1.9385747603345322,-2.1663674346933774,-1.5563625146233022,-2.368811888344297,-0.4555482402482909,-1.5244092090630303,0.7179498316652371,0.584007158566223,-0.1400353832971959,-1.08873766370656,-0.9736393884139858,-1.2101093659395517,-3.3146352468768754,-1.2798446994434087,-0.8993155618362749,-0.4666653904952085,-1.0070642072186118,0.1814333357430442,-2.134167494600561,-1.2366829634491907,-2.0718995730401417,-0.28063966019825415,1.434385696889514,1.0580041927249724,0.5732675642472245,1.5472309091347682,-1.2333371226144791,-1.5187395159424995,-1.194160439686776,-1.0848002696882304,-0.38195068881068295,-0.87330387337839,-0.2408095536618049,2.46023566574128,3.336773839779326,2.0802661879204436,2.228108571449738,0.6471659914025807,-3.201302075993212,-1.4675735403625296,-1.2214776164711765,-0.23083431281264666,-2.2294748545347502,-0.9185973266561192,-0.6018328255790593,-1.6592679015493559,-1.4179546518950588,-1.2649059656542576,-1.2373411463112163,-3.026422106447974,-2.7020595238916627,-2.5417881887075353,-3.000339005265836,-0.6450032149111209,0.15197543972215755,1.2031243514018968,-1.0615530227794139,-0.9293003425668402,-0.7856355699211406,-0.8763159797527607,-0.7291814420302742,-1.7702034245947118,0.5456519933388506,-0.1985913641712429,0.44352730168509424,0.7226439397855984,0.7773010419751571,0.8186718744068671
inf,2.9706095763610527,-13.005937136216767,-10.075843529233698,7.8411652814817625,8.663200976922361,3.083058533021788,1.2956890664832983,1.3084123599326745,2.49731019423772,1.6601078820655921,1.940700424197047,0.7843857640371894,-2.6347536563835057,-1.3668236772316504,-0.6189646588750506,1.3735787522197143,1.507858428209957,3.12360472490478,3.4419329538070684,3.382244661795255,-0.7993639820706235,-1.2217628494598856,-2.4422257081165384,-1.3857340547145114,-1.1253449630183425,-1.304797955800126,1.0106129999972495,0.8245677043498034,1.43733031577694,1.4175765608078592,1.6496625984321227,1.1893863497449644,0.5017801368212034,-0.04609699063323802,0.05717316504208014,0.7457029504128485,2.59571629237643,1.8731104457364225,2.423662038274408,1.9369554361368557,0.7976696257834206,1.6632999119818876,1.5290213918807751,2.2105214689224866,3.3823587964444854,2.2854702259583206,-0.5431143491147026,-1.5328044701193022,-3.8572322751337893,-3.641618057988289,-2.732671181489252,0.6310086419505154,0.3884235816155197,0.4099893347463137,0.25735088995937616,0.23000288390448986,-0.43056583639639,0.6130662181719941,-1.1289069733902224,-1.382937178975702,-1.3036648233292993,-2.695374363278482,-2.8509823649965895,0.024256075781842412,-0.3183104974872606,0.07728619219041377,-1.0640057171979578,-0.9594224138225727,-2.9329553986586774,-2.9219832143088738,-0.6390625374949508,0.2550942314425413,-0.22379199327917831,-0.9988768347105008,-1.5842870411658225,-3.3186350039200576,-0.09706496569650369,-2.4678145040522566,-1.5946350055792706,0.12143453354703837,0.0033129073091018313,1.1554546930099079,0.6040039091193492,-0.07349509507393037,0.40415053192224804,1.2745356455216097,1.4482418995830528,3.0866161630369646,2.5070337702968146,2.041183637817184,1.1466057099973455,-1.2201074012531308,-3.7289626557844358,-1.7781936823069913,-2.300695430353173,-1.6835753893780279,-1.829726910704231,-0.7195613629238196,-1.2194241743847272
inf,6.897696178075774,-8.24731038570981,-5.332665585426089,12.375773240153233,13.53546063760427,6.343841539795413,4.422059349208585,5.152116689155093,3.949913101764867,5.283846002034014,1.489262087397556,1.3768454149278746,0.2697079488529148,-0.6268498597921095,0.8629981775280449,0.397740329307986,0.4199044251119446,0.36047394579592407,-1.1581803931939234,-0.9535272140537643,0.5649267148917545,2.8739260941365856,1.3316011422012792,0.9094112533772929,-0.5744394668760009,-2.802515772383728,-2.6769899129078993,-2.8369196129245253,-0.6073756396019263,-1.8940809747976601,-1.4512364365603716,-2.302523612677554,-2.4632037115787924,-4.143873725219066,-0.14674570575751034,0.8419805678838443,0.9648682469842171,1.0078904870624328,1.8632789596105184,-0.7894247724764725,-0.42625422105407296,-0.6307703429795026,-3.7592554581633735,-0.6134392389770653,-0.2526440209787353,0.3518691639803819,0.0454130035831426,-0.12233810526295485,-2.4352960868410776,0.08290515744339189,0.37225999169097435,0.29355303614116224,-0.7234731078203893,-2.4445205681060216,-1.5114322612072115,-3.4680240282690633,-5.3896193068325715,-2.8068672916425044,-3.2241527857880428,3.035607801726769,2.3206514981566855,2.213823722647419,3.092488703135743,3.1421884176287307,-2.110129817477123,-1.447892970908633,-1.3271227826417658,-3.379878744406696,-2.7451982414278717,-2.2598322271980393,1.5526737241846433,1.8428283088614137,2.460725498888195,2.938929250202584,2.881226485632908,-2.198754076660535,-2.999600775398683,-0.2637625816975486,0.5137516482143027,-0.9598479061875835,0.054698395708932424,1.3407950150525636,0.7299607464093825,1.2819345505677902,1.6803857025644433,0.36712759625101654,0.36180618400329223,1.1993951768854032,1.4666307312259121,1.3177861033585003,3.094801877980501,2.809985917956638,0.17463479068455,-1.0899113831072356,-0.3708512037371108,-1.988391953324225,1.243147927253169,-0.6032581661238581,-0.18373478430667944
inf,10.274503707133654,-6.16952190303023,-3.316071960338781,14.166365501817454,11.705192691111971,3.934773369106807,0.6308737474670707,0.03353897150303453,-0.21657365810560236,0.7569752327351615,-2.010833122596715,-7.086089176433209,-1.99787159796389,-0.5208782444271378,-0.30316140071152375,-0.4080599896068122,-0.18069562421354846,-2.096268305402269,-2.787272920356912,-2.267636504456604,-1.1009395181518755,2.42962193055385,2.5498168366303773,1.7016872941030954,2.5027966577462664,1.1555853642009737,2.323042057978199,1.36847393913542,1.6767933406792679,0.5271079509001595,1.2605140631104277,-2.3030737691993934,-2.7385311783975297,-1.487201785258783,0.26407121908496833,0.7914411241708592,1.4767697455899338,1.7468060270976267,0.5660566996906269,0.6856580925911686,-0.0301607183299879,-3.001576670090941,-2.7612431061890774,-1.9865197820197338,-0.8634220926813541,-2.4760894503176303,-1.8085353090410479,-1.1930951319170688,-0.783076759080295,-1.1875670324319003,-0.5083071904778009,0.6520409101947919,0.25230498150978065,0.8284715966708447,0.15553068718769936,1.9183478992841145,2.644024570032819,-1.5207593972983489,-0.47529741983567675,0.9048301160498653,-2.1404719384596405,-1.8653240702516243,-2.664467337362055,-2.2590222500928547,-2.9667673292354237,-0.7159052689136232,-0.07926012884075817,-0.041602577997501555,0.5351086862257048,0.6208034360172903,0.898312290163318,1.5702813613133983,0.04385048931767699,-0.014393387162378701,0.5669072144975758,-0.2540068919422609,-2.2883853881635403,0.12297410687300214,-0.1452733705793392,0.32781254641102464,-0.5334087248150965,-0.1931720003296249,-0.07318627372813324,-0.7785405136902526,1.5670804082904937,1.8548184182295344,1.7425692972587186,1.739098187505462,0.9701024258738329,1.7283018058222055,0.5333943051823695,-0.3515142757119918,-0.3653158182638947,-2.4740306446803757,-5.46431688157363,-4.003552811929481,-1.4270644997979431,2.6438936223050646,4.299698665679784
inf,12.131409597259179,-3.4515326362322702,-0.6658142897078339,16.942473899739277,14.84816797971624,6.182926472393824,3.1155817803886983,2.891338897300109,3.3839451525837596,3.9780663414508837,3.413305422076185,2.9939148552122603,3.327640393734498,2.686228638395651,1.3855601318640787,2.49846570031486,-0.381826558837588,0.3437683031486287,2.2234573722776574,0.31033273834042774,1.8084538826244838,0.1637679335263158,1.2560700612933076,2.1828734315926326,1.3563998934677244,0.8785954290874685,1.123117543689915,1.7118590672899785,0.5507315186999406,1.7671623715432432,2.5797045858592256,1.735608853452817,0.8889969071433725,1.1887211424019668,1.324290086528869,2.6528122685848174,0.9012093647644477,-0.04509992825713027,2.2498493862150966,2.3247496723395358,0.961131415923056,2.2527631146283653,2.552121602332754,2.834789417733397,2.369780041804809,2.569618299226221,2.0989750548744652,0.37441595025535435,1.1428858506780557,-0.6802456254592997,1.9153644764749131,1.7510935524131028,2.7773118221974897,3.997164394828438,5.121832920882142,5.193780922339933,4.38334963891063,2.994327054937706,0.7950615914351005,2.232022541147579,-0.5648036697963192,0.10175752159558726,0.14557661176473147,-0.13994747504893468,1.2005282913483342,3.6197271667914492,3.3472124627449418,2.859409359299491,0.9910325215536986,0.7204478064110376,2.592903129970935,3.8258391230333473,3.6740278689941235,4.270236522425499,4.0263693517274675,3.733592630961205,4.628351170088926,4.686004065613922,4.51709758186162,4.310595867099856,3.4694822103108223,3.9566124409876906,1.9189258321460585,1.7733609489678486,2.4081013152328765,-0.1753777273388053,2.1053937875944584,1.5282184850733103,4.535923096612436,4.717457147566421,3.6279139926962145,5.427801767256284,5.627790743882912,5.156161012013122,5.072813816911449,5.846597013556071,3.1543204751587837,3.9524296389506333,5.036978442593949
inf,8.950691580216255,-7.639256399629533,-4.905283506937503,12.834108234892835,10.982466897167207,5.442634279578826,2.4273665274345824,2.5745741211889843,3.2883783747401516,2.9330506374687673,1.9680070973373596,0.8811154198229616,-0.8921781626700529,-0.8328884472632865,-1.907831750791857,-1.0398297876483866,2.4846702142033337,2.8087822336632904,3.813058110282139,3.6559786767662565,4.202115229073232,0.4692943990436902,-0.4206999560474287,-0.07934685937541985,-2.7065919484812326,-2.8156056258803304,-2.8890436183097847,-3.306514661767558,-3.595046989465679,-1.7644753382660099,-2.315947167159983,-1.5918098869666863,-1.649517565481311,-0.4181848184018975,-0.6918815235877034,-0.4250706309752985,-0.05612646516571829,-0.4402009052803777,0.10934329452209823,-0.9848124829506588,-3.1514991879199243,-2.9312489125091687,-3.4395204086423874,-3.614793089721715,-3.261284877631418,-3.299037648091307,-2.986300831169622,-1.6531670987606475,-1.4859154537692945,-0.9245571509056134,0.6090973417422916,1.438412768824712,-0.41584901607519953,0.5548443558937066,0.9304923488484533,0.2932170186388987,0.2754196210832731,-0.41995076868263936,-0.12668928039744998,0.824367527827178,-4.7668664388011805,-2.7750236307320293,-1.787133912505098,-1.5173179171007547,-0.06786829158885155,1.2616083708447121,1.5949820579564715,1.5181695721847959,0.20114068013457143,0.37869067997100103,0.4674459371025961,-1.8527176962624807,-3.5128555765646183,-1.4568647748347416,-1.5664182046556334,-1.3343167893844239,1.1075544808605144,1.2830782425830662,1.7829512704757988,1.8289347149266746,2.3902126181757524,0.573465332683547,-0.9110793559235191,-0.23128214846544637,-0.792413997838544,-1.160498477271105,-2.202281663387083,0.46618398754804957,1.0320801499492092,0.35973012165839435,0.7764776268806415,1.1295183087909777,1.4038797330714914,0.8372646777741224,0.7471273490621542,0.05376811368149248,1.134715718335137,0.3593487021565309,-1.1555475846608658
inf,10.532733021931252,-5.096962122566348,-2.1377538298888803,15.153893337251928,14.058167162043132,0.48173210250913456,-1.3125518600624808,-4.7068764025672465,-3.3247809039263707,-3.8211200321341714,0.1096004876833021,-1.9343629503211623,2.371447874705648,2.4320132883321364,1.819142568425221,0.6255012676851095,0.598010455298791,0.0860387700176446,1.3356068322592876,0.05607671162382388,2.3633261146514926,2.157242582459226,1.9524665455856791,1.8126240859889577,2.6736626518407363,1.008002304241728,1.1920280767196516,0.2750833834078392,1.1748489152721433,1.5415384553794382,0.7001486765460214,0.11375164366497614,-0.25229524204327447,-0.11810923994301703,-2.127812680798897,-2.1057019544629725,-1.109590632378584,-0.615042955686107,2.680016649643015,2.5245473757682433,2.9735757138920036,2.880289937780887,3.516220148164436,-0.1978718934130228,-1.1385176900719998,-4.010252243083293,-1.156582578775108,-1.3730290801434393,-1.229634234284866,-1.2104237309049495,0.6009190811200682,-1.6211069426878382,-1.0389022381259423,-1.3767271808072223,-2.142203424720421,-7.354288570910015,-7.640726652186352,-4.661070632235052,-2.287189761252506,-1.088334699894709,1.2982454017224256,1.1915278818023651,1.2107561349780553,0.5263134890560437,1.4994259145292403,1.5470141414870184,2.5251673867213356,0.9343142073220321,1.391856250987793,1.146228813109424,0.856818344474874,1.7036808036992994,-1.6152516278886608,0.1656343130912532,0.054677543975635956,-0.22748074564360365,-0.18579530698703195,-0.19094660278583575,0.11124987340112114,-0.5765382498903264,-0.8467182195088299,1.65459814093618,2.5823813561547126,2.3409710857701285,3.1077428708134605,1.9622964996313144,0.419882039309897,-2.1539060309318856,-2.352024431065942,-0.41112117494756717,0.19309834197093068,1.7601280123426477,-0.15094274491856652,1.8249004618221036,1.0183929966096201,1.0251771665007539,0.6867434829447916,0.788672728057179,1.3933464759324536
inf,7.758385748629053,-7.74290842010776,-5.013219255478618,12.412944994139483,13.568589413697325,2.8706515916480377,-0.18583961730506715,1.6939464028803854,3.2295768431522482,3.0298052792468866,2.1436850400782355,2.9422251419239203,2.382905921058807,2.290336685996884,0.022291781028279445,0.08116526078897124,1.516213997043053,1.952248228454181,-2.0243778576334037,0.7321443968817505,1.1122828310956763,1.712093231303875,2.197095931980904,2.9195633606425133,2.2820754322857155,2.829424493109009,0.9200634611922069,3.029207680075551,1.6209900196420506,2.488253676639374,2.8117681189621777,4.208556608728728,2.1316096725813054,1.6211477143293962,2.6641879756236833,3.1279644687588757,1.1480004995909,1.8307076585580404,1.02021805689607,-0.30909096723055995,0.5849933125350404,2.046864412436527,1.2548366866826584,1.539637923675997,1.0389641616798997,2.400780060256402,2.1566209113679875,3.825509925420832,0.8331196256688642,-0.2395805678623617,0.7361895090992263,1.760172426644104,0.901524216081711,2.613956125153578,2.5462647729710994,1.553773827206797,3.198654551432,3.8020483362107527,3.800543479700252,3.4101870275626354,2.0550937453801623,0.29066653828949995,0.8762770269044111,3.624113066039193,4.9998347106811565,4.827250207207328,2.926197088365228,1.758873985524957,-3.210513394876621,1.2697368232043473,0.7097321434604211,1.9888761504992445,1.0032915315382809,3.0553089517512504,0.6307778339155945,3.6496736756240153,4.420441371977553,7.422185623766133,5.404197481231783,5.427784690512048,3.9749347320693715,1.9721530048728724,-0.0862696137742418,1.9862637211441765,1.5322809060415565,1.6772052462569889,1.9417207358011837,1.7707996605625027,2.9094751379268615,2.082473308594139,2.8128385178796336,0.49032971068152875,2.0713956241763114,0.5043986725991161,3.7877600250765937,3.8858145524922563,3.1974861328996553,5.67903211340623,5.463198934653839
inf,10.197971827425647,-6.276038978434167,-3.4246410682500334,13.595061896187524,14.848262479937802,2.6221814456082804,0.5611448092858708,0.951698802828524,-2.192642547053456,-1.5058240019061735,0.2530772314221217,1.6870255065353916,1.8311798653774183,-1.6153423287018285,-0.06060423776218471,1.4926092151040393,0.7530822056376252,2.4621358181900845,2.2106058654716634,3.013027419976183,3.5079028351880197,-2.521631052919304,-4.216467508545108,-1.8124833425587639,-1.0153948840242109,-0.1384282452430341,-1.3658437718152499,-1.1814103402486467,-1.4271671281576417,1.771682314942197,0.9046207972282119,1.3383053775777398,1.4261268263680194,1.8602769929161198,1.280848183520824,0.2971630882399765,-0.6120720319164761,0.33918275604266057,0.01134298964041136,-0.3251452953395244,-4.583164872970649,-3.1903678037109415,-3.1313914527311724,-4.650983362124563,-3.2620594981792834,-0.9855257773989976,-1.300515693241806,-1.4552131345151125,-1.1597324919561984,-2.0181736237407293,-1.6955289978118273,-2.0225715769980113,-3.0998841510417776,-2.595742652158009,-4.393757406510048,-4.737133125288338,-4.330222809791174,-5.110230990977307,-3.235546298838294,-3.2292365997298447,-1.63919680825164,-0.15769955302744165,1.3948452325060927,2.0447741497551135,0.8021776538813086,1.596472991857361,1.088233069254727,0.9861574583011006,-0.1731891704980555,-1.2047068901416011,-0.7712822165847868,-0.6268568278238078,-2.9045270001217105,-4.2439068381978515,-2.515945494402473,-1.2281744778868884,-0.6286774085469844,-0.5802710670287397,1.3374449177240137,-1.9224297401540795,-2.452602431483591,-1.4911759598772036,0.5186109674723838,-0.6879017401763647,0.34105265471909263,1.1460158179833755,0.28228728578393003,-1.0771597793657435,-2.0737173492204093,-1.3942323449119698,-0.37888288112812774,0.26940662426649453,-0.37244927803566696,-0.3859037778607757,1.949148926862918,1.5697452852576816,2.2229198838937165,1.913384632433015,2.4011689463181938
inf,4.798822853838686,-11.55516894366424,-8.762618270397073,8.769416008367314,8.552450405340576,0.35416476763336746,-0.46555930131899004,-2.7430699043236615,-3.0277437878428977,-2.2849662698172146,-1.7590872135115383,-2.0107652261882656,-0.8139435349069082,0.40771663598653163,1.9876643940593084,1.4032364085536955,2.2898709690054204,0.7151477232479309,1.2873069048403138,2.126833291753897,3.567164956909334,2.9051634643433317,3.394303877972831,3.118567947921207,3.6815971753420698,3.818443286111062,2.146856890204333,1.8637099722710957,-0.2746940362925514,-0.4995340617981725,0.2881016312005258,-0.4527982511580859,0.15230641682995127,2.16272268680045,4.976364930603538,3.707891826819278,3.4432921717672116,4.065675360550358,1.4844641274527177,-0.054141780884002344,-1.396297007499804,-1.467999633995781,-1.9735934187799273,-2.713074511193689,1.2568853466075112,1.8618092330758955,1.3978187983356136,0.6074489521851518,1.0524592036995841,-2.0911867815646374,-2.9076153838236465,-2.694081504920838,-3.190777985277144,-2.3917161179083095,-2.029317860116798,-3.626255766032287,-2.1856720274015657,-0.9014974356637993,-3.5675669026376085,-2.868524013375648,-1.911302744093888,-3.6608741447129276,-1.9466485321921496,-1.296874931224913,0.43864910914165733,0.19343284337142563,0.8087788597649279,-1.442301547496129,-0.48112521054736135,1.0467695298438429,1.3750100789040403,1.3594425041442975,0.7111901127229387,-0.07412971418401071,-2.848258247146063,0.24847777943090676,0.09389297656804985,-0.6422976737807247,2.398034899830847,0.7312516968017633,0.1222027086459434,0.3018133385230968,0.6912404023484768,0.7009816670151494,1.7371287840862308,1.2994013830709008,2.0209314320368392,1.9915862295426479,0.33859567775624555,-1.1277915061965587,-0.20884616378792487,-1.1667549877518084,-0.4342334109316539,0.16064736257921908,0.9306676758834698,1.9871255369583665,1.5941575998308082,1.850512747244963,1.5101601108139846
inf,13.24682406180833,-2.7767198250906104,-0.1711590711546922,17.426398249820522,16.93515039594791,6.003215270825688,2.083785593559192,2.1776172091269324,2.7106747776144857,3.1262347356118987,2.3573005368820574,3.4554680328306873,0.8961529659414005,2.3107745020633317,2.5839541559216883,1.26009870632096,0.3095353137834209,1.2832757969328767,-6.1621249646276155,-4.031145855717931,-4.381435890734217,-2.5646952199824327,-1.6283535911913987,-1.5907607621035638,-1.1583312689131091,-3.342522271076234,-5.41098795026322,-5.231733401941391,-2.416675376420571,0.28104364779098034,-0.9492750880563108,0.2684675951891151,-0.25900676445597526,0.867995178331654,-1.7662509291612025,-1.4058954547397846,1.0166322835282386,4.728140989828667,4.320378337555894,2.514954968842197,1.9588454546936518,1.2931163319176804,1.3665943066502564,-0.36897352534438,-0.5001635486568645,-0.6443808637614055,-0.4820438124609936,1.166516806036995,-2.051098871945463,-3.1303635195691726,-2.1143200659435593,0.44877561958337964,2.2855364018392237,2.8539309462692373,2.423699931220561,2.6210550597119564,2.5978641291076485,3.5164409329915145,-0.5435023456094186,-0.6133062181337579,-0.3301208249639913,0.5097574857378717,-1.9604094575648219,-3.0650478779064017,-4.143517516064136,-2.3523040732509486,-0.3954624466965484,-1.4316255116052403,-0.09792192542203537,-0.8862944163962325,0.9152096643123357,0.4125884016836352,-1.27425419625213,-0.5165259550982029,-0.187523822009112,0.7928920140864264,2.112759483551777,2.3512896272864623,3.471152163913203,4.943987762094643,1.7620861970572648,0.6522139887385165,2.5728156488393523,3.4167267739837612,2.8739625995083102,2.092039546873643,2.2241813450946992,2.330952576331903,2.5268155558795016,1.7016622819873533,0.056000466177302144,1.4778166698715864,1.4477437344386317,2.3619934825730198,4.891987510438149,4.513190376116853,3.2539419980564546,2.567790574800938,-0.8784667929227865
inf,7.754425707109508,-7.577977855703972,-4.710736660800909,12.79428947065,11.014643616137658,6.73467967114701,3.059612620831224,1.8875122383501548,2.9757113477868344,1.7224397947298087,1.6821548820457686,1.7566734302257245,1.2738025966473963,1.6006660422601122,1.9105332053060557,2.57562180101894,1.4207441920051451,2.00677239895127,1.9904993832337325,1.2722322658351644,-2.23024071695729,-2.2716584513431357,-4.38620164121572,-2.5194273906743945,-5.006459631929069,-1.9815250432454192,-0.6153230994130467,-0.4461208891026587,-2.5467853301521117,1.1744008343572219,-1.6937727573577703,-0.500282727501876,0.8892404405879404,0.1211627895046874,-0.2690146738598358,-2.4088794373077036,-3.0731152064992315,0.40346250967522224,0.7011602069931158,3.9693065847016413,3.9893548035456448,3.9822527462586947,1.396385224075523,2.300163012849076,-1.8229045025981492,-0.03254706772240468,-2.241843648596479,-1.974758200356817,-0.7143456126307299,0.6122302496547078,1.9979577117625738,1.8126222282462479,2.2858363320366095,4.425570625905152,3.1164600179975466,1.163568207361621,1.1138914293307423,-1.5592499320790765,0.6645793685731647,0.64080263318764,1.7129401832097955,2.0944286444833153,4.066628695844251,4.049147519015904,3.195604302400554,3.8169270202564576,4.020185233304204,3.443770079910358,0.05698683787505132,1.2661188450023175,0.6653045638711106,0.8102038554276731,-1.524209414673706,3.1830277526348425,2.3489434557688185,2.2011306721365145,2.4821492507840333,2.120749695818759,0.05122784281742554,-2.534018060226508,0.749099172575562,-0.2425260630544912,1.137787146927046,1.4953425064328698,0.7245676541127466,-2.4003349934526454,-1.24553541917399,0.2487168033951832,0.7508809018463722,1.5535058253431444,3.3125973559336686,2.5081943322373093,2.3729456303382364,-0.1871354360035724,0.04913407749235432,-2.1975848662742976,-1.78886773419066,-1.2223487187565567,-0.4376182407516893
inf,7.567434221279621,-9.475841300676512,-6.58155975948013,10.903036376870112,8.214347500542415,2.120720069717084,0.8977976550561628,0.3683520402796461,0.21715470971779638,-0.9747708605358447,-2.9407091607795195,-2.7069503260400687,-0.6355715663806727,-0.3588444802398314,-0.7753130137490487,-0.8627676708650185,0.09082942954786688,-0.2272721801498392,-1.187652062485327,-2.030924024916537,-0.5999683287815145,-0.9288619752572274,-3.2419068924995003,-2.460344208472442,-1.6710846079954322,-2.8898468863559046,-0.8395546832048524,-0.9268195382993056,-0.8807406936189324,0.32873435190028744,0.32029896186781315,0.583066224344968,0.4113147367162,0.8929511751232084,1.8712019357548044,0.8328695463927929,0.12518326818951664,0.34206324206471805,-1.3491722623266824,-0.18320375641178543,-1.0032359931129307,-0.1729958314283806,0.5256049988326694,-0.33479212176270323,-0.5763873007702074,0.22679822381838477,1.5034253781018734,0.3674338538513169,0.7038078219751966,1.32853584040609,1.2347472893293059,-0.3274116265925855,-1.5300820138613886,-1.7185085052132294,-4.13814887959915,-2.830164052529149,-2.4102930808450935,-0.9544797742147324,-0.1827401884254698,0.8122713299950632,0.9724074797172406,0.4330296783566894,-0.5979923525879585,0.16555732771960407,-0.9168321239888684,-1.7364171443551726,-0.6571681963836795,-0.21898799563280846,-1.330004671069382,-2.694911916748289,-4.165727587580669,-4.868846935580159,-2.029367199692274,1.494275497250662,1.540424555271116,2.5807510330629597,3.115429015868415,2.729238398819966,1.72155076380011,-0.3170735755097027,-1.7604375854161916,-1.8301082843425647,-0.002773947204985916,-0.2997385626384954,-0.0014797856560377909,0.24035386429505934,-0.44004759050512376,-2.000969828795661,-2.509701838595589,-2.572571724221824,-2.644799175885616,-2.995493161507035,-1.9487311522821287,-1.5970194146413377,-1.8764756940621083,-1.5620747266280546,-1.8396273507094634,-3.876532433013331,-3.7386306249584607
inf,7.072812146372611,-8.893062818334922,-6.2418669806731915,10.973347319468411,10.253545420416168,2.8918205941898485,0.018233390945493255,0.4017360459368007,1.5023127233070248,-1.5189514028506501,0.47281946347623816,0.7302095320407851,-0.6297409295018177,-0.4766514831145372,0.9101989178714014,-2.4614920387771733,-1.7313103304415378,-0.9452358227061808,-0.5445453888354166,-1.2868451831282712,0.43583264287672563,0.6812169034033104,-1.324515949187763,-0.8506499903086393,0.3973788050805851,-2.3778561997286047,-1.1172429507872792,-0.43892134366925006,1.313425536866795,2.697441408767901,3.1799655676122356,0.9622349970446109,0.9901593806352622,-1.7874192053888365,-1.470536859748357,-3.0300743961186285,0.3021902591580954,0.45836761999223796,0.7939791914089511,0.7837333429031546,2.4350266802291785,-0.6538692687209391,-0.14388607558269229,-0.06566173750412929,-1.3060514921612167,-1.458341002752391,0.19527372521205422,1.070968864941328,0.9870389406844424,-0.7567495333535206,1.2690013166994873,2.801155981355201,2.557137493628076,1.1376860994954754,2.8074088567967195,1.4271759330273852,-0.9193072147753512,1.2307797007627883,1.5849653487043796,1.584157258499559,3.0486216156151187,2.0630577501646385,1.1604043123368513,3.1988558315716134,2.6690081771283403,2.4622450872786175,2.8907062428876316,2.4570603808863254,1.2489516017078586,3.201128980594696,2.6620601433246307,2.5590625281066224,0.38522116840808707,-0.010416692490743173,-0.6787194557236802,1.4278562081581043,-0.2605386241085199,0.44788913642062766,-0.3206568865107329,0.5080937076673422,0.5443869148774141,0.41188949933366104,0.32187609901527736,0.2878430156845937,0.7582066420105775,0.4137064218475146,0.3540199517830658,1.3009632150920396,0.04185361648424646,-3.2272064261423594,-2.707557793856161,-0.26641733763523945,1.0506198970087297,2.6855506569881413,1.8534556186282884,1.2755893506755882,-2.8160898667149397,-0.22133077323709927,0.4931343014006586
inf,4.89202001633101,-11.050552802313636,-8.48375490318395,8.922365203601673,7.282562148752241,7.258136578172454,-0.25692460176268384,0.7043007633313287,-0.33742355066363316,-0.8965451501679276,-0.6677287679153565,1.1770220917392429,0.7361022438165357,0.1275243561206736,-0.407721361219771,2.048812970593154,-3.6838241739533544,-3.2569343179472128,-3.3282661295309524,-0.6224620440312378,-1.5960386781834757,-0.1790711295055658,-0.02588913775664281,-0.4889413370534186,-0.2274914585101726,-1.4050105554136039,-1.830634634008554,-1.3113772830003327,-1.6116927205403186,-0.21833813891031895,-0.005247974716375836,-0.7896315840428514,-1.4035539054336041,-0.8833323960992914,-0.41003289978890933,-0.5064738943244294,-0.4888951643042674,-1.3637213509732007,-0.23258901603087878,-2.8533063400353242,-6.171413331909072,-2.0828245483736865,-0.22202283526326738,-0.4344210826661197,0.7735534935455917,1.00185677488804,0.16574765770764088,-0.5190702540273975,-1.4102005551860302,-1.7419781487878794,-0.9305715419215161,-1.6643116168412178,0.14261904148662552,-0.6870318162572104,-0.3985008830738792,-0.9052848047807132,-2.0470924365279757,-1.8422702184181219,-3.1891463776921043,-1.6317558945164734,-1.8646345613916395,-1.088296695951236,0.31184836144993966,0.7060914164540648,-0.1425201069911708,-0.4004078859278053,0.8371206278922969,-0.1331245013801805,3.709642367913972,3.78255876640457,3.5681361643247413,3.3805660352818165,2.463115964281485,0.10595350578866203,-1.3641823386736647,-1.9622461208126438,-1.5574103492298335,0.2640560494339823,1.2006072257644362,0.11304995198143075,1.0315090421831314,1.0882602269562511,1.6062468349414587,1.4813813868576773,2.16952660001008,4.035703117284356,0.9111628128293816,1.5959598446877479,2.1753189756881426,0.7993118427366213,1.5979847389027526,1.3833295325776902,0.9791947478040797,0.22586819139233683,-0.5331558870272488,1.283896851908871,1.8203086075122599,1.722319093906016,2.254140816793857
inf,5.332870263355119,-12.710226947126214,-9.808044003234006,6.998183267053337,3.3519662088694204,2.2262179247002543,2.711689861626219,2.1664860580207197,0.6056064028356225,0.2578607635233432,-0.6626040068563093,0.41452420707418014,0.14333846142676876,-1.0726614036814581,-2.274654834440639,-0.6497366519038152,-1.6937554413510796,-0.3613233063960877,-2.4485382891925553,-0.20512914568085705,-0.8131612936672425,0.4502608429369275,1.065026886704345,1.7050476305158213,1.6063851035417258,1.3386696559979043,1.1412712676869177,1.4494149112377315,-0.612064581258565,-0.15842803898223679,-1.5814715502314556,-1.9837525888802148,0.17782775546165652,-0.3806437058225711,-0.5011756989596989,0.9904636086663956,1.9360467144052507,2.004642177049824,0.07379405946075934,-1.2966174840232227,-2.4648153233028367,-2.5793155069244733,-4.012270748119754,-5.622011080721315,-1.2647583021913391,0.05167148750566497,0.525050630637736,0.38133599085179526,0.557224250861367,0.3413025719692442,-6.368490358436276,-0.46618651278785705,-0.932126920163526,-0.49452191590956573,-0.30393316931912295,0.7388943742898064,-0.81502179119434,-0.7886465631186326,-0.5077941816893841,0.8877305232682318,0.21207555365048592,0.549553604277186,1.1019548752336092,1.4860174629775358,0.9790451696865432,-0.42253809304052226,-0.8520528888390047,-1.5553391630964057,-7.356857168146284,-6.387018507820599,-6.218924488621859,-4.81724901541363,-3.546906328043697,-1.2870159150959353,-0.6618213513439315,-0.5560243829716782,0.4272549717102123,0.7784465703541414,-3.4844843331552866,-2.4940979412668014,-0.8776694093110535,-0.8619193526864279,-1.4535250745783301,-0.12658563517268107,0.7712011335302336,-0.44640947224352345,-0.35931509267471284,0.5659973545660222,2.189567546065568,1.9533525506135874,2.836244226077717,2.7724997948152676,2.4036010836014725,1.7546023362746226,-0.5222337871429517,-0.23206359363163642,-1.0383994856266838,-1.1490320381171841,-2.9439342162354194
inf,12.43706105187324,-3.235284076364349,-0.4354020780998251,16.77217413921899,17.933023933231294,0.615645287507828,0.7439330621948876,0.6135489997436778,0.8606798731836598,-0.18661722444321427,-1.7438803435471613,-1.3414841543657197,0.5236427544052482,-0.7745290104947244,-5.41771251194767,-3.7311745339412496,-2.5571388977731146,-5.90442406326347,-0.5921638916995775,-0.06631349283408383,-1.0586216750039483,0.11990567492693316,-0.006906621230641008,-1.8729374634098122,-3.5283051797732625,-1.2140474476051395,-1.8069244838583671,0.2921302865971498,0.43799165080047686,1.6329993240177743,0.13638684925202682,0.8074834028973541,0.37992435607949915,-0.4616857661648126,1.2682894093199977,0.9897972656852119,1.5989525334227253,1.269778762712214,0.9880529684492387,-0.03000746246297581,-2.0167169314126667,0.07348209003160378,-1.2686384311331764,-2.61906535343671,-2.1324257188607945,-0.640878173491906,-5.5470397012842625,-1.3053910453846882,-0.863964403017377,-1.170195380556585,-0.9059745975702285,1.9386444650483057,1.541925993533198,1.4045748500494,2.2087408693549193,1.2214083366280306,-6.101777064678757,-6.230358944340381,-4.039991435855654,-4.955886784034369,-2.6230320025993024,-0.024106874030380254,-0.1703093245767846,0.15413045340010711,0.900315814396059,-1.3505697695255492,-1.8511699292298047,-0.1428158389081844,-0.1290482722703885,0.1647061478488112,1.2077582412931278,0.5471590417520815,0.5741793978417249,0.6847809160982052,-2.6645193699137693,-2.7125602207357673,-2.236271719414553,-4.735363469783536,-1.1707594167381785,0.6955721594848612,1.0612112510927005,0.9680383279197642,0.9892533626578555,-0.2458181150487988,-0.7121490997721409,1.3724386364877503,0.07995773240563864,-1.1787422363147328,1.2753628228504823,3.3505628903393756,1.090423023369695,2.188713960770933,2.7636224564326,-0.27455943129182714,1.576251655326189,2.9375669772798716,2.0199033696412982,1.0687325384425037,1.3954683019093466
inf,1.9504789594079686,-13.866166408144634,-10.931586127155239,6.382027843760149,4.918845494518557,3.8185231713699928,0.6496329294177094,1.7604786728177295,-0.9997092826061547,0.8151160850640089,2.0944620778719276,2.7883918963470684,1.9941830742752202,2.157947026063219,-0.04677016963248093,-0.051107167744312676,0.8976284479819086,-1.6647839639424689,-0.10428309324372975,-0.10029427169649097,0.09314386345606351,2.4125794864730423,1.735711263037821,2.0833815847168395,2.1975770353634303,2.772720169764959,2.4086433581612,-1.340272860488625,-1.8832242760255937,-3.097460055477441,-1.9184174034268366,-2.3432856785334835,-0.8410558771296976,0.8155429667586702,1.4827377503877273,-0.03992489284751599,1.4022034762477773,0.6161535207014452,-2.659509452164812,-0.5648932204967849,1.4216893971583815,2.5125473883669045,2.7462941628343387,3.198023476998614,3.2540465068731237,2.3480736709684535,-1.7023077940034383,-1.261356407536951,-0.4199151071705103,-0.20451728786187573,-1.2055994501725138,-0.03036523557865678,1.2131462477323467,2.0831658312795938,0.7705527768857436,1.3416393740690324,2.173533688935585,-0.44954258763386434,-0.8624283655563332,-2.98785645369243,-1.5612758180795723,-1.3266133615101197,-2.889402042205255,-2.4580431748725218,-1.1494482253933285,-2.2302869685264284,0.3893347436100356,-0.527322443618317,0.057533906886895636,1.7962534835570665,1.2746107505292557,-0.7896770705195166,0.7638485046182169,0.4703508617704273,0.13662999313570623,1.7846710145907991,0.3886530482250663,0.25932775133792063,1.2860842088722961,0.04743968040144608,1.717674908999193,0.7225319067648996,1.9514824975135099,2.587916393635034,3.1027276791066924,3.2340306860265216,1.5508877694633227,1.2650536710822493,-0.09528665581149198,0.9231963144308395,1.6805393489932428,1.3299622901928814,2.7208570603111966,3.457736069126341,4.529181343133416,2.4266253514026204,2.607865056413594,1.389086748548415,2.354937979884369
inf,13.681402877455985,-1.9452788493254753,0.9448889148485642,18.183934355867827,17.839459231336434,5.34557184806971,3.1824622172121977,2.630881976742934,4.344437548949461,4.472259521138646,0.06192396280395229,1.7918760953072272,2.628650581922326,1.359492995462979,2.00083217857426,2.651115059221482,2.2647167893054423,0.826378224238951,3.046513746241029,1.8608965112954579,3.8944587833412783,4.051632039349528,3.9683174333340077,2.9740153838368784,3.207499842240793,0.8998121437256472,0.9943307200277971,2.422905802975734,3.063195014368887,3.2317350616162415,3.253445504476133,1.7931013843903543,1.2326970444981455,1.1210217835326617,1.5737644583603938,0.805214146743225,2.594543613200379,1.7027808143761547,1.6413143435760915,1.3927897029791012,2.516239685770813,1.4941865709504256,1.7427332018299708,2.2716397489075817,4.764281130479219,2.7125162559577447,3.5920403559307985,2.5691708312801893,1.9066701122802527,-0.5924671957571661,-0.13854236580328916,0.6574811493506942,2.6319859094567732,2.5866151201347307,1.8048214641282172,1.1213391477337638,-0.6629762282652152,-1.5702709218161317,-3.0875408998781992,-0.3081331242162335,0.9148555662915996,1.9642324661327493,1.0741212364324326,3.602567261862667,1.5317606354641669,0.4187071887621414,0.6260959744789218,1.5356223170381114,-1.8475350718531942,-0.20726020467304096,-0.6428959533039915,1.51937106640694,0.35123964625620374,0.16470847883564232,1.5956977022601748,2.5600109022228708,-0.39071393373493635,0.09424680134182495,-1.7594746925852576,-2.843758876105646,1.4658425380572524,3.3835174781113935,3.0746532117191165,3.5690991038947644,3.920334491036357,-0.6367454075018415,-0.35878549871679155,1.2392792446639334,1.1558931887555914,2.432521966893468,1.3654108436144057,0.3452020968173173,0.6523556815935834,2.206091869955223,1.7443124770641205,2.9909729370712057,3.248998346324086,1.4310276075484083,0.3486878433908771
inf,8.718961596598998,-6.212332863916881,-3.221174101020927,14.436367704899938,15.925869698084593,5.619817918648675,3.223379423343051,1.4355767195180675,0.15522890950139612,0.7418374974732167,2.037299707335208,2.283466399419936,1.9635551796423307,2.722502606856331,1.34907097026284,-1.26550931871013,1.434787915211487,1.7973960031494514,1.534336216184414,0.7293395721417895,-1.074852192585091,-0.25413088479432844,1.1812567982880253,1.3964257945152738,2.320937750569165,1.2392843773107671,-0.6979504362340734,0.5987117271813531,2.819358536800351,3.346259284542903,3.5132182410074506,4.629811527660095,2.5503327382097893,-1.8714118631976007,3.643343564010273,2.548965237587666,3.9425840137715227,3.997600537494314,4.98473534556495,1.223756063121158,3.6444368810545313,0.9558605884880151,0.058255158039138166,-0.30141295693201187,1.205309825517574,-0.3189805704612567,1.8948722154605875,0.6982330543562583,0.6137123425045274,1.7666487304336016,2.2734095059955877,3.1050288271743085,3.2416298965420367,1.7439361068200085,2.795235110289198,1.6652352005262259,-0.4233633291832817,1.9714182497624577,1.6976549964034149,3.2518523233812857,2.998490633943149,4.3686247441768415,2.119192823745877,3.586467954296147,3.318263038143165,5.253096692600607,4.329018340127817,5.6277621810166565,2.9732477010773337,5.405978276468808,3.695552192383083,4.811045785317546,3.230834608769996,4.205322169581208,2.3381746660907865,4.764622918564335,3.9880838382156654,5.7819992338075465,4.486661050276723,1.0231321334142294,-0.8923304110771042,-1.2507063706869062,-5.139989820154163,-1.0854667363581925,1.4952881572458097,2.6457227649349235,2.3456865473503257,2.8994234829012058,2.9902776616278075,4.884839997308312,5.551069904364937,6.766871085900625,5.032179818867746,3.5747014264010133,0.07016984281693794,1.0666548716401465,-0.06483067930341235,4.606020396854994,1.8371723303499508
inf,2.233987736687027,-14.24339213177621,-11.551721304278907,5.401217772229483,6.504818547924987,0.6944749177544374,0.30483962442519896,0.8506303831324793,0.9540680659099721,2.4487339146294396,3.0094249248637546,3.5216624142263093,2.987088369671394,3.442360099116854,2.3412323776503463,1.6897717253635598,-1.1585155064867152,-1.9957090286913584,0.898961204033391,-2.0537791469076296,-1.724177057859258,-1.844061379806405,-1.753934951837529,-3.766944523810423,-5.079136842016325,-3.7568560110132623,-1.6131912197065432,-1.4311699240235072,-0.6396226390176878,1.5999445912341557,2.3157807648937663,3.268870972393678,2.9310535892412943,3.6530829856625004,3.5132709447075854,1.8703274884599566,1.9835039950360738,1.372942491949459,1.2796155006980499,-1.0885874645800584,-1.162900825700099,-1.6404204821289667,0.7346400600028247,1.0708498593574802,1.0405989434661578,1.2162621554212834,0.7339899342476599,-0.2652726579608,-2.4013652401181815,-4.306080396164596,-5.237093631204168,-2.9809564788911658,-2.4737498809118748,-2.6464260415800354,-3.8854250394822643,-2.892649676797845,-0.788137087032645,0.9907538612714433,1.1465294209090118,0.4740306424001304,-0.33934552435720633,-1.9141482945703885,-0.5195559155331537,-1.9725368471445677,0.8470618987895691,1.3554937966900553,1.9153797079349744,0.7406272719527465,-0.3696411395467578,-2.811915471489094,0.6305254242805347,1.0679073884737562,2.999060321925981,2.4066005647635933,4.138854980823027,3.8403651981438856,3.9997720174717912,2.8812332044380184,3.1819083372666697,3.9138393842287442,1.3831489558420245,1.4829758166698142,1.7165232913912192,0.12465114840419034,-1.289120209952749,-3.1484098927107667,-5.281524770221623,-5.4503752932139164,-2.296750187520594,-3.094241118098857,-0.06580472981761432,1.2920046193050894,0.732419378785842,0.7637279483743242,1.599032811228966,3.4167678300653606,3.4271628490015047,3.592749858259829,4.531655458846785
inf,3.021211601282701,-12.704793813886392,-9.960137823736147,7.449040548493892,8.309239172399693,-1.4863630311667464,-3.112836186576704,-1.6147216205677424,-0.6470295946428557,-4.3040386532666055,-4.8022465294603975,-4.550991763528767,-5.662813562072184,-5.915643195859403,-5.261782712150463,-2.212533694606563,-4.696291398466691,-5.154254481678848,-0.19379136727689428,0.5435195692349168,1.9524730394054046,1.5237191257439875,1.7937701006911908,-1.3388532287521642,-1.7214827406470476,-2.229679826000215,-3.5635199561613504,-1.2290247732380735,-2.191922756427765,-2.3267358203914483,-2.0873058746214,-0.60076645310874,0.1768934938597937,0.22756882868863215,0.7309033566198551,2.2513870801121314,2.396963676251758,1.4283633236764501,0.052297188583452225,-0.5166906418324047,0.0810789391101352,-0.7153308514490462,0.21977229212361493,0.5685185590594273,1.9021544965255899,2.011497532016392,1.6123345496994332,1.321585005004188,1.0681350111775103,-2.3700882206881175,-2.2368618757022816,-3.1869007540825294,-3.538362519910436,-3.2359657337536163,-2.0512571062662275,-1.4780036514023536,-2.661703647756582,-3.090338374508285,-0.824519754394295,-0.30171092452855675,0.22859453950779596,0.4510291400737785,0.7909818243992106,-0.5620711173522608,0.6485722992167311,0.9897667973755446,0.9697376455960836,1.9369812392399623,2.3935489851623046,1.5213179743116925,1.6528090246188114,0.9621654547930945,-1.286222444026123,0.3081762951430491,-0.3723498642762664,-0.31746165022774875,-0.9386576192804981,0.025855369107141257,-1.1406660939288003,-1.1159369966045105,-0.21272282439157664,0.8025262654691758,-0.8262130806877437,0.2647519956171962,-0.09419142332443897,0.20190871143733347,1.0578104431612516,0.9795263293827787,0.8607051917806814,0.2532130101147203,-0.03749222582040801,-1.824366721299711,-1.3439019207229848,-0.13136959476523202,0.8367876468729776,0.8412018135946866,0.38733828864191366,0.9262891961838307,-2.8019371883119604
inf,6.234078792322293,-10.862223960048057,-8.120827018585622,8.93501613051006,7.938128946942051,2.8006929015230675,1.2972387501655263,0.4077696672379574,1.8515636151218615,0.5247004948520342,0.6056714769727982,0.8595940590383186,-0.6004484063785078,-0.8329777775638547,-0.4895021317417587,0.9245151120676383,0.7161906446130359,1.797721818897358,2.38990536082693,1.9149913421664806,-0.6064420914786055,-1.6050861171776702,-0.4473974333734816,-0.24228384614892207,0.22044588354197003,-1.301320206448139,-1.71310251483159,0.7277665342428676,-0.34476008603941466,0.2578023466138646,0.7688165478411761,1.834787321393307,-3.3880068779232033,-2.3437601647658965,-2.6191190721180675,-1.734177224147686,-2.2639084417536495,-0.24836017106794372,-1.004703887653804,-0.674256008298812,0.0049980868532557565,-1.729884522734892,-2.193887907881674,-2.535922910389914,-1.2691692182950831,-0.8816047775665368,-0.1743327413040845,-0.012978839635209738,-0.8888450524194837,-1.523736286374053,-0.4446596078220679,0.631889993289569,0.488050921583266,1.179705789633303,-1.0650061218569604,0.7673843686206254,1.1776579971434202,1.3577633271089624,1.6551372120579586,1.6404196674946476,-0.15090740573481298,0.37716056774432616,-0.4729828152246114,-1.2563230260400928,1.7977092567855522,1.6661713728939134,0.6829399283048687,0.2822408608234923,0.30114268860767623,-1.4208202017443483,-3.7603419661185313,-3.1045584711973078,0.5025119573163721,-0.5087635324240907,1.3012203140956018,0.6015703832959289,1.2642959406672958,-5.237570478682841,-2.9689735364730154,-2.2288103884217705,-0.4481885149457767,0.9790310105631903,1.3162252889483526,1.6927235562446512,-1.456012522445775,-1.6986016216435331,-2.2523520459166377,-2.0151681854490704,-1.3700711572868371,-1.072690082615111,-1.8171721590020553,-1.838311918337837,0.23234604892896016,-0.8730727121327675,-0.34991702866193464,0.13154676843205948,-0.3974352767716596,-1.2538527780845214,1.128585718943249
inf,13.393663097645813,-2.455386705288215,0.4434027156792304,17.985222521262447,12.786712170633598,6.807193322050825,4.141389310577704,2.705209585281686,2.903033803076159,-1.2069520769865854,-1.531442604679036,0.5455811257645209,0.6167021497251106,0.6446503548158837,0.878731633695125,1.0487264189838683,-1.6596876944672303,0.17151233131463783,0.1982709206900779,-1.1325588464338807,-0.5460061502578171,0.002994563944632489,2.3394826039314367,-0.9089955300294008,-1.7623540893243828,-1.2448927419727411,-1.5575980035639319,-2.6429521750690768,-1.7814723125896919,0.6129205738852264,0.6484278166323492,1.0693295053087581,0.8662953580196486,-0.2634430929395464,1.1193117660633902,1.99937731925462,1.1863388063730582,2.432372587298822,3.8490143476415,1.5324054279158972,1.3048068262040644,2.5164511141708346,3.7349772176712577,3.69209738590002,3.0883166488002445,4.480219150815621,4.104314000211197,4.076968168312661,5.4039268181740425,4.58821938561789,2.9270328247518123,3.37592778006006,2.1640816613823546,0.09144712569644042,-1.5935908033083024,-0.6896616934863289,-0.49502509985956067,-1.4463914305076813,1.3397423835600577,-0.3621346908588734,0.2568036277400978,0.43909762461129986,0.2868388099574446,-2.5394111958338286,-1.7515872994234059,-0.3825799954829421,1.6258179819863585,1.4382986566526128,0.45001891193926724,-2.737263438089151,-1.693160555197636,1.1979745610090973,2.6719781099364894,3.158505605136561,2.5219083759649337,2.2535043402261223,1.7476920576759127,-0.39577398901709415,-4.493193688891068,-3.598414003596055,-1.4991951781238697,-1.8300273028943934,-1.4294014222852738,-0.9991594991193935,-4.957260802108216,-3.925032987989802,0.33983147636922695,0.5483157684604976,1.4091645424991697,2.24825315843389,0.9911040962170219,1.488141184874948,3.296567109923515,1.8703276824131336,2.5702618478028825,3.2924675703566706,4.170928913012837,5.045341142649399,4.285221649751648
inf,12.861504048680708,-2.7274966938715104,0.030681010564648226,17.62854927149609,17.815365595580428,8.458745755946893,4.048259918255219,4.747275271629505,-1.861200938900641,-2.193655163079118,-2.584139790340771,-0.4406067823028046,-0.4678157605744957,0.5380665118401566,0.9885471901718503,1.29263910322598,1.8709926823167855,1.8025226168553345,2.3938614763060357,0.6364204075740929,-0.2357391348293163,-0.7454548114314719,0.1723090846811317,0.6325669154108056,-0.13280063750926274,-2.6523895686033327,-0.7328636788834686,-1.9672363229242436,-1.172270824422334,-1.4171870148639911,0.22666751568791454,0.10479849558254273,-3.4083951517906854,-2.0715485544548926,-2.0617345483102554,-2.08515417841614,-1.182042195273766,-1.5115366628479876,-0.15333586982705327,-0.16440845150958694,-0.8361926665246457,-0.5767877474639391,-0.6573619696685995,-4.557480672013867,-4.813880618038169,-2.9290348535058612,-0.5796408925633116,0.4590527510801081,1.607835449121005,3.7305949949617982,2.443489271306369,3.0937095591271415,3.02583608382281,1.954512358429433,1.0539772067439728,0.4194531184631316,-1.306428999770766,-0.9793407354637722,-2.1751612032895906,-4.283667622039587,-0.40120236556883526,0.959904535096328,1.4469921618114014,1.5243851831526882,1.2685855637136214,-0.726977283816943,-0.6288995915516793,0.9883979216610399,1.8516685702826976,1.4680000105279447,0.13231923682994307,0.6684533284601599,-1.192048607476167,-3.933155788650197,1.3178224141355912,0.06349883751747853,-0.9809504369122877,1.4854368674973202,2.1298487378874498,0.9666591620574962,0.9735809588480677,0.9354362495699107,-2.0936188780617897,-1.8957032341493942,-1.7138926905061922,-0.9334397600052711,1.148178723309151,1.0223791479188264,-2.338569025309539,-0.817816078167894,-0.9504963561037769,-0.47726377565390266,-1.3594787027567605,-1.1607393350675679,-0.7881356448398122,0.14544729472281404,-1.7670375173097952,-2.967579153113732,-2.769528524511088
inf,10.975587102767896,-5.378478070789097,-2.662330331473332,15.060638151544822,15.008895823724847,6.951166658178909,-1.8675645720696004,-0.8544412469568385,-0.08816534583820967,-0.058924668793867596,-1.197446234949588,-1.0727792571412813,1.433353401285462,0.5414698509563038,1.7102361184031203,0.025375524021981732,1.4986430140124938,0.5893081693149682,1.079834665581771,0.3652760133977182,1.369916379062964,1.9548369165548891,0.5150104964249138,-0.12059816119993627,0.10761502480963969,-1.4122432009563326,-2.6651182808923366,-0.1251230788932034,1.776273283539986,0.9384355426817734,2.145554709983273,2.635243857865426,-0.00028257285640620466,0.9029843374817617,1.2389102424928353,1.686664335433015,1.8629486016899648,-0.046684772442475264,0.8383118330264026,0.8764379684008645,-0.38185352282132357,-0.0007546449709607828,0.3113637071752393,-0.6678483570590146,-0.8234331720088903,-1.0033004146223377,0.18934264871861473,0.12549100789443912,-0.4565429298739474,0.14404672254996598,-3.438497141125218,-4.217580295330812,-3.7344215716199542,-2.7561536228202925,-0.9715870920936567,-1.1052586295201365,-0.25498798767572595,0.5690525523494401,-0.2508751625976018,-0.08516165284993349,-0.16148370307000448,-0.14244183177090264,-0.49863123818960986,-0.7210735233298138,0.9588977052153638,1.5469825038429619,0.8667680965577773,1.2126492542818497,-0.02152956969464981,-0.6109021825785064,-1.4524715418141412,0.20261901793245585,-2.9297226737464968,-4.1698710296309045,-1.7925841514797725,-1.7418801352494881,-2.562008850698497,-1.8755734734525475,-2.54411966957214,-2.870880063963085,-4.55678570928702,-2.3010635085563678,-1.2882937962000014,-1.7196757257973019,-3.535742274737764,1.0532725531938425,0.9855444231108876,1.082700267093145,2.5479239006070884,1.9402187216164535,0.9473151491775482,1.4433044552540437,1.4834241140684838,0.5780968118190088,1.68730399264917,0.3108984559124792,0.7136924098731754,0.31963694562143274,-1.5173466826033604
inf,12.387247045349651,-3.530926202767437,-0.898102966566217,16.717615140725755,17.173848417276037,5.9594615890915605,2.547747437100597,1.2023259611833765,1.1982853957589832,1.7750651553054553,1.63635708577214,2.4636901181092057,0.6041058474474283,-0.043389398089836106,-5.196273498897035,-2.06203337652434,0.2376927475507813,0.769211590481909,1.8502803269333299,1.098989557927574,0.585028922478493,1.3457928543110356,1.1747484291492327,1.2547155283406042,2.094925267155169,-1.6512506719436715,-1.137786826455887,-1.212988581281067,-2.8418897013657656,-0.5644704051006428,0.5452965443681421,-0.6492448888824569,0.8906592829095814,-0.4383941904888147,-1.2944501783066968,0.6921474648491781,0.7929044455428524,0.9809591556697228,-0.7352688084623296,0.2593396923157414,-2.0241667789015736,-1.2104841884807058,-0.49379049971847877,-0.13885396230981684,-1.0606299852521488,-0.8504064093002128,-2.5409616236225503,-5.207443011901923,-2.816670942635888,-1.9303197763425217,0.4918003204378749,2.6574913066861257,2.8094746661097645,2.422442409152339,1.5234334921095964,1.0886836495499352,-1.171465900433894,0.9364856432851667,1.1515013840910129,0.45658815091931615,2.251145024546105,2.157306709643443,0.48249435659173656,0.813996438879343,0.9714091683655823,-1.2832729072112556,-1.703201537460302,0.7979703358900423,1.039582652678817,0.7443843240134669,2.14700000972757,1.3664571429010834,-3.438498410074196,1.206330195997488,0.854748424029232,0.10284805704189637,0.8793133883397317,1.6840885764404732,-3.578555606543162,-3.0143902763942734,-1.4397318885383612,-0.2823240238345761,-0.5455255601599163,-0.448054137499291,-0.8656518830884963,-1.9961555121959336,-1.6141779909554046,-2.17846048867699,2.603751998189807,1.556163024942343,1.8559989423524854,1.7181881340799947,2.288551043170024,-1.3672510686547596,0.42524692512161266,-1.413512478547645,-1.864340618661302,-3.94881545710858,-4.889777122214873
inf,8.385838705261547,-7.4401918971175505,-4.72724491014752,12.858814214405825,13.420222239053262,7.983168203002304,-0.725879838081152,-1.084172621363379,1.083562430988973,1.133299614863862,0.37596282835943384,-0.3645201761572032,-1.657562080953884,-0.6643286025203281,0.8165842219846802,0.18886543404085643,1.077862131556138,1.564442883998808,-1.9228306501556105,-5.91026288277282,-6.1743320655055385,-2.907624605193952,-3.1961082466014474,-1.9151009162361987,2.4045795396825085,2.920905197290196,2.9110859538498204,3.1246330177621076,2.6501068476793463,2.1159377453154633,2.3052646492984152,-0.7843277800033661,-0.15809276828937158,1.4623734367643735,0.06932918845302538,0.49551312769616374,0.24544657284431537,1.1345997513213817,1.2752294309119847,2.3016423870302916,2.110307781881467,2.776756190632952,1.0136462509546647,1.8213854639674878,1.8587930918516804,1.7460951971116998,-1.0799809348223306,-0.9395638167965146,1.2241596787691051,1.7566349900100775,1.7100763407018533,1.2240104761359163,0.9867462519792625,-0.9847661990320944,0.9649883290052159,1.3139923958770723,-0.34514875253508137,0.49704788102364006,-0.28663909658394715,-0.9876796294299055,-0.5382684797714248,-1.5757183043718257,-2.637461472427894,-3.309681261262938,-3.9880235620087845,-3.0151107078955093,-1.3335606072751318,0.9505684157958072,0.9245843896174222,1.142943369523941,0.5947875935964362,-0.8910953017154242,-1.0769811069742445,1.6126519342719874,1.5591488744267963,1.318427745674228,1.3880133186473245,0.8122801988707664,-1.470264888502797,0.5810307212805483,0.2462721493808644,-0.16481392895206426,-1.0488800374661835,0.4546877656141177,1.0253908943233583,2.0786565738191456,2.313937040539635,0.3756170882490153,-0.23448973642828008,-0.6432811052840819,-0.2808217990632542,0.5132549025473736,1.6936414076624686,0.43450030773617243,1.2007507794340597,0.4502905373543058,-3.7384490495097964,2.928513195814979,2.892722752370396
inf,12.01570184719179,-5.5013249544560185,-2.905705320530652,13.78139213853472,12.339924135142663,4.520419500092036,1.862263272528459,0.6672224244780871,0.3590208895596696,1.2016423661137203,2.910469594076666,-1.1664520664644513,-1.5985150351763302,-2.5178484601374436,-0.2615138941115731,0.948576789694954,-0.49040221540391826,0.851435650301319,-0.23408036165419333,-3.2532390874677333,-2.688119180626252,-4.777546855480985,-1.5583245185116255,-2.550646097293715,0.6819753298076563,-0.41695264126566656,-0.17625982735624035,-0.3671093170790414,-0.08106752416308183,-4.2220280605277765,-2.2530879960955517,-0.5388496116270076,0.7047122548967764,-0.6554587281676021,0.9175712103037483,-0.18620332283799002,1.0541473783469044,1.5035787034698842,0.0452986746849291,-3.4821946108209048,1.2886781876302607,1.9338077313870343,2.539712766014759,1.9193733646595206,-0.20437400751453794,-1.7617907507474584,-0.836019762214022,-2.757087263085211,-1.6237504392470683,-1.6855772304512868,0.1383347312524208,-0.409611152451852,0.7857881126990662,2.699872068161895,3.106179867453207,4.692219458160231,5.174724781892898,4.187198058811099,4.699439952902161,4.687500684663249,2.5060717597414452,0.32710041602400963,0.2195597535267595,0.5088944679223673,1.466335968353647,-0.08864422620860068,-1.924079342648369,-1.6590945961594699,-2.3787110108172627,-1.5027598754007059,1.0268934730103894,0.3048568428834386,0.3350958259626964,2.187827804017452,0.1659794860520094,2.3983952747393786,2.213874577625589,2.0042948031114065,1.2254257617205724,2.838115929504184,0.759258799075802,0.031194271208526914,-2.4394397575707956,0.38827126013327273,-1.657339990700784,-0.3328663971692052,0.08303222806137711,1.1221728112864326,1.3718489475361437,1.5077770053182036,2.2999200363838526,3.7644652885195455,2.768591575080208,-0.798734178166562,-1.2591676649515051,-0.060980094442705024,-0.9481577229953686,2.03302595069443,1.3548156554306985
inf,8.931815539503473,-7.472815269122659,-4.965277105950768,12.482624536656413,9.37040409202477,3.326634870807027,2.6252562424385637,1.3530012127980484,-2.780458228353641,-2.6269140567745985,-2.1742031719337476,0.34439566901846064,-0.7428098841358626,-0.23496135373063254,-1.2430501699729959,-1.0002406470478675,-1.0431316772218295,-3.205149312508013,-1.8666655781160486,-1.3361714695106812,-0.9295137837929914,-2.588928602266897,-2.639477964770805,-2.7861856688473736,-2.331896256385299,-0.7817223251294649,-1.895441226469167,-2.3650729209100376,-1.2559785419988216,-0.35210099421603047,-0.684927706341675,-0.43041212871081314,0.011422719386700919,0.017907561056709653,-3.5512215844145487,-3.792806112391496,-1.4097215613414278,1.4309102927320865,1.3915486757857423,3.605559648968992,4.037589273192076,4.452004678365739,2.445181640800044,2.902687625075835,2.826114038180819,0.9824742302184788,0.9045685708037468,1.6978523239518069,1.4404459050066123,1.8738453645215145,1.0876917696726238,-0.8517681120819063,-0.6059455762378718,2.9344471895941666,3.2803659656939743,2.8221327223897745,2.950824325974402,3.008648045318928,3.1768220632477906,-2.0182739813997017,-0.7701435590579919,0.09277370303672683,0.3843358143584581,2.1321855831733743,3.359082333936776,3.5753162005742993,1.5125881818389217,0.34856492307960707,-4.208022400584561,-1.9509012218647257,-1.148436911250073,-0.0023179682947258584,0.7119091555232515,0.9422127740773192,-0.09325311714072626,-0.20865689751220629,-0.9476669760626848,-1.8049370282865453,-0.7988846347388261,-0.08678487942626845,-1.7476262809850027,-3.1851000565714003,-5.624308500751667,-3.2330429172589774,-1.433022005316289,-0.1948165861666098,-1.7626593133309356,-1.2510525766386564,-1.2068126281436236,-1.4914424082967344,-1.6819293723700284,-1.4736061326930283,-1.131489888100397,-4.1388504195022975,1.3006589580229289,1.651548315470805,1.3472130807801719,2.0692931495138964,2.4719910564500367
inf,9.17196881489637,-6.2582033193751005,-3.577325218921094,14.129889013238795,15.58353779527684,4.448449907860148,0.1925475872440785,-1.2570069295800295,-0.3432772235947432,1.1278370082972877,1.7114614546959217,-0.7093930186411193,-1.0904879108003094,0.2653624351390107,1.8344275164412416,1.704755925410396,0.5393507284013381,0.23098448869839672,-2.41008548546489,-3.5546883648368777,-1.468799246559378,-3.9634925608892786,0.001608109952258019,0.962139120018044,-0.29714957312265255,0.7360996844554606,1.6334528237241202,0.8224479403748077,1.856865928431553,3.245982028027882,2.671962237836617,4.265564718556284,4.779542646249233,4.981616639361484,3.395090730724341,3.111140940204642,2.966686786643365,-3.9066535675930396,-3.5281369867898107,-2.701579209589852,-4.5301983488608855,-6.311028053743243,-4.231396890553633,-1.5318619787519907,-1.4678994257442852,-0.6956606907520424,-1.2122433674463906,0.46080817322636847,2.757198303427998,1.9960495015584812,2.291816697649189,2.1626549796789902,-0.3134251248900881,-0.1522124523856192,0.21266895014738196,0.7889229149126393,1.142266120190456,1.9671435488914923,1.4201388349307607,-0.2224797969591208,0.5526595532319902,-0.6844667484651055,-2.1512835152335654,-1.250490099249312,-3.522868705281155,-3.0971773246857452,-1.2294343718158984,0.019477338391688193,0.5017807542386308,1.4854070320407473,2.614206118491552,3.31709527732518,3.9842698616091,2.76547964864956,2.4314152231116424,0.6781358691708874,-0.08244805812485367,0.8159180939826598,1.5953096111490623,-2.278593978102414,-1.3680756112759838,1.1221965733061623,0.6715710303786011,-1.5276723602924207,-1.2796554076194653,-2.4906497225411925,-2.0733560553758608,-0.7508665204524192,0.48142182213427276,0.2079235453791739,0.42251287166773466,1.6497259583378465,-0.841276132713098,2.7989113967152974,2.180141511279139,1.8392205853765589,3.1398750149352423,1.4834963145530509,0.14158650754009017
inf,10.555366595709991,-5.264607060837918,-2.615151245351049,14.99370066637005,13.755905582170023,-0.09110982177733362,0.09386583299155049,1.8580379994102074,1.8551828277431923,1.7631226753972093,3.4634515730782987,-5.085335600563791,-1.6351437149542996,1.6075119693848805,1.4315036198844204,1.0830269315431025,1.1804390229249435,2.2391051513392277,-0.2559819756612214,-1.26021864669476,-0.3217584627248584,1.3141382528260621,-0.8296765603042715,-0.7505572690643731,0.3402373066646973,2.5139229670961356,1.6784733475636244,3.0759307252905472,1.767282355483637,1.7835339344767505,-1.9421590329467762,0.10893688398182633,-1.1661767753765062,-2.1793993473860453,1.9194983725450427,1.6862880442383243,0.6399744971382191,0.27797547513809207,1.7951449831112,0.5468843055038874,1.116234555843569,0.8345083115211125,0.5843847374378726,1.3101181383909335,0.5516229942094739,0.0013559365183084537,0.5210228490254494,0.8291330362267715,-1.1322972270067169,-0.9810664738798991,-0.5761458204129468,-1.8871559732823897,-1.672078608738758,-0.7121144848426937,-0.21186801633098185,0.1806672903023525,-1.046749755427328,-0.7055962095793902,2.054940446305409,3.188744897676713,1.0373071786651877,1.0751220689332257,0.6070362782814911,-3.306609143005737,-2.744233102522344,-1.9934592126355,-2.1579371041075674,-2.177104746425762,0.40317805521212335,-1.237125267152173,-0.8739290254307832,-0.40299743388151654,-0.4791113784949772,2.4432491473081654,0.9697163573016638,1.5226959730461758,1.3115546218918368,0.4901002397458569,-1.054230075937845,-3.2702064408146967,-3.5085543981650744,-0.8948955783884998,-1.5381125326361413,-1.414104798561361,-0.9221484485958698,0.5195265110357212,1.2548725048750882,1.5344469957950722,2.098669969106844,1.408656877933069,-0.2350244292499255,-1.058523949270267,-0.3303904541438456,0.6273869674033392,-1.5011722571126356,0.9290788273366459,1.9451034784362378,1.4320894280834437,-0.4095559690486823
inf,-0.3414937445348514,-18.01504129083871,-14.974301568776397,2.307043118363712,1.8967758114450177,3.0280092998349915,3.333074043933557,3.9599930029448807,3.9087282481873977,0.9709479881323162,0.6218935342406802,1.080116807643602,0.14773810981950675,0.6794549441156263,1.2927716342939704,0.5239638546347791,1.5555457363225784,1.5213326027116594,0.8710673123275257,1.954848085777833,1.7565588443562206,0.4938534976276614,0.16950152393931717,3.1134597243628903,1.9789987037776982,2.7004408815587126,2.17945783080976,-0.39225486088284356,-1.181127424596177,-1.5900954090348733,-3.826340160064248,-0.4437805611765029,0.9654190828899161,0.9429910261536563,1.3271686570129404,1.5376848098330598,2.339047957414877,1.3477458653515342,1.0365524911298891,1.242727665833712,1.3600970734892712,1.6968320476791234,1.6896536774263637,2.284065762339587,2.4693676656502674,2.5804044128674732,1.3348620102093207,-1.0177876023259174,-1.2509345716055122,-1.2704466600337696,-2.0798531011026924,-1.5975104095788666,-1.3717167619776092,-2.0315672062005277,-1.496402349236405,-0.1353889437301916,-0.8470487170790051,-0.9121004777681705,-1.0820490723009542,-0.15846263139776795,-0.519124777592225,-3.1077557137118035,-2.620839903462162,-0.7924923681257994,-0.7819359130023287,-1.5537104670567814,-0.5206811852690976,-1.055318284600041,-1.3657437693386427,-1.995178628027297,-1.4611006895304257,-3.2153089309964997,-4.175632063612909,-5.360142567910387,0.07505747032148946,1.096626781609075,1.6125471896356132,1.4219134022737094,0.5276503615288277,-0.43098756885542144,-0.22296735956041402,-2.503029798875197,-0.492412423499637,-0.16826505536402436,-0.0725223919667215,-1.1894756794090853,-0.9997794109313816,-1.4971409087154584,1.5688828128670878,1.6542611479956406,0.9334917843189601,0.850063611662506,0.33610470551985827,-3.3240935773157716,-6.028525479260544,-4.279122399185724,-0.20037933468788793,0.08636277096402978,0.781183957118337
inf,9.440335256157518,-7.836878598648102,-5.008381924162216,11.866800026079215,9.895478284095347,2.444771566945402,0.6044311689933082,1.7929476252643752,-1.4007326757462977,-0.2965187639256719,-0.9233743237670353,-0.7963626987678332,-0.8995352297368022,-1.847191372645689,-1.1491596861377076,0.15448300624548494,0.08424843023767181,0.7603688474153003,1.2192081712626859,-0.0038059905928804483,-0.9187100761271125,-2.903114950793075,-0.8670078787641771,0.43299797985185506,0.451581792219784,0.8868354546579909,0.925055974836873,0.7770160807414399,1.227359658829279,-0.37731894088190643,-0.3471550993068675,-0.36184729825783535,0.32854790722953453,0.23293820288037637,2.098594078573626,0.9869023048487264,1.1838043877641766,1.7497330883389992,1.3110679809046317,-0.8420300432334642,-3.9897960891015813,-1.074721064853179,-1.768729650454226,-0.48560336398349335,1.2573540864251385,1.8469043465675057,1.6249883273996204,1.398754287942296,2.099507218453759,0.5133828857258607,-0.2553478955623447,-1.6536234914007721,0.24400953336028408,0.0051027410674038265,-0.4808248245614166,-1.4544372867266162,0.18723544308346618,-0.9078434553660628,-0.759308059702434,-0.5352463978006696,-0.7215736285599945,-2.8440414698966805,-0.46776844250571514,-3.124608453535366,-2.3067546213666645,-2.4572789013418017,-2.712145608132005,-4.571171998881113,-2.388760162779775,-1.9719058982194042,-2.4915283280308316,-1.6112342378798843,-1.9909197532231175,-1.9127005369664616,-3.807154723417284,-2.53677047132755,-3.4614176097795237,-0.4359190043546306,0.49940762146542284,0.9052532240222106,1.2936645946240475,0.4808599335914323,0.19027909382712238,-3.6396712537023177,-5.796497457863417,-5.143635929937865,-5.17343259258174,-2.9136173175045172,-2.270931838272446,-3.655014088163014,-4.88147480927892,-4.62453714612392,-3.334238773022534,-2.3365846269152257,0.17169295308523402,0.28489147341792886,0.8806581120183665,0.685915354250433,1.1896715953120278
inf,8.777784455070995,-7.01184445072148,-4.201953246343028,13.21230958373572,11.23552876867936,3.3498901701405153,3.3319196965582734,3.1955893777144446,4.017089963370058,-0.29288955129491256,-0.24034679380113744,-0.03374720133590259,-1.4113731064574502,-1.82350162069757,1.5137922998376325,0.7757868238002459,0.6431458926893896,1.7228473442175698,0.8670944926602928,-0.12278839268292785,-1.7755106867498753,-2.116207819375852,-0.9665747018974429,1.1650167912032003,1.7015306550273408,0.9938068087792757,3.491985150491921,3.201738584750551,4.093539531541872,2.953902182718096,3.288982518959365,0.28820854067011936,1.521691993795514,1.7052906106559007,0.40274966908570065,-0.052873827059571,1.2686932948044003,1.0270775269780046,0.8293989499973193,2.604734454609172,2.9001452585974903,2.5376535529036843,2.567241135880991,2.2885619600180576,2.093196972403895,1.0119968718090604,2.231679064975147,1.9386743886201856,2.230165918352391,0.9000011512356423,0.2910759984098519,-2.096076735652815,-3.0160569541905886,-4.161999626727955,-2.1586802326275745,-1.7657102014776243,0.007117602624191477,1.8129233913846932,1.2734626935900835,0.4002061604157632,0.2501253417759912,0.24362356269806185,-2.3173896663913496,-2.637213589525878,-0.8386333732998992,-1.4085975023228627,-0.7373308536270073,-1.4683962007469589,-0.8984920179262161,-2.0292633998736207,0.031190590032409204,-0.17957691945852616,0.7650778177608402,1.5204416173207065,0.6822239422812331,0.46179300118156874,0.6804380568230854,1.2582594106000329,1.9819727414611918,2.664339685501268,3.5247640824912025,1.6998156331332908,1.758596433129732,-0.43329187358656185,-1.4044252138187048,-1.78990311006212,-4.6346304121438,-4.976292567511209,-5.496214646050866,-6.476754310491046,-0.491139550054136,0.57173418935119,1.4976865174898535,1.5865523756203288,1.7203303971103168,-0.4101283020287241,-0.3739509275038557,-2.3838529615058093,-2.5691768249533737
inf,4.489539787397121,-13.28005510726409,-10.158833938064504,5.7708450778796525,4.068218641200485,1.6763998347367632,-2.194246715729715,-3.1630061084943577,-4.3432766740154385,-2.643884998313137,-1.5271067781775933,-0.6538059980292665,-0.7184563538160695,-1.40569491731123,-0.7517806340257351,-1.313968608873708,1.7661427434416836,0.808475004421048,0.6983495451933308,1.470771684431753,1.748579867430891,1.9944563377418874,0.024094568911742442,0.721667302308866,-0.1499702399524807,-0.2263590001286957,-0.7361829790763679,-2.707836065455588,-4.371738696694699,-2.2009052443646766,-1.7006072050126022,-1.4829169128264468,-0.33421696230811904,0.38758077291946336,1.1243800667081487,0.45094834249564997,2.1236001396807183,1.8647352732393614,-0.5586127812949115,0.41933307736263714,0.8507851257282439,0.032378184986384895,-2.236618985611024,-2.8054196084772443,-0.09658451908308052,0.18810265541504378,0.5441640964885082,1.1327588379919433,1.4644773233978157,-1.4988662119747787,-3.78322265271148,-1.002759370889656,-0.8745667381599631,-0.2937883899815219,-0.788852371547101,0.11017329493558492,1.8749782370797448,2.1137066679586027,2.5427010521129176,2.437219809640986,2.6135759659463105,1.7999353387327872,0.6533501385591549,-0.28443669939058225,-0.5913265805941847,-0.8670008469907131,-1.9486034498005864,-2.5657517425091,-0.8819684288853011,-0.9171760166699983,0.3254755851186317,0.7595528832993921,0.2877621103246497,-0.31151056439971825,-2.149575018320469,-2.7601298781568175,-3.396244925832356,-3.1702555942566875,-1.8502386976123688,-1.6632863896974968,-0.9943954108099788,-3.2997769124973715,-0.9727027811474542,-2.3690383955371104,-2.0993924766957903,-1.0571353230107619,-1.1523842784406497,-1.1407163122953605,-3.08730604393881,-2.2161909637379935,-2.6554701138049595,-2.1224780741686686,-1.3104609917627457,0.41940636627769123,0.25873551727241306,0.9194942866910125,1.2392896281991739,0.8553483769248444,-3.339827260922206
inf,9.146763564026887,-6.639832147193349,-3.893949835428603,13.361058363116726,12.071912902973983,1.645285717476419,-1.2578219808193047,-0.033949991896292886,0.11764487197538998,0.7130596669690306,1.8224836787718388,1.437122865415457,1.2097273625149434,0.42932547894364603,0.9450748599962324,1.1397498097713168,1.192243480638382,-1.2419305667809795,-0.7928429620892032,-0.7589061585600163,-2.4802813462552322,-3.359033435006552,-2.1090522777338236,-2.6892340730305477,-2.422622894231452,-3.3982352875839794,-2.125976678915606,-6.245647408542133,-5.956465552864081,-4.33248375986841,-4.102789749463717,-3.684739597576744,-3.2312224739647135,-3.392341411151399,-4.4348926371834665,-2.431290932043396,-1.5819995964931124,-0.9971294519401539,0.00023367509687233223,1.0075187507307035,-1.3990146943995612,-1.623744145614367,-0.18151691334619358,-0.09943220796569108,-0.11876201309004131,-0.5789380223461933,-1.358911156122602,-3.9717750913925443,-4.068679433502005,-4.6904266996522495,-4.464472600589801,-3.0037661975563097,-2.3829276197868268,-0.4039093060751284,0.8034232748107613,1.6743487616589192,1.977401589996262,2.126971021953814,1.1172490598267757,1.155214869214376,1.7364907243845735,1.5357060577054114,1.528245179093723,1.0529823845150545,0.7346059444325164,-0.062040216336022525,-2.092141091678947,-1.001132739713519,-1.6418158762667474,-0.9241391528504082,1.1095195567099552,1.53732610836893,1.4847180219617258,1.814860347194852,2.6208529346468623,2.220221319645269,2.0444190668988043,2.623759984949217,2.639618211161249,1.0766494707507022,0.7205150863787182,-0.924541837128082,1.4181975115774534,0.47568137884498185,0.30095871003343433,1.4421859390892067,2.1854617236942318,-0.5575715761143911,0.4268897107530094,-0.2824793076289822,-0.90491506944511,-0.6172804104439251,-2.819477545018046,-0.7551702894819954,0.0214649183993032,0.4005854063844225,0.7621781649671675,0.9058767762455062,2.01443434400975
inf,7.929558152747726,-7.364384266001501,-4.385249375311614,13.241837311349133,8.822532444822965,8.360933543256387,0.9272849233051339,-1.3615073345234627,-4.382242211236498,-4.771284995392957,-1.045374994163037,-0.7282915045888423,-0.05595769027986819,1.427894688062203,1.9384572796467907,1.755321184216541,1.8279088544707491,1.2295445369174516,-2.0761974127453797,-1.6818291887419363,-1.1200814978526168,-0.9908131476745581,-1.1425608740445696,-0.5766260949945092,0.3603547577752906,-1.7599409477114705,-2.4733569931136614,-1.0582965746594581,-1.5038285028036142,-1.3017290655076224,-0.8424548234644149,-0.998657791523577,-1.1656511314814182,-3.4716366469236206,-1.3241750884190324,-1.6771321941763517,-0.31588190368945135,-0.031212937639971017,-1.5365106664267572,-1.4512038305527355,-1.6215329609868405,-3.9166653017755237,-6.033011137720948,-4.452219336761473,-3.76120235408478,-4.216854122131785,-3.300170406114596,-2.814671878788644,-1.6552290442064148,-0.6776787318292321,-2.4494054045067557,-1.4953203550931633,-2.9243837714891825,0.7578214119473117,0.46780265810027544,1.3074114089052458,1.9568402696793967,2.279051794906472,0.9033720788735309,0.6312127500082028,-0.4584234623785832,0.04718311651918583,0.559739055465549,-0.4129991629076457,0.0021826853834951976,-0.33636474278509354,1.1428992897172705,1.9329532632522302,2.0959070258522488,1.9562606499101776,0.48127070292011354,0.6033996514594904,0.3738894449857355,-2.734134775139921,1.0570356812328967,2.5152062219995344,3.8675788741978607,3.9662924381128377,3.213345658865947,1.3620991872689032,2.574998859738507,2.698886049350456,3.450439527934151,2.6702511791217347,2.251280840269743,1.318934456160818,0.029001500330927854,-2.5835638453637486,-3.215806554432561,0.09343124546275305,-0.6194652321934697,-1.099190549765737,-0.0025827224739671806,0.260598395777933,1.5346374224970134,0.44940124937335924,-1.3087561766845184,-1.760810792250048,-0.9845960842979196
inf,14.174449159837483,-2.3330258147181415,0.3622551770764799,18.091151260471946,16.531880344705836,6.768759277402481,-1.4466179023548946,-0.5045467240365937,0.764200471295986,-0.15818372438846495,-1.9419775592083468,-2.5544510244743357,1.3780180218843157,1.1382898836536057,0.5868995644194896,0.39500211866393187,1.2564598264164673,2.2620189258534857,0.6639360513031676,0.8298964746890789,1.8328386810752235,0.45271546849602373,0.25104563366117105,0.42602872927353985,0.12208979652969987,-1.946356503407202,-2.731194680585581,-1.1309206715056135,-2.5323019054589224,0.17703119534810696,0.05537692014667073,-0.38114637934364026,0.41209276815775553,1.1283914972813278,-0.33127586956091903,-0.8979923925892592,3.719269579149973,3.465173781269243,3.413291337904276,3.5586901196427263,2.455921723364149,1.1021934631388177,-0.8195624711953613,-2.0792494885032653,-2.984745034969464,-1.658703104810975,-1.9406099986866252,2.362319102663662,2.5145447399262224,3.7081270289795896,4.40080885237608,3.9212258723629745,-0.16928986846310323,0.45911609949300924,-2.4107317502045547,-0.7436245789276654,-0.6769061535522098,0.4093299532336445,3.16964834346593,0.7892083252544637,3.5160688826513393,3.917811749353568,2.9768512568640872,3.4369796896421434,4.087629511316322,-0.09079701866355094,1.1194124033599806,2.1009315809598164,2.016294756217789,0.2654632279382696,1.8031460408275564,2.0753575571827767,1.8652047815828752,2.4041517221760884,-0.03808945442513334,-2.539959869243063,1.8784117772279743,2.5342423894201858,3.7201519367669817,3.277057964219722,2.8790758488149066,0.0042255650143729895,-0.7522337516879958,-1.6914850564187631,-0.04173336728788968,2.0451533326620464,1.8457836966928554,-0.027093092186063927,0.5916862959164035,-2.1309373546950994,-1.5671970236842938,-1.592208565297753,-0.16754530379125043,-0.6918721809606865,-2.3478816462896788,-6.984365662714161,-6.392722020259221,-3.1027180992172703,-3.2806461908364213
